{"layers":[{"out_depth":1,"out_sx":28,"out_sy":28,"layer_type":"input"},{"sx":5,"sy":5,"stride":1,"in_depth":1,"out_depth":6,"out_sx":28,"out_sy":28,"layer_type":"conv","l1_decay_mul":0,"l2_decay_mul":1,"pad":2,"filters":[{"sx":5,"sy":5,"depth":1,"w":{"0":-0.03166042514645758,"1":0.011951605861041404,"2":0.12075603125675065,"3":0.19177927760346025,"4":-0.06631400200305351,"5":-0.09906960622930452,"6":-0.024707422401449245,"7":-0.4272704924144097,"8":-0.30424397637373163,"9":-0.11314092277236669,"10":0.22261006055209895,"11":-0.03725002795984414,"12":0.19402616622653693,"13":0.2974862543759112,"14":0.09492195637822932,"15":-0.00358683657463206,"16":0.3740349053389237,"17":0.4664818826958511,"18":0.15402630598437841,"19":0.12923665793488098,"20":-0.08283073462738752,"21":-0.1849827053382997,"22":-0.4013323612528572,"23":-0.024745136204353962,"24":-0.28478593419944714}},{"sx":5,"sy":5,"depth":1,"w":{"0":0.21133400716482098,"1":-0.15036464813792672,"2":-0.23731666539012009,"3":-0.4200199848338199,"4":0.42226942527140904,"5":0.035774562548140335,"6":0.032965810818419976,"7":-0.13059213437772604,"8":-0.45051032371749716,"9":0.023214264227603944,"10":-0.0435455435149609,"11":-0.19316835628215054,"12":-0.32521633249205617,"13":-0.20055283133518098,"14":-0.24922748743469572,"15":-0.22139892810474285,"16":-0.016698937220314333,"17":0.20180426853667138,"18":-0.16368827082167994,"19":-0.29950296296562257,"20":-0.44396441473290016,"21":-0.2432671467930372,"22":-0.21182352385297706,"23":-0.1369202729325936,"24":-0.33294208125468344}},{"sx":5,"sy":5,"depth":1,"w":{"0":-0.13411738705355922,"1":-0.3376876958718294,"2":0.262763710128981,"3":0.26137042964443785,"4":0.08338979563209345,"5":-0.2319134261672039,"6":0.23133732614798153,"7":-0.10257938710940605,"8":0.18672639705349203,"9":0.3014122540657296,"10":-0.10273038452357088,"11":0.27970797235293726,"12":-0.10355294247222607,"13":-0.1251359306047419,"14":0.04093951424230947,"15":0.05521022820784331,"16":-0.17397075113121996,"17":0.13940266767422152,"18":-0.132928118746821,"19":0.21634136794158879,"20":-0.12614708353127677,"21":-0.2408749708437948,"22":0.18570729889403942,"23":0.07342334761105883,"24":-0.07927259651004885}},{"sx":5,"sy":5,"depth":1,"w":{"0":-0.060606695463734685,"1":0.23174764307399767,"2":-0.0843375572638187,"3":-0.06569167944073609,"4":0.05108938056456935,"5":-0.060483166447870496,"6":0.393119537626888,"7":-0.14088175210130846,"8":0.2077107046349674,"9":-0.2290917576532727,"10":-0.19113996577469114,"11":0.48811232469622534,"12":0.05116499719928004,"13":-0.23319106970663556,"14":-0.060226804030241034,"15":0.25595011291592973,"16":0.006770965601654776,"17":-0.0441007587803645,"18":-0.08576868501300638,"19":0.15164663802517014,"20":0.07387628601095324,"21":-0.0797326614167608,"22":0.09580490716311564,"23":-0.00662073097379312,"24":-0.06191535776185506}},{"sx":5,"sy":5,"depth":1,"w":{"0":0.012098353335040148,"1":-0.010131249476344521,"2":0.5309403291208338,"3":-0.13419809001903157,"4":-0.07910188108375892,"5":0.0697453555814957,"6":-0.05887697088354169,"7":-0.9357134891812627,"8":-0.31164767596540605,"9":0.060120005785177136,"10":-0.39428535134971204,"11":-0.5957276209128233,"12":-0.23727029533425206,"13":0.23437256018728583,"14":0.003281694326618756,"15":-0.49081839675002653,"16":-0.1362989190021344,"17":0.3421218736620197,"18":0.24615076202348307,"19":-0.0288516684460239,"20":-0.33955986175254976,"21":0.4215384611264108,"22":0.18901549245823568,"23":-0.07815756823033183,"24":-0.18352183235745415}},{"sx":5,"sy":5,"depth":1,"w":{"0":0.03162375676516628,"1":-0.21103355537763457,"2":-0.16713607754532753,"3":0.30603770071531833,"4":-0.15719574858080756,"5":0.09923871402337348,"6":0.0915895475979209,"7":-0.3808581589053249,"8":-0.412303933660154,"9":0.22295122924679608,"10":-0.01333385060707092,"11":0.2804385331679275,"12":0.13456111100984272,"13":-0.29032935140307486,"14":-0.15636837823789923,"15":-0.4298970923974194,"16":-0.06522760939308313,"17":0.32620915503488873,"18":0.08824063650972526,"19":-0.13418111135208888,"20":0.1814268630636592,"21":-0.4313245112678973,"22":-0.11138441092657717,"23":0.28487872912190787,"24":-0.025686754634645995}}],"biases":{"sx":1,"sy":1,"depth":6,"w":{"0":-0.2335735605901311,"1":0.16146072835008698,"2":-0.4416139230877132,"3":-0.3907910446658587,"4":-0.010157041543998964,"5":-0.005339557676508686}}},{"out_depth":6,"out_sx":28,"out_sy":28,"layer_type":"relu"},{"sx":2,"sy":2,"stride":2,"in_depth":6,"out_depth":6,"out_sx":14,"out_sy":14,"layer_type":"pool","pad":0},{"sx":5,"sy":5,"stride":1,"in_depth":6,"out_depth":16,"out_sx":10,"out_sy":10,"layer_type":"conv","l1_decay_mul":0,"l2_decay_mul":1,"pad":0,"filters":[{"sx":5,"sy":5,"depth":6,"w":{"0":-0.06504471593955745,"1":0.046577393818292526,"2":-0.31347685849993007,"3":-0.8469868422067928,"4":-0.3524373555881519,"5":-0.1302759831102765,"6":0.02517046659541402,"7":0.029664380982853403,"8":-0.04966707279221362,"9":-0.5475195204990428,"10":-0.18205552268877243,"11":-0.10277602077368873,"12":0.11493679449746709,"13":-0.04963308846728453,"14":-0.2137768008124536,"15":-0.17433513965152833,"16":0.0460652271722461,"17":-0.09252674540802067,"18":-0.05154576937219332,"19":0.1270692402379752,"20":-0.4704500176490711,"21":-0.12003598279540247,"22":-0.07582381060467548,"23":-0.040223433794804954,"24":-0.21521335259085772,"25":0.23180328980297762,"26":-0.4961946130709273,"27":-0.31733042031237224,"28":-0.25625071315625036,"29":-0.012370502254058743,"30":-0.05099577917892166,"31":0.015810839892040615,"32":-0.1237640445254691,"33":-0.3128328828717925,"34":-0.16666933151550392,"35":-0.13634265062799156,"36":0.027777521559074488,"37":0.07840123252906842,"38":-0.10491060691816588,"39":-0.26302342533173956,"40":-0.1132753429704026,"41":-0.019175367150266756,"42":-0.2101754171532011,"43":-0.006983208168374444,"44":-0.2066664785307579,"45":-0.181946320111317,"46":-0.13082745632469142,"47":0.04917988492760924,"48":-0.08479659270182481,"49":0.11773723427413336,"50":-0.336648167664345,"51":-0.3866534931267459,"52":-0.18819268337532125,"53":0.07588442977840747,"54":-0.09637282369352562,"55":0.12765409484590629,"56":-0.30334872847528394,"57":-0.4024360279149782,"58":-0.11957821233490916,"59":0.06431882203547692,"60":-0.19436852378667058,"61":0.04599854953139134,"62":-0.19809665028684917,"63":-0.22065763698232987,"64":-0.20113598558849125,"65":-0.024081695955902375,"66":-0.1807443428344567,"67":0.08311701075980253,"68":-0.25551636426785274,"69":-0.0829237607491562,"70":-0.1833777934688343,"71":0.10255380979533839,"72":-0.09550941335875245,"73":0.026346765738355888,"74":-0.21916726260304886,"75":-0.17461785005925856,"76":-0.11223949739453991,"77":-0.07290008211358069,"78":-0.24284490103837503,"79":0.10772519763059261,"80":-0.4499872005235331,"81":-0.2845451274182448,"82":-0.007086954684984744,"83":-0.03695234396000055,"84":-0.15096640079124085,"85":-0.06265579431497914,"86":-0.2521078932144531,"87":-0.43115020727110637,"88":0.02157277996013894,"89":0.04980960955677231,"90":-0.24838268080779702,"91":0.2660593233333738,"92":-0.07279469130237728,"93":-0.14428686953691472,"94":-0.1362959244554381,"95":0.10961578589168976,"96":-0.11409480973160699,"97":0.2730560195400659,"98":-0.21175261094375375,"99":-0.30770807584322607,"100":0.08630974390921793,"101":0.0029326062213764293,"102":-0.2284828757886535,"103":0.135357528917788,"104":-0.23448778104511203,"105":-0.310176374495617,"106":-0.2326029718150756,"107":0.03142438993330658,"108":-0.314487607335684,"109":0.07446846277916928,"110":-0.1710965352897864,"111":-0.4855120605255773,"112":-0.02197308123595256,"113":0.13535795280564408,"114":-0.13270636615948406,"115":0.02124790753463526,"116":-0.0004526741178579747,"117":0.004826719766560108,"118":0.30475128346172176,"119":0.024497686168237803,"120":-0.16821435431098172,"121":0.3692065205321291,"122":-0.121951622040359,"123":-0.06658707721547795,"124":0.1068530166300206,"125":0.056263112923269624,"126":0.009132585354559424,"127":0.3422361937295301,"128":-0.1349680251678508,"129":-0.21567747928714315,"130":-0.042899168551049374,"131":-0.0740464799299664,"132":-0.2690584936364292,"133":0.2857406368510512,"134":-0.01694464594242868,"135":-0.24623789591855635,"136":-0.30538430716334053,"137":0.11506213626273404,"138":-0.2262533366131031,"139":-0.1373639798136233,"140":0.050990861786902514,"141":-0.14543683582538613,"142":0.20526224171588625,"143":0.16713137309142007,"144":0.0913742246036025,"145":0.017019999241501774,"146":-0.0986205402730851,"147":0.017833724015303448,"148":0.434899882604415,"149":-0.2620430150101532}},{"sx":5,"sy":5,"depth":6,"w":{"0":-0.16828792819138694,"1":-0.0287161149526111,"2":-0.20879715852112254,"3":0.16418744770010202,"4":0.29914152785443876,"5":0.12032293709714958,"6":0.015719166781203865,"7":-0.17459958770236622,"8":0.03276816336808918,"9":0.021120970882393855,"10":0.11399502339714761,"11":0.005577747259563528,"12":-0.08107847525252034,"13":0.011154570804369983,"14":-0.0017023440489700537,"15":-0.13173615855092383,"16":0.1200014115148146,"17":-0.031148072728397848,"18":-0.00880782711412616,"19":-0.013498832617291262,"20":-0.11859333774920014,"21":0.06029502569534801,"22":-0.09858834360217197,"23":-0.021946980696801146,"24":-0.08195953551048597,"25":-0.11967562064544525,"26":-0.14459430557875982,"27":-0.1567660017505197,"28":0.0030438017535301337,"29":-0.013234771693924893,"30":-0.09847009180684597,"31":-0.14592980490076135,"32":-0.07069360248762765,"33":0.13478624821618201,"34":0.031488605832599305,"35":0.021552352955807767,"36":-0.07351799390235635,"37":-0.5423812505093523,"38":-0.11531470655762348,"39":0.18117173725880248,"40":0.14331887598335277,"41":0.15970720747612602,"42":-0.0010932681543355273,"43":-0.006121920526067974,"44":-0.061634802454304485,"45":-0.21429055850880968,"46":0.04909405405143392,"47":0.1399479628648925,"48":0.05232128030711585,"49":-0.06648685740879685,"50":-0.11765538989364296,"51":0.04744914278215013,"52":0.16685595794879657,"53":-0.07393902216860578,"54":-0.07317740601902623,"55":-0.030487413752828197,"56":-0.1261471344623471,"57":0.015775509391037598,"58":0.16055597503093852,"59":0.060018108426143246,"60":-0.38105273590449495,"61":-0.22280517000123734,"62":0.19537819265859815,"63":0.0472419448913741,"64":-0.3041478845211436,"65":0.04680810450889198,"66":0.11411819266967817,"67":-0.5861726467768306,"68":0.029271293350475368,"69":0.20787092949915045,"70":-0.2607951672808715,"71":0.3450473350781901,"72":0.12115565950115241,"73":-0.4391732734888566,"74":0.022313533910244043,"75":0.00013340453102355905,"76":-0.27359021735861105,"77":-0.114796226186359,"78":-0.03850500441694523,"79":-0.21910674725701815,"80":0.003172346872004957,"81":0.029386414340768885,"82":-0.00426129875731999,"83":0.050198843017869144,"84":-0.15543030066433827,"85":-0.08924856244505763,"86":-0.043931454969738756,"87":-0.03230769653706075,"88":0.20049072737441442,"89":0.20169333736780073,"90":-0.32066440365291715,"91":0.23800052899912116,"92":0.3173574326259718,"93":-0.11358376891233388,"94":-0.12339360735637384,"95":-0.01805228228602002,"96":-0.23018061803275777,"97":-0.10068789061076096,"98":-0.07381318338699736,"99":0.04469861218464494,"100":-0.24291474180329595,"101":0.08067870836507317,"102":0.11321647329488042,"103":-0.14577264893853625,"104":0.09248536220059869,"105":0.17974573962249588,"106":-0.23228075446448093,"107":0.3294766899546277,"108":0.05980174979151346,"109":-0.13805973943975072,"110":-0.20907816918972763,"111":0.015504409771700488,"112":-0.07722084942095213,"113":-0.05916040226100932,"114":-0.0875822114702413,"115":-0.18571827967123086,"116":0.01227198928029601,"117":0.19019535670256876,"118":0.23481345692486452,"119":-0.14234300178530704,"120":-0.29444996520894934,"121":0.24329483971126578,"122":0.14686237089487594,"123":-0.07238459977400039,"124":-0.07649094518788382,"125":0.059677763904203374,"126":-0.23574741478456587,"127":0.17829908088316193,"128":0.16331907865099946,"129":-0.09611342105031782,"130":0.13159448114987124,"131":-0.10167574640481183,"132":-0.10372160871546778,"133":0.2801532310437865,"134":0.0472680628087047,"135":-0.07609867749332458,"136":-0.11266585747804503,"137":0.07435916961079671,"138":0.14961606660597568,"139":0.09723927724960764,"140":0.02658219992271644,"141":0.1759843873949847,"142":-0.2078921182769743,"143":0.17138601268279197,"144":-0.0923632894818448,"145":0.17836576641620244,"146":-0.06258640501308683,"147":-0.09252107358025027,"148":-0.08882844535077267,"149":-0.15057688489759075}},{"sx":5,"sy":5,"depth":6,"w":{"0":0.055630947164405066,"1":-0.20325973036332132,"2":0.2674049135281004,"3":-0.06554007422616187,"4":0.1840452895515781,"5":-0.004428179836606626,"6":0.09599291432028406,"7":0.02993138223007234,"8":-0.06379489103016105,"9":0.018594423734093268,"10":-0.07261414576436735,"11":-0.23280451993505769,"12":0.012082942649958088,"13":-0.14065854117602228,"14":-0.0826537657570712,"15":0.08373356093603607,"16":-0.2140942537364371,"17":-0.268566172094155,"18":-0.10547677928662268,"19":0.036814553987358174,"20":-0.15828789275016034,"21":-0.3750706517001658,"22":-0.19582935433899867,"23":-0.34468049396814965,"24":0.038819496247714164,"25":-0.10244305753620112,"26":-0.1515884345131215,"27":-0.627249971215996,"28":0.001927447366750224,"29":-0.19714728193461423,"30":-0.1389167683427,"31":-0.274286186760239,"32":0.05809712599350763,"33":0.003728149876600738,"34":0.05092711720346426,"35":0.024739560208613967,"36":-0.01973175412886037,"37":-0.0634394132658682,"38":0.11740654908558337,"39":-0.18852394748741466,"40":-0.2272063357860498,"41":-0.2156383978193743,"42":-0.2284939844332955,"43":-0.46007471995285765,"44":-0.061489566286943284,"45":0.24662510934713813,"46":-0.009925590307182198,"47":-0.019803565232125342,"48":-0.540892362799141,"49":-0.1326835059300694,"50":-0.05761068550093273,"51":-0.11506610606135331,"52":-0.3108118689643859,"53":-0.31342055302097843,"54":-0.42546495256477135,"55":0.15206872948207686,"56":-0.31415234031375416,"57":-0.6682262404008413,"58":-0.22950540820474682,"59":-0.1221565542265014,"60":0.042317147396002654,"61":-0.2393079741237957,"62":-0.10707980410138153,"63":-0.0020724327980717015,"64":0.019295981124646148,"65":0.011293383317185025,"66":-0.030933963142491576,"67":-0.2305936050797371,"68":0.19054843671117502,"69":-0.226154433669088,"70":-0.01781646384289008,"71":-0.05347728854893075,"72":0.09820733657175072,"73":-0.5750863079882866,"74":0.05956407855580385,"75":0.4375383764158874,"76":0.392415659981013,"77":-0.09769253381054042,"78":-0.2547644576117455,"79":-0.14437662714737945,"80":-0.13482486742681063,"81":0.20846942402061225,"82":-0.14788381048324312,"83":0.04282661793819925,"84":-0.2206119902656989,"85":0.27046187603240046,"86":-0.11132789092683205,"87":-0.7198053829589539,"88":-0.15883996659399835,"89":-0.022096493622135498,"90":-0.013844020086743975,"91":0.06145358420726712,"92":-0.2422892992183756,"93":-0.054799848019227354,"94":-0.04843077396465539,"95":-0.18761747945011803,"96":0.039554548231283786,"97":0.025190727563285425,"98":0.036226666890572315,"99":-0.25559107236359313,"100":0.06057761792287782,"101":-0.078633595513987,"102":0.2816782540219828,"103":-0.29180742748509614,"104":0.26132484051357535,"105":0.1564375818977607,"106":0.22662796782794542,"107":-0.20593264575870568,"108":-0.08283041127797257,"109":-0.03649323102671535,"110":-0.19671561560698336,"111":0.37149235760030835,"112":0.02191158989369781,"113":0.10133245771457002,"114":-0.10637228102791649,"115":-0.03581851527649291,"116":0.020944346592153783,"117":-0.3703033755622373,"118":0.049017048889060486,"119":-0.12871113103192405,"120":-0.3143967436426314,"121":0.23017704547824244,"122":-0.22284817149773758,"123":-0.11223380782330024,"124":0.035175823986275494,"125":-0.043489155334419334,"126":-0.026447131338804376,"127":0.30682136183235537,"128":0.0737886538261644,"129":-0.1625682646078961,"130":-0.03453356481619287,"131":-0.10162296612144979,"132":0.2543856161875582,"133":-0.026164123801738888,"134":0.0422561163410727,"135":-0.2130440961700257,"136":0.03514932430113246,"137":-0.053398021812169585,"138":0.02770013471141916,"139":0.01887133334553836,"140":-0.39231170069086463,"141":0.2697042368166251,"142":-0.05872121267144681,"143":0.05908888619728289,"144":-0.12959510977162159,"145":0.0558131314608473,"146":0.13507859684027052,"147":-0.2989255696524265,"148":0.008486483401417645,"149":-0.29137800718828727}},{"sx":5,"sy":5,"depth":6,"w":{"0":-0.01741889422034799,"1":-0.2391684389049381,"2":0.03481272233739165,"3":-0.28155927533123803,"4":0.10540798822626199,"5":-0.16711824886902796,"6":0.041619669784006975,"7":-0.49028712352647114,"8":0.2060814678050526,"9":-0.22139741815357214,"10":0.09245885943312765,"11":0.08491386817188942,"12":0.18521151843362563,"13":-0.2933085320962861,"14":-0.056309236869984354,"15":0.14156597948271202,"16":0.2812413483504077,"17":0.22229476289742894,"18":-0.015723560777427995,"19":-0.24571999770361272,"20":0.19585655544752284,"21":0.15271892509412602,"22":0.14192387942196852,"23":0.22364996019530317,"24":-0.06575389937789342,"25":-0.26952934138405676,"26":-0.06271200208605204,"27":0.21534625373055916,"28":-0.14439387672875814,"29":-0.003966367694032103,"30":-0.026731429386232082,"31":-0.21700071065581997,"32":-0.23623764720692997,"33":-0.31986548448628904,"34":0.1629045529463704,"35":0.06057006926277724,"36":-0.045695680077046275,"37":-0.29777756463077304,"38":0.12277746889829251,"39":-0.1430748093935163,"40":0.4105524235077122,"41":0.08722325952802944,"42":0.23558083125180884,"43":-0.3297933714285048,"44":0.1622765182552052,"45":0.03739693909543131,"46":0.07360481010646969,"47":0.01569222350260565,"48":0.06188104928490216,"49":-0.09910337762291539,"50":0.24557338348926896,"51":0.033385377713674565,"52":0.12418399091188034,"53":-0.13631942683749684,"54":-0.19422384033305848,"55":-0.3638656076493808,"56":0.17072662361650864,"57":0.37576063174757346,"58":-0.08583478393207276,"59":-0.015554086325255232,"60":0.08681516924194277,"61":-0.3010413635360519,"62":-0.13758853142217073,"63":-0.22334901303032276,"64":0.31030061796528674,"65":-0.10379104565423199,"66":0.08949287283822492,"67":-0.2365675868848821,"68":0.10946402216635072,"69":-0.05378441117668612,"70":0.1893047373486971,"71":-0.1742970748265274,"72":0.23390394702715117,"73":-0.231061811724298,"74":0.2578215260859761,"75":0.007249124008824709,"76":0.1963333001779182,"77":-0.41194685046760976,"78":-0.09176537486119639,"79":-0.2950082019395105,"80":0.040367891466555894,"81":0.10880469525218915,"82":0.0733597436748677,"83":-0.1421161671276133,"84":-0.2786024755625016,"85":0.14341940262763883,"86":0.12455835628647463,"87":0.08542947522971364,"88":-0.019827371093142577,"89":-0.04329189801638991,"90":-0.22583120139859833,"91":0.07723835346681067,"92":0.008692177139000253,"93":-0.2233920121222612,"94":-0.12929150184473992,"95":-0.24765165446660375,"96":-0.02887674297887888,"97":0.0592766152726217,"98":-0.05225869491482789,"99":0.05906066886674709,"100":0.0607534746509985,"101":-0.08189290404083172,"102":-0.2515410159658573,"103":-0.18132817251832115,"104":0.04509237491577973,"105":-0.13289993686304907,"106":0.28793901274848677,"107":-0.07902216790920046,"108":-0.188872608181594,"109":-0.1036586245176274,"110":-0.05612802009278939,"111":-0.17544423671532294,"112":0.2750780221194345,"113":-0.05884290171245164,"114":0.05347490201080422,"115":0.0034269787987273584,"116":-0.0021948685736488966,"117":-0.24608361269688792,"118":0.09746467931999374,"119":0.3022110368531662,"120":-0.08868578877808003,"121":0.10354965620279126,"122":-0.23380615326924328,"123":-0.26412627468829536,"124":-0.16903719226785124,"125":-0.22806190414708782,"126":-0.1506924992709021,"127":0.08274475739148014,"128":-0.13203965289084277,"129":0.0032907333652208255,"130":0.021032780076960425,"131":-0.0513060928651769,"132":-0.059640688338038955,"133":-0.10472874365543342,"134":-0.06944044640118147,"135":-0.20762680370090364,"136":0.08894570789959746,"137":0.04598562555869924,"138":0.06129654435288586,"139":-0.13787794985376506,"140":-0.08049270169182784,"141":-0.2533509511774274,"142":0.06597571491483453,"143":0.18238853077992745,"144":-0.04760625397579684,"145":-0.14960397713742035,"146":0.0661293041505796,"147":-0.0869713519433503,"148":-0.1536825190167286,"149":-0.10514657684649233}},{"sx":5,"sy":5,"depth":6,"w":{"0":0.12069944180365422,"1":0.04757601558958436,"2":0.2846430703954704,"3":0.2164738143607634,"4":-0.055959207973327575,"5":0.2355954365797828,"6":0.06339478489394756,"7":-0.3226355659800083,"8":0.21425726860203487,"9":0.1563695801011582,"10":0.006746015303115612,"11":0.3052733140586449,"12":0.03357991995678351,"13":-0.0057602996870375145,"14":0.00429015440619102,"15":0.0956583409064176,"16":0.04535066451324983,"17":0.1891675428320092,"18":-0.2322284606717537,"19":-0.15239978330979784,"20":-0.2465131659997546,"21":0.36165986114526505,"22":-0.10010781811648446,"23":0.14577164256751618,"24":-0.2478651466458014,"25":0.2792695213099512,"26":-0.05750056700011475,"27":-0.14820136266858008,"28":0.07282781904262346,"29":0.2111202343700463,"30":0.025376707360450505,"31":0.2450512131147972,"32":0.0760739273427249,"33":0.09733601107172532,"34":-0.06255453215039111,"35":0.09466699966354315,"36":0.014840234797370703,"37":0.21844356660662026,"38":-0.03660690275138477,"39":0.1753986843043296,"40":0.024053832682337063,"41":-0.015113718860769603,"42":-0.3049334144404244,"43":-0.09869641278090478,"44":0.20991888257953348,"45":0.10817846630334088,"46":0.15271268604348753,"47":-0.01874895307918662,"48":-0.32235778402203075,"49":0.18291692869615467,"50":-0.22380109915100987,"51":-0.030721310880769695,"52":-0.28186993221419687,"53":0.16097487024469015,"54":-0.26256900964019547,"55":0.10426576408284097,"56":0.1633854227894357,"57":-0.2756700398624046,"58":-0.13242234572138795,"59":-0.08111450267462762,"60":-0.0833403307729178,"61":-0.10686609289964505,"62":0.010713444293872021,"63":-0.09536492967529778,"64":0.11985392160928274,"65":0.051203231403382475,"66":-0.2720098891183987,"67":0.08064505981349214,"68":-0.0024186628295230486,"69":-0.08346384217384488,"70":0.24750116935005267,"71":0.19813273318312222,"72":-0.23386761858281885,"73":0.05516226112794248,"74":0.03129172624151048,"75":0.016142311257195754,"76":0.2242896815399537,"77":-0.004730124420330756,"78":-0.2543772835217806,"79":0.19295298424288146,"80":-0.14804617889318542,"81":0.01661393632828718,"82":-0.4288617306539309,"83":0.16146063169144434,"84":-0.3117062027584341,"85":0.0766668765373612,"86":-0.11115556915700296,"87":-0.2727848226095366,"88":-0.08032772238654738,"89":-0.052097800979403336,"90":-0.3261287551871637,"91":-0.08318723274221539,"92":0.2068990615761471,"93":-0.10335186695694212,"94":-0.014409473840776493,"95":0.20988369255016853,"96":-0.2571756730046922,"97":-0.14906991652957902,"98":-0.14639200193675353,"99":-0.15776718403291895,"100":0.21707829131385306,"101":0.1001710220197658,"102":-0.06652313206514013,"103":-0.020702942628260022,"104":-0.0857842016950247,"105":-0.13232332468187322,"106":-0.1522966428167823,"107":0.08502853203960004,"108":-0.5398093904863773,"109":-0.006512277542994197,"110":-0.19064448007822382,"111":-0.12594862408316682,"112":-0.11363620031305775,"113":-0.21467344169785477,"114":-0.19731260405926204,"115":-0.03330077560245569,"116":-0.14661826302228173,"117":-0.1793268735187346,"118":-0.13796915311331043,"119":-0.13091951492110906,"120":-0.26347486280767207,"121":-0.09758570776378489,"122":0.11144974284749923,"123":-0.28327011357981435,"124":-0.12295746034911868,"125":-0.0606589643520455,"126":-0.0631496998636532,"127":-0.06362344293498241,"128":-0.27730878059813663,"129":0.01248435526490747,"130":0.10826805644183415,"131":-0.03423841241179137,"132":-0.25419427977913006,"133":0.14756334030425575,"134":-0.3490487341711682,"135":-0.15099720641025208,"136":-0.0513756212144552,"137":0.11712841542471808,"138":-0.44000435379345765,"139":-0.06217166883706238,"140":-0.030751694031429015,"141":-0.27123898147778636,"142":0.04654281162880097,"143":-0.10600146223683245,"144":-0.4205235227188512,"145":0.0007641117775741247,"146":-0.19910576177574746,"147":-0.10023762297971286,"148":-0.21592867640253371,"149":-0.2540493682804471}},{"sx":5,"sy":5,"depth":6,"w":{"0":-0.02228787689074284,"1":-0.01664395318227204,"2":-0.1846686259247395,"3":-0.20514896559515627,"4":-0.26574181669821323,"5":-0.06710837707747162,"6":-0.07578387903215503,"7":-0.058683665156392124,"8":-0.06373412418518898,"9":0.12100322965432313,"10":-0.4072246711327043,"11":-0.07813734332490677,"12":-0.1279964754769377,"13":-0.2548269469955557,"14":-0.035341289662739625,"15":0.08813172420922663,"16":-0.07305964092411944,"17":0.050542636576183644,"18":0.08824623111562635,"19":0.014715725319100413,"20":0.01075895832572348,"21":-0.16495093802565133,"22":-0.0641042535621401,"23":0.11006302149394397,"24":0.015635202952342782,"25":-0.024774365056715375,"26":-0.10380324721096827,"27":-0.046581976532676865,"28":-0.0241362560388615,"29":0.034764769493122585,"30":-0.29299340059027856,"31":-0.007803018133607139,"32":-0.024971090267205055,"33":-0.061761668428477065,"34":-0.03810355405237572,"35":-0.16406225732918395,"36":-0.11446100447549083,"37":-0.1487678871591784,"38":-0.06167742007042093,"39":0.030952544128151765,"40":-0.39467437169356256,"41":-0.06511363768726763,"42":-0.23739619752095847,"43":-0.3856454698540525,"44":0.11316643837355911,"45":0.08204014881238052,"46":-0.19188188403535003,"47":0.02731889935334108,"48":-0.2167088005822565,"49":-0.025193251657316666,"50":0.031831037569897754,"51":-0.028883611581009407,"52":-0.258187933108824,"53":0.09914549260964173,"54":-0.012859243381419394,"55":-0.18917252122447714,"56":-0.05355588856463762,"57":0.05776454789317364,"58":-0.25831962227799593,"59":0.048049371139831334,"60":-0.3041273743693228,"61":0.12062538355746413,"62":-0.1078912250104836,"63":-0.06445000390657737,"64":-0.4470287721961078,"65":0.031087430499721746,"66":-0.36327543608374496,"67":0.16187476350067914,"68":0.02955595010729302,"69":-0.02861435407728761,"70":-0.6193727250607166,"71":-0.36008610034368416,"72":-0.07249096906169165,"73":-0.19345251735530902,"74":0.07924137736546001,"75":0.0806488752866146,"76":-0.6512961172025207,"77":-0.08314285883573895,"78":-0.1199524685761372,"79":0.03870256193510776,"80":-0.09755545406954323,"81":-0.07469410178264821,"82":-0.3327980196113799,"83":0.17997957525704267,"84":-0.05776376367480415,"85":0.11715334291484994,"86":0.01558810723171511,"87":-0.012939110523838091,"88":-0.10834855367723652,"89":0.05614847854480977,"90":0.24319519448890764,"91":0.08961648651916455,"92":-0.1935709498355128,"93":0.02546282858225268,"94":-0.40652731331989733,"95":0.0579867216490903,"96":0.1886259165359474,"97":0.07814271285429332,"98":-0.1248449826823733,"99":0.12759966127022018,"100":-0.35123720616509185,"101":0.061191728722072236,"102":0.17603921513650564,"103":0.043144685601575056,"104":-0.024383065751752607,"105":0.14354812625817362,"106":-0.4621481754306281,"107":-0.06583490162889996,"108":0.15716954013340687,"109":0.023680761105974488,"110":0.022777313013269733,"111":0.246273601433095,"112":-0.17174149810082615,"113":-0.02480237330386882,"114":0.32519065195685765,"115":-0.007510071129932311,"116":-0.04185972176051124,"117":0.18077056919490317,"118":-0.1912779309208033,"119":-0.302204491038801,"120":0.1054372032397091,"121":-0.03406936576355157,"122":0.2022208213896638,"123":-0.1693300825686568,"124":0.058846619403770555,"125":-0.024584399019806937,"126":0.11112161491998569,"127":-0.13420897732516246,"128":0.04401975695448293,"129":-0.1880255253795639,"130":-0.08070330735543219,"131":0.007682383058877556,"132":0.15217463166258868,"133":0.11593228779956646,"134":0.13238462547536703,"135":-0.05132754461053385,"136":-0.09133735237434976,"137":-0.16626270400118134,"138":0.279009022749872,"139":-0.20950026020310714,"140":0.10553559924129387,"141":-0.007832836194491823,"142":-0.061840507692533124,"143":-0.27535324180954474,"144":0.20209061855574065,"145":-0.1913029769420966,"146":-0.010435021206549731,"147":-0.08242465008311943,"148":0.06887524591718021,"149":-0.14391006642969745}},{"sx":5,"sy":5,"depth":6,"w":{"0":0.004160845177439856,"1":-0.032954795088487206,"2":0.1852592747502335,"3":-0.11596480211804641,"4":0.06984205463946729,"5":0.04397035469261354,"6":0.19506969405886251,"7":-0.03163100988998096,"8":0.2162240944353173,"9":0.35017257530064255,"10":-0.055577050683795294,"11":0.11550326146226825,"12":0.29391542283898703,"13":-0.04172454179671315,"14":0.025351440365768866,"15":0.011146894007558687,"16":0.08902804895609248,"17":0.18421832118596104,"18":0.07471684474846685,"19":0.015501675147457938,"20":-0.14678925008737603,"21":-0.05250522470743814,"22":0.1794101141228786,"23":-0.010089556052021333,"24":-0.21073870118298768,"25":0.22666752241129373,"26":-0.43025868753883684,"27":-0.14233337249045927,"28":0.09334216002958004,"29":0.2607973955167698,"30":-0.19051423890213964,"31":-0.5086507903176267,"32":0.4157414259744574,"33":-0.20096421695268285,"34":-0.05179980053895488,"35":0.06372482981340853,"36":0.10015920710669292,"37":-0.21639257766143027,"38":0.10951317296378439,"39":0.21699669233404278,"40":-0.24126773702149504,"41":0.16766122864979718,"42":0.23783651850675785,"43":-0.5725865647378018,"44":-0.0007334704437795343,"45":0.028900653644232832,"46":0.003704627547932269,"47":0.023070253617062154,"48":0.17298003700683104,"49":-0.42193814154050463,"50":-0.08090031343907816,"51":0.06216937667999234,"52":-0.10667661608479444,"53":0.2507112101764229,"54":0.059186433973011474,"55":-0.048245689236125745,"56":0.061898865767455236,"57":-0.10178490381970033,"58":-0.16924807458281535,"59":0.29301636853131846,"60":-0.445266039945631,"61":0.21824964399429628,"62":0.23147452799497548,"63":-0.30117725048466354,"64":-0.3194534607146215,"65":-0.4135320285545106,"66":-0.02557114439704463,"67":0.04148743710736742,"68":-0.08338271870622314,"69":-0.08404473896073102,"70":-0.032781602320421745,"71":-0.04581626384902536,"72":0.06086399934974866,"73":-0.1348963315760259,"74":-0.005450105492618559,"75":-0.2530063468443081,"76":-0.02507363020915921,"77":-0.3582124193810539,"78":0.0009503976535641953,"79":-0.04314755639652871,"80":-0.06146896109014851,"81":-0.16356682436433598,"82":0.11683742440262192,"83":-0.19665536244933382,"84":0.14888382454699364,"85":0.05519258911712897,"86":-0.15367554825007929,"87":0.024614694217753967,"88":0.02119050410321603,"89":-0.08197771718830636,"90":-0.28409422943002627,"91":-0.0767294727162361,"92":-0.11640643601810481,"93":-0.17448551185893904,"94":-0.396784369255728,"95":-0.1791982162906429,"96":-0.16472481566231906,"97":0.021762480017419872,"98":-0.2653907215803366,"99":-0.010765559530193142,"100":-0.14115956781286174,"101":-0.10408319183016602,"102":-0.35562045987078267,"103":-0.009954511689814842,"104":-0.08494916272264465,"105":-0.4139724504543206,"106":-0.10691893010234849,"107":-0.2835446932565998,"108":-0.01817516336584735,"109":-0.12442563792363955,"110":-0.021157637648860132,"111":-0.15241156230344322,"112":-0.10145806835673037,"113":-0.11643531951534758,"114":0.0883663135995995,"115":-0.05197446383790429,"116":-0.3536201452850638,"117":-0.10852191657218511,"118":-0.15588565452624278,"119":-0.2902778962827467,"120":-0.055167035323300785,"121":0.11314692597933705,"122":-0.09862973404631328,"123":-0.32694765984326635,"124":-0.20733676364658105,"125":-0.10881069004975268,"126":-0.15270080395777433,"127":-0.1100807192548586,"128":-0.3507014903563731,"129":0.011046455779271052,"130":-0.03367961022090521,"131":-0.04679949646306699,"132":0.0478374221544939,"133":-0.2185444438710537,"134":-0.0225817861465952,"135":-0.04914810146524184,"136":-0.03860875313838595,"137":0.047794155038681625,"138":0.07977400060843857,"139":0.0056373315693062495,"140":-0.01246799382324028,"141":-0.13475449766205164,"142":-0.03480792624808961,"143":-0.12760026889663878,"144":0.052187369740033684,"145":-0.12385729260228308,"146":-0.18413225395421695,"147":-0.15192203200007962,"148":-0.18933537441010878,"149":-0.1426778932725819}},{"sx":5,"sy":5,"depth":6,"w":{"0":-0.08084639531911997,"1":-0.3838023501998519,"2":0.10646990049972616,"3":0.13403374975379487,"4":-0.13459013841748582,"5":-0.049284630653374455,"6":0.0015694131182952596,"7":-0.11143321790548963,"8":0.03716540366115932,"9":0.09682410649394615,"10":0.1748652229765393,"11":-0.19356249164712888,"12":0.01858192954771324,"13":-0.23041035987051403,"14":0.06764073647628442,"15":0.15582679466859783,"16":0.05399806335981959,"17":-0.3741989055966121,"18":-0.12619295275407225,"19":-0.2527585782840144,"20":0.1893889365316832,"21":-0.02852173644639307,"22":0.09886623922304562,"23":-0.4483967160655884,"24":-0.2737760093126341,"25":-0.4302917173028581,"26":0.11416615250864713,"27":0.07514773024961208,"28":0.07877310534633901,"29":-0.1697483456570972,"30":-0.3140835931499849,"31":-0.04700151725555441,"32":-0.029533008131538495,"33":0.09607825804927704,"34":-0.13677458885038682,"35":-0.05832525989275987,"36":-0.26367694970302435,"37":-0.01275998877756413,"38":-0.3071166310532302,"39":0.008272281241698794,"40":-0.0985798328668623,"41":0.23092976201799717,"42":-0.4416156110629832,"43":-0.08605626904433358,"44":-0.011940440883304499,"45":-0.1555556637309356,"46":0.1990700522102814,"47":-0.1447133068618324,"48":-0.4275238808248927,"49":-0.3209799929713257,"50":-0.061190314326511674,"51":0.20397500194455476,"52":-0.052699823318353774,"53":-0.29260239737334637,"54":-0.4753785374589956,"55":-0.1419977974677394,"56":-0.14526063168276201,"57":0.2613272111803626,"58":0.17962085716544254,"59":0.03915318365522775,"60":-0.40128829765518925,"61":-0.05487255968396461,"62":-0.04473414359478646,"63":0.24280093928436905,"64":-0.23356731616726834,"65":0.3184479229170485,"66":-0.35543833789142204,"67":-0.04691352574064063,"68":-0.1659186889096517,"69":0.10327147407901449,"70":-0.2015170551369214,"71":0.11203249796461477,"72":-0.5493515948120706,"73":-0.04096088172024429,"74":-0.01810877399519473,"75":-0.2749187780602364,"76":-0.13898930663007458,"77":-0.13595275760943343,"78":-0.17190121846789705,"79":-0.2305163872929696,"80":-0.19569085681007156,"81":0.2463418068832714,"82":-0.4364777486931001,"83":-0.15217943663106479,"84":-0.21754901865902915,"85":-0.022989223997212888,"86":0.04555736257118541,"87":0.14071908343247774,"88":0.05623909882662197,"89":-0.00041386898792409633,"90":-0.23859301179675477,"91":-0.028721901320793646,"92":-0.058466538143084605,"93":0.0807256192206865,"94":-0.2724267319477122,"95":0.14492252280725934,"96":-0.40289864717374596,"97":-0.0583694130841501,"98":-0.12085813435521259,"99":0.05553721969257096,"100":-0.1198102066097767,"101":0.04867380687398895,"102":-0.42993110049526834,"103":-0.02466788352156609,"104":-0.04093491591874598,"105":-0.28977897398369723,"106":-0.2521704393292501,"107":-0.17818293598470908,"108":0.13057417788844092,"109":-0.09373553683347213,"110":-0.19414883653140005,"111":0.2431572176416919,"112":-0.2728515869940312,"113":0.08855283836282922,"114":0.17324653371529092,"115":0.16609184735337382,"116":-0.10397413271420672,"117":0.0917304312686887,"118":0.06082766287941573,"119":-0.12407806087761629,"120":-0.14326186483467745,"121":0.1910126123552281,"122":-0.20934469339079714,"123":0.04352758672756822,"124":-0.32197109810703706,"125":0.20066497816081438,"126":-0.4091599447839245,"127":0.15530282846789353,"128":-0.358702983743177,"129":-0.041312062979737156,"130":-0.3480577578973333,"131":-0.07377679218229508,"132":-0.2432649115967379,"133":0.292242748973295,"134":0.1736452703736717,"135":-0.3461904252053699,"136":-0.5563790403532383,"137":-0.18560381198954476,"138":-0.0540117867489586,"139":0.13791301401096445,"140":-0.07634563600898063,"141":0.09024412822985442,"142":-0.34837488549027223,"143":0.1546547966584728,"144":-0.12594681106104796,"145":0.14893482662926807,"146":-0.14991897744510713,"147":-0.06375849049838177,"148":0.15486529068466548,"149":0.0011153965373712684}},{"sx":5,"sy":5,"depth":6,"w":{"0":-0.16036048401791117,"1":-0.27234556613013616,"2":-0.12271240424010509,"3":-0.1278173765882357,"4":0.15936361142644484,"5":-0.24113920879736947,"6":0.10658323975474679,"7":-0.178159410191836,"8":-0.09260143543220142,"9":-0.02171106403091308,"10":0.1450258121180057,"11":-0.07725878879742068,"12":-0.045215338416371945,"13":-0.15796698600378808,"14":0.0084090495569797,"15":-0.03991027288225117,"16":0.18360611124161044,"17":0.08146235156056952,"18":0.004659845554592276,"19":-0.09729683431426055,"20":0.02011266728760738,"21":-0.07293277656909997,"22":-0.12557194737690652,"23":-0.05164393497981228,"24":0.1223860339985818,"25":-0.1458750594515396,"26":0.08198852677135457,"27":0.07333555034414765,"28":-0.04366641931451668,"29":0.18331711476958437,"30":-0.05495037094485071,"31":-0.3482630496692662,"32":-0.12868858076155432,"33":0.12259297319784473,"34":0.07014240841928138,"35":-0.07443700968686288,"36":0.06966543383760573,"37":-0.03541723352624821,"38":-0.06186411074865311,"39":0.05970085527667642,"40":0.11139579895126714,"41":-0.048618228577574564,"42":0.06327735152812729,"43":-0.1820270673528076,"44":0.0717469527452681,"45":-0.09277156818450419,"46":0.10791049747924882,"47":0.013499393189511936,"48":0.11010880955268333,"49":-0.13275280142794482,"50":0.1959492232502987,"51":-0.05056330260840347,"52":-0.03909682968522814,"53":-0.14950635472299334,"54":0.12375905399506587,"55":0.005143630084484008,"56":0.14962926894004214,"57":-0.04364231714837008,"58":0.014723872265132651,"59":0.1109566768753743,"60":-0.024767486931442262,"61":-0.30750992884603584,"62":0.002450879062039206,"63":0.08533915140306195,"64":-0.04242226652967696,"65":-0.09110963910326385,"66":0.016389406888950356,"67":-0.0258316663289221,"68":0.16504911322240273,"69":0.22194808331494345,"70":-0.05033606305587127,"71":-0.16668021307853104,"72":0.01970067491950234,"73":0.06820991980106299,"74":0.04594916504616247,"75":-0.10953748971822214,"76":0.028199918502617285,"77":-0.22830186920002893,"78":-0.07240571381421501,"79":-0.07048789006238074,"80":-0.05954395483688551,"81":-0.45067906246535006,"82":0.22300457393028816,"83":-0.3739578795515132,"84":0.14070892129470317,"85":-0.03423993284164423,"86":-0.04783540824700142,"87":-0.2001658583470852,"88":-0.03990537820813968,"89":-0.07166724234034198,"90":0.2423248227749405,"91":-0.302014226591694,"92":0.04498645751745729,"93":0.5213521299594965,"94":-0.04095562510073553,"95":0.04023834170725217,"96":-0.11195498172653995,"97":-0.060175316038428225,"98":0.1976532043006248,"99":0.35277193810851704,"100":-0.21624933969319188,"101":0.003323603834686515,"102":-0.18716772378576144,"103":0.12088999467918635,"104":0.033191923453290556,"105":-0.19772933584253455,"106":-0.023348930692010692,"107":-0.20792021391716706,"108":-0.08382035977110626,"109":-0.02729891439852767,"110":-0.3715832945399366,"111":-0.5356618574153943,"112":0.0450281312100605,"113":-0.23361544281417942,"114":0.032512316800913696,"115":0.21991501675751884,"116":-0.10229749956864598,"117":-0.5319073968987091,"118":-0.1734155969098456,"119":0.011805245967662067,"120":0.10990478256044507,"121":-0.20211904232928216,"122":0.26991026572573,"123":0.41150273510227087,"124":0.11963891440466078,"125":-0.047638843875001016,"126":-0.11995660154386205,"127":0.38282509024173905,"128":-0.0776251326376818,"129":-0.06210830115593564,"130":-0.2659935498777761,"131":0.022154553755045485,"132":-0.17618446432447019,"133":-0.01953888534993983,"134":-0.4161560906887299,"135":-0.056709361101560544,"136":-0.4528098013725932,"137":-0.32881124098932485,"138":-0.19213377486647137,"139":-0.04950069489402513,"140":-0.601289226445595,"141":-0.5793306525711163,"142":-0.32342151321226853,"143":-0.22338297606617408,"144":-0.018703877758009156,"145":0.10037905668593278,"146":-0.4619174412976094,"147":-0.6481311654690033,"148":-0.5953291929396936,"149":-0.05213493009697433}},{"sx":5,"sy":5,"depth":6,"w":{"0":0.11926428457841731,"1":0.045859025357822394,"2":-0.15740409388941784,"3":-0.21390686349013124,"4":-0.27248100901162225,"5":-0.029047967747124127,"6":0.01243657059317506,"7":-0.09630055706837651,"8":-0.1508110264231902,"9":-0.2794669519832842,"10":-0.17294670056908956,"11":-0.19468804528449654,"12":0.05851566021962377,"13":0.23955656255258284,"14":-0.0877268481433458,"15":-0.35037050066416914,"16":-0.17616361238925518,"17":-0.14575053413720632,"18":-0.08116589036879884,"19":0.20854753995300102,"20":0.017812370820484848,"21":0.07781019495098802,"22":-0.20117292147987736,"23":0.03917592583113707,"24":0.11273683963834713,"25":0.21789682683659434,"26":0.35801122725792833,"27":-0.011585361584789912,"28":0.20384971334938323,"29":0.18045947844192872,"30":-0.19068483316815654,"31":-0.14893956476937104,"32":-0.3243834986215448,"33":-0.24730666322380718,"34":-0.09612356766903127,"35":-0.14319744717900418,"36":-0.2593513673694991,"37":0.007586584961721758,"38":-0.31124824142630775,"39":-0.44382602076256894,"40":-0.029252780718289417,"41":-0.05316210255984768,"42":-0.14152477326547463,"43":0.20907888390529533,"44":-0.03686574435144754,"45":-0.06596552204401611,"46":-0.1701570625871621,"47":0.12597630451500494,"48":-0.03751205350110324,"49":0.05421610597560476,"50":0.3122447920181123,"51":-0.13510339191724477,"52":0.08026589547088545,"53":-0.015412047323865216,"54":-0.016500981444886056,"55":0.1287348558521518,"56":0.33557222883475496,"57":0.22670467717301762,"58":0.09775488106668398,"59":0.044411006619411664,"60":-0.45333024327126736,"61":0.0025270269797234434,"62":-0.25980712228309344,"63":-0.45738566722140084,"64":-0.16500266384667212,"65":0.0386454487555732,"66":-0.1538405788864984,"67":-0.03294860980896745,"68":-0.22527076055246664,"69":-0.5076812658335267,"70":-0.17704139664181434,"71":-0.24297461515879148,"72":-0.02546893482159113,"73":0.16235804143311097,"74":-0.05642640651871387,"75":-0.2850379667135306,"76":0.0912658221001299,"77":0.09242115380226391,"78":-0.006044726015026352,"79":0.09306253640866996,"80":0.1787245935775072,"81":-0.12209011284568529,"82":0.1030254463766374,"83":-0.12286115983267124,"84":0.2508341476568472,"85":-0.059318430638694394,"86":0.32507147205870235,"87":0.12575929155343163,"88":0.18277669026193713,"89":0.09906482504237428,"90":-0.23940253521273286,"91":-0.06981170649792698,"92":-0.3934539706703225,"93":-0.33146302045511195,"94":-0.47673156668419064,"95":-0.10777858113417328,"96":-0.21048104110735216,"97":-0.13552261061583082,"98":-0.2381347254354329,"99":-0.3597496161570311,"100":-0.36979856813419343,"101":0.06087109658452903,"102":-0.23767714996461653,"103":-0.07075187080980842,"104":-0.07897653514693885,"105":-0.08017496119018651,"106":-0.3146636509700181,"107":-0.09404431835806734,"108":0.056997938954485614,"109":-0.013516343862903513,"110":0.28694423144418557,"111":0.0017143775448489307,"112":0.25515410272275446,"113":0.003976573139027285,"114":-0.017794716788844787,"115":-0.11616652934570727,"116":0.14701383864753523,"117":0.007310056726514613,"118":0.26614596143585945,"119":0.09185528771969538,"120":-0.1651030844830115,"121":-0.17455964615495748,"122":-0.29537818670500704,"123":-0.2207747433035938,"124":-0.601080066037491,"125":-0.08231737539312187,"126":-0.3727711126395429,"127":-0.03047269388551837,"128":-0.052908315818414584,"129":-0.22044762163372011,"130":-0.27062055325948203,"131":-0.057036888496680434,"132":-0.0918115513461366,"133":0.19144702262192692,"134":-0.05167529063255295,"135":-0.16671323397781548,"136":-0.03592458013704382,"137":0.006897798649319562,"138":0.030385857783073653,"139":0.1939704209701569,"140":-0.11109942077000468,"141":0.030946198361531837,"142":-0.09781519285384,"143":-0.10346247476322797,"144":-0.09496453070833377,"145":-0.14923120544412777,"146":0.27008698594544533,"147":-0.09074618734973743,"148":-0.003622546049861789,"149":0.1464382872052836}},{"sx":5,"sy":5,"depth":6,"w":{"0":-0.05455127956347296,"1":-0.026242227100120363,"2":-0.13721680186265398,"3":-0.18758825624306896,"4":0.32537853425732016,"5":-0.35613153016690263,"6":0.14001132064802224,"7":-0.31686613888863513,"8":-0.1510826846204284,"9":-0.15406707762569974,"10":-0.02928861824751273,"11":0.16434534327725278,"12":0.2422987835115765,"13":-0.5541869425830424,"14":-0.22207069755741818,"15":0.0726886359522001,"16":-0.07281670771782767,"17":0.3876082169925391,"18":0.17783586140058885,"19":-0.5369755338629143,"20":-0.24549274969438323,"21":-0.18514390160783037,"22":-0.2692068597550662,"23":0.28614062625224745,"24":-0.2505211914319092,"25":0.10519558591161235,"26":-0.12603189612629054,"27":-0.202114831271788,"28":-0.2617817155466936,"29":0.2548526373578936,"30":-0.11103732659071018,"31":0.23595693257072842,"32":-0.05070494544746885,"33":-0.09614496310159414,"34":0.28139685971231077,"35":-0.2200530389073869,"36":0.03128153511533344,"37":0.16457837757402172,"38":0.09917938159904914,"39":-0.1536272765315314,"40":0.21120750945314054,"41":-0.12897488980898864,"42":0.15915234787569035,"43":0.13250763102554516,"44":-0.0900255532643193,"45":-0.0428672676963268,"46":0.0764765220142369,"47":0.03548750316422006,"48":-0.10887425253221882,"49":-0.5960213086317933,"50":-0.062348465442194245,"51":0.06608608322912783,"52":-0.1521000829786723,"53":0.46356226704232345,"54":-0.1578368286020138,"55":-0.3044720401339033,"56":0.12731872062588742,"57":-0.1103856100894709,"58":-0.5313153882154455,"59":0.4184273611377334,"60":-0.18980206017980686,"61":0.027306065256763924,"62":-0.1338078627398404,"63":-0.11385304959810763,"64":-0.03733766500300505,"65":-0.06653874076343042,"66":0.0544277511952828,"67":-0.024943228312449054,"68":-0.10779770873887483,"69":0.08532419744991118,"70":-0.011415529062992074,"71":0.09622033346737977,"72":0.13044679695603212,"73":-0.040009863712926266,"74":0.1148186471984179,"75":-0.19873079918447237,"76":0.15428947042065927,"77":0.003476016237558265,"78":0.10819981376161576,"79":-0.02595882070612267,"80":-0.021293221493005214,"81":-0.014829704984181487,"82":0.17608649957205147,"83":-0.1601358715380636,"84":-0.39527537530180756,"85":-0.38995008889484345,"86":0.12335868499210323,"87":0.20962442498470596,"88":-0.2258411271917284,"89":-0.11998964192331088,"90":-0.09726539859780252,"91":-0.11521969931827819,"92":0.024742182912380232,"93":0.036747726490416424,"94":0.0078094461517698825,"95":0.10959809180584909,"96":0.0897743073937273,"97":-0.1968238102925613,"98":0.24455644911286986,"99":-0.03794791776108143,"100":-0.01980125890616459,"101":0.029287805241040347,"102":0.09498711607365022,"103":-0.3922595432126778,"104":-0.26516340865935767,"105":-0.002814186252144893,"106":-0.03527769595570536,"107":-0.06600373612507307,"108":0.06056997290367756,"109":-0.43463780387612816,"110":0.19013231194948196,"111":0.0625181412180876,"112":0.05271897931871884,"113":-0.11330220083838162,"114":-0.3041613973656508,"115":0.10632167388061267,"116":0.030219132130948637,"117":0.291500462901551,"118":-0.11495949597548724,"119":-0.255664179446255,"120":0.00904790050610722,"121":-0.10313095925226544,"122":0.13537672180445628,"123":0.0476605558769686,"124":0.0080139646529357,"125":0.05507867196208413,"126":0.04349290843371917,"127":0.020731935555750373,"128":-0.08440325718134192,"129":-0.016913328375793173,"130":0.005945827115205785,"131":0.1329876674434341,"132":0.045027261286121424,"133":-0.16649906992558852,"134":-0.02858372344346368,"135":-0.07004855800058335,"136":-0.011821805731804405,"137":-0.12145323667117154,"138":0.14310821783880845,"139":-0.2118681098273806,"140":-0.08009310676805727,"141":-0.03806787316529663,"142":0.2388214014517676,"143":-0.2748992431499396,"144":-0.35834250493500985,"145":0.05327112074684381,"146":0.16750066359182092,"147":0.03956689341878489,"148":-0.19244032006253842,"149":-0.11736229590385602}},{"sx":5,"sy":5,"depth":6,"w":{"0":0.03694607101177719,"1":0.06575023682253635,"2":-0.016378763960226816,"3":-0.1525985274362095,"4":0.03588177755275331,"5":-0.03668553443974772,"6":-0.06819945267048509,"7":0.05705922963845814,"8":-0.017589778665298286,"9":-0.033251611603013674,"10":0.06039867861193407,"11":-0.0654041404403994,"12":-0.03311771594781764,"13":-0.15955905587778152,"14":-0.06149319336640244,"15":-0.014921920356887679,"16":-0.09813502186624988,"17":-0.06952080034867766,"18":-0.13483890147092015,"19":-0.07438443786438562,"20":-0.059499424154997684,"21":-0.01558673714131661,"22":-0.04105672345291457,"23":-0.06591558842432652,"24":0.01547515705809023,"25":-0.04968402405048624,"26":0.07236458295860156,"27":-0.07771820989699262,"28":-0.09695515000489002,"29":0.14385713199350314,"30":-0.00037367404952938705,"31":0.04460222233423028,"32":0.08420791630418345,"33":0.060368011713367434,"34":-0.07668786945935606,"35":-0.09584607966631625,"36":0.12791988183517278,"37":-0.08306839295253414,"38":-0.03831639254013053,"39":-0.08148155362595784,"40":-0.0789750970120331,"41":0.059305205057521904,"42":0.0287870145183475,"43":-0.03249762244347956,"44":0.00224984425537252,"45":-0.07849353941511544,"46":-0.028861884803640853,"47":-0.051390375831755326,"48":-0.021630665251929655,"49":-0.06404046239683087,"50":-0.0857291557537487,"51":-0.10622514170215169,"52":-0.07398742301074604,"53":0.013583299650696426,"54":-0.061718749793296494,"55":-0.06722237906643407,"56":0.02417723900974549,"57":-0.05513229860580218,"58":0.006194479623061841,"59":-0.03495336730586287,"60":0.08320343429453167,"61":0.07015770964044851,"62":-0.04308425506886625,"63":-0.08433806633518794,"64":-0.0531775960343808,"65":-0.09561627338613228,"66":-0.024252732368983076,"67":-0.04490464803490969,"68":-0.0640485477739511,"69":-0.0449101168354265,"70":-0.006120834775436472,"71":-0.09531947225977448,"72":0.10696452649181597,"73":-0.014459466417647553,"74":-0.09959894989237401,"75":-0.06697284458362313,"76":-0.05242620081066712,"77":-0.11019782813649091,"78":-0.10585948708130385,"79":-0.06417456780789468,"80":-0.010760909494313117,"81":-0.027420644674434898,"82":-0.06301005127269978,"83":-0.06573077335346247,"84":0.032664840650123504,"85":-0.05574471867629202,"86":-0.07013729394605231,"87":-0.131388273984977,"88":-0.028666383578493087,"89":-0.11154211472381938,"90":-0.06645891297536216,"91":-0.12578087158739515,"92":-0.09302274147473673,"93":-0.11705839425364982,"94":-0.11687632644110225,"95":-0.01733096693932089,"96":0.01865133271075605,"97":-0.09288114073147266,"98":0.026001473842586643,"99":-0.016718605169651006,"100":-0.018952184480397614,"101":-0.06317628446851949,"102":0.0047454415244640984,"103":-0.05157494599583425,"104":0.009409078324798184,"105":0.021288184146544573,"106":-0.09879543879838618,"107":-0.012224970226420549,"108":-0.005152316154319699,"109":-0.1134125076359571,"110":-0.08211715882425726,"111":0.0927125576553453,"112":-0.02265987829521142,"113":-0.10459255004466933,"114":0.012984581993781488,"115":-0.06257781623354607,"116":0.03358397487981956,"117":-0.05617236069310886,"118":-0.13842931536748582,"119":0.0314209455524429,"120":-0.10170007719633856,"121":-0.09002502721260994,"122":0.004343159523171755,"123":-0.09249399922404922,"124":-0.0028085397665538565,"125":-0.09509260355803856,"126":0.024470426108789734,"127":-0.1683603632147063,"128":-0.040024377710557224,"129":-0.1456266802302365,"130":0.040076195921380384,"131":-0.018296016636210364,"132":-0.09950467133145206,"133":-0.057924405700732776,"134":-0.022995552432409243,"135":-0.03836236013992975,"136":-0.013401501276152555,"137":-0.061420887496635955,"138":-0.004263101788905569,"139":0.01141813356960623,"140":0.0018238152001723406,"141":-0.004188441239178832,"142":-0.0949618088021268,"143":-0.047916482302521865,"144":0.04781323409569066,"145":-0.03947623452071093,"146":0.058299338797325684,"147":-0.049196058038537424,"148":0.10658324952151985,"149":-0.011269493199131722}},{"sx":5,"sy":5,"depth":6,"w":{"0":-0.1911779521740366,"1":-0.3313097332460514,"2":-0.3491267762618241,"3":-0.3411318715882158,"4":-0.09603873586944131,"5":-0.04156756879881922,"6":-0.24954497697754022,"7":-0.15521845066249107,"8":-0.43551372814944106,"9":0.03816885030365064,"10":0.050335839227645375,"11":-0.0011716193009902696,"12":-0.33742374775580397,"13":-0.025109874933589783,"14":-0.09353273298485659,"15":-0.405072772974674,"16":-0.05674464998913379,"17":0.19065383496333665,"18":0.030440174897947928,"19":0.050689693691745905,"20":0.23453831561490332,"21":-0.16996470595223076,"22":0.23382119316497776,"23":0.12126520449637879,"24":-0.048050910190081994,"25":-0.43104340947972025,"26":0.08046675553265353,"27":-0.02272966734264743,"28":0.19957990153767705,"29":0.05814034011855457,"30":0.02074431287623022,"31":-0.6540230781425029,"32":-0.110897528668299,"33":0.025591634224686063,"34":0.07437063341063342,"35":-0.14088750266929567,"36":-0.01231706927351419,"37":-0.5656766470002272,"38":-0.36101505932295236,"39":0.29616787367898684,"40":-0.12053018804252734,"41":-0.04402814526662489,"42":-0.3285989664722443,"43":-0.15549515651511997,"44":-0.04756360617851875,"45":0.03170514640768009,"46":0.01160581596664862,"47":0.008014422383183258,"48":-0.054104867852415015,"49":-0.14595833482248782,"50":0.10735600468982795,"51":-0.06281330606531806,"52":0.08905213787691972,"53":0.16374774175974066,"54":-0.09795325198666802,"55":-0.35214035254678605,"56":0.3186367188220434,"57":0.16212987646711108,"58":0.12505162835453462,"59":0.010847039921812837,"60":-0.12747006129489738,"61":-0.35051162519985224,"62":0.0758384545346994,"63":0.06895011710543227,"64":-0.1486298195663216,"65":-0.15579581448120178,"66":0.09461744785488799,"67":-0.6162474327543002,"68":-0.1587359940927896,"69":0.35457073511050746,"70":-0.32849252898032183,"71":0.18977909055835657,"72":0.15325221363510935,"73":-0.28170219204989144,"74":0.06855313750172394,"75":0.15768123620746763,"76":-0.16496075465649232,"77":0.18325559611149264,"78":0.09060664695873565,"79":-0.3877798963850788,"80":0.13512421628714955,"81":0.2571105503959345,"82":0.12462058428963926,"83":-0.03630579402839125,"84":-0.0011550292208841496,"85":-0.2054872345469094,"86":0.2051890949293213,"87":0.2660002455549936,"88":0.1392975879334407,"89":-0.019102748786883193,"90":-0.14807865295676156,"91":-0.011335701557072548,"92":0.16347250047472214,"93":-0.0008188308910884124,"94":-0.21250427289938864,"95":0.0795613360523646,"96":0.172338533677125,"97":-0.36818195359098005,"98":-0.022388775893977975,"99":0.23576690120996427,"100":-0.3004348721401248,"101":0.03646584489471056,"102":0.3093959277598994,"103":-0.3824843979142411,"104":-0.18101500408579566,"105":-0.03024917930999574,"106":-0.038751923283113714,"107":-0.12870911520466496,"108":-0.16286235087517056,"109":-0.11170604902475077,"110":0.27474167951309736,"111":0.03900987288200416,"112":0.19068907588125716,"113":-0.21759962150245657,"114":-0.14126298552572134,"115":0.07018089771973965,"116":0.051335082305925865,"117":-0.1483541384337279,"118":0.19545009435469,"119":-0.114771954085751,"120":0.0028959359390109806,"121":0.05324471770774855,"122":0.07530162266647195,"123":-0.16422947850870667,"124":0.06355053399659648,"125":-0.10273204734093883,"126":0.056646165619612415,"127":-0.05325487451634123,"128":-0.07657395817873011,"129":0.00791017429017771,"130":-0.1505222589116569,"131":-0.00161661918298153,"132":0.14116267475154626,"133":-0.08734461913167006,"134":-0.13441488374623262,"135":-0.1533062463908207,"136":0.14352311467104908,"137":-0.19000136697169004,"138":-0.03880027004789434,"139":-0.05963058800605611,"140":-0.29594792489264743,"141":-0.3925279861490082,"142":0.22967978675005707,"143":-0.21517819974490207,"144":-0.18040467621358688,"145":-0.10790218865216368,"146":-0.1463480689353275,"147":-0.2130825028336848,"148":0.020369539289914314,"149":-0.020818737121139515}},{"sx":5,"sy":5,"depth":6,"w":{"0":0.09783303187771612,"1":-0.23475632909256805,"2":-0.0010098103817626231,"3":-0.03636703772359206,"4":0.05131684064944582,"5":0.18860700335470162,"6":0.09523839071441476,"7":-0.039600994001643006,"8":-0.1318678415049706,"9":-0.05495162104808981,"10":0.19269862891323578,"11":-0.00764505680685749,"12":0.12970645842244163,"13":-0.021609217259797003,"14":-0.14590105060954742,"15":-0.14387353172908268,"16":0.08144843986820682,"17":-0.044791664908734784,"18":-0.1650505977233889,"19":-0.03263387677253485,"20":0.08011398002601161,"21":-0.13412616340018832,"22":-0.24259502060954766,"23":-0.1613224506337999,"24":-0.052116532570354514,"25":-0.21551977177783888,"26":-0.0927316149100734,"27":0.19272402400033295,"28":-0.018612567444536737,"29":-0.0852695254543305,"30":0.2415246438322781,"31":-0.006544208732164924,"32":-0.03221489210851,"33":0.011241994543520688,"34":-0.00975748719619309,"35":0.019392854953874133,"36":0.17448276319172548,"37":-0.020451688355796336,"38":-0.16483332945908416,"39":-0.26641473159459295,"40":0.023040636664639628,"41":-0.17753294882701764,"42":0.1278896179370433,"43":-0.10937502180484618,"44":-0.04806249948790767,"45":-0.19944508159230037,"46":-0.013205783609038426,"47":-0.11200972892253391,"48":-0.12807162835061256,"49":-0.17977232400620224,"50":0.1485946735749055,"51":-0.26361858070640687,"52":-0.40137811864897405,"53":-0.1712933587705921,"54":-0.31501328121089495,"55":-0.549284604374379,"56":0.09634829895365181,"57":0.32581881718199035,"58":-0.0195650452095531,"59":-0.2180973558287016,"60":0.05728119111125182,"61":0.05525883388329211,"62":-0.09666394979158222,"63":0.03502605732803499,"64":-0.0377616675946715,"65":-0.10862997494821566,"66":0.09256034684044734,"67":0.11465946953126534,"68":-0.14248860120088994,"69":-0.07194105183180236,"70":-0.033394646804352626,"71":-0.14456551171148752,"72":-0.057178666198652126,"73":-0.024411842749078302,"74":-0.252005001021541,"75":-0.26224552980852445,"76":0.017958573433673256,"77":-0.056055212389312735,"78":-0.18880093062811595,"79":-0.495891873741271,"80":-0.03535710756191918,"81":-0.36532528908528705,"82":-0.1739611881123584,"83":-0.27488269576256774,"84":-0.1911853646452121,"85":-0.6272619858759647,"86":0.19193175730325135,"87":0.3738986199878441,"88":-0.1293476831210101,"89":-0.22541410550427254,"90":0.09558474747663291,"91":0.23607369959816393,"92":-0.035595266629201656,"93":-0.07293210550373318,"94":0.0622194969840115,"95":0.04587618258764857,"96":0.032689171573284166,"97":0.1757732195518156,"98":-0.2591922727628156,"99":-0.14086452658681106,"100":-0.07285966136365105,"101":0.030628886067857956,"102":0.16318239563388615,"103":-0.14679873938440685,"104":-0.2724397239423498,"105":-0.22299122171087962,"106":0.13495446776260533,"107":-0.12075478725924749,"108":-0.1200195270489521,"109":-0.27755643655784146,"110":-0.03258077916623281,"111":-0.23178344347164384,"112":0.0355453929381215,"113":-0.5040464489773258,"114":-0.20513483337537972,"115":-0.17556865371661518,"116":0.14381506544395664,"117":0.35013269400534036,"118":-0.12787256960241805,"119":-0.3985805421418774,"120":0.061951080610902494,"121":0.012228171900194033,"122":-0.056257640756901525,"123":-0.018572687429064778,"124":0.15688228606429644,"125":0.24185887523175728,"126":0.06094199713163456,"127":-0.32249428650381357,"128":-0.1558603168071761,"129":-0.18202727539390828,"130":0.041698025253787255,"131":0.12122264148638145,"132":0.13070705550275452,"133":-0.3011915462240784,"134":-0.17944530699686942,"135":-0.12406768358467232,"136":0.06213068739717405,"137":0.014696705705039856,"138":-0.022300118050024107,"139":0.005221890530547222,"140":0.15536665948707218,"141":-0.02986045860364969,"142":-0.14560505916804498,"143":-0.4979932925329855,"144":-0.16406572338255052,"145":0.1212425927365106,"146":-0.08844047114526461,"147":0.41975068545713734,"148":-0.1396882531080858,"149":-0.45087835179555474}},{"sx":5,"sy":5,"depth":6,"w":{"0":0.132917308114229,"1":-0.06547663752002107,"2":0.007609087789501981,"3":-0.12381601131542082,"4":0.17996570032289932,"5":-0.09270684460690204,"6":0.29172723954475466,"7":-0.007510148892138603,"8":-0.05874033755821707,"9":-0.15430018482430233,"10":0.08510261639886603,"11":-0.37942079464778433,"12":0.3343189508913552,"13":-0.054277388241335094,"14":-0.21961849892318283,"15":-0.21308653176484205,"16":-0.2544056425535736,"17":-0.597157618951964,"18":0.22521588359963024,"19":0.043847866247302976,"20":-0.34124429325639855,"21":0.049311419667441285,"22":-0.4157154250960808,"23":-0.1935085978990483,"24":0.17017907888511027,"25":0.13103220927123652,"26":-0.4495654570392365,"27":0.006985231016670604,"28":-0.5757543645167609,"29":-0.1608217679118572,"30":0.16380056922641228,"31":-0.07681402213059807,"32":0.20595372871779263,"33":0.06993424403364179,"34":0.15287294909660282,"35":-0.49234035855874275,"36":-0.005913105688329707,"37":-0.2566786885565126,"38":0.12813973389563776,"39":-0.06526792572550781,"40":-0.08264466913029449,"41":-0.4413769608909268,"42":0.1194868293644333,"43":-0.445713958160256,"44":0.0942255226372514,"45":-0.0539666391833762,"46":-0.11953250911197599,"47":-0.41525201841878223,"48":0.2033091707565186,"49":-0.5490075121811521,"50":-0.20492461720438845,"51":-0.13983701393862955,"52":-0.1011965376537749,"53":-0.18329057935656334,"54":0.05325751952396011,"55":-0.300420343503889,"56":-0.3941682008397286,"57":-0.13212727898268223,"58":-0.15667101129057767,"59":0.09042229448668772,"60":0.008074495822544658,"61":-0.10600028848646077,"62":0.3509927635048087,"63":-0.07296625941493319,"64":0.13866674703200793,"65":-0.0772763474984953,"66":0.12741541878191895,"67":-0.09393693610900636,"68":-0.0004935492205511436,"69":-0.10158466746979612,"70":0.08748667072479091,"71":-0.22302713834450624,"72":-0.025704982199535945,"73":-0.1115231465171068,"74":-0.48766602357988276,"75":-0.005198129069846283,"76":-0.2568028796290341,"77":-0.10819559281626245,"78":0.03148064382194613,"79":-0.17394599508416525,"80":-0.3998097647818184,"81":-0.021794526076453578,"82":-0.4335293131599951,"83":-0.04340787077274107,"84":0.07704442295610767,"85":-0.1496967213826084,"86":-0.26771356836548177,"87":-0.09152130160223904,"88":-0.38062603731040073,"89":0.2713024127517538,"90":0.022855487943394787,"91":-0.21376159634194913,"92":-0.01706957981117626,"93":0.017584709718488856,"94":0.17399261178689077,"95":-0.17754850027806335,"96":0.11266247357136232,"97":-0.09555847058609707,"98":0.10795589605861694,"99":-0.03274406709850011,"100":0.1451887980674281,"101":-0.1970128876940887,"102":0.031147445211306135,"103":-0.1105991425994095,"104":0.0062615178468647045,"105":-0.08599348626018255,"106":0.05430242250633302,"107":-0.08872492011940974,"108":-0.1409540865840758,"109":-0.09123047884020279,"110":-0.28261069647941883,"111":0.04511066537686866,"112":-0.19873563226021826,"113":0.13956497950739055,"114":0.06349206760833112,"115":-0.0720261596082395,"116":-0.17463248241220758,"117":0.2032090223084459,"118":-0.17220964559404514,"119":0.07368269914529117,"120":-0.06902409769589721,"121":-0.27029923599898165,"122":0.11083443666509094,"123":0.1845126595607533,"124":-0.10700830971257104,"125":-0.16112543205022584,"126":0.06945547746938258,"127":-0.24210324494093505,"128":0.014416534900072962,"129":-0.030480240922140085,"130":0.1351071026181645,"131":0.19952942684973174,"132":0.10089381098547047,"133":0.028225176088323038,"134":0.04823126771679056,"135":0.0001929105948189321,"136":0.10549891226205604,"137":0.12257056619015266,"138":-0.07661452308669003,"139":-0.17859129648768307,"140":0.03869874236902119,"141":0.11131188047418632,"142":-0.10465081185707746,"143":0.21414126232961841,"144":0.04046312843320031,"145":0.0647085799864812,"146":-0.012817561741441911,"147":0.1653123448091893,"148":-0.12598556365941138,"149":0.14074257040680765}},{"sx":5,"sy":5,"depth":6,"w":{"0":0.22839334929143804,"1":-0.06466598534802455,"2":-0.14821706841450763,"3":-0.300837499241013,"4":0.1123007053878682,"5":-0.00091341383082656,"6":-0.037129761487589834,"7":-0.011716874474158008,"8":0.03938692141047596,"9":-0.26525521231010535,"10":0.05871055258335382,"11":0.13144582006810648,"12":-0.31467148147413654,"13":-0.20111948415538805,"14":-0.10903743796113881,"15":0.00838832927742602,"16":-0.03610792729309637,"17":0.16902979502759213,"18":0.09675254249472112,"19":-0.4242969265738029,"20":-0.34473468776934707,"21":0.13492326565050652,"22":0.04615403101922844,"23":-0.05494581894197052,"24":0.14624308058769375,"25":-0.16296709794149952,"26":-0.31200338581822146,"27":-0.0485247117827138,"28":0.1619439579688804,"29":-0.1913071368257608,"30":0.23209667094552505,"31":-0.37396369220880843,"32":-0.11097687862253865,"33":-0.15332629082323568,"34":0.18592584616733324,"35":-0.029178638718364555,"36":-0.09851044871116214,"37":-0.2661949689255633,"38":-0.019732230897232014,"39":-0.08522166447650588,"40":-0.20487479677364767,"41":0.25741822956622057,"42":-0.09641842688091207,"43":-0.40277281575415425,"44":0.3000844413042465,"45":0.00925363812593822,"46":-0.14099785896073108,"47":-0.031156662951632195,"48":-0.06262845346880037,"49":-0.5130674678561669,"50":-0.12630405882096787,"51":0.3733807182763534,"52":-0.21930354962056792,"53":-0.16974564202440076,"54":0.2127775356495162,"55":-0.7578848027385455,"56":-0.0577058694554211,"57":0.21650518905786675,"58":0.13239498918075035,"59":0.13816504393494713,"60":0.021799004122025522,"61":0.06843217175567763,"62":0.043823690083747036,"63":-0.08092592925715915,"64":-0.0024628105506119035,"65":0.12366428253446776,"66":0.0020178598508674653,"67":-0.4129476099453289,"68":0.26810045936489685,"69":-0.0030145969526542927,"70":0.11581456341089459,"71":0.02258856153796955,"72":-0.07415168354262144,"73":-0.5074550187862397,"74":0.19627028686754142,"75":0.17033198953717302,"76":-0.15219999563578268,"77":-0.1713380164540271,"78":0.07623040984238705,"79":-0.6787535478968332,"80":0.15621277168731415,"81":0.3240034152754521,"82":-0.6260857917732575,"83":-0.13644363529820047,"84":0.17406534682939914,"85":-0.38137980568311375,"86":0.02288838322254555,"87":0.3856517416592796,"88":-0.12034006517566359,"89":-0.020661502949457462,"90":-0.12816951934351706,"91":0.052566464359572296,"92":0.2665424723921435,"93":-0.05119200106110371,"94":-0.1659393529416869,"95":-0.15085771693321762,"96":-0.20478499763799501,"97":-0.1331665319130025,"98":0.23131039318012592,"99":0.2088477772799107,"100":-0.0006551901075248501,"101":0.0576374981554619,"102":0.003006349063350497,"103":-0.20824785814503075,"104":0.4227759781722484,"105":0.15637349706819792,"106":-0.25429166242110335,"107":-0.10934918636851171,"108":0.13242375656340416,"109":-0.41301134732746697,"110":0.048728745635675405,"111":0.2585234895119806,"112":-0.353193034735842,"113":-0.23065578725396976,"114":0.07703281769611628,"115":-0.18159654703388012,"116":0.2271932115395904,"117":0.26243054924859693,"118":-0.269253350084002,"119":-0.11130569615191738,"120":-0.07427346603383699,"121":0.2976947144673223,"122":0.09742015818643981,"123":-0.007363426409006868,"124":-0.16743923482505313,"125":0.08688060761583002,"126":-0.0548416968895084,"127":0.08117666622773977,"128":0.08833598000070712,"129":0.16359122563066497,"130":-0.0903842956129909,"131":-0.012960664585512035,"132":-0.12852478350538346,"133":-0.07741015194514274,"134":0.1257154554828223,"135":0.07522511900059314,"136":-0.19266371561486634,"137":-0.07417876188001009,"138":-0.0536300393585643,"139":-0.09999435486060172,"140":0.28340005782120425,"141":0.06571007534548752,"142":-0.03606783063222636,"143":-0.2476743204995843,"144":0.06654676088185647,"145":-0.007452311009003765,"146":0.04837661042246775,"147":0.12616394101479111,"148":-0.01363987338595773,"149":-0.12867707169082937}}],"biases":{"sx":1,"sy":1,"depth":16,"w":{"0":0.1466173588180603,"1":-0.11129711669821812,"2":0.11645941096060464,"3":-0.09000356437445486,"4":-0.056880418759182746,"5":0.13502849423141064,"6":0.03336560133979363,"7":0.16323205674812355,"8":-0.02690326130576179,"9":0.01833649229113806,"10":-0.14449105196726691,"11":-0.03840118291519829,"12":-0.033313296640665,"13":0.13017197499808614,"14":0.05879678660637709,"15":0.012020249943445799}}},{"out_depth":16,"out_sx":10,"out_sy":10,"layer_type":"relu"},{"sx":2,"sy":2,"stride":2,"in_depth":16,"out_depth":16,"out_sx":5,"out_sy":5,"layer_type":"pool","pad":0},{"out_depth":120,"out_sx":1,"out_sy":1,"layer_type":"fc","num_inputs":400,"l1_decay_mul":0,"l2_decay_mul":1,"filters":[{"sx":1,"sy":1,"depth":400,"w":{"0":-0.02700442167686741,"1":-0.03321135186873884,"2":-0.07193338849523803,"3":-0.0584430100920796,"4":0.02211682351284941,"5":-0.04995267648351412,"6":-0.003089571407096916,"7":-0.041531869624977964,"8":0.03582121375558636,"9":-0.03193298588053539,"10":-0.022261652054315594,"11":-0.01482885391584209,"12":-0.024703371344449967,"13":0.024521427673949173,"14":0.02012781487783886,"15":0.027041536953886402,"16":-0.0009261817567585154,"17":-0.01631560933593272,"18":-0.006122238880589033,"19":-0.010367177431322499,"20":0.0010487735528688076,"21":-0.011672973023483893,"22":-0.04792731355584413,"23":-0.06138255238163731,"24":-0.07210996312861222,"25":0.021602298114996046,"26":0.026089660175407266,"27":-0.01938867002263027,"28":0.06042382858069562,"29":-0.049754830810214694,"30":-0.0264929803429386,"31":0.010729508201760617,"32":-0.028345145251487833,"33":-0.0009496774612598336,"34":-0.0046629483497077455,"35":-0.040467090687474054,"36":-0.012031860049227192,"37":-0.02566913040986093,"38":-0.022428368049260548,"39":-0.0050061710143137735,"40":-0.044183923276138286,"41":0.028233430632972276,"42":-0.07283089692525181,"43":0.022351767632735352,"44":-0.07539075982431931,"45":0.10212574120668555,"46":-0.03515843711608954,"47":0.031889291953889995,"48":0.03553064375849808,"49":0.04872804785831613,"50":0.019359314226674213,"51":-0.05722001792563165,"52":-0.04413860928198719,"53":-0.03547916855501314,"54":-0.007422722836761319,"55":-0.03576816568038219,"56":-0.0037093282873342888,"57":0.01217115136179966,"58":0.01522504241032723,"59":0.016008365189725756,"60":-0.04313336468352641,"61":-0.020349296797550927,"62":-0.015428484915633811,"63":-0.014623318097844258,"64":-0.02674187346725912,"65":-0.02094114971213509,"66":-0.03706163719600279,"67":-0.006970261199974426,"68":0.023211913286993905,"69":0.0371951637749201,"70":0.004379267321852515,"71":-0.06885066942946003,"72":-0.07972775131427016,"73":-0.018190164700735725,"74":-0.03810994961720647,"75":-0.036936238227209865,"76":-0.03869498030847731,"77":-0.013064861319853701,"78":-0.049324653825619784,"79":-0.011254592929064227,"80":-0.007375721030787878,"81":-0.09250565957510332,"82":0.03723046021500845,"83":-0.06652199390092199,"84":0.006026936033930422,"85":0.03567492385066544,"86":-0.021214061445180836,"87":-0.04304352561713636,"88":0.0035490634540412016,"89":-0.006137127230942764,"90":0.0008999119075868673,"91":0.00553556464577259,"92":0.04270347165685477,"93":-0.056277518926030015,"94":0.051666852603499215,"95":-0.03329745908675151,"96":0.0037652965144580886,"97":0.06683432247456657,"98":-0.060262523326976576,"99":-0.06534362984643319,"100":-0.013573052416978995,"101":-0.025264417277212594,"102":-0.004582364676574829,"103":0.007857826429136853,"104":-0.009292836254648945,"105":0.012864155263172099,"106":-0.02633386676192265,"107":0.06853443308446362,"108":-0.04984049285129642,"109":0.02190318998412781,"110":0.05356236162942818,"111":-0.06582374070565136,"112":-0.03683738848963442,"113":0.002877228009326107,"114":0.08031831588773551,"115":-0.020279351156155655,"116":-0.014996072651605127,"117":-0.049462101155310106,"118":-0.004400803068754902,"119":-0.0226317079394253,"120":0.02140908552289093,"121":-0.04081226110328905,"122":0.001142518557125224,"123":-0.013340919430094123,"124":-0.05568152650505787,"125":0.00036323963639475326,"126":-0.008297942846008282,"127":-0.0874639651888128,"128":-0.038797308360445745,"129":-0.0239108390771946,"130":-0.03442206061983189,"131":-0.03339470232922549,"132":-0.034064727060691614,"133":0.05072027654368861,"134":0.05540599546622545,"135":-0.05450632034868503,"136":0.018886282986426178,"137":-0.03163624593921883,"138":-0.06867674261305719,"139":0.044942589103433274,"140":-0.03831443069552489,"141":-0.03140723029546342,"142":-0.010981528177416818,"143":-0.019918725741266026,"144":-0.05245504819951433,"145":0.013403983978964583,"146":-0.04086308727209092,"147":0.06418127128042508,"148":0.03516982542311918,"149":0.007285108957898911,"150":0.026435144627403012,"151":0.016587036170302678,"152":-0.03894782726101464,"153":0.013551444374576163,"154":-0.024263560109343416,"155":0.04990161817682889,"156":-0.1258200642454331,"157":-0.04658086749721689,"158":-0.020381351144668096,"159":-0.0012894338768071427,"160":-0.029939573501025024,"161":0.028754503560088795,"162":-0.020526369713727868,"163":-0.044021608370144495,"164":0.017705475443522987,"165":-0.025239149593906468,"166":0.03535900436541457,"167":0.012029429892051927,"168":-0.016499803297293173,"169":-0.06396702070503149,"170":-0.047961465994793395,"171":0.013249478144726415,"172":-0.023080914416687668,"173":-0.009256949779503853,"174":-0.017804485521480597,"175":-0.029202484501972298,"176":-0.050223989374713965,"177":-0.06387650454681398,"178":0.048153031318386545,"179":-0.010169150746615377,"180":0.0028862414508470428,"181":0.025922810407064675,"182":0.028318018993617588,"183":-0.011570465259671855,"184":-0.03464842949050138,"185":-0.023228423141868036,"186":-0.05522304764687979,"187":0.03310912823500125,"188":0.08436010407710284,"189":-0.035732847300333985,"190":-0.04886301721802084,"191":0.03871959082714059,"192":0.010557307957214577,"193":0.015147363618242614,"194":0.0323204161615305,"195":-0.04967788908168062,"196":-0.011589589217084764,"197":-0.0450069297731285,"198":-0.07308890923331902,"199":-0.04254893938080628,"200":-0.029986631782239155,"201":0.02171932237050742,"202":0.053967377561335864,"203":0.049878906445820555,"204":-0.032432215558344094,"205":0.017165009698755996,"206":-0.05079336113435497,"207":-0.052190652689513534,"208":0.021062400390706403,"209":-0.02355402333425342,"210":0.0033697684389212387,"211":-0.0020100989810008726,"212":-0.05129215081897281,"213":0.010236484524168385,"214":0.00375088427023276,"215":-0.0015525806334026819,"216":-0.06919271915837998,"217":-0.08038082719585621,"218":-0.007240522996058089,"219":-0.04862006544617208,"220":-0.027969251458321413,"221":-0.030789240568298713,"222":0.05001115457090281,"223":-0.02279955033149851,"224":0.10408560502278402,"225":0.02275057554886967,"226":0.031858038526401705,"227":-0.005480017794971028,"228":-0.026177201295847385,"229":0.04443177681516078,"230":0.057704193746394225,"231":-0.058320977395092774,"232":-0.01194680578658022,"233":-0.04847945313156065,"234":-0.06048308369538576,"235":0.04164976384076657,"236":-0.05116427436394825,"237":-0.052567997790602984,"238":0.002686753396462162,"239":-0.019914357492495646,"240":-0.02646632680442686,"241":-0.03655708624211857,"242":0.026083170882072244,"243":0.014785431669650165,"244":-0.08553223858123761,"245":0.04087528107182346,"246":-0.02429935634365177,"247":0.037707372729563135,"248":-0.029687569311051223,"249":-0.01987031365199474,"250":-0.048402468773314514,"251":-0.06313270711367397,"252":-0.03184619396417984,"253":-0.020994425255479347,"254":-0.04552303376210195,"255":0.027477753690858045,"256":0.03370472864223853,"257":-0.051971344797247354,"258":-0.05060530434620406,"259":-0.03285722964339651,"260":-0.06696942065804956,"261":-0.08168063722000679,"262":-0.08874643048553973,"263":-0.00833338739178139,"264":-0.053353650722890576,"265":-0.018724698743685746,"266":-0.05689559066040746,"267":0.015262134396868752,"268":-0.009572695109520746,"269":-0.020898367205708746,"270":-0.06448661504267333,"271":0.0040280367920070455,"272":0.005054311089697436,"273":-0.0124159207538784,"274":-0.035745934935726274,"275":-0.07483115784456958,"276":-0.09106024343338591,"277":-0.09020013699974065,"278":0.008375393795542248,"279":0.03320542061282915,"280":-0.024497896001873794,"281":-0.0058907851298626275,"282":-0.03196846086410073,"283":-0.04392783987002598,"284":-0.0875138937969923,"285":-0.03615677237995952,"286":-0.013708658562410355,"287":0.030093118218417,"288":0.002033749786551003,"289":-0.05964901930458074,"290":-0.042224958590369364,"291":-0.05511446658644942,"292":-0.007812745213875044,"293":-0.0019529157609727138,"294":-0.019833113582361648,"295":0.029813341180231333,"296":-0.026070072288961937,"297":-0.06067925961572027,"298":0.058982938542029,"299":0.05745509616523804,"300":-0.008702154739386547,"301":-0.03554071669470583,"302":0.011931769213006054,"303":-0.06916288254715268,"304":0.0026552400209625946,"305":0.03222820688602984,"306":0.008311692533919219,"307":0.017310237743605163,"308":-0.004420098630985416,"309":0.0008936621224750755,"310":0.012830949797649026,"311":-0.08635819069291692,"312":0.012313426406709694,"313":-0.0033215735840888163,"314":-0.027272659669391658,"315":-0.008890620284371806,"316":-0.055069892322173304,"317":0.028562869881301616,"318":0.010854199682767237,"319":-0.011398971557199175,"320":0.027974305534837325,"321":-0.0017018980061969406,"322":-0.02686000716552735,"323":-0.0527196553333025,"324":0.01968835756448187,"325":0.05054525406406293,"326":0.02204997920186779,"327":-0.04754408781424067,"328":0.006708122725766888,"329":-0.017023936706732922,"330":-0.06803330074578033,"331":-0.07063627859460073,"332":-0.031948423369061105,"333":0.016400845015673182,"334":0.0014140645969289447,"335":-0.029497117213876344,"336":0.014303093819612492,"337":0.008805352127967563,"338":0.05289582070562205,"339":-0.00453370079983265,"340":-0.02662299057474788,"341":0.02375195342099752,"342":0.04493612941136838,"343":-0.11526413503846002,"344":-0.0024613333738850948,"345":-0.0013941739832563332,"346":0.04971587297833631,"347":-0.015437776096398221,"348":-0.0011542553452164202,"349":-0.03003022582402353,"350":-0.0015824193730855553,"351":0.017851788659465382,"352":0.025874555571973563,"353":-0.029455444676012504,"354":-0.0016494435683794214,"355":-0.0174942029692841,"356":0.012917014956095032,"357":0.005602362005561793,"358":0.03327243330681806,"359":0.010677697636211401,"360":-0.007823471493202137,"361":-0.09979576692859399,"362":0.041286186594276526,"363":0.009142197282716329,"364":-0.04808902886282623,"365":0.0482743979341658,"366":-0.05094944679168824,"367":0.027713894899111576,"368":0.00721052927828828,"369":-0.01637795127909351,"370":0.007540789715718028,"371":-0.03397951659272191,"372":-0.010952776638670211,"373":-0.024479938314582842,"374":-0.00685287155562354,"375":-0.030851967607761842,"376":-0.05670189916851609,"377":-0.03282219456866956,"378":-0.09446065833320272,"379":0.009238918504628177,"380":-0.03860194405274028,"381":0.06638962914094508,"382":-0.023983026216221847,"383":-0.04784984992335589,"384":0.027738728459462774,"385":-0.07605577529552426,"386":-0.012171374772576416,"387":-0.10432716795518195,"388":-0.03699852104144898,"389":-0.012381477351923104,"390":-0.03896528063621889,"391":-0.011799780883394161,"392":-0.06487788082772238,"393":-0.03874126575163982,"394":0.015588799805428115,"395":-0.07712373216860831,"396":-0.019278448081712297,"397":0.03433348491928628,"398":0.011046193499091975,"399":0.0007198128164850185}},{"sx":1,"sy":1,"depth":400,"w":{"0":0.15121959658129136,"1":-0.2772461455194781,"2":-0.0004301764003934608,"3":-0.3063259914802155,"4":-0.00812057031468975,"5":0.17062298753127703,"6":-0.22891110790970753,"7":-0.19245632275357913,"8":-0.01661429753656863,"9":-0.057906287108194676,"10":-0.05280849480177268,"11":-0.048791302747947386,"12":-0.09766233228525766,"13":-0.1414938849974393,"14":-0.2375522955045718,"15":-0.3136758578380516,"16":-0.005725348523702244,"17":-0.05245086415035704,"18":-0.03852347798748503,"19":0.07069315859957602,"20":-0.17328879332257827,"21":0.27895623266225067,"22":-0.15646493199814773,"23":0.06103210764158299,"24":0.055213460484595404,"25":0.1369831894892247,"26":-0.002569857563729264,"27":-0.03167759939090133,"28":0.1763204007994724,"29":0.0461559241776417,"30":-0.4223543672573452,"31":0.03396689597813092,"32":0.01432493534249827,"33":-0.025646961347714742,"34":0.10996917683741272,"35":0.19634223637674636,"36":-0.024704479275110054,"37":0.13840495745404452,"38":-0.13610355274719269,"39":-0.10239470461139753,"40":0.25541976703747316,"41":0.0960574470455367,"42":-0.033217520433736006,"43":-0.029228262678923776,"44":0.06728788551670828,"45":0.19421064722699355,"46":-0.4114705036926621,"47":0.038012591654768224,"48":0.025468461456635606,"49":0.07941391561381571,"50":-0.037952627378188365,"51":-0.08585602883607607,"52":0.019713168021349158,"53":-0.057342040848734,"54":0.027957265458577657,"55":-0.10401100526112586,"56":0.23118358988691154,"57":-0.06962672093080377,"58":-0.09908721687113893,"59":0.0039092658246571745,"60":0.10428017385478754,"61":-0.1978230331737548,"62":-0.15066785958786832,"63":0.06462931336833332,"64":0.16225457558861012,"65":-0.034784731061276414,"66":0.1308110369980209,"67":-0.15915909906532225,"68":-0.3093699813051587,"69":0.009962716951643736,"70":-0.17567743638139982,"71":-0.17202682693357085,"72":-0.17451648634822117,"73":0.15994604596330764,"74":-0.19422828414047605,"75":-0.0321809520695327,"76":-0.12248093044740559,"77":-0.1863441769547282,"78":-0.051636581453913345,"79":-0.03834971145987662,"80":0.04476873728787987,"81":-0.0902537716264333,"82":0.033963160118921545,"83":0.07838739174970749,"84":-0.12916864830795816,"85":-0.15350206999687602,"86":-0.040838576877403276,"87":-0.023195810419799137,"88":0.11299800062309386,"89":0.017750083366700843,"90":0.14135885409596835,"91":0.06107483669376301,"92":-0.19423511025522225,"93":-0.15731793370627212,"94":0.041153222383095274,"95":0.00454077130763817,"96":0.0072354301633446375,"97":0.012783094548007532,"98":-0.004601110420940378,"99":0.10972376592249145,"100":-0.2932385860182204,"101":0.027421123047315,"102":-0.02350523337047785,"103":0.12810453022642998,"104":-0.05362931414812863,"105":0.1220778571699354,"106":-0.06266847682723654,"107":0.026065082307714062,"108":-0.2540848236490327,"109":-0.14992698533811463,"110":0.047426286236548904,"111":-0.042330502672949646,"112":-0.058570475551601796,"113":-0.013747604765626562,"114":-0.09608166871976725,"115":0.11155434987479866,"116":-0.0845386225715989,"117":0.005537477656391386,"118":0.18976511829231038,"119":-0.05986976953310314,"120":0.08171833396893949,"121":-0.09456223931600252,"122":0.1350066572486683,"123":-0.04137319820818482,"124":-0.022457646498001037,"125":0.05160811373739404,"126":0.16477505932862332,"127":0.12260478422009494,"128":-0.043595115637405216,"129":-0.06016273009044609,"130":-0.06866426046266318,"131":-0.2988143345169594,"132":0.012231398935864831,"133":-0.17815469026332623,"134":0.23493781365853741,"135":-0.06266223834930774,"136":0.06744589534526231,"137":-0.07773316520247946,"138":0.18942904659596585,"139":0.010889132246067787,"140":-0.04155109207860147,"141":-0.056753335014826954,"142":0.14997129544969545,"143":0.08891083334199952,"144":0.07537241235343607,"145":0.05041301490958976,"146":0.19220828913304724,"147":-0.20611372553268228,"148":-0.06700961673722741,"149":-0.18625076881287725,"150":0.08548719747924281,"151":-0.11733090130437353,"152":-0.04867282198853982,"153":-0.0009871221861542075,"154":0.03864119910865795,"155":0.0045580589780963585,"156":0.051399173271955395,"157":0.002292061241397675,"158":0.11371641833110531,"159":-0.05555781965309336,"160":-0.09004074100293717,"161":0.07024362845980787,"162":0.10659067759263718,"163":-0.09774782582599018,"164":-0.039484771623315096,"165":-0.02067749705864124,"166":-0.1873232109910426,"167":0.1938674932574736,"168":0.005226519096836179,"169":-0.0934645060934044,"170":-0.10903225634480254,"171":-0.017442349135234046,"172":-0.03173981281181105,"173":0.061945154435128644,"174":0.08111007729001181,"175":-0.08443369867943389,"176":-0.08064419476698675,"177":0.0296140786770139,"178":0.06814118675166704,"179":-0.08837210152229621,"180":-0.09122216396912541,"181":0.14652207959529587,"182":-0.0114489408386522,"183":0.22020630894589038,"184":-0.056454633036643755,"185":0.07279660261341307,"186":0.14173679459373337,"187":-0.025284358278397756,"188":0.08754643188941838,"189":-0.012703579432813755,"190":-0.023059167116465478,"191":-0.03143089012410819,"192":-0.1282060271004138,"193":0.002144762740820286,"194":0.13492812436332094,"195":0.0012321219219344802,"196":-0.02972469698081905,"197":-0.03872774188817287,"198":0.1770146446694911,"199":0.04413013460605808,"200":-0.020735187759984217,"201":-0.005078361630241591,"202":0.23597694519096613,"203":-0.005516230689007215,"204":0.08918036540255918,"205":0.0878471867418844,"206":0.028697868373137033,"207":0.08261758796630954,"208":-0.1046287693942297,"209":-0.02408296927372915,"210":0.1001090476493766,"211":-0.09921726583458522,"212":0.05367778875204077,"213":-0.12285121576628857,"214":0.1291526447249518,"215":0.027329427955257213,"216":-0.03857321490946986,"217":-0.09792305934208856,"218":0.09913431447874599,"219":0.01731555407946822,"220":-0.11120247143191872,"221":0.21447338201979807,"222":0.08349535758605447,"223":0.09866638246479915,"224":0.038447560896985894,"225":-0.07113400081148623,"226":0.2660239393354554,"227":-0.17087225071596845,"228":-0.018887237708049058,"229":-0.17309176947597635,"230":0.05803057164256789,"231":-0.028210768019269812,"232":-0.1224642232323872,"233":-0.0731240148149532,"234":0.08955947932801361,"235":0.015195603775010873,"236":-0.030435862688516013,"237":0.11187151707618957,"238":-0.009770027465289209,"239":0.06598889635158729,"240":-0.0007775671170932326,"241":-0.13195624285861562,"242":0.04311200532215939,"243":-0.25091968655950225,"244":0.13972284838417207,"245":-0.025487298805447513,"246":-0.19032413357144373,"247":0.07536671811387348,"248":0.13939691643047372,"249":-0.11232796690444216,"250":0.12760978818783153,"251":-0.027111434239333487,"252":0.05467121882755357,"253":-0.03994328113737127,"254":-0.18206284811293844,"255":-0.17676378942146057,"256":-0.027881302571380537,"257":-0.03545821556209985,"258":0.07923607296953505,"259":-0.09670466802793888,"260":-0.05647132061642455,"261":0.00994043580238622,"262":0.025267962766911924,"263":0.02709171832224773,"264":-0.08536259058105722,"265":-0.08843864933658845,"266":-0.04102955303460407,"267":0.037196270730573994,"268":-0.05960045893881026,"269":0.08529205090070882,"270":-0.08324888667994103,"271":-0.019579950035876644,"272":-0.022804227392754877,"273":0.1357918391976593,"274":0.021764679888058545,"275":-0.022019381238709793,"276":0.021942584038281473,"277":0.030182078932011164,"278":0.13621762730560286,"279":-0.07435873706667735,"280":-0.13310863726671981,"281":-0.09427069071355175,"282":0.03129548752006849,"283":-0.005556750267994688,"284":0.10294205416947975,"285":0.13977974862547896,"286":0.04457263664403796,"287":0.01750281723853575,"288":-0.056341672310408375,"289":-0.10305639182572997,"290":0.05173348951994827,"291":-0.12439661612680597,"292":0.09464493690122988,"293":-0.033409222033166625,"294":-0.060393023043516125,"295":0.012026658619619664,"296":-0.10246978187986362,"297":-0.08030337548889234,"298":0.07869080598764788,"299":-0.06850778225515916,"300":0.060445620406632,"301":0.18641085246208788,"302":-0.04857324501504744,"303":-0.13020302015470547,"304":-0.04715155035762917,"305":-0.09110394097610312,"306":0.18333597068527935,"307":-0.15417855792507548,"308":-0.1006362391064419,"309":-0.012792686413377441,"310":-0.1381568401403124,"311":-0.023291232742268107,"312":-0.1415690052246101,"313":-0.02075871408155963,"314":0.09140392421172812,"315":-0.017193961266330368,"316":0.0013233679670374874,"317":0.13646638623023946,"318":-0.10998159071907725,"319":0.00546023387855777,"320":-0.11914643292802282,"321":0.1804184761389893,"322":0.025038441259568358,"323":-0.2743761822174985,"324":-0.005912743208471477,"325":0.10466324272823094,"326":-0.15700858752340952,"327":0.039168932436164726,"328":0.14554497604160954,"329":-0.2019298881035128,"330":-0.030962474684348193,"331":0.05834657648210869,"332":0.16513598245006908,"333":0.11556060012598028,"334":-0.11158499531222252,"335":-0.005744188807031751,"336":-0.09663242574454092,"337":-0.10029068726668133,"338":0.011525478221125323,"339":0.012845541842250627,"340":-0.10325520698404149,"341":0.1374682125936548,"342":-0.07276121631683946,"343":-0.06971085163402084,"344":-0.0073556678036467635,"345":-0.17143710764554773,"346":0.0331265919297156,"347":-0.007538692487648865,"348":-0.03393111399650429,"349":0.16078264528544256,"350":-0.15837300049750316,"351":0.03349368672193632,"352":-0.03271546338093165,"353":0.035727676747221306,"354":-0.04435544038756186,"355":0.006499732706939822,"356":-0.09594872772337261,"357":-0.011059079874297112,"358":0.04699320995434174,"359":-0.1015766192650573,"360":-0.0005398623686977931,"361":-0.3018781800411732,"362":-0.03971869483299235,"363":-0.010199309620016896,"364":0.1109749671505042,"365":0.01592423316606197,"366":-0.015276110922209991,"367":0.20431497652896355,"368":-0.10378301666560538,"369":0.02351563971953491,"370":-0.08261225605013502,"371":-0.05054382577143898,"372":-0.07607784359524876,"373":0.10697960611042422,"374":-0.03164359527683021,"375":-0.01645209145264408,"376":-0.13370480873456456,"377":-0.1014934105774729,"378":0.09850370112003189,"379":-0.06390349124990297,"380":0.12547423293498802,"381":0.1573394482939285,"382":0.025993231841566346,"383":-0.03592681560173778,"384":-0.14912070817252582,"385":0.06575266918037119,"386":-0.007814005011577774,"387":-0.06856106187758837,"388":-0.1644126811074941,"389":0.2126842859161918,"390":-0.08912204135909167,"391":-0.1619370463272467,"392":-0.06635523679452385,"393":-0.03264537915652526,"394":0.07311105731932406,"395":0.0012614703755090956,"396":0.09075458742381443,"397":0.22963117740057393,"398":-0.07606243057336595,"399":-0.02147896015777898}},{"sx":1,"sy":1,"depth":400,"w":{"0":0.1308912951247913,"1":-0.10009017680683449,"2":0.20156906212425982,"3":-0.04566109940563954,"4":-0.033403432374279576,"5":-0.16338998020328357,"6":-0.08902489824689455,"7":-0.04728274164090858,"8":-0.06709891612461515,"9":0.10080875626513917,"10":-0.009462444922364572,"11":-0.02848414532570488,"12":-0.1282865033200981,"13":0.1070426317060523,"14":0.010648204927838563,"15":-0.01019318096210587,"16":0.11570228416981636,"17":0.030013317650563393,"18":0.20048205213674825,"19":-0.033325781134592544,"20":0.17418907977042897,"21":-0.13205794869513113,"22":-0.09869596146458083,"23":0.07909745340385259,"24":0.02209001570882169,"25":0.04974634268104493,"26":0.006930428733506694,"27":-0.061248820292897126,"28":-0.07689999168732967,"29":-0.08181599338192214,"30":0.0008876262378532809,"31":-0.07440507531045853,"32":0.14767050034740473,"33":-0.12026287391514287,"34":0.002941896251289788,"35":-0.16956905766779226,"36":0.04783603157962941,"37":-0.06110596218516439,"38":-0.10021095244068812,"39":0.2284537157120098,"40":-0.09613318777331949,"41":0.044594110204637494,"42":0.009159487857736662,"43":0.08032866464282919,"44":-0.07570755572758525,"45":-0.07505713834341311,"46":-0.08705498668342855,"47":-0.08903256529400168,"48":0.17713074967287187,"49":-0.001625927991897438,"50":0.15567446470710627,"51":0.09451861541254461,"52":-0.11089341311123951,"53":-0.03777487208696889,"54":-0.05962997991902993,"55":0.1039880013181447,"56":-0.05332114882716365,"57":0.11922372175541994,"58":0.0055478296241655515,"59":-0.006951092601990873,"60":-0.03002297889246903,"61":0.02632862062220621,"62":-0.09024329962736448,"63":-0.034496697082245606,"64":-0.03572438029247835,"65":-0.0338411764214444,"66":0.08703867225139668,"67":0.1607707049917836,"68":0.10253821544231602,"69":-0.06678880888851013,"70":-0.01734373434003231,"71":-0.042606274861435936,"72":0.0768722340859929,"73":0.1500332050514681,"74":-0.10820969314157783,"75":-0.04469301686926375,"76":-0.053859010284930474,"77":-0.014961334889414153,"78":-0.19784452091488464,"79":0.00848581752653036,"80":0.21018100913754037,"81":-0.12459821725340774,"82":-0.05951514636898183,"83":-0.029989316191079304,"84":0.06753900396556618,"85":-0.15199665828232267,"86":-0.11457757373711332,"87":-0.11858324997452602,"88":-0.018893048469592097,"89":0.04108932037340648,"90":-0.07051290654727839,"91":-0.04555926651443379,"92":-0.09765855911897267,"93":0.15763181053301636,"94":-0.14511675108726615,"95":0.0066956160394121235,"96":0.09290843424194759,"97":-0.00002903982049691021,"98":-0.046809370781504225,"99":-0.15918868376328668,"100":0.18658660038859423,"101":-0.10188716629055937,"102":0.04764157426496516,"103":0.05642063019416394,"104":0.10591000676873825,"105":-0.13823658632078478,"106":0.01385881654809704,"107":0.0685085768779188,"108":0.055546546978177576,"109":-0.008372527878425932,"110":-0.16076752682684006,"111":-0.03693292956076508,"112":0.15543013229939423,"113":0.07228696743414188,"114":0.05605317530396354,"115":-0.014000030588996695,"116":0.03640178104171047,"117":-0.087844472210706,"118":-0.13775107126900438,"119":0.1427296332029992,"120":-0.04491779228522812,"121":0.005066056579534067,"122":-0.11951743725408662,"123":-0.029321409709654217,"124":0.030793945525027764,"125":0.08378197910813831,"126":-0.2712741476456953,"127":-0.02857316000980056,"128":0.009058223387615992,"129":0.04629278618133585,"130":0.13399440617761105,"131":0.05221657083577947,"132":0.0010457616235352066,"133":-0.04336063975903107,"134":-0.1542704761091066,"135":0.0867151768107563,"136":0.023191772385573878,"137":0.11303486525243307,"138":-0.012063028347614947,"139":0.03698633086585289,"140":-0.028082877200735375,"141":0.06737740910250901,"142":-0.27313686904498247,"143":-0.05307097877586773,"144":-0.018230072790689944,"145":0.0874358452302615,"146":0.23319465464869837,"147":-0.0053107162374636365,"148":0.043109583311420306,"149":-0.10341615329725502,"150":-0.04483660694335573,"151":0.025232705423619547,"152":0.1219605270179765,"153":-0.14155647237922353,"154":-0.16380949658190322,"155":0.02675471858647532,"156":-0.09721983091100272,"157":0.03376600227948846,"158":-0.17980177713580756,"159":0.01463089460290636,"160":-0.03486694674704622,"161":-0.26016164756323884,"162":-0.021984184856157864,"163":0.11225196226800008,"164":0.22843885528144806,"165":-0.14626684127136205,"166":-0.14732654951140287,"167":-0.05145387880315605,"168":0.2533999185235945,"169":-0.15677856961294048,"170":0.009091449241536062,"171":-0.00031998495564652864,"172":-0.16945969629980354,"173":-0.011112485298845086,"174":-0.1456378094349783,"175":-0.10390614618261612,"176":-0.06876529874781653,"177":0.22491073594976044,"178":0.06356684448934136,"179":-0.07237634819177502,"180":0.10122760744905805,"181":-0.09928191467111015,"182":0.04110470888726533,"183":0.06657621189569918,"184":0.04623992609287376,"185":-0.10397603747976177,"186":-0.1659373441231386,"187":0.058301122849448835,"188":-0.017918245576215294,"189":0.08223620364681686,"190":-0.11964574906304132,"191":-0.011668460002024974,"192":0.055397493818299726,"193":0.14927869398646373,"194":-0.031826058450034875,"195":-0.21155192075825519,"196":-0.013061199287340564,"197":0.0128061676102424,"198":-0.030474988294372687,"199":0.022440141414074553,"200":-0.07056405576565071,"201":0.016366432543989985,"202":-0.2826230682846226,"203":0.04354948259827851,"204":0.0463132280604855,"205":-0.03174704242098831,"206":-0.21673943989244793,"207":-0.09622416878785081,"208":-0.07256865014059202,"209":0.03994300215897235,"210":0.1053908288772362,"211":-0.10542655871836487,"212":-0.021200530382387364,"213":0.05553067070225952,"214":-0.03584468393303906,"215":0.06568506556632499,"216":0.019612741043215583,"217":0.04364763262341098,"218":0.0199046443404828,"219":-0.05529641568983874,"220":-0.06254263565073162,"221":-0.04743248431065137,"222":-0.20460974211902305,"223":-0.0009562399044039243,"224":-0.06116165172873897,"225":0.170111838078884,"226":0.14477037552925026,"227":-0.08171316151006058,"228":0.013520656024016614,"229":-0.07244149590932507,"230":-0.004258441132922869,"231":0.12657269916958588,"232":-0.024933564556546134,"233":0.08719220978009966,"234":0.003962822126037875,"235":0.04986943646166123,"236":-0.04984178130579262,"237":-0.06449037680641108,"238":-0.1867024307621146,"239":-0.06333608840063995,"240":-0.17104164371408767,"241":-0.2532629967801904,"242":0.034476163565443765,"243":-0.11538781967787155,"244":0.12837725095254354,"245":-0.1591096347505484,"246":-0.343491737744934,"247":0.12711128747015038,"248":0.3053200598730492,"249":-0.25814462635828894,"250":-0.004407478532065794,"251":0.025883006388136613,"252":-0.0368186030800453,"253":-0.0005123496180451479,"254":-0.15226944882603313,"255":-0.1366356593187671,"256":-0.13400022525080088,"257":0.15348980794809888,"258":0.03252566906208502,"259":-0.1933595147869473,"260":0.11407998764840581,"261":-0.11663117658463786,"262":-0.09237769509163707,"263":0.11580725521566942,"264":0.08366134466411423,"265":0.018800498657821803,"266":-0.07587359613646397,"267":-0.005632143359769332,"268":-0.04078511935951632,"269":0.028140803732324696,"270":-0.20254520460032252,"271":-0.14707747863977846,"272":0.030732114313959093,"273":0.07881638841107128,"274":0.05727569640939235,"275":-0.19790688627910055,"276":0.008528397792747935,"277":-0.12648773078996614,"278":-0.12156592422801929,"279":0.15555961820446648,"280":0.041134488962490834,"281":-0.02878871800313188,"282":-0.06938051836039374,"283":0.06674535138557937,"284":0.032646375457856716,"285":-0.02035216085736839,"286":-0.10775165440354344,"287":-0.08724778492092214,"288":0.0038394351998111594,"289":0.061836848172406325,"290":0.13698387686869587,"291":-0.005544027470013686,"292":0.1273224346168114,"293":-0.044588868826472124,"294":-0.029954190630360356,"295":0.14977856915638588,"296":0.09453569057626754,"297":0.15407388599304145,"298":0.0896763227476663,"299":0.027942197711306134,"300":0.03795795130584645,"301":-0.02680245242037699,"302":-0.1421963480675039,"303":-0.028048551619520412,"304":-0.13679921088341007,"305":0.07072642293120443,"306":0.1502528999074278,"307":-0.2309637695200379,"308":-0.07551144524971112,"309":-0.016426922125984348,"310":0.020729899456488024,"311":0.08849724565332148,"312":0.03676192719381928,"313":0.32385491865214194,"314":0.1356947521082405,"315":0.052097420211760226,"316":-0.07040598391001814,"317":0.1138887772551265,"318":-0.12064905798234643,"319":-0.006172359245050998,"320":-0.4350416027560666,"321":-0.24967664661863104,"322":-0.013136008028346502,"323":-0.1698678519960893,"324":0.029721503529299035,"325":-0.003488959867326775,"326":-0.20512720353271494,"327":0.08452663948276644,"328":0.2945515267306566,"329":-0.2629537404090936,"330":-0.08552749147913265,"331":0.014887026069717138,"332":-0.013020606679370477,"333":-0.07837048625965236,"334":-0.138900969441885,"335":-0.054786455258599535,"336":-0.03499729116835356,"337":-0.08020909039628271,"338":0.012150902292803998,"339":-0.09812992643335008,"340":0.22859010956239875,"341":-0.12247669886200509,"342":-0.17322609465058147,"343":-0.02622272740418105,"344":0.08909736900118853,"345":-0.03883030518818451,"346":-0.03682835878323272,"347":-0.014169288997517173,"348":-0.05481110321663205,"349":-0.09281166651586163,"350":-0.18587031825945158,"351":-0.16784568870501762,"352":0.003131625726126121,"353":0.06373574112673158,"354":-0.007870906216274821,"355":-0.05097171556482189,"356":0.14791979000153865,"357":-0.19785259520045037,"358":-0.09934538319688092,"359":0.06546901558298396,"360":-0.004798986732158694,"361":-0.027808144132756996,"362":-0.10153312441427101,"363":-0.0670949717079567,"364":-0.09348656147994715,"365":-0.044032796418452314,"366":-0.15193988270828993,"367":-0.05224294682392103,"368":-0.02806465494098954,"369":0.029337858674462917,"370":0.11259719227438518,"371":-0.022147644057694035,"372":0.14075739214296912,"373":-0.10571784792192176,"374":-0.1418258397656151,"375":0.10480966489063054,"376":-0.1447529040557863,"377":0.11278692211236754,"378":-0.051807417513563214,"379":-0.013392617106736109,"380":-0.08742972927411184,"381":-0.0456501803757487,"382":-0.1694357461934852,"383":-0.01948630475723773,"384":-0.1442587144069872,"385":0.1692741747791801,"386":0.1863510764961451,"387":-0.16087640108454848,"388":-0.16109314517580803,"389":-0.10338209416510037,"390":0.02515390392675224,"391":0.18786229528151133,"392":-0.08293507711377981,"393":0.338703450685082,"394":0.0011188409338492653,"395":0.024001505979022137,"396":-0.19515487488807964,"397":0.0657079009028271,"398":-0.20971208824491033,"399":0.016605308944224576}},{"sx":1,"sy":1,"depth":400,"w":{"0":-0.09054743953785584,"1":0.014010806938679572,"2":0.036447768134255515,"3":-0.035552990969064044,