{"layers":[{"out_depth":1,"out_sx":28,"out_sy":28,"layer_type":"input"},{"sx":5,"sy":5,"stride":1,"in_depth":1,"out_depth":8,"out_sx":28,"out_sy":28,"layer_type":"conv","l1_decay_mul":0,"l2_decay_mul":1,"pad":2,"filters":[{"sx":5,"sy":5,"depth":1,"w":{"0":0.026094082656661615,"1":0.2802779199190936,"2":-0.06007594040397212,"3":-0.22978449093646508,"4":-0.37143446305700434,"5":0.018750605213245283,"6":-0.023079860014893202,"7":0.14062175252463144,"8":0.49998663952928707,"9":-0.5105174147400972,"10":0.3743433027190301,"11":-0.9092411450770449,"12":-0.5235150568993217,"13":0.46886640853276323,"14":0.49178714877884694,"15":0.144739536840479,"16":-0.16695283022309707,"17":-0.26790437250369914,"18":-0.4070912964822615,"19":0.4406201497250125,"20":-0.5171501177607345,"21":-0.20024184018983374,"22":0.10369304456053127,"23":-0.3176706754624871,"24":-0.05456160791342603}},{"sx":5,"sy":5,"depth":1,"w":{"0":-0.04278072223453457,"1":-0.3340423049185344,"2":0.13167006689554484,"3":-0.12015424632675506,"4":0.017925639355046392,"5":-0.15605260088406844,"6":-0.1890844558827359,"7":0.33607560242163315,"8":0.13365671225659337,"9":0.12633430677532564,"10":-0.38362428600143866,"11":-0.4542567988444124,"12":-0.6162309131256238,"13":-0.657101299422462,"14":-0.34616828286547774,"15":0.33249174582710056,"16":0.28618582657278174,"17":0.3032437655391742,"18":0.07870814872777081,"19":-0.06296080806840121,"20":0.13429375509272787,"21":0.15356468833307696,"22":0.15992075756496563,"23":0.07531853199264973,"24":-0.004012146135534565}},{"sx":5,"sy":5,"depth":1,"w":{"0":-0.3412285691021842,"1":-0.45848959176732135,"2":0.5515953520210488,"3":-0.18134967840306634,"4":0.10503939028280224,"5":-0.5097276702286372,"6":0.08798569511880408,"7":0.4991515285513151,"8":-0.17317934161546886,"9":-0.06407864441359665,"10":-0.3334073910684859,"11":0.029165004662792895,"12":0.2929847721383486,"13":0.12657862951572052,"14":-0.32826239959558795,"15":0.09111212539443833,"16":-0.28213217095754883,"17":0.04768988637304826,"18":-0.092423315574317,"19":0.20490173109094606,"20":0.035448339455790706,"21":-0.04256327805838315,"22":-0.13783497602499187,"23":-0.1386211018435923,"24":0.18762722127687675}},{"sx":5,"sy":5,"depth":1,"w":{"0":-0.6609147526222143,"1":-0.41504426015619694,"2":-0.5815431304550899,"3":0.02012962251609746,"4":-0.16679098132736736,"5":-0.16667924697490505,"6":-0.3555511824181785,"7":-0.14382951538098512,"8":0.10377152092784664,"9":-0.16641678163876905,"10":0.10436928054703602,"11":0.2795525144509433,"12":0.6275330826746237,"13":0.3783037264269979,"14":-0.21636014181686153,"15":-0.33154444043555586,"16":-0.3850242688108969,"17":0.18012714589950776,"18":-0.08550888960182068,"19":-0.5781619841292703,"20":-0.05707892845409354,"21":-0.018418599310420142,"22":-0.47372971920178764,"23":-0.6358689224679323,"24":-0.06714531478089397}},{"sx":5,"sy":5,"depth":1,"w":{"0":-0.007079885923650592,"1":0.10861582540935281,"2":-0.02096337055593808,"3":-0.20888428386920102,"4":-0.08990462067711295,"5":-0.06071308997640744,"6":-0.23133219473807762,"7":-0.25671987165068827,"8":-0.05310307865913587,"9":0.2541837146431246,"10":0.1723902555272826,"11":0.11730296986179134,"12":0.17495764487665494,"13":0.2188432846359522,"14":0.11729278691423684,"15":0.03030250763855082,"16":0.11176706753511266,"17":0.14337104987114915,"18":-0.22769883114970627,"19":-0.2679171446792175,"20":0.017416104560089917,"21":0.14643026566138514,"22":0.20314182765483121,"23":0.4663868938672666,"24":0.1419531612135902}},{"sx":5,"sy":5,"depth":1,"w":{"0":0.18557758531647392,"1":0.040377183521410856,"2":0.008385912902368998,"3":0.13968198984731447,"4":0.018362129232851382,"5":-0.14428497083516958,"6":0.12899518442576832,"7":0.36621694794911325,"8":-0.061073965021419166,"9":0.2593913444991463,"10":-0.7551007190045212,"11":-0.3121636954999085,"12":-0.045792771617774015,"13":0.2454971431649301,"14":-0.2191812154396125,"15":-0.4267829476001308,"16":-0.7948729744239953,"17":-0.8033408961086792,"18":-0.4198970030623245,"19":0.013128520810125707,"20":0.3607932311667781,"21":0.17286897811115923,"22":-0.2054954461954285,"23":-0.43694043659632453,"24":-0.7482509290051843}},{"sx":5,"sy":5,"depth":1,"w":{"0":0.24033688320667942,"1":0.3528389251636698,"2":-0.09462481127001766,"3":-0.0018682234598166305,"4":-0.16623331985417264,"5":-0.09655225599723699,"6":0.2615273369847442,"7":0.19031498427564714,"8":0.2044187739268404,"9":-0.1431836732587063,"10":0.19176931256006782,"11":-0.012697938669460649,"12":-0.04815485927972547,"13":-0.2626458101016803,"14":-0.12119670678134971,"15":-0.17250027684148916,"16":0.3883585545086686,"17":-0.0771016220831311,"18":-0.2872391487178744,"19":-0.04046432930498579,"20":0.10261954888002739,"21":0.2883596047721346,"22":-0.030544199497975266,"23":-0.20198904204251045,"24":0.14749811406362096}},{"sx":5,"sy":5,"depth":1,"w":{"0":0.2552425949359711,"1":0.7061333607471335,"2":0.28914261082485015,"3":0.2637242771577605,"4":-0.1496914326570787,"5":-0.8283695884560242,"6":-0.6272241174934914,"7":-0.4419619880685449,"8":-0.6015672417516423,"9":0.017602133766161366,"10":0.37592202541474395,"11":-0.38939443597122353,"12":-0.14373664248948287,"13":0.4825872662163401,"14":0.19593855782991587,"15":-0.09140338937597683,"16":-0.04929350084254716,"17":0.28054956299287703,"18":-0.1419466468885312,"19":-0.18934416533444537,"20":-0.11320821093761953,"21":0.3368666842496995,"22":-0.2892604176665213,"23":-0.11051385333729546,"24":0.012135197048391113}}],"biases":{"sx":1,"sy":1,"depth":8,"w":{"0":-0.040715018776989964,"1":-0.1160202901268664,"2":-0.008738492273914345,"3":0.13433792083782642,"4":-0.4534908955099797,"5":0.2441248857858047,"6":-0.2884723985081263,"7":-0.06150440418442877}}},{"out_depth":8,"out_sx":28,"out_sy":28,"layer_type":"relu"},{"sx":2,"sy":2,"stride":2,"in_depth":8,"out_depth":8,"out_sx":14,"out_sy":14,"layer_type":"pool","pad":0},{"sx":5,"sy":5,"stride":1,"in_depth":8,"out_depth":16,"out_sx":14,"out_sy":14,"layer_type":"conv","l1_decay_mul":0,"l2_decay_mul":1,"pad":2,"filters":[{"sx":5,"sy":5,"depth":8,"w":{"0":-0.2215085014286536,"1":-0.10806942906356681,"2":-0.3888520760139488,"3":0.14623080188123294,"4":0.044771911688461785,"5":0.1536448046732832,"6":-0.12332987883100131,"7":0.15936371158717424,"8":-0.19897272761503118,"9":0.21309017781778122,"10":-0.07411638104614791,"11":-0.022900533833353623,"12":-0.046203405241431995,"13":-0.10760397823464388,"14":-0.007312804555959737,"15":-0.10632858346537173,"16":-0.18568132722712025,"17":0.1003340667951051,"18":0.100601129866745,"19":0.09384713986491464,"20":-0.02422321168199615,"21":-0.28243313109351365,"22":0.3164690095783702,"23":-0.23178498545626933,"24":-0.30055997657965927,"25":-0.2525720727510594,"26":-0.017752716178994075,"27":0.23353394218663642,"28":0.11371473088419289,"29":0.01501934265958959,"30":-0.014848233034105969,"31":-0.06873547105165263,"32":-0.08735572320962952,"33":-0.1555897343414378,"34":0.012547966878120613,"35":-0.01619295550499937,"36":0.12431284550619492,"37":0.07811517072049029,"38":-0.008791609796760433,"39":0.07889816870133383,"40":-0.26782040683593566,"41":-0.1570431950773064,"42":-0.23121458342228515,"43":0.11828519508326425,"44":-0.08265503186027685,"45":-0.2084691724307532,"46":0.02872338527645465,"47":0.12768871370822144,"48":-0.09531757232901378,"49":-0.05845952923660999,"50":0.15742936540498773,"51":0.05335706872194815,"52":-0.33491481045761007,"53":-0.12336630219973421,"54":-0.04154130074641289,"55":-0.057778288068934265,"56":-0.13194559220047308,"57":-0.07869965318175286,"58":0.03478893881940943,"59":-0.2290579303116898,"60":-0.4112033265527381,"61":-0.22561036268982,"62":0.18445322409599146,"63":-0.08559543786927393,"64":0.07098584910970124,"65":-0.5103491196618842,"66":0.14381261582349525,"67":-0.1067442303484392,"68":-0.2714737017174118,"69":0.04632223293371494,"70":-0.026925728153454655,"71":-0.17952040380709297,"72":-0.019196993362048144,"73":-0.076467170129919,"74":0.02972832405919135,"75":0.04724613593237213,"76":-0.0077299384162127635,"77":-0.07249282581414558,"78":-0.0943834736368473,"79":-0.26528282327247554,"80":0.07812668938073668,"81":-0.061138649897441284,"82":-0.16987137948262016,"83":0.025282687383630868,"84":0.000997965156355193,"85":-0.044399882959197806,"86":-0.06923128547749431,"87":0.02480623430520027,"88":0.02555806467911804,"89":0.3105408154150312,"90":0.17711984993643926,"91":-0.26356719763542574,"92":-0.035129680015191775,"93":-0.34529686019118916,"94":-0.022368046145789695,"95":0.019370294823364827,"96":0.1602246366085188,"97":0.11065582333315467,"98":0.057157144739158644,"99":-0.42043383396503936,"100":-0.3579329597895558,"101":-0.4869239224132551,"102":0.285220389089224,"103":-0.32970113902978687,"104":0.052437673348422885,"105":-0.1722383607322318,"106":0.2265338755790387,"107":-0.2747248005303232,"108":-0.3717623642285089,"109":0.057679969090682084,"110":0.0020987345655352936,"111":-0.33802374647323025,"112":0.13676786695679757,"113":-0.2588796693063057,"114":0.119256032529409,"115":-0.3394900294818585,"116":-0.2700669680422988,"117":-0.04151790502960116,"118":-0.06512441131278203,"119":-0.0998618222223248,"120":0.011531694471844874,"121":0.04768704059593412,"122":-0.16822993370121192,"123":0.02625843581531029,"124":-0.07683115059751718,"125":0.10416326167572539,"126":-0.07291268948806577,"127":0.04643634850903611,"128":0.21324300542472718,"129":-0.10796967374723332,"130":0.15889796782126095,"131":-0.36249226106641236,"132":-0.15963329117928143,"133":-0.056205302251097426,"134":0.003958678547874996,"135":-0.2844833581980158,"136":0.0491238433198645,"137":-0.12490916959738688,"138":0.25033895007928886,"139":-0.21714361463738066,"140":-0.026793467247014053,"141":-0.31348177234689395,"142":0.23816467981393036,"143":-0.40467314471984406,"144":-0.14434037294852528,"145":-0.24930276968755188,"146":0.2559117639714009,"147":-0.12230234939821102,"148":0.03257500585678687,"149":-0.28581291899185957,"150":-0.006150234820069154,"151":-0.3587197242631859,"152":0.08966042853627529,"153":0.02085095738944883,"154":0.04091233747511951,"155":-0.15215198156156368,"156":-0.15990423680961444,"157":0.04117882680991589,"158":0.048812541846441376,"159":0.00748601165112469,"160":-0.12273925113340506,"161":0.44618179746151954,"162":-0.09867339234591262,"163":0.01975930370685393,"164":0.33315305610912527,"165":0.022206767500895497,"166":-0.0269212802589921,"167":-0.2785422251902684,"168":0.0904586388683958,"169":0.36600974516431173,"170":0.2904583634645286,"171":-0.06904796467881417,"172":0.17628885424316992,"173":0.0527036678455435,"174":-0.1605071161302916,"175":-0.2256919588541704,"176":-0.04287477324835816,"177":0.21044857651068832,"178":0.11592519342620759,"179":-0.12884901269908214,"180":0.17129945972746813,"181":-0.30230920677691714,"182":0.2065179149544458,"183":-0.3732385596679373,"184":-0.3091835052928468,"185":0.1543200145653519,"186":0.3703530474101564,"187":0.010848081624211064,"188":0.2182678265713554,"189":-0.46118411688305533,"190":-0.1307321524173528,"191":-0.12868952377002735,"192":-0.1488716627278497,"193":0.3143595548034426,"194":0.04090176697587288,"195":0.2595170483531188,"196":0.018256645612320974,"197":-0.417577392505426,"198":-0.10172015128203682,"199":0.24643135711880845}},{"sx":5,"sy":5,"depth":8,"w":{"0":-0.1462767112070841,"1":0.1302670955537669,"2":0.10494617815237159,"3":0.24722257697678987,"4":0.12048960968433191,"5":-0.06396479799682082,"6":-0.07181821120728848,"7":0.03863841695058861,"8":-0.25204200561458034,"9":-0.11217296759424364,"10":0.02090995141240278,"11":0.1259628298346616,"12":-0.16866351525102075,"13":0.015407520881377347,"14":-0.05642083954532815,"15":0.17216647083370415,"16":0.14062959266687017,"17":0.05280809664673193,"18":0.11910102686922076,"19":-0.16887247325259652,"20":0.02852257026639749,"21":0.08276913187721623,"22":-0.2793413429241123,"23":-0.24440636602550805,"24":0.17088114783272854,"25":0.08312120039753985,"26":0.0542127562472651,"27":-0.19513327763801774,"28":-0.06121797541510692,"29":-0.15883888638455457,"30":-0.03488099072550574,"31":-0.1424600480967103,"32":0.10178935335152726,"33":0.054018303691541446,"34":-0.09720129543732364,"35":0.01964728069809342,"36":-0.07353313237835091,"37":0.06331994953668546,"38":-0.05056468995095964,"39":0.10102887601140378,"40":0.3793929598471857,"41":0.12185827746423387,"42":0.21351705530086565,"43":0.018593136352772033,"44":0.15522433868198315,"45":-0.034620408243825646,"46":-0.006012927411421159,"47":0.013271222168935944,"48":-0.3860970393184644,"49":-0.06900045406895164,"50":-0.16783848402234222,"51":0.23105045538273208,"52":-0.034804266721015366,"53":-0.2286367920072448,"54":-0.0776415885328347,"55":0.043545787212040006,"56":0.39746706569248297,"57":-0.2426074997057577,"58":0.2192496194396158,"59":-0.2131792508119884,"60":-0.41162121198899676,"61":0.05388182255153703,"62":-0.1897154107528322,"63":-0.01577480047741644,"64":0.20814625259475808,"65":-0.019204857180119023,"66":0.1592290059802057,"67":-0.35730264919222227,"68":-0.018022560520117026,"69":0.15380321606424385,"70":0.21352897411672084,"71":-0.17747354501612067,"72":0.19769020463705325,"73":0.07091180901254396,"74":-0.08595897126774299,"75":0.03086893474798828,"76":0.028792818199407794,"77":0.10083306925796713,"78":0.18718423816889898,"79":0.022959052934526478,"80":0.2691560800387566,"81":-0.1406723512027524,"82":0.193725480388103,"83":0.08460531289033305,"84":-0.039028779431215244,"85":0.11747225036271368,"86":0.11973938572430164,"87":-0.006525245685025648,"88":-0.10908069527857693,"89":-0.12920888746985265,"90":0.01397734442640912,"91":0.2773338678130737,"92":-0.14260161688439138,"93":-0.1014880856563007,"94":-0.05314164637821157,"95":-0.23003661724478386,"96":-0.04679297432572114,"97":-0.24611481606020072,"98":0.10359429076209332,"99":-0.07984943708339949,"100":-0.28106416387999367,"101":-0.15279145771282338,"102":-0.32215206554547765,"103":-0.2585794863312927,"104":0.42111923620268954,"105":-0.41751642759337065,"106":0.2946373702742958,"107":-0.41698130851643767,"108":-0.2175389943386509,"109":0.044970708283936296,"110":-0.04196296611592721,"111":0.13048388859062615,"112":-0.06551458777596501,"113":-0.17969095744306848,"114":0.16734437204952932,"115":-0.22086880384484478,"116":0.053467951190960594,"117":0.037517759612940044,"118":0.3772745453060317,"119":0.0059864305568808306,"120":0.15830781051876033,"121":-0.09739190102499258,"122":-0.09677724886900958,"123":-0.12474082076713666,"124":-0.3008356851935428,"125":0.23535818530378663,"126":0.1020798735727504,"127":-0.12708358633739641,"128":-0.1800551715377027,"129":0.1273693553813778,"130":0.06563075188627665,"131":0.0701156896356427,"132":-0.21600925048563316,"133":0.08190165222940529,"134":-0.12195202883875696,"135":-0.08990462889671504,"136":0.18143447359991915,"137":-0.04388438377354201,"138":-0.14660234329247696,"139":0.021188869998166618,"140":-0.17694299102075295,"141":-0.30670701683766916,"142":-0.10892943168784247,"143":-0.10677509405462941,"144":0.04166331502792947,"145":-0.1316282894721091,"146":0.014468926600204771,"147":-0.024375958000868517,"148":-0.004357092162221797,"149":0.13064575660148114,"150":-0.45382070795796065,"151":-0.2375222057426012,"152":0.23448961831397197,"153":-0.35838097235011596,"154":0.25294057409937304,"155":-0.24154475105107776,"156":-0.0043698655151154075,"157":0.032655315130165515,"158":-0.20743162998397044,"159":0.3075761287105689,"160":-0.22425707762632657,"161":-0.2223997195796015,"162":-0.21881828508530793,"163":0.15401574302452595,"164":-0.18484018676341024,"165":0.1051113211478503,"166":-0.26437575005200453,"167":0.03718709520226706,"168":-0.31994494999960227,"169":0.01803118797602906,"170":0.1322239268354491,"171":0.08538057571459277,"172":-0.22212536172084257,"173":-0.07967381363684815,"174":-0.2534860146883131,"175":-0.01562524369178766,"176":-0.12078704126737791,"177":-0.09967129977991537,"178":-0.10661290307039566,"179":0.01043859815682478,"180":-0.2623096904585849,"181":-0.14339841883513982,"182":-0.024230696118359655,"183":-0.3236462834502875,"184":-0.2824222012657304,"185":-0.18763919231287568,"186":-0.34540393268226943,"187":0.09212587618150636,"188":-0.11073424806006188,"189":-0.04704122353180922,"190":-0.268114440143777,"191":-0.19815986554938247,"192":-0.0625973770912116,"193":-0.12807666202238724,"194":-0.2063727159010544,"195":-0.03705764434630244,"196":-0.3060209195553841,"197":0.1751300024687833,"198":-0.4479596392540452,"199":0.2612717225108265}},{"sx":5,"sy":5,"depth":8,"w":{"0":-0.11520019275539298,"1":-0.07996984464486384,"2":0.16249857043003998,"3":-0.4790921453811654,"4":-0.010243760807292246,"5":-0.08162742295305923,"6":-0.056438431433334456,"7":-0.08307326239015299,"8":-0.4319162517129601,"9":0.08236826865417965,"10":-0.08742255409924571,"11":-0.33636328902981083,"12":0.26628695566953203,"13":-0.08503395392730126,"14":-0.06602669524441464,"15":-0.15217182882347408,"16":-0.26127639082712334,"17":0.19806144833910003,"18":-0.18823443618733485,"19":0.02750123668028835,"20":-0.042926828432172465,"21":-0.13592240272844816,"22":0.07103759518370308,"23":0.053340695265876245,"24":-0.1624544953000104,"25":0.12824334330642784,"26":-0.20637974748022153,"27":0.03780170755810955,"28":-0.22650913640085116,"29":0.18773378480963024,"30":-0.15761721943808832,"31":0.03684997687275289,"32":-0.11286872802194668,"33":-0.03313497579043928,"34":-0.23594484437554192,"35":0.18974687746906904,"36":-0.14043512743525938,"37":0.06017750062660272,"38":-0.13032212697670673,"39":0.0855744152784687,"40":-0.026809151389666764,"41":-0.024052444903619997,"42":0.11378979475294841,"43":-0.4876794194525108,"44":0.09030013304961391,"45":-0.5502484212114754,"46":-0.10128790837780456,"47":0.0803254895990407,"48":0.024454572214918535,"49":0.28213560578082475,"50":-0.04790660765601535,"51":-0.506577154804567,"52":0.13804004289734575,"53":-0.06131489424454577,"54":-0.034495792387187356,"55":0.11808384984700335,"56":-0.19468011920463463,"57":0.10773532733269668,"58":-0.13448238848328342,"59":0.02806722201611688,"60":-0.08130112822995077,"61":0.004065983709590883,"62":0.0555271048345041,"63":-0.09243936149045498,"64":-0.2956828693143614,"65":-0.1450700699585625,"66":-0.2362049193494441,"67":0.04940286911206609,"68":-0.10171038150848777,"69":-0.10953267721016124,"70":-0.1755014912715168,"71":0.017486469171596887,"72":-0.20413445888217463,"73":0.1613346632314504,"74":0.060635235264419135,"75":0.1557030207756548,"76":-0.17504804489084497,"77":-0.11014918791544756,"78":-0.2611636448938127,"79":-0.08352251420985696,"80":-0.04649702931158624,"81":-0.14699717251393093,"82":0.10373107900372147,"83":-0.5818233033692112,"84":0.18299838611921157,"85":-0.7300170603108262,"86":0.05130732953717908,"87":-0.11197949739153792,"88":-0.1434686796268493,"89":0.12632826220575769,"90":0.10458526982257163,"91":-0.4820930322698174,"92":0.2950950192299102,"93":-0.4413411095424888,"94":-0.05944741104882558,"95":-0.10156252652981054,"96":-0.42610490026486453,"97":0.1830232622137088,"98":-0.14194649673225862,"99":-0.2741133513341429,"100":0.06565999723994266,"101":-0.36529008700877635,"102":0.33146182993710693,"103":-0.028521105318629482,"104":-0.03336439821606561,"105":-0.0706833286763391,"106":-0.0017463692567829608,"107":0.0576222664154413,"108":-0.08930157155136377,"109":0.0213617011935954,"110":-0.3091087931604915,"111":-0.19816841131532614,"112":0.00905577574291605,"113":-0.03353845984112997,"114":-0.01336179312677413,"115":0.23561473176205291,"116":-0.052627188149865924,"117":0.04944250946760596,"118":-0.17029546576414525,"119":-0.06654995594086788,"120":-0.012298671839034091,"121":0.045116888228883247,"122":0.06433253949450979,"123":-0.0888126868972842,"124":0.11940351933954677,"125":-0.53143766073519,"126":0.008150194327609564,"127":-0.0475837182594065,"128":0.11418172161756517,"129":-0.21185847178784717,"130":0.10073516405291352,"131":-0.6455781767729224,"132":0.03296153419709323,"133":-0.33303890356420995,"134":-0.02852434804133793,"135":-0.5677936830827196,"136":-0.1437378627839132,"137":0.10587664095711548,"138":0.003604143221060255,"139":-0.5939045915859954,"140":0.14245513344062513,"141":-0.38197668026969744,"142":0.43378853811043006,"143":-0.4301621661521638,"144":-0.11610098217976901,"145":0.15679409280987208,"146":0.21901035383923048,"147":-0.04257685123132304,"148":0.19807016103204317,"149":-0.06143093867252128,"150":-0.1170353192070583,"151":-0.14211951276973817,"152":-0.17696796228389328,"153":-0.0915238388217661,"154":-0.026833285712228098,"155":-0.22948123294907186,"156":-0.23254821618513272,"157":-0.3482187499139218,"158":-0.11979665650274372,"159":-0.00024938053369285293,"160":0.30821449174679394,"161":0.1220335253267487,"162":0.34335675448482417,"163":-0.08701815369919164,"164":-0.12336916955667407,"165":-0.17280868440890404,"166":0.07322461698010109,"167":0.020034975040517124,"168":0.5590619029156737,"169":-0.1633677980447896,"170":-0.05351719590927943,"171":-0.481576579367549,"172":-0.2588152306678903,"173":0.04572267408488003,"174":0.019900246625760423,"175":-0.18663817316655637,"176":0.12625041068839735,"177":0.10507503644454641,"178":0.2497710714480264,"179":-0.4911745266939082,"180":-0.005866308688545469,"181":-0.1245968308597522,"182":0.38511467943818123,"183":-0.2837002322192942,"184":0.01539331497932947,"185":0.19573092805162523,"186":-0.022216434487611295,"187":0.11340479956447004,"188":0.14764109989125238,"189":0.09594184389926391,"190":0.056998852959705665,"191":0.023460143674161178,"192":0.08630480233778261,"193":0.024927867270417355,"194":0.047570152586260135,"195":0.4099870697239422,"196":-0.08320116051904324,"197":0.11149963901543414,"198":-0.0856565667488731,"199":-0.1691811102654624}},{"sx":5,"sy":5,"depth":8,"w":{"0":-0.0762537296908505,"1":-0.07353716935125992,"2":-0.013629726791698424,"3":0.04895088321357821,"4":0.03492819550942387,"5":-0.49583896164950675,"6":-0.14252217188205055,"7":-0.07974441190955293,"8":-0.05639148747540311,"9":0.05633458998746027,"10":0.07717501176667528,"11":0.11011566318043495,"12":0.04537129394524362,"13":-0.377529368245618,"14":0.1886950287363412,"15":-0.12038093949495061,"16":0.15825459278866294,"17":-0.020503291364199462,"18":-0.072691962250149,"19":-0.12139888461663972,"20":0.06669716338773393,"21":-0.000745857826222289,"22":-0.06098402697209563,"23":0.07001422439250109,"24":0.17223537786079093,"25":-0.030055953256401566,"26":-0.060706529052545456,"27":0.15661163854109963,"28":0.032407203117328386,"29":0.04879741872091624,"30":-0.31897118916617895,"31":-0.12321188684489132,"32":0.06498158296273655,"33":-0.07407968138058492,"34":-0.20335786093909525,"35":0.17473022629953092,"36":-0.029834264166681244,"37":0.01955529602547959,"38":-0.19690674058130153,"39":0.014955379938447833,"40":-0.1307476362588752,"41":0.015451199901421415,"42":-0.09654119834642574,"43":0.09303826732796504,"44":0.1340815142745902,"45":-0.3870363436286326,"46":0.17380411576322974,"47":0.03155533568435677,"48":0.142739023664739,"49":-0.1219625762620451,"50":0.08411496534987561,"51":0.16385964093985828,"52":0.10552404733879209,"53":-0.04661313307805735,"54":0.3052348325541799,"55":-0.005749995530044739,"56":0.06207839267442943,"57":-0.08997007852163419,"58":-0.27132437350398336,"59":0.18904889157214738,"60":-0.0870042389840348,"61":0.30646093459082696,"62":-0.10517594692123149,"63":-0.11307712521439549,"64":0.13226740572564885,"65":-0.11085925030639351,"66":-0.0727438100029082,"67":-0.05597497713759864,"68":-0.28443921045112525,"69":0.2977398865781218,"70":-0.3085164586330497,"71":0.018426912251793492,"72":-0.14616593633633607,"73":-0.3339976615079791,"74":-0.06945725769526688,"75":0.029714130536938554,"76":0.01348672924488406,"77":-0.10833043974547658,"78":-0.27317831217252786,"79":-0.15477122591989875,"80":0.14577470276634305,"81":0.32575343544501584,"82":0.26359139189747893,"83":-0.14830612205937185,"84":0.2353654095240374,"85":-0.035447903657434776,"86":0.1786762983938586,"87":0.1428786137927936,"88":0.6014948315618371,"89":0.35516207416043905,"90":-0.1925019685119952,"91":-0.1463265540107322,"92":0.13773005516802822,"93":-0.04327773598289154,"94":0.09939898440011831,"95":0.16178905065360824,"96":0.15931623609808934,"97":0.070826627599072,"98":-0.49453229312190333,"99":-0.04830203896593819,"100":-0.2903575459255864,"101":0.2292039974462895,"102":-0.11458063409409204,"103":0.06928265454009759,"104":0.08099936970093476,"105":-0.34689474597970843,"106":-0.30153305492234933,"107":-0.20735055706347702,"108":-0.4197853865268648,"109":0.15883095467064598,"110":-0.3262855706720154,"111":-0.12046241676936906,"112":-0.02820076704508339,"113":-0.4721373051238629,"114":0.1906900343122272,"115":-0.21255154351466973,"116":-0.17975246803532813,"117":-0.11766025077504129,"118":-0.28599052718772927,"119":-0.00894588997113193,"120":0.46310271340095427,"121":0.17619035393820504,"122":-0.08811204446164418,"123":0.1381647218431625,"124":0.31487202433363864,"125":0.15340296626581815,"126":0.308641214746425,"127":0.33294534306496826,"128":0.3659921453168036,"129":0.2102829807946455,"130":-0.34260161422077834,"131":-0.2363090401361026,"132":0.025502139768655212,"133":-0.010591937872788566,"134":0.011141208932460959,"135":0.25990479747173906,"136":0.1048845385365225,"137":-0.016265945786746592,"138":-0.13212818021041783,"139":-0.06512888251770316,"140":-0.31618611228713817,"141":0.02775424342256555,"142":0.03974530720092415,"143":-0.04484653335868024,"144":-0.2843777033473088,"145":-0.238623410358922,"146":-0.40833288494533454,"147":-0.0656690294743881,"148":-0.3870986766750654,"149":0.16648754641556301,"150":-0.3139262841466257,"151":-0.40289451693047945,"152":0.11893427895832923,"153":-0.4325668716708,"154":0.11633098849932509,"155":-0.3807962946776796,"156":-0.2639196891141323,"157":-0.1951252027386099,"158":-0.589874018504777,"159":-0.19962558501545413,"160":0.19715781725750114,"161":-0.3756994388528587,"162":-0.29919817596813647,"163":0.05800705527481533,"164":-0.13395965363151757,"165":0.02950598499917023,"166":0.08039642678172437,"167":0.4067374434310874,"168":0.20218509679031238,"169":-0.31237017408760076,"170":0.024664889237750554,"171":-0.21749193968585143,"172":-0.16545275678193933,"173":-0.2567079320656334,"174":0.15380212121336415,"175":0.2624828932829315,"176":-0.11550855118163243,"177":-0.0450007903987897,"178":-0.07048591773281013,"179":-0.14220092385727856,"180":-0.2269132789918045,"181":-0.3633585192692394,"182":0.1395710509281175,"183":-0.11882711369716331,"184":-0.18549297713990068,"185":-0.13506913439391402,"186":-0.21293290607750404,"187":-0.15565507486755253,"188":-0.280963984082513,"189":-0.08512886206438429,"190":-0.5016014434308392,"191":-0.4648659409577143,"192":0.05211854316465748,"193":-0.10556058236663629,"194":-0.15522723282507775,"195":-0.3344147927751192,"196":-0.07922847450364838,"197":-0.08023837008456834,"198":-0.6855921559592877,"199":-0.6416585668729284}},{"sx":5,"sy":5,"depth":8,"w":{"0":-0.24795916967499262,"1":0.00545493428261557,"2":-0.6907925657682744,"3":0.15102576272125,"4":0.04067799373777436,"5":0.23622062913661326,"6":0.1421406116253287,"7":0.16278386297734415,"8":-0.5307187919782614,"9":-0.07075019571521013,"10":-0.5669520722150813,"11":0.3778087707951083,"12":-0.11351236633885567,"13":-0.039742018307599936,"14":-0.15283642643866707,"15":0.1022353578835797,"16":-0.03653952592332895,"17":0.14432207640851477,"18":0.04436799308954676,"19":0.10470835044215837,"20":0.11100908462927589,"21":0.06830856353153757,"22":-0.13034122995181452,"23":0.0823028011206484,"24":-0.22607039187239422,"25":0.019057463742964437,"26":0.1619023480019576,"27":0.10679187987574722,"28":0.2153397372926233,"29":0.15380168439298278,"30":0.020610637998835037,"31":0.09375981945617055,"32":-0.26036007069333683,"33":0.06170594597285134,"34":-0.030379191372133702,"35":0.22910074829125066,"36":0.05939102847478395,"37":0.15970353048912006,"38":0.16149025616979562,"39":0.15462660131835557,"40":-0.42966536645211506,"41":-0.059645311053421274,"42":-0.3952546859179226,"43":0.08714687955323484,"44":-0.14716192140288456,"45":0.38877037392380404,"46":-0.13442342349392203,"47":0.11528789106096864,"48":-0.44416692271592983,"49":0.0350369075466047,"50":-0.49274436574878366,"51":0.04835905279888693,"52":0.08033023117427333,"53":0.12370768279080822,"54":-0.22489444677252163,"55":0.08747850930675838,"56":-0.20516388665692165,"57":0.3011382039491908,"58":-0.3132813756143106,"59":0.08583508139313438,"60":0.08701135184849412,"61":0.004851648276914632,"62":-0.20846186135598496,"63":-0.033597137697081024,"64":-0.33159050727058015,"65":-0.0011202872032401317,"66":0.0803185693903267,"67":0.05262467325840539,"68":-0.19442370432237602,"69":0.17962436401143037,"70":0.16991389975406138,"71":0.1068726975865913,"72":-0.2611178967057614,"73":-0.06580851999252228,"74":-0.2200814871909115,"75":0.08105537861507407,"76":-0.3651160471168164,"77":0.11857993270385955,"78":0.05590151053354895,"79":-0.020626356037004495,"80":-0.32968166144868416,"81":-0.040942901047453434,"82":-0.27954225853093595,"83":0.09259690770872939,"84":-0.16134429612461246,"85":0.11549216966274904,"86":-0.07377055155833405,"87":-0.1099113295586605,"88":-0.2891526041691467,"89":-0.3509611048689816,"90":-0.3339659032002724,"91":0.16313919652474565,"92":-0.0036383181157273667,"93":0.017907558502182196,"94":-0.30570070398994575,"95":-0.0113580000948552,"96":-0.29574291696552596,"97":-0.2214807274567883,"98":-0.499192588403316,"99":0.11206310073454791,"100":-0.06110870530772102,"101":0.01711404998656728,"102":-0.027304965814531547,"103":0.1039881317922424,"104":-0.41203854817178853,"105":-0.25302893660760367,"106":-0.0926872883665086,"107":0.04345578277808575,"108":-0.16834314204394182,"109":-0.03813183580241024,"110":-0.028957354903177093,"111":0.10940723461459258,"112":-0.4102456823651686,"113":-0.3111248266264134,"114":-0.29379817713266965,"115":0.019993440726330608,"116":-0.3088338948906169,"117":0.06612069643992052,"118":-0.14332906137550722,"119":-0.10082186585270467,"120":-0.7139143532140829,"121":0.15878940718016393,"122":-0.20525721748268308,"123":0.20812417077966064,"124":0.028906724052826994,"125":-0.06020176571684056,"126":-0.07736273552101418,"127":-0.03822802321953114,"128":-0.7154928876332771,"129":0.03767384222254823,"130":-0.3208246470169769,"131":0.015561094640790026,"132":-0.10523474848795114,"133":-0.048945445840439215,"134":-0.5216240001374846,"135":0.025615856999085522,"136":-0.4858315956801662,"137":0.07275116278343162,"138":-0.3121156917306,"139":0.09555636189528212,"140":-0.03875684608775315,"141":0.10196584432864846,"142":-0.3603990011884283,"143":0.022055005437483115,"144":-0.48362331304565903,"145":-0.001235249281393193,"146":-0.1123723943107559,"147":0.09747984075948547,"148":-0.1811395719004867,"149":-0.03863293368946888,"150":-0.25051668367681346,"151":0.008020192117064858,"152":-0.31286020571985335,"153":0.1022315639948828,"154":-0.06486284276101167,"155":-0.22720284692294535,"156":0.012952543655934227,"157":-0.045646249432733814,"158":-0.13558633623444766,"159":-0.10425056281917175,"160":0.030487586966105963,"161":-0.22306321858515754,"162":-0.15588171200258938,"163":0.17477157209629773,"164":0.02049903924844607,"165":0.032961935126474946,"166":0.1551437203402215,"167":-0.31811852295608734,"168":-0.15054310065561693,"169":-0.22100347028155484,"170":-0.3920461452500991,"171":0.07887504114066009,"172":-0.28443769939238506,"173":0.22019595167207365,"174":-0.3031921693955793,"175":-0.15213912597767631,"176":0.06656759446700451,"177":-0.14500925335409912,"178":-0.13087122080284427,"179":-0.008645598944601755,"180":-0.09352267316581425,"181":0.07303933913148807,"182":-0.20290467063967224,"183":-0.11109063271360929,"184":-0.1625235157287327,"185":-0.06390246712330824,"186":-0.13161746813374234,"187":-0.024007308549387058,"188":0.1231156035224915,"189":-0.018622140784016594,"190":-0.03915348965633565,"191":-0.10618097980652584,"192":0.020666141683020143,"193":0.15361374785438053,"194":0.12676931354469534,"195":-0.01731004425933878,"196":0.3174106256797656,"197":-0.13656463044264883,"198":0.04290626257620329,"199":0.1694707221554477}},{"sx":5,"sy":5,"depth":8,"w":{"0":0.062341601296791734,"1":0.05053677895304197,"2":-0.29319872872253966,"3":0.5930966814086296,"4":-0.04309323230329216,"5":0.3378235271881134,"6":-0.16858138704278922,"7":0.19560864672782588,"8":0.16428409080551845,"9":0.18707715787161727,"10":-0.45003685907366664,"11":-0.0770377468180517,"12":0.13028784677605662,"13":-0.03383543715478236,"14":0.04999609310876478,"15":-0.1628179370485736,"16":0.17346991304867215,"17":0.03335949387534017,"18":-0.11974763076385736,"19":-0.13482459782336684,"20":0.1976414897574105,"21":-1.3158728889780007,"22":0.06879685897022957,"23":-0.11097866148009757,"24":0.17246555348590964,"25":-0.30586190576411465,"26":-0.06130735289217764,"27":0.04875927635109033,"28":-0.0009385543099484405,"29":-0.37768402441290067,"30":0.08979670758406573,"31":-0.02411355621625887,"32":0.3207419923691948,"33":-0.050093467699018124,"34":-0.08357038896163312,"35":-0.24779017989978655,"36":0.051814354991535486,"37":0.33277803167689757,"38":0.14883417325396003,"39":0.33968254868397585,"40":-0.20749663752020267,"41":-0.0667888238072849,"42":-0.33049531640080426,"43":0.1409290992823167,"44":0.06338705363031097,"45":0.16645217085454708,"46":-0.26160578806339096,"47":0.29981865094721566,"48":-0.06270394976648985,"49":0.11278044750783901,"50":-0.14926229604217267,"51":-0.1691107499634686,"52":-0.17282851538424293,"53":-0.34783307378841954,"54":0.15923231691854117,"55":0.10704630235743694,"56":0.09635273602771942,"57":-0.09172728550287172,"58":0.2540283378095335,"59":-0.4858219732385273,"60":0.038785716254724725,"61":-0.9573019828486746,"62":0.112422075534646,"63":-0.19649655717740017,"64":0.07767892843482493,"65":-0.21905280337680047,"66":-0.0318456670966369,"67":-0.4183068711264331,"68":-0.04495443599827383,"69":0.1418453865312867,"70":0.1009893899584194,"71":-0.21876532922023248,"72":-0.016943051954482813,"73":0.08681486838487436,"74":-0.008645548615624903,"75":-0.10529991450420821,"76":-0.06515747971463505,"77":0.029451315477448146,"78":0.08230220496777971,"79":0.14550814955266683,"80":-0.4191598077365267,"81":-0.04730194484893813,"82":-0.24148738104049008,"83":0.3475259162940011,"84":-0.030295883505938977,"85":-0.2320313311657026,"86":-0.29622859972547916,"87":0.18326386292332875,"88":-0.007395928560347855,"89":-0.08653290119395127,"90":0.1622916544213392,"91":-0.4569455747888155,"92":-0.23674189727767903,"93":-0.37742470266121214,"94":-0.02789288893476482,"95":-0.11025509600748468,"96":0.211466339812018,"97":0.06929709346485527,"98":0.2845467209708065,"99":-0.7701325112261165,"100":0.23837498212999977,"101":-0.10537058434347601,"102":0.08834852523537928,"103":-0.6835821569102849,"104":0.11093183688154831,"105":0.26067062102004174,"106":-0.061674459427315545,"107":0.02083476171124524,"108":0.10492039694626538,"109":0.186003729288036,"110":-0.07301468207448455,"111":-0.21046945278595186,"112":-0.14881944090737687,"113":0.2630849477131059,"114":0.13201021048077224,"115":0.1892225807712113,"116":0.03377120731127177,"117":-0.09024706965145074,"118":0.03671142746117222,"119":0.2706098156151588,"120":-0.24606384834688774,"121":0.1324602572807324,"122":-0.021854091871124352,"123":0.28307154171082677,"124":0.019334219315019597,"125":-0.33196265278725146,"126":-0.18779514786100637,"127":0.0870743670443496,"128":0.21108556627456698,"129":0.040990770875292196,"130":0.2916025054214689,"131":-0.2840651763724582,"132":-0.2171140385995332,"133":-0.2127055419072311,"134":0.07000171560103374,"135":-0.1507668566805736,"136":0.23744256351378637,"137":-0.2369652472969641,"138":-0.08882279192380016,"139":-0.7724901542370617,"140":-0.08954435468074427,"141":-0.16398103426226326,"142":0.11184588387256372,"143":-0.37810094415320633,"144":0.12935326693312493,"145":0.057594147357450345,"146":-0.1736215844738962,"147":-0.058968353150645275,"148":0.008093284075621873,"149":0.3054218039737659,"150":0.0478309145972737,"151":0.15479808169549908,"152":0.07129135217050296,"153":0.4929223691033569,"154":-0.07369839879964807,"155":0.2600841452180929,"156":0.2821832773246973,"157":0.1903724951329441,"158":-0.07999754893109703,"159":0.32887751079125127,"160":0.09785157613646717,"161":0.16554826464336286,"162":-0.09868776958410386,"163":-0.019624934428550418,"164":0.03555001827598622,"165":-0.08060884528871405,"166":-0.14997807640256497,"167":0.14340253334519742,"168":0.1368875914198299,"169":-0.036418062817860745,"170":0.13199906133987202,"171":-0.2642513660718156,"172":-0.230176126898412,"173":-0.14327290361095413,"174":-0.011167471051015869,"175":-0.3026325809811692,"176":0.05878473502706952,"177":-0.23851548654216514,"178":-0.11374299904946518,"179":-0.5091493872452066,"180":-0.340991444836225,"181":-0.2245202187179086,"182":0.13087580481622224,"183":-0.2388059535309044,"184":0.04867153944124677,"185":-0.30675624708342875,"186":-0.35403654434913484,"187":0.04267723622163036,"188":-0.15129087371540528,"189":0.3380419425259127,"190":-0.046491587804909716,"191":0.10183826225989531,"192":-0.0930752882482171,"193":0.01881196957810679,"194":-0.466181558990558,"195":0.3985219823522599,"196":-0.11543537283757765,"197":0.2803895535003535,"198":-0.04418624551056433,"199":0.3515471022297628}},{"sx":5,"sy":5,"depth":8,"w":{"0":0.25444421102806514,"1":0.040311174321311635,"2":0.01451787313582,"3":-0.0293766139954989,"4":0.22033226521436317,"5":0.027290637314131547,"6":0.03402243501807735,"7":0.0685117137462511,"8":-0.2611775814412189,"9":-0.04819666086862569,"10":-0.2611879765175183,"11":0.1931102881738315,"12":0.02223191730977596,"13":-0.10739813198196448,"14":-0.06136284877949484,"15":-0.051194873183276625,"16":-0.2761901561021654,"17":-0.06393742650986026,"18":-0.176229220893195,"19":0.04794665063673291,"20":-0.053286982655084525,"21":-0.08612721874944436,"22":-0.17538618854310187,"23":0.04980790152712609,"24":-0.13562372901399278,"25":-0.09697918254018954,"26":-0.02564053850731305,"27":-0.18771126936541122,"28":-0.15371590965687237,"29":-0.403811670861772,"30":0.01954551059645422,"31":-0.2192031264527539,"32":0.07640693364408405,"33":0.29936165051091707,"34":0.0767287400655714,"35":-0.35895193140228276,"36":-0.04584306861460142,"37":-0.23920199709804474,"38":0.30710433506620505,"39":-0.4043054097490542,"40":0.13397191757539656,"41":0.013180600379671989,"42":0.06060601535968164,"43":0.168015350275491,"44":-0.09403139120882714,"45":0.0232310192559383,"46":0.046629013765656965,"47":0.24683770553193268,"48":-0.08363866409992275,"49":0.09675293519777352,"50":-0.1102622930069726,"51":0.23669929527165498,"52":0.031108889222188806,"53":-0.16013256502565995,"54":0.09110093937908084,"55":0.11156895427480917,"56":-0.3876491452322596,"57":-0.3873886919924182,"58":-0.4503714792346058,"59":0.2391430196648209,"60":-0.06734536061535476,"61":0.09810093816200882,"62":0.09950171171584474,"63":0.03602569102663028,"64":0.06756404163469011,"65":0.07810846420990408,"66":0.20860570925976626,"67":-0.21147072599992603,"68":-0.06005292677055169,"69":-0.35209400880846065,"70":-0.0254984942688379,"71":-0.2704144628327285,"72":0.020093674826939495,"73":0.286164032203147,"74":0.08514561152080563,"75":-0.15995642941947671,"76":-0.04488605784317708,"77":-0.49703201114888496,"78":0.2235538442129683,"79":-0.29493823460264873,"80":-0.36208853814254477,"81":0.008821584838588133,"82":-0.14811099171343728,"83":0.1568002843632584,"84":-0.0076112893627431994,"85":-0.050140141557308025,"86":0.04068780994717749,"87":0.05194122126557048,"88":-0.23348722327229243,"89":-0.10350216712564461,"90":-0.06783076965181468,"91":0.23713713354556004,"92":0.08101948664321228,"93":-0.03443625609578983,"94":0.03594351665859381,"95":0.11804260397637231,"96":-0.45759223722823156,"97":-0.18432718901005063,"98":-0.11710280317659591,"99":0.2536126701697964,"100":-0.3327562442753131,"101":-0.18097078750775272,"102":0.003075237896560265,"103":-0.02689489605016294,"104":0.0705387940208203,"105":-0.07029589787240295,"106":0.34352475044884057,"107":-0.029502396193589915,"108":-0.2183620803967035,"109":-0.4236846242140069,"110":-0.09577280659969883,"111":-0.4938376519644039,"112":0.26987702270709,"113":0.052343231212063274,"114":0.29686712054337516,"115":-0.4246856151832225,"116":-0.16028011866232528,"117":-0.8338562226170054,"118":0.21707195899838466,"119":-0.43549386601066825,"120":-0.16354132774116314,"121":0.23878762806458767,"122":-0.07388987152191606,"123":0.2526160044166838,"124":0.010090378452986753,"125":0.013214016355093292,"126":-0.005713101825168739,"127":0.1486602487518081,"128":-0.10598409579581816,"129":0.08583424902696797,"130":-0.03659496773302225,"131":0.39195430883869026,"132":0.014264965014558173,"133":0.07222912912893648,"134":0.04309010300025955,"135":0.03619335077374712,"136":-0.43695791273762186,"137":-0.02280782273259753,"138":-0.22980945415536191,"139":0.16512952397283492,"140":-0.05142155429586629,"141":-0.07301348489132309,"142":0.09768943754717171,"143":0.15797554183654203,"144":0.12960929267846233,"145":0.1676273449877589,"146":0.2975692827833525,"147":0.13322587785969014,"148":-0.15142694255230923,"149":-0.20222242597018028,"150":0.001560100668107345,"151":-0.42124255584598086,"152":0.15356353367762904,"153":-0.2795048659364302,"154":0.3218389900254824,"155":-0.4765370074816938,"156":-0.14682550148526008,"157":-0.4753226606910721,"158":0.3242481281520387,"159":-0.42239551244537327,"160":-0.02007170419699437,"161":0.29422642303501545,"162":-0.11095277055465007,"163":0.16992367148020107,"164":0.12158707199084186,"165":0.10643903423625856,"166":-0.0136611524622113,"167":0.263171901826599,"168":-0.16272827490834726,"169":0.1074490611601622,"170":-0.15544656073250315,"171":0.24670086291682358,"172":0.11702154608550994,"173":0.17174748073343474,"174":0.003731973902883824,"175":0.22645378416010606,"176":-0.33672984221996477,"177":-0.19836906314129935,"178":-0.14796026980590432,"179":0.3543823641030891,"180":0.09520715776260782,"181":0.08103491511743603,"182":-0.21644410015663165,"183":0.030485463292608816,"184":-0.0828019908955464,"185":0.08475468773088084,"186":0.15886671546716152,"187":0.11337179461653077,"188":-0.049705122493939206,"189":-0.07246045337245474,"190":-0.22034066838455896,"191":-0.2868775457420855,"192":-0.026704246571697305,"193":-0.16488508024875612,"194":0.3227629487422264,"195":-0.2465948256539493,"196":-0.20996253292654857,"197":-0.24940010987028116,"198":0.20759655248641048,"199":-0.32290043197589074}},{"sx":5,"sy":5,"depth":8,"w":{"0":-0.08217855696131744,"1":-0.03143099647236035,"2":-0.03996978541046428,"3":-0.29131758925739787,"4":0.057028278549184214,"5":-0.030009001749566357,"6":-0.22400621388819167,"7":-0.11305142702183164,"8":-0.23313924515795542,"9":0.024560438991002128,"10":0.17433031508584995,"11":-0.13272407567143552,"12":0.12530679004680345,"13":-0.2235955279414411,"14":-0.049874380245929086,"15":-0.04392643681840463,"16":0.05175312883138228,"17":0.09734432867418297,"18":0.3328601528775395,"19":0.2308924088762849,"20":0.07220846199757926,"21":-0.11215337345090524,"22":0.19694279048251695,"23":0.05901605862240206,"24":0.27005707172508164,"25":0.10830187382436031,"26":-0.03073568241030341,"27":0.32282914414923,"28":0.19523754004042135,"29":-0.3002435007852207,"30":0.09383486090448317,"31":0.2815558599819644,"32":0.14992990252969055,"33":0.17608427172147387,"34":0.12671321683523865,"35":0.007370736872584192,"36":-0.18232004422068945,"37":-0.18161401764657872,"38":0.10105190068237348,"39":0.19241600051478402,"40":-0.17908157340401776,"41":-0.008607305216005943,"42":-0.08973936687813255,"43":-0.1131588182770317,"44":-0.24503108675830296,"45":-0.029876228791434763,"46":-0.26447771711028,"47":-0.09131704280440349,"48":-0.20945121927072682,"49":0.16008525893886436,"50":-0.01674725385411258,"51":0.0800267523411334,"52":-0.027640514923437148,"53":0.21967059005687586,"54":-0.26244664534777723,"55":0.11344926109219897,"56":-0.007797184566165803,"57":0.16639360013061347,"58":0.13725645540438075,"59":0.36383340074158865,"60":0.09725579941611967,"61":0.21696164064662554,"62":-0.021852592392400238,"63":0.2873169327170877,"64":0.08461116469404767,"65":0.17835822300494247,"66":0.09837084845705388,"67":0.2091982608837163,"68":0.03922399663853823,"69":-0.20550000474077834,"70":0.03447912091649756,"71":0.21720638239368478,"72":-0.01419290619095349,"73":0.021429461770146777,"74":0.209354099647039,"75":0.12252361455727674,"76":-0.2982418583993491,"77":-0.09311547865794254,"78":0.312656052592147,"79":0.08806676481574043,"80":-0.21188918972193743,"81":0.11265764351034487,"82":-0.3710123599991768,"83":0.03220450462191481,"84":0.16216246481816635,"85":-0.29794298070526937,"86":-0.3117110971272023,"87":-0.229912718643575,"88":-0.08346259334233462,"89":0.2140981304572531,"90":-0.4326542222584123,"91":0.03537379409069123,"92":-0.07313897663697924,"93":-0.2841007514585274,"94":-0.26152772061772206,"95":-0.0013605423652037051,"96":-0.2552833987213645,"97":0.25697228175672043,"98":-0.0289631437600153,"99":0.17299365873097142,"100":0.09517731943644252,"101":-0.24627449030195728,"102":-0.10253429064089037,"103":0.27896569902905893,"104":-0.20266753772873491,"105":0.24255328127789183,"106":0.15332220818750064,"107":-0.09839028859253472,"108":0.06698329231897569,"109":-0.29835053474719353,"110":0.06527681997064244,"111":0.22692847902705574,"112":-0.21925228415484177,"113":0.0380363180850385,"114":0.11686458519857977,"115":-0.22773157899590207,"116":0.10874556539349836,"117":-0.25001768621331555,"118":0.063729197032965,"119":-0.010212596887136913,"120":-0.2858544306455251,"121":-0.023059931393023602,"122":-0.3841847336064842,"123":0.15126603707784442,"124":-0.2064033906504501,"125":0.07225037742675433,"126":-0.19071528663252463,"127":-0.07719816086198751,"128":-0.3294075475055188,"129":0.09294628452497733,"130":-0.6546789151222756,"131":0.08112624406205263,"132":0.0013168162257411967,"133":-0.08222364451978526,"134":-0.2620609720872849,"135":0.03217402432767555,"136":-0.26035309302036796,"137":0.13640028078191624,"138":-0.37494859977533485,"139":0.12655208712753338,"140":0.14077315105291743,"141":0.0210126054592994,"142":-0.09184572517432416,"143":0.1990233425732968,"144":-0.036869939335310985,"145":0.14993152656878708,"146":0.031194850274933027,"147":0.19469227141265757,"148":0.10044457959084815,"149":-0.144633488274936,"150":-0.10452052959696448,"151":0.47188384295427976,"152":-0.13349827118186908,"153":0.24411930450090524,"154":-0.19266885325919972,"155":-0.10725240775001345,"156":-0.052987894043109704,"157":0.04330725162291135,"158":0.06956268514268321,"159":0.10181621493679692,"160":-0.47857187467404727,"161":-0.03189994914524876,"162":-0.5957238014406521,"163":0.05218262131121366,"164":-0.27991271897791375,"165":0.10679056949925454,"166":-0.3385203947785281,"167":-0.016437330166408335,"168":-0.30986819619230344,"169":0.2249763724832809,"170":-0.6081165453957655,"171":-0.14146679573340484,"172":-0.07846359584822299,"173":-0.032468817786184524,"174":-0.39812751467946156,"175":-0.11362904028607304,"176":-0.3026197528183827,"177":0.4814913057165896,"178":-0.33444786269084265,"179":-0.055828395648356115,"180":0.03269470383024398,"181":-0.2296902447956479,"182":-0.24631865519566778,"183":0.16984141792841667,"184":0.021438199361839487,"185":0.30622995044173235,"186":-0.09428315277756034,"187":-0.02896000044254676,"188":0.08641754219699853,"189":-0.06458648992977956,"190":-0.21425971299142668,"191":0.3176243644075079,"192":0.024377022771588826,"193":0.2833155812321741,"194":-0.15962693961306426,"195":-0.02440189676517942,"196":0.00911258030183259,"197":0.07157458011702654,"198":0.043234529209888864,"199":0.19515382225567818}},{"sx":5,"sy":5,"depth":8,"w":{"0":0.07291824925063144,"1":-0.24761416270807804,"2":0.022751905252310158,"3":-0.20469943584827105,"4":0.05634028199102042,"5":-0.35855071439920905,"6":-0.3013104627318274,"7":-0.1828127413286501,"8":0.2835662859230144,"9":-0.08463412428596936,"10":0.37252189475513237,"11":-0.20143599506490176,"12":0.25851792013271274,"13":-0.531123431088563,"14":-0.4317969592835607,"15":-0.004344116723588073,"16":0.14304804475301963,"17":0.019584485066588605,"18":0.3168623012940495,"19":-0.22588918171983205,"20":0.16686059596564004,"21":-0.1842106115300744,"22":0.12119716096072676,"23":-0.13628650894147942,"24":0.15214180966473562,"25":0.09148973323444491,"26":-0.045188506594739546,"27":-0.19270614661378085,"28":0.17375672491380167,"29":-0.25108753918461446,"30":0.4353175096605944,"31":0.1303617554656756,"32":0.10125072446704647,"33":-0.11667028387236462,"34":0.022709581052171454,"35":-0.31650591430814395,"36":-0.22517378063682073,"37":-0.4546489711570288,"38":0.3093677825408841,"39":0.0012489507716240047,"40":0.2642513223337207,"41":-0.20445747574427306,"42":0.14978323888305864,"43":-0.4532913437559753,"44":-0.13535303402852839,"45":-0.04764864506703562,"46":-0.19655303066445268,"47":-0.44607094116507817,"48":0.07200684231608062,"49":-0.11716714787560195,"50":0.29677713560692903,"51":-0.272665181716945,"52":-0.15771865574230634,"53":0.1531440405342694,"54":-0.21473579086411188,"55":-0.08855976512939095,"56":-0.11857324050106037,"57":-0.07513203313521252,"58":0.2582892665366071,"59":-0.2996928065536365,"60":-0.2095719125278351,"61":0.0985218825021026,"62":0.17577105456428513,"63":0.3938964187367764,"64":-0.1456881371787122,"65":-0.29960916275041083,"66":-0.11873174703908851,"67":-0.06676290665841816,"68":-0.37418157896810383,"69":-0.1946045465505172,"70":0.3424936128258039,"71":0.15613437879038128,"72":-0.02079777223682657,"73":-0.18654794780537048,"74":-0.02614109447135577,"75":-0.24327483886656157,"76":-0.3975414494709713,"77":-0.36661045249223273,"78":0.2738638751260169,"79":-0.167240454434693,"80":0.15460128098402157,"81":0.06420069974999297,"82":0.27527213500917747,"83":-0.43095748029162806,"84":-0.022860811866600387,"85":-0.01703229361223751,"86":-0.34266125151381244,"87":-0.13649997009146433,"88":0.1367595251241289,"89":0.1641116774524021,"90":0.19600282234646824,"91":-0.28069049788831363,"92":0.19767406873050924,"93":0.19997405360427986,"94":0.03529435409945715,"95":0.17025501470092042,"96":-0.3310304068895242,"97":0.12838254279696748,"98":-0.1790914957761856,"99":0.053338479826739234,"100":0.23229524137328533,"101":0.20295106474426836,"102":0.24278234091376827,"103":0.5115337269205138,"104":-0.15581125052253517,"105":0.002779438164253537,"106":-0.21093671114813928,"107":0.1469236678301962,"108":-0.03015481329590614,"109":-0.02300034960790937,"110":0.10566150255062866,"111":0.18046085844825227,"112":0.10743568156951223,"113":-0.00047716374890542776,"114":-0.09350595264609485,"115":0.0898570118510489,"116":-0.18544016121825926,"117":-0.24681939043232978,"118":-0.018176106922736465,"119":-0.38440745134573057,"120":0.012329433849447673,"121":-0.026987951721566938,"122":0.08582429088849865,"123":-0.01115306908409846,"124":0.003959096796398406,"125":-0.20384397356044268,"126":-0.16993402239814726,"127":0.04528490466802457,"128":-0.1784377630357432,"129":0.10131184820664565,"130":-0.2826642370624482,"131":-0.09454268052323117,"132":-0.10055110918500285,"133":0.1050680959861437,"134":-0.1435230349664973,"135":0.26264846560513,"136":-0.08709142235383191,"137":0.17192854470244978,"138":-0.5859668436699018,"139":-0.04048767578382244,"140":-0.007436320493029237,"141":0.348219556229702,"142":0.2099848426407991,"143":0.5775289388537299,"144":0.11720615179373631,"145":0.25972065093574237,"146":-0.4423893238762994,"147":0.13370921989574758,"148":-0.043575144807901096,"149":0.10930798963819263,"150":0.1891111198471501,"151":0.3963684031982502,"152":0.07541202264932353,"153":0.109343900978396,"154":-0.2283372360189853,"155":-0.11843610903650209,"156":-0.21147741898787545,"157":-0.03856392332980455,"158":0.029224698757582802,"159":-0.04253836451179879,"160":0.007961547985771221,"161":0.17776137633297667,"162":-0.07787399435111478,"163":0.006003610092533635,"164":0.13802607291363655,"165":-0.056549658946580816,"166":-0.0015843545737363332,"167":-0.10665636926191988,"168":0.019560014941554148,"169":0.3375479752560099,"170":-0.28000756648638714,"171":0.0026261243152907393,"172":0.011613251398193173,"173":-0.062095268230229414,"174":-0.09613294228036355,"175":0.12642096719373427,"176":-0.0438738043204152,"177":0.3422741332467838,"178":-0.30062357039321413,"179":-0.12142691913387509,"180":0.05217796749424851,"181":-0.1241551237262424,"182":-0.08581198433883036,"183":0.22946107541418376,"184":-0.03535878798059331,"185":0.26294676502619213,"186":-0.19654249827386933,"187":-0.09609940238954617,"188":-0.035876611516793576,"189":-0.05336624587029226,"190":-0.03421501785178069,"191":0.04871970889749186,"192":-0.15538300601244925,"193":0.07860972289585665,"194":-0.2802348170790777,"195":-0.1270402011506556,"196":-0.0339684179352902,"197":-0.10357800199892592,"198":-0.09738941068714808,"199":-0.04441512016696443}},{"sx":5,"sy":5,"depth":8,"w":{"0":0.1229197638900655,"1":0.10566771388824478,"2":-0.0839138901857423,"3":0.10210367908829515,"4":0.2060746912833239,"5":-0.2268193150847867,"6":-0.19897735352423085,"7":-0.1590699879185357,"8":-0.13568965642884717,"9":0.1961706454894453,"10":0.2591918755759452,"11":0.06760122266399968,"12":0.2622816966473188,"13":-0.02036728632728412,"14":-0.04417348277093824,"15":-0.043053969585690376,"16":-0.1893993008643699,"17":0.05844081278947788,"18":0.09549579703863811,"19":-0.15085455743874696,"20":0.40024442485169837,"21":-0.06700620114386881,"22":0.18652455312140562,"23":0.1110332476988066,"24":0.006190652341952214,"25":-0.04513422529493486,"26":0.14421277933989543,"27":0.03317835117913234,"28":0.1314546616918104,"29":-0.05524201580167862,"30":0.27314993892711203,"31":0.31174854267062607,"32":0.06004935229594813,"33":0.13623410521078172,"34":-0.29766672916438947,"35":0.024811236104320573,"36":0.007763429508273103,"37":0.27907606289187636,"38":0.13245054620500696,"39":0.24144036369126717,"40":0.286466682267757,"41":0.03300173801390802,"42":0.20710308751448336,"43":-0.23377940712959328,"44":0.17701230319944236,"45":0.15824940873062932,"46":0.08446227138262187,"47":0.04322237097300866,"48":0.10066159451781523,"49":-0.13691989341626767,"50":0.2614411842201952,"51":-0.2567593964155856,"52":-0.016684446315625566,"53":0.22252244135168897,"54":0.16321554967194796,"55":0.18713057968440017,"56":-0.14846317616505614,"57":-0.27443292581072404,"58":0.2220095084094597,"59":-0.29916235709162065,"60":-0.038467825853180725,"61":0.0426890275720631,"62":0.21801617443990168,"63":-0.05738665274698621,"64":0.1211769459815586,"65":-0.42078601643554353,"66":0.04391133612253074,"67":-0.07287007224593713,"68":-0.1349594545342003,"69":0.12245411954462902,"70":0.3265617380349257,"71":0.22507775179434225,"72":0.09662024668017183,"73":-0.3745397704460529,"74":-0.2962207026223415,"75":-0.05218045525209288,"76":-0.22189320656839728,"77":-0.018116010582831986,"78":-0.07115625835345525,"79":0.17469869683516012,"80":-0.046045449225605335,"81":-0.2259652729370422,"82":0.01311121973558543,"83":-0.1437973174474887,"84":-0.19980503180449147,"85":-0.00415860189237355,"86":0.17806567330392736,"87":-0.10870646969728058,"88":-0.15293059026443512,"89":-0.3306617385576008,"90":0.0906130438290652,"91":0.02059062727866104,"92":-0.267542184374077,"93":0.14870846525965487,"94":0.13460673516969618,"95":0.28577600653131136,"96":-0.013956179539757165,"97":-0.4066787199548027,"98":0.007964125191619199,"99":-0.2953223113167343,"100":-0.26856524456947106,"101":-0.05215120522663846,"102":0.05063022468662624,"103":0.1714157138198709,"104":0.16685028769672758,"105":-0.6001503990636557,"106":-0.11007086568943297,"107":-0.09493352929613989,"108":-0.21880513633253887,"109":-0.06413501994088634,"110":-0.013824556095243147,"111":-0.08417782298611932,"112":0.006816425861711175,"113":-0.47716874948548216,"114":-0.03959271028036894,"115":-0.06894734207187199,"116":-0.3731779630765223,"117":-0.4312691576650964,"118":-0.22605481699537777,"119":-0.2155542291608041,"120":-0.15242318452608863,"121":-0.25584511591186093,"122":-0.15498329952535653,"123":-0.22019059655730874,"124":-0.31997075992146023,"125":0.11805185534185514,"126":-0.05849490425206014,"127":0.1725429302508595,"128":-0.004621095865585973,"129":-0.4109564531351268,"130":-0.06332281411211636,"131":-0.0840199810051285,"132":-0.2705351142984509,"133":0.10231440355415088,"134":-0.21816866779400956,"135":0.23774209262936608,"136":-0.3101957834138725,"137":-0.3582797877589432,"138":0.09877050808093332,"139":-0.1518932469242305,"140":-0.38063111846863834,"141":-0.17569930743157544,"142":-0.04157415346548627,"143":-0.16732759569615765,"144":-0.17775018688768662,"145":-0.4272618037163066,"146":-0.007317749802904982,"147":-0.1407976757435672,"148":-0.33778391958489795,"149":-0.08576285934843886,"150":-0.0013754936269741687,"151":-0.4396572417846991,"152":0.20010078388993757,"153":-0.27981798316889184,"154":0.1116210275224147,"155":-0.2511860538470662,"156":-0.12479570474102908,"157":-0.24107871196970465,"158":-0.1897059976595926,"159":-0.2626205218274818,"160":-0.24121124923099677,"161":-0.07985764681322789,"162":-0.22119066410069618,"163":0.15191469250630013,"164":-0.30783074201799593,"165":-0.07683414199632203,"166":-0.07959101369930421,"167":-0.05137532343557304,"168":-0.3249408930975813,"169":-0.013588378508070927,"170":-0.07506320529279976,"171":-0.09277314032139027,"172":-0.14863656230913863,"173":-0.2361173493238641,"174":-0.3509719583761054,"175":-0.5227501258961543,"176":-0.444086873992058,"177":0.04320658164019446,"178":0.21099188264988455,"179":-0.06600649807271006,"180":-0.13788973978260127,"181":-0.2633479344701138,"182":0.0019188095844337718,"183":-0.6018108073606687,"184":-0.18629098907538125,"185":-0.22630263389490116,"186":-0.0026167594405236147,"187":-0.089929289265479,"188":-0.02224938905515675,"189":-0.19769416109706306,"190":0.010080817258028467,"191":-0.49573653602325973,"192":0.26722422217772457,"193":0.028291234328884106,"194":0.09381906032694312,"195":-0.08070203093655684,"196":-0.09570721032922094,"197":0.18054884936983231,"198":-0.20881395293753455,"199":-0.4672763287120296}},{"sx":5,"sy":5,"depth":8,"w":{"0":-0.09802302715528924,"1":-0.08271068266691121,"2":0.04034525576715258,"3":-0.24281524355638368,"4":0.019043394726461355,"5":-0.12533044917471192,"6":0.12690049627820163,"7":-0.04365823504709279,"8":0.1908646917280121,"9":-0.1075685242272765,"10":-0.2895730442415121,"11":0.03945659674296955,"12":0.06508356419518284,"13":0.2842150348298876,"14":0.008602008142740172,"15":-0.05267132230930512,"16":0.3191732977921501,"17":-0.13454557071561565,"18":-0.1559131635975924,"19":0.01619518968367783,"20":-0.13551888847289972,"21":0.008739677549805393,"22":-0.11387078899269915,"23":-0.02583306148005839,"24":-0.03360597247842225,"25":-0.005325527877880242,"26":0.20018471839119806,"27":-0.0769582553790203,"28":-0.22551898142078544,"29":-0.043963624112357075,"30":-0.0056956404404151905,"31":-0.035890176481982776,"32":0.07998377011854495,"33":-0.11438361001916672,"34":0.1515988695633008,"35":0.11601269412789376,"36":-0.11823719938087623,"37":0.1335885521303875,"38":0.02154432906803351,"39":-0.16711615476549838,"40":-0.2286227748070747,"41":-0.3905447064617198,"42":-0.1578999940672514,"43":-0.22354418619823657,"44":-0.1904653319857058,"45":-0.12192746876161815,"46":0.020303768976714397,"47":0.013351630540510298,"48":-0.1657582334744247,"49":-0.2773747471873012,"50":-0.18972292912382416,"51":-0.12394125361915641,"52":-0.19458595951161217,"53":0.13522941978100783,"54":-0.12000089822641558,"55":0.215809648962144,"56":0.2635453312772443,"57":-0.33240902494245234,"58":0.1297191849861621,"59":0.14141470566860037,"60":-0.29622924131103245,"61":-0.2432027668527283,"62":-0.06057216939700602,"63":0.16271884560135408,"64":-0.20069272902892446,"65":-0.04950127189439521,"66":0.10411035571840627,"67":0.2563936957976305,"68":-0.16309643159647344,"69":-0.2128670774587326,"70":0.1522166311265362,"71":-0.15665265479286408,"72":-0.0032567488763708312,"73":-0.0070452974103159954,"74":0.1677979200939538,"75":0.018370212726030576,"76":-0.11876377818054751,"77":0.07296740346162443,"78":-0.13103569116928387,"79":-0.20005335996521295,"80":-0.42348574968883457,"81":-0.2720395944300392,"82":-0.10362677822141335,"83":-0.4742648898309053,"84":-0.172023976633326,"85":-0.16597366736201086,"86":-0.26135327848761825,"87":-0.14174907700577596,"88":-0.1193094032509551,"89":-0.011121689860291594,"90":-0.2495382247699103,"91":-0.24122281722809769,"92":0.04026576480625363,"93":-0.43367786581754453,"94":-0.07672967052992515,"95":-0.13898704570438958,"96":-0.07879505197139637,"97":-0.13186449950405738,"98":0.1472812888087035,"99":0.001102231192682904,"100":-0.14159876589899126,"101":-0.685703061439447,"102":0.0424961333981312,"103":0.008216043798919315,"104":-0.20341428996883856,"105":-0.05848107018002588,"106":0.23541329067921968,"107":0.2084892547043168,"108":-0.17987460256026422,"109":-0.45874888888460336,"110":0.2300097237248065,"111":0.009289171817315213,"112":0.12008048950813674,"113":-0.08586410731263694,"114":0.21564013872182305,"115":0.14753314591867533,"116":-0.2747232986190117,"117":0.15113001912035112,"118":-0.20977712039791696,"119":-0.25842452563357016,"120":-0.18655184334161098,"121":0.4833941143802675,"122":-0.16846351833015635,"123":-0.4370220683062699,"124":0.36174508099802616,"125":-0.4786134179101247,"126":-0.44694484665987055,"127":0.28699613607642555,"128":-0.25351829224003114,"129":0.2772929561417155,"130":-0.11984854609681639,"131":-0.12402706601569069,"132":0.18592373625037284,"133":-0.5334594748882734,"134":-0.39361999039413315,"135":0.391056419995347,"136":-0.25837409633474995,"137":-0.12049106591731687,"138":0.13035064545458938,"139":0.3035788970766316,"140":-0.19433516136089504,"141":-0.20747394868185196,"142":-0.1921028621410593,"143":0.24179214845299682,"144":0.2212071871228361,"145":-0.10533713892981875,"146":0.2229381735719504,"147":-0.17677181480049273,"148":-0.3016304312453702,"149":-0.10406015689827304,"150":-0.1111382723136609,"151":-0.14423352969268124,"152":0.2904395211616829,"153":-0.30481164417772694,"154":-0.032279751674061004,"155":0.1690797387283486,"156":-0.6959935225238899,"157":0.1449819168269099,"158":-0.1095615521928218,"159":-0.04869919227754601,"160":0.09414930511217738,"161":0.26165960272379796,"162":-0.1811609183473982,"163":0.5353769163917156,"164":0.47575754451724117,"165":0.34850174972508174,"166":0.09259786635722389,"167":0.43357369469550805,"168":0.2281430946280722,"169":-0.05765240182198256,"170":-0.04763733991833723,"171":0.3904980148172906,"172":0.3642393620813782,"173":0.14054533626821417,"174":-0.0814632492728051,"175":0.35106526163931456,"176":0.11886714834827565,"177":-0.009014905745118736,"178":0.11982914158251948,"179":0.21564448259606392,"180":0.3397097565034379,"181":0.2547025088647475,"182":0.2382646400407965,"183":0.25547676770175876,"184":0.08613272491011038,"185":0.18270058802317224,"186":-0.23153299314562004,"187":0.1325304331899558,"188":-0.08168214515991755,"189":0.029955303869632383,"190":-0.041612507979587564,"191":0.2787388232752955,"192":-0.24214105452380266,"193":-0.3050722203994609,"194":-0.12717498990786943,"195":-0.12825329496097643,"196":-0.3065527091757168,"197":-0.16233372395202797,"198":-0.30141315916002953,"199":-0.26933515903246225}},{"sx":5,"sy":5,"depth":8,"w":{"0":0.2544879122525143,"1":0.21601596388588548,"2":0.2942468378541647,"3":-0.13857101019778453,"4":-0.10436115286242406,"5":-0.2582454200396602,"6":-0.22373925723733307,"7":0.02307201526407022,"8":0.07073264959585296,"9":-0.05279996933878691,"10":0.3423742855830791,"11":-0.07237647395362407,"12":-0.22187193532807778,"13":-0.4237541882163423,"14":0.12583285442625308,"15":0.02441553628367166,"16":-0.00156629545887398,"17":-0.15468062562994725,"18":0.14879271240234038,"19":0.20756140376980872,"20":-0.10804096690100362,"21":-0.5315163229348967,"22":-0.05441450856369382,"23":-0.029456409721696455,"24":-0.009256452499026575,"25":0.08302579349068033,"26":0.07954676060037527,"27":0.012353138992155309,"28":-0.21924291967532156,"29":-0.32409786057199524,"30":-0.11448934152694608,"31":-0.08476556681927457,"32":0.02342822933138885,"33":-0.014182955038058513,"34":-0.06489881580240967,"35":0.2370037442314207,"36":-0.35028961081266985,"37":-0.15656860916130427,"38":-0.20453948316089707,"39":0.02378494897772607,"40":-0.10562914369950134,"41":0.17446459940713477,"42":0.0654082789027515,"43":-0.49020544964929763,"44":0.060219792012026735,"45":-0.4697408541130736,"46":-0.028370525778731927,"47":0.06525021158366025,"48":0.01665295518333008,"49":-0.20290836489898864,"50":0.10251748112804825,"51":0.011744749798460807,"52":0.11574304895989344,"53":-0.5456160829038353,"54":0.12204122547823705,"55":0.10604966965249887,"56":-0.033815225702940536,"57":-0.33145851043242913,"58":0.05095340231434262,"59":0.39518266443546546,"60":-0.022821924548442965,"61":-0.2469228772326958,"62":0.012916767358987478,"63":0.09990042175163487,"64":0.1257471549216722,"65":-0.2237960960562658,"66":-0.021840209226140734,"67":0.14067961527384817,"68":-0.25500986549644417,"69":-0.051134259646771985,"70":-0.19132938654648537,"71":0.1662523436275922,"72":-0.2065346076458875,"73":-0.10518621834295626,"74":-0.1562149601760245,"75":0.30614145906895684,"76":-0.18352988109464605,"77":-0.04193654951076184,"78":-0.34173094572107654,"79":0.14010133094274052,"80":-0.16304284010762357,"81":-0.0485618834459619,"82":0.11699277450784064,"83":-0.45325895889379925,"84":0.18954662752723483,"85":-0.3627823808671037,"86":0.11338631965499238,"87":0.0895810149101915,"88":-0.36113755859896884,"89":0.14180701457562525,"90":0.14239790399877036,"91":-0.5289309887010888,"92":0.1390412184279021,"93":-0.7140553968695303,"94":0.08341022863872385,"95":-0.1086120923748018,"96":-0.3773507195468991,"97":0.20125983052193944,"98":-0.04618757090571519,"99":-0.009192496759426367,"100":0.32077457539232807,"101":-0.6685194271386471,"102":-0.3298333279768959,"103":-0.0413850889493822,"104":-0.028082672823517195,"105":0.21873824237835982,"106":-0.28873194462328,"107":0.18631880994368089,"108":0.1616014064208652,"109":-0.2881755094451097,"110":-0.2119905542427309,"111":0.0017157607363963673,"112":-0.013816072446562586,"113":0.30292212177319827,"114":-0.029382478408582317,"115":0.34648221116983485,"116":-0.013928123378039387,"117":0.1458661329094,"118":-0.22418162826624022,"119":-0.09491029714322487,"120":-0.3658257079130386,"121":0.1344815282440365,"122":0.1527360081104413,"123":-0.41811465626897926,"124":0.09808470947573181,"125":-0.13580497390283897,"126":0.12241419440502212,"127":0.14948273629944595,"128":-0.4583513435273575,"129":0.06083840107616807,"130":-0.023828257202406587,"131":-0.44244268490644084,"132":0.47250816219496267,"133":-0.05788643759834471,"134":0.3003653609141505,"135":-0.18508066438165213,"136":-0.0727214814132183,"137":0.04483840724544099,"138":-0.4868511704714451,"139":-0.05301600810345961,"140":0.18647670273438768,"141":-0.08723135687708422,"142":-0.011176480946181308,"143":0.1679003020805318,"144":0.08896857598429342,"145":0.12579682158988442,"146":-0.32460913774378547,"147":-0.007663576902717924,"148":0.1326115915717919,"149":0.09171468347858296,"150":0.13025135234538088,"151":0.39920190711512643,"152":0.18737664633052994,"153":0.21736467749201693,"154":-0.4353417002324201,"155":0.19439062551796363,"156":-0.15147355713748276,"157":0.36779013837561136,"158":0.07484930961963396,"159":0.31363827171603015,"160":-0.1361475421156472,"161":-0.13945212193551781,"162":0.17437370052680373,"163":-0.3046810386812169,"164":0.018496984559214395,"165":-0.2284432232219457,"166":0.18461641406933826,"167":-0.11725227681377627,"168":-0.18019053428764223,"169":0.13091374297740543,"170":-0.09523031768622936,"171":-0.24796651217299903,"172":0.1152190758416761,"173":-0.09936932611383682,"174":0.3579597807775972,"175":0.29605719785250895,"176":0.28597567766459503,"177":0.10652148858578357,"178":-0.27190116307780354,"179":0.01663464792517427,"180":-0.04681164181855853,"181":0.05015146631748312,"182":-0.014852234289633238,"183":0.3229898617920776,"184":0.3287776652921894,"185":0.035153701919530836,"186":-0.20034590205806158,"187":0.1369485555584607,"188":-0.05099770491305396,"189":-0.09803982862867383,"190":-0.1494993729962806,"191":0.06764533926940781,"192":0.002107478217178484,"193":0.16085178555113544,"194":-0.17598748684128948,"195":0.35183408401511157,"196":0.007056368086318996,"197":0.03215277340490232,"198":0.07570542705870424,"199":0.3248562575381478}},{"sx":5,"sy":5,"depth":8,"w":{"0":0.24019721527193738,"1":0.019722154272651216,"2":-0.08451987876667721,"3":-0.03761510607293186,"4":-0.1603671749899459,"5":-0.07096675585491337,"6":-0.07490826067756536,"7":0.04254975543155995,"8":-0.02588221608419058,"9":0.06398148392257576,"10":-0.10012703219055287,"11":-0.1847566496745711,"12":-0.20838495760856066,"13":-0.2710744797598527,"14":-0.0665720566156094,"15":0.19042613691234883,"16":-0.02255927743323093,"17":0.003805421514748963,"18":0.030892702676974082,"19":-0.1731163897227762,"20":0.11848088922132784,"21":-0.2539540299458107,"22":-0.10510453452015397,"23":0.17243493934027507,"24":0.10597148938021501,"25":0.23227230044180258,"26":-0.09847218653590052,"27":-0.07750689942998998,"28":-0.01634028859842424,"29":-0.18766136330841482,"30":-0.25354887129664616,"31":0.04290024865233702,"32":0.014147852843312141,"33":0.15922971650965265,"34":-0.08332270042688136,"35":-0.0975072873148912,"36":0.13984930658560513,"37":0.14185841599687482,"38":-0.1688577957611056,"39":0.16504911079175727,"40":0.09537485386270445,"41":0.06321353249692377,"42":0.1298589925436122,"43":-0.04203569377129585,"44":-0.06474139094219931,"45":-0.5830700586315478,"46":-0.36839714530432693,"47":0.3415805984116934,"48":-0.3985858766981425,"49":0.16649370711241654,"50":-0.03951880570339934,"51":0.09760614925825226,"52":-0.03247603967441998,"53":-0.7294487029820241,"54":-0.15866231943975437,"55":0.2065122797495687,"56":-0.17286847904059108,"57":0.15551412484082147,"58":0.0571357149193596,"59":-0.04253146620170613,"60":0.18848281878191397,"61":-0.24996351047030937,"62":-0.2634892209444888,"63":-0.010141963650065054,"64":-0.0002840634449880181,"65":0.19560972058859954,"66":-0.059323411224294215,"67":0.028493332415704436,"68":0.12165949015366363,"69":-0.1015608261523161,"70":-0.17064507169389856,"71":0.1794889543787672,"72":-0.0022990815388697593,"73":0.08845867878118423,"74":-0.1582673505314883,"75":0.0000270626193863011,"76":0.030887976172544934,"77":-0.06039433615634712,"78":0.15067866664206864,"79":0.19127046909887155,"80":-0.059646316347137636,"81":0.08539576587805991,"82":0.23868310134411555,"83":0.2214526345306591,"84":0.18037753773117243,"85":-0.5677068341533549,"86":-0.06064653079691843,"87":0.1410188958280672,"88":0.030482375937073453,"89":-0.16683501229847106,"90":0.28390018269544104,"91":0.23289574667500307,"92":0.018568329410747167,"93":-0.3873623853728682,"94":-0.03782732104172827,"95":0.09351856298595182,"96":0.09228694111263498,"97":-0.2512228501779276,"98":-0.17994575087610365,"99":0.16929898513786354,"100":0.07038629456566171,"101":-0.1771782343287934,"102":-0.0214564025115407,"103":0.12808144963902998,"104":0.1662764988479158,"105":-0.20994255221620553,"106":-0.0782297691034396,"107":-0.16739603014299406,"108":-0.19882489852952534,"109":-0.5121439968337378,"110":0.16769603505781752,"111":0.14312481449063424,"112":0.27200376459323894,"113":-0.21464428741514868,"114":0.10987165494051118,"115":0.005756438830772141,"116":-0.2439415521076562,"117":-0.3160718275936787,"118":0.17855953350563958,"119":-0.05115851740698397,"120":0.3496519148125998,"121":-0.34346098270999903,"122":0.4031903479862642,"123":-0.1334673590792652,"124":-0.1314072815980476,"125":-0.14997531771613903,"126":0.24471435069035008,"127":0.12019294069817581,"128":0.2543090158368092,"129":-0.31949290648770534,"130":0.4995379946869228,"131":-0.5047596991975138,"132":-0.20697706543874048,"133":0.005935427360883318,"134":0.039031204417315085,"135":-0.030401968672572555,"136":0.19142038806153616,"137":-0.5230505686648004,"138":0.25337968130705213,"139":-0.20483432640238658,"140":-0.08468019926610286,"141":-0.15728370398004757,"142":-0.030375529841207304,"143":0.008801419758108883,"144":0.03554583372783994,"145":-0.4231249846614018,"146":0.10520532810303972,"147":-0.27357379952763117,"148":-0.09455850585545149,"149":-0.7233653644170313,"150":0.27952429275233404,"151":-0.24131860513658737,"152":0.0017000447186068426,"153":-0.45310016789607904,"154":0.27371237831722917,"155":-0.1059781400005037,"156":-0.48730454466173356,"157":-0.412045538158025,"158":0.18144871002248528,"159":-0.027624249925934895,"160":0.19768398157382047,"161":-0.1494748603409673,"162":0.2812978459711074,"163":-0.18321437324581918,"164":0.14031547004116762,"165":-0.0375053880533213,"166":0.07334238295789398,"167":0.06487535323530014,"168":0.17614821399987163,"169":0.17119848430329418,"170":0.24866578355225838,"171":-0.2683630042236558,"172":0.033677717365073676,"173":0.1034220299873575,"174":-0.14813072766505558,"175":-0.056943413189108796,"176":0.06767834794311481,"177":-0.06511422949306156,"178":0.4139414894319177,"179":-0.08859251211550846,"180":0.06113118593059883,"181":-0.018441898896780502,"182":-0.04368840286900467,"183":-0.16770596922297046,"184":0.09521244977703107,"185":-0.17763232164654658,"186":0.4220988246276707,"187":0.04115538443756828,"188":-0.1261973560235785,"189":-0.30577888602886155,"190":0.1288769327133026,"191":-0.13229188687716087,"192":0.002277842848345688,"193":-0.23572987896585976,"194":0.2473310114917488,"195":-0.2111730352720983,"196":-0.36752133751085425,"197":-0.1507788107773718,"198":0.049314085155324566,"199":-0.1822276366290125}},{"sx":5,"sy":5,"depth":8,"w":{"0":-0.3494549822778217,"1":0.047771341136527784,"2":-0.1435223794208042,"3":0.04171994843374347,"4":0.05642470543162188,"5":-0.5661783885568286,"6":-0.2068054490418238,"7":-0.2111147777939493,"8":-0.010817058278310594,"9":0.1943865786651215,"10":-0.19960697749072587,"11":-0.31224438736610327,"12":0.16723761517027477,"13":-0.13134819355589675,"14":-0.10451743543664416,"15":-0.10458004933636607,"16":-0.20138294498596995,"17":0.04861355514971642,"18":-0.3011671560298568,"19":-0.0788820610849197,"20":0.2522530911551758,"21":-0.10573927506729607,"22":-0.11079607907890293,"23":-0.006911459613346798,"24":-0.3048302889278467,"25":-0.17666480705654503,"26":-0.07318858700238556,"27":0.18690920141952988,"28":-0.30392338978703987,"29":-0.11853085685886615,"30":-0.11409135104656336,"31":0.17229737694023922,"32":-0.21429402637379008,"33":-0.017480103339260332,"34":-0.19789520895209894,"35":-0.07515117838367712,"36":-0.18670313314202697,"37":-0.0387266666798268,"38":0.06065800748519008,"39":-0.04477709676916524,"40":-0.0993983452313106,"41":0.023029919972085113,"42":-0.04039166273604907,"43":0.1571533851757118,"44":-0.1476550110318467,"45":-0.6876616638073965,"46":-0.12286603502260912,"47":0.1695554681074698,"48":0.18043415159606957,"49":0.18202940868622358,"50":-0.03743398937818431,"51":-0.13655152294292872,"52":-0.09688838784391056,"53":-0.14095502604021942,"54":-0.1571086180746894,"55":-0.17783326991389722,"56":-0.004736278801425001,"57":0.3125491565706722,"58":-0.0626940635051871,"59":-0.19744189409815047,"60":0.3071895072534376,"61":0.11043043054869356,"62":-0.2453393509186808,"63":-0.07383374608311244,"64":-0.13824461696015694,"65":0.11907008137827098,"66":-0.19272664075532278,"67":-0.12129772514582468,"68":0.05822894585797178,"69":0.028385796545394217,"70":-0.06541592869887998,"71":0.10882403840646496,"72":-0.2605865829014649,"73":0.03403120430559194,"74":0.1076602309270796,"75":-0.02086600122429146,"76":0.013517468635839469,"77":-0.08638329590220015,"78":-0.007711476353103459,"79":0.022422416804860946,"80":0.02147541350571209,"81":-0.07239559045190279,"82":0.14040563301064085,"83":0.18738531957206855,"84":0.1814653806674765,"85":-0.3307597973682069,"86":0.07123086809872277,"87":-0.08691006972481857,"88":0.22549125834560577,"89":0.04505953191133269,"90":-0.17258312075841634,"91":0.19245566180992096,"92":-0.3210031388224186,"93":0.28680733852901685,"94":-0.0015092490912857726,"95":0.15640577161062977,"96":0.7176476207204977,"97":0.2493509267038387,"98":0.060638830394306294,"99":-0.38407860280450284,"100":-0.18479656792605628,"101":0.20410566762919544,"102":0.2824375437171909,"103":0.029813275406764508,"104":0.21337738313431415,"105":0.2436805853171743,"106":-0.08557127149159877,"107":-0.18575756513355704,"108":0.1993958392957408,"109":0.07454224531814976,"110":0.1330017097833778,"111":-0.14302634967362682,"112":-0.09787350484099015,"113":0.1617479177186555,"114":0.031654432387390574,"115":-0.08089866066353466,"116":0.2142903084277502,"117":-0.025298017361970036,"118":-0.09787858226195319,"119":0.11068037833111515,"120":0.18725831935866455,"121":0.12463243970890993,"122":0.07106199606351746,"123":-0.0733451395031033,"124":0.11587461661622056,"125":0.10494369321956563,"126":0.17056268966307148,"127":-0.04199154972236036,"128":-0.08651799614260478,"129":0.07717487696067633,"130":-0.23581079429230578,"131":-0.11828888181908752,"132":-0.02772475079758228,"133":-0.18168949746371058,"134":-0.20692450503648052,"135":-0.07878243293195117,"136":0.22383494297200304,"137":-0.16048679295378343,"138":0.20684553481913973,"139":0.1283406901250142,"140":-0.6354914485535058,"141":0.2088206517781235,"142":-0.006463601107560105,"143":-0.02010195303736547,"144":0.24032050662752932,"145":-0.3915587287456339,"146":0.14794979678941048,"147":-0.2464639814378818,"148":0.08879778940159272,"149":-0.014778949286015836,"150":0.33576994065343413,"151":0.00980381622909417,"152":-0.21032391725015348,"153":0.047948415461853626,"154":-0.13978638358742712,"155":-0.18019010251421197,"156":0.2581269253484942,"157":-0.039965536618719,"158":0.13742594779635917,"159":0.043732667908426275,"160":0.0601976651309704,"161":0.06472837095486295,"162":-0.11260729190327343,"163":0.046597317139923884,"164":-0.06590208642550706,"165":0.031698614252446224,"166":0.0026600428219777125,"167":0.0865819274514131,"168":0.005771398234669242,"169":-0.006853303199845437,"170":0.10815832424852563,"171":-0.01823419778413863,"172":-0.2417884630583777,"173":-0.11891892471322929,"174":-0.03753759646589787,"175":-0.12156376840012752,"176":0.09906868727873552,"177":-0.014150271190307293,"178":0.02171114317241193,"179":-0.3263923073279304,"180":-0.31425374383482696,"181":-0.21040557355701023,"182":-0.440813026999222,"183":-0.2377955735050855,"184":-0.015203706784431299,"185":-0.11388831862618395,"186":-0.03708642293368865,"187":-0.30468081334030606,"188":-0.1975078588846178,"189":-0.15716226523287902,"190":0.06493017144763895,"191":0.07596082369420751,"192":-0.16758391958612825,"193":-0.231665294337228,"194":-0.039188158598852565,"195":0.24848589334567944,"196":-0.12235739437689146,"197":0.22542162266327417,"198":0.2958892253371857,"199":0.057945186096312246}},{"sx":5,"sy":5,"depth":8,"w":{"0":-0.12579338791477288,"1":-0.2319549180393108,"2":0.0757354249144281,"3":-0.23389676444145668,"4":-0.23174982219975473,"5":-0.5706311815271341,"6":0.12545528020855906,"7":-0.3353265954223917,"8":0.0677185009368948,"9":-0.47773375672237633,"10":-0.24227928355441863,"11":0.05509473591538329,"12":-0.19252923122842988,"13":0.06551028615521995,"14":0.022663683626182696,"15":-0.07586960075240386,"16":-0.015416305321923743,"17":-0.35718312898794613,"18":-0.25690488010427565,"19":-0.05741256039927879,"20":-0.09837908826116257,"21":0.2489395681389924,"22":-0.13757537233403197,"23":0.1826888089307347,"24":-0.043154453138728975,"25":-0.12934041612671326,"26":-0.2044232615832963,"27":-0.06787965416150604,"28":0.08878194508390434,"29":0.24068139228926774,"30":0.16179929106951138,"31":0.39907073223645567,"32":-0.189956794817595,"33":-0.28583800672656,"34":-0.29230910647365593,"35":-0.024027934713968867,"36":-0.028474241625597096,"37":0.20669576826831085,"38":0.30003108609385953,"39":0.4128231965117183,"40":-0.32914643488939843,"41":-0.06445173325159273,"42":0.18454148192216782,"43":0.08812433969737504,"44":-0.176082827293603,"45":-0.34016876883038194,"46":-0.023571511151279416,"47":-0.45991137303137536,"48":-0.36293709982443895,"49":-0.2740701831650744,"50":-0.07858537253518094,"51":0.13842807764638118,"52":-0.16712276044653032,"53":-0.2246827743421642,"54":-0.1304447472943519,"55":-0.0781183073588998,"56":-0.3231443852949305,"57":-0.42178794871439423,"58":-0.36902568832403315,"59":0.11914937089501507,"60":-0.20012270393846784,"61":0.023456140985286505,"62":-0.35969270408276105,"63":0.11549919303281586,"64":-0.22776154215001193,"65":-0.2105259289850126,"66":-0.136997074913866,"67":0.08997206215226344,"68":-0.11988476005501573,"69":0.00839414195867931,"70":-0.08408087302238552,"71":0.20799955133132148,"72":-0.36798944311476633,"73":-0.20917308493262632,"74":-0.4374202716521245,"75":0.14810236636790722,"76":-0.14967164704377262,"77":-0.051615932392436795,"78":0.018786319677803278,"79":0.1743242119698793,"80":0.1046608329485738,"81":0.46145050086104766,"82":0.17875707726973242,"83":-0.06655008366618655,"84":0.07249969146472998,"85":0.08660369649142877,"86":-0.1285482447442093,"87":-0.05062844284501265,"88":-0.3640227146558862,"89":-0.006951915387432051,"90":0.1628871712311923,"91":-0.16965780648798034,"92":-0.09198628685822154,"93":-0.06600702187796548,"94":0.09825060265883116,"95":-0.3414019326817536,"96":-0.37430766019135253,"97":-0.2639877107675658,"98":-0.2617404478549491,"99":0.044489855435918275,"100":-0.13616711108012722,"101":-0.14080404377743683,"102":-0.33741768673974915,"103":-0.2605976455878473,"104":-0.20940884556443878,"105":-0.41139653446619695,"106":-0.1984417626474748,"107":-0.08342828852744277,"108":-0.15016778431652517,"109":-0.14893729640906214,"110":-0.33979186284763,"111":-0.21990178999869403,"112":-0.3914554216821729,"113":-0.39905494091695276,"114":-0.4250912518706861,"115":0.06420414740142237,"116":-0.2525157711889538,"117":0.08051962286200019,"118":-0.15834692566383324,"119":-0.1220724222498635,"120":-0.005450212184579766,"121":0.4601042275283447,"122":0.13809635937108097,"123":-0.1386858341737213,"124":0.3040500527487097,"125":0.009194008935429059,"126":0.14057182881278904,"127":0.359301615403646,"128":-0.1650064043819779,"129":0.11461662845406162,"130":0.26458534619348556,"131":-0.07892566772029123,"132":0.04441164233557844,"133":0.03394095456795998,"134":0.20330468698970056,"135":0.0218783678568297,"136":-0.4580056866982764,"137":-0.08065839330609702,"138":-0.21312231718275507,"139":-0.14048544024652027,"140":-0.08559293059948368,"141":0.06080610156966482,"142":-0.1479121176898841,"143":-0.3278080826313443,"144":-0.5042386183613927,"145":-0.42746646012247724,"146":-0.2827439662212448,"147":0.07547400495990987,"148":-0.3133242192902413,"149":-0.15369665130281351,"150":-0.3363386519264273,"151":-0.3637833886098279,"152":-0.5235493551638054,"153":-0.35544735648297715,"154":-0.38828713012317784,"155":0.08719356931456178,"156":-0.21220974929443523,"157":0.041195863551920925,"158":-0.34944784607941226,"159":-0.3657566906397498,"160":0.47701398000475137,"161":0.014242208191689337,"162":0.24028206053333184,"163":-0.03872068313454655,"164":0.007822296312196109,"165":0.024975309207482053,"166":0.17476123670460822,"167":0.2946858474848142,"168":-0.13140298746986703,"169":0.19663732825323202,"170":0.13993416380595913,"171":-0.33243497873496153,"172":0.15343901857812448,"173":-0.34138031347216075,"174":0.26825741700691386,"175":-0.1383867701860444,"176":-0.5634648591908905,"177":0.016674309180623747,"178":-0.10146614987024197,"179":-0.16840694067293321,"180":0.11586506589686786,"181":-0.029459770828021425,"182":0.04595374468728869,"183":-0.24569364802655022,"184":-0.4850459863870168,"185":-0.2051938154376237,"186":-0.46414097373130475,"187":-0.045399860188862294,"188":-0.2301181066582033,"189":0.13188554693330884,"190":-0.39187118793261183,"191":-0.5417041255040103,"192":-0.2339330232911782,"193":-0.17807565977963227,"194":-0.39750566399392584,"195":-0.0731230554092163,"196":-0.1264849624869552,"197":0.0017498184700572238,"198":-0.462752083175576,"199":-0.6182492601904873}},{"sx":5,"sy":5,"depth":8,"w":{"0":0.06391401044601008,"1":-0.20663530978936126,"2":0.16108730613817465,"3":-0.26069079156660663,"4":-0.06831713952537927,"5":-0.13948328081150066,"6":-0.01441447068151473,"7":-0.01680920450757892,"8":-0.07413779200884892,"9":-0.19707855597149973,"10":0.1988645657752389,"11":-0.350237652838766,"12":-0.016040825077729737,"13":-0.016701215775288016,"14":-0.002508398276268742,"15":-0.29138518529536445,"16":-0.21947276971226817,"17":0.15661631016612904,"18":-0.32028515307263977,"19":-0.14385930442833228,"20":-0.13502248293584224,"21":-0.054708232985981146,"22":-0.22125099890155125,"23":-0.23889284826891102,"24":0.20167814554637478,"25":-0.018800146913505993,"26":0.024022834228473313,"27":-0.33313761825189125,"28":-0.0538856669925182,"29":-0.2221195388908756,"30":-0.4173292013006235,"31":-0.14947755859091771,"32":0.05509814410790517,"33":-0.10467221693776581,"34":0.3299514805773872,"35":-0.26263785837844295,"36":0.06384268721621954,"37":-0.2882479365063639,"38":0.038743060596110705,"39":-0.2713643264331912,"40":0.0350994896238121,"41":-0.0619450544371516,"42":-0.12315755133055727,"43":0.05982224829550494,"44":-0.13193929434272164,"45":-0.2158827310646636,"46":-0.34833941982745625,"47":-0.085753008958347,"48":-0.029253004940397294,"49":0.08787665170189117,"50":0.0265732366772609,"51":0.006454770142815237,"52":-0.0279404951440718,"53":-0.22678129982603315,"54":-0.1614654776772292,"55":-0.21723847603058902,"56":-0.2408870807803335,"57":0.22773020757208998,"58":-0.10467922853652485,"59":0.18043504081770267,"60":0.1602739460707335,"61":-0.0016155935112204508,"62":-0.4205728956724102,"63":-0.4443275001126567,"64":-0.4267810080960355,"65":0.17635260751871623,"66":-0.06250880316322546,"67":0.0015406404436418856,"68":0.22361147591160097,"69":0.07833485425487033,"70":-0.47049510065854067,"71":-0.4509297943775598,"72":-0.1738305236198526,"73":0.15901419602987235,"74":0.2825530349029894,"75":0.0696815199848577,"76":-0.038993772311247905,"77":-0.1450260698799574,"78":-0.13889364607711344,"79":-0.09192312908819278,"80":0.14962630615350514,"81":-0.062115274020971285,"82":-0.22630427254039648,"83":0.3393311894983112,"84":0.02050831979986044,"85":0.06629724966350928,"86":0.028485157714589208,"87":0.07851768127798263,"88":0.07579226185607511,"89":0.14440283147550775,"90":-0.2635635042842493,"91":0.2565432526574004,"92":0.023405310166352476,"93":-0.007883044798938704,"94":0.09157605060197994,"95":0.08630039960130914,"96":0.03260741124004064,"97":0.2451916029335558,"98":-0.19443600173291772,"99":0.2136906862962472,"100":0.02399721035343924,"101":-0.15993780883166583,"102":-0.01899144408980045,"103":-0.07048132954271752,"104":-0.16122419154496634,"105":0.1986297835606622,"106":-0.26306250095006184,"107":-0.007865078831816226,"108":0.15979754278141522,"109":-0.11075862822366568,"110":0.135224069167176,"111":-0.4959116357428335,"112":-0.27102172699340854,"113":0.3784533798527352,"114":-0.31461984458686487,"115":0.17560183049065428,"116":0.17946364730273798,"117":0.18125892665674628,"118":0.1551599460578729,"119":-0.35829831926727845,"120":-0.10738604655380792,"121":-0.3117870387617195,"122":0.07901354841237435,"123":0.2983482163558608,"124":-0.3081116770406621,"125":-0.15802225637901401,"126":0.060170986277289756,"127":0.31987985459090185,"128":-0.15391437946635425,"129":-0.2563426371797808,"130":0.08183016134670186,"131":0.20850793679772653,"132":-0.20267245549385307,"133":-0.06107935561440701,"134":0.016703211385777787,"135":0.3962664274628574,"136":0.06996785272810198,"137":-0.2527320930917188,"138":-0.1127283259032229,"139":0.24384586529708535,"140":-0.13767552856849116,"141":0.0990606518580492,"142":0.16864448253663286,"143":0.21003356681841784,"144":0.3832994444799368,"145":-0.057707997211976655,"146":0.09164924260340251,"147":0.25307358635322313,"148":-0.24332416120210723,"149":0.0540744885420611,"150":0.33096619262049076,"151":0.1018214554734378,"152":0.3237434989021123,"153":-0.06237136040744495,"154":-0.17976364627769323,"155":0.22940396961277307,"156":-0.0777911989529297,"157":0.04042811646945138,"158":0.13640745832907558,"159":0.06275702353196742,"160":-0.08862621619207982,"161":-0.2907253977203906,"162":0.2779569106160486,"163":0.18029665970110162,"164":-0.08166531213759694,"165":-0.42006862662832456,"166":-0.1957807312818483,"167":0.03944068773467049,"168":-0.13316889069913124,"169":-0.21951491818568963,"170":0.23559590875678238,"171":-0.015777428564643634,"172":-0.17634644473184263,"173":-0.21053845781608066,"174":-0.16862198747309345,"175":0.078952191841801,"176":0.03674572938790856,"177":-0.16432639375001126,"178":0.08752586982120496,"179":-0.10393286636367503,"180":-0.18469125314520682,"181":-0.14769846368902648,"182":-0.16084984313687523,"183":0.044370093939628916,"184":-0.0058900184953159795,"185":-0.09959190079138559,"186":-0.008005759227718946,"187":-0.1851392895597137,"188":0.025270330737001256,"189":-0.16115001436771123,"190":0.009946815834180795,"191":0.14226545380263408,"192":0.20418034188293585,"193":-0.07003013974931986,"194":0.06421526144056225,"195":-0.21517802242178405,"196":-0.23207996317103638,"197":-0.22185220098346098,"198":0.21565229457204502,"199":0.12157917271625805}}],"biases":{"sx":1,"sy":1,"depth":16,"w":{"0":0.10100812090938789,"1":-0.03850531954465147,"2":-0.02581006516110646,"3":0.012751685124427533,"4":0.12853940902057528,"5":-0.24806872328256344,"6":0.23069139824907628,"7":-0.19612586009759353,"8":-0.2864097839486811,"9":-0.006647058898184603,"10":-0.10651785134573787,"11":-0.30360095469759835,"12":-0.189772164266453,"13":-0.09547591160739974,"14":0.1301885526505134,"15":-0.15398857946873998}}},{"out_depth":16,"out_sx":14,"out_sy":14,"layer_type":"relu"},{"sx":3,"sy":3,"stride":3,"in_depth":16,"out_depth":16,"out_sx":4,"out_sy":4,"layer_type":"pool","pad":0},{"out_depth":20,"out_sx":1,"out_sy":1,"layer_type":"fc","num_inputs":256,"l1_decay_mul":0,"l2_decay_mul":1,"filters":[{"sx":1,"sy":1,"depth":256,"w":{"0":-0.49654289137633545,"1":-0.27462643315962576,"2":-0.5933685711762966,"3":-0.11609937758276795,"4":-0.10620338197466121,"5":-0.45398286094371987,"6":-0.39945912035118414,"7":-0.1381715411529471,"8":-0.20658945958541095,"9":-0.10010158927264157,"10":-0.27331779463728884,"11":-0.4019316639927047,"12":-0.37890000949173724,"13":-0.39389129143742907,"14":-0.1680555800357139,"15":-0.22453467848659628,"16":-0.3380028375138825,"17":-0.28164312078982656,"18":-0.35632878015168196,"19":-0.36978264846217784,"20":-0.0729007782191657,"21":-0.445296083285709,"22":0.013274487687602659,"23":-0.15115154472455514,"24":-0.40942078045228897,"25":-0.3642972021840757,"26":-0.3335010624173514,"27":-0.602785167406448,"28":-0.34219356549660185,"29":-0.17799920179976422,"30":-0.12772129339267152,"31":-0.3620638745663954,"32":-0.06306636694458996,"33":-0.5645980960638358,"34":-0.25617032051092437,"35":-0.46164639682783903,"36":-0.39265517226723823,"37":-0.054393026944682246,"38":-0.2188628991533481,"39":-0.5218884763491659,"40":-0.4999991211933203,"41":-0.7516431614711379,"42":-0.2465113894296395,"43":-0.13149470061412968,"44":-0.6252395158107245,"45":-0.6326235094726914,"46":-0.19134105210061622,"47":-0.6503712746979899,"48":-0.4417265116350083,"49":-0.22859080200176904,"50":-0.5671124562625395,"51":-0.034553356119963706,"52":-0.0738630010579084,"53":-0.31976678589291846,"54":-0.5735475046987496,"55":-0.4207725213398476,"56":-0.09145138645624114,"57":-0.33960993186071564,"58":-0.1826467714741819,"59":0.09835221266698098,"60":-0.36603508208012614,"61":-0.5056956549539248,"62":-0.3608908422257525,"63":-0.40701369579955016,"64":-0.3566994313769414,"65":-0.6492976757766161,"66":-0.5058897595973463,"67":-0.22173302776921966,"68":-0.07172721894123979,"69":-0.2962592200075764,"70":-0.517985063697653,"71":-0.372518032192577,"72":-0.3227304399652206,"73":-0.1632124742868215,"74":-0.33765703084057475,"75":-0.5566230215045009,"76":-0.42761060281143476,"77":-0.8708935379457612,"78":-0.09953352369721975,"79":-0.4888408424535116,"80":-0.30247996749951617,"81":-0.09802977141478529,"82":-0.30790298545202366,"83":-0.2751080967834053,"84":-0.03357191737346805,"85":-0.5681668545921184,"86":-0.3204466757030556,"87":-0.12819571415201997,"88":-0.3020915783652889,"89":-0.22482378175600318,"90":-0.39521249987070883,"91":-0.5821990661670825,"92":-0.2661483214876356,"93":-0.39514534949230723,"94":-0.12050783332520046,"95":-0.06840320835138528,"96":-0.3440509773910573,"97":-0.33568390701837636,"98":-0.34482126550920433,"99":-0.11590281850214118,"100":-0.15999236435979167,"101":-0.28922840160197416,"102":-0.5896306538266187,"103":-0.41159287781013026,"104":0.12071300706752892,"105":0.13836537863764659,"106":-0.11502271234670912,"107":0.14901267962834702,"108":-0.3922135883794451,"109":-0.17075477459385544,"110":-0.16089860657511543,"111":-0.23203418413009355,"112":-0.42123813031751967,"113":-0.103359202139564,"114":-0.21107666234727074,"115":-0.03906708812066461,"116":-0.07392637133231669,"117":-0.5245758017270581,"118":-0.4004852175325964,"119":-0.47560747563167816,"120":-0.07642115711486534,"121":-0.1440072806553795,"122":-0.26791976122451866,"123":-0.14077417753605656,"124":-0.2867353065090408,"125":0.10160653714596193,"126":-0.09670958330770064,"127":-0.24266163643577796,"128":-0.0767738077077739,"129":-0.4133869256215532,"130":-0.20785468447707403,"131":-0.12022416248577318,"132":-0.5267448862676165,"133":-0.16071913986828007,"134":-0.09143072383443493,"135":-0.5552475775664611,"136":-0.4316499773519827,"137":-0.5009636657968636,"138":-0.4239132079533946,"139":-0.5248246929740102,"140":-0.391856758935805,"141":-0.42935693781204387,"142":0.028358941670642113,"143":-0.5009182983860426,"144":-0.20058771577471615,"145":0.09876557275502981,"146":-0.1279949805672546,"147":-0.1699291301415649,"148":-0.08118458258703055,"149":-0.2592559930961913,"150":-0.5603015384510192,"151":-0.2988096695493587,"152":-0.3504170284369676,"153":-0.36018175962943183,"154":-0.5018785569999697,"155":-0.593989770623424,"156":-0.18050569075647782,"157":-0.2652620058872542,"158":-0.028915443075869136,"159":-0.3249133613808312,"160":-0.6815673943334664,"161":-0.2002780959628064,"162":-0.49827852657725,"163":-0.20976254612522816,"164":-0.27193923305125767,"165":-0.42196072571154725,"166":-0.4312624547734764,"167":-0.3052200410320065,"168":-0.2338635764494878,"169":0.018947254272110768,"170":-0.37303982652096956,"171":-0.3612153668357109,"172":-0.4124423858194886,"173":-0.17436500555719148,"174":-0.15915158523405631,"175":-0.2903351916205689,"176":-0.3937360677911987,"177":-0.1564855342632051,"178":-0.2405614779494734,"179":-0.2333120892101913,"180":-0.18482428322206482,"181":-0.3991024130294081,"182":-0.10387573952008182,"183":-0.48215764948663153,"184":-0.34057568526397797,"185":-0.1854793565033391,"186":-0.3437413368905642,"187":-0.4484134789603265,"188":-0.4106815283509357,"189":-0.053827928395530786,"190":-0.34875418234714556,"191":-0.42521404301056676,"192":-0.07594864166704489,"193":0.3360233259870746,"194":0.0039188762046444385,"195":-0.10263492628616971,"196":-0.30383411441591734,"197":-0.183651790026457,"198":-0.005034823802328441,"199":-0.6020765488688015,"200":-0.7742688807648818,"201":-0.4800600041621574,"202":-0.42346514987642525,"203":-0.2300248994731161,"204":-0.35797168093301446,"205":0.1366610294418291,"206":-0.07251807902493815,"207":-0.30505256944027653,"208":-0.1671142766199257,"209":-0.3021839519262661,"210":0.04482934867431602,"211":-0.13948999796187336,"212":-0.11365297812003301,"213":-0.35282436888312985,"214":-0.6654195833736307,"215":-0.30342480974866376,"216":-0.5928807675098524,"217":-0.554464335661,"218":-0.2197060660137926,"219":-0.541434041353963,"220":-0.5678234101248847,"221":0.01948607654698979,"222":-0.12853222354330138,"223":-0.46381424262935106,"224":-0.3023927690184306,"225":-0.5110540597922593,"226":-0.325115515167877,"227":-0.38648907114861,"228":-0.3730841487034403,"229":-0.42432583486898817,"230":-0.3267658051798448,"231":-0.5789035627711259,"232":-0.41151405603378904,"233":-0.46501949981471735,"234":0.005068810763979557,"235":-0.774932521457728,"236":-0.615790771626291,"237":-0.4053279245333984,"238":-0.3819002962677408,"239":-0.5809739770494221,"240":-0.35394493674257266,"241":-0.6040447014106497,"242":-0.4344280702135213,"243":-0.2056122821325081,"244":-0.8626483118048485,"245":-0.21350976512663253,"246":-0.05046485587621531,"247":-0.35665739694792425,"248":-0.4106366872373815,"249":-0.7049417860549324,"250":0.11039027972295724,"251":-0.47114289170925067,"252":-0.46616419001522164,"253":-0.5596951413371358,"254":-0.6455448909423079,"255":-0.5789384392860334}},{"sx":1,"sy":1,"depth":256,"w":{"0":-0.13729905072808812,"1":-0.14128364725034245,"2":-0.3152432072255096,"3":-0.16536108594492127,"4":-0.3738351144441676,"5":-0.09747173115322025,"6":-0.3999033552345663,"7":-0.11548078330984851,"8":-0.1738692274970781,"9":-0.06390882603829694,"10":-0.05381053747443498,"11":-0.21314100605496383,"12":-0.17462260619389436,"13":-0.17556161056776043,"14":-0.22780440907052316,"15":-0.1792169522303964,"16":-0.2696395259578406,"17":-0.11055541276353184,"18":-0.3961902996061652,"19":-0.29109492381650426,"20":-0.2784890209883814,"21":-0.2635211272990573,"22":-0.4864463037984063,"23":-0.0010538055976685938,"24":-0.20933050407043902,"25":-0.1965072863524953,"26":-0.1931024689301229,"27":-0.4547542490310062,"28":-0.3875000037313237,"29":-0.3343064720785189,"30":-0.41550927441577956,"31":-0.4040064129798479,"32":-0.23190751157668896,"33":-0.00951231227240906,"34":-0.5507577291314575,"35":-0.40352009422346535,"36":-0.20996477472292685,"37":-0.2393050846163937,"38":-0.21617055961629472,"39":-0.1471374878289837,"40":-0.28828176641926745,"41":-0.3000860412175774,"42":-0.18605048475364955,"43":-0.48625954886519485,"44":-0.5237214569033775,"45":-0.3873017168780107,"46":-0.5173779679430648,"47":-0.46987345624643034,"48":-0.17947515295706068,"49":-0.279935741324497,"50":-0.491270974920304,"51":-0.37106143138922476,"52":-0.32362427769539476,"53":-0.0834041746754053,"54":-0.3803521853502445,"55":-0.0972390311463998,"56":-0.1869206950948724,"57":-0.25748055429581157,"58":-0.051089118097213684,"59":-0.2590914838877515,"60":-0.522296323054601,"61":-0.3294266031323366,"62":-0.26660064638664943,"63":-0.4615264301173216,"64":-0.36777692255065475,"65":-0.21278349625723364,"66":-0.6473161707084069,"67":-0.2587418291027053,"68":-0.02865532235128064,"69":-0.7867369804524397,"70":-0.34719511047396456,"71":0.015987558955108092,"72":-0.4652447608610088,"73":-0.186318614366314,"74":-0.5284922000467853,"75":-0.6523366364942225,"76":-0.4319107584315039,"77":-0.3514700997833975,"78":-0.20613034711097172,"79":-0.18241789005236048,"80":-0.1153810405367586,"81":-0.32783852397143226,"82":-0.21091318196464995,"83":-0.36079008633360304,"84":-0.42918588187815526,"85":-0.20381528869762636,"86":-0.34423403511472334,"87":-0.2384014820220948,"88":-0.4039490385633693,"89":-0.2755374062714133,"90":-0.22793050240154136,"91":-0.10760489762098714,"92":-0.3981235661735595,"93":-0.3627965207807549,"94":-0.3895947804477051,"95":-0.22967854852362082,"96":-0.2289316626058517,"97":-0.2891674380839007,"98":-0.3907368578890901,"99":-0.25576911103347194,"100":-0.300528704514442,"101":-0.3384495319459146,"102":-0.23720737971052577,"103":-0.2305832866717119,"104":-0.24799661600011408,"105":-0.22654190818000575,"106":-0.31978218701901917,"107":-0.2986927689809934,"108":-0.33536933650462625,"109":-0.338560538624594,"110":-0.4435985136971007,"111":0.009166266946069092,"112":0.08277161150838679,"113":-0.5377215323407586,"114":-0.30594020266675326,"115":-0.31979348568382543,"116":-0.1497768054256934,"117":-0.2022579151074717,"118":-0.6072529304370248,"119":-0.16567395979865765,"120":-0.3699438906049907,"121":-0.1690305482822147,"122":-0.26715098134864096,"123":-0.21798368514210886,"124":-0.6733253738005762,"125":-0.5696539882137289,"126":-0.2007363442702571,"127":-0.2236894718814809,"128":-0.6618833171985389,