{"layers":[{"out_depth":1,"out_sx":28,"out_sy":28,"layer_type":"input"},{"sx":3,"sy":3,"stride":1,"in_depth":1,"out_depth":8,"out_sx":30,"out_sy":30,"layer_type":"conv","l1_decay_mul":0,"l2_decay_mul":1,"pad":2,"filters":[{"sx":3,"sy":3,"depth":1,"w":{"0":0.3134406859842084,"1":-0.4371862557843196,"2":-0.3798199370954942,"3":-0.014135048009063842,"4":0.08383077878440633,"5":-0.1131059386795456,"6":0.5206688136513967,"7":0.31193061157342483,"8":-0.4513393415461196}},{"sx":3,"sy":3,"depth":1,"w":{"0":0.5447900575414013,"1":-0.35247177592020545,"2":0.3139524395524748,"3":0.02209739619383431,"4":-0.44873342229383734,"5":-0.18444058170476363,"6":0.11044340746528396,"7":-0.14207725020823375,"8":0.032304313715016755}},{"sx":3,"sy":3,"depth":1,"w":{"0":0.17404247911883447,"1":0.20707652649262334,"2":-0.16758990695996295,"3":0.7385293894743749,"4":0.028741126566642364,"5":0.09822515956914013,"6":0.08683484220586818,"7":-0.4391653251162455,"8":0.21251693089225349}},{"sx":3,"sy":3,"depth":1,"w":{"0":-0.6896870342836741,"1":0.5262819515215866,"2":0.01503133805173959,"3":-0.7378573904076422,"4":-0.026601649886729372,"5":0.3592439656548816,"6":-0.945679570440857,"7":0.11878041876447884,"8":0.17820829502749563}},{"sx":3,"sy":3,"depth":1,"w":{"0":0.03794851426224634,"1":-0.15576391849508128,"2":-0.058730286973323935,"3":0.360654205034431,"4":0.3039688920053119,"5":0.2505122821058588,"6":-0.3746244051445064,"7":-0.2663628558707178,"8":-0.28629856769852186}},{"sx":3,"sy":3,"depth":1,"w":{"0":-0.19298346816645773,"1":0.07501959595206638,"2":-0.27648835128603777,"3":0.73117344644959,"4":-0.3762322687581023,"5":0.35972215481575864,"6":-0.1297798257072911,"7":0.5003517504950322,"8":-0.2524891264821151}},{"sx":3,"sy":3,"depth":1,"w":{"0":0.9003469323294363,"1":0.006222622672164346,"2":-1.0130385761489118,"3":0.009575924471174948,"4":-0.4399949826825351,"5":0.1587969929615014,"6":-0.6633499147371856,"7":0.03543563829084775,"8":0.4197582416428589}},{"sx":3,"sy":3,"depth":1,"w":{"0":-0.6008211544315076,"1":-0.7090612863902376,"2":-0.28025248761241045,"3":0.1564172777387437,"4":0.24746520800964064,"5":-0.28829280858743284,"6":0.4960920127873624,"7":-0.2074208596304132,"8":0.39273330163491715}}],"biases":{"sx":1,"sy":1,"depth":8,"w":{"0":-0.16166574384570678,"1":-0.14985586519988892,"2":-0.39560088224109197,"3":0.05746309209511278,"4":-0.023931432787738686,"5":-0.335080695555302,"6":0.07026820260900096,"7":0.08634168400094182}}},{"out_depth":8,"out_sx":30,"out_sy":30,"layer_type":"relu"},{"sx":3,"sy":3,"stride":1,"in_depth":8,"out_depth":8,"out_sx":32,"out_sy":32,"layer_type":"conv","l1_decay_mul":0,"l2_decay_mul":1,"pad":2,"filters":[{"sx":3,"sy":3,"depth":8,"w":{"0":-0.07652010358325749,"1":0.08650670883217162,"2":-0.07506226049903508,"3":0.03157703704722366,"4":-0.21307160976121856,"5":0.09901378049711974,"6":-0.13081296677483148,"7":-0.0657452435876592,"8":-0.12358067583383504,"9":-0.03878459839638592,"10":0.00197292623506573,"11":-0.014142282462481141,"12":-0.029872159521477128,"13":-0.2069235941687394,"14":0.0023716380224191045,"15":0.15585085458923395,"16":0.011424177579243818,"17":-0.06084903734182131,"18":0.034330497860411785,"19":-0.11042493139386607,"20":-0.05049560283255697,"21":-0.028786707499546295,"22":-0.054449665410302384,"23":0.027348860533583142,"24":-0.055787232445723894,"25":-0.005950614920863506,"26":0.06940236472841088,"27":-0.11036423550166612,"28":-0.04796698527161559,"29":-0.052250395732514165,"30":-0.14951613398464897,"31":-0.10168500222203462,"32":-0.22302958330600364,"33":-0.11070367327381023,"34":-0.02783862950100887,"35":-0.061842827482309314,"36":-0.1020718456348596,"37":-0.05684860440727242,"38":0.03818311169255642,"39":-0.06876955912227435,"40":0.011664505884584498,"41":-0.17649387795588212,"42":-0.1419246606197637,"43":-0.10942277757838609,"44":-0.04808046518406981,"45":-0.06807279415669593,"46":-0.10583127806108436,"47":0.05988425288202766,"48":0.03573526130909002,"49":-0.06505569155126185,"50":-0.09390425943973221,"51":0.007392740954310385,"52":-0.08479068753559314,"53":0.015007354186325088,"54":0.026268550085875152,"55":-0.053033016228121184,"56":-0.14000716923060957,"57":-0.08935294412507627,"58":0.0963635546674717,"59":-0.12104600298000306,"60":-0.06549618086226355,"61":-0.01546475127490732,"62":0.020956936445769278,"63":-0.13100230267213978,"64":-0.06959773257316368,"65":-0.11756020302103644,"66":-0.1096552918354968,"67":-0.13567449559012415,"68":0.07887395682449597,"69":-0.16631683282248652,"70":-0.06111209542616268,"71":-0.07424612358988271}},{"sx":3,"sy":3,"depth":8,"w":{"0":-0.23778792246632238,"1":-0.37923512863891023,"2":-0.23863344464652833,"3":0.21993147024861004,"4":-0.06751935084493339,"5":-0.10494167801302874,"6":0.007847007767391105,"7":-0.24242788045418295,"8":0.18748357306756788,"9":-0.22569007194307508,"10":-0.12154234989774836,"11":0.2918440330822934,"12":0.2705134192564425,"13":-0.2692128265574557,"14":0.2397202040586088,"15":-0.5147931603696854,"16":0.1251005183344593,"17":0.27921561005165535,"18":0.06945826203170241,"19":0.1350263830191593,"20":0.22010461948771076,"21":0.24990055254668084,"22":0.14694644746091087,"23":0.3596966252773329,"24":-0.2447828245789631,"25":0.20661698560940747,"26":-0.09877690494446861,"27":0.10205942640653114,"28":-0.15022310207239845,"29":-0.14791840769908537,"30":-0.5642712501566252,"31":-0.3529615554353386,"32":0.13117365159608735,"33":-0.5162196705912785,"34":-0.20824946843550077,"35":0.28819062055872796,"36":-0.10556434319556694,"37":-0.21379934115462437,"38":-0.38591626445393,"39":-0.4181339882923964,"40":-0.06751338290671285,"41":0.0293204889744134,"42":-0.10876539756119373,"43":0.1937705508299588,"44":0.27820412411526274,"45":-0.28915707485765996,"46":0.216082031476188,"47":-0.07564200216478766,"48":-0.06520286412203914,"49":0.24984335810017394,"50":-0.03521791515268141,"51":0.05418262396254481,"52":-0.006630337169453334,"53":-0.11264655430508229,"54":0.14831573362145872,"55":0.15526451909577957,"56":0.08500828883652807,"57":-0.541193090924354,"58":-0.469935484040537,"59":-0.1013512431344545,"60":0.0771422093025188,"61":0.047269394925331054,"62":-0.5057351961539791,"63":-0.050009865990388334,"64":-0.25404800572435565,"65":0.17515113685614608,"66":-0.03525969796105258,"67":0.005061194634528428,"68":0.027292613301313523,"69":-0.15084781267543107,"70":-0.060405046544268017,"71":-0.10141407286092993}},{"sx":3,"sy":3,"depth":8,"w":{"0":0.19536538926305144,"1":-0.2540312009145469,"2":-0.27037085700409863,"3":-0.3868438166281868,"4":-0.21578246673354567,"5":-0.24917021650471347,"6":-0.11695973660460844,"7":0.09527137472255548,"8":0.057006565519135605,"9":0.3041939838188866,"10":0.10277556781428525,"11":-0.17359120959389845,"12":0.018918149095170356,"13":-0.15772259628925672,"14":0.21170236024476877,"15":-0.27689243631206967,"16":-0.43983128256281134,"17":-0.1351485936271744,"18":-0.10445218577811524,"19":-0.06532910315897884,"20":-0.010653825237617771,"21":-0.23617430372067727,"22":-0.22155517330336535,"23":-0.1828855725304918,"24":0.0006335281932178267,"25":-0.11353372401991066,"26":0.13669353071732537,"27":-0.05064655832826132,"28":-0.04240943087366107,"29":-0.033080026096333606,"30":0.25051569347879854,"31":-0.07648008640103025,"32":-0.06709411741341631,"33":0.3031475869758147,"34":-0.045052769120632906,"35":-0.17224669805805148,"36":-0.25356359239955345,"37":-0.14356828970250599,"38":0.2163174052518517,"39":-0.44011617254026003,"40":-0.10037059664634158,"41":-0.39094926559408755,"42":-0.20310205864356998,"43":0.2811593602193096,"44":-0.11287108853860248,"45":-0.19926526356474503,"46":-0.10650869086075736,"47":-0.18164214132760767,"48":-0.19813528184297957,"49":0.36410569847097995,"50":-0.041594672174481165,"51":-0.3836173544517924,"52":-0.06569602110220733,"53":-0.15466738813924186,"54":0.3859803271308858,"55":-0.3942031424710997,"56":-0.20941689915816508,"57":-0.21934125085641018,"58":-0.20193216200472908,"59":-0.14638243295483597,"60":-0.11215359936083892,"61":-0.39344561909409237,"62":0.058573174750325994,"63":-0.8981750092959626,"64":0.04391505547233925,"65":-0.3439246537031107,"66":-0.1914472028994898,"67":0.238273098503361,"68":-0.2926807329192236,"69":-0.11589613928072225,"70":-0.519362000147949,"71":-0.12881744121644978}},{"sx":3,"sy":3,"depth":8,"w":{"0":0.14374600952704705,"1":0.07838438988425613,"2":-0.1163219620237847,"3":-0.0983216241862204,"4":0.32012367438417344,"5":-0.10901714773500579,"6":0.1004128386733267,"7":-0.06727751739594838,"8":-0.03481485296690809,"9":-0.060912615609484924,"10":0.022373112465407293,"11":-0.3715725853814289,"12":0.5596617137909147,"13":-0.02905402535000095,"14":-0.255528110880175,"15":-0.11919404918340663,"16":0.08518470357654179,"17":-0.2094907583018562,"18":0.0032367896191887887,"19":-0.6510507814462568,"20":0.3547689543601445,"21":-0.0017813551187712434,"22":-0.10789930391480494,"23":0.19837010916638614,"24":0.22789290496240286,"25":-0.2981847881396433,"26":-0.03644835946883641,"27":-0.24597613322604844,"28":0.44464163971036635,"29":0.08537407768396736,"30":-0.07187633930842577,"31":0.5359151342940109,"32":-0.3836343083832528,"33":0.04656866295248069,"34":0.15368953988160708,"35":-0.47366141915955184,"36":0.36296847129681276,"37":0.06627925872551527,"38":-0.20013060492456974,"39":0.01110583575509305,"40":-0.047138754373820035,"41":0.1257782561743919,"42":0.05368537209148237,"43":-0.46839698394782625,"44":0.4026993377904854,"45":0.17734125788027594,"46":-0.5183971789040205,"47":0.19786656501749678,"48":-0.3846972750898631,"49":-0.03585879011313081,"50":0.07054899514723674,"51":-0.01106307067736049,"52":0.022517427172890063,"53":-0.020663207531050293,"54":-0.17216051247193226,"55":-0.1867627533456947,"56":-0.34078169393940433,"57":0.14097436204255492,"58":-0.06604643094716497,"59":0.0521524456157758,"60":-0.20004255857320782,"61":0.12879080043245847,"62":-0.27216444370934106,"63":-0.3848133132471547,"64":-0.15797930819791892,"65":0.2098922358693215,"66":0.035586122916125555,"67":-0.21540065825681806,"68":-0.08024903645158814,"69":-0.12149779727675919,"70":-0.0944585893680348,"71":-0.504877581841342}},{"sx":3,"sy":3,"depth":8,"w":{"0":0.0020485408982665633,"1":-0.15253258762182406,"2":-0.3917858846921944,"3":0.2649300767990281,"4":0.06306331370463482,"5":0.10716205916413697,"6":0.09819327046112376,"7":0.15719506793651677,"8":-0.05643717771155095,"9":-0.4381310733230653,"10":-0.31446786106472224,"11":0.08380798351524629,"12":0.1501421891568896,"13":0.07631709005059563,"14":-0.518354358603035,"15":-0.06190974650529435,"16":-0.05369641403828835,"17":-0.015098203923446686,"18":0.3413391129839893,"19":-0.14868483812297886,"20":0.32771961398016447,"21":0.07706640792430045,"22":-0.15624802687573414,"23":-0.12786007644078562,"24":0.1558367894723115,"25":-0.057986786768782696,"26":-0.30239771821206624,"27":-0.30153144108952606,"28":0.05602475607158384,"29":-0.023425008725325484,"30":-0.5610796996022116,"31":0.2854310740902824,"32":-0.2057668077358075,"33":-0.13764144210047946,"34":-0.004166109338736552,"35":-0.034241340309749416,"36":0.2960670289833961,"37":-0.14556670640355146,"38":0.07648118618112569,"39":-0.15357230847509637,"40":-0.43966885513657283,"41":0.016663687084731794,"42":0.28058082589357525,"43":-0.21246427188947428,"44":0.09271137552093396,"45":-0.17034905403719378,"46":0.21593528170722898,"47":-0.5339396842475759,"48":-0.15909397664397817,"49":-0.17023568274144016,"50":0.02164871435583276,"51":-0.24402308234100217,"52":-0.18106781966278387,"53":0.05327458286672484,"54":-0.0016723530505350181,"55":-0.18466946008612226,"56":0.020293545165302494,"57":0.13375645082297075,"58":-0.0783397445820816,"59":-0.2545601174301642,"60":-0.33416113449314105,"61":-0.08714594829493748,"62":0.5088265329682589,"63":-0.47772112626961,"64":-0.0894313425469393,"65":0.1318870303267696,"66":-0.5554099340677904,"67":-0.1876053532498645,"68":0.042493152582312343,"69":-0.32410062850484733,"70":0.19990872846212432,"71":-0.11155288295043311}},{"sx":3,"sy":3,"depth":8,"w":{"0":-0.1373448356304666,"1":-0.04320550079600932,"2":-0.1822228282708228,"3":0.13493444115897102,"4":-0.11156472401612175,"5":-0.03742016670625676,"6":0.21258911825148802,"7":-0.012970281296435966,"8":-0.027504100581185468,"9":0.041642101558173474,"10":0.05163356992433869,"11":0.454163100920248,"12":-0.11342837119340851,"13":-0.04723187958922821,"14":-0.2118459229132704,"15":-0.14131515845979697,"16":-0.07893318609757581,"17":0.18094313313681915,"18":0.23300194439081023,"19":0.049260627327869524,"20":-0.11491937911331171,"21":0.057242359255611865,"22":-0.042630036110307454,"23":0.1006412314555129,"24":-0.03762954139597019,"25":-0.3622135920879622,"26":-0.5082688406527677,"27":0.35577005064095135,"28":-0.1939101172340585,"29":-0.10034963825881854,"30":-0.0026605470729442306,"31":-0.12613264032242769,"32":0.22415623766913037,"33":0.45247164594783656,"34":0.07560627001982634,"35":0.1035509006715235,"36":-0.23848436494065128,"37":-0.0675600137967865,"38":-0.18309966000087172,"39":-0.0519335616836089,"40":-0.09317938172015171,"41":0.160369908728129,"42":0.2767330918406119,"43":0.14309496909080444,"44":-0.03422776082162111,"45":0.1799466342139103,"46":-0.10025524113240146,"47":-0.008159636451075255,"48":-0.1270033214629008,"49":-0.2512298369255157,"50":-0.292808804776092,"51":0.38259537149208855,"52":-0.07438486176462174,"53":-0.20972635422789515,"54":-0.49995045189064635,"55":-0.3740856841379396,"56":0.355136254928024,"57":0.2236755262665775,"58":0.4164761138575515,"59":-0.06206484666202743,"60":-0.11337985756277998,"61":0.19808629436789776,"62":-0.17036758190037912,"63":0.0632863521386327,"64":0.08992578787036273,"65":0.28818225493354804,"66":-0.09121993152276392,"67":-0.09894285764310815,"68":-0.09991200487051588,"69":0.11014996178604028,"70":0.08707065452914356,"71":-0.014319298540120842}},{"sx":3,"sy":3,"depth":8,"w":{"0":-0.4941051088035037,"1":-0.030007105835089747,"2":0.06711651465837953,"3":0.10286359707086189,"4":-0.16823762686580523,"5":0.04919485800340688,"6":0.07848842944963272,"7":-0.39031587635311077,"8":0.027903427931594962,"9":-0.17532785146416105,"10":0.010303035043597104,"11":0.5513862297358925,"12":0.43099935747031115,"13":-0.1312244961194112,"14":0.09746168171914103,"15":-0.031255689441084276,"16":-0.16100001912157802,"17":0.24122124517615445,"18":0.13625917486236896,"19":-0.01886393126324048,"20":0.18199798766775116,"21":0.20815407373595507,"22":0.23260557553097735,"23":-0.06112286908497204,"24":0.15480703489589379,"25":-0.17511233148152872,"26":-0.2530734940506245,"27":0.008509532495241702,"28":-0.07074809050738161,"29":-0.26574063280671917,"30":-0.6195419253549422,"31":-0.10123807896840908,"32":-0.07014089469832673,"33":-0.04574572341372089,"34":-0.5784104316626532,"35":-0.17477761062510247,"36":0.03349124134496334,"37":-0.3241442715865473,"38":-0.4598642690318388,"39":-0.4343511784912359,"40":-0.2924911095933947,"41":0.05573624695668435,"42":-0.10930485039151337,"43":0.15096547548867492,"44":0.1270869796652031,"45":-0.7418195274180831,"46":0.24152059180629717,"47":-0.21458599511721632,"48":0.04712616290503723,"49":-0.2252131262612321,"50":0.3156568979564018,"51":-0.07238852012571026,"52":0.40324722410029323,"53":0.19246010284866777,"54":-0.0913009320883965,"55":0.24751450562580785,"56":-0.050372420855708436,"57":-0.13671087586183725,"58":0.008380147726939737,"59":-0.31532553224279536,"60":0.08137502470087904,"61":0.09495381389798428,"62":-0.4986336887989251,"63":0.17794625942689432,"64":-0.005393683277054914,"65":-0.47383706512152396,"66":-0.10550472336620241,"67":-0.13850444251950522,"68":0.04194668230567194,"69":-0.014020530809378274,"70":-0.4367404539764316,"71":0.23144409992002374}},{"sx":3,"sy":3,"depth":8,"w":{"0":-0.04348629566660982,"1":-0.29621529837730076,"2":0.3502608362428205,"3":-0.013028984712118285,"4":0.015525243445058729,"5":-0.12178142115451461,"6":0.15127509660230573,"7":0.01134145120807571,"8":0.2159204500511923,"9":0.13896830226049797,"10":0.16103705266197052,"11":0.010940648203193126,"12":-0.15497830085636186,"13":0.05242288579591492,"14":0.2836871811223406,"15":-0.10068616315242469,"16":0.3350856587345179,"17":0.3470192523195274,"18":0.1251595380404612,"19":-0.14683820759464036,"20":-0.2936000853850933,"21":0.08280473279588527,"22":0.10387655789898212,"23":0.06730379898295487,"24":0.080990505689525,"25":-0.03310139910749954,"26":0.27812627852850424,"27":-0.34627588206868354,"28":0.08130463840354968,"29":0.11065789762926607,"30":-0.06218251626514842,"31":0.06608929696028877,"32":-0.011899517999207852,"33":0.026203008619069094,"34":0.2248291474525118,"35":-0.0517945009020874,"36":-0.038230978112876145,"37":0.016153737928660553,"38":0.1771014218836525,"39":-0.1853934707018894,"40":0.27684226685068697,"41":-0.06236467099680715,"42":0.0858569346892035,"43":-0.01210476673102814,"44":-0.0206224406376609,"45":0.26212629172990903,"46":0.3221643906159926,"47":0.045328580044159086,"48":0.06818926301971767,"49":0.21053031759685986,"50":0.2183886988262879,"51":-0.2209607422076447,"52":-0.04794647785947972,"53":0.18031921842343593,"54":-0.18239546645174104,"55":-0.15442510237335116,"56":0.13649746527069573,"57":-0.12901555790792218,"58":0.18919890183154295,"59":0.07043682142545095,"60":0.08321262338737236,"61":0.35021969672575415,"62":-0.13446515672336784,"63":-0.20166914582504242,"64":0.29342875785617617,"65":-0.08648781184713714,"66":0.24408514027157904,"67":0.06419907331240927,"68":0.24401278656760222,"69":-0.026198387568674538,"70":-0.0419037734671305,"71":0.16022226859783964}}],"biases":{"sx":1,"sy":1,"depth":8,"w":{"0":-0.05686023281903937,"1":0.06983851372633923,"2":0.14298143177765513,"3":0.07647098045314896,"4":0.017754858208803632,"5":0.025103702897896294,"6":0.07235412366277534,"7":-0.15164973763751993}}},{"out_depth":8,"out_sx":32,"out_sy":32,"layer_type":"relu"},{"sx":2,"sy":2,"stride":2,"in_depth":8,"out_depth":8,"out_sx":16,"out_sy":16,"layer_type":"pool","pad":0},{"sx":3,"sy":3,"stride":1,"in_depth":8,"out_depth":16,"out_sx":18,"out_sy":18,"layer_type":"conv","l1_decay_mul":0,"l2_decay_mul":1,"pad":2,"filters":[{"sx":3,"sy":3,"depth":8,"w":{"0":0.077014051830486,"1":0.4566033685410829,"2":-0.16266592947925224,"3":-0.22946550895445075,"4":-0.032415032225980786,"5":0.18280445656306904,"6":0.3145785713701538,"7":0.035187989145121244,"8":0.06227906669655635,"9":0.22994586934042047,"10":-0.24275963962165087,"11":0.26065859573426053,"12":-0.2803172931890867,"13":-0.30293712800119343,"14":0.16451446455827787,"15":0.005055484343433967,"16":-0.04618353788339726,"17":-0.24464908551524603,"18":-0.4292136382499522,"19":-0.19486792947654552,"20":-0.13815345161940515,"21":-0.13654418729264564,"22":0.20014789887104947,"23":-0.2595913875077998,"24":-0.0028315951918574823,"25":0.193713108480851,"26":-0.04163582263228884,"27":0.10828492757636081,"28":0.05226754019551619,"29":-0.215176372167993,"30":0.08603175676260345,"31":-0.3182730032369581,"32":-0.09152181907884435,"33":0.36046318032660046,"34":-0.33269244760408945,"35":-0.06168172010497682,"36":-0.16245087076653056,"37":-0.2559060285631795,"38":0.017270952206071093,"39":-0.011015916424175614,"40":-0.06862901449356673,"41":0.17816884049175477,"42":-0.23296659842179607,"43":0.3371442403101181,"44":0.29681727307133354,"45":-0.021704977887212058,"46":0.05808423504400946,"47":-0.01611861276641943,"48":-0.0703922766586487,"49":-0.0703492599132239,"50":0.012930130377389758,"51":-0.2571380923871667,"52":-0.24027173840112198,"53":0.27897015952782356,"54":-0.23898523114663892,"55":-0.1425256415616069,"56":0.048964071075252524,"57":-0.3506965726268164,"58":0.014020918635561885,"59":-0.16442918104186713,"60":-0.20468743847527512,"61":0.07204776160105855,"62":0.13180427210647586,"63":-0.1888448232065137,"64":-0.0653199469468989,"65":0.07281498600293189,"66":0.23540152762638936,"67":0.06738252189081857,"68":0.027162043830137636,"69":-0.28827169596264346,"70":0.2542577697252546,"71":-0.1948810450504241}},{"sx":3,"sy":3,"depth":8,"w":{"0":-0.015497826940866478,"1":-0.22737175352033603,"2":-0.541977322859893,"3":-0.08118186940273811,"4":0.034557508134413904,"5":-0.05550105487399392,"6":0.16200283640228505,"7":-0.1557105797336636,"8":-0.026369837741670375,"9":-0.301317427582846,"10":-0.3353878314232135,"11":-0.13142568871402124,"12":-0.10358732714020738,"13":-0.206793380526799,"14":-0.1271539698633784,"15":-0.11027792960686655,"16":0.041872373909412085,"17":-0.16044429624509599,"18":-0.2985331337948079,"19":-0.1667260570910421,"20":-0.004314555184782175,"21":-0.12131078778068237,"22":-0.0842011699758576,"23":-0.21523797735945333,"24":0.0721002926869381,"25":0.01824438353134192,"26":-0.28770612199827317,"27":-0.14143464677996911,"28":0.047643921964788484,"29":-0.3366032755017329,"30":0.16385806882818724,"31":-0.2738466119689706,"32":0.08591914321214729,"33":0.0108817738643292,"34":-0.19201656188956476,"35":-0.20725126801527197,"36":-0.11361652960289241,"37":-0.1533558170840083,"38":0.19070929923996507,"39":-0.25824103997030234,"40":0.21487501771406875,"41":-0.33954567004074077,"42":-0.07611582464852577,"43":-0.16414983536828232,"44":-0.10464586808282476,"45":-0.3329913684208464,"46":-0.1591310260911059,"47":-0.4321663355336433,"48":0.10714807362674843,"49":-0.06759338327673248,"50":-0.4530187974479087,"51":-0.2982706175013586,"52":-0.40905085581479045,"53":0.010819717794139965,"54":0.12555467453306482,"55":-0.07585495176798705,"56":-0.002468210952910235,"57":-0.4221207671251174,"58":-0.3897372160609357,"59":-0.07879015200620827,"60":-0.2733269245469092,"61":-0.06248558261018601,"62":0.3245330883216704,"63":-0.01989515970738432,"64":-0.015073685672480476,"65":-0.2856192039552378,"66":-0.16139431187104136,"67":0.09784111238516223,"68":0.15779038678601648,"69":-0.20688190260771547,"70":0.23437843492756294,"71":-0.017524125413014194}},{"sx":3,"sy":3,"depth":8,"w":{"0":-0.1581066727682306,"1":0.1741745473931628,"2":-0.11874199942469918,"3":0.17033327662345718,"4":-0.08173253173104228,"5":0.1011846786568615,"6":-0.13779365137068106,"7":0.0135110589506481,"8":0.08668368320489933,"9":-0.1251356165503642,"10":-0.2222617421392953,"11":0.08004641218119615,"12":-0.38822667384630266,"13":-0.35410555407491573,"14":-0.06873428898130571,"15":0.036744060558498666,"16":0.05220608734604684,"17":0.3246598041944717,"18":-0.36536034089638325,"19":0.3440167403444278,"20":0.23378696102392116,"21":0.2475597746573256,"22":0.2647075968985444,"23":0.14281733878758787,"24":-0.05363663920653729,"25":-0.3653852708583556,"26":-0.024664622472187103,"27":0.13245128216011823,"28":0.09182294533266931,"29":-0.49760551161934485,"30":-0.3411982484454041,"31":-0.29943640403750327,"32":0.12219102267517033,"33":-0.20521067041332583,"34":-0.017641251914597304,"35":-0.021266701019501427,"36":0.34432676691866787,"37":-0.12841000862581786,"38":0.13917899588662494,"39":-0.30069270967033485,"40":0.01222021545707472,"41":-0.0012824663489369934,"42":0.1329906557290665,"43":0.20591773008262848,"44":0.17592466403984033,"45":-0.23211595813745126,"46":0.32336752259980844,"47":-0.15769412962451063,"48":-0.0554625941458855,"49":-0.5679110929539057,"50":0.0351473577943435,"51":-0.15455996624475607,"52":-0.1230043959107055,"53":0.21840979160577562,"54":-0.6659379268019833,"55":-0.04194405550667376,"56":-0.09439397905429943,"57":0.061800207340108985,"58":0.4415487313018434,"59":0.07197146852435009,"60":0.1359636977226114,"61":0.2650857656849613,"62":-0.264209452626015,"63":-0.10855193373049701,"64":-0.0158577469549073,"65":-0.4901442958744615,"66":0.2321407360483496,"67":0.3285841354777136,"68":0.2799231905885251,"69":0.240891469174243,"70":-0.34859493916081924,"71":-0.08718921164313348}},{"sx":3,"sy":3,"depth":8,"w":{"0":-0.15061145958403083,"1":-0.20329023568272006,"2":0.540959730556589,"3":-0.17832138044556947,"4":0.2559463816734638,"5":-0.26830476875015996,"6":-0.1264341164571222,"7":0.32769729859966434,"8":-0.02971583308335459,"9":-0.12149589639418786,"10":-0.4183442909405819,"11":0.08298556306662005,"12":-0.3986536066001128,"13":-0.11900329641905578,"14":-0.003470326091304551,"15":-0.29953241953386733,"16":0.0366478097375794,"17":0.4419406843111475,"18":0.09412496677954212,"19":0.07482297968221467,"20":0.1516163737854486,"21":0.28303378751161046,"22":0.24089161281171825,"23":-0.06902648546166268,"24":0.20447307893279928,"25":-0.034740350990852396,"26":-0.0036057672241824267,"27":0.13571575395369703,"28":-0.07979069937960084,"29":0.08747151749316744,"30":-0.06817775910167882,"31":-0.22497131374534654,"32":-0.050324811667074906,"33":-0.056473065903217434,"34":-0.2799099529945518,"35":-0.04890376348934154,"36":-0.13622711447198693,"37":-0.10294738049478146,"38":-0.040711830717216874,"39":-0.29729892818089465,"40":-0.10396755188194556,"41":-0.21091988044272966,"42":-0.15269291258820109,"43":-0.1801148591423079,"44":-0.16748405615641418,"45":-0.12164102069871556,"46":0.0552865666900244,"47":-0.2464251224794142,"48":-0.08323888744275933,"49":0.09089051676892952,"50":-0.22326994834781896,"51":-0.17913539053535063,"52":-0.16124507288656484,"53":-0.1319030157532408,"54":0.06674046910214293,"55":-0.4763073061564315,"56":-0.05006511707988373,"57":-0.2578185997022385,"58":-0.2768360627593285,"59":-0.21147351674294015,"60":-0.1040611100107198,"61":0.10468023193755771,"62":-0.052379162244038595,"63":-0.15255916958657412,"64":0.13102696722268545,"65":-0.1687405907112125,"66":-0.5857336010604113,"67":-0.027765133041339388,"68":-0.13020662559798007,"69":-0.08349679863913008,"70":-0.11223626941956902,"71":-0.0627140059688458}},{"sx":3,"sy":3,"depth":8,"w":{"0":0.05141247327758986,"1":-0.05010234906226957,"2":-0.24318565382896987,"3":-0.4066909090773173,"4":0.20751047961886995,"5":-0.3379491447155207,"6":0.1098166199485108,"7":-0.32440387339498833,"8":-0.09973320801248768,"9":-0.43838782564863504,"10":0.1148555318228009,"11":-0.30760269196982637,"12":-0.14674189405699234,"13":0.06494940629228563,"14":-0.16837265002847612,"15":-0.4051110284520193,"16":-0.03720729132453079,"17":0.29908031623009496,"18":0.04180101072507625,"19":0.09215395364287726,"20":0.13006772285773394,"21":0.4905511524710133,"22":-0.3590468800300419,"23":0.28788485429654964,"24":0.1032740482712202,"25":-0.04280431768051838,"26":0.10972980559767569,"27":-0.26699295041943955,"28":-0.07338612697398035,"29":0.09530680599678365,"30":-0.04498864317452872,"31":-0.17838499646103662,"32":0.09954599457633656,"33":0.11288412228524913,"34":0.11086152046118118,"35":-0.041321868087446555,"36":-0.225258099246339,"37":-0.09758251951111399,"38":-0.008469374376706515,"39":-0.3415679299604335,"40":0.003599988183252356,"41":0.24995928685165475,"42":0.22510199961346108,"43":-0.05330457124379599,"44":0.06616333387901904,"45":0.2629683835069197,"46":-0.2584262260696092,"47":0.23868716476137639,"48":-0.0005268689110595643,"49":0.322881603154067,"50":0.2894255173467707,"51":0.146405457893906,"52":0.1362873033706973,"53":0.01222606927610524,"54":0.19340166083039914,"55":-0.1520789860610139,"56":0.10032555927262732,"57":0.18458189184212212,"58":0.21131965126567503,"59":-0.026805606074080793,"60":-0.06973789635357144,"61":0.30461187713569593,"62":0.01313787493098763,"63":-0.06799680228263402,"64":0.008761791076131427,"65":0.036907457144496246,"66":-0.2864290221173373,"67":-0.010926670078236665,"68":-0.5400938488917418,"69":0.16651567310067605,"70":-0.1671731503068974,"71":0.2599916807263808}},{"sx":3,"sy":3,"depth":8,"w":{"0":-0.06030853085113385,"1":-0.15591788068609533,"2":0.3067282396325243,"3":-0.0606332326866708,"4":0.1120400920341614,"5":0.2933232731823339,"6":-0.29474678601883986,"7":0.004934734026045161,"8":-0.055885681027639425,"9":-0.44940423006185165,"10":0.26713418779067444,"11":-0.09860262284163335,"12":0.13937239818666172,"13":-0.06829105558381768,"14":-0.40589926755287814,"15":-0.09050675315820308,"16":-0.018905611856568694,"17":-0.27715233871298184,"18":-0.037220780831993136,"19":-0.2627498949180203,"20":-0.1909030380269573,"21":-0.261267329685756,"22":-0.08851036427253368,"23":-0.5022784526880882,"24":0.03306293325243542,"25":-0.1280922220990561,"26":0.28880647862225944,"27":-0.16719072632676155,"28":0.13353525819008805,"29":0.2732348415682115,"30":-0.5372233345593743,"31":0.2581735079190569,"32":-0.0012796005434843256,"33":-0.5674014382275325,"34":-0.08203738602633036,"35":-0.3172371615890758,"36":-0.3305262594765151,"37":-0.2530366490604931,"38":0.0888418569635427,"39":-0.3596765740650255,"40":0.14554935989116213,"41":-0.18831141627407247,"42":-0.559904394296661,"43":-0.3977279053783555,"44":-0.39718927841490065,"45":-0.2675910991350661,"46":-0.03773399703694279,"47":-0.37429137704484494,"48":-0.19155320583602203,"49":0.23921854814583468,"50":0.09388978835381225,"51":0.17377374353563216,"52":0.17960780624536712,"53":-0.027630480921193794,"54":0.06990613013322344,"55":0.26878406569138114,"56":-0.10192399258139992,"57":-0.018732909442447022,"58":-0.23922288351300333,"59":0.21810349141036026,"60":-0.2981131088368617,"61":0.004052207667693012,"62":0.10052730665984148,"63":-0.16391339627148832,"64":0.13320399554635287,"65":-0.30506378758110636,"66":-0.2710356497586117,"67":-0.10372001942647803,"68":-0.2867891243244105,"69":-0.4646624206263868,"70":0.19691664893430924,"71":-0.3297017051398642}},{"sx":3,"sy":3,"depth":8,"w":{"0":-0.16542619546675288,"1":-0.06123232737833018,"2":0.15271848888976916,"3":0.11817609470946584,"4":0.3984501134539009,"5":0.04102345572536206,"6":-0.22901322605059016,"7":-0.062493258578553576,"8":-0.035490314644603956,"9":-0.003023511487202674,"10":0.11970537656398492,"11":0.26527282517517325,"12":0.3077796073276452,"13":0.1478641826103772,"14":-0.045615991777766506,"15":0.06819980211796581,"16":-0.15020791470956668,"17":-0.09760424435588408,"18":-0.16727457386541178,"19":0.19790229520651334,"20":-0.2638829919586463,"21":-0.26106867083731833,"22":0.13554342128951294,"23":0.37973616603856436,"24":-0.06601506340507991,"25":-0.004925428398758474,"26":0.09641988291104843,"27":-0.16039607424131908,"28":-0.06642272643860696,"29":0.14880824966807357,"30":-0.3296885800759227,"31":-0.14058120742157182,"32":-0.08811660706518962,"33":-0.011727675065790262,"34":0.3161494149857393,"35":-0.12065589174953026,"36":-0.057122889625589916,"37":0.03464032254690506,"38":-0.1358383127901518,"39":-0.10840234342026683,"40":0.08944749804772804,"41":0.29485949749314216,"42":0.22849740310537056,"43":-0.04554147162378431,"44":-0.17550081883736401,"45":0.25826382200778997,"46":0.1103332675265128,"47":0.12686386629212648,"48":-0.08314913569806982,"49":0.11162200590846968,"50":0.07146046797912736,"51":-0.5214609819223295,"52":-0.18841950047960118,"53":0.07804548784585993,"54":-0.41695529233170253,"55":-0.24303346309515603,"56":-0.03772856034797171,"57":-0.2869258428393512,"58":0.0820007247193462,"59":-0.4708941216462031,"60":-0.4036862920601636,"61":0.11697086684192005,"62":-0.5035823216566545,"63":-0.1121593336566649,"64":0.08384738213107681,"65":-0.17007029330322182,"66":-0.0005690081722805175,"67":-0.3658762207162756,"68":-0.16912575949966846,"69":0.3145873080935871,"70":-0.4405313783507902,"71":-0.370212466306718}},{"sx":3,"sy":3,"depth":8,"w":{"0":0.08993558581217538,"1":-0.3225902092135919,"2":-0.32947710851958345,"3":-0.08405916939616596,"4":-0.2236656802214441,"5":-0.1873676638823709,"6":0.19197744779643233,"7":-0.20352298231766927,"8":-0.04294809320666248,"9":-0.2787755788974805,"10":-0.27385478439146904,"11":-0.21959252618310576,"12":-0.19987178253769422,"13":-0.2328377694203544,"14":-0.14046829718073262,"15":-0.26053734424500313,"16":-0.18467440941454955,"17":0.21851231240313837,"18":0.1201200194383074,"19":-0.12212271810495588,"20":0.15864181860861779,"21":0.0793213951806031,"22":0.1980558252050636,"23":-0.10827325553635668,"24":0.05591439895966766,"25":-0.015104136314035082,"26":-0.2796931363107876,"27":0.16542202421136307,"28":-0.21162113777728636,"29":0.19847459733425885,"30":0.19266785232909722,"31":0.10652071712915245,"32":-0.048227166912974934,"33":-0.14517144671080948,"34":0.03461672679610212,"35":-0.029301684616340765,"36":-0.08518427934312553,"37":-0.2784056719220339,"38":0.14972341736863265,"39":-0.11806681424388282,"40":0.06543362020272435,"41":-0.03827913095701487,"42":0.05887488011296025,"43":-0.0690940688913193,"44":-0.21252822939345647,"45":0.17035938051479416,"46":-0.23645750442477628,"47":-0.3655025903990687,"48":0.06971951268287972,"49":0.0027399199828690387,"50":0.16494128699918031,"51":-0.021106048000990023,"52":-0.03515523856531574,"53":0.23085828786092413,"54":-0.19556494569022814,"55":0.4156084934686672,"56":0.1800606841688673,"57":-0.38276022585215963,"58":-0.057044143017894525,"59":-0.02063041666670295,"60":-0.22524844984363387,"61":-0.20318154178021902,"62":-0.5144841414354928,"63":-0.46255537266141294,"64":-0.15914974951334626,"65":-0.35284070381224497,"66":-0.1891478201210923,"67":-0.13665030127988367,"68":-0.2199823178254961,"69":-0.15245594253574224,"70":-0.27669571630061207,"71":-0.4262655544658676}},{"sx":3,"sy":3,"depth":8,"w":{"0":0.03489948427992059,"1":0.32764198729941413,"2":0.1441816118743568,"3":-0.057392745273144,"4":-0.07393444941905107,"5":-0.1644729029793849,"6":0.5522720682080883,"7":0.0435295399000784,"8":0.028890775413973047,"9":-0.07182856689481068,"10":-0.377062285044555,"11":-0.1959252670080362,"12":-0.6551914032745334,"13":0.024098715689832923,"14":-0.005721100757560669,"15":-0.19481755002770473,"16":0.07842906000098089,"17":-0.4831916218639738,"18":-0.4138605603585893,"19":-0.11496834476842742,"20":-0.14796818182856575,"21":0.1178425499411627,"22":-0.23066973822701028,"23":-0.11532502131289075,"24":-0.04602717712526688,"25":0.35970770570351535,"26":-0.14221432655098892,"27":0.12623660842244355,"28":-0.18590019803464314,"29":-0.25632959749030726,"30":0.20753201820628123,"31":-0.09063477136455288,"32":-0.14973242423360053,"33":0.03701398214250959,"34":-0.21645116935127245,"35":-0.3259783741567447,"36":-0.34804295203048646,"37":0.17319364433741027,"38":-0.07824061222362431,"39":-0.09750574021408262,"40":-0.17299809375401803,"41":-0.1854116728182646,"42":-0.05855466210841233,"43":-0.04369170438483285,"44":-0.14659138770405672,"45":0.19145084226300563,"46":-0.3328223359979738,"47":0.15343334935339598,"48":-0.08507012561230164,"49":0.1850575831519736,"50":-0.10175097217143747,"51":0.13393941682036578,"52":0.3287193890294253,"53":-0.13638883933982093,"54":0.0985312060107524,"55":-0.044434553630661816,"56":-0.11449505555723187,"57":0.23099312618134965,"58":0.36312359030991137,"59":-0.02422913298568743,"60":0.38883713334340386,"61":0.21681182687434752,"62":-0.16786290210709381,"63":0.3347226688979092,"64":0.07098906443325036,"65":0.2207149592962127,"66":0.013232553124136391,"67":-0.10977251741425806,"68":-0.12923346560933976,"69":0.18423994932020843,"70":0.12839473807506005,"71":0.14320899561192482}},{"sx":3,"sy":3,"depth":8,"w":{"0":0.03508938100709327,"1":0.2448807311968842,"2":0.11799948983504528,"3":0.09600469414407277,"4":-0.0015075817037125143,"5":0.1333066386958333,"6":0.061585099978992,"7":0.36605029926205507,"8":-0.023594612257502395,"9":0.10430510204196919,"10":0.44902087594353046,"11":-0.4738955868499458,"12":-0.007580113854975055,"13":0.18498376589152687,"14":-0.5244645904840485,"15":0.0701330956006499,"16":0.12115716390292049,"17":0.31364447954189023,"18":0.032506850445641354,"19":-0.49929272490561827,"20":-0.24201346647847893,"21":0.25188688468988507,"22":0.09665232566300189,"23":-0.5045465509469739,"24":-0.0000356509873037289,"25":-0.12555051241043125,"26":0.06274432204577211,"27":0.24100055137530174,"28":0.28461354920070775,"29":-0.05002367166632424,"30":0.024094862317004796,"31":0.14437946043370528,"32":0.061482191327085746,"33":-0.23027868508962374,"34":0.2725791433335624,"35":-0.3210510715159348,"36":0.11414511869695333,"37":-0.11897213039643126,"38":-0.2937782892794431,"39":-0.09780235311839953,"40":-0.0958740002351397,"41":-0.0059517144369885065,"42":-0.008939741922890944,"43":-0.24748744029617947,"44":0.013222563606131416,"45":-0.18111069899517793,"46":0.3968431849811572,"47":-0.30817605651409397,"48":0.15127668756047494,"49":-0.19189101889193372,"50":-0.3766084990789121,"51":-0.03132648484583527,"52":-0.011185853574816154,"53":0.00020029024815505564,"54":-0.10369981084009897,"55":-0.05037463165448089,"56":0.047213967613464206,"57":-0.11335551585507928,"58":0.057329229032920974,"59":0.01942593847311016,"60":-0.025891863606490782,"61":-0.2838844093408259,"62":-0.24501084702122697,"63":-0.16726709406550583,"64":-0.12871055004473958,"65":0.08499875564814524,"66":-0.1167934664268211,"67":0.1668069913243112,"68":0.07070526089792696,"69":-0.15067403484815672,"70":-0.07961096143914102,"71":-0.11253843375520454}},{"sx":3,"sy":3,"depth":8,"w":{"0":-0.015680540066923977,"1":-0.07049547545871858,"2":0.14226264887781662,"3":-0.24099325685746775,"4":-0.22398302645657162,"5":0.23498216363957936,"6":-0.3814905412848405,"7":-0.0883814214837916,"8":-0.020160696196534038,"9":0.09913298568631151,"10":-0.04010038437931876,"11":-0.20772261879015952,"12":-0.3808576461252608,"13":0.10309785343670706,"14":-0.44029541123422056,"15":-0.09783761503429513,"16":0.10499582069535354,"17":0.14344956190837369,"18":0.2008766052999178,"19":0.14930394389862234,"20":-0.1299571934328799,"21":0.02562088840059432,"22":-0.23913447358489898,"23":0.0952623134387554,"24":0.22844966291590785,"25":-0.11409121509305586,"26":0.11500736764875932,"27":-0.11115774324016253,"28":-0.14746636429419605,"29":-0.36673754463982966,"30":0.24938021087571324,"31":-0.14116135167332808,"32":0.04790647743803415,"33":-0.02403004363111801,"34":-0.1371320384510516,"35":-0.09879613937198035,"36":-0.18013568058436022,"37":0.028313520031354608,"38":-0.2823576595288725,"39":0.2424526856119444,"40":-0.007662629056806372,"41":-0.08620978191358922,"42":-0.12137587360034949,"43":0.004291497553279556,"44":-0.24581035553455802,"45":0.1927354084577813,"46":-0.09553352193518719,"47":0.18417111373630068,"48":-0.25057007794030944,"49":-0.5315364688885204,"50":-0.11320619855637372,"51":0.5086133242182777,"52":0.038286872966678195,"53":-0.3953721143244575,"54":0.0687458642189372,"55":0.006427804553103029,"56":-0.05844560256436163,"57":-0.24727613342482627,"58":0.24917162286452044,"59":0.1770420198989709,"60":0.09960851636326681,"61":0.055154208474780225,"62":0.2688283812951692,"63":0.31183032538579514,"64":0.10928334372208515,"65":0.08068345283546978,"66":0.05046682995293714,"67":0.13921938535320502,"68":0.09976512150393303,"69":-0.1486750466647428,"70":0.10054917193022885,"71":0.17854952240814087}},{"sx":3,"sy":3,"depth":8,"w":{"0":0.19830133634298974,"1":-0.35267338134240866,"2":-0.20268416344444107,"3":-0.03195344386765443,"4":-0.13324826073457943,"5":-0.04627375037910408,"6":0.05120455092702315,"7":-0.4208638885402108,"8":0.1171754122363679,"9":0.08703562606100565,"10":-0.03032385140808782,"11":-0.10443262528366938,"12":-0.23458861533989364,"13":-0.1836193422463882,"14":-0.02868505210433383,"15":-0.08763287833579504,"16":0.0892755260851983,"17":0.404669299754352,"18":0.27577190730404455,"19":-0.31716582229014245,"20":-0.06257273235133651,"21":0.11867076699350551,"22":0.2192133873609776,"23":0.03564060171560606,"24":-0.024743742019353275,"25":-0.019498264136031656,"26":0.041972155588788605,"27":-0.44929396844949276,"28":-0.30686663744685805,"29":0.018030481671713124,"30":0.20064000360065176,"31":-0.17554950289782634,"32":0.09182842639318223,"33":0.0033835890949884895,"34":-0.06403781294566512,"35":-0.38146705229507105,"36":-0.05964233897705638,"37":-0.29082191471055796,"38":-0.04535000536734048,"39":-0.2775823684313387,"40":0.1392233696258854,"41":0.27020193190855035,"42":0.19424997710686676,"43":-0.45661021232822174,"44":-0.0460495650842827,"45":0.3311166231166082,"46":-0.08896498001680724,"47":-0.027437353558181027,"48":-0.028634304704402303,"49":-0.1899588382654669,"50":0.2381147100856765,"51":0.0034769139482072127,"52":-0.20138807825172217,"53":-0.10961272135531704,"54":-0.2509945570270192,"55":-0.29024445843452573,"56":0.16617836803919583,"57":0.03685407082336194,"58":-0.04765543785133642,"59":-0.06759544624314501,"60":-0.08182308665443686,"61":-0.12973171684988552,"62":-0.02373852326118138,"63":-0.17961913933689394,"64":-0.2013778469068783,"65":0.5584203647943484,"66":0.00868659999688626,"67":-0.3664809571997801,"68":-0.02481706715867676,"69":0.04134803815982986,"70":0.23026731664500671,"71":-0.013372442682782522}},{"sx":3,"sy":3,"depth":8,"w":{"0":0.12257785702579381,"1":-0.47591994791809783,"2":-0.3485177856541883,"3":0.17585231164196907,"4":0.07302924944999536,"5":-0.2960069083632929,"6":-0.021897107044905384,"7":-0.15189009461903313,"8":0.03339682658491085,"9":-0.4120166701801616,"10":-0.19133865241324804,"11":0.15612578067651695,"12":0.09255228370799522,"13":-0.5817352723575034,"14":0.22332678050084065,"15":-0.14000188885633014,"16":-0.029071420232908683,"17":-0.3188258731611677,"18":0.05210931454629654,"19":0.19090553204852267,"20":0.14110824619884205,"21":-0.5216222757787379,"22":-0.010803450865705026,"23":-0.14942779218506022,"24":-0.02898384903015155,"25":-0.34073230596424586,"26":-0.2579621889235829,"27":0.12519293339785081,"28":0.026348119598281657,"29":-0.26535781682869963,"30":0.10699798959618086,"31":0.19814953217402323,"32":-0.03400416762624862,"33":-0.2218657666762991,"34":-0.45947362202344827,"35":0.16841117138244763,"36":-0.28397071955742104,"37":-0.42073255329231385,"38":0.2636801913775228,"39":0.0005107926010895809,"40":0.02336221545493993,"41":-0.16982168647647702,"42":-0.1547091498262988,"43":-0.15499665413602443,"44":-0.07479194287409431,"45":-0.6398300996772611,"46":0.21300326727345234,"47":-0.2647523079728268,"48":0.16717646054393842,"49":0.09195127266288486,"50":0.06296689035237112,"51":0.18479704630402669,"52":-0.2948896801293662,"53":-0.14307594074185764,"54":0.19049054541164362,"55":-0.041105589087159805,"56":0.08065212112429333,"57":0.5287242640213141,"58":-0.06513285371813682,"59":-0.012701071496992887,"60":-0.13765644843885488,"61":-0.09309047929381474,"62":0.24168713022025448,"63":0.06596978327198211,"64":0.03607601211988632,"65":0.2308575495045466,"66":-0.13025201747592127,"67":-0.0380656602957487,"68":-0.06336782807417383,"69":-0.15801709854171841,"70":0.0064110903089458025,"71":-0.15405338871188623}},{"sx":3,"sy":3,"depth":8,"w":{"0":0.06881547298855095,"1":-0.15949624707711063,"2":-0.13479087443718793,"3":-0.049134807951709075,"4":-0.09890890418440498,"5":-0.12770609202494737,"6":0.01567829033959937,"7":-0.14770038609666608,"8":0.10592046909369501,"9":0.44967302125474046,"10":-0.18808165781588468,"11":-0.4313543053845159,"12":-0.1226123171265344,"13":-0.015264061357685694,"14":-0.3155713444458706,"15":0.07494882579623185,"16":-0.02386455460169189,"17":0.0031925410948296104,"18":-0.34093016054521796,"19":-0.17574072184221737,"20":-0.2711853797264007,"21":0.34645188873020066,"22":-0.3563538181641657,"23":-0.021346261960329967,"24":0.024818081926559078,"25":-0.3373245158075156,"26":-0.3555901813891968,"27":-0.13023050696622515,"28":-0.09208889076593783,"29":0.03663847943266759,"30":-0.16369233313525647,"31":0.06315144770232944,"32":-0.016686761814515432,"33":-0.31941022065829067,"34":0.28371009811753006,"35":-0.10480698095234356,"36":0.2282204793968533,"37":0.14114843745986627,"38":-0.5741025832311023,"39":-0.13856645185873642,"40":-0.08333347494322721,"41":-0.060526402532807916,"42":0.4899832279284354,"43":0.2655884528679398,"44":0.3509258242200299,"45":0.2399703692591071,"46":-0.3266312005493242,"47":0.13156409242293723,"48":0.04901782722325225,"49":-0.19871206943886002,"50":-0.16065504849645765,"51":0.2011081997752135,"52":0.11794886130755594,"53":0.02327405204324798,"54":0.01132020477703476,"55":0.18323460923537294,"56":0.09954544575023264,"57":-0.26564360829953587,"58":-0.0031660233135429807,"59":0.05900282506338193,"60":0.38121054804892207,"61":-0.09666237365673044,"62":-0.4347887682353733,"63":0.13470241428034144,"64":-0.21719636428263417,"65":0.062264156640697704,"66":0.05175941719087214,"67":-0.023945956204249278,"68":0.17798733275086476,"69":0.04014159054788323,"70":-0.13443771967073984,"71":0.05409564672938305}},{"sx":3,"sy":3,"depth":8,"w":{"0":-0.13542724912473755,"1":0.08505147108722826,"2":-0.025403648889950302,"3":0.042804641892534065,"4":-0.4610130494957577,"5":0.1876929594247405,"6":-0.1634652923275928,"7":-0.11757048191077908,"8":-0.1857064553604586,"9":0.06722886884695567,"10":-0.043409173737468,"11":-0.04427669154729623,"12":-0.20837944441266984,"13":0.18765286731248684,"14":-0.06077480829224104,"15":-0.2740349110897801,"16":0.08406638197280002,"17":0.11531024043787173,"18":-0.05111720534909966,"19":0.45476392239918806,"20":0.13459120429468674,"21":-0.08693571487844129,"22":0.08197041000496866,"23":-0.1328540375036648,"24":0.06154932715191135,"25":0.3896017839628578,"26":0.008818757765087152,"27":-0.3049816152079637,"28":-0.5336656286329149,"29":0.27799994292395974,"30":-0.3329394945083968,"31":0.1668676231670588,"32":0.2020870070813646,"33":-0.012246623140614844,"34":-0.3664121129967288,"35":-0.23230386197134856,"36":-0.4928569878463481,"37":0.007209720449993478,"38":0.008227545669805542,"39":-0.0033454838817724097,"40":0.05580607323081967,"41":0.028475258319868055,"42":-0.38129206601723437,"43":-0.17802192681479867,"44":-0.07310394527568281,"45":-0.016233306818943,"46":-0.04033702769472794,"47":-0.26567859135747895,"48":0.027786092239284736,"49":0.21818246106840358,"50":0.4494584629164387,"51":-0.03267398834205713,"52":0.015336920479292979,"53":0.41325996412469046,"54":-0.07266448262071466,"55":0.3299347994438199,"56":-0.05834074724678397,"57":-0.07699028523577911,"58":-0.35503584769942187,"59":0.11922033517205015,"60":-0.2097478848350796,"61":0.15985440350889688,"62":-0.005624646084667589,"63":-0.08080693759395677,"64":0.11548041622445154,"65":0.20603976834537147,"66":-0.28593598072039067,"67":-0.05750425959424903,"68":0.27347506197030713,"69":-0.33384364149807727,"70":-0.08057952665214137,"71":-0.32352379131632303}},{"sx":3,"sy":3,"depth":8,"w":{"0":-0.07047913257767528,"1":-0.11723164894111396,"2":0.16646403122395295,"3":0.23103330204102862,"4":-0.03501323194412314,"5":-0.23289497014533733,"6":-0.36352819163969485,"7":-0.3204487027406527,"8":-0.07731458351389829,"9":0.19291758450014962,"10":-0.11395811698101974,"11":-0.07534737198440897,"12":-0.051094390863089534,"13":0.24065180709172262,"14":-0.14690267462450673,"15":0.15824517135208074,"16":-0.007852837130753259,"17":0.2791212643118004,"18":0.3036598401922462,"19":0.13941546975637956,"20":0.2532720520265982,"21":0.654555612774125,"22":0.0047487855980643924,"23":-0.01671548652192149,"24":-0.05052166139976055,"25":-0.05737371876815896,"26":0.27949428313874863,"27":-0.15472312833471316,"28":-0.07638608671077053,"29":-0.20103853584183387,"30":0.19058394288961103,"31":-0.35143268223128543,"32":0.04014157994158565,"33":0.38935123198780214,"34":0.21333927037659098,"35":-0.1374784365155252,"36":0.12827400861144908,"37":0.2616095039494193,"38":0.24106815870824128,"39":0.09031790314636393,"40":0.019163863118226165,"41":0.09824858437439009,"42":0.15585924924600633,"43":0.11318596509869466,"44":0.19547807438100595,"45":0.021772907830062267,"46":-0.28418446191004987,"47":-0.1998952882862066,"48":0.04891578777482934,"49":-0.06586352379316132,"50":-0.013183936266509886,"51":0.14636778836879957,"52":0.01048766318008859,"53":-0.5338898924130903,"54":0.17976596149752572,"55":-0.341889192223194,"56":0.03449148838366019,"57":0.09604262171855263,"58":-0.11503902709507824,"59":-0.1623237092700318,"60":-0.19930662766650442,"61":-0.051947267117663835,"62":0.08940839283018026,"63":-0.22658091258196375,"64":0.1273046076901065,"65":-0.034136567259984964,"66":-0.11438091289233333,"67":-0.11585616968332521,"68":-0.24121677183424936,"69":-0.24371307799003725,"70":0.1062936861425394,"71":-0.38180990560300565}}],"biases":{"sx":1,"sy":1,"depth":16,"w":{"0":0.06388224285161662,"1":0.3225179268143077,"2":0.03490437916998281,"3":0.12589384118483635,"4":0.04192095529993462,"5":0.18606620468899607,"6":-0.031989586453493736,"7":0.10161831214992507,"8":-0.06499029302615518,"9":0.08160628730751493,"10":0.015474463030348154,"11":0.12321159296239653,"12":0.11451576152080828,"13":0.032044257448570236,"14":0.06884795591662864,"15":0.0864896025502892}}},{"out_depth":16,"out_sx":18,"out_sy":18,"layer_type":"relu"},{"sx":3,"sy":3,"stride":1,"in_depth":16,"out_depth":16,"out_sx":20,"out_sy":20,"layer_type":"conv","l1_decay_mul":0,"l2_decay_mul":1,"pad":2,"filters":[{"sx":3,"sy":3,"depth":16,"w":{"0":-0.04201941933349316,"1":0.05074273770427047,"2":-0.1986472710135803,"3":-0.013132278847439869,"4":0.24136428211377878,"5":-0.3441294799262092,"6":-0.07118849336693864,"7":-0.06840776875103095,"8":-0.10358765267395041,"9":-0.24728311838028524,"10":-0.2241156523075348,"11":-0.2708840694765551,"12":-0.04920159977176714,"13":-0.0841689256170885,"14":0.12816999346991786,"15":-0.6803196227305235,"16":-0.1695309416128673,"17":0.13187363902873905,"18":0.03652286718064097,"19":-0.22106028766738842,"20":-0.11647465984825418,"21":-0.26758219233949243,"22":-0.14549375493075323,"23":0.04746182210244939,"24":0.26950191862328843,"25":-0.0840749013208727,"26":0.2142102164750556,"27":-0.15235139121082203,"28":0.04416060793620697,"29":0.13274867500237492,"30":-0.11974684104939702,"31":-0.028413005878336693,"32":-0.12185423561319865,"33":-0.17977018778580392,"34":0.179601360503177,"35":-0.25861684558018205,"36":-0.10295565305408336,"37":0.04798971551526657,"38":0.05207756702482106,"39":0.20841647601021307,"40":-0.03596295139893466,"41":-0.12950467963070483,"42":-0.11682038548615797,"43":-0.4240245092437255,"44":0.046221311614615325,"45":0.2791886400174465,"46":0.21914456350994607,"47":-0.21205701595367826,"48":-0.38782889205419296,"49":-0.12845759805925486,"50":-0.4850039975541854,"51":-0.044276791489578624,"52":0.17209398881214094,"53":-0.2051972919921886,"54":-0.30782617964656417,"55":0.009077945076771395,"56":0.045505917444042934,"57":-0.11600825176020592,"58":0.1038935124970031,"59":-0.12339847434667651,"60":-0.3281255482872691,"61":0.029186157167029828,"62":-0.2016179348681082,"63":-0.413283439579227,"64":-0.09806138239390189,"65":-0.07470281875828498,"66":-0.19580373886013044,"67":-0.01482015819623892,"68":-0.07892996002328367,"69":-0.12860257778178913,"70":-0.12616454297628124,"71":-0.1921311343688086,"72":-0.13332400538757863,"73":0.3912951816122156,"74":0.1326580859544988,"75":0.02868194130692253,"76":-0.07054629098755709,"77":0.11785738659495647,"78":-0.3052989996981139,"79":-0.22364648133966764,"80":-0.19040579710436714,"81":-0.17286288015451584,"82":0.04266203278243802,"83":0.014504356670750382,"84":-0.15169814183896857,"85":0.39732095118925503,"86":-0.27522697472847796,"87":0.18440117120007937,"88":-0.06400122745219201,"89":0.2929274662554793,"90":-0.17071694877947816,"91":-0.0764687683796419,"92":0.02126661747340246,"93":0.2639335574953073,"94":-0.12952031930364924,"95":-0.43944420758317687,"96":-0.04591320143011576,"97":-0.07231182141253736,"98":-0.21283703974845805,"99":-0.019974615726958425,"100":0.06085745708523091,"101":-0.025477408581915384,"102":-0.06439295336102825,"103":-0.04473793300872552,"104":0.4072468952787911,"105":-0.08893115399321197,"106":0.16526628697683532,"107":-0.3103217875073707,"108":-0.3131645189640023,"109":-0.13616607885046528,"110":-0.3739896252808761,"111":-0.06561233504690746,"112":-0.4289028366700155,"113":-0.06615271290903979,"114":-0.18010904096033886,"115":0.04254337990117852,"116":0.051485506834231407,"117":0.09598592064995567,"118":-0.27143172435370927,"119":-0.005389894980091152,"120":-0.2970550419495424,"121":0.25118280364826145,"122":0.06508228058634474,"123":-0.00028459051321056344,"124":-0.15379920831504154,"125":-0.09597905295678602,"126":-0.1796552253809473,"127":-0.33093261861020523,"128":-0.19711387713649797,"129":-0.26156056063189087,"130":-0.08927456063006192,"131":0.19113308732390566,"132":0.03738261781487512,"133":-0.09175213457396551,"134":-0.6113043462778923,"135":0.03588577717045916,"136":-0.23552005998498635,"137":0.03173734030851184,"138":0.33900688259887435,"139":-0.24051925811032732,"140":0.35941882292720123,"141":0.22085284014086343,"142":0.021040368942788677,"143":-0.3215195018890793}},{"sx":3,"sy":3,"depth":16,"w":{"0":0.3251537028292673,"1":-0.16789222419126823,"2":-0.030969631938435056,"3":0.08763598425361795,"4":0.30745754907880735,"5":-0.17773417755553472,"6":-0.24120552854944233,"7":0.08251491791832745,"8":0.10897457509175511,"9":0.17673761820648953,"10":-0.2669937771649444,"11":0.19938152947593224,"12":-0.3994522468711318,"13":0.10608546746783927,"14":-0.1558660031668595,"15":0.1661543440959903,"16":-0.14518386229897395,"17":-0.4528375109135912,"18":-0.06505998223842105,"19":0.018944432306698428,"20":0.35063677224995293,"21":0.27322068954449963,"22":0.225202954868094,"23":-0.27539938013625037,"24":-0.234446756044654,"25":0.1249004400911348,"26":-0.28333685455843083,"27":0.1469082474460204,"28":-0.23619137274736085,"29":0.13805745488742657,"30":-0.10717132562089976,"31":0.43675306195574326,"32":-0.1614543883028866,"33":-0.016169008414468864,"34":-0.45857877751422144,"35":0.21453915917256225,"36":-0.3402762909016481,"37":0.3033551180372029,"38":-0.08865746560024153,"39":-0.38314747094907703,"40":-0.4280191187852374,"41":0.2562251751324455,"42":-0.10643702217949347,"43":-0.2850120795160405,"44":-0.1515163517235581,"45":-0.23946792178206622,"46":-0.4314413936121386,"47":-0.0690730245496877,"48":-0.1666773541987816,"49":0.08299884886597729,"50":0.353445823361263,"51":0.08038259594148234,"52":0.314979198540387,"53":0.1468067745423014,"54":-0.23078597914440555,"55":0.05382441358117725,"56":-0.3004901599552074,"57":0.2292089741121069,"58":-0.1950865970585569,"59":-0.04823032724716283,"60":-0.20680181246366955,"61":-0.12226234200616716,"62":-0.05169614591593155,"63":-0.08192066452529786,"64":0.055092225029687476,"65":0.07379681661225274,"66":-0.11960318904408683,"67":0.0648315054280811,"68":-0.29618694452656924,"69":0.20028976076852623,"70":-0.020268223510120698,"71":-0.23502550081363055,"72":-0.457578389002346,"73":-0.07174015093582861,"74":-0.2882844891084945,"75":-0.13765251998964667,"76":-0.18438928015441913,"77":-0.4268217662336795,"78":-0.18300102481610567,"79":-0.2632552100266734,"80":0.181749727188222,"81":0.08188557246960454,"82":-0.15257137838831977,"83":-0.12922292380632314,"84":-0.07167192111278806,"85":-0.02517449026630748,"86":-0.14358607566907586,"87":-0.07151484836485787,"88":0.0005100315256453583,"89":-0.13105979855243835,"90":-0.2032756705912982,"91":-0.05132097428196975,"92":-0.16371789398468603,"93":-0.08000068826176782,"94":0.016191706905407444,"95":-0.47135800672492617,"96":0.25253255339053426,"97":-0.0528026902652601,"98":-0.21012880821128418,"99":-0.0073038476617590595,"100":-0.24635435554912438,"101":0.044611585740238636,"102":-0.2443708546385558,"103":0.03480263938955914,"104":0.16751954086808,"105":-0.07349530360796495,"106":0.03822784899407117,"107":-0.05176962634718245,"108":-0.030224938775811224,"109":-0.18500616802387235,"110":0.029860901673947643,"111":-0.2403120889986314,"112":-0.09599572846404364,"113":-0.1876018864674106,"114":-0.3824362793988951,"115":-0.39341317225158084,"116":-0.08786136443582365,"117":0.09247209330720878,"118":-0.34420566474040853,"119":0.030875120866913217,"120":0.1969150132692378,"121":-0.4287377835112032,"122":0.09488550459681458,"123":0.09034741128979962,"124":0.014364288598453703,"125":-0.017927362931623926,"126":0.18206156461496598,"127":-0.46155430197895464,"128":-0.046081282783586565,"129":-0.14922830105593599,"130":-0.15270996965353292,"131":-0.14723098836794776,"132":0.24287896623709668,"133":-0.061207263785753745,"134":0.06859864911612928,"135":0.5702118895760903,"136":0.17091966437418568,"137":-0.3341144789438094,"138":0.04686109312589162,"139":0.27981774084535954,"140":-0.12200664140775931,"141":0.044560008734659776,"142":0.3372834447188529,"143":0.030104057836464315}},{"sx":3,"sy":3,"depth":16,"w":{"0":-0.2300881103815706,"1":-0.2148301282937157,"2":0.04400582668315162,"3":-0.13323220787547474,"4":0.02191703809702007,"5":-0.056525816581107086,"6":-0.11513644882034721,"7":-0.17430321628448794,"8":0.36414924668054316,"9":-0.33741541721193374,"10":0.14199772873119731,"11":-0.16485459089627716,"12":-0.31051062850426875,"13":0.2875200801116034,"14":-0.12473376176441427,"15":0.15488569267451086,"16":-0.23801554474471245,"17":0.07602481740274872,"18":-0.2882744717124205,"19":0.010341722925734804,"20":-0.19534966788027133,"21":-0.16721872335610782,"22":0.19646157364146885,"23":0.1639079749491005,"24":-0.03789227339531397,"25":-0.21983019248406854,"26":0.21243324552720028,"27":-0.17395290103245717,"28":-0.33135671454625076,"29":-0.33347874877204514,"30":-0.19745740435345824,"31":0.05901994771922743,"32":0.18398078146042687,"33":-0.19279524748309812,"34":0.11420542437567704,"35":-0.10296925927151705,"36":-0.37998467021375404,"37":0.06805716884155945,"38":0.33832669107114244,"39":-0.12289846010872817,"40":-0.23005631087576123,"41":-0.072820189562012,"42":-0.19900008832070024,"43":-0.06390695115350535,"44":0.39159516941174316,"45":-0.26511599890503434,"46":-0.1897774290171506,"47":-0.13601893112864957,"48":-0.5089574908309462,"49":-0.012379399655281176,"50":-0.13843689110110488,"51":-0.0742772967988147,"52":-0.219817225165551,"53":0.04509440123150501,"54":-0.007624483220661579,"55":-0.19461694301958682,"56":-0.29627032269904374,"57":-0.015025546204347569,"58":-0.22563352693417127,"59":-0.31130394180304033,"60":-0.16447672629085763,"61":-0.2323159177744303,"62":-0.15878208123214235,"63":0.009375168861566743,"64":0.02034182461224182,"65":-0.005506878297524701,"66":-0.030608721690584425,"67":0.2687357150759774,"68":-0.28063670476047525,"69":-0.11264018157699504,"70":0.3684811174542676,"71":-0.0198282697271169,"72":-0.2651059030189216,"73":0.08802842575938874,"74":-0.4097644318120326,"75":-0.0195474549848717,"76":-0.22480795490615524,"77":-0.1579633837368653,"78":-0.36381296011021075,"79":-0.14646243995932015,"80":0.17943290654513627,"81":-0.26365132689444304,"82":0.10348384800679925,"83":0.24614260057980555,"84":-0.32297179114522034,"85":-0.028304430852078396,"86":0.10400271678398512,"87":-0.14069063873777884,"88":-0.17822301266963886,"89":-0.1777109955084212,"90":-0.17288325000345522,"91":0.034797541450603084,"92":0.11448454756595411,"93":-0.203097153587166,"94":0.006057194163265444,"95":0.054382861837732575,"96":0.11672813470382179,"97":0.05390482070339563,"98":-0.15660531814369918,"99":-0.1229290463926248,"100":-0.3627003330490236,"101":-0.2312449021555468,"102":0.24658722690848217,"103":-0.10108898721497854,"104":-0.2748774988058956,"105":-0.11585899311255037,"106":-0.2275029640721233,"107":-0.17711859581571393,"108":-0.16780099122545603,"109":-0.16355680346936177,"110":-0.2883150206962581,"111":-0.13948087102502668,"112":0.08659493890299332,"113":0.2558879315616514,"114":0.10016212434531188,"115":0.26516695899295345,"116":-0.20251375038375663,"117":-0.14294997964078074,"118":0.17842864418499307,"119":0.007902809067982793,"120":-0.11099767314689787,"121":0.05167138162867605,"122":-0.041331432057797365,"123":0.06305794559784025,"124":-0.3159122778271202,"125":-0.24512567615712771,"126":-0.44137834569035295,"127":0.07092627674317963,"128":0.10935362856266345,"129":-0.0345308100814822,"130":0.11883564375169964,"131":0.13337606899724197,"132":0.1720552712736824,"133":-0.11565559498165534,"134":0.07581298750044181,"135":0.0339960821795996,"136":-0.2058462051114768,"137":-0.08863841906325336,"138":-0.3844567949422313,"139":0.24939677805546906,"140":-0.22324624591013764,"141":-0.19845434266521564,"142":0.002890482526220297,"143":0.16853594304761932}},{"sx":3,"sy":3,"depth":16,"w":{"0":0.051028239053444384,"1":0.1589323140478231,"2":-0.33079855028509464,"3":-0.03799870725897804,"4":-0.264376427613103,"5":-0.3080858857142597,"6":0.08762620594310609,"7":-0.1145916595209588,"8":-0.21114101110484332,"9":0.1779979212289964,"10":-0.14204617020030047,"11":-0.011402539945496505,"12":0.15807749299301574,"13":-0.2574537783746045,"14":-0.2449508251734984,"15":0.2979684550971251,"16":-0.13857166290354211,"17":-0.03706755217858089,"18":-0.25025213489581943,"19":-0.08533551857917564,"20":-0.16350248117436458,"21":-0.05188990108260955,"22":-0.4345779204690965,"23":0.03213726842108317,"24":0.10167655692337803,"25":0.02409833485023124,"26":-0.3564781385824866,"27":-0.34166407440010815,"28":0.4441039614363552,"29":-0.3459738114946799,"30":0.01541828398531409,"31":-0.22223177860258211,"32":-0.2631471921287257,"33":0.07366494895193194,"34":-0.1450018046857646,"35":0.04087370119076876,"36":0.1695779764775199,"37":0.03384467231956925,"38":-0.2745018070401838,"39":0.21525232272393774,"40":-0.10366986703391051,"41":-0.5417993988060456,"42":-0.20173996014975293,"43":0.06442165631846544,"44":0.12362917066548897,"45":-0.23535810243238167,"46":0.13482094174002512,"47":-0.4175524112973291,"48":0.11750666250707557,"49":0.10771506626861184,"50":0.23430581744679693,"51":0.040587511855212935,"52":-0.12034452446764432,"53":-0.11550427866394734,"54":0.2484144026428439,"55":0.24548420486818898,"56":-0.40070374476228354,"57":0.17569815374624398,"58":-0.17119217255942468,"59":0.14054344581997225,"60":-0.17746091850744014,"61":0.16553319524392082,"62":-0.225648322884576,"63":-0.03511746029269886,"64":0.2283082217978593,"65":-0.2362841511004574,"66":-0.300932349463456,"67":-0.26026336532914446,"68":-0.5395025053196946,"69":-0.2771358530729664,"70":-0.06267489591324389,"71":-0.13444892598392763,"72":0.07825011393725674,"73":0.09636629065617712,"74":-0.1347682604115872,"75":0.08444406583825205,"76":0.0376613059262762,"77":-0.0508983231588588,"78":-0.07369734772718955,"79":-0.1441003270929485,"80":-0.07245012483513835,"81":-0.2544840740230679,"82":-0.2535480607442602,"83":-0.14628826827941238,"84":-0.05334243966921038,"85":0.07979020290833021,"86":-0.4925631035596891,"87":0.08996210304512188,"88":0.24763718176317098,"89":0.1385593063024536,"90":-0.03210452695435621,"91":0.03677424089624746,"92":0.24094809936762812,"93":-0.2951828975055429,"94":-0.11631368026750324,"95":-0.3454381949674608,"96":-0.07857881833207038,"97":-0.0074466620422218065,"98":0.03631920037537934,"99":-0.02168363895248227,"100":0.25653267090682397,"101":0.27957646829403177,"102":-0.0798278852292553,"103":0.24563323116685287,"104":-0.34251685457147296,"105":-0.0610275489631106,"106":0.12851059384228286,"107":0.12138922801725299,"108":-0.08998211426907433,"109":0.05081626414122969,"110":0.07739811130862771,"111":-0.1481969354954739,"112":0.050579671680721146,"113":-0.13118471040394863,"114":0.17642532763468413,"115":0.06314513893667091,"116":0.11706716003998897,"117":-0.193123708663449,"118":0.0005703500158818273,"119":0.007866976590092103,"120":0.01783810200796305,"121":-0.23644531122049214,"122":0.03421531275551816,"123":0.16448844043045438,"124":-0.3420923559699044,"125":0.3765513402182806,"126":-0.07978042819530885,"127":-0.14643339335463312,"128":0.176944712528742,"129":0.008902965693560161,"130":-0.3250755340757137,"131":-0.04974523422001365,"132":-0.13643944819029924,"133":-0.0007841206587937173,"134":0.24437215448735788,"135":-0.07123665971146233,"136":0.2839406846212536,"137":0.23876238230367763,"138":-0.2223767944714816,"139":0.10451094037379806,"140":-0.3279493873578326,"141":-0.048675992972197324,"142":-0.072333659007484,"143":0.16019492708816127}},{"sx":3,"sy":3,"depth":16,"w":{"0":-0.04314100480009398,"1":-0.2137086562331564,"2":0.14114318333159573,"3":0.02679291600383387,"4":-0.029500013152638366,"5":-0.0691123979185821,"6":0.02368689416078047,"7":0.20234787707060653,"8":-0.2719644074301289,"9":0.1230644097078392,"10":-0.13390895545960121,"11":-0.09755168380949922,"12":-0.2104704347598074,"13":0.30860986134165846,"14":0.34477589109196394,"15":0.32846109574082805,"16":0.23828696295850765,"17":-0.21276212901121844,"18":0.18761893741577942,"19":-0.12983220598658854,"20":-0.43717627124760056,"21":-0.1715815828736818,"22":0.07024280762258422,"23":0.03601385616250571,"24":-0.16278539179375034,"25":0.10548564991457762,"26":-0.2638962524410117,"27":-0.20076476382777134,"28":0.016495546472138585,"29":-0.021825913018616114,"30":-0.19752311768986003,"31":0.22284855835381379,"32":0.18954614771067504,"33":-0.16873337592417156,"34":0.2131729930959953,"35":-0.2605557302343003,"36":-0.47875153255468966,"37":-0.36306363764601884,"38":-0.03458883738020291,"39":-0.014128657494634482,"40":-0.29891258745369054,"41":-0.09887815218246854,"42":-0.29083636049278905,"43":-0.17829103667478316,"44":-0.027409242192237532,"45":-0.19486806220244426,"46":-0.16669794566512486,"47":0.005983697168412642,"48":-0.2440385330938442,"49":0.0016673909406382135,"50":0.15063097383289534,"51":-0.09129961938674033,"52":-0.30355167068491645,"53":0.1289142497261624,"54":-0.1295692860503287,"55":0.07802233379227856,"56":-0.4729081770104345,"57":0.26501935395884785,"58":-0.19334596156629347,"59":-0.10125433220085467,"60":-0.3714439497911951,"61":-0.4266556214364141,"62":-0.15618448926079748,"63":-0.03390427824391704,"64":0.0650051063246257,"65":0.16006822223245368,"66":0.18639908776644956,"67":-0.14643405875563947,"68":-0.3089138082088634,"69":-0.21545326746517318,"70":-0.06294258593493361,"71":-0.1308230619913325,"72":-0.36200738001294763,"73":-0.09173280935005707,"74":-0.023097368320011004,"75":-0.5668572745659736,"76":-0.12448019868146096,"77":-0.14670128726528273,"78":-0.3887272382395436,"79":-0.25157513165549417,"80":0.06161221290786959,"81":-0.08413331037329744,"82":0.11505416381642687,"83":-0.28669752798316256,"84":-0.36075465893874253,"85":-0.03948345650082874,"86":-0.3165933776254524,"87":0.17729649259196914,"88":-0.0501538585068953,"89":-0.35243634043527344,"90":-0.006976370746246196,"91":-0.2666099013037955,"92":-0.2111972262483183,"93":0.1077649740804185,"94":-0.10036935678725914,"95":-0.2245096450567355,"96":0.21098843978696707,"97":0.010327387232867627,"98":0.15262652213194358,"99":0.007751456640131599,"100":0.000784730642087468,"101":-0.15831552646365699,"102":0.009160193089537513,"103":-0.20364840854256647,"104":0.35481261936678454,"105":-0.054873474559978735,"106":0.08231948947746603,"107":-0.10546544285420784,"108":-0.13639300088310613,"109":0.15673538866555425,"110":-0.2782690256095622,"111":-0.38100293465113055,"112":0.004946638713509936,"113":-0.2092558306042236,"114":0.06945956265922015,"115":-0.43302722926265164,"116":0.13082813896338674,"117":-0.40531376894174564,"118":-0.020003226779406295,"119":-0.08037337797622358,"120":0.2573388946662828,"121":-0.4270724358405967,"122":0.12707381682094493,"123":-0.2925916845099,"124":0.1361415018161543,"125":0.29272710568056937,"126":-0.2509125941321859,"127":0.03019241249707302,"128":-0.0980992896434681,"129":-0.4101958077886772,"130":0.014231775813817744,"131":-0.47087407551962845,"132":0.10595186767920733,"133":0.17791514865111732,"134":0.06914256745349516,"135":-0.04996391148610087,"136":-0.024797588951618814,"137":-0.18837689207995406,"138":0.08129011624498221,"139":-0.4508139357793421,"140":0.16745697797636827,"141":-0.033363848049840106,"142":0.1728654489155178,"143":-0.4497168496534849}},{"sx":3,"sy":3,"depth":16,"w":{"0":0.3996987833906222,"1":-0.49799908369351564,"2":0.1916246702958066,"3":-0.09540431912304889,"4":-0.484004924099621,"5":-0.4525098092964817,"6":0.1855339571149312,"7":-0.3206561839736106,"8":0.2152721486027379,"9":-0.17515999842524596,"10":-0.04601772665651164,"11":-0.23710648286139502,"12":-0.07415981433740165,"13":-0.1411985399642204,"14":-0.3058346607708701,"15":-0.1775677186337091,"16":-0.00943040817493109,"17":-0.023879936580608403,"18":-0.06167577918787995,"19":-0.10418668965057651,"20":-0.3318760965598111,"21":-0.571232799340195,"22":0.12827294932990646,"23":0.05090202886173527,"24":0.0606193840111269,"25":-0.5534669361131521,"26":0.010463160805491494,"27":-0.6023722768906014,"28":-0.10463456765622586,"29":0.02229438824054203,"30":-0.25942832818964945,"31":-0.13742874920869447,"32":-0.11937163259711807,"33":-0.18603965437602837,"34":-0.4182554623154913,"35":-0.20086552187087178,"36":-0.10733625033301084,"37":-0.18911784791777603,"38":0.14020624169469392,"39":-0.13043993982684893,"40":0.1202942428140123,"41":-0.10428815048823079,"42":-0.35271618774525165,"43":-0.34253705468489487,"44":-0.22284557116806808,"45":-0.3083863482032923,"46":-0.3355299088701781,"47":-0.1071599746056314,"48":0.08909765308189052,"49":-0.268667510748156,"50":0.17492232610493003,"51":0.11508695044814193,"52":-0.3948384386994394,"53":0.13946428008730413,"54":0.2193995840734537,"55":-0.20831681518276873,"56":-0.21182830464131744,"57":-0.21830307013766914,"58":-0.19950091350173468,"59":-0.20569253626523867,"60":-0.0928046725153439,"61":-0.01126038880941764,"62":-0.2794792513855808,"63":-0.14840987515131313,"64":-0.10042719980009263,"65":0.02590730171718755,"66":-0.009752017171510903,"67":0.2083190423877074,"68":0.011481862198611498,"69":0.16051409512709036,"70":0.2195306039161948,"71":-0.04399897657786862,"72":-0.17991177184293594,"73":-0.34186397043946126,"74":-0.09566898402144691,"75":0.004387688676819166,"76":-0.21711799585120628,"77":-0.15690530685395807,"78":0.026937890107433235,"79":0.013294317421739851,"80":-0.23169156834446775,"81":0.04621808148192137,"82":-0.12975764237171536,"83":-0.04207111208208392,"84":0.04802184536725252,"85":0.07874485696746156,"86":0.18274656208103096,"87":-0.008555410928154506,"88":-0.08056975838991093,"89":-0.08586498891308159,"90":-0.25436709350383524,"91":0.0817146871321933,"92":-0.2571987693425673,"93":-0.08530818067613986,"94":-0.22617053797614114,"95":0.05873544000768446,"96":-0.21141417189946066,"97":-0.2981208437523486,"98":-0.2440334956444915,"99":-0.2202611924840486,"100":-0.10819497026376901,"101":0.3602462816266573,"102":0.026976654950418993,"103":-0.34158671674184904,"104":-0.11936481906834943,"105":-0.05122334635884627,"106":-0.17160789435142884,"107":0.05237796975842623,"108":0.1503595178441753,"109":-0.06327405508732035,"110":0.03534423446676973,"111":-0.15145221251392682,"112":-0.19923057682102702,"113":-0.2120927326245991,"114":0.004326448803002106,"115":-0.013833780464986052,"116":0.28886724214578197,"117":0.2649431832292995,"118":0.27415203531127796,"119":-0.16613186945710848,"120":-0.1530231794411642,"121":-0.006440923026086457,"122":-0.05645721412006925,"123":0.2978232367091739,"124":-0.12768630638284548,"125":-0.017739107077262506,"126":0.2880264690746491,"127":-0.17363240526531265,"128":-0.07432399706808406,"129":-0.23472333466408893,"130":-0.07010052367910098,"131":0.28184139972333555,"132":0.2631314002160316,"133":-0.2264714518417918,"134":-0.02097042742867529,"135":0.05648837379679447,"136":0.06632480530093207,"137":0.1416811833897695,"138":0.21446393245385104,"139":0.43520176838410224,"140":-0.13257270173865718,"141":0.15801303791981128,"142":-0.04452302167938192,"143":0.24891010645631034}},{"sx":3,"sy":3,"depth":16,"w":{"0":-0.2957195985570201,"1":-0.15982919950767674,"2":-0.3055182783493819,"3":0.031773303466766614,"4":0.07234162656652503,"5":-0.11087524715080893,"6":-0.0891477629226485,"7":0.03605621218335084,"8":0.10694137804086065,"9":-0.20190476991564604,"10":0.46172232837651267,"11":0.0770059078952688,"12":-0.5895185556118406,"13":-0.2490186325535401,"14":-0.036439708205309555,"15":0.04257131695378691,"16":-0.21462166818569225,"17":-0.2118413760846127,"18":-0.41487447717189635,"19":-0.05650621680391607,"20":0.17639214241347168,"21":0.044326197205909565,"22":-0.38048315046773834,"23":0.06988680123334912,"24":-0.32531837095116556,"25":0.2696780441524289,"26":-0.37059791948584425,"27":0.034897671445455726,"28":-0.508074106943023,"29":-0.46475818320817064,"30":0.20400259533759305,"31":-0.24837224750412257,"32":0.05988530554996055,"33":0.16747439026147848,"34":0.08164572753929464,"35":-0.26796947932566995,"36":-0.281543318151089,"37":-0.205115082911506,"38":-0.0294305141887864,"39":-0.3017935274025787,"40":-0.36230209005796327,"41":-0.3417581384837486,"42":-0.2829136033204319,"43":-0.15960924783063613,"44":0.2132383768758764,"45":-0.02555686172004576,"46":-0.2554094795826991,"47":-0.21021144558001945,"48":-0.1547822162017783,"49":-0.0660046403773195,"50":-0.22879475573222474,"51":0.03615173095304642,"52":0.04978980029936826,"53":-0.2016111368075371,"54":-0.014758337427379696,"55":0.044830069972593534,"56":0.20386298219680693,"57":0.21313096725656633,"58":0.37149159704737517,"59":0.18957599088925686,"60":-0.3502173080005309,"61":-0.08760045454210173,"62":0.0645748668548934,"63":0.1719960934324048,"64":-0.30002620227227944,"65":-0.04837822181991113,"66":-0.3111480861924887,"67":-0.034607409375427736,"68":0.05154478808430921,"69":-0.09267113290862199,"70":-0.19728511973134488,"71":-0.18531595530070039,"72":0.026218413687577675,"73":0.27144231304950234,"74":0.16555155293325743,"75":-0.006806183639897669,"76":-0.1744697433366002,"77":-0.30443500151264014,"78":-0.1441560690934255,"79":-0.010657191924253588,"80":-0.0805823159336861,"81":-0.060167830214918734,"82":-0.12735812426387141,"83":-0.04382540144534592,"84":-0.23144321035872467,"85":-0.27251461432231366,"86":-0.4283147269228651,"87":-0.034331140741398924,"88":-0.22330262868167344,"89":-0.34511494741889354,"90":-0.6214283913804752,"91":-0.03822819127593333,"92":-0.1927429599185255,"93":0.05833493458739095,"94":-0.09814796742500502,"95":-0.000802152808408482,"96":0.00992669787706326,"97":-0.002599224815617786,"98":0.08146183458535183,"99":0.2681290827005994,"100":0.17910846274048975,"101":-0.2685695548264987,"102":0.14224676127295038,"103":-0.1766865871642249,"104":-0.31404274723660186,"105":0.10678927132929016,"106":-0.06994250928417675,"107":-0.02566267111799307,"108":-0.20903260767242646,"109":0.2069348924887465,"110":0.2153457147771614,"111":0.0401013330048865,"112":0.2629340856905491,"113":-0.05228740303152391,"114":-0.10702756399544569,"115":0.014438305713677246,"116":0.14381470129016552,"117":-0.46750023833153653,"118":0.08408279182148638,"119":0.003629116127953089,"120":0.14599951380623705,"121":-0.042760006673225506,"122":0.07133775389116923,"123":-0.21217940115820266,"124":-0.19475409780940692,"125":0.051199118853319424,"126":-0.11636785861771914,"127":-0.08693994613671656,"128":0.35160292155364403,"129":-0.06517267583034435,"130":0.005171961642445234,"131":-0.2385029371359541,"132":-0.10965115793446295,"133":-0.4497721676558902,"134":0.054335461276578234,"135":-0.19069086877346458,"136":-0.15167566232882118,"137":-0.10696837219200665,"138":-0.4515431166673652,"139":-0.3698923810302275,"140":0.03853378351090735,"141":-0.07521434582443122,"142":-0.15285317771280799,"143":-0.06370885056206378}},{"sx":3,"sy":3,"depth":16,"w":{"0":-0.04024280410860128,"1":0.33486711338030806,"2":-0.2889322563154672,"3":-0.03966632600998207,"4":-0.03399371513982403,"5":-0.07286923442124442,"6":-0.14949506280482427,"7":0.12131994775671527,"8":-0.1195001611029454,"9":-0.13609110035175304,"10":-0.23071840389388096,"11":-0.27325916756577323,"12":0.24895443029795017,"13":0.06598396314083785,"14":0.19163736965575842,"15":-0.19576017638942045,"16":-0.1360035926884951,"17":0.3684854637224396,"18":-0.387214602365153,"19":-0.340301291634819,"20":0.27348465582412085,"21":-0.2756196852685375,"22":0.04599752041512666,"23":0.050810096414736335,"24":-0.23083256775083544,"25":-0.2016639037773296,"26":-0.40555473709332657,"27":-0.18657658876488467,"28":0.06016056388748227,"29":-0.15066338367646195,"30":0.15835674647554562,"31":-0.33076897581581377,"32":-0.22035269268177177,"33":0.29296527968449393,"34":-0.24712868815269282,"35":-0.09629237139673234,"36":0.17817757149164198,"37":-0.2320038959323335,"38":-0.03727285106642968,"39":-0.008093450192726576,"40":-0.03641826404910585,"41":-0.35691392151657014,"42":-0.08328033815454344,"43":0.11019789231135652,"44":-0.20913895073648825,"45":-0.010683262461169001,"46":0.1266623113081695,"47":0.12367942818996865,"48":-0.22931703237180479,"49":0.09511600227492138,"50":-0.14749735533433486,"51":0.06576632932938967,"52":-0.06374474400851894,"53":0.3739095753525092,"54":-0.461185425850977,"55":0.16438062139494175,"56":-0.019400844821229914,"57":0.030211272785779154,"58":-0.4026017090896563,"59":-0.15489006967265329,"60":0.14670743579248735,"61":0.10998728107602881,"62":0.2633168880466642,"63":-0.14049185755434856,"64":-0.12575957982795563,"65":0.0320320706346651,"66":-0.0918764423358767,"67":-0.25952937072562854,"68":0.05920656320981761,"69":-0.09630636574119485,"70":-0.1778976072586496,"71":-0.1784534373325645,"72":-0.12916105242876208,"73":0.11274723024294989,"74":0.049852574399779255,"75":0.04225805449559205,"76":-0.19296161231239795,"77":0.018485824245049232,"78":0.2695161919111398,"79":0.02315788959752306,"80":-0.033697699974316424,"81":-0.13228193644599534,"82":-0.05826598556177168,"83":0.004550732082244652,"84":0.16485854996224575,"85":-0.25854688884153015,"86":-0.041266160608046575,"87":-0.20148183256799115,"88":0.2130916560590039,"89":-0.1044534428278749,"90":0.2427417708633238,"91":0.17260465877385558,"92":-0.4422455615990162,"93":0.016452799475821216,"94":-0.05596397971722282,"95":0.1020959982735871,"96":-0.20894102065119097,"97":0.05808264512758064,"98":-0.3551499993084783,"99":0.0013629742971544634,"100":-0.2654715956335083,"101":0.3552172319279213,"102":-0.21850546069994606,"103":0.1566843502638787,"104":-0.273533184728298,"105":0.10607132490401328,"106":-0.07010606287521261,"107":-0.35346868150675975,"108":0.36245097931554665,"109":-0.28981202905111025,"110":0.2875580923125494,"111":-0.007906501202175266,"112":-0.11840891129742608,"113":0.31113652868006497,"114":-0.08815439561046007,"115":-0.19397506336519268,"116":-0.03736301619980264,"117":-0.36776374116487365,"118":0.06492632209792516,"119":-0.2704313100415615,"120":-0.06263249556604457,"121":0.12796797892999934,"122":0.2486926881630696,"123":0.03334852565028636,"124":0.08410341490311372,"125":0.3421041438367215,"126":-0.11557712979510106,"127":-0.1987099535037594,"128":0.008949180895402482,"129":0.10425511429173935,"130":0.20503769389470763,"131":-0.11923794243759249,"132":0.17181415517191723,"133":-0.12354093656697916,"134":0.16260965804442673,"135":-0.5215510030983599,"136":0.26485178725866,"137":-0.034207565039199264,"138":0.25300868183434333,"139":0.016079570551176876,"140":-0.21389438812918818,"141":0.28136924932250656,"142":-0.2461849942466015,"143":-0.006187507470344871}},{"sx":3,"sy":3,"depth":16,"w":{"0":-0.0047536147756728495,"1":0.1352191575960537,"2":-0.09660456735275873,"3":0.030489217868337488,"4":0.036996271819722724,"5":-0.18617636579794386,"6":-0.3625870306909986,"7":-0.20564253363118187,"8":-0.35150430523217785,"9":0.010970818066700045,"10":0.004024545199123791,"11":-0.2212629110404959,"12":-0.06751087140340381,"13":-0.06047770987415558,"14":0.07964451065315345,"15":-0.0642190520054722,"16":0.04215462057511977,"17":-0.08058085587715144,"18":-0.10835639136064604,"19":-0.1497159853645876,"20":-0.19648527831758875,"21":-0.231391532036658,"22":-0.4917064143436869,"23":-0.042163506673202164,"24":0.0964614202317631,"25":0.07111720869272777,"26":0.3835996497362419,"27":-0.20142884616788226,"28":-0.021832703475084488,"29":0.3689695715453924,"30":-0.09634994840456865,"31":0.062081487237497256,"32":-0.19863159689721208,"33":-0.39258879527625656,"34":-0.1766963934511669,"35":-0.1468416458982091,"36":-0.12814612734626418,"37":-0.03707689213745568,"38":-0.37425013954210185,"39":0.16280295758888016,"40":0.36603116219481563,"41":0.2977290457187379,"42":-0.017532288764574248,"43":-0.07206803304666112,"44":0.27162346569734147,"45":0.20317492929402703,"46":0.2795063377665655,"47":0.06556286723538278,"48":0.032511730177426014,"49":-0.00893864221012174,"50":-0.5572346005439733,"51":0.013104740745170464,"52":0.01722254034656496,"53":-0.5222970220640477,"54":0.21997421241554943,"55":-0.3090623770168605,"56":-0.04264579761691127,"57":-0.31233142558291366,"58":-0.050906202439156965,"59":-0.19196441050726307,"60":-0.20375989736798544,"61":-0.027750172242163213,"62":-0.011419436702210068,"63":-0.1321690645775544,"64":-0.14210619406472877,"65":-0.223497335669775,"66":0.11900578584523244,"67":-0.09633142398690267,"68":-0.16048766379779017,"69":-0.1667029488655093,"70":-0.1394146575732082,"71":-0.09519903270290297,"72":-0.12460915301547615,"73":0.12494527009889861,"74":0.17963774686104553,"75":-0.3084906624376814,"76":-0.11962720050002018,"77":0.10031235006520473,"78":-0.08632335840074358,"79":0.10126177478345069,"80":-0.07089994026854018,"81":-0.14471656711684633,"82":-0.06490344672614955,"83":0.08056708132181248,"84":-0.3426736406032935,"85":0.13620238665274803,"86":0.04958384076841771,"87":0.13537739935492799,"88":-0.42731692438392654,"89":0.3487396592400919,"90":-0.28935454405614247,"91":-0.3046724675524758,"92":0.18772823510225356,"93":-0.1535598042773511,"94":0.001604436238195843,"95":0.21414518709287955,"96":0.05751087150619491,"97":-0.15750655581605735,"98":-0.15360894493821955,"99":0.09526635969949941,"100":-0.46919751194343967,"101":0.07302250320246566,"102":0.03534717676888232,"103":-0.16495767674094441,"104":-0.3486751968075523,"105":-0.4166120461411252,"106":-0.19176248608062216,"107":-0.40351196183764104,"108":-0.3125975327112687,"109":-0.2188661605696247,"110":0.3432353256778906,"111":-0.30595685668910044,"112":-0.29435612601647027,"113":-0.1440114180058617,"114":-0.28377506553735393,"115":-0.3106099634475621,"116":-0.045239966241933126,"117":-0.20203310457034307,"118":0.04641791795161787,"119":-0.2221088281691954,"120":-0.06754382809023934,"121":-0.33239880374571634,"122":0.08223246698032162,"123":-0.042509723677603556,"124":0.13660918556436083,"125":-0.2647399935345636,"126":0.008130689004687268,"127":-0.08459464984324577,"128":-0.13272070407292555,"129":-0.1733828403174388,"130":-0.5418535693092136,"131":0.01862492217670007,"132":0.14723725615904795,"133":-0.06750611856786486,"134":0.1582089020444028,"135":0.01556905882266055,"136":-0.0440898073191854,"137":0.0796828680995019,"138":-0.13790586945695518,"139":0.01434688239454755,"140":0.1420093893126239,"141":-0.15673572381271647,"142":0.061345218958810836,"143":-0.06584451796034177}},{"sx":3,"sy":3,"depth":16,"w":{"0":0.10263844123973152,"1":0.10123080142954019,"2":-0.13665819719031466,"3":0.1294477662165431,"4":-0.20738165487633856,"5":-0.23080776571646552,"6":-0.07009682615995691,"7":0.24885569234308105,"8":-0.21234768076294552,"9":-0.0376829270277647,"10":-0.3043210285218365,"11":-0.03582573289802232,"12":-0.05907557562221915,"13":0.03055766671042249,"14":-0.2980459963740371,"15":-0.013937408620219952,"16":0.005743761626648603,"17":0.19239967093685975,"18":0.061394691739196754,"19":0.15469109402570574,"20":-0.29862813417534456,"21":-0.10441641356700208,"22":-0.0359145159462218,"23":0.12680700791057142,"24":-0.15822386236655053,"25":-0.05701762334622286,"26":-0.17541530581131726,"27":-0.19198106200457704,"28":0.13139186255448768,"29":-0.07917030685285206,"30":-0.16644165698754554,"31":-0.046894335060793275,"32":-0.6637834950562223,"33":-0.23753979782296727,"34":0.20459807536338984,"35":0.23101517465708107,"36":0.19163555619863593,"37":-0.32419353003116663,"38":0.10959579814701736,"39":0.2925926589738967,"40":-0.21371952571225097,"41":0.04055670764087191,"42":-0.010087458243083297,"43":0.226615589900436,"44":-0.10955303198670335,"45":0.12917849618471158,"46":0.016271098769260462,"47":0.06357946661680675,"48":-0.03180637222064075,"49":0.4312241049473704,"50":0.0022535433634501023,"51":0.20479621834759265,"52":-0.11143454511456913,"53":0.024472854313203847,"54":-0.3706387236619489,"55":0.047096027620553545,"56":-0.3372794947191186,"57":-0.17829575965944358,"58":-0.12326461295871906,"59":-0.0555472205382087,"60":-0.14999361189523386,"61":-0.012389362223030607,"62":-0.41653031705916,"63":0.0985949508615786,"64":0.051461313287406475,"65":0.29884538390437027,"66":0.05639310514431416,"67":-0.0047715550111089855,"68":-0.05953495591051338,"69":0.07961749588633162,"70":-0.18684591779611964,"71":-0.24240260084630869,"72":-0.08925655566768206,"73":-0.09617018480729851,"74":-0.021835236141497457,"75":-0.07018848531339764,"76":-0.07782835632871594,"77":-0.0994697583766661,"78":-0.3364183191830078,"79":-0.08290493524246467,"80":-0.1712951940998711,"81":-0.005925365996637747,"82":-0.08740018065878251,"83":-0.08250130497051916,"84":-0.09729372299276655,"85":-0.09449468336729445,"86":-0.13985383652055222,"87":-0.07237389920330543,"88":-0.04490862891015035,"89":-0.05891655056872342,"90":0.10916276638422755,"91":-0.04901085752607399,"92":-0.1295148079908643,"93":0.13258722656231628,"94":-0.20754609669219737,"95":-0.1826999131611405,"96":-0.19873961052647976,"97":0.14912252751539726,"98":0.05079534159740155,"99":-0.06585004591249666,"100":0.07970606729104164,"101":-0.10676197793275669,"102":-0.22935087891682635,"103":-0.12836976591342894,"104":-0.003908495159053186,"105":-0.12887592572231185,"106":0.3232067448696812,"107":0.1287372650055755,"108":0.18674890416868542,"109":-0.12989099529430995,"110":-0.04025925657425476,"111":-0.34873432624917855,"112":-0.20290577161351586,"113":0.1398635126678691,"114":0.003683887221604465,"115":-0.27925400167899345,"116":0.13922911129960633,"117":-0.07878796620276594,"118":-0.29412776323878315,"119":-0.03895040888721146,"120":-0.1735795018730106,"121":-0.27725364273567676,"122":0.36793723370329157,"123":-0.31997689762873616,"124":0.008193194820972406,"125":-0.0180807723819217,"126":-0.04460042588809728,"127":-0.5321185403898433,"128":-0.0087967766502307,"129":-0.035322150800220685,"130":-0.05158507252376727,"131":-0.28984442922695225,"132":0.07560011563361507,"133":0.0036379895984339156,"134":-0.29959974943359813,"135":0.0049251860996698815,"136":-0.021827876728228196,"137":-0.21341496152285352,"138":0.23852956962723224,"139":-0.24974416575770705,"140":-0.07846647916591508,"141":0.21115158897507214,"142":-0.14292705664647884,"143":-0.10623128541803752}},{"sx":3,"sy":3,"depth":16,"w":{"0":-0.32469972092336563,"1":-0.2170884505719606,"2":-0.15414389263245568,"3":0.138537259778014,"4":-0.12442379924250103,"5":0.09807981412765387,"6":0.11846757222768353,"7":-0.014005205238160056,"8":0.06671265522089267,"9":0.09630190415382278,"10":-0.2570360410604889,"11":-0.14215916961116212,"12":-0.20245246811776865,"13":0.08976366055594726,"14":0.12965952274999856,"15":0.01269968550836448,"16":-0.27701830933541866,"17":0.12667525803648635,"18":-0.10290652527489741,"19":0.08974627899345185,"20":-0.13588358316707155,"21":0.23708242256396558,"22":-0.04855286283298307,"23":-0.07262907546862377,"24":-0.24603250334618218,"25":0.07087686647294282,"26":-0.18589939987228474,"27":0.07897776478203897,"28":0.07647640970589811,"29":-0.32479129818114316,"30":0.10629508821843732,"31":-0.1381859891305258,"32":0.10224130860289432,"33":0.19946107892558407,"34":0.18265189380857308,"35":0.055701085863678904,"36":0.055505381816279044,"37":-0.31273454588572014,"38":0.03494220896001615,"39":0.008584370144298822,"40":-0.33670581301712743,"41":-0.3088900565167888,"42":-0.1529332097345532,"43":0.22363420829797234,"44":0.14762095369854003,"45":-0.09137892892400291,"46":0.00523630741591601,"47":0.0055695476303618255,"48":-0.2154542084842,"49":-0.29277687960461757,"50":-0.1732265602717181,"51":0.14869891131784796,"52":-0.08856520749362574,"53":0.10062613849570545,"54":-0.18018760032870668,"55":-0.037030484920385416,"56":-0.398876477489561,"57":0.32017708604918205,"58":0.007719714931215138,"59":-0.1099127353276949,"60":-0.3104494116606955,"61":0.09322434199231872,"62":0.04731442836880499,"63":-0.07375496591863105,"64":-0.212413248105165,"65":0.049314690278767406,"66":-0.046840430343846176,"67":0.24328630522220182,"68":-0.14408105715135974,"69":0.3761428534831514,"70":-0.11637591397562211,"71":-0.08736840653595714,"72":-0.18997788578583377,"73":0.14845716615884463,"74":0.028063347923676433,"75":0.034927382239241966,"76":0.02161692987584124,"77":-0.1478923003642711,"78":-0.2477162651453043,"79":-0.08702833751930562,"80":-0.1827255889806333,"81":0.046266033184518045,"82":0.07385750923365644,"83":0.06180200758489996,"84":0.01863140321587832,"85":-0.05525740396625805,"86":-0.08306823095191856,"87":0.11811051052096355,"88":-0.13051074965977996,"89":-0.07564814386292115,"90":-0.034857766734306884,"91":0.004790359738903795,"92":0.058859611590141886,"93":-0.19620407302797377,"94":-0.16779021083625756,"95":0.07072044051265675,"96":-0.4598398129460989,"97":-0.31618705986693196,"98":-0.1705909008303634,"99":0.2422815544083235,"100":-0.0373691796154837,"101":0.22984880832302856,"102":0.07235333304682108,"103":0.0013527056392421213,"104":-0.28506006837393033,"105":0.24037350694412388,"106":-0.2167688157823507,"107":-0.1228585183674818,"108":0.01012065229396742,"109":-0.1043947336503068,"110":-0.03677853249209174,"111":0.08241856168602732,"112":-0.3593935203781505,"113":0.04457396153222766,"114":-0.2990165965339608,"115":0.22164668874467558,"116":-0.24457530567179087,"117":0.07954394864738383,"118":-0.031305180942183125,"119":-0.041145841374659965,"120":-0.06783902421625372,"121":-0.00015146905993682687,"122":0.035767855031718865,"123":-0.10623335279822772,"124":0.15334091829949303,"125":-0.28206448617804547,"126":-0.23952014866927146,"127":0.02443948563241068,"128":-0.10924285357465131,"129":0.24366691989561168,"130":0.03223926252380373,"131":0.3746461040823421,"132":-0.29415595338984984,"133":-0.06340143166952866,"134":-0.08474927244058476,"135":0.2577923281215374,"136":-0.3511837136891278,"137":-0.08459058036137085,"138":-0.1414941987992485,"139":-0.1668470342213086,"140":-0.014000398908367174,"141":-0.2542203757903025,"142":0.06721067137561539,"143":0.008084553450360287}},{"sx":3,"sy":3,"depth":16,"w":{"0":-0.1699476865502539,"1":-0.11675331607332591,"2":-0.14403632382727322,"3":-0.13880375206286805,"4":0.026614766611872842,"5":-0.21436619673586318,"6":0.021415135303591806,"7":-0.08569147773907494,"8":-0.014788934376589255,"9":-0.1726081484830022,"10":-0.23165092999667072,"11":0.008971908875587546,"12":-0.03434789676004356,"13":0.05830462797015312,"14":0.2515300554069508,"15":-0.010489143117780276,"16":-0.3723451840355483,"17":-0.14389915455049587,"18":-0.04865918368431538,"19":0.050912909779532875,"20":0.13520785708715308,"21":-0.37790884470840813,"22":0.3985392267828953,"23":-0.05367273936897202,"24":0.2592333659371926,"25":-0.31072772204327787,"26":0.08334390720548608,"27":-0.23335809607067953,"28":-0.356114112867728,"29":0.17610116030192652,"30":-0.35797038107611145,"31":-0.24787027201869238,"32":-0.23282578110212152,"33":-0.04321620076851664,"34":-0.10561789490083134,"35":0.10219851024567747,"36":-0.14522994813257087,"37":-0.47098714098188477,"38":0.034867599776799846,"39":-0.08476577696998604,"40":0.04897102797059581,"41":-0.3975467873125286,"42":0.06462869798087086,"43":-0.23815842828729922,"44":0.06961719175869463,"45":0.024849479180603807,"46":-0.27670451301330323,"47":-0.4561401666313094,"48":-0.04805621599608415,"49":-0.041665956485468524,"50":-0.15104969198718846,"51":-0.18046465915018536,"52":0.06670361722202217,"53":-0.06691610526103985,"54":-0.005324692865977009,"55":-0.08104903239466783,"56":-0.040481091947879404,"57":-0.10470552559698251,"58":-0.1689850599556875,"59":0.010155945181173407,"60":-0.06305865502431457,"61":-0.1006876129636866,"62":0.32298113560343894,"63":0.3393169779555986,"64":-0.31364876102144773,"65":0.008718696542222688,"66":-0.2243525542595722,"67":-0.048934253880647566,"68":0.07224963118290711,"69":-0.15995310808670135,"70":0.2398465552257162,"71":-0.12716512874301306,"72":0.1754018799912414,"73":-0.2228384575036461,"74":-0.2517953435374097,"75":-0.3372862889319549,"76":-0.23530981778852134,"77":-0.06371885609987614,"78":-0.13834441372792816,"79":-0.019843919680423067,"80":0.014638273622273861,"81":0.08646492111571064,"82":-0.19187294372680472,"83":0.008536504569818078,"84":-0.0027278126644183047,"85":-0.500750006537489,"86":0.276366412494515,"87":-0.048938256210455895,"88":0.026075547688104744,"89":-0.17517695985045506,"90":0.052829456833667104,"91":0.08844814467224935,"92":-0.22753480886886812,"93":0.05588549964473131,"94":-0.11583942385011622,"95":0.04592776964100551,"96":-0.025452702141994344,"97":-0.1223066125196827,"98":0.01329996460834008,"99":-0.1527234513994717,"100":-0.07159703796820463,"101":-0.48371749104268197,"102":-0.04115887828006345,"103":-0.07139008548494886,"104":-0.18502042894688522,"105":-0.0956198670452636,"106":0.049644228125630886,"107":-0.09188306680865144,"108":-0.2757414712073134,"109":-0.2751817401100096,"110":0.17295832934904395,"111":0.25275815434312976,"112":0.13219772290421986,"113":0.04417717721782471,"114":-0.12094031638624811,"115":-0.024250767137977525,"116":-0.05948294590481198,"117":-0.4027613662705112,"118":0.002900063764606657,"119":-0.041405254723970476,"120":-0.23570049424580697,"121":0.06254229401311698,"122":-0.06025710010044148,"123":-0.012820540940261155,"124":-0.16379230217468582,"125":-0.2784328510830016,"126":-0.1881859901039129,"127":-0.10631842237663627,"128":-0.06447007159714005,"129":-0.06549699025074206,"130":-0.03145833635443355,"131":-0.0544954947514018,"132":0.018182911964990247,"133":-0.379383689112386,"134":0.04544623050015086,"135":-0.10795859972565673,"136":-0.12889730792349605,"137":-0.015176311798729572,"138":-0.0846401156038148,"139":0.041542209830364364,"140":-0.11599747988013998,"141":-0.013279855049273166,"142":-0.12473205196181321,"143":0.3732684786962337}},{"sx":3,"sy":3,"depth":16,"w":{"0":-0.03166822842900356,"1":-0.11868268997417308,"2":0.0619379775903567,"3":-0.0403686843757918,"4":-0.0806454856731856,"5":0.22407552708461098,"6":-0.3057718390719731,"7":0.05642538134439633,"8":-0.29081640204562825,"9":0.19252413687713352,"10":-0.135530558675953,"11":0.19736373547155056,"12":0.1688981617535254,"13":0.06429907978876416,"14":0.38287834487696204,"15":0.11183905538174543,"16":0.29071323893838585,"17":0.019905559317108128,"18":-0.32337671012660685,"19":-0.35967468272849995,"20":0.21717794590782594,"21":-0.004585086845914041,"22":-0.34319963511743173,"23":0.016215322655129673,"24":0.04820059912789329,"25":-0.0030452518433894305,"26":0.0014978014374142199,"27":0.30667934559813836,"28":-0.005883946822483536,"29":-0.11427336884252709,"30":-0.07225379151321952,"31":0.3728619715433366,"32":0.23197677848495513,"33":-0.38607622101713573,"34":-0.5444011596188605,"35":0.005347453504994819,"36":0.538165597101179,"37":-0.41403419104106814,"38":-0.3426764841517581,"39":-0.06178171538717181,"40":0.10222910664653936,"41":0.13125555660185817,"42":-0.0012643877383811237,"43":0.3703934556353608,"44":-0.20856435747841995,"45":-0.19015166998773475,"46":-0.09659768137267002,"47":0.08383505253202699,"48":-0.04643544690784,"49":0.030560009634148098,"50":0.18949716211133671,"51":-0.12123165603592613,"52":-0.09357189815051427,"53":-0.17420367676903392,"54":-0.09633241285583424,"55":-0.1528460173676821,"56":0.09205090972061433,"57":0.22813611594545408,"58":0.1390334804979171,"59":-0.2067578589883368,"60":0.06659823412781503,"61":-0.454294229565265,"62":-0.2403702786501435,"63":-0.2079727575548469,"64":0.09235113176425294,"65":0.023874691069947412,"66":0.11928490876446968,"67":-0.124243928544505,"68":0.10560108786700599,"69":0.011694913846529547,"70":-0.2485846597982673,"71":-0.21238841665116648,"72":-0.32693914301961363,"73":0.19636959555558708,"74":0.10110063517202497,"75":-0.2817662775523695,"76":0.13292598433396846,"77":-0.15197540475529797,"78":-0.3140041900140957,"79":-0.20159269500605906,"80":0.15292178127305978,"81":-0.1569707345264863,"82":0.07625871595787843,"83":-0.06595069704802446,"84":0.45803045885709004,"85":-0.31648222613804805,"86":-0.5045389521924581,"87":-0.01747686666083574,"88":-0.029421802935041756,"89":0.1559760771778962,"90":0.08571477579329462,"91":-0.04009257469146535,"92":-0.26035845268130753,"93":-0.12572206279803474,"94":-0.2910326762642378,"95":-0.21385482974504794,"96":-0.009745032422722892,"97":-0.4229971652786092,"98":0.186931116825125,"99":-0.5100215521844546,"100":-0.013803143981299774,"101":-0.4054903716255315,"102":0.326385497271163,"103":-0.572321529191392,"104":0.02473755068784735,"105":-0.008709859065760484,"106":-0.013281750230572714,"107":-0.11334492361925046,"108":-0.12201093819765348,"109":0.2007661323777807,"110":-0.18463128455014674,"111":-0.3203298747642445,"112":0.04791212148454087,"113":-0.4144256625621429,"114":0.19524453758929564,"115":-0.31358480389593424,"116":-0.2545728693065939,"117":-0.25976711247211465,"118":0.23275954699529383,"119":-0.3377986192971777,"120":-0.1048810063531633,"121":-0.06865283067688237,"122":-0.15333545802996815,"123":-0.3549190558156292,"124":0.1576049499382834,"125":0.08825039612481683,"126":-0.28597436129088544,"127":-0.18744575203654382,"128":0.0009994317714946814,"129":-0.06313171499858676,"130":0.11278762469710592,"131":-0.20207749008138035,"132":-0.05566709839414163,"133":-0.1520455801610427,"134":-0.2262919963927423,"135":-0.13687813455901482,"136":-0.11989481530645846,"137":-0.22930484113722346,"138":-0.16227863432550452,"139":-0.3194668917182007,"140":-0.18148590181205593,"141":-0.2717948242580466,"142":-0.4094717089476048,"143":-0.37326877367143246}},{"sx":3,"sy":3,"depth":16,"w":{"0":0.06992258816621807,"1":-0.11081699091862797,"2":0.08640595252029377,"3":-0.19817795396134819,"4":-0.006855395521975678,"5":0.11311541333859851,"6":0.017830227369651664,"7":-0.20889958233719647,"8":0.1822556472746634,"9":-0.02222597878595077,"10":0.0029030156793752376,"11":-0.19347086801685906,"12":0.21952376106203117,"13":-0.04046969791488274,"14":0.16236593760357365,"15":0.34342994350364864,"16":0.03217639078698967,"17":-0.12305351355203215,"18":0.2276688355788994,"19":-0.11915599055340748,"20":-0.0021195002809245877,"21":-0.047176413699477476,"22":-0.08989524096047762,"23":0.011072479493775723,"24":-0.1535618743153251,"25":-0.039110282242315456,"26":0.1746820038390575,"27":-0.3119596169477754,"28":0.1328036882053088,"29":0.009133548536660895,"30":0.12187948796171469,"31":-0.21096783302899527,"32":-0.17076697662464227,"33":-0.10782451214387825,"34":0.00898169182235741,"35":-0.23856678881900537,"36":0.1812461567076718,"37":-0.018837974015101556,"38":-0.06093432105571953,"39":0.1482246713148836,"40":-0.11750988110989488,"41":-0.09149245802349959,"42":0.19061793448081238,"43":0.004907398333875469,"44":0.014071504526872215,"45":0.1509847352194259,"46":0.05377134860489487,"47":0.2176690572681397,"48":0.10724658653994236,"49":-0.177786118432006,"50":-0.10047147664909162,"51":0.08495713736552639,"52":-0.1980304934429988,"53":-0.34495935594369276,"54":0.041040661994677034,"55":-0.06482382738337115,"56":-0.11147819045134091,"57":-0.0914422999153132,"58":-0.2392393279034659,"59":-0.044321675253253166,"60":0.32983582450136717,"61":-0.4537243187997564,"62":0.21066004806287852,"63":-0.006207490824703424,"64":0.2046632068875701,"65":-0.3606432218915457,"66":0.051690617533160364,"67":0.10785102684948314,"68":-0.37160621547332096,"69":-0.003458417179155588,"70":0.17240819693931805,"71":-0.20835580805709994,"72":-0.07063899146020215,"73":-0.3176710981657821,"74":-0.004807821904242155,"75":-0.11507362926579555,"76":0.04858050562869753,"77":-0.4048975204692757,"78":-0.09436081631496272,"79":-0.02587311392075077,"80":-0.012214563177611793,"81":-0.26067380387178346,"82":-0.15983544764243277,"83":-0.16485681480090048,"84":0.01692418959100428,"85":-0.06344584229599556,"86":-0.012892594298445267,"87":0.2131515432554148,"88":-0.00391605715551208,"89":-0.4785304644047834,"90":-0.13265548088352525,"91":-0.1755200977762287,"92":0.033985562912434264,"93":0.04523548796056439,"94":0.16334848243220462,"95":0.033588459926210075,"96":-0.1398090355609288,"97":0.1772636446795525,"98":-0.004159238313334026,"99":-0.14501405658246302,"100":-0.1929153387505386,"101":-0.09563863690483981,"102":-0.03838038540649392,"103":-0.21959334792119314,"104":-0.058735288293993285,"105":-0.2617681359383519,"106":-0.03794671990063461,"107":-0.30016882874842915,"108":0.23564136706673489,"109":-0.26795514139166343,"110":-0.028005409423679836,"111":0.06662880844568736,"112":-0.18599690408117772,"113":0.035023785548019416,"114":0.0053015070808075425,"115":-0.14501990612043014,"116":-0.32308000022678723,"117":-0.20748857588698072,"118":-0.020216093150898486,