{"layers":[{"out_depth":1,"out_sx":28,"out_sy":28,"layer_type":"input"},{"sx":5,"sy":5,"stride":1,"in_depth":1,"out_depth":8,"out_sx":28,"out_sy":28,"layer_type":"conv","l1_decay_mul":0,"l2_decay_mul":1,"pad":2,"filters":[{"sx":5,"sy":5,"depth":1,"w":{"0":0.3942466583716642,"1":-0.13197423778430448,"2":0.07497456068703492,"3":0.22085380118897954,"4":0.25834833014875885,"5":-0.3484833070125336,"6":-0.02026439211410743,"7":0.2822894563656436,"8":0.18248884468625812,"9":-0.07384514424281582,"10":0.1258983529623542,"11":-0.29202835601204113,"12":0.08615771258292014,"13":0.40427799833252437,"14":0.35497657057919246,"15":-0.03460390834965039,"16":-0.37654396907063137,"17":-0.1814522515298623,"18":-0.20624444418602125,"19":0.4137509398832173,"20":-0.5254779227937854,"21":-0.36895089797112396,"22":-0.07490062955093273,"23":-0.07421618373249851,"24":0.5289655475289469}},{"sx":5,"sy":5,"depth":1,"w":{"0":-0.11526105470579816,"1":-0.390698226512435,"2":-0.08149450143694,"3":0.25221485258226417,"4":0.058672237742573574,"5":-0.01765517848433225,"6":0.05192663793787697,"7":-0.20569701667869772,"8":0.041175639859269,"9":0.36330221625039144,"10":0.24861755515295705,"11":0.41259237574026436,"12":0.29507645567223234,"13":0.391581666716897,"14":-0.5115098466395944,"15":0.000020070293373985982,"16":0.14583641346247642,"17":-0.13360351295083706,"18":-0.10690918184399116,"19":-0.18067862227709724,"20":0.2120226141798858,"21":-0.32849139443794756,"22":-0.31772814800747756,"23":-0.1869599856604082,"24":-0.12857093033994327}},{"sx":5,"sy":5,"depth":1,"w":{"0":-0.011958144594342628,"1":0.2990063884323307,"2":0.265335762086377,"3":0.6255933606941566,"4":0.26636462849675413,"5":0.07610158704565169,"6":0.5358793653221593,"7":0.4002530201422151,"8":0.38767456366179975,"9":0.24400870801450567,"10":0.03942050148235963,"11":-0.5852050301652565,"12":-0.11809763562276032,"13":-0.4497191904028636,"14":-0.46118354289449637,"15":-0.5494275361365781,"16":-0.06624801331550234,"17":-0.32087273767181057,"18":-0.5081954931454328,"19":-0.07268253825025783,"20":-0.6926073757793507,"21":-0.1832727656480828,"22":-0.5941742636085393,"23":-0.21037486753056384,"24":0.0443910309228542}},{"sx":5,"sy":5,"depth":1,"w":{"0":-0.20864411438427355,"1":0.24334842457320227,"2":0.36260720196715257,"3":-0.062319374931826696,"4":-0.3581495620094801,"5":-0.3709688885197602,"6":0.10648861517325604,"7":0.2635427403738891,"8":-0.14102370272816003,"9":-0.08367934657472012,"10":-0.2914591552995048,"11":0.29446790845158793,"12":0.37229371174449005,"13":0.30618513288006094,"14":-0.4607790529473912,"15":-0.11719213073077354,"16":0.020067178400628567,"17":-0.051987275345325865,"18":0.07677224644074179,"19":-0.24204355326759822,"20":0.13476424109787546,"21":0.41632068550272394,"22":-0.19754360252128206,"23":0.00890682661309642,"24":0.013007500466951046}},{"sx":5,"sy":5,"depth":1,"w":{"0":-0.37165617347563096,"1":-0.6113387585269381,"2":0.0500763431616601,"3":-0.17094801250655564,"4":0.13793103068425305,"5":-0.48068010038601,"6":-0.08393759533953618,"7":-0.7420590778590732,"8":-0.2037554446446995,"9":0.04030986363890123,"10":-0.19325721210386454,"11":-0.3387984044515184,"12":-0.14173968404934564,"13":-0.024642576121076003,"14":0.39545446961946484,"15":0.0668011406313245,"16":0.478028733006217,"17":0.3034561905051866,"18":0.10490994749856924,"19":0.48262599247700616,"20":0.08778521061724515,"21":0.35225279825816685,"22":0.34730735847269983,"23":0.11942554937838142,"24":0.4474449559448717}},{"sx":5,"sy":5,"depth":1,"w":{"0":-0.5446234234512715,"1":0.23431024269169826,"2":0.29899157707327484,"3":-0.004202309997929843,"4":-0.04189865500858945,"5":-0.2878748401063427,"6":0.11885105830117876,"7":0.4664447885425189,"8":0.1730920264490311,"9":0.025913930461448173,"10":0.4128631138691478,"11":0.310503328786339,"12":0.17375379945292718,"13":0.08938389940493209,"14":-0.3790547998323761,"15":-0.17200690785093983,"16":0.04590737124903187,"17":0.4497378847682042,"18":-0.0199846496524526,"19":-0.5795806558481938,"20":0.25249712055592005,"21":-0.026744447870238344,"22":-0.23067501373174024,"23":-0.17130232258227363,"24":-0.1793023501304207}},{"sx":5,"sy":5,"depth":1,"w":{"0":-0.25012313599822567,"1":0.02662022868176797,"2":0.22683445401132424,"3":0.039828303632649616,"4":-0.131677557713426,"5":-0.04672128809160476,"6":0.09877009532216707,"7":0.17290335073210814,"8":0.38436631212178374,"9":0.3000669876119394,"10":0.1601725533360517,"11":0.2738638005438486,"12":0.16965424169571688,"13":0.26966736730454044,"14":-0.18805127693360715,"15":0.33114596142966646,"16":0.08765061365946246,"17":0.32884870091151946,"18":0.29081555372263124,"19":0.2903802842664274,"20":0.035937494369079344,"21":-0.19590119499618902,"22":0.3399683734794019,"23":0.41179412025036044,"24":0.6237161486506965}},{"sx":5,"sy":5,"depth":1,"w":{"0":-0.02619767352866092,"1":-0.264501247358002,"2":-0.049583338488799034,"3":-0.17367867315078206,"4":-0.2651808821894221,"5":-0.5380052834025952,"6":-0.22183632967648165,"7":-0.28503160459555404,"8":-0.33733571396790196,"9":-0.01909608569916296,"10":0.28311921678488633,"11":0.29146057435944195,"12":0.21961436913903026,"13":0.4377741386918832,"14":-0.27059247657984825,"15":0.6296183686998986,"16":-0.08476579585238908,"17":-0.27681935269360597,"18":-0.06431301312035008,"19":0.23116598738877756,"20":0.14534035230341574,"21":0.2655678493004221,"22":0.35350917272556137,"23":0.05577316672111128,"24":0.21570197032819124}}],"biases":{"sx":1,"sy":1,"depth":8,"w":{"0":-0.03972189737357625,"1":0.0011502484467298445,"2":0.21823307551082094,"3":0.11547622421188125,"4":0.04299095095702053,"5":-0.04111795620539204,"6":-0.03972377176664014,"7":0.021323484344375383}}},{"out_depth":8,"out_sx":28,"out_sy":28,"layer_type":"relu"},{"sx":2,"sy":2,"stride":2,"in_depth":8,"out_depth":8,"out_sx":14,"out_sy":14,"layer_type":"pool","pad":0},{"sx":5,"sy":5,"stride":1,"in_depth":8,"out_depth":16,"out_sx":14,"out_sy":14,"layer_type":"conv","l1_decay_mul":0,"l2_decay_mul":1,"pad":2,"filters":[{"sx":5,"sy":5,"depth":8,"w":{"0":0.09375542309428682,"1":0.128071151242086,"2":-0.14730402283843438,"3":0.033641506333637605,"4":-0.06749159679445206,"5":0.0005212342042687033,"6":-0.031031899572445995,"7":-0.0475642478205701,"8":-0.0036997590272547553,"9":0.1340544310122578,"10":-0.07380860833749711,"11":-0.03265279634409495,"12":-0.20128878455638152,"13":0.06789848295429546,"14":0.0918000465248912,"15":-0.06717801334653588,"16":0.13800849425116235,"17":-0.06453817234676845,"18":0.07664852594142463,"19":0.05997852289991495,"20":-0.05738476705158974,"21":0.022462537257714583,"22":0.01263458818769873,"23":0.0258527819473275,"24":0.041532121261481626,"25":-0.0382948903754825,"26":-0.21397667095845127,"27":0.02527137500357811,"28":-0.00026382615630794157,"29":-0.02173951942671272,"30":0.05618482512747761,"31":0.051754394112876266,"32":-0.1517481768236024,"33":0.020525556036827583,"34":-0.28046023277950555,"35":0.042105213021666164,"36":-0.10759438360354702,"37":0.1867337956128486,"38":-0.010810961685746289,"39":0.10127878385509685,"40":0.0737291606912343,"41":0.11307588352802857,"42":-0.10866433810505552,"43":0.17157215564839545,"44":-0.015645916738494758,"45":0.04064759183049354,"46":0.09708808063585682,"47":0.07173215022755515,"48":0.09935302196035091,"49":0.00682137607737802,"50":-0.25692390276990085,"51":0.07667323486179131,"52":-0.002394393649513576,"53":-0.15518337320702114,"54":-0.060056430544713345,"55":0.03787292683273596,"56":0.028709888170139135,"57":-0.006194511827224974,"58":-0.22536331780484475,"59":-0.01853666638052783,"60":0.0763311305403857,"61":-0.045485800816196416,"62":0.07667158289067723,"63":-0.039945891337480166,"64":-0.18321392158461822,"65":0.037642904306805086,"66":-0.0929674439521374,"67":0.13675742905715346,"68":-0.05051988829545029,"69":0.12735604922037586,"70":0.0473967880704061,"71":0.047309181284943165,"72":-0.11407099374752015,"73":0.0698131719580168,"74":0.0536722672043628,"75":0.33268634221183735,"76":-0.12884139883307447,"77":0.2367036216123741,"78":0.02418254789032213,"79":0.03830272969267213,"80":-0.023334876650034815,"81":-0.05012751429737066,"82":-0.08623199475450148,"83":-0.0621294301076825,"84":0.08447924710703839,"85":-0.016770682939337228,"86":0.044549299241009706,"87":0.14076724366852686,"88":-0.0189465738487073,"89":0.020266058165246348,"90":-0.07476024554527921,"91":-0.21177504766230162,"92":0.06492980721739652,"93":0.14795881572327296,"94":0.03464986359183785,"95":0.016763634332698667,"96":0.05970476541516944,"97":0.1528497691760597,"98":-0.08978487887536127,"99":-0.1000759567690855,"100":0.04166501887830102,"101":0.2303091445327944,"102":0.16199525133746093,"103":0.043825020912961955,"104":0.07378173053838524,"105":0.02082466707621329,"106":0.05310327732202314,"107":-0.05059774991320332,"108":-0.09818956524335194,"109":0.08260967018217744,"110":0.02814877168065336,"111":-0.12584048655721847,"112":-0.02016465297027483,"113":-0.07034146376281669,"114":-0.13372381011663595,"115":-0.1277963656147419,"116":-0.07766940169708807,"117":0.031222061138926966,"118":0.026353437279882184,"119":-0.03135712638760905,"120":0.2799411091981273,"121":0.07808989926376371,"122":0.20469547729545415,"123":0.003625817262641327,"124":-0.14862869321602828,"125":0.07813242830544465,"126":0.002494491590963075,"127":0.07875501603230275,"128":0.07226061177605048,"129":0.05704588975896294,"130":0.08312610439727446,"131":-0.10265746168210356,"132":-0.2108916222526036,"133":0.20908917635208304,"134":0.0522691922235801,"135":-0.04785414761280271,"136":-0.027592536392902746,"137":-0.18912825603490258,"138":0.13566022682620946,"139":-0.14427081488379317,"140":-0.09633620581026645,"141":-0.11172322623627408,"142":-0.014373653717894667,"143":-0.2131314439252375,"144":-0.0793318940220913,"145":-0.06900925401965984,"146":-0.07173083535173046,"147":-0.1254709159802875,"148":-0.010882045253775756,"149":-0.06870391323399348,"150":-0.013362890427561938,"151":-0.07656645764561207,"152":-0.11367509649127641,"153":-0.18264640012175126,"154":-0.20873107109939099,"155":-0.09163950839430476,"156":-0.05388357331653948,"157":-0.04590466972725247,"158":-0.017956079163597448,"159":-0.17231109315100288,"160":-0.019711271597110842,"161":-0.08458982879407742,"162":-0.006447214210812618,"163":-0.06092729609247041,"164":-0.06279809892510192,"165":-0.0493822763034779,"166":-0.16637768402472208,"167":-0.061007984043882676,"168":-0.025616312735408035,"169":-0.09202290859975318,"170":0.0057968620938674015,"171":0.13285329362552198,"172":-0.0939490299508776,"173":-0.013713201562565861,"174":-0.10826801846356804,"175":-0.09281721041059297,"176":-0.11830586006813389,"177":-0.15230321877229325,"178":-0.20459312781335012,"179":-0.016179059994751208,"180":0.021265757994513433,"181":-0.08132743143258982,"182":-0.04293103621822646,"183":-0.21843197899691838,"184":0.08191677718203373,"185":-0.15374409434868178,"186":-0.03229718881422711,"187":-0.08227555867597171,"188":-0.09805053069225571,"189":-0.028360855281838498,"190":-0.05788302365408272,"191":-0.16280831965128487,"192":0.028902482492247784,"193":-0.1533977397160776,"194":-0.18475923752888282,"195":-0.1573316339708876,"196":-0.016678806134198327,"197":0.07620185666771913,"198":0.04564134575971596,"199":-0.2165105308318372}},{"sx":5,"sy":5,"depth":8,"w":{"0":0.23975411480911976,"1":0.0237164348599073,"2":0.10955761192709004,"3":0.04692624434495222,"4":-0.01607544410998184,"5":-0.05084424655264521,"6":-0.016287268183897717,"7":0.024616115020604405,"8":0.28876408245836815,"9":-0.19122350142746905,"10":-0.062474902020262436,"11":0.05363681452614196,"12":0.035147479318942645,"13":0.08326357539183617,"14":0.22642080423592814,"15":-0.06713196749806684,"16":0.12916057942820386,"17":0.0172252418909671,"18":-0.18983230255662908,"19":0.16438488363730788,"20":-0.13213406834798141,"21":0.0897861844022718,"22":0.20044361081260523,"23":-0.004494125294130827,"24":-0.07922705284453604,"25":0.0733716904950991,"26":-0.27282429291654975,"27":-0.018941040575896947,"28":-0.10416895911459097,"29":0.057206985989925185,"30":-0.03733951539753616,"31":0.006296654764209168,"32":0.10741387114710199,"33":0.006887776650163648,"34":-0.005043179046178738,"35":-0.017652125556740467,"36":-0.06286794287001472,"37":-0.04699409906938184,"38":-0.23732577159699422,"39":-0.07643488203686127,"40":0.1088570330726278,"41":-0.08608708169315037,"42":0.030429751798239153,"43":-0.0722117906577497,"44":-0.08866007027303072,"45":-0.2618159830801423,"46":-0.0990539914791662,"47":-0.12164287993254191,"48":0.3361256185042754,"49":-0.10275875828547769,"50":-0.08899113340008022,"51":0.15767342042038207,"52":0.06121478575469901,"53":-0.1329907311831504,"54":0.04843475069817344,"55":-0.12089084396073167,"56":0.11201598300414131,"57":-0.07587030146431861,"58":-0.2135665265764162,"59":0.1138588116944907,"60":-0.027106576128178825,"61":0.24219359070551186,"62":0.17044297484211246,"63":0.06352113037909612,"64":-0.015531356234727716,"65":-0.11054055210848253,"66":-0.20887256910794277,"67":0.04381162103430226,"68":-0.13877168587188782,"69":-0.08465007444909158,"70":0.05494707093030528,"71":-0.03355572818040192,"72":0.03728106680797392,"73":0.02419503580231947,"74":-0.03595713813475828,"75":-0.08798731823733849,"76":0.0512937131650179,"77":-0.12894771569394745,"78":-0.01592344333623238,"79":0.018087829229245515,"80":0.14862721705171744,"81":-0.028004608857326887,"82":0.04275347969526053,"83":-0.12663100957051457,"84":0.028171457903570576,"85":-0.17157672233441307,"86":-0.11508822325461222,"87":-0.34563277771934114,"88":0.11091634128411658,"89":-0.011341252518652563,"90":-0.13530943379119326,"91":0.03506564289134075,"92":0.08147258664819274,"93":-0.06319103909181956,"94":0.1104877880659507,"95":-0.18625411291805413,"96":-0.010418891912809772,"97":-0.10649294389138861,"98":-0.20739973762958847,"99":0.17613915492951285,"100":-0.2876646750192068,"101":0.2501188948623681,"102":0.2520051393005801,"103":0.03873053984546927,"104":-0.12049789962190897,"105":0.044042124960378216,"106":-0.1773124528245979,"107":-0.05495044401415215,"108":-0.14920240428857207,"109":-0.30030532278282546,"110":-0.015104363671365088,"111":-0.11091250510653461,"112":-0.018353898096031454,"113":-0.007251302980776534,"114":0.08669220936306538,"115":0.0180917964352251,"116":0.069510158634265,"117":-0.156835486727258,"118":-0.07138730426884786,"119":0.03101930278322525,"120":0.08317157300421812,"121":-0.032651070920862516,"122":-0.19843429623090203,"123":-0.16506321739234864,"124":0.06871438746222971,"125":-0.01062934716605935,"126":0.0025983960192260515,"127":-0.1655675711018249,"128":0.13533285815891105,"129":-0.035311216483758984,"130":-0.2692407845521071,"131":0.13790952136816936,"132":0.10012168962642581,"133":0.24172353091137205,"134":0.10570048248160731,"135":-0.014225462449485898,"136":0.16689140308872666,"137":-0.0253144419230292,"138":-0.06789056071941174,"139":0.10444193805539792,"140":-0.13777150619125128,"141":0.24020522643044173,"142":-0.05121516268810099,"143":-0.0743713115524487,"144":0.14406941992620234,"145":-0.041380314938633776,"146":-0.0022731299597795332,"147":-0.14187313181590797,"148":-0.18109378660150038,"149":0.027158401206122305,"150":-0.15784466866192084,"151":-0.03787651478016233,"152":-0.06957297408486354,"153":-0.09688713216141401,"154":0.004581529740239527,"155":-0.10255898563503689,"156":0.011040587237491354,"157":0.023597551297013096,"158":-0.09583701015072912,"159":0.018752689194808304,"160":-0.13674860730605348,"161":-0.02217413061788877,"162":-0.18509382085422216,"163":0.05461981265153979,"164":-0.004192068221410545,"165":0.16005418087326012,"166":-0.06442541876834089,"167":-0.09932505443902116,"168":-0.030864932159882695,"169":-0.07640554274340977,"170":-0.17192063862875892,"171":0.0734329991360341,"172":0.00820538143666929,"173":0.21047784248189064,"174":0.11879621441796615,"175":-0.08038709865790915,"176":0.17405018115017604,"177":0.046707304527586146,"178":0.031354490082450365,"179":0.00507736631334647,"180":-0.10317558375772486,"181":0.04003551990865285,"182":-0.11222661769994646,"183":-0.12320409757241421,"184":0.19955401549543614,"185":-0.09045207016353943,"186":0.06025072851206872,"187":-0.014585376554390787,"188":-0.03641230161843256,"189":-0.03746944962026672,"190":-0.09289935452034638,"191":-0.13408465565634894,"192":-0.13539097500219008,"193":0.005447886956397452,"194":0.08717183299563833,"195":-0.15384707580013857,"196":-0.04230541552752609,"197":0.031419113946166005,"198":-0.06134937249613105,"199":-0.008435920648274357}},{"sx":5,"sy":5,"depth":8,"w":{"0":-0.03158098003835883,"1":-0.0041577523063230926,"2":0.1631028416573299,"3":-0.19168369348789782,"4":-0.1670250605438201,"5":-0.08917326666014053,"6":-0.07647073733655238,"7":-0.039857893922234405,"8":0.07504514178469035,"9":-0.013060683315300997,"10":0.1616506163825377,"11":0.0707089410046004,"12":0.04376992167757682,"13":0.01835206308532004,"14":-0.025146588111908653,"15":0.007721504942192765,"16":0.07885241844241737,"17":0.025742634587892294,"18":0.1719766970058095,"19":0.006008267400966682,"20":-0.009878592301034972,"21":0.0637368038289636,"22":0.10539578983928713,"23":0.018217977657449373,"24":0.05385100513822853,"25":-0.05296032814442822,"26":0.0984583791423411,"27":-0.010925392620946028,"28":-0.010863871824221286,"29":0.12406891602071235,"30":0.007747014898621984,"31":0.036767498676872554,"32":0.018711792705979127,"33":0.0954581835682278,"34":0.07160819775605654,"35":-0.02976713973355025,"36":-0.03365395972020305,"37":0.0550999363611244,"38":0.07591178474646784,"39":0.07419715250393799,"40":-0.10987762195723509,"41":0.012990255719971871,"42":0.27454169537995515,"43":-0.08216040386485712,"44":-0.08558722580074853,"45":-0.22388749645174316,"46":-0.06923522430724484,"47":-0.09314256940382311,"48":0.036128741351249404,"49":-0.0009424006702986053,"50":0.29993455277239717,"51":0.004876413907232108,"52":-0.17317917673848585,"53":-0.07505506887664021,"54":-0.18356946054451304,"55":-0.10619489453123182,"56":-0.012919449598890584,"57":0.0624427313269172,"58":0.39572328567359366,"59":0.02095351440984048,"60":-0.23249137596804154,"61":-0.02942096630694301,"62":-0.19325385340114407,"63":-0.16472848364317788,"64":0.061376830032353724,"65":-0.07574267344250689,"66":0.45215122506597916,"67":-0.011047253360478003,"68":-0.13152405825255883,"69":-0.03931097485968855,"70":0.07505440026749745,"71":-0.07984797800879817,"72":0.07453982431941872,"73":0.023721026050168983,"74":0.12588790106077874,"75":0.04116613926520641,"76":-0.15777875429713611,"77":-0.026619157217352002,"78":0.09144330952231705,"79":-0.17587833138656764,"80":-0.0472888922119929,"81":-0.10948684800158799,"82":0.03443305205824561,"83":-0.05412621075059361,"84":0.08173668372007235,"85":-0.08107684809642253,"86":-0.22248757414467657,"87":0.10836712977053012,"88":-0.11170410250224425,"89":-0.14389819701511744,"90":-0.03926188949207458,"91":-0.06533938827790171,"92":-0.017806617394024706,"93":-0.03450027656262097,"94":0.03721992944786481,"95":-0.010830355266814085,"96":-0.19711640981684497,"97":-0.03876504624785653,"98":0.12487759766409151,"99":-0.021120784974830265,"100":0.07405605935443993,"101":-0.14441274224053946,"102":-0.021075968632796836,"103":0.022536238750655597,"104":0.03715524464959259,"105":-0.13861055722020307,"106":0.1121370828687907,"107":-0.15000492047557654,"108":0.12828440053137935,"109":-0.09649329138377366,"110":-0.15030693372573445,"111":0.12227363876062709,"112":-0.0843097147808506,"113":-0.02395743138593897,"114":-0.11744777771342779,"115":-0.05235787154433201,"116":0.2748127597242144,"117":-0.12349802980775224,"118":0.08097639077759722,"119":0.1712543335998554,"120":-0.09148438812225423,"121":0.0013790093477849576,"122":-0.13098354437286555,"123":-0.13020439122470887,"124":0.09674559143329217,"125":-0.07040879501632671,"126":0.0944932054521055,"127":0.10655349822654982,"128":0.09328570681289151,"129":-0.0031917815495037154,"130":-0.05810685120380228,"131":-0.12651076527576172,"132":0.10223589323563097,"133":-0.03835578260675386,"134":0.1331234278946164,"135":0.017991887390034295,"136":0.016685634732668087,"137":0.05305653789879176,"138":-0.09237817390623078,"139":-0.11300574163216219,"140":0.0588695022800594,"141":-0.02877921913883868,"142":-0.09117958068874772,"143":0.08718432194768344,"144":-0.06360570815578513,"145":-0.056997683512187924,"146":-0.2180780605729973,"147":-0.07765857329532919,"148":0.064885074095861,"149":0.04389181614456834,"150":0.02699183582917601,"151":0.08159572664668961,"152":-0.23086201714824753,"153":0.10172301379777185,"154":-0.0702888163546868,"155":-0.05918885060485764,"156":0.11103670811994545,"157":0.048014051781727615,"158":-0.026326309358272817,"159":-0.03177225091370873,"160":-0.13417491680257182,"161":0.022533472714791936,"162":-0.19160577609331442,"163":0.16468051501328476,"164":-0.004970734721329571,"165":0.030525962265210017,"166":0.04623894903283793,"167":0.03939896317595191,"168":-0.03784520441439687,"169":0.1082120573902191,"170":-0.024699444700164518,"171":-0.08486892653930687,"172":0.07687260935597819,"173":-0.0168721651099359,"174":0.03863769814856136,"175":0.04624520673771998,"176":-0.11197156321865766,"177":0.14641204639723482,"178":-0.04725474096714952,"179":-0.10440850420793017,"180":0.054207925855865736,"181":0.03796901469411594,"182":0.10088555727903688,"183":-0.03365909780055938,"184":-0.1977337662953871,"185":0.03038331389198761,"186":-0.03833461280894065,"187":-0.00223359771983616,"188":0.025511743337959022,"189":-0.0017789624838935366,"190":0.023828894465412392,"191":-0.19655567817025776,"192":-0.11018467250126514,"193":0.06356145923840312,"194":-0.043406663476415405,"195":-0.15036486823758688,"196":-0.010165307670553271,"197":0.05007027772322008,"198":0.06809565627406285,"199":-0.13069760215125664}},{"sx":5,"sy":5,"depth":8,"w":{"0":-0.1699903775635978,"1":0.03829860140835455,"2":0.18762431761442838,"3":-0.009005616267177144,"4":0.09176989444047802,"5":-0.12287326789383303,"6":-0.05774775990722526,"7":-0.10473974379924778,"8":0.15356975946169454,"9":-0.12002214436346137,"10":0.07640726729366376,"11":0.12205061388261373,"12":0.08634318476849362,"13":-0.09412252659862898,"14":0.04776376222027202,"15":-0.07948422777476852,"16":-0.019403779123691067,"17":-0.03088450001996273,"18":-0.06296140723160505,"19":-0.059292648681911864,"20":0.08632993735244364,"21":0.0405585093831383,"22":-0.06414731922165579,"23":-0.11895897022935636,"24":-0.06696989349889787,"25":0.02913834882290384,"26":-0.013422014608923246,"27":0.15336017352779943,"28":-0.013503752827699665,"29":0.17564449703305873,"30":0.04599217986203935,"31":-0.10544661908088461,"32":-0.038672830977633556,"33":0.09775033976449912,"34":-0.1521823774258381,"35":-0.060267376949502495,"36":-0.0028411459026665606,"37":0.06726128984913697,"38":-0.07244226197886802,"39":-0.08387303300815736,"40":-0.10774235312297013,"41":-0.0911505399818342,"42":0.007989319680828657,"43":0.03261334911635278,"44":0.14161584437090685,"45":-0.03181046441138701,"46":-0.044460905300638925,"47":0.1452116952025745,"48":-0.048321570671114256,"49":0.14045122824634407,"50":-0.1079508156566057,"51":-0.001918865297092673,"52":0.1477881855008378,"53":-0.07139518603138183,"54":0.03995900094717783,"55":0.12568923770221285,"56":0.03099379084202852,"57":0.3172268437699799,"58":-0.1092812283283917,"59":0.012218484898601388,"60":0.1345942230565916,"61":0.22784314310200235,"62":0.08358999852600768,"63":-0.08288799992726667,"64":-0.04640125025394608,"65":0.10516028764893659,"66":0.013586835414355411,"67":0.20522146091544902,"68":0.02702536226406334,"69":0.20784189791691193,"70":0.11451459922454121,"71":-0.06135780317165834,"72":-0.022934255463044315,"73":0.12797450709798489,"74":0.06386696131153191,"75":-0.06260562876220799,"76":-0.1891772036796791,"77":0.05321786994650369,"78":-0.11773049416517507,"79":-0.2614128509530679,"80":0.005441050702916044,"81":0.08997255371473084,"82":-0.045393205097143244,"83":-0.03234288559743799,"84":0.07385639357139163,"85":-0.07369329858868742,"86":0.056594774806095406,"87":0.26382085309340053,"88":-0.13292628096900885,"89":0.19242681673288362,"90":0.10270647372752474,"91":-0.08711051088656264,"92":0.10258182808197959,"93":0.15445629156337087,"94":0.06383261313841443,"95":0.04490625761660534,"96":0.04780297246265416,"97":0.060317160335153136,"98":0.2851266195679214,"99":-0.05937561095711577,"100":-0.0036260686696984444,"101":0.08504408755702757,"102":0.020900083566318693,"103":-0.04195513162592623,"104":-0.1475409343563645,"105":0.02193764242377219,"106":0.038218199152419044,"107":-0.0864364567299428,"108":-0.17081602431423512,"109":0.026644174665144627,"110":-0.23777815920842557,"111":-0.1802157713560993,"112":-0.08258638437752791,"113":-0.25234849004739035,"114":-0.1139912215404109,"115":-0.1877814827595016,"116":0.02807270529202541,"117":-0.0912809623085031,"118":-0.2591647301843358,"119":0.009573170772083084,"120":0.041874201759315915,"121":0.07441942724814685,"122":0.19434392938595907,"123":0.024367268227895648,"124":-0.21928281013380943,"125":0.07378983253265813,"126":-0.067805635627825,"127":-0.1426053810007945,"128":-0.12872462167942295,"129":0.03506570810886927,"130":0.11926632134221482,"131":-0.058145769813907136,"132":-0.22626355350553898,"133":-0.029089207742349393,"134":0.002671988922761065,"135":-0.0985962528505908,"136":-0.1318944648234129,"137":-0.13209827972879123,"138":0.05617404116887456,"139":-0.17296305046013088,"140":-0.12048050482157036,"141":-0.11544492358239111,"142":-0.1911150802480903,"143":-0.06674098252513365,"144":0.045684753310419976,"145":-0.13782973660504702,"146":-0.19580122510930215,"147":-0.1914719615918466,"148":0.014507559918438117,"149":-0.1847911970442611,"150":-0.16373119647854625,"151":-0.08131793729470295,"152":0.030878460501610187,"153":0.007474471340062038,"154":-0.16539624807858314,"155":-0.04240478982893815,"156":-0.041097952527974276,"157":-0.12293829669464722,"158":-0.11978188507405618,"159":0.039539109611265756,"160":-0.01048307790582586,"161":-0.1383181546316478,"162":0.031169005534805932,"163":-0.08724667792522213,"164":0.10736666566189658,"165":-0.17675356377936588,"166":-0.13274100897836308,"167":0.07876086657701191,"168":-0.11932782694442043,"169":-0.12394042282736353,"170":0.049490940140820894,"171":0.011547214352521708,"172":0.11449840681043488,"173":-0.09586332355702537,"174":-0.1486806707741477,"175":0.15018963195146617,"176":-0.12243666429056889,"177":-0.10464440482690715,"178":-0.21254873386056564,"179":-0.11229885898750736,"180":0.06992967510186106,"181":-0.18797281872615448,"182":-0.03720926475199516,"183":0.05102874909003314,"184":-0.049151905358658245,"185":-0.08357069799601634,"186":-0.17804514525401846,"187":-0.10669330868616157,"188":0.005438348468465154,"189":-0.06402633390960479,"190":-0.07786462640997471,"191":-0.043672500332500586,"192":-0.056294985724822444,"193":-0.09822161512341636,"194":-0.0077814143437503975,"195":0.04603530558517636,"196":0.014540035974376649,"197":0.02754860576446949,"198":-0.14435032116507585,"199":-0.04580288895954483}},{"sx":5,"sy":5,"depth":8,"w":{"0":-0.0586821558510164,"1":0.11802951029604665,"2":-0.06851991352349777,"3":0.12596837402992378,"4":0.0942460804797193,"5":0.08630335570341287,"6":-0.010457101403832592,"7":0.06312139869948918,"8":-0.045490463091259044,"9":0.12048951015221494,"10":-0.01532817363149531,"11":0.12254287058498042,"12":-0.09932396629098061,"13":-0.008470271574348395,"14":0.0018303905289057962,"15":0.09236534568657771,"16":-0.06180202663233098,"17":-0.13321162112101678,"18":0.03373294362786313,"19":-0.11753105655204378,"20":-0.03379844505701115,"21":0.036529923058895124,"22":-0.02351971758793617,"23":0.055476174793424024,"24":-0.0042179599924924436,"25":-0.10541221420382177,"26":0.00010168867135739205,"27":-0.12180054074985844,"28":0.007158233905964467,"29":-0.038584108510211504,"30":-0.07581213026091992,"31":-0.0017327135160214342,"32":-0.254015591574378,"33":-0.05518856108024971,"34":-0.3117789110747009,"35":0.001881641936891129,"36":-0.04293288400271093,"37":-0.17305888625817922,"38":-0.06182004067703942,"39":-0.1010021590893136,"40":-0.049515174454991,"41":0.04185404066630369,"42":0.13222565467163755,"43":0.06272106966722685,"44":-0.08360596368033404,"45":0.07113845820833391,"46":-0.00711735184675524,"47":0.021004857650996685,"48":0.07202610073395828,"49":-0.1327796316436171,"50":-0.14673597472996383,"51":-0.1293156954066174,"52":-0.022750312790605465,"53":-0.09084743644108403,"54":0.01760549164596351,"55":0.05365140435354236,"56":0.008986505029406112,"57":0.004242212741404874,"58":-0.11170876785386497,"59":0.1276525065887227,"60":0.10274422042988782,"61":-0.03125944135317782,"62":-0.042169593768245556,"63":0.08126734859062164,"64":-0.1485559965708316,"65":0.04345206344248935,"66":-0.3003628588960927,"67":-0.09612846542348104,"68":0.1277953830992987,"69":-0.1469693160747335,"70":0.08358587330377926,"71":0.18177221568510749,"72":0.047519808382254135,"73":0.005803723534356155,"74":-0.14659012425786924,"75":-0.002432866226457396,"76":0.1304416123312106,"77":-0.03774673027479845,"78":0.05325258023015983,"79":0.1308159722086643,"80":0.016043887532510896,"81":-0.0027381886948372102,"82":0.10129443231718568,"83":-0.1103497690146135,"84":-0.0014698202780937147,"85":-0.21113625429193725,"86":0.011212006257268921,"87":-0.1414113967228066,"88":-0.06683512006803521,"89":0.11638812918771291,"90":0.002208193027679964,"91":0.17189052220197265,"92":0.10161708701922952,"93":0.06213875433643715,"94":0.057839535532147573,"95":0.013625663753456906,"96":0.048478587830180005,"97":0.07871614087239241,"98":0.1386433731722048,"99":0.09595859327739018,"100":0.17030499930722967,"101":0.20925991367439178,"102":0.08142770247599924,"103":0.11171120081624347,"104":0.07970118281603954,"105":0.01428956040301903,"106":0.17015349724054282,"107":-0.11279449357275145,"108":0.00583255983326836,"109":-0.01843709185857052,"110":-0.00466501599812688,"111":0.0955835112640851,"112":-0.010546864715164325,"113":-0.06646937911556891,"114":0.100731935599325,"115":-0.0847798916036289,"116":-0.019924832173812385,"117":-0.02839590399560686,"118":0.015150348088232199,"119":0.08574294755925424,"120":-0.06538626776978909,"121":0.14188278041466876,"122":0.18058510054425111,"123":-0.07901794648173169,"124":-0.04915209222687896,"125":0.20524522778528023,"126":-0.050609780102205106,"127":0.19551807506041521,"128":-0.07964617181499162,"129":0.2548506835858838,"130":0.27298938891637237,"131":-0.06318041526480078,"132":-0.13003066444647648,"133":-0.050777411562460045,"134":0.017553552503346857,"135":0.13469177700600812,"136":-0.08602835382733925,"137":0.052743874218132425,"138":0.3769261488732888,"139":-0.06130884015775909,"140":-0.30022335516454546,"141":0.1533590662005055,"142":-0.12906719280653525,"143":-0.10850512518850053,"144":0.05204797556627713,"145":0.08780713458005501,"146":0.31456245381531783,"147":-0.14842312703577357,"148":-0.07305299194250363,"149":0.038077376485191716,"150":-0.03822032628917996,"151":-0.20327567785125114,"152":0.010704142577722427,"153":-0.027625013894803433,"154":0.08170413899718693,"155":0.06270676528288595,"156":0.08971721444381162,"157":-0.1066288029628873,"158":-0.0045559884552576636,"159":-0.12737066019474252,"160":-0.02179690109327713,"161":0.10332325339392945,"162":0.07444117771774728,"163":-0.10205948450118776,"164":-0.12169639395249385,"165":-0.059544275424060766,"166":0.04644349903425821,"167":0.0775026389112895,"168":0.03606969246222572,"169":-0.17061946182983403,"170":-0.07709590111306587,"171":-0.12853403555308282,"172":-0.05225637670904239,"173":-0.12388577222436631,"174":0.03037222341549482,"175":0.09436407338431417,"176":0.05851602325636908,"177":0.040592530501963105,"178":-0.09707704899270288,"179":-0.052721629302318766,"180":0.02220553543975678,"181":-0.1340489929974628,"182":-0.10640385188484781,"183":0.11711805471583597,"184":-0.07359953286235346,"185":-0.03557189506296961,"186":-0.04069724319924731,"187":-0.17221056171021087,"188":-0.048398669813132754,"189":-0.039428690161889365,"190":-0.05759156843756544,"191":-0.04192318852477992,"192":-0.13636101629947997,"193":-0.053531041502214445,"194":-0.04563032868123145,"195":0.01679852995781754,"196":-0.023699254537782825,"197":-0.024935070769836015,"198":-0.12611476599263374,"199":-0.13204445833077158}},{"sx":5,"sy":5,"depth":8,"w":{"0":-0.10857668888744422,"1":0.11578429497340575,"2":0.15230831898297453,"3":0.054013722400363916,"4":0.07687012355862106,"5":0.028410573157596822,"6":0.03611868896285834,"7":0.07008980336023853,"8":0.1452146684325942,"9":0.06610429405866972,"10":0.11040829651942867,"11":0.04203946459878644,"12":-0.008877329761479166,"13":0.09481096343212655,"14":0.03560242330786629,"15":-0.015795500797882514,"16":0.05140259873271576,"17":-0.05010936796938182,"18":0.07732522153679981,"19":0.1500104943618627,"20":-0.02510090023554769,"21":0.012055209957797576,"22":-0.003326718025407282,"23":-0.01741732746386462,"24":-0.06899540138317803,"25":0.04554558721395244,"26":0.020780198436110113,"27":-0.06478729442297922,"28":0.03769170879041434,"29":0.06715736417235249,"30":-0.020153397521842878,"31":0.06190453283017923,"32":-0.04593169119600079,"33":0.08481561085027514,"34":0.10259572700999556,"35":0.0064816103152919744,"36":-0.132942936051542,"37":0.0220295139229697,"38":-0.00750804873517707,"39":0.03632137990656604,"40":0.039486173596766774,"41":0.053379408150166736,"42":0.23324082440751626,"43":-0.015670826661139607,"44":-0.12128238988615171,"45":0.12258106462440173,"46":-0.06702482580290713,"47":-0.008204189624339966,"48":0.0021154279440433028,"49":0.015244952022139909,"50":0.08266870435840613,"51":0.0016564984364524434,"52":-0.15979377264770328,"53":0.09499087066780433,"54":-0.04581440317503497,"55":-0.03637814599086905,"56":0.004720601621562714,"57":0.06547037870089731,"58":0.09762747151611167,"59":0.052869040790589156,"60":-0.02385136524517425,"61":0.04146517217031001,"62":-0.0654518062084641,"63":-0.07132939642583228,"64":0.0014616725221061817,"65":-0.06790311256322382,"66":0.07279735088166059,"67":-0.06319334191396554,"68":-0.0850690400321862,"69":-0.08750721911128749,"70":-0.04460328559534624,"71":-0.1420244896479548,"72":-0.19190728877156527,"73":0.031765885875009635,"74":0.015708425977045387,"75":-0.004832921614953614,"76":0.0012615208808573505,"77":0.019711848848877778,"78":-0.11365460053576351,"79":-0.019920609500765293,"80":-0.05455157606254525,"81":-0.15808998608398936,"82":0.021853764863350375,"83":-0.10476342063413537,"84":0.0029696174335675928,"85":-0.00993101409250046,"86":-0.08429182533934053,"87":0.05449978744236302,"88":-0.01987432017919782,"89":-0.12182472513103525,"90":0.043584837168061316,"91":-0.022537244281445913,"92":-0.08465785831184462,"93":-0.05986303050417396,"94":-0.20066691692076685,"95":0.0027773089226975013,"96":-0.006455556498333661,"97":-0.09543549446098128,"98":0.05110852171770954,"99":0.06353377353090411,"100":-0.03198781318194429,"101":-0.044201905931368544,"102":-0.08379053610038038,"103":0.017547559559926065,"104":-0.06523812100885369,"105":-0.1361451191331346,"106":-0.07124153849861152,"107":-0.02621358120709931,"108":0.11715039868548698,"109":0.004411144444175644,"110":-0.11805022900701144,"111":-0.05471169774184163,"112":0.0015568973579032773,"113":-0.08811200279352878,"114":0.046713809140658834,"115":0.008464927547561904,"116":0.045652392336403134,"117":-0.07580813697196609,"118":-0.02952534600811168,"119":-0.01911594434969864,"120":-0.10995537432231588,"121":-0.04691220189177817,"122":0.08775298356574623,"123":-0.03037118405405965,"124":0.12177822997982199,"125":-0.11019407767782095,"126":0.043350488702800005,"127":0.0355532704648288,"128":0.014931956577652032,"129":-0.12564064245577997,"130":0.0617626344801536,"131":-0.1118903952789371,"132":0.06421100467972801,"133":0.0021900967835558095,"134":0.02688413203495605,"135":0.033360722161497464,"136":0.022004848777812083,"137":-0.09904896750599895,"138":-0.03986527407172509,"139":0.09091273222231791,"140":-0.05325487432063474,"141":-0.15667452434145038,"142":-0.09429431957789884,"143":0.06842548314922259,"144":-0.026669296421266673,"145":0.06935140784467898,"146":-0.14637361020506176,"147":-0.18189379014746757,"148":-0.11411975060852755,"149":-0.05704591657086556,"150":-0.027293178439237346,"151":0.037905679227752107,"152":0.027626083573285932,"153":0.009808777980591704,"154":0.03784332303964777,"155":-0.10530210138778243,"156":-0.11076237195849954,"157":-0.035364784272649226,"158":0.027739450407724527,"159":0.032356829535623216,"160":0.07509960481670895,"161":0.039106127340855036,"162":-0.05353702431815053,"163":0.052904898925885034,"164":0.021531590409369854,"165":0.009068122865787471,"166":0.125971483077694,"167":0.0009619758287151657,"168":-0.20950553917825662,"169":-0.00759068951709028,"170":-0.024316034371003346,"171":-0.09074135837669274,"172":0.09189056339522472,"173":0.02034937772587581,"174":0.041810903094046545,"175":0.16482396130111443,"176":0.03655866426561193,"177":-0.09293158642015192,"178":-0.08946569935553851,"179":0.03356379435483076,"180":0.06674589226402851,"181":-0.04842140838077,"182":0.063440838894578,"183":0.1704455533405244,"184":0.10271856024407938,"185":-0.08311875757586339,"186":-0.02048638277526187,"187":-0.01617846034573062,"188":-0.05552042664341689,"189":0.09737973548039677,"190":-0.08163705478729145,"191":0.11211379187958243,"192":-0.18998848769621168,"193":0.11597297949300729,"194":-0.04084130030120796,"195":-0.014625751031380817,"196":-0.026488340948359602,"197":0.023955469328147003,"198":-0.08734746618342625,"199":-0.01347476203272778}},{"sx":5,"sy":5,"depth":8,"w":{"0":0.007609488898376221,"1":0.016499948400340345,"2":0.05754510863510875,"3":-0.0713569817195252,"4":-0.14531870248218764,"5":-0.11887082459342053,"6":-0.15908005424539007,"7":-0.05699707641720283,"8":0.028189081956706694,"9":-0.08860161158102223,"10":0.25916198051022793,"11":-0.09946871406378105,"12":-0.18800577888959413,"13":-0.003404433415781455,"14":-0.03663704567781631,"15":-0.09422269899414522,"16":0.08294082431591975,"17":-0.12790438895080614,"18":0.08856680856718373,"19":-0.010862584866793324,"20":-0.06110731269047227,"21":0.0035171139269434136,"22":0.209108424275655,"23":0.028520388051880494,"24":0.009714571980734636,"25":0.024935223899577523,"26":-0.1837004317239228,"27":-0.025444299357821616,"28":0.014519368505227321,"29":-0.05430334365847149,"30":-0.026810197231383892,"31":-0.0004020491854922095,"32":-0.20080100963960257,"33":-0.052684277157141225,"34":-0.23697754901460497,"35":0.05259335705442629,"36":-0.039470292604865814,"37":-0.01404506580861662,"38":0.07594095364802256,"39":0.04784706000939703,"40":-0.09846741541147644,"41":0.014760915968568645,"42":0.047065207635938695,"43":-0.01910079421162464,"44":-0.01893044422336787,"45":-0.23728621858626425,"46":-0.19155010866404676,"47":0.04951620064231097,"48":0.0980371733704282,"49":-0.1198677957804875,"50":0.1862351489620353,"51":0.11072784700168846,"52":0.18054570834903094,"53":-0.07829143338843442,"54":0.0849515392806158,"55":0.04094835162339953,"56":0.026641650002426423,"57":-0.1663749711506426,"58":-0.09438363757903717,"59":-0.05662096736171183,"60":0.09835491887826019,"61":-0.11897536397202452,"62":0.05775616116235607,"63":0.0710940225582307,"64":-0.06909862146887942,"65":0.056835295560649764,"66":-0.15228466830439638,"67":-0.0909931980053246,"68":0.1727687057773538,"69":0.07302444352286779,"70":0.033183215518911444,"71":0.09810718774852459,"72":-0.1486513814876902,"73":0.135282994908394,"74":-0.21787579267295315,"75":-0.0033860703571536414,"76":-0.09264701383439787,"77":0.08740479228597599,"78":0.015419234396176802,"79":0.06496563498818649,"80":-0.04854935305072421,"81":-0.0066633554759528224,"82":0.08578700482785312,"83":-0.2096044361973542,"84":0.07803796535447867,"85":-0.1287117045284721,"86":0.018134863685190596,"87":-0.02251077758348786,"88":0.05464608112587875,"89":-0.06145033570781053,"90":-0.17280597903191544,"91":-0.14961638253197035,"92":0.20240408946162228,"93":0.013672324513001995,"94":-0.057817204244004335,"95":-0.07811352034936743,"96":-0.15553071744878771,"97":0.0638400405986171,"98":-0.32018692499488866,"99":0.03779146614028834,"100":0.013239230330103761,"101":0.18828998706240438,"102":0.02110152132313327,"103":-0.028900030769364756,"104":-0.07181630855689013,"105":0.129589334369866,"106":-0.014791029322194315,"107":0.12074690609937473,"108":-0.021617386109644143,"109":0.05281946279099063,"110":0.12569526660263858,"111":-0.04220135357535604,"112":0.10408502538947884,"113":-0.00972796539385816,"114":-0.25402237791495,"115":-0.06677473137375053,"116":-0.167063255635349,"117":0.13487204604670966,"118":-0.08893386057344663,"119":-0.19444783379025454,"120":0.2264385500566571,"121":-0.10967757249437761,"122":0.20286069413672067,"123":-0.2955282802838099,"124":0.0007378964153661726,"125":-0.06999992593905072,"126":-0.020350968103905537,"127":-0.11913387134416493,"128":-0.02047380492343991,"129":-0.017588586442929183,"130":-0.3227141528772155,"131":-0.01904837667117364,"132":0.06840714235440058,"133":0.060623761371435395,"134":0.04810539000992859,"135":-0.12210678877449953,"136":-0.19697695553918215,"137":0.1678231728229735,"138":-0.18318541810636876,"139":0.07985259353074296,"140":-0.16596675960874258,"141":0.1758216138684616,"142":0.047065218565201156,"143":0.011461943739717987,"144":-0.05427263705936469,"145":0.04135615751602657,"146":0.0006181137388651125,"147":-0.1337452066137007,"148":-0.26558039239606634,"149":0.004566621714000765,"150":-0.04096254282481806,"151":-0.09370234778272007,"152":-0.0035383632387067194,"153":-0.06028460266497722,"154":0.03185382024082516,"155":-0.06507497360620015,"156":-0.1944634654161426,"157":-0.1698176399755858,"158":-0.2498148230026886,"159":-0.01748778081218434,"160":0.05472000808659902,"161":-0.08639593422185149,"162":0.0006679561886602349,"163":-0.20056913418319774,"164":0.03364147101605802,"165":-0.1369833236772092,"166":0.000721385987077107,"167":-0.13076990789355583,"168":-0.02191434501719777,"169":0.03742228762563594,"170":-0.16321347714811107,"171":0.01637696299251636,"172":0.0018278474588646221,"173":0.18455600573125308,"174":0.1382334254581858,"175":-0.0208198078959689,"176":-0.07951240125516047,"177":0.03851645493845248,"178":-0.22603524432995975,"179":0.03453226687182304,"180":-0.07572292020576735,"181":0.05477691747318493,"182":-0.013883652976267744,"183":0.011810730382100522,"184":-0.16417043256280986,"185":-0.030300699591306726,"186":-0.19839437530744067,"187":-0.14657728213136362,"188":-0.12328981796441675,"189":-0.03334099621181971,"190":-0.08905740823798287,"191":-0.10254013849452266,"192":-0.0377506027233145,"193":-0.11658359659236232,"194":-0.15446319508511755,"195":-0.13313123630609133,"196":-0.058198000197054935,"197":0.012074365846777527,"198":-0.21843581360581119,"199":0.061923117566540446}},{"sx":5,"sy":5,"depth":8,"w":{"0":0.03583789157912179,"1":0.10275798920325145,"2":-0.011815986978779777,"3":0.04895811132425313,"4":-0.0028199324381048686,"5":-0.23801553337328143,"6":-0.09050343833066454,"7":0.18732070581969174,"8":0.05217856459295335,"9":-0.05447328818288017,"10":-0.0819486753647793,"11":-0.08572169277453134,"12":-0.11613133800534853,"13":-0.0006370921440664042,"14":0.04547486455415326,"15":-0.027828153599712434,"16":0.016336089866156242,"17":0.034093001353168124,"18":-0.002256073180771884,"19":-0.008213845382200748,"20":0.02732920292251809,"21":-0.05304628919668758,"22":-0.10803096835895883,"23":-0.1548573900380964,"24":-0.08758112252434579,"25":0.019314229459731297,"26":-0.020081455217432934,"27":-0.03693659624862559,"28":-0.045602376237874435,"29":-0.15078461823586004,"30":0.007913203484916967,"31":0.0143242292893313,"32":0.09915193097733203,"33":0.10276091746379502,"34":-0.08751650563311353,"35":0.023253930862897516,"36":-0.07784563519447793,"37":-0.01797340958384075,"38":-0.01943970724935498,"39":-0.10578374968621858,"40":0.028917263258107517,"41":-0.003652348282360267,"42":-0.014294079233914613,"43":0.0032545677480320255,"44":0.032638105622827866,"45":0.1408333588890708,"46":0.08459327796003868,"47":0.11698904692463166,"48":-0.03133547208721962,"49":0.05525226234721068,"50":-0.025562830193198972,"51":0.01752163744455932,"52":-0.04873411920139215,"53":-0.0140726990864892,"54":-0.10419593488368925,"55":0.023674075255286583,"56":0.023019254881397812,"57":0.009057460216912882,"58":-0.04276416642163709,"59":-0.027406911704777367,"60":-0.02973753939908871,"61":-0.016756374577714176,"62":-0.0016414059066136547,"63":0.012087351426933728,"64":-0.10728657293676205,"65":-0.03839422750145479,"66":-0.08648998201358246,"67":0.03723765976248722,"68":-0.07481859767540207,"69":-0.018313480017056776,"70":0.07244271295634262,"71":-0.05807425906724029,"72":-0.02583217500008012,"73":0.0031816795809045876,"74":-0.08511367634534066,"75":-0.04948198754027427,"76":-0.02002158304369413,"77":-0.061249837687984574,"78":-0.052254075116522955,"79":-0.030311320651593303,"80":0.07085160711777588,"81":-0.0331611713585918,"82":-0.059386945131463656,"83":0.020827101405660735,"84":-0.020770519925367346,"85":0.058890651698024696,"86":0.01593367745994189,"87":-0.026559900252629557,"88":-0.008105934782440117,"89":-0.0005140800158326324,"90":0.014385049390014061,"91":0.11707146272546255,"92":0.01055225456261117,"93":0.10747505392937212,"94":-0.13383942625610443,"95":-0.013372494950703329,"96":0.11212505442951391,"97":-0.0143809908942641,"98":-0.14085752956359865,"99":0.0005968543663775832,"100":-0.012943646983410006,"101":0.019186806838519567,"102":-0.020721535864757775,"103":-0.05379281178248117,"104":-0.01191446315953522,"105":0.1449332550461709,"106":-0.03241445034912212,"107":0.03338687939006296,"108":0.10243932740168847,"109":0.003151406670379267,"110":-0.0027301344567042946,"111":-0.043077421571252335,"112":-0.05663934403871628,"113":0.004066340398688859,"114":-0.10355081588553576,"115":0.0301456234891122,"116":-0.0234446285939549,"117":0.05385223928666362,"118":-0.01568668630834308,"119":-0.07921304818266908,"120":-0.042490367186553656,"121":0.04200734603296127,"122":-0.0658036809460342,"123":0.04928369212552241,"124":-0.08515060098078361,"125":-0.06180708239154949,"126":0.060079150228190395,"127":0.11096510318643278,"128":-0.1716307767878701,"129":0.1154494257850931,"130":-0.06960366123511139,"131":0.05245842487922716,"132":0.05107676373324865,"133":-0.02989389050792219,"134":-0.033497342614434364,"135":-0.10360495307893806,"136":0.027297016588999745,"137":-0.022896169278345372,"138":-0.08415627285143806,"139":-0.06421665657099285,"140":-0.1490734996499797,"141":0.04601828051943518,"142":-0.01862112039929946,"143":-0.09378851651346291,"144":-0.017772963125121412,"145":0.010375471555783755,"146":0.009334120640529768,"147":0.06609202795738216,"148":0.04750219218770427,"149":-0.034602983123092595,"150":-0.1470847947596475,"151":0.05853130559639263,"152":0.0008514228661655836,"153":-0.011228150325548782,"154":0.05645604608295304,"155":0.05772119376376378,"156":-0.008771970720143815,"157":0.10282644631793907,"158":-0.0895308463656949,"159":0.1084652944954108,"160":0.022830639534623796,"161":0.04537925444794822,"162":0.030947375695790397,"163":-0.050891586613414426,"164":0.0497557465704962,"165":-0.06755113553887,"166":-0.022655227703757583,"167":0.134545815276986,"168":0.019189327508541635,"169":-0.10133702510429653,"170":0.07725540175184074,"171":0.11905695813388019,"172":0.004271814361388094,"173":-0.004140518707745833,"174":-0.2062813274215298,"175":0.013219034704796547,"176":-0.11029036276282594,"177":-0.08567180455843532,"178":0.17863179796501288,"179":-0.12742818658323998,"180":-0.001970284582836398,"181":-0.1340905264329968,"182":-0.10056944517173248,"183":0.06512613161311265,"184":-0.10575255827633262,"185":-0.023928479108939183,"186":0.0703588027409697,"187":0.0218278883731773,"188":-0.1300244468318171,"189":0.06758009755956321,"190":-0.10882618329850907,"191":-0.037034613241968786,"192":-0.022427358906928815,"193":0.029814165326708674,"194":0.0005445804511643822,"195":-0.05854845470867702,"196":0.023078156225856922,"197":-0.06067592393419356,"198":-0.024431299157915427,"199":0.012300427359426838}},{"sx":5,"sy":5,"depth":8,"w":{"0":0.18312606261072598,"1":-0.0023399031487625686,"2":-0.08695026737516762,"3":-0.06055870451944785,"4":0.017570594303203523,"5":-0.08577276701113991,"6":0.09471928250570433,"7":-0.13247125847967384,"8":-0.03705988772998807,"9":-0.023731350595946325,"10":-0.07914259040834301,"11":0.005304436791922915,"12":0.04740429815138807,"13":0.14634836066097062,"14":0.1852716078332213,"15":-0.035674038783677926,"16":0.08823908302583532,"17":0.11241978227059518,"18":-0.06841673941266861,"19":-0.21616526526575325,"20":-0.0347357334357527,"21":0.06383242931848805,"22":0.07264735366729273,"23":-0.12869552453529498,"24":-0.033197450689452755,"25":0.061670901635188,"26":-0.02156179093960298,"27":0.006183553361703055,"28":-0.16312159369144263,"29":-0.038988694751470446,"30":-0.015945466155557003,"31":-0.03869831241648649,"32":0.02176524925958802,"33":-0.048352880484953176,"34":-0.17058344917131726,"35":-0.14164182127226732,"36":-0.16102991905684838,"37":-0.03193359444545703,"38":-0.10866894459325703,"39":-0.0515512127836362,"40":0.07743106278475162,"41":0.01991807509274727,"42":-0.15399745420508135,"43":-0.010923964068255224,"44":0.08376984701283276,"45":0.019064154032593816,"46":0.04606415496586112,"47":-0.16558215205587845,"48":0.0032056168934366546,"49":-0.07009037197205871,"50":-0.25023687367419833,"51":0.19480017954743442,"52":-0.03398173718653491,"53":0.07932433307400076,"54":0.12801666533445463,"55":0.009095965824975653,"56":-0.10367531967252197,"57":-0.009544717493518718,"58":0.01986374136357413,"59":-0.02599345722854178,"60":-0.09856548576360771,"61":0.09040385648594097,"62":0.04391665210961649,"63":-0.09801254885441696,"64":0.006878422126572307,"65":-0.03574373273094963,"66":-0.00646282533917647,"67":-0.09256822738776495,"68":-0.06805129122751133,"69":0.038222331501048375,"70":0.005773628174650388,"71":-0.08168860973775884,"72":-0.1252992016929504,"73":-0.03772397029748298,"74":0.05290645204923147,"75":0.041493342638690985,"76":-0.019836967759543758,"77":-0.18752645634582135,"78":-0.09916869650554103,"79":-0.006554740879984216,"80":0.133819366745513,"81":-0.03347152014299235,"82":-0.07629156099851968,"83":-0.15908425739531584,"84":0.0031816243667318316,"85":-0.0228643447241673,"86":-0.08896187732377503,"87":-0.1218652011726036,"88":-0.0017511905610797427,"89":-0.0532791141235348,"90":-0.17211681008231935,"91":0.005658957195175329,"92":-0.1233288951895626,"93":0.11726643752353055,"94":0.19472222537875344,"95":-0.18275748586248777,"96":-0.09537167148434095,"97":-0.21402306057252518,"98":-0.10155771565858908,"99":-0.1939043505480936,"100":-0.0810278858655813,"101":0.018180132836601363,"102":-0.07083975137822447,"103":-0.04052160322819642,"104":0.04962639030298785,"105":-0.08611663510611743,"106":-0.040659542811563594,"107":-0.10517657937247547,"108":-0.09475564013352673,"109":-0.07097362846722437,"110":-0.2173548311114352,"111":0.05984266882308148,"112":0.03093340164521561,"113":0.07246283253285025,"114":0.04334891713487675,"115":0.06964772966615171,"116":0.051154612467864916,"117":0.004372578312451195,"118":0.08253294552029823,"119":0.002103507642056336,"120":0.061757411141726726,"121":-0.11464426353871082,"122":-0.18664502397229346,"123":-0.06793353207688309,"124":-0.0303591275539337,"125":0.08112075715275452,"126":-0.035621551773087415,"127":-0.21167246519389582,"128":0.06516346135961051,"129":-0.09487609433410919,"130":-0.08833425751469608,"131":0.06572292977761549,"132":-0.06137952526382925,"133":-0.024570937990548346,"134":0.0773729331006264,"135":-0.024359414042325393,"136":-0.21213270159064382,"137":-0.025720114009070285,"138":-0.16194209546578509,"139":-0.11984815614211668,"140":-0.14394486482143326,"141":0.0350374057684702,"142":0.06358740119509547,"143":-0.009644936367101247,"144":-0.09037395024552933,"145":0.039949078146740334,"146":-0.09665692041380917,"147":-0.16285801774706907,"148":0.020775327543647585,"149":0.09960942803522253,"150":-0.17030977506680364,"151":0.0064266567071783525,"152":-0.05489338935477107,"153":0.13090860047696304,"154":-0.18998217743895845,"155":-0.07820918868597912,"156":-0.15507742807635114,"157":-0.031249623965754356,"158":-0.07157304764901108,"159":0.005775235756197897,"160":0.06459435881933262,"161":-0.02038910591584019,"162":0.0028368936157532904,"163":-0.03717826142873826,"164":0.1852908158432376,"165":-0.11619692779504724,"166":-0.01153740150665793,"167":-0.010089192046393247,"168":0.22011696898761224,"169":0.004261870649984199,"170":-0.015914076238994462,"171":0.09674528533114353,"172":-0.03976110972411176,"173":-0.007411492731332837,"174":0.24094472696107083,"175":0.04945450565365115,"176":-0.11535264826200474,"177":-0.1335147891305461,"178":-0.11354152127635728,"179":-0.04189867203106329,"180":0.03597334741746323,"181":-0.021521640313016628,"182":0.08385628679659665,"183":-0.01759348417069815,"184":-0.24817430070401317,"185":0.046636995245583235,"186":-0.18615376117002475,"187":-0.05427954651302783,"188":-0.019228388824491432,"189":-0.07366718366981857,"190":0.047566410570332,"191":-0.009620777591322094,"192":-0.07640400919280424,"193":0.02031843900424402,"194":-0.005264641817429694,"195":0.07134839037586775,"196":-0.007934256726398392,"197":-0.057326067579187755,"198":0.08135189971872248,"199":0.055010963451968}},{"sx":5,"sy":5,"depth":8,"w":{"0":0.1173822722841128,"1":-0.06984760199299148,"2":-0.0990237114321496,"3":0.00017196403793406074,"4":-0.03549946340437837,"5":0.07221860826757809,"6":-0.06442708375136838,"7":0.021330544951158492,"8":-0.07407551193543296,"9":-0.006768166441055535,"10":0.06613350339226336,"11":0.06420534936072982,"12":-0.1288245809875872,"13":0.0893251603975533,"14":-0.09250800940112935,"15":-0.10557716392475427,"16":0.06954840442563893,"17":0.0733935820939266,"18":0.08813524419208729,"19":-0.078036488168149,"20":-0.0385485058419234,"21":0.012482275580282538,"22":0.07020961110783318,"23":0.006930870837496375,"24":0.17271816537382564,"25":-0.07990233934940327,"26":0.08702106576830293,"27":-0.07104759777358494,"28":0.14577811972628382,"29":-0.09809526911498541,"30":-0.09428730217985631,"31":-0.13878993086791183,"32":0.21924858543935202,"33":-0.06049002117722038,"34":-0.008653944876215148,"35":-0.16867794417312673,"36":0.20154908825458545,"37":-0.11113360373864999,"38":0.061428049752944566,"39":0.18955911755669336,"40":0.06531929348284035,"41":0.12183617912501384,"42":-0.01020448065340649,"43":-0.04793386023138837,"44":0.05687648464175097,"45":0.013354680335474012,"46":-0.22860855509204095,"47":-0.08748042968529401,"48":-0.018211278031871482,"49":-0.039729373641874316,"50":0.0437254611710954,"51":-0.021614404543102955,"52":0.051371163992415585,"53":0.010377418986790815,"54":-0.04231513188469487,"55":0.038416077386273825,"56":-0.08806370246913828,"57":-0.02155537054249498,"58":-0.006457100223274019,"59":-0.033604915476461855,"60":-0.09317693394583247,"61":-0.01182704811777444,"62":-0.11140611336679926,"63":0.08168014234635465,"64":-0.08646247276264545,"65":-0.13804725574344165,"66":0.0680565085589133,"67":-0.08337520968389468,"68":0.08801059833229315,"69":-0.11252653147399387,"70":-0.09903059496222695,"71":-0.07629316617408442,"72":0.1971773410553241,"73":-0.005010864997283523,"74":-0.09480779048492781,"75":-0.028158144053479092,"76":0.1390163964322303,"77":0.0452905744230648,"78":0.08343713798892474,"79":-0.19926954997997717,"80":0.01656541190239136,"81":-0.01905042789814771,"82":-0.03077693929091031,"83":-0.04335828083286969,"84":-0.13742312790781638,"85":0.02564705676749206,"86":0.060526674844903754,"87":0.1756850707342866,"88":-0.04388115737470742,"89":-0.061575048082597235,"90":-0.17829348034973275,"91":0.028081047042150517,"92":0.05382324823577044,"93":0.055375098233251235,"94":-0.03963617204212742,"95":0.15468025138676778,"96":-0.13015272533428252,"97":0.07172039306213743,"98":0.07340883068686099,"99":-0.03431244962755795,"100":-0.06410819240648759,"101":-0.05166511091847349,"102":-0.0034162223205539254,"103":0.032420547739042405,"104":0.05055404116043412,"105":-0.20268667282780886,"106":-0.18239120668126002,"107":0.03957450274426496,"108":-0.06515648204569915,"109":-0.06313098906046674,"110":-0.028909612798408382,"111":-0.12569782723196665,"112":0.2615487096393553,"113":-0.03637413786119593,"114":-0.22113281068388926,"115":-0.16201424039228984,"116":0.17694254570860235,"117":0.017411307583002238,"118":0.2296077155506793,"119":-0.15540651922026472,"120":-0.05714653212287228,"121":0.0276869173516514,"122":0.002279475078922745,"123":-0.050311313719023504,"124":-0.03772222810170227,"125":-0.005652815147582708,"126":0.04710349361415255,"127":-0.022663618417465173,"128":0.01400017345657513,"129":-0.09529755432319786,"130":0.10683124484596475,"131":-0.08296559969119877,"132":-0.07463880735067215,"133":0.03722334514139526,"134":-0.24267919964193765,"135":-0.11292936659809476,"136":0.013045958857542886,"137":-0.011927754505251048,"138":-0.05535342577266407,"139":-0.12167377278236248,"140":-0.2021228139522374,"141":-0.100537925298854,"142":-0.17441361872421052,"143":-0.0836264383876423,"144":0.0224860580320012,"145":0.04605135853861349,"146":-0.0101057919175598,"147":-0.07931000734068917,"148":-0.16538100241987028,"149":-0.04661645908648296,"150":-0.3574551764142563,"151":-0.1902625749599182,"152":0.27608089611015485,"153":0.03556022195989247,"154":0.05700070060599073,"155":-0.18803234811581668,"156":-0.1763053099920683,"157":-0.07192241964655886,"158":0.22247896322906907,"159":-0.16178504718779962,"160":0.0354968261778925,"161":0.03311373662234907,"162":0.03149917282577618,"163":0.034680266579009106,"164":0.07885401013441344,"165":-0.09160178063040743,"166":-0.017693678735000527,"167":0.03336044200183427,"168":-0.036708276744159864,"169":-0.16347736202547256,"170":0.00941133183721099,"171":-0.037603754257735655,"172":-0.06985878941440714,"173":0.0016355809333550304,"174":-0.01920390282501472,"175":0.05974194749004278,"176":0.1075940605418796,"177":-0.12902011917854264,"178":0.04012755709340062,"179":-0.0570346104040587,"180":0.09647517993151085,"181":0.044992217997047106,"182":-0.027609435824236413,"183":0.1649529206898477,"184":-0.2307703740585979,"185":-0.18540802649994126,"186":0.003998465763453545,"187":0.05851030955450343,"188":-0.15495389677867485,"189":-0.1487567760428465,"190":-0.20058153507825408,"191":-0.021148143515907564,"192":0.027498960979735164,"193":-0.04293894538620598,"194":0.09570839705041198,"195":-0.21775405172810064,"196":-0.011973221496822844,"197":-0.12453581759962473,"198":-0.17437140889789915,"199":0.041291074105542475}},{"sx":5,"sy":5,"depth":8,"w":{"0":-0.07729246574356025,"1":0.018225055496922816,"2":0.1753377225299638,"3":-0.0023694761725567455,"4":-0.07286271352411622,"5":-0.008161124794328619,"6":0.0011648303287261387,"7":0.037993402476068305,"8":-0.00024218661028419663,"9":-0.12351942574806819,"10":0.18097751020017025,"11":-0.041467001487670914,"12":-0.026953803039987026,"13":-0.09134947814807459,"14":-0.1490213387993429,"15":-0.017544366258492892,"16":0.11184348642813918,"17":-0.12365669973587806,"18":0.18195801270376244,"19":-0.017986597193421515,"20":0.04947507981642647,"21":-0.10780080140633362,"22":-0.115472436350694,"23":-0.15125409978818705,"24":0.21095550270923846,"25":-0.1564749817534658,"26":-0.13608857143495504,"27":-0.004859896145104945,"28":-0.07165917530895559,"29":-0.04584854230917146,"30":-0.021298624571529756,"31":-0.12771583740649967,"32":0.027069872041070087,"33":-0.10648299206156366,"34":-0.1540615818205085,"35":-0.018085819855200445,"36":-0.010634838370695752,"37":0.16142257808196123,"38":-0.04666397796458402,"39":-0.14718575542736498,"40":-0.06715397452972319,"41":0.08635805152265218,"42":0.05042644770979067,"43":0.050112018979116754,"44":-0.009643148119724058,"45":0.11408980166977793,"46":-0.18531770366579806,"47":-0.03884275874339352,"48":-0.05040176574885998,"49":-0.12682216538951802,"50":0.08462733669369633,"51":-0.1371185195713808,"52":-0.11734812016809841,"53":-0.0452269052944647,"54":-0.15275892512956787,"55":-0.006733074026865399,"56":0.07530387896463603,"57":-0.2731267347413829,"58":0.01922831477608634,"59":-0.17588916134781735,"60":0.18018245581828293,"61":-0.29868755621943677,"62":-0.005126267033933329,"63":-0.06823314319288258,"64":0.13381163987286696,"65":-0.24832454291162834,"66":-0.22287874703527447,"67":0.03536183052697154,"68":0.0048703138884751765,"69":0.034254292921586826,"70":0.022404873514526705,"71":-0.10335759315324405,"72":-0.12954635959696145,"73":0.15270442758502561,"74":-0.266855227162904,"75":0.17224585721508925,"76":0.08350537755032057,"77":0.12973823042847282,"78":-0.05303284634302037,"79":0.05167785713672279,"80":-0.1734034493351864,"81":-0.025006058183185596,"82":-0.08643767908137544,"83":0.10856815808748124,"84":-0.12289527668111447,"85":0.010261282329497683,"86":-0.08669910395533405,"87":-0.023531768189215558,"88":0.06860328299159027,"89":0.020834274028433176,"90":0.16704347214972684,"91":-0.041695680806771176,"92":-0.02699789916854768,"93":-0.12439166047952024,"94":-0.12241890187516836,"95":-0.13479135609094078,"96":0.07505581009989526,"97":-0.18851806490185516,"98":-0.22067221253712016,"99":-0.3035000699867573,"100":0.1435461880486166,"101":-0.16268542768421332,"102":0.05088712645004319,"103":-0.16340817638056426,"104":-0.08094436026801063,"105":0.13080083125768616,"106":-0.22023400217814554,"107":0.24590788448674183,"108":0.07931812477574345,"109":0.13749071056116638,"110":0.07666560636547513,"111":0.030332142884015707,"112":-0.17824645231758188,"113":0.25210896127548243,"114":-0.11510272912243452,"115":0.10728502873888196,"116":-0.1344864983533074,"117":0.22484509811668849,"118":0.001554264977499317,"119":0.14345558374463882,"120":-0.10248796632449284,"121":0.20387034588333297,"122":-0.03258401328887742,"123":0.15701785537887272,"124":-0.1202890832936336,"125":-0.0028887492627608894,"126":-0.018253143429415926,"127":0.07803935450934514,"128":0.01914582895510881,"129":-0.00989870633857911,"130":-0.07978186341162777,"131":-0.11992273268318879,"132":-0.05603451225526466,"133":-0.09020098947796394,"134":-0.07998524404756875,"135":-0.036981752479630065,"136":0.12774589218575033,"137":0.019959615450392515,"138":-0.42841390308634364,"139":-0.06922486945638687,"140":0.09262118139077602,"141":0.11796466443038366,"142":0.09266270349735178,"143":-0.10221111438311416,"144":-0.009259751298749723,"145":0.17154353502779535,"146":-0.2539964459026764,"147":0.3335095441219019,"148":0.0363221810937824,"149":0.16299962263925036,"150":0.07896989184466197,"151":-0.057164375100083195,"152":-0.029714308656651353,"153":0.08232992778048186,"154":-0.030942437911867685,"155":-0.08343287383501063,"156":-0.041909293649363355,"157":-0.05186139383910841,"158":-0.06333145346715802,"159":-0.05599624777674325,"160":0.03525491477790499,"161":0.01586252909992601,"162":-0.05211342862581553,"163":-0.08637196572840963,"164":0.06456733203900943,"165":0.09359148986584728,"166":-0.055786694027261795,"167":0.030555501807049187,"168":0.17836349061393172,"169":-0.08268253768583268,"170":-0.205167705807007,"171":-0.12850256504212418,"172":0.014176885228880125,"173":-0.20663394203439253,"174":0.043431475097736386,"175":-0.006036064050398607,"176":0.17969111153991368,"177":-0.09595955951621522,"178":-0.3281776195303905,"179":0.07698288575954122,"180":-0.06361177229507894,"181":0.07254254300636605,"182":0.13047969864565997,"183":-0.29013831938207907,"184":-0.054767086675532844,"185":-0.07307041785662809,"186":-0.22390774189495574,"187":0.23072751629873248,"188":-0.10897524097778115,"189":0.11114462652835369,"190":0.1427424670156343,"191":-0.09529623046163722,"192":-0.04848374807359065,"193":0.020896275903804325,"194":-0.2802396177327495,"195":0.10784843120760955,"196":0.1051237880790266,"197":-0.25728303326658325,"198":-0.08666064858873761,"199":0.09662159671103127}},{"sx":5,"sy":5,"depth":8,"w":{"0":-0.04201115395617336,"1":-0.10884431854331207,"2":-0.03553028067118087,"3":0.1185098990631217,"4":-0.006346260933100515,"5":-0.0010900431413035261,"6":-0.08296659338697501,"7":-0.050851663008004803,"8":0.0737786075201871,"9":-0.045452756429937624,"10":0.18427534247530125,"11":0.14376213536473556,"12":-0.04993583745707502,"13":-0.15904135690542173,"14":-0.15097292015100633,"15":-0.09696495049972127,"16":0.04913995733889601,"17":-0.11774936514985754,"18":0.06567347851169368,"19":-0.16870423114249425,"20":-0.018041098999409748,"21":-0.08509772141698564,"22":0.0025448272307150538,"23":-0.10096865210157427,"24":-0.05817039711372242,"25":-0.056704860359799845,"26":0.024496713404635793,"27":0.054641764952380226,"28":0.24714418399139187,"29":0.006471822654272284,"30":0.16136901188467698,"31":-0.12171902206165462,"32":-0.009870367113895204,"33":0.23739823810509475,"34":0.07275390705032983,"35":-0.008913315490916346,"36":0.23780295616223163,"37":0.08038112324108983,"38":0.08388768670125721,"39":0.08522129936342031,"40":-0.17735008759772916,"41":0.0029174142362545946,"42":-0.0008298154493211692,"43":0.10823102178679944,"44":-0.23832389316213545,"45":0.0390269483943518,"46":-0.16295984001104702,"47":-0.0412950031248604,"48":0.04233767496373729,"49":-0.04089590795264103,"50":-0.07331186419290507,"51":0.0015729135017145393,"52":0.04065269256021254,"53":-0.1351620805497361,"54":-0.17960482201455197,"55":-0.05361294794623446,"56":-0.028621455418365756,"57":-0.09498864922939497,"58":-0.20037516904304312,"59":-0.029276236964998537,"60":0.14181997297056642,"61":0.04468428746997854,"62":0.2176332832612868,"63":0.09452146711527651,"64":0.12215970187560489,"65":0.04512196764232523,"66":-0.06139613834167731,"67":0.24974549608112667,"68":0.08980811145642169,"69":0.11371486753344101,"70":0.0429352402255007,"71":0.2278758170661146,"72":-0.015279467046138069,"73":0.08782659069878876,"74":0.043198803426205745,"75":0.013954828921723169,"76":0.10969238721213061,"77":0.15218167759765253,"78":0.006694137747247149,"79":0.07366532814593522,"80":-0.024882419321881045,"81":-0.16020040684153278,"82":-0.060155204780724426,"83":0.06324846729092712,"84":-0.06208882288486421,"85":-0.11163602172251291,"86":-0.18682605668860444,"87":-0.008399446286133991,"88":0.053507200817524414,"89":-0.11225232429171546,"90":0.010340329942934602,"91":-0.053697246598055984,"92":0.05615440496042306,"93":-0.08810229417428371,"94":-0.152544097286208,"95":-0.06574053324608728,"96":0.07147324053016747,"97":-0.06598179627816429,"98":0.03932117484798992,"99":0.0750002925845453,"100":0.021026340011004126,"101":0.03419026366457134,"102":0.0010227890489594793,"103":-0.049229268132610034,"104":-0.017951507543897762,"105":-0.03013306593468102,"106":-0.07562237565320538,"107":0.13308880336392184,"108":-0.030700172778214987,"109":0.3120067728838801,"110":-0.05338949312650319,"111":-0.06695015793829015,"112":0.019805649135400727,"113":0.1537852084410791,"114":0.03926512568475273,"115":-0.007338944676456747,"116":-0.07881845689490125,"117":0.1571209500942391,"118":-0.09083945556953493,"119":-0.13265853015434262,"120":-0.19474905903910267,"121":-0.19024481202217225,"122":0.10181679920695548,"123":0.0856869145169909,"124":0.15546211577913843,"125":-0.21299420431161478,"126":-0.042676967709210194,"127":0.15916681127671906,"128":-0.04100302147065644,"129":0.05903688716597557,"130":-0.0775903758765897,"131":-0.06751811430498156,"132":0.13369123734254942,"133":-0.13919720828325688,"134":-0.09614113249299883,"135":-0.15142696918291404,"136":-0.024176256396629108,"137":0.048943259257833625,"138":-0.09864073552000989,"139":0.19366779787051744,"140":0.041976717967151245,"141":-0.013345878458086479,"142":-0.09646309466963178,"143":0.016930615830257394,"144":-0.10625014337421458,"145":-0.011287547328084166,"146":-0.0027593389693704564,"147":0.15767850644467835,"148":-0.11449909566726725,"149":0.08292031920996608,"150":-0.06688408463637684,"151":-0.02666017437308498,"152":-0.12240485908463734,"153":-0.15120706347785753,"154":-0.019168375572462266,"155":-0.0053619894707100995,"156":-0.21490241070268165,"157":-0.09007932083343058,"158":-0.2793777863620993,"159":-0.0748297693504245,"160":-0.01969492707126447,"161":0.06474042578557242,"162":-0.03333742392922469,"163":-0.12014626386904632,"164":0.2699713569806484,"165":-0.1767692312913931,"166":0.07660242722994474,"167":0.12332820096181846,"168":-0.23620481208880217,"169":-0.06664562965842304,"170":-0.15085820764799715,"171":0.007552969817849286,"172":0.005345799210294321,"173":-0.06694714021862593,"174":0.0833867051026302,"175":0.17636150856935173,"176":-0.18034090493930824,"177":0.09009254177571195,"178":-0.08909536909791733,"179":0.04693419635529048,"180":0.04458870622689111,"181":0.23996370201415518,"182":0.02476639293453817,"183":0.00040000922127560233,"184":-0.2327651080003761,"185":-0.1263847847931669,"186":0.02859865384350554,"187":-0.15845571205526476,"188":-0.30525271107595026,"189":-0.1234056320286362,"190":-0.09942142657719591,"191":-0.12140657586878266,"192":0.0003484007863387784,"193":-0.15174632399655336,"194":-0.03234959732608792,"195":-0.24966561752474195,"196":-0.05816739051377522,"197":-0.10317642595338976,"198":-0.24885167648633577,"199":-0.2912851677316883}},{"sx":5,"sy":5,"depth":8,"w":{"0":-0.05811771872254252,"1":-0.12621841397700895,"2":-0.030986414000304236,"3":-0.07623405900837293,"4":0.0047741239630673445,"5":-0.026469770961449,"6":0.22587796690024192,"7":-0.03125362271319049,"8":-0.026390545629308055,"9":-0.04647296657725222,"10":0.13483770555634958,"11":0.030223888202026195,"12":-0.037453404852924005,"13":0.10602340381053059,"14":0.03834271622392029,"15":0.10545639108655395,"16":0.05384967034020942,"17":-0.07277562856069415,"18":-0.12921621699262253,"19":0.04246746233120718,"20":-0.025155453327945873,"21":-0.016072451893497302,"22":0.10427617533051202,"23":0.07655690228129206,"24":-0.048376379958394666,"25":0.0029732657764527477,"26":-0.12048554531708876,"27":-0.09388972320817837,"28":-0.006368666409696285,"29":-0.11256785586610378,"30":0.056790936051082604,"31":0.04926904612231638,"32":-0.0037418802783980524,"33":-0.030613344327680758,"34":-0.06393066452021125,"35":-0.059560525693554696,"36":0.04492969514462891,"37":-0.1806871380758193,"38":0.045902299358332045,"39":0.07362603221741716,"40":0.029585160475328203,"41":0.017120861298692225,"42":-0.005588358242110185,"43":-0.038007324812072946,"44":-0.059321163140194276,"45":-0.01685556871812127,"46":-0.010744090497792782,"47":-0.052036064878490884,"48":0.16470035458756527,"49":-0.01021077348620828,"50":-0.047181091726458145,"51":-0.03538633179516119,"52":-0.04475666460038141,"53":-0.014822229352565055,"54":0.08083641943130451,"55":-0.1484741505164592,"56":0.04278042574768897,"57":-0.06230824412771051,"58":0.03934840806584346,"59":-0.120412022018913,"60":-0.029288943071901347,"61":0.09415353964426071,"62":0.14370787353467135,"63":0.05273070075652413,"64":-0.16647645693266136,"65":0.12276230564751689,"66":-0.10792582859756535,"67":-0.12444803723248417,"68":0.0028157762108419627,"69":0.01719332451678481,"70":-0.02995671488602297,"71":0.15327747334922337,"72":0.04015411502758354,"73":0.13347026816177185,"74":0.029350534030882867,"75":-0.1522864418171252,"76":0.1225320939253082,"77":0.09573040574361542,"78":0.11770327963856143,"79":0.18270564651777396,"80":-0.023545923220063658,"81":-0.021746080848945297,"82":0.02533298040730155,"83":-0.16111281237178543,"84":-0.213706580934567,"85":-0.09963363330298276,"86":0.06620648553051331,"87":-0.14743142365821063,"88":-0.04708793902129713,"89":-0.0326785231536245,"90":0.16057516264646166,"91":-0.18491598321685268,"92":-0.21442399631533937,"93":-0.10468771036001595,"94":-0.20580853925981088,"95":-0.1784936614655924,"96":0.130660722669079,"97":0.13637671243820598,"98":0.23983694879869746,"99":0.11978616741998,"100":-0.12929285193334156,"101":0.04184030051538358,"102":-0.0716843961580312,"103":-0.2546664952635917,"104":-0.04880904479445475,"105":0.15037733368371475,"106":0.4617653003411417,"107":0.02161328018852194,"108":-0.15193444664715822,"109":-0.00808055580185081,"110":-0.12626065998423458,"111":-0.08240225893393233,"112":-0.05843786576234575,"113":0.03056767193966678,"114":0.2934602899354926,"115":-0.1324027423595563,"116":-0.05585000274731316,"117":-0.041024423812957705,"118":-0.000034603874054120335,"119":-0.08252646377219659,"120":-0.011418281068267092,"121":-0.21064547966878125,"122":-0.24256240929601222,"123":0.02069179815213964,"124":-0.03526271946386445,"125":-0.24386302571535984,"126":-0.11220533261299366,"127":0.025185120806145087,"128":-0.17305705749041828,"129":-0.028654111764779104,"130":-0.010120915151042697,"131":-0.015098245467625154,"132":-0.00848337444090382,"133":-0.1936569753078261,"134":-0.1443601180216563,"135":0.10749756373985733,"136":0.01677210799013255,"137":-0.18043775827168257,"138":0.09282796910745271,"139":-0.0075875324185862925,"140":-0.02924263159506258,"141":-0.18610168754844555,"142":-0.030595608606668497,"143":-0.001525964432067503,"144":-0.04578010354076926,"145":-0.0936753584920019,"146":0.15248220423771813,"147":-0.05763110375452021,"148":-0.11266288599416283,"149":-0.11589056854884384,"150":-0.009988222812096877,"151":0.019263705266291026,"152":0.04894695659050662,"153":-0.00438071488254476,"154":0.024580407074659166,"155":-0.002477032543781673,"156":-0.09903889304808439,"157":0.04023402926905924,"158":-0.03926852119986204,"159":-0.15379721586346123,"160":0.041751662749550264,"161":-0.11028697848719958,"162":-0.0742101453072031,"163":-0.041066730834551764,"164":0.11394586814424709,"165":0.0048816831565466415,"166":-0.06097697887084119,"167":0.12542803155220691,"168":0.11990283465184862,"169":0.031699056463384244,"170":-0.053153525268761805,"171":0.1284880354362258,"172":0.1759617699536945,"173":-0.07443951161932834,"174":0.014803701493863909,"175":0.1080168515495557,"176":-0.1912913950237525,"177":-0.007266760989894134,"178":-0.14675472671534284,"179":-0.010327811112326684,"180":0.12709524263253585,"181":-0.04638142220702933,"182":0.04025830458457599,"183":0.06159324730076551,"184":-0.04077544414501898,"185":0.020970324904274727,"186":-0.11759131316880533,"187":-0.014373685157173003,"188":0.022055786527559983,"189":-0.0637621372604907,"190":0.09911107354422227,"191":0.14274242411766916,"192":-0.04522179766674935,"193":-0.003909712183955017,"194":-0.2618646555203272,"195":-0.02047797441526329,"196":-0.04572564738726879,"197":-0.015503634345511186,"198":-0.06115725234306372,"199":0.021363683419665356}},{"sx":5,"sy":5,"depth":8,"w":{"0":0.2587208167532007,"1":-0.13755881540849085,"2":-0.19630164638259287,"3":-0.03943674212931789,"4":-0.05876630719290924,"5":0.16403984823642423,"6":0.36727847036973854,"7":-0.028231948046710496,"8":-0.1495117249774294,"9":-0.0980808783973434,"10":-0.22409632752072772,"11":0.10233913393583444,"12":-0.0378669173621779,"13":-0.06963110198328333,"14":0.15087938048663987,"15":0.12810359855911715,"16":-0.19863679775250023,"17":-0.07049900780280897,"18":0.026432063822645586,"19":-0.018591196904611244,"20":0.04360184806204215,"21":-0.12635773154888671,"22":-0.05924785148494807,"23":0.2008052987561834,"24":-0.08832254786362012,"25":-0.1446443678503068,"26":0.10542865598769639,"27":0.12961283476293162,"28":-0.03416277871251502,"29":-0.06830218110284635,"30":-0.02309451474480952,"31":0.005703848070645952,"32":-0.04136698460768996,"33":-0.09266010785915,"34":0.09496884952821479,"35":0.022723072647227692,"36":-0.14958340830651184,"37":-0.07230941243944501,"38":-0.09076389727412534,"39":-0.013419961889520575,"40":0.3539096946991224,"41":-0.11164725452109907,"42":0.09371811082632109,"43":-0.07402181906494434,"44":-0.19259103860931803,"45":-0.3178367252456644,"46":0.06259606465877557,"47":-0.10002842665860655,"48":0.17311681008979193,"49":-0.21709377675706734,"50":-0.0894202682713927,"51":0.23430756852552512,"52":-0.12263534360809389,"53":-0.07495906062686543,"54":0.19805391756816507,"55":0.03902838192991822,"56":0.043118970617991866,"57":0.07644621334582195,"58":-0.1746713247554372,"59":-0.04300609301631127,"60":-0.0041161093385643395,"61":-0.05370096448248628,"62":0.032731477722206435,"63":0.20109185183203707,"64":-0.21152569291176385,"65":0.031758285440732434,"66":-0.0984163261449894,"67":0.017578380078295895,"68":0.15003593805693918,"69":-0.14421710396630094,"70":0.06334225409170097,"71":0.09154355621435978,"72":-0.14912830407294195,"73":0.06258863726675817,"74":0.029272122765705205,"75":-0.07130884785592846,"76":-0.05358041891849307,"77":-0.14191671242750745,"78":-0.010213592521113124,"79":0.05346546649611076,"80":0.03386913772017941,"81":0.021305932703454666,"82":0.15141474670732594,"83":-0.11660627630960271,"84":-0.02737634567146075,"85":-0.10722908093515354,"86":-0.05499524562097492,"87":-0.22455290932415983,"88":0.2650665146887401,"89":-0.13647183205352503,"90":-0.06683481203742572,"91":0.14164060652057148,"92":-0.014183891183721167,"93":0.05902139330662583,"94":0.027083674278851107,"95":-0.1133154665416191,"96":0.041272216354094476,"97":-0.03310180360465563,"98":-0.11708551984375298,"99":-0.018724621225652723,"100":-0.11843876247955691,"101":0.05413825126462825,"102":0.09647704957336599,"103":0.031082492698586414,"104":0.08992151393911156,"105":0.016866996216338005,"106":-0.19943029990660138,"107":0.033356120247541164,"108":0.004781112863068501,"109":-0.07357643114451358,"110":-0.07245697112359535,"111":0.16786851305792114,"112":-0.23827819542811104,"113":0.02139419838104737,"114":-0.06205045985554181,"115":-0.11609878513734753,"116":0.11738845760205065,"117":-0.0318224820359757,"118":-0.11831688133279786,"119":0.1694009625914608,"120":0.14014109412490344,"121":-0.0917789380095371,"122":0.1127339571502734,"123":-0.09757540982154266,"124":0.00092660987375125,"125":-0.13730103923549097,"126":-0.1328954180598538,"127":-0.11924335099180336,"128":0.08785886491764461,"129":-0.10100417593174038,"130":0.05463031831697608,"131":0.01823034186756427,"132":0.10381516259155625,"133":-0.05361076077438965,"134":-0.06883699064593982,"135":-0.07942916928689706,"136":0.12824332669964164,"137":-0.005082614897364946,"138":0.08413628529158561,"139":-0.01641157646170288,"140":0.0168490920846803,"141":-0.05853906472130499,"142":0.0016613710300620243,"143":-0.1435683495324725,"144":0.09912403163762498,"145":-0.16604719247909452,"146":0.060177943657641036,"147":0.24173660241647096,"148":-0.13172636573357405,"149":-0.06476849791481289,"150":0.22497818651434306,"151":0.00022173137474778288,"152":0.03424208538447855,"153":0.08424810275243469,"154":-0.050399790859552096,"155":-0.1640092401724467,"156":-0.07530670533889848,"157":-0.0800556535005415,"158":-0.10871459258261304,"159":0.1007261964201473,"160":-0.03452345399523148,"161":-0.117541664404194,"162":-0.15708440664263565,"163":-0.10959501914178739,"164":0.01363036238979436,"165":-0.0329935316188992,"166":-0.16384588243589346,"167":-0.11619645806874444,"168":-0.035485056012642194,"169":-0.027859469127257452,"170":-0.0322095590284076,"171":0.029019937360832103,"172":0.051963857474418035,"173":0.04340156831165315,"174":0.03354199760826951,"175":0.036399059026060755,"176":-0.0031075669796815464,"177":0.01915872873490275,"178":-0.046386314130069786,"179":0.11527939539699701,"180":0.11452395418332016,"181":-0.18086585771976513,"182":0.019716526566522227,"183":-0.11518879288695326,"184":0.08240069479182582,"185":-0.03183040053582143,"186":0.02899813781718669,"187":0.08519586723884391,"188":-0.06952669222545609,"189":0.08249858559245032,"190":-0.0025736005804403448,"191":-0.08472548745695059,"192":-0.06859437851268557,"193":-0.06848073730332248,"194":0.03210395389132383,"195":0.14666825058984653,"196":-0.014627054076012369,"197":-0.08092249723665217,"198":0.04116413194822048,"199":-0.1005050045220159}},{"sx":5,"sy":5,"depth":8,"w":{"0":-0.05388648395906737,"1":-0.006303296206313596,"2":0.054587890609611334,"3":0.030771483413174042,"4":0.02477870404967225,"5":0.034587925599458384,"6":-0.07219140664695463,"7":-0.05548575694672001,"8":0.12137115852472276,"9":-0.0006021259374137653,"10":-0.013168227159394594,"11":0.006810481399474017,"12":0.12653385737596276,"13":0.010594505734010978,"14":-0.011831497293694669,"15":-0.17767502677671607,"16":-0.08129699874851955,"17":0.05517511346464992,"18":0.16072775063006062,"19":-0.004798069235920596,"20":0.012032899042182568,"21":-0.038586171519823034,"22":-0.07103516342347845,"23":-0.1625386191224424,"24":0.028418629873386555,"25":0.0346325929605314,"26":-0.03916828436558381,"27":0.06727650217687443,"28":-0.10843539897235217,"29":0.031094090569413462,"30":0.08612695450673188,"31":-0.04388367440139368,"32":-0.09215066382141199,"33":-0.015530030483431248,"34":0.09826057967995065,"35":0.0814379173874404,"36":-0.012353951964122022,"37":0.1314374049844236,"38":-0.12486581987997637,"39":-0.10647480468786738,"40":-0.2884470369051996,"41":-0.005071360444928654,"42":-0.1551086635573698,"43":0.03718472017941469,"44":0.10528575393340091,"45":-0.026115841122752698,"46":-0.07811458982399172,"47":0.10383381070775924,"48":-0.11719659221045596,"49":0.006545441108695146,"50":0.007686367364633635,"51":0.08776641399055476,"52":0.14962504065346202,"53":0.10219764869700149,"54":-0.14758738773518174,"55":-0.07941164743119951,"56":-0.09551896771405878,"57":-0.03391904439604663,"58":0.05688969843349181,"59":-0.02724945266992559,"60":0.145630849419381,"61":0.03829716326828558,"62":-0.06414694272152845,"63":-0.016653351024511168,"64":-0.0372307063490635,"65":-0.11637916488396073,"66":0.07585920108064283,"67":0.07928970473417282,"68":-0.13602312911518236,"69":-0.15200101175133443,"70":-0.17132313292981013,"71":-0.2190421235070506,"72":-0.06369888396163603,"73":0.07149017506423096,"74":0.0066699911581592185,"75":0.03570823967447921,"76":-0.12717521107748817,"77":-0.09354496116250585,"78":-0.10516579709275155,"79":-0.04143339957347698,"80":-0.048273954358239377,"81":0.15099788897119118,"82":-0.029193632787563414,"83":0.06115516788671166,"84":0.07047398086035728,"85":0.04593975637606041,"86":0.09068623022225579,"87":0.2950518544083762,"88":-0.07346405605081821,"89":0.017976654161842614,"90":-0.1265074938463588,"91":-0.023379054774657508,"92":-0.010345864114902266,"93":0.06734188694867989,"94":-0.032967371911404746,"95":0.10592304296294014,"96":0.07439896138516836,"97":0.02677669257760031,"98":0.05488180269439367,"99":-0.09498462800953023,"100":-0.011052182488576846,"101":-0.036705499739982814,"102":-0.05277346726083694,"103":0.0693651854906161,"104":-0.07015719487593891,"105":-0.019055800623797383,"106":0.05681499812450535,"107":-0.030004875670664573,"108":-0.06319396664289105,"109":-0.17597633885415506,"110":-0.06848781138011549,"111":-0.05686421730395092,"112":-0.03971167002829281,"113":-0.03755313031238971,"114":-0.03551736970465884,"115":0.03194204086806518,"116":-0.056703510567544975,"117":0.04321958124054127,"118":-0.03576227188344731,"119":0.03672368065931748,"120":0.1204259646180901,"121":-0.08725342604423544,"122":-0.11266664049559698,"123":-0.0030460572296743056,"124":-0.055505919519693823,"125":0.0077400778453334505,"126":0.1953468410417072,"127":0.06536192399765087,"128":-0.037189264848996643,"129":-0.04322986262549279,"130":-0.15689864579595644,"131":-0.03042226568514403,"132":-0.08404267799762574,"133":0.005860787655029342,"134":0.01505595947582498,"135":-0.012824130399715257,"136":-0.010962335118586427,"137":0.07062024690480637,"138":-0.02984457800824981,"139":-0.09641427670292867,"140":-0.0573681012135959,"141":0.027728962414649127,"142":-0.058152036798473215,"143":0.02786735894062601,"144":-0.08231076778203719,"145":-0.1620339071663672,"146":0.06583413897516216,"147":-0.07210994479348905,"148":-0.04342891550191664,"149":0.005762224932003157,"150":-0.12229142609833553,"151":-0.15191964346658823,"152":-0.04323452484757713,"153":-0.1402812860924959,"154":0.12756946588197038,"155":-0.0026126942723306993,"156":-0.03408202885442182,"157":0.0066483150532279855,"158":0.0908068755986888,"159":-0.05815010391743923,"160":0.049438061991729905,"161":-0.05608342432424681,"162":-0.24393184464282866,"163":0.12891792605889763,"164":0.04956581048891757,"165":0.17580683491531254,"166":0.11044493238901366,"167":-0.03572221097581254,"168":0.04812929602155162,"169":-0.07218351123247893,"170":-0.07983910851800886,"171":0.1346099140552364,"172":-0.2136473477851422,"173":0.13527074075426868,"174":0.10003792238119606,"175":0.016190942626498183,"176":-0.12446512082286033,"177":0.1726005106761404,"178":-0.05442183533680823,"179":0.012820679110644998,"180":-0.047951430130441085,"181":-0.13373248319650477,"182":-0.050846063628231665,"183":0.071616142592397,"184":0.029452912703766074,"185":0.06123586235691056,"186":-0.07792554860100027,"187":0.0030154022555995176,"188":0.006040940388797033,"189":-0.11579032305958392,"190":0.041968923964096204,"191":0.02060359527517505,"192":-0.06585744145023936,"193":-0.026090523118370193,"194":0.04097127988797258,"195":0.10959629364808521,"196":-0.024278234823457295,"197":-0.0673709055350909,"198":-0.11435039518998477,"199":-0.04382815481957594}},{"sx":5,"sy":5,"depth":8,"w":{"0":-0.059125885234414755,"1":-0.07052712072582008,"2":-0.07049959058937351,"3":0.22647841867584212,"4":-0.08899595596392273,"5":0.07739160368142325,"6":-0.1615225894624465,"7":0.07359131721882474,"8":-0.14508227327673265,"9":-0.11363210088086087,"10":-0.14700505227642163,"11":0.041856396641743114,"12":-0.06590608816566655,"13":0.08674804881970051,"14":-0.07107830598440358,"15":0.011038631658931063,"16":0.044200692671615735,"17":-0.05798539006838109,"18":0.020151771521442402,"19":0.021197016613346033,"20":0.011196144634989897,"21":-0.16604731987101004,"22":-0.12890987115132313,"23":-0.13747727285540745,"24":-0.037200473947180825,"25":-0.09999993457066249,"26":0.08570686715660632,"27":0.013990514334183557,"28":-0.14967924290605292,"29":0.0056878814004030906,"30":-0.09782598567856914,"31":-0.20496598256530188,"32":0.10242731385477166,"33":0.07928613734664414,"34":-0.0011563703920773093,"35":0.0806660258647277,"36":-0.2906769899105138,"37":0.1287305761990293,"38":-0.1372507935178365,"39":-0.12373868712128244,"40":-0.1408276642243819,"41":0.10178534200931705,"42":-0.023376758402600433,"43":0.07994923484489314,"44":-0.06262312447905137,"45":0.022451256811091783,"46":0.10762776622585467,"47":0.09083288157081881,"48":-0.13294431759824124,"49":-0.2564430642320348,"50":-0.001710309526456317,"51":0.11334535815162933,"52":0.08258812308414673,"53":-0.07348286900036302,"54":-0.02782365887367033,"55":0.10806378378621273,"56":-0.029783797601349745,"57":-0.11339478384176174,"58":-0.043808051811095566,"59":-0.018949682324269992,"60":0.06623915706497076,"61":-0.14102599238599872,"62":-0.08607823037450468,"63":0.0072661745751449215,"64":-0.16596061065777704,"65":0.12123942375843302,"66":0.014366950835534855,"67":-0.019391719986261272,"68":-0.16679336029991632,"69":0.034120377687065,"70":-0.131950885296204,"71":-0.02013357974412427,"72":0.022622408219780784,"73":-0.11290274208189732,"74":0.029059177331620504,"75":0.11191224355472003,"76":-0.1372663274218457,"77":-0.07125647916500767,"78":-0.23020019291476868,"79":0.04322627396586657,"80":-0.1472396450966759,"81":-0.04710000315241066,"82":-0.11087182508530158,"83":-0.10245899408153541,"84":0.04259062551062949,"85":0.024732585624534873,"86":0.13572721562600623,"87":0.05164437912043445,"88":0.06309035363205243,"89":-0.023827965608043674,"90":-0.14524783931509225,"91":-0.019822987346689996,"92":0.10002554275390169,"93":0.07342588614291587,"94":0.2033357182263461,"95":0.02174445149352883,"96":-0.010277906787144993,"97":0.0366451267012666,"98":-0.1954795461626534,"99":-0.021457237383963792,"100":0.19934466846023471,"101":-0.02553202618657829,"102":-0.015924542205446257,"103":0.11933215007839161,"104":0.04765810159001313,"105":-0.12725705716609467,"106":-0.07051320681091672,"107":-0.049284347308798465,"108":0.26878558185956974,"109":-0.17910951658674867,"110":0.009124684292580402,"111":0.16304215283859497,"112":-0.13670313512298757,"113":-0.18140219574655647,"114":-0.039350830000315855,"115":-0.1381224749497205,"116":0.2044081848786231,"117":-0.0827729086638126,"118":0.10388005832971252,"119":0.1439058590870096,"120":0.023838010031500434,"121":0.14204307038950212,"122":0.02060075652499834,"123":-0.0552471108193522,"124":-0.09008295998581287,"125":-0.07522079360233136,"126":0.022950999889475264,"127":0.056598259424706275,"128":-0.09566341654512683,"129":0.13717870986627917,"130":0.12071504972037178,"131":-0.046756953343440336,"132":-0.0049625864097899795,"133":0.09878674650335204,"134":0.010230869262205762,"135":-0.06884374786958945,"136":-0.018391352277432264,"137":0.12418605468019575,"138":0.02956562181971634,"139":-0.1849004838928602,"140":0.019500576093198163,"141":0.017045283244591005,"142":-0.019386976496897912,"143":0.09782513943180571,"144":0.156537707552232,"145":0.17132325791504718,"146":-0.04380849299282579,"147":-0.0389107219941108,"148":-0.06555340810383527,"149":0.11789237915675367,"150":0.0033809164174198737,"151":0.05258542016755053,"152":0.1628002913014112,"153":0.1262229008661608,"154":-0.07158951641842828,"155":-0.21610482990467822,"156":-0.030913563111450243,"157":-0.02238391274409962,"158":0.07711397300688477,"159":0.09738855798397308,"160":-0.050979615544387125,"161":0.0837120633279558,"162":0.19965123965461362,"163":-0.09955158694612447,"164":-0.09572376430899603,"165":-0.04126386936629957,"166":-0.10124225764554115,"167":-0.22438533907766056,"168":-0.0015369644456300778,"169":0.0781413388855325,"170":0.26569705444166186,"171":-0.050269063165031144,"172":-0.12719488244449703,"173":-0.07748551212371037,"174":-0.1564819505996537,"175":-0.20547021853873504,"176":-0.13481551422455257,"177":-0.001283210424497347,"178":0.19271256060478523,"179":-0.09288811511391869,"180":-0.22866973204263705,"181":0.11327477175874659,"182":-0.08119894610797775,"183":-0.13715366322030945,"184":0.004064899479234501,"185":-0.1308047730566434,"186":0.15387119208444205,"187":-0.13253308992125842,"188":-0.1283619795061608,"189":-0.015307017781817315,"190":-0.03133676311038184,"191":-0.24581292207278935,"192":-0.024705015837271707,"193":0.14817480822475246,"194":0.15978917767225392,"195":-0.02392406316053243,"196":-0.11695360141897906,"197":-0.05423381615150952,"198":-0.11363642532100175,"199":-0.1702740498632804}}],"biases":{"sx":1,"sy":1,"depth":16,"w":{"0":0.07852634979900451,"1":0.05733253236649698,"2":0.015155830208778646,"3":0.05613642049194802,"4":0.005735742568808387,"5":0.08813419243084786,"6":0.0318487145814381,"7":0.09248371314064908,"8":0.044560054901170494,"9":0.053121089831831406,"10":0.07858089330207012,"11":0.05451165801302568,"12":0.04724727451203062,"13":0.09111951514086084,"14":0.09677490925775632,"15":0.04977426360449022}}},{"out_depth":16,"out_sx":14,"out_sy":14,"layer_type":"relu"},{"sx":3,"sy":3,"stride":3,"in_depth":16,"out_depth":16,"out_sx":4,"out_sy":4,"layer_type":"pool","pad":0},{"out_depth":10,"out_sx":1,"out_sy":1,"layer_type":"fc","num_inputs":256,"l1_decay_mul":0,"l2_decay_mul":1,"filters":[{"sx":1,"sy":1,"depth":256,"w":{"0":0.010743962577705237,"1":-0.1177869968132061,"2":-0.10105613106922945,"3":0.01996065049459181,"4":-0.004148070321487387,"5":-0.09057387348839945,"6":-0.08222937596580861,"7":-0.01779754768637401,"8":0.003600427022429352,"9":-0.10758758224136976,"10":-0.14582570757928975,"11":0.08851788113918156,"12":-0.05869734480460329,"13":-0.06320497194883477,"14":0.07056709377029245,"15":-0.1141463019999524,"16":-0.10134032916152064,"17":0.004032506021488326,"18":0.18740927340558214,"19":-0.08026661993980613,"20":-0.02382485530850508,"21":0.003026150698246582,"22":-0.11313695629337425,"23":0.052168981374121855,"24":-0.05851850526407724,"25":-0.03355232323358034,"26":-0.2095650265332813,"27":-0.2195791096690089,"28":-0.01999969711457181,"29":-0.03595511908443724,"30":-0.07845306369954186,"31":-0.0007468752833250435,"32":-0.05262723653063675,"33":-0.15175035671913173,"34":0.017978039550220985,"35":-0.06646094845196499,"36":-0.15162558733837136,"37":0.06542813545164852,"38":-0.21609225814025146,"39":-0.025834586624152302,"40":0.030859222494436993,"41":0.016382998241880085,"42":0.04555170740054402,"43":-0.08613725712113449,"44":0.020967077033614043,"45":-0.06725554063574452,"46":-0.017204910535140318,"47":-0.10439532514771073,"48":-0.08074448249032838,"49":-0.02162999642539124,"50":0.016535641670590503,"51":-0.12251586580520148,"52":-0.04159245043046445,"53":0.1398047561241556,"54":-0.14224916024890638,"55":-0.06514756417827927,"56":0.02612810756269685,"57":-0.009039842096602146,"58":-0.036861233503780996,"59":0.05678169117085283,"60":-0.06954929742412258,"61":-0.12908784838330484,"62":0.0568309355241044,"63":-0.07834691176257587,"64":-0.013326420083777645,"65":0.0025702293605143513,"66":0.11318428577400849,"67":0.02769702325117002,"68":-0.20895637803973852,"69":-0.01904227305812084,"70":0.1660124568769117,"71":0.0578337505171145,"72":-0.036908009473849826,"73":-0.22244710641630905,"74":-0.0883895889995182,"75":0.022474892121481807,"76":-0.10659919684116553,"77":0.10711485020259892,"78":-0.004760621954912416,"79":-0.23994700465866028,"80":0.006014001209349588,"81":-0.05022468603072475,"82":0.010710047124203152,"83":0.05163622265636881,"84":0.003483194603573352,"85":-0.08441782727415134,"86":0.15634957578470146,"87":0.011459003502939017,"88":0.037949280842234666,"89":-0.11075409118667424,"90":0.06162024355774331,"91":0.11489161869919741,"92":-0.0920508291673907,"93":-0.053086616804960865,"94":-0.016351663332554358,"95":0.02667757019750621,"96":0.04267720635948524,"97":0.06309165376593218,"98":-0.11577300923496008,"99":-0.09509213266041529,"100":0.0933456719277651,"101":-0.15091391343802585,"102":-0.007417793477602235,"103":0.0475654455755917,"104":-0.14267488905150752,"105":0.20960259479832935,"106":-0.11402774544275618,"107":0.05127137559760778,"108":0.017478330891916565,"109":0.04058544693036892,"110":-0.046696903757060156,"111":-0.07181951662940092,"112":-0.06347511429995639,"113":0.09489233972024204,"114":-0.09343254293706706,"115":-0.12081191533851156,"116":-0.07145803868409856,"117":-0.07498913790759723,"118":-0.09805103300600664,"119":-0.06494559747708038,"120":0.035573020564327394,"121":-0.06804552590709419,"122":-0.0658562800322334,"123":-0.25621285970085866,"124":0.03449669843948455,"125":0.1063378554769104,"126":-0.08482312051232786,"127":0.015261741239246769,"128":0.017455070121598436,"129":-0.05938888830009015,"130":-0.13967761806339615,"131":-0.003933306321003595,"132":-0.08026999890795049,"133":-0.0323970845080726,"134":0.10405490304437315,"135":-0.005831265407700723,"136":-0.05994370543677398,"137":0.07588315010468316,"138":0.12511191620950737,"139":-0.20848715316184474,"140":-0.03404115097112722,"141":0.043243324889328305,"142":-0.0007539799562093493,"143":-0.14118463052576904,"144":0.008247404097001388,"145":0.14581043260685767,"146":-0.2237378537106256,"147":-0.043144520161248444,"148":-0.15869900412877058,"149":-0.008138361081674223,"150":0.06877750226537924,"151":0.054846574228037084,"152":0.2540850012446792,"153":-0.14987179529609843,"154":0.12399529033951665,"155":0.005042620821398818,"156":-0.07061803670614164,"157":-0.07955060064219562,"158":0.10501453848406221,"159":-0.1576641595542564,"160":-0.20974309251648046,"161":-0.06297891228886149,"162":-0.1005070791757765,"163":-0.15848415295741883,"164":-0.19541109501217954,"165":0.10240400623873097,"166":-0.23386938573283317,"167":0.019560159244970378,"168":0.061730064776872685,"169":0.055289336896195224,"170":-0.02176376840630531,"171":-0.050932884035734045,"172":-0.050086268525055266,"173":-0.2638144302046908,"174":-0.029913080944424214,"175":-0.08508356526870593,"176":0.010720461238074153,"177":0.11193403658743535,"178":0.10317052912094463,"179":-0.10878021461458012,"180":0.020287445349479523,"181":-0.15870257347691263,"182":0.16765363862617724,"183":0.0044937533581019965,"184":0.06993191902157805,"185":-0.03487963805454634,"186":0.06701943045934017,"187":0.26804562524724584,"188":0.016160155833455776,"189":0.09040082204427395,"190":-0.3389972597009067,"191":0.022886894158682412,"192":0.07093853032168207,"193":0.04661020628332746,"194":0.04873466321107597,"195":-0.008003460865789474,"196":-0.04107996675155163,"197":-0.14672678798968367,"198":-0.0007437042865662411,"199":-0.0660331147291411,"200":0.018964756774862063,"201":0.11546342280092259,"202":0.026115104172134064,"203":-0.008689699721529843,"204":0.09133837361441477,"205":0.007815388572483914,"206":-0.13419694705003052,"207":-0.08005034971501734,"208":-0.011797396565769279,"209":0.10893509522569018,"210":-0.13330002813023553,"211":-0.1681920103891059,"212":-0.03445820105598717,"213":0.03695573624747348,"214":-0.05151994456236311,"215":0.07816764218041658,"216":0.18619634670096366,"217":-0.12587492372845313,"218":-0.016580172015410233,"219":-0.0795970081986621,"220":-0.00018441330400936995,"221":0.07082429801581895,"222":-0.01732403437505895,"223":0.006239191379534126,"224":0.10487500534824908,"225":-0.11733654392891098,"226":-0.08046000642041107,"227":0.14615590722422309,"228":-0.007868460655630415,"229":0.014265702335757373,"230":-0.04091118747543173,"231":-0.09745686898995241,"232":-0.11431148100172335,"233":-0.14303794023295427,"234":-0.05674003506575544,"235":-0.07899081542337154,"236":0.051133576272586294,"237":0.07771941153548052,"238":-0.12470887294422582,"239":0.09038503275329036,"240":-0.04679726696732864,"241":0.04295119125743239,"242":0.1457753130216436,"243":0.13306743003203944,"244":0.012807086392491573,"245":0.02872142476226866,"246":0.012700553797658005,"247":-0.10015708666572437,"248":-0.01784827082568256,"249":-0.09142656925767764,"250":0.17157738529751648,"251":0.009202521288681017,"252":-0.04772345686052319,"253":-0.19667446441130754,"254":-0.08410213451171968,"255":0.05689462549120308}},{"sx":1,"sy":1,"depth":256,"w":{"0":-0.0755555376211259,"1":-0.05013063604214517,"2":-0.00943469403979739,"3":0.08807491057336707,"4":0.036854073046767764,"5":0.05069463947257548,"6":-0.02066678302556777,"7":0.009759942831517092,"8":-0.019619815070184895,"9":0.008633743177685439,"10":0.007701550538722691,"11":0.04029643081084157,"12":-0.002748929276208982,"13":-0.0054485314552564015,"14":0.060228198690092445,"15":-0.057038589343362145,"16":-0.05771712565763297,"17":-0.04725637159371295,"18":-0.03049985699246019,"19":0.14089744057592446,"20":0.005807450355231531,"21":0.07350466093648729,"22":-0.00004328599261049753,"23":-0.015415222625452935,"24":-0.09999723621991828,"25":-0.04771652621726011,"26":0.003753044053749114,"27":0.09731668026817805,"28":-0.04746926800168122,"29":0.1675281889100786,"30":0.09845763482793275,"31":-0.08031254983266625,"32":0.06626986500842369,"33":0.0800142202513409,"34":-0.011675557651401809,"35":-0.12942474562525572,"36":0.02350112439727937,"37":0.00511585743009863,"38":0.10685992846107822,"39":0.04242028035551567,"40":-0.08846989298169389,"41":-0.03168102648013499,"42":0.03472188220032603,"43":-0.014531812408090624,"44":0.0024915368034578314,"45":-0.12703412917846357,"46":0.15819918505596703,"47":-0.0799953942526256,"48":0.01687648460681535,"49":0.09607592227732079,"50":-0.026638365898685724,"51":-0.07914645497626874,"52":0.05744675402480327,"53":-0.022180558858314717,"54":-0.0660969530537702,"55":0.024041590634295115,"56":-0.03374818083014877,"57":0.03571767579543129,"58":-0.0037569217022521864,"59":0.08404750223947328,"60":0.01281969948163001,"61":0.15662697800412423,"62":0.10192769226425767,"63":-0.14881352574320347,"64":-0.012865261476317537,"65":0.0590019067984907,"66":-0.008216463819010972,"67":-0.1119246520944968,"68":-0.06525319638254222,"69":-0.007895027967153355,"70":-0.044669738380163214,"71":-0.058915084997541084,"72":-0.08347339321183429,"73":0.006426680985142746,"74":-0.0092880011704132,"75":0.002926139404776044,"76":-0.06417640213213809,"77":0.04569542019587199,"78":-0.003976315910445481,"79":-0.041656952016095185,"80":0.0613580685611165,"81":-0.11790500448654369,"82":0.05519858059323734,"83":-0.05701316884355127,"84":-0.008917809129419547,"85":0.000411719247833962,"86":-0.09676240215708919,"87":-0.022035809915171532,