{"layers":[{"out_depth":1,"out_sx":28,"out_sy":28,"layer_type":"input"},{"sx":5,"sy":5,"stride":1,"in_depth":1,"out_depth":8,"out_sx":28,"out_sy":28,"layer_type":"conv","l1_decay_mul":0,"l2_decay_mul":1,"pad":2,"filters":[{"sx":5,"sy":5,"depth":1,"w":{"0":0.012048209563333145,"1":0.31792847135270613,"2":0.11752227155181579,"3":0.8124504187174304,"4":0.6272547460491801,"5":0.1440342722392335,"6":0.15234989509913155,"7":0.19106839213816357,"8":0.36704482064103916,"9":0.6308952460970997,"10":-0.07470831643759207,"11":0.1767567681798152,"12":-0.3942451997041967,"13":0.02152740123645322,"14":-0.11425442649263767,"15":-0.2856011413932475,"16":-0.3226088147884505,"17":-0.13568840716650035,"18":-0.1541957905256652,"19":-0.06550374233067213,"20":0.07731246685736701,"21":-0.22558509342191668,"22":-0.7752187033509147,"23":-0.013437333582227805,"24":0.02515679615097275}},{"sx":5,"sy":5,"depth":1,"w":{"0":0.34315288231128305,"1":0.42556401540888633,"2":0.10487732498630281,"3":0.2162112849310057,"4":0.022684126358113375,"5":0.2537354450503661,"6":-0.03449673951725613,"7":-0.08217350041666896,"8":0.061845027662905776,"9":0.107263520662463,"10":0.12455885696112153,"11":0.09355943600517971,"12":-0.3669234195873963,"13":-0.331516094904765,"14":-0.5082455965460664,"15":0.28120400923165073,"16":-0.2991643025610966,"17":-0.390749635049295,"18":-0.2161050544756992,"19":-0.2045929804846505,"20":0.3101336536975101,"21":-0.2101714858594307,"22":-0.3928138341399997,"23":0.019831055823730275,"24":0.2759253258947976}},{"sx":5,"sy":5,"depth":1,"w":{"0":0.05619316393151826,"1":-0.284232704293949,"2":-0.05624094958664856,"3":0.08619243617801188,"4":-0.43263326540996305,"5":0.04120100957841768,"6":0.045322625564186224,"7":-0.020276671951986184,"8":-0.15088345707421807,"9":0.3925630831107499,"10":0.4300793000774116,"11":-0.007945571924080647,"12":-0.17167749389906614,"13":-0.059691809664166,"14":-0.030276111410000854,"15":0.18768602838875678,"16":0.4985703416250889,"17":-0.16360785326513666,"18":-0.20925588540109402,"19":-0.14311290213759512,"20":-0.010542313869576738,"21":0.1135242117549138,"22":0.03455535931391349,"23":0.28204065300068254,"24":-0.16145397420790883}},{"sx":5,"sy":5,"depth":1,"w":{"0":-0.1870425022042864,"1":0.15032032764282946,"2":0.3696771571177482,"3":0.39231448857749185,"4":0.5761465546819986,"5":0.301035741866723,"6":-0.1686743862552895,"7":0.04893465008265681,"8":0.3207736144780086,"9":-0.25549742782762164,"10":0.3362784648936414,"11":0.3504132202317876,"12":0.3151109916351099,"13":-0.443669866491289,"14":-0.3320770045371814,"15":-0.21499142148243183,"16":-0.7273094117149954,"17":-0.6151599086003761,"18":-0.34137090112746327,"19":-0.16992562317160775,"20":-0.5619034469102087,"21":-0.24166289508500374,"22":-0.34033331066480366,"23":-0.19845591902959378,"24":-0.14244158248894584}},{"sx":5,"sy":5,"depth":1,"w":{"0":0.44454918615629274,"1":0.25940360318897066,"2":-0.2928661969945065,"3":-0.310950433734709,"4":-0.313662967099911,"5":0.6217695835232802,"6":-0.35348093403456166,"7":-0.5778357644730495,"8":-0.18621811741917682,"9":-0.005444763928328921,"10":0.3385589510896214,"11":-0.36624205333476273,"12":-0.21885442204263214,"13":-0.24381277860872583,"14":-0.1281649551972204,"15":0.07974170789199601,"16":-0.8512653714505684,"17":-0.3473768000155628,"18":-0.5012551760354667,"19":0.08876051582833623,"20":-0.2938501645138279,"21":-0.055259861547831635,"22":-0.16895849660855958,"23":0.5504479012382265,"24":0.10876178492051945}},{"sx":5,"sy":5,"depth":1,"w":{"0":-0.002316174490340693,"1":-0.37778262805940815,"2":-0.42353155835679346,"3":-0.45833462639372424,"4":-0.12008818213063088,"5":0.03722223523857014,"6":-0.13618208670129334,"7":-0.6583643739019922,"8":-0.30853573055329264,"9":0.2607888906564292,"10":-0.19804645810852806,"11":0.3495595341575912,"12":-0.04090187284842089,"13":0.174856368992537,"14":-0.12220931070974438,"15":0.08040845024423272,"16":0.37307689735108834,"17":0.33694197183587554,"18":0.40049146891359094,"19":0.12241169746280411,"20":-0.017547102062569295,"21":0.1903129043041604,"22":0.4922485082016516,"23":0.320081066328303,"24":0.6488906336360604}},{"sx":5,"sy":5,"depth":1,"w":{"0":-0.14168961561123758,"1":0.13024715590602756,"2":0.3021339499230618,"3":0.2741917827172814,"4":0.378516537540895,"5":-0.28370500389536935,"6":-0.16232457061939995,"7":0.506242892829703,"8":0.5018374758063896,"9":0.14204386582152392,"10":-0.1569950853327369,"11":0.23216128969843372,"12":0.4862843927941446,"13":0.5507345185491719,"14":-0.11227253172479462,"15":-0.2862253532339663,"16":0.3191577926117128,"17":-0.05110334175182414,"18":0.26667804947090457,"19":0.3651526280785181,"20":-0.21622371020945114,"21":-0.3448032824221426,"22":-0.2644255094453807,"23":0.07220728187876113,"24":0.013780014014107816}},{"sx":5,"sy":5,"depth":1,"w":{"0":-0.28707307534946463,"1":0.12178622528848107,"2":0.0986149031805654,"3":-0.02846214224448165,"4":-0.20486513600013617,"5":-0.4354187271792714,"6":0.05130786050353666,"7":0.25943531535749276,"8":-0.006944417233774888,"9":-0.09280272647524182,"10":-0.3769626634049653,"11":0.23606127251094158,"12":0.3881850115457499,"13":0.049858255612224164,"14":-0.2060618480826782,"15":-0.5333025137989229,"16":0.08698853282884977,"17":-0.19276318401825834,"18":0.10332366569426253,"19":-0.2667287810103929,"20":-0.4697228123288741,"21":0.009094746079323172,"22":0.15250781081123804,"23":0.05886191861214176,"24":-0.25999403647789626}}],"biases":{"sx":1,"sy":1,"depth":8,"w":{"0":0.043052656794635304,"1":0.10330547352379489,"2":-0.05821973862538578,"3":0.21483639010249686,"4":0.15951307034021317,"5":0.02013524651776215,"6":-0.052696631780404304,"7":0.10725936105435561}}},{"out_depth":8,"out_sx":28,"out_sy":28,"layer_type":"relu"},{"sx":2,"sy":2,"stride":2,"in_depth":8,"out_depth":8,"out_sx":14,"out_sy":14,"layer_type":"pool","pad":0},{"sx":5,"sy":5,"stride":1,"in_depth":8,"out_depth":16,"out_sx":14,"out_sy":14,"layer_type":"conv","l1_decay_mul":0,"l2_decay_mul":1,"pad":2,"filters":[{"sx":5,"sy":5,"depth":8,"w":{"0":-0.01176311724032495,"1":-0.0794086408884201,"2":-0.014248944839212544,"3":0.20666106324052955,"4":-0.07858290751023322,"5":-0.013138686645459124,"6":-0.06719578578094976,"7":0.17715485763444674,"8":0.07815326743812956,"9":0.1362137596200718,"10":-0.030005765216106255,"11":0.19395413436170586,"12":0.13345207930716108,"13":-0.05402513854400735,"14":-0.12642335000761373,"15":0.0004681222543525513,"16":0.041922701066043296,"17":0.16623445466429326,"18":-0.03478200583652097,"19":-0.015684270102230585,"20":0.17829518666393987,"21":0.15180171544577262,"22":-0.016925625871963543,"23":-0.06940553952396357,"24":0.031843675076653234,"25":0.0477801877750463,"26":0.002496956719424249,"27":0.026339729308024723,"28":0.013931892887778777,"29":-0.045463683044514806,"30":0.03260704207765527,"31":-0.07742767487745451,"32":-0.04276173823177046,"33":0.01678077823032566,"34":0.1143442298746573,"35":0.10950101350166537,"36":0.15188829704372644,"37":0.043555489304594505,"38":0.0025940312008823057,"39":-0.03168301951893073,"40":-0.0072841297319902005,"41":-0.14702425696010593,"42":-0.00024411291409447917,"43":0.1938779809392823,"44":0.11436598911460058,"45":-0.030945310209268617,"46":0.12966971538729224,"47":-0.02244077475788838,"48":0.03446764845313029,"49":0.01865711457767385,"50":-0.05875055959791668,"51":0.06379868202791766,"52":0.12301459458769042,"53":-0.0921359418812518,"54":0.02217946285333986,"55":0.03911902319462527,"56":-0.055927032741483945,"57":0.09888659375465357,"58":-0.04785870727308645,"59":0.025742188325942175,"60":0.09708754024026352,"61":0.15543957476670875,"62":-0.035741097090443215,"63":0.1857217672531994,"64":0.0021000224246395926,"65":-0.0057120687308416995,"66":0.08996918504085485,"67":-0.06779996482072256,"68":0.19426042854521983,"69":0.12918370933867532,"70":-0.0140568418371597,"71":-0.018486930043237253,"72":-0.029143823883806173,"73":-0.07107566251424605,"74":0.05105268718822009,"75":0.02600382512610773,"76":0.06088881355425325,"77":0.11486638028749718,"78":-0.004512425936626332,"79":-0.06048527160599412,"80":0.08145971188602913,"81":-0.0111275714377006,"82":-0.17300526494847715,"83":0.04493444277088115,"84":-0.11477529994926733,"85":-0.37785927499574984,"86":-0.15851078598808024,"87":-0.17206908967218126,"88":0.01388521268889856,"89":-0.07720511079885403,"90":-0.46178202474100555,"91":-0.05431577368608262,"92":-0.08931033100540492,"93":-0.3682688455211411,"94":-0.03883849491147123,"95":-0.03807956815470841,"96":0.1485937534187267,"97":0.009178783605460827,"98":-0.16146958418626411,"99":0.02050134288638346,"100":-0.08666732930353019,"101":-0.41274100972406225,"102":-0.01648261424491556,"103":0.043224030858558325,"104":0.07375761976673846,"105":-0.01869677621263026,"106":-0.10303609325716445,"107":0.18210343905598309,"108":-0.09073772502725377,"109":-0.07692025323691432,"110":0.13756035710208905,"111":0.10299693760764198,"112":0.10656187874322176,"113":0.0680364411911534,"114":0.06993537754995488,"115":0.3107708068164436,"116":-0.06318553300329506,"117":-0.07679956709760985,"118":0.17027419742842015,"119":-0.019549437990187574,"120":-0.2421524114645552,"121":-0.23057606198435265,"122":0.19376813342645352,"123":-0.05203057641091185,"124":-0.08823196759987635,"125":0.25463492199006194,"126":-0.2942686740560911,"127":-0.04101809841541605,"128":-0.09651712033577332,"129":-0.13435138773384336,"130":0.055553397399788366,"131":-0.027669455747126818,"132":-0.19619925289466802,"133":0.11215844143125035,"134":-0.25306611698728343,"135":-0.06810649740905866,"136":0.18507034186090301,"137":-0.13587165605495508,"138":-0.15542567891779657,"139":-0.019232776628903162,"140":-0.17640660598453176,"141":-0.049333707852261974,"142":-0.14181811035620204,"143":-0.0495029099906017,"144":0.011943250231785607,"145":0.027026642572641597,"146":-0.20382638149823232,"147":0.09694281319619971,"148":-0.3218446785720198,"149":-0.19283444067354055,"150":0.04484107345953105,"151":0.11556882608209584,"152":0.03006464928214749,"153":-0.1299164699866258,"154":-0.24175018804465626,"155":0.005684136790880413,"156":-0.16018714969428707,"157":-0.13081181807685632,"158":-0.14548383889960903,"159":-0.11382430834780731,"160":-0.07167314938385584,"161":-0.04760886293120182,"162":0.11226920324196048,"163":-0.07620297335498934,"164":0.024634107261321266,"165":0.293598321937672,"166":0.19002605153496543,"167":-0.03317675192776892,"168":-0.280360632457647,"169":-0.05946078891148243,"170":0.08402208840814034,"171":-0.2171266313551614,"172":0.0057200424392730344,"173":0.27364637436263495,"174":-0.05576308225008162,"175":0.07913860242234771,"176":-0.27987400653681066,"177":-0.2320117247216162,"178":0.15558995383925306,"179":-0.15394394767533284,"180":-0.21183585858672954,"181":0.1855112273567864,"182":-0.08652149023561725,"183":-0.12655354940195,"184":-0.27997033645956715,"185":-0.17195224017061192,"186":0.06947983271631084,"187":-0.3021824202653194,"188":-0.354772031575008,"189":0.23835915372517893,"190":-0.13820160141333473,"191":-0.08852560140923714,"192":-0.17906531304780887,"193":-0.24402885400745533,"194":0.0056490677003607674,"195":-0.13307952265933617,"196":-0.20275053815166838,"197":0.1397266772042196,"198":-0.013134132850970374,"199":-0.13376792501494855}},{"sx":5,"sy":5,"depth":8,"w":{"0":0.2526369199884764,"1":0.15747130310802068,"2":0.0366508287820229,"3":0.14985558804120183,"4":0.05009408135177143,"5":-0.2526007565999532,"6":0.006585569586955231,"7":-0.01232532180583739,"8":0.24772182419996214,"9":0.1404095042883191,"10":-0.05542200325619033,"11":0.12198204175394159,"12":-0.05883199795129955,"13":-0.1594610787731671,"14":-0.09598034925292223,"15":-0.050022290114825695,"16":0.10766565708847606,"17":0.07570929849080804,"18":-0.02608286899878778,"19":-0.002268593421802422,"20":-0.0934800878113906,"21":-0.09529296397915123,"22":0.10318402899816446,"23":-0.12526055288033763,"24":0.10119715251712802,"25":-0.009991612057372978,"26":-0.03672450201821968,"27":-0.03292968673172835,"28":0.17411409693324756,"29":0.1236372676629412,"30":0.02110662304862861,"31":-0.03849987476493868,"32":0.12103302101545474,"33":0.0010828313207443712,"34":0.06923596450021212,"35":-0.016579241815547437,"36":-0.10385385217651256,"37":0.23501964696583724,"38":0.02298741830270478,"39":-0.12294675471267703,"40":-0.07522844130605078,"41":0.19330316267245534,"42":-0.09774537725584245,"43":0.11504242723557126,"44":0.051576124761992206,"45":-0.05147097758361481,"46":-0.2878191282490716,"47":0.05623624973788873,"48":0.08973434979879197,"49":-0.017319086834813358,"50":-0.11880485827352047,"51":0.1236001037286295,"52":-0.15575019014700428,"53":-0.04958808382882948,"54":-0.2706001445053367,"55":-0.07424967595887788,"56":-0.028466798837352224,"57":-0.15578740914308153,"58":-0.24617300900338926,"59":0.010299029717187477,"60":-0.0546965867491385,"61":-0.4324382537591216,"62":-0.27576799672619984,"63":-0.07050333690037165,"64":0.25596665381165695,"65":0.11334599335823323,"66":-0.166678393402677,"67":0.056558942539676006,"68":-0.22019399620652857,"69":-0.3222727644104001,"70":0.06506218619050778,"71":-0.13174133578702912,"72":0.19697720433427643,"73":-0.0727582938847837,"74":-0.0513257107494171,"75":0.3807749938190328,"76":-0.22989493214495413,"77":-0.19774978421912895,"78":0.1042356782740653,"79":-0.244056769637608,"80":-0.04250543169820543,"81":-0.022440451340053087,"82":0.05787952150214232,"83":-0.004340366709661139,"84":-0.01381029396048882,"85":0.06926080087451619,"86":0.022467006116422637,"87":0.04537447695777041,"88":-0.30858420964305383,"89":0.04006669218992434,"90":0.11463517520823056,"91":0.011755106590533512,"92":-0.1669687201789617,"93":0.1725751508300786,"94":-0.30441324127390135,"95":0.0627781411550742,"96":-0.05538843204357359,"97":0.1331409263670044,"98":-0.06554851160136106,"99":-0.05541373787153367,"100":-0.05937831026889718,"101":0.0015273788819726325,"102":-0.211242334073168,"103":0.041056640594510516,"104":0.03585856087622759,"105":0.0025474974468814027,"106":-0.13544181784433978,"107":0.1950731770593272,"108":-0.17542866025203896,"109":0.09949751105865119,"110":-0.20153229520567018,"111":-0.2598923737104963,"112":-0.07807755892787396,"113":-0.06609702249005993,"114":-0.2670370065057327,"115":0.11205281176805104,"116":-0.01765317537734496,"117":0.2220481888564375,"118":-0.15317400358500904,"119":-0.08890872509023887,"120":0.11431154449783687,"121":0.005332133432550587,"122":0.045965284927812725,"123":0.03832033788566351,"124":-0.2717472422605703,"125":0.14742246436938228,"126":0.050093076361851036,"127":0.11063020106729377,"128":0.027601260482622465,"129":0.10335965956053153,"130":0.11063004794080356,"131":-0.004143363721433685,"132":-0.01327276559311002,"133":0.03414099941517124,"134":-0.09514455849400348,"135":0.04964919843087431,"136":-0.23579150551276634,"137":0.06155950270518132,"138":0.03878816295867491,"139":-0.12532741459912708,"140":0.03630316883657508,"141":0.018580724787999384,"142":0.05147697174979419,"143":-0.0817322150070224,"144":-0.3348799055699309,"145":-0.1405555342309633,"146":-0.052453128665893634,"147":-0.1321115975089167,"148":-0.06773382777480559,"149":-0.04569366624833044,"150":-0.0381762340982137,"151":0.040223841148503824,"152":-0.1639654124877627,"153":-0.22495361664855307,"154":0.027681576047936432,"155":-0.22231704877864253,"156":-0.10139295682231994,"157":0.06867392324510219,"158":-0.03130286849777992,"159":0.011182229189897808,"160":-0.025044181667964124,"161":-0.016564810989708252,"162":0.04459626427376607,"163":-0.11626115419672454,"164":0.009152024929598828,"165":-0.009210485332486395,"166":0.099813829299835,"167":0.04728685961532658,"168":-0.057551464481957866,"169":0.16280366487890477,"170":-0.07582835902172247,"171":-0.053052051705211586,"172":0.13948816190517013,"173":-0.05407668985386776,"174":-0.08093890488841561,"175":-0.012681706002411896,"176":-0.022914581887892936,"177":-0.07643163602509562,"178":-0.12368670140323278,"179":-0.14471052066224102,"180":0.1712679947253342,"181":0.06503299145411438,"182":0.08983331501956612,"183":0.013187787963920556,"184":-0.06627070468446859,"185":-0.11861453440539053,"186":-0.08323629409636875,"187":-0.1685555228429948,"188":-0.026099769967578255,"189":0.1463886645121451,"190":0.1619077915603453,"191":0.04124782809243424,"192":0.11870825510660658,"193":-0.02867163632760288,"194":0.04174543698526856,"195":0.19093985995705887,"196":-0.08425723352558377,"197":-0.04837576890133069,"198":0.05966362185467596,"199":0.17349704036704205}},{"sx":5,"sy":5,"depth":8,"w":{"0":-0.024936185587712524,"1":0.05925091351043508,"2":0.03830476949209824,"3":-0.06561104363873703,"4":-0.040901437594315825,"5":0.02946041067389536,"6":-0.003949312942321748,"7":0.0672077096669806,"8":-0.08027326433170866,"9":-0.02037461717562925,"10":-0.053356175751308944,"11":-0.12749853922601198,"12":0.02360508460759323,"13":-0.07528765064899542,"14":0.03612187384716124,"15":0.025142931146184228,"16":-0.007141656091039739,"17":-0.11890921643522458,"18":-0.10694004006885484,"19":-0.06090585741672773,"20":-0.059298502328533856,"21":0.07626499175009792,"22":-0.054465116206517304,"23":0.023889983276043573,"24":-0.036205638819048785,"25":0.15554730796523375,"26":-0.0371666058457403,"27":-0.08731826327706206,"28":-0.004268330077529009,"29":-0.07678113086866918,"30":-0.10222066259163363,"31":0.016681791830302058,"32":0.007107723304215751,"33":-0.058101979902961974,"34":-0.03422931996961168,"35":0.012634463048065859,"36":0.044958840107837274,"37":-0.06512626888762325,"38":-0.06600737585772508,"39":0.028425939271206038,"40":-0.04358335817897583,"41":-0.019983479254720635,"42":-0.028633712158400316,"43":-0.08808187724808689,"44":0.04003022286979399,"45":-0.05643414452918085,"46":-0.005307088062522524,"47":-0.009332252944091072,"48":0.032228838102614815,"49":-0.07379655463742607,"50":-0.06479182724604098,"51":0.01937991879403816,"52":-0.0023170601594493458,"53":-0.14563315970156876,"54":-0.042993587864916666,"55":-0.025750194141419505,"56":-0.011278342633274844,"57":-0.07644527449684596,"58":0.104102817890813,"59":-0.012499686916690067,"60":-0.04255812213099798,"61":-0.03242975458918163,"62":0.06080016172096338,"63":-0.022310115438754167,"64":0.030609257743518845,"65":0.019859913073939146,"66":0.016581421491305894,"67":-0.178492591689204,"68":-0.0061324875651982995,"69":-0.042120648727217325,"70":-0.026756231249918785,"71":-0.044358458643334306,"72":-0.03970368882717756,"73":-0.17583894725878735,"74":-0.09518370346251596,"75":-0.12592905390073322,"76":-0.05119543971310666,"77":0.05883589979363763,"78":0.01329392298275264,"79":-0.0026304385265684418,"80":0.00910826035100476,"81":-0.08143513322908462,"82":-0.004367676250105036,"83":0.055060485316146025,"84":-0.14260963471981797,"85":0.014838774017901596,"86":-0.05247344068725358,"87":0.05377230530222446,"88":0.021657940876018994,"89":0.03441701253458322,"90":-0.03347386078744932,"91":0.05073286040957771,"92":0.05037628626355963,"93":-0.04214468729708337,"94":-0.020994940296203905,"95":-0.10024696869900557,"96":0.04124666657234206,"97":-0.00024096721844613238,"98":0.0696065830343653,"99":0.004997229597182605,"100":0.010846738438369962,"101":0.07013042616521797,"102":0.012089387839649256,"103":0.07975479934963532,"104":-0.026230778926908876,"105":0.09777949071950992,"106":-0.07073893768140403,"107":-0.02052482595227149,"108":-0.08842732430607897,"109":-0.013649212799831252,"110":-0.026124660111159104,"111":0.0251628957498269,"112":-0.033588468721363375,"113":-0.0017447359605122035,"114":0.005401714974316855,"115":-0.026465352253089283,"116":0.05136485322388909,"117":-0.0371950581070883,"118":0.017199409770386836,"119":0.0657529876271339,"120":-0.04743274731216218,"121":-0.05404674647060692,"122":-0.11804495527491025,"123":0.087055759832279,"124":-0.08217554854873343,"125":-0.08087336765629584,"126":-0.06620806776075257,"127":0.07916528928471164,"128":-0.023020172882844064,"129":-0.051362730114664024,"130":-0.11113442771692876,"131":0.06248106764918463,"132":-0.060560986933368054,"133":-0.07314377017149298,"134":0.02017562578398081,"135":0.04548143046589736,"136":-0.051052759588688414,"137":-0.09898724424805992,"138":-0.07968286882937298,"139":0.079634738461946,"140":-0.023352494248658248,"141":-0.012579493621094126,"142":0.022150047442037624,"143":-0.03534397025820271,"144":0.0384616425856348,"145":0.006621994306884565,"146":-0.12724718684091,"147":-0.016858933749970988,"148":0.04092365134208741,"149":-0.05945223854168898,"150":-0.029429858369167252,"151":0.00938471342571474,"152":-0.06570709061633842,"153":0.08604213979182028,"154":0.027721958016886122,"155":-0.045186795213353184,"156":-0.05244426898716194,"157":-0.013580105095649959,"158":0.005834238977242267,"159":-0.10202311818994507,"160":0.07727881424933418,"161":-0.07587452127072584,"162":0.0029192331425589467,"163":0.04030115365434289,"164":0.19409235039893646,"165":0.13330288539526908,"166":-0.2163472290527226,"167":-0.03909268284302955,"168":-0.04409323161460101,"169":-0.05433757193060328,"170":0.04415114295001154,"171":0.0904594648280213,"172":-0.03277322198552108,"173":0.07975655533173581,"174":-0.09613647272794883,"175":0.002530572652951414,"176":0.00984400760339383,"177":0.0803742153578873,"178":-0.044981569009301066,"179":-0.06706404350996689,"180":0.01961881932665057,"181":-0.0028723796867973833,"182":0.05182173131017872,"183":0.038541339337253545,"184":0.12420457304537287,"185":-0.06065643395197426,"186":-0.03997174491868461,"187":-0.0357085596289493,"188":-0.022405520584526852,"189":-0.14798903317251458,"190":-0.09706400476311673,"191":0.024339925753063287,"192":0.006310986623641118,"193":-0.14488736296269247,"194":-0.1057125000059995,"195":-0.035651667239122185,"196":-0.11192112930933511,"197":-0.09636517586568787,"198":-0.020803451186426753,"199":-0.027293954646040133}},{"sx":5,"sy":5,"depth":8,"w":{"0":-0.13261914687224796,"1":0.30700817935486885,"2":0.09460634948419513,"3":0.04534163364225691,"4":0.2805983383778979,"5":-0.2828753135534827,"6":-0.19028801445533625,"7":0.004326385688940679,"8":0.01568038493667755,"9":0.0803189933010707,"10":-0.05115279851841128,"11":-0.14139200978819202,"12":0.1663512779707158,"13":0.05447720869200544,"14":0.044614851185770465,"15":0.16010060833940173,"16":0.012993677652934906,"17":0.01179354040334542,"18":-0.012227234755702686,"19":-0.2952070781610816,"20":0.10183518058568786,"21":-0.025919432661697255,"22":0.056755749371804186,"23":0.016800879789448935,"24":-0.03078241801987833,"25":0.1941036320342876,"26":0.005806625605715888,"27":0.00048312797382622704,"28":0.2871579792246331,"29":-0.013659214312258432,"30":0.011263241129580532,"31":-0.02531916600016797,"32":0.21696199641087185,"33":-0.009633407584025134,"34":0.06901655847129937,"35":-0.013275079766102833,"36":0.13595838527789084,"37":0.00896199788969211,"38":0.10343248667528337,"39":-0.062386255108689524,"40":-0.09264151497264189,"41":-0.030943896541206214,"42":-0.0007512040111282861,"43":-0.14782099814391936,"44":0.07049889740532393,"45":0.011525038462539926,"46":-0.12755946968604917,"47":-0.14948881363787495,"48":-0.14903357216951107,"49":-0.08701361525243569,"50":-0.07567155642249922,"51":-0.2231877336446905,"52":-0.017848872676705818,"53":0.04334690369366113,"54":-0.045702682557560596,"55":-0.0587722795493104,"56":0.05030496008016538,"57":0.0317691507661293,"58":0.07482962609807943,"59":-0.12207701534629375,"60":-0.049994167075329,"61":0.11439262944360706,"62":0.0986135339049782,"63":-0.10870275816063361,"64":0.009354466876519954,"65":0.05589375236601831,"66":0.06408638061641078,"67":-0.1832960636899688,"68":-0.003459175267985152,"69":0.0041841125750279595,"70":0.10404425369010172,"71":-0.11218674134545734,"72":-0.00391726946973654,"73":0.02076960589735182,"74":0.02902579617935112,"75":0.08144705244406052,"76":-0.0018087359209243994,"77":0.09693364334513592,"78":0.039688373829118294,"79":0.03011578099344287,"80":-0.2503816491118513,"81":-0.13959995589279578,"82":0.23954556527596726,"83":-0.12324486007568881,"84":0.21102560025538278,"85":0.1003498989417988,"86":-0.18098653412830376,"87":-0.140378104668798,"88":0.10169992347857995,"89":-0.0595238269131373,"90":0.08935474321093521,"91":0.00012800175800035208,"92":-0.03726122691808405,"93":-0.05075278576494627,"94":0.016315829677328423,"95":-0.0063425780791063315,"96":-0.017829895493285702,"97":0.0651358033271699,"98":-0.023971470520123106,"99":0.03335381616736942,"100":0.11245907900791036,"101":-0.14906986572489794,"102":0.1958485570382199,"103":-0.17063182960697917,"104":0.13072811999846196,"105":0.06491592832516925,"106":-0.07976514630833013,"107":0.08529257868175118,"108":0.15708306899820373,"109":-0.22343106689230138,"110":0.06622611432392074,"111":0.0104991129802817,"112":-0.017327505492052437,"113":0.014203684444034194,"114":-0.07903995181977928,"115":0.16283733792845237,"116":-0.17368639830850957,"117":-0.03625848360844635,"118":-0.06963630454316994,"119":-0.0671083473700275,"120":0.023084641842397714,"121":-0.26144578032755156,"122":0.06863574413530628,"123":-0.2608309331640324,"124":-0.07980417263654488,"125":0.27227944685480315,"126":0.030291706379657057,"127":-0.21208664346583656,"128":-0.05520072491106581,"129":-0.23228153329509277,"130":0.09059743117379301,"131":0.007037062000646138,"132":-0.11395795244013637,"133":0.09805364891745112,"134":0.2043241523598294,"135":-0.25620789442740916,"136":-0.19479230431419717,"137":0.021039271701903225,"138":0.10380404782226303,"139":-0.23218450893199996,"140":-0.18319196998089707,"141":0.10412779898701813,"142":-0.2309750152013359,"143":-0.28397651217384007,"144":0.0043554893695246155,"145":-0.06894624950924456,"146":0.05164309649794072,"147":-0.14693958366582494,"148":-0.14244405023718645,"149":-0.01716515146551951,"150":-0.1746103931816868,"151":-0.19618007917385652,"152":-0.02437436544890225,"153":-0.03027477726736818,"154":-0.09205614028583627,"155":-0.07115271641985209,"156":-0.17745168304425105,"157":-0.13928438364774143,"158":-0.2022500364592683,"159":-0.055335967129545506,"160":0.3931889837025621,"161":-0.04861135307213634,"162":0.12775111838850833,"163":0.04487182063745814,"164":-0.08220398078486937,"165":-0.1747083603763712,"166":0.15217837527579312,"167":-0.10203051233607491,"168":0.07816273964166481,"169":-0.06303242086713662,"170":-0.037233535100245026,"171":-0.11436096587821618,"172":-0.20007282371986676,"173":-0.04022661738435613,"174":0.09281623951756646,"175":-0.04770513904625902,"176":0.03980382883359499,"177":-0.16499721676998888,"178":0.05516114833913064,"179":-0.18394660665459267,"180":-0.25081341631131643,"181":0.2521394497296641,"182":0.1718018796106455,"183":-0.23195131654806045,"184":-0.15274958119452733,"185":-0.10006566649888834,"186":0.19169873335716078,"187":-0.22806493263268054,"188":-0.11603235128788851,"189":0.24748870219305857,"190":-0.056007995281358275,"191":-0.08446171052680944,"192":-0.10428732435321166,"193":-0.1532283441286494,"194":-0.027011320715540313,"195":-0.06893102850945942,"196":-0.21169635696726175,"197":-0.0066408268824499714,"198":-0.15179840335798064,"199":-0.14505335894067292}},{"sx":5,"sy":5,"depth":8,"w":{"0":0.16242260875942122,"1":-0.012458191245713129,"2":0.221670617971694,"3":-0.03024677512768631,"4":-0.014548983518575039,"5":-0.02072123388024193,"6":-0.02071913418548002,"7":-0.13905975873695642,"8":0.0987127840035113,"9":-0.013091242323155889,"10":-0.04721559010805219,"11":-0.17079531292492361,"12":-0.11250024021523825,"13":0.1292967851063961,"14":0.022552672001977112,"15":0.13866917729359576,"16":-0.2915025688025663,"17":0.03743303466795228,"18":-0.0064649452033720585,"19":-0.3562074845055132,"20":0.04628685230026179,"21":0.13438614149212355,"22":-0.05952567153487692,"23":-0.08665688257924528,"24":-0.28486068974138273,"25":-0.21255851517222482,"26":0.06662176592454047,"27":-0.20416069361113953,"28":-0.0020400655157268087,"29":0.15187635358370133,"30":-0.1147200119881099,"31":-0.19419386430109178,"32":-0.11205832183113586,"33":-0.24149863118132497,"34":0.07041764897338809,"35":0.10387248734755518,"36":-0.18086342478782536,"37":0.01850723239386908,"38":-0.016816928733281302,"39":-0.10495889474059257,"40":-0.027761895221720997,"41":0.024310453793256394,"42":0.056678190967423554,"43":-0.011831187070912663,"44":-0.1207555946998039,"45":-0.10631159595897051,"46":0.037838997457757956,"47":-0.02264978318525267,"48":0.12918616040564115,"49":0.17757619737695923,"50":-0.026803397778407595,"51":0.15791395866993638,"52":-0.025208446588667662,"53":-0.07852932569747081,"54":-0.018710543701752187,"55":-0.012316980283670774,"56":0.012544540099117634,"57":-0.042520727530980684,"58":0.09131815803740084,"59":0.11882682249722927,"60":-0.07582070537163822,"61":0.002053181117359664,"62":0.13764871524115443,"63":-0.06160990634156543,"64":0.24551061859535322,"65":-0.0004404500738752515,"66":0.1429865051955085,"67":0.2143091800807893,"68":-0.03322574522515489,"69":0.09818634345846311,"70":0.0003394789141206631,"71":-0.08400298873608579,"72":0.18628130294002296,"73":0.08451562312546111,"74":0.022821120815642568,"75":0.24127779449049677,"76":-0.12642882958112694,"77":-0.17219177921507303,"78":0.13323083342456096,"79":0.058073205253654614,"80":-0.12527849393342377,"81":0.043559855564052195,"82":-0.06884753588431723,"83":-0.025236576939806535,"84":-0.03858057139352155,"85":-0.11431498112483854,"86":-0.08877986811174907,"87":-0.18017024417112226,"88":0.01649551088212156,"89":-0.12547301199580554,"90":-0.1456860991486575,"91":0.08882933183076244,"92":-0.09636844512837395,"93":-0.01779022458859278,"94":-0.04727608002259608,"95":0.01967857124401757,"96":0.1466731462694665,"97":0.03438969762841844,"98":-0.02025391199791844,"99":0.0031758097866454193,"100":-0.026363298508577,"101":-0.03543946284887885,"102":-0.04542227370227709,"103":-0.028607518163800947,"104":0.1234497082377508,"105":0.14131757170020126,"106":-0.11353942758081942,"107":0.27993917537529156,"108":-0.07218186057780933,"109":-0.277243487465147,"110":0.0636906530912456,"111":-0.0684818427927701,"112":0.07764487826235486,"113":0.07777678133295249,"114":-0.14728815265156636,"115":0.14415888131545307,"116":-0.02007666991059083,"117":0.017938700329146913,"118":-0.062107697851830145,"119":-0.03833011555129705,"120":0.01741580986352401,"121":-0.11016118538760457,"122":-0.0622060534112307,"123":-0.21847111207267803,"124":-0.0969310863018228,"125":-0.07286847447286411,"126":-0.17454051586965463,"127":-0.03672951964115159,"128":-0.12312865890187001,"129":0.026459996115694422,"130":-0.14113469783932753,"131":-0.13657998564427482,"132":-0.07305167571885542,"133":-0.09669824397321956,"134":-0.10208428747532149,"135":0.017600966398165475,"136":-0.14845374717263654,"137":0.009156929722379678,"138":-0.01624957052999392,"139":-0.10670654362838043,"140":0.09833007581435044,"141":-0.037641612861249424,"142":-0.09355276847558466,"143":-0.031436598391629274,"144":-0.2535159911758344,"145":-0.09801871223784069,"146":-0.08020375203264003,"147":-0.06433312719457274,"148":0.12197335729864704,"149":0.11685460183155401,"150":-0.17367720648863696,"151":-0.06711432598750944,"152":-0.028131680901426967,"153":-0.21794849883363696,"154":-0.0582607547413237,"155":-0.10192986259176826,"156":-0.04361278872968579,"157":0.21883851474483648,"158":0.037202072082131554,"159":-0.08673347753916334,"160":-0.0863034346631892,"161":-0.0332747379531305,"162":-0.1448115995897444,"163":-0.021609577193057814,"164":-0.164240452178933,"165":-0.0372820215040045,"166":-0.0973750886816796,"167":-0.020077377042520602,"168":0.13267791032433,"169":0.09453016716931559,"170":-0.08231299562745165,"171":-0.10693932881540184,"172":0.13232874073905918,"173":-0.10961130596242268,"174":0.10085822116164254,"175":-0.0028362997600605844,"176":-0.12626358659378525,"177":0.06707503971271789,"178":-0.10401882994775219,"179":-0.14010654602074932,"180":0.10334904058028077,"181":0.04355408556884951,"182":-0.07501422750272406,"183":-0.10677949721059717,"184":0.1938473170307607,"185":0.03336810349366657,"186":0.09098108828353778,"187":-0.1289564337859199,"188":0.15946489989193105,"189":-0.04468629998917609,"190":0.06404898767018813,"191":-0.07181107510958655,"192":-0.033955904170397594,"193":0.038413488614416715,"194":0.08940146352963478,"195":0.006738807165221681,"196":-0.04878344164452389,"197":-0.021901768565947267,"198":0.2022975711754196,"199":0.0532566162139004}},{"sx":5,"sy":5,"depth":8,"w":{"0":-0.0887505066867239,"1":-0.13618060754523817,"2":0.09000027613666702,"3":-0.16061133883551093,"4":-0.12106638909218313,"5":0.037683100440300724,"6":0.06742883003688069,"7":0.004752119765416705,"8":-0.10974800308475008,"9":-0.012571360090017556,"10":0.017008103630468445,"11":-0.10770360700071738,"12":0.06564775662935728,"13":0.19830512991259563,"14":-0.01086140925610616,"15":-0.0041660087675161606,"16":-0.12443364722036251,"17":0.023555850131686998,"18":0.0811312659608195,"19":0.011725330654290041,"20":0.1892083452853548,"21":0.16108309468132065,"22":-0.07934662397797904,"23":0.02507526623622113,"24":0.058222170386168025,"25":0.21631271843930888,"26":0.07951547216384952,"27":-0.06449242290543115,"28":0.10094203946122654,"29":-0.0072776347125649695,"30":0.005170424580515282,"31":-0.09914733618504915,"32":0.1345638115268337,"33":-0.01634903935764075,"34":-0.10195931815942437,"35":0.1252246140394619,"36":0.027671367513545802,"37":-0.10643167790533178,"38":0.05908021519270146,"39":-0.11985562512414955,"40":0.028051632129217408,"41":-0.2704927405157127,"42":0.034731563063213386,"43":-0.09191479400978335,"44":-0.01034674764777434,"45":-0.15452892786648648,"46":0.09501117145360141,"47":0.07053795348276143,"48":0.08162653974541031,"49":-0.4192020699322354,"50":-0.027054483512738096,"51":-0.32094865182314775,"52":-0.02101345104624289,"53":-0.01174620706817293,"54":0.04808741764601698,"55":-0.06991662053426786,"56":0.016171697127348852,"57":-0.11657394029239168,"58":0.20553257207119927,"59":-0.2894572563363877,"60":-0.23159527173863365,"61":0.22469978490061163,"62":0.21251541846041663,"63":0.015322973380308146,"64":-0.03916624383620096,"65":0.13703474154431003,"66":0.2107583547109538,"67":-0.19352901945901435,"68":-0.032353866921530944,"69":-0.09042160415150446,"70":-0.06901450689345502,"71":0.09625173221579421,"72":0.11650615071289847,"73":0.18075806896853225,"74":-0.07460302516627264,"75":-0.0020020128550954064,"76":-0.027261429219915808,"77":-0.06556213750374587,"78":-0.29732244684651543,"79":0.08060651927471582,"80":0.12029337108692785,"81":0.0006544646566357267,"82":-0.18419010019637536,"83":-0.07311148381488812,"84":-0.05028793950998778,"85":-0.23912019856908426,"86":0.04507712553802139,"87":0.0238055191160861,"88":0.28189159842260036,"89":-0.1782544667032155,"90":-0.020273947377546807,"91":-0.25469199495354894,"92":-0.1828369843936142,"93":-0.3072451507670062,"94":0.09442801157584228,"95":-0.09136023344680318,"96":0.03725312695789387,"97":-0.34862434577966406,"98":0.11570350601475343,"99":-0.2847063022134179,"100":-0.3261858479863992,"101":-0.08893479699039698,"102":0.3069655968510438,"103":0.14046778229473394,"104":-0.3045713116813078,"105":-0.28696391366247526,"106":0.22411942729730663,"107":-0.2200219435551127,"108":-0.43001353938241843,"109":0.30530049009811927,"110":-0.1074328301030344,"111":0.10915493014039448,"112":0.01850292085567945,"113":-0.2652194372506666,"114":0.06291245137109923,"115":0.024312449495584965,"116":-0.39111423009912877,"117":0.037509215388575524,"118":-0.23358311991443545,"119":0.0018424657707773948,"120":-0.058064628735090995,"121":-0.0010448550387622444,"122":-0.1018976838915805,"123":0.020278509558905,"124":0.00441526833638298,"125":-0.1030927934186966,"126":0.03426806830978957,"127":0.08685359188481678,"128":0.19581745619563032,"129":-0.043408962003698495,"130":-0.10044766468376883,"131":0.027669575097632806,"132":0.18958318891274395,"133":-0.17086488836850727,"134":-0.037398320166984404,"135":0.0386881434445024,"136":0.2621300093265767,"137":-0.20945794083712865,"138":-0.03765557978198867,"139":-0.05965077657064656,"140":-0.10387106722313297,"141":-0.23514765528511578,"142":0.1945215917728294,"143":-0.08160447612280132,"144":-0.017628432087203473,"145":-0.21877427633402743,"146":0.0959650628283396,"147":-0.26326508213546446,"148":-0.4603195911060271,"149":0.0837779032306348,"150":0.17159201274969665,"151":0.1775498859540112,"152":0.032653363777743305,"153":-0.14023096173170183,"154":0.08314072303153465,"155":0.20372710060352492,"156":-0.302199474524828,"157":0.09103519853115616,"158":0.08390036428043984,"159":0.1429915000216092,"160":-0.11442719873734442,"161":0.07358951848829673,"162":-0.07943502261566622,"163":0.03480610948156574,"164":0.14943608649303844,"165":0.06627973458619339,"166":-0.27025979001277817,"167":0.08598679580710397,"168":-0.04903547948945745,"169":0.06978450805861006,"170":0.024533023529573122,"171":-0.04832772387549363,"172":0.14014695247514095,"173":-0.07018155296779417,"174":-0.06740603275774006,"175":0.11929223653711617,"176":0.09052059027908202,"177":-0.011462358145149598,"178":-0.008565919663597646,"179":0.17960405463518028,"180":0.10997992733326091,"181":0.011603805499260642,"182":-0.062079841514013065,"183":-0.05706290441694624,"184":0.14906382497772927,"185":0.029643020757299708,"186":-0.1500372114310045,"187":0.12089400242189617,"188":-0.052058324841431254,"189":-0.09508880968661873,"190":0.09584320752054797,"191":-0.0816692735177714,"192":0.07172088671071564,"193":0.10171068997866635,"194":0.007737088913483102,"195":-0.04512491588669633,"196":-0.10379360345651131,"197":-0.07900953848381631,"198":0.10526990454113873,"199":0.09719118123016288}},{"sx":5,"sy":5,"depth":8,"w":{"0":0.09508853679344306,"1":-0.03150268165991749,"2":0.04426158719209836,"3":0.023839825312563664,"4":-0.009513034647222371,"5":0.01586083057415632,"6":0.17673028942976446,"7":-0.061155456349791734,"8":0.02090943649627918,"9":-0.0693204759443008,"10":-0.05502317537369579,"11":-0.0023499079879060656,"12":-0.05177813530677494,"13":0.07702094909289711,"14":0.014202698445377089,"15":0.08676971701308303,"16":-0.1550942861635467,"17":0.09070635936072019,"18":0.005370611478769623,"19":0.031206953325450145,"20":0.19848398086590113,"21":0.03525318948248958,"22":-0.24569994048305507,"23":0.035165538146608416,"24":-0.09226391749586216,"25":0.08846378107403541,"26":-0.09941661046417492,"27":0.17457829825362658,"28":0.08650513019049619,"29":0.09439359782349736,"30":-0.19500795213049935,"31":-0.0049969692855115645,"32":0.0460053915409953,"33":0.018602563005949476,"34":-0.03659146847321226,"35":0.17580939377139157,"36":0.07514608304776392,"37":0.033448875111122184,"38":-0.02488015837144462,"39":0.03481470349274842,"40":0.09258366629217085,"41":-0.0457894790982647,"42":-0.022692921308042915,"43":0.03373943489590404,"44":-0.06030119149889177,"45":-0.2741627638119097,"46":0.06063921199832742,"47":0.06579455133090077,"48":0.019795700117062054,"49":-0.1199779325144741,"50":-0.05192761786143123,"51":-0.06586319937404911,"52":-0.09615902608904717,"53":-0.09001084408099336,"54":0.09004915931539405,"55":0.13519104463718362,"56":0.05424910962168357,"57":-0.12767001192656469,"58":0.003831254827190137,"59":0.0025027248002006514,"60":-0.2671616749448528,"61":0.16437775301405483,"62":0.19913527228971561,"63":-0.09829400488420935,"64":0.08037353577103466,"65":-0.04644852134074273,"66":0.09109598727939437,"67":0.051119202722083014,"68":-0.08866927111084522,"69":0.11885886172632334,"70":-0.025032886175753145,"71":-0.01671993684584806,"72":0.020815384027656845,"73":-0.1954017367002734,"74":0.08665028622643864,"75":0.1125139497945881,"76":0.004730825866466846,"77":0.09854116782903453,"78":0.001641215896404067,"79":0.03940867954827465,"80":0.11649454073570437,"81":-0.03128933233626539,"82":-0.05950286553364276,"83":0.0057588916022288,"84":-0.0044275743673727625,"85":-0.3602314723522171,"86":-0.031859259663204235,"87":0.05211251370693207,"88":0.3304212335028252,"89":-0.10083480617233037,"90":-0.08349783126086983,"91":-0.008714347465751136,"92":-0.2954969533201682,"93":-0.11002919385377427,"94":-0.0010171705442164653,"95":0.13004956718994312,"96":0.2385426804586124,"97":0.025331349496682202,"98":-0.062487347700705576,"99":-0.0036955943296760607,"100":-0.09366038575713628,"101":-0.06005096439471963,"102":0.17651894031631898,"103":0.15315069706722434,"104":0.1883708416891362,"105":-0.008152037420271452,"106":0.05837624117702057,"107":-0.03022576032477413,"108":0.032693947793484585,"109":-0.08041908963073649,"110":0.1565922087537765,"111":0.14135204044617772,"112":0.019418988054593925,"113":-0.1725622830378935,"114":0.2193584393151091,"115":-0.01944992914281267,"116":-0.1381401456675991,"117":-0.1403106174331032,"118":0.11243667282392805,"119":-0.02065856360531891,"120":-0.06905873853784965,"121":-0.0114544087964509,"122":-0.1962772397226347,"123":0.020058960915952544,"124":0.05593698030971366,"125":-0.0992570953753467,"126":-0.2545824004522532,"127":-0.05648140824140644,"128":0.11609613451878548,"129":-0.05414339379487916,"130":-0.3883186574578907,"131":0.1671219200303833,"132":-0.012746468503696038,"133":-0.09933781857004996,"134":-0.16090632581315292,"135":0.077235046075217,"136":0.19361113325997273,"137":-0.034586860458701935,"138":-0.12117381628575949,"139":0.04672711985413493,"140":-0.26075844449934216,"141":-0.16477698398679008,"142":-0.021915884218950032,"143":-0.01258729956372412,"144":0.2153271902889503,"145":0.17280943913555474,"146":-0.12020487781571218,"147":0.07672380244341118,"148":-0.0815025428546218,"149":-0.05919093463118854,"150":-0.013014667996239855,"151":-0.13116994216559622,"152":0.1961090595101091,"153":0.02496000549702405,"154":-0.02732084035789254,"155":-0.013762928719890858,"156":-0.06501846454946775,"157":-0.06928017679109783,"158":-0.06125641955007619,"159":-0.1810707665033148,"160":-0.24930293508101778,"161":-0.028662415109886104,"162":0.00005969063158167909,"163":-0.007338851007797667,"164":0.12521684406458028,"165":0.07179804921374691,"166":-0.32847524187306426,"167":0.022555377607850077,"168":-0.3081306834329775,"169":-0.05448171277202509,"170":-0.1509278077357155,"171":0.10591581216213036,"172":0.0036613212508895495,"173":0.23271538435780356,"174":-0.2225508677439269,"175":-0.09401166619938439,"176":-0.1665562196655959,"177":0.05973493084953298,"178":0.12719153573736963,"179":0.014517056434970494,"180":0.07050099619597266,"181":0.1779138404546612,"182":-0.30957053625024084,"183":-0.019264501205488085,"184":-0.16212624498050013,"185":-0.09016326164007459,"186":-0.04837913967073986,"187":0.0785761127291424,"188":0.04445518581540259,"189":0.2284275524371536,"190":-0.22293088207802553,"191":-0.048919958012462246,"192":-0.27124359248808144,"193":-0.10317616064174343,"194":0.08692471652757607,"195":-0.08071603303712956,"196":0.012998845311021178,"197":0.008873780753467697,"198":-0.14741652066758856,"199":-0.1539964065252186}},{"sx":5,"sy":5,"depth":8,"w":{"0":-0.0974147464574611,"1":0.03924029461663029,"2":-0.21516129872982862,"3":-0.003837349706177654,"4":0.26105818523199265,"5":0.04391967495016219,"6":-0.12804675508686605,"7":-0.09115762472901053,"8":0.043812903825670324,"9":-0.10063681947664016,"10":-0.08500201971764379,"11":-0.041896890654537965,"12":0.1102761349068019,"13":-0.07105357485269831,"14":0.06091968340745198,"15":0.024051721047733007,"16":-0.024246541788091405,"17":0.12059207156216467,"18":-0.02310028364479714,"19":0.039800816764384024,"20":0.12104021615334008,"21":-0.029891158168963275,"22":0.06232439653758405,"23":-0.11404528987697976,"24":0.10914924034878261,"25":-0.029533998307579128,"26":0.0007611977878348239,"27":0.10889446363459757,"28":0.005798038419384552,"29":-0.09477612513281732,"30":0.00771152112359738,"31":-0.05980304675041356,"32":-0.07141238231717789,"33":0.034149778997535095,"34":-0.04003244221885248,"35":-0.08880118509416281,"36":0.0005387297375616545,"37":0.05476947238642601,"38":-0.10380671118852718,"39":-0.08506857312835168,"40":-0.11327735053708353,"41":-0.06639781853071322,"42":-0.13523416252652953,"43":-0.1757806894272561,"44":0.11253903786983649,"45":-0.010399826776592399,"46":0.002740567919196136,"47":0.028944053983275198,"48":0.09841103561109293,"49":-0.051595657582263414,"50":0.0463992830766181,"51":-0.12957142171675462,"52":-0.042714003477012756,"53":-0.0802758801905031,"54":-0.04521717027104076,"55":0.0830516155122624,"56":0.010291789995874842,"57":0.14248741063270534,"58":-0.10713116250228343,"59":-0.19121781581111,"60":0.13383949910915785,"61":0.09356507919142779,"62":-0.07651672449132722,"63":-0.03178962222292258,"64":-0.08730226279400312,"65":-0.04673919988621173,"66":-0.22683632387784547,"67":-0.10123947714108779,"68":0.007194072032353911,"69":0.11918861389841524,"70":-0.15376056501462426,"71":-0.14968943780669974,"72":-0.14092986818864764,"73":-0.1255397066842325,"74":-0.05997664081470813,"75":-0.15229219667722102,"76":-0.02996703683108978,"77":0.1395060844535305,"78":-0.0770233982097187,"79":-0.013399606213121808,"80":-0.09632618839506095,"81":-0.012579869089348075,"82":0.02369174939677887,"83":-0.20384049304687582,"84":0.10216776322134354,"85":0.031187946155514214,"86":-0.02277042198898145,"87":-0.19443675487484557,"88":0.00041633008726170445,"89":0.09205702900216753,"90":-0.07089950502711347,"91":-0.0036967157529758606,"92":0.07557991897572154,"93":-0.05652115978963481,"94":0.1301542246226391,"95":-0.16021686898945595,"96":-0.11498779475124649,"97":-0.32851240537890514,"98":0.043072694370998185,"99":-0.20278690062152607,"100":-0.07574778538378782,"101":0.07023608292775037,"102":-0.04960181941681409,"103":-0.14877440335065714,"104":0.010263659772919402,"105":-0.3283443478244128,"106":0.09801074822272561,"107":0.11192275975978495,"108":-0.4167301979541033,"109":0.223243273714944,"110":0.039655926621885475,"111":-0.2501551017531573,"112":0.14979564304166762,"113":0.0010280245322610566,"114":0.04597462350561323,"115":0.40723416310686794,"116":-0.13532925220104425,"117":-0.031444104543831654,"118":0.0923490081635716,"119":-0.12312196820939166,"120":0.05985177554916407,"121":0.1412804023837465,"122":0.13206091502967787,"123":-0.2189231370420796,"124":-0.03354093676686878,"125":-0.10666104006497348,"126":0.006754926723291127,"127":-0.07747449702084816,"128":0.11191904762795367,"129":0.0808503491930724,"130":0.046797069730958034,"131":-0.011913533177121169,"132":-0.17479220137096937,"133":-0.07659153366671455,"134":0.09723804409696993,"135":-0.03953645564530658,"136":0.25403713555041063,"137":0.20694993439175186,"138":0.0011938064650146912,"139":0.20011536906033298,"140":-0.06550437616374384,"141":0.03847605138594323,"142":0.14767476445097885,"143":0.09387320648072246,"144":0.25430685744121956,"145":0.07606968800809863,"146":0.022162107829294408,"147":0.36428203095419626,"148":-0.01907937298110508,"149":-0.11202425681258286,"150":0.11291047313430153,"151":-0.03904976473008899,"152":0.15208074157999188,"153":0.08728896731409917,"154":-0.11092804391542649,"155":0.07062223159324547,"156":0.11646739911199583,"157":-0.08920594051560105,"158":-0.04520796739776551,"159":-0.06390905207238365,"160":0.066488670642992,"161":0.03405931952529409,"162":0.022519849919677547,"163":-0.08434510635916298,"164":0.037682474634051326,"165":-0.12986895577827898,"166":0.030948585516243243,"167":0.12884469075402452,"168":-0.02604371367719108,"169":0.012627951452596924,"170":0.04512829830697679,"171":-0.03321669371010668,"172":-0.0013969859988367168,"173":-0.1041463920790946,"174":-0.0961180757803583,"175":0.01698820904157345,"176":0.07948972183794227,"177":0.16852068261356937,"178":0.005462757854477044,"179":-0.055032320491463456,"180":-0.1484573846656037,"181":-0.078418093934369,"182":-0.1107594559844386,"183":0.04789216667885921,"184":-0.12133983690401305,"185":0.022080843892600007,"186":-0.04437342045175191,"187":-0.16551386956986391,"188":-0.00787203490485984,"189":0.16003552767936097,"190":-0.14199027155985972,"191":0.07857965487924369,"192":-0.20196225889312433,"193":-0.0483754164859529,"194":0.005926740315430855,"195":-0.26303609654766685,"196":-0.19801740344844043,"197":0.08245979961217843,"198":0.018199907012584553,"199":-0.04821499284541766}},{"sx":5,"sy":5,"depth":8,"w":{"0":-0.01411456054683092,"1":-0.03452300704356168,"2":-0.1205497758919141,"3":-0.034972710719535165,"4":0.20866951437856593,"5":0.04991366358985503,"6":-0.06762994023270884,"7":0.05173154010985374,"8":-0.08616180862407913,"9":-0.003338767689667064,"10":-0.005550663054931248,"11":0.04159213468933736,"12":0.07641621036309902,"13":0.19215729613779556,"14":-0.01827468156898201,"15":0.08306415131785833,"16":-0.07388279129646579,"17":0.11377802650302567,"18":0.09613295201270682,"19":-0.0963152049008892,"20":0.03395066541937458,"21":0.2163840795293599,"22":-0.21217070893668358,"23":0.00742502643741331,"24":-0.047915790788212544,"25":0.1695290908415648,"26":-0.10974287048238135,"27":0.048956767827001514,"28":0.11802496359268921,"29":-0.049304239503259226,"30":-0.18821127231111925,"31":-0.024684187305577806,"32":0.05591337875270139,"33":0.05430995395056751,"34":-0.05904805672721344,"35":-0.0033995707422495957,"36":0.09312942269950639,"37":0.043126372619524435,"38":-0.02682095945857744,"39":0.0660239771635861,"40":0.039029101525835164,"41":-0.14204978068711577,"42":-0.02813965106867328,"43":-0.08700977925853336,"44":-0.012600115194793371,"45":0.05435218361259596,"46":-0.06133823809195972,"47":-0.03019419317673536,"48":0.029739162637142557,"49":-0.009332504078084287,"50":0.05534466194909139,"51":-0.20392980325315024,"52":-0.0675001674919375,"53":0.04019649203113187,"54":0.019817215098084845,"55":-0.16588236520965757,"56":-0.21585890454259749,"57":-0.18941781563334706,"58":0.03128387050902685,"59":-0.17270798883687866,"60":-0.15535690278629496,"61":0.2062116770735199,"62":0.07458352127821259,"63":-0.10441451175877423,"64":-0.13421451490645261,"65":-0.01784983827852252,"66":0.08734939958132687,"67":-0.13510975225867927,"68":-0.2614848468137699,"69":0.1256957688292522,"70":-0.08487358344890451,"71":0.013667638255770064,"72":-0.13095077535931915,"73":0.057961836689589805,"74":0.08122851738376524,"75":-0.08650093046273095,"76":-0.19144913636361946,"77":-0.032266536200603525,"78":-0.17430642403872526,"79":-0.024920365121149743,"80":0.08106379729333382,"81":-0.03654355511622745,"82":0.07114394903498955,"83":0.14553493188353064,"84":-0.05187321319358298,"85":-0.07959579229654755,"86":0.057457215939496466,"87":-0.0821943809426102,"88":0.14253540391197425,"89":-0.018859413204794194,"90":-0.08356534423206927,"91":-0.16108581696424598,"92":0.054342996330619196,"93":0.008786682291514365,"94":-0.00742346542712322,"95":-0.09642844424876733,"96":0.01571157526364794,"97":-0.3259535477606763,"98":-0.15960863337517228,"99":-0.297359739157474,"100":-0.07306729844492421,"101":0.15056075986118397,"102":0.030299315791027102,"103":-0.08741373304039618,"104":-0.14172096148841898,"105":-0.15553365201711095,"106":0.1927151192446578,"107":-0.12434544682077235,"108":-0.023409609289419,"109":-0.006156257925134802,"110":0.036173063222936015,"111":-0.023481971871908265,"112":-0.05808936750500692,"113":0.1458023430748419,"114":0.10984328872018169,"115":-0.11419496362520434,"116":-0.02656796687661917,"117":0.014505943365169095,"118":-0.2596128310945936,"119":-0.015542509661694374,"120":-0.010122817121369813,"121":-0.051693198851877384,"122":-0.21240610232031923,"123":-0.07072534898954572,"124":0.1353579338322135,"125":-0.05162406760254702,"126":-0.16483287779200048,"127":-0.007948753278433618,"128":-0.04036282269857902,"129":-0.053769349171944425,"130":-0.05124578407844813,"131":-0.11442021522814466,"132":0.1427346066717926,"133":0.10722759570590266,"134":-0.0011483911373764506,"135":-0.0432365816914113,"136":0.15044446848578244,"137":-0.0881134989536291,"138":0.015062395740480862,"139":-0.053781054546078406,"140":-0.14819123399474082,"141":0.0789995732441624,"142":0.20570709537078177,"143":-0.09702432874982382,"144":-0.12182803876073749,"145":-0.1781672876380497,"146":-0.0458067097755777,"147":-0.16188011480045797,"148":-0.3253489932155596,"149":-0.18656112441527212,"150":0.1841383893132876,"151":-0.2081046632476486,"152":-0.18451284549679714,"153":0.033553427782146865,"154":0.17867123794348191,"155":-0.1656206196569601,"156":0.11462760127630778,"157":0.19136117363668312,"158":-0.03930427079725295,"159":0.04179342529954237,"160":-0.17132169073786238,"161":-0.1752022672568161,"162":-0.023572321415476116,"163":-0.12002437600472357,"164":0.018977269609789002,"165":0.1804373407647891,"166":0.0034643353341431717,"167":0.013133449898896,"168":0.07992815242524741,"169":-0.14357385498618172,"170":0.013582629747604479,"171":-0.04819097119350019,"172":-0.007991625941430509,"173":-0.04127387303321838,"174":0.03924446233471403,"175":-0.06592852751550494,"176":0.12731842768258295,"177":-0.14602023784995605,"178":0.14799259164937228,"179":0.04933431671777566,"180":0.07684873081566752,"181":0.023376822588757687,"182":0.15079824917241372,"183":-0.13961504284350254,"184":-0.025045873166736142,"185":-0.2967679675983771,"186":0.06977156536669495,"187":-0.10229763737653683,"188":-0.10153949333187094,"189":0.14219745199654352,"190":0.17512954295923494,"191":-0.06608970583592746,"192":-0.22726918032978913,"193":-0.2165643326773287,"194":-0.02782416765475636,"195":-0.044873770166343536,"196":-0.0837804382323531,"197":0.19719938426734554,"198":0.0405232740797376,"199":-0.02868866174211829}},{"sx":5,"sy":5,"depth":8,"w":{"0":0.049902680575034886,"1":0.02553035631215755,"2":-0.10950912901384369,"3":-0.12231061141065218,"4":-0.0888783525647149,"5":-0.042944450273865085,"6":-0.09140039572745451,"7":-0.022493276064357727,"8":-0.0514197242418308,"9":-0.09546806595493194,"10":-0.04194915401243434,"11":-0.0003969706469904937,"12":-0.08644054396154778,"13":0.16305310486822558,"14":-0.006821113742498367,"15":0.18597846376078364,"16":-0.038111614454466806,"17":-0.045350301645097055,"18":0.15064881145949055,"19":-0.22893450089792602,"20":0.15658153040848785,"21":0.1398767706897504,"22":0.11506760598476562,"23":0.006279584356189862,"24":0.07380455555382469,"25":-0.0717830500181993,"26":0.10243583794785643,"27":0.01644797789874805,"28":0.13785731846004615,"29":-0.1039600625459901,"30":0.23136338009148857,"31":0.03186424454047589,"32":0.13834106536293042,"33":0.2292938695261728,"34":-0.0008838347537129797,"35":-0.08988894067088196,"36":0.1935985861272329,"37":-0.3737594450908257,"38":-0.0378054046599076,"39":0.017279390094032638,"40":-0.18684495639539997,"41":-0.3166881705826973,"42":0.1795788209449817,"43":-0.12979631538644393,"44":-0.18135630267278782,"45":0.20052900335366583,"46":-0.10526745234573369,"47":-0.11110295187800844,"48":0.18197902592649404,"49":-0.11467566740566171,"50":0.18528751228172563,"51":-0.04154995356141071,"52":-0.11760329415684079,"53":0.14136532592478399,"54":0.11621700120704084,"55":-0.12680527397040484,"56":0.14233719364749658,"57":0.09074620155803925,"58":0.050798592342992235,"59":0.10573307211765813,"60":0.2385255098845117,"61":0.04938770250453337,"62":0.1702940290781291,"63":-0.05604398619287977,"64":0.13368686594931195,"65":0.11216779371035011,"66":0.02083707440409937,"67":0.08778663212148505,"68":0.07685212778100999,"69":-0.18381475971012845,"70":0.12443547187397766,"71":0.26592267489954136,"72":-0.007246802192058324,"73":0.15637891193497133,"74":-0.07135931063742416,"75":-0.05823536804260069,"76":0.218467158335401,"77":-0.04864581939435773,"78":-0.09206683221995576,"79":-0.023156211803367664,"80":0.09493497193386463,"81":0.021047614213825415,"82":-0.06903705078997567,"83":0.08288992386922996,"84":-0.1345009849549279,"85":0.0351116125636189,"86":0.006552621999363648,"87":-0.03500618207030481,"88":0.08874172522087456,"89":0.017323162483097697,"90":0.11153177438013716,"91":0.0836612388644174,"92":0.04237972376260523,"93":-0.29249924302422914,"94":0.040433504509279045,"95":-0.0577472900318915,"96":0.1144638068680972,"97":0.18355882168581134,"98":-0.0848088518481657,"99":0.14486004625457513,"100":0.21983200062310398,"101":-0.28352486632420537,"102":-0.04812487415553993,"103":-0.13624676422818224,"104":-0.14389414799977432,"105":-0.007543269903350706,"106":-0.030816488713032688,"107":-0.08036822803718667,"108":0.025981500832045278,"109":-0.12891770359762106,"110":-0.07715923185962632,"111":-0.05587252717065736,"112":-0.3348023613912455,"113":0.11468732734475331,"114":-0.17150530891670937,"115":-0.15088285458962464,"116":0.13783615052120204,"117":0.03031105685428579,"118":-0.3668387398901397,"119":-0.007363098776947035,"120":0.023197977881598917,"121":0.08192134487611505,"122":-0.011536587449342672,"123":-0.020821267123492273,"124":0.10504432621185765,"125":-0.016791465647767498,"126":-0.00724815546818014,"127":0.07415566270794852,"128":-0.0343105240453149,"129":-0.019881624420367307,"130":0.04141552255378841,"131":-0.0643755579954852,"132":-0.016267591507158195,"133":-0.07442778891383654,"134":-0.06439994267376221,"135":0.06154168665042152,"136":-0.1300718477741892,"137":-0.06702214643967713,"138":0.007665803622628281,"139":-0.188853368366621,"140":-0.15188692357227526,"141":-0.08594512918100558,"142":-0.14821492335420955,"143":0.06219585444937685,"144":-0.22521833689354187,"145":-0.22048386171902656,"146":-0.07659559660180852,"147":-0.1080488406115701,"148":-0.07159607197286533,"149":-0.03908536420985598,"150":-0.16554352770467948,"151":-0.06832944803645127,"152":-0.0785185354308781,"153":-0.0806257930960916,"154":-0.06431080291872436,"155":0.10343422847322985,"156":0.009646382785149725,"157":-0.07650354312376902,"158":-0.16270042124042117,"159":0.03611673075396831,"160":-0.017638427651337444,"161":0.10792319333663676,"162":-0.11072506016021082,"163":-0.08539482378481882,"164":0.2527112876121223,"165":0.04508252325328922,"166":-0.04088661186287191,"167":0.04307154840793621,"168":-0.031270142935274886,"169":-0.03096468764576394,"170":0.0770788435184621,"171":-0.10442819987069349,"172":-0.10290830512155216,"173":-0.019210015579542924,"174":-0.007107265825740554,"175":0.07882489536752532,"176":-0.2009680476627119,"177":0.14572381259755654,"178":-0.07722773630858085,"179":-0.08409199144333587,"180":0.02952439298473187,"181":-0.13298733219239625,"182":-0.18019220010846648,"183":0.1305919764960259,"184":-0.1951494948299669,"185":0.1382248295420902,"186":-0.24424190799831152,"187":-0.03761281424802047,"188":-0.03643174586894542,"189":-0.21413046368493144,"190":-0.02491203008495596,"191":-0.01227738329139848,"192":-0.08608715631343292,"193":0.1530971500445763,"194":-0.00585732962849011,"195":-0.08910150190988553,"196":0.03604555076189887,"197":-0.15393177535841454,"198":0.001150629609227723,"199":-0.002006002321053069}},{"sx":5,"sy":5,"depth":8,"w":{"0":0.046289447034088334,"1":-0.13310291629167165,"2":-0.063345282762666,"3":-0.08628102016388568,"4":-0.07937379154521476,"5":-0.023411723313185008,"6":0.04370549439120697,"7":-0.15012192775231759,"8":0.04078097497238848,"9":-0.13343669524330504,"10":-0.025821436126783094,"11":0.04205945826091891,"12":-0.10085533182635152,"13":0.06336113384644235,"14":0.10707548919219342,"15":0.1848656126631709,"16":0.12051592494495815,"17":0.19868268986118406,"18":0.0248765006077364,"19":0.008036171347857996,"20":0.14196189878208884,"21":0.002950446900688493,"22":-0.15449910435268738,"23":-0.14315780785215154,"24":0.08648056322760195,"25":0.08072875221096056,"26":0.020346697595317303,"27":-0.05698730258021103,"28":-0.07184902880027759,"29":-0.15922010588857602,"30":0.025562968283088888,"31":-0.06577353994212971,"32":0.07846449717789467,"33":-0.06121632353091052,"34":-0.04009696475510661,"35":-0.014652556541779802,"36":-0.10931126835979271,"37":0.10796320007655798,"38":0.12895053484147403,"39":0.04840893366043652,"40":0.07665732493571545,"41":-0.2645341787784819,"42":-0.24539559716676976,"43":-0.07451350617520551,"44":-0.06887113145910241,"45":-0.08094461314460154,"46":0.03219427378066064,"47":0.06179225895841619,"48":-0.08980282915998565,"49":-0.027938200666038356,"50":-0.04406725839918338,"51":-0.14793826025284665,"52":-0.15197824729642684,"53":-0.03616168279727721,"54":0.0964607639222693,"55":0.020468500788336445,"56":-0.0037295624350580803,"57":0.07277740068878337,"58":-0.017621285639095825,"59":-0.08827633127033102,"60":0.08077711116562893,"61":-0.29900749614776073,"62":-0.08218350696276518,"63":0.010451182303372593,"64":-0.07834087257763676,"65":0.024964146620876485,"66":-0.11651653751305044,"67":-0.055163181842182135,"68":-0.033010516765463065,"69":-0.035070281754562116,"70":-0.05439232785096837,"71":-0.02431135694108956,"72":0.132023250374282,"73":-0.356770641709129,"74":-0.027438037542727008,"75":-0.21314648559678084,"76":-0.10375634160026803,"77":0.011184986147683334,"78":0.022531221221486167,"79":0.07510309201708894,"80":-0.06645110367337743,"81":-0.03280600243677501,"82":-0.03546925309654822,"83":-0.028790596669557918,"84":-0.07212008578436105,"85":-0.10750159032384282,"86":0.2473975000621306,"87":0.03189184122073083,"88":0.09485988339548235,"89":0.10340021023282976,"90":-0.01871147489492988,"91":0.07460400515196317,"92":0.16895668313885295,"93":-0.23387840143704566,"94":0.08167784342410105,"95":0.20985343558277061,"96":-0.09642035701444829,"97":0.05412024793753688,"98":0.03451963655210192,"99":0.033965570783542044,"100":0.2485930974546826,"101":-0.11841561763844452,"102":-0.12710175806719934,"103":-0.028451521724527685,"104":-0.03502011468608531,"105":-0.13682498099481005,"106":-0.2441028399053726,"107":-0.044424083055710134,"108":-0.0010887576001394753,"109":-0.15545540435002111,"110":-0.10527591064546638,"111":0.14402555806711198,"112":0.21691008550970714,"113":-0.3011986776738552,"114":0.016098820052637384,"115":-0.41914218767948086,"116":-0.2971148644855835,"117":0.04625529958608797,"118":0.24852479398364524,"119":0.16039974700910162,"120":0.06370773072361377,"121":-0.08616993415535028,"122":-0.01431985109953393,"123":0.2758535906153762,"124":-0.06761108900520117,"125":-0.1288825324570663,"126":0.129666250125655,"127":0.12657091796950565,"128":0.030936469936628987,"129":0.16454490110408126,"130":0.03455771194762565,"131":0.13973755458878254,"132":0.11866104154492092,"133":-0.19680310232287035,"134":-0.009890068421762375,"135":0.036195479843853545,"136":-0.13943382540215543,"137":-0.027257195779439476,"138":-0.201179156689071,"139":-0.12405500426267053,"140":0.18779507138228352,"141":-0.006580498082705348,"142":-0.10010248562704623,"143":-0.09660188062905102,"144":-0.05848422159956296,"145":-0.03507544049468986,"146":-0.23942052544165002,"147":-0.18450077642135929,"148":-0.1759981175204381,"149":-0.19689622428708317,"150":0.031760678261321514,"151":0.08815622620971224,"152":0.15808441818236407,"153":-0.30729472252580065,"154":-0.03609349545865226,"155":-0.2678050067263198,"156":-0.01861967569756946,"157":0.009048370164447907,"158":0.21680383794361383,"159":0.04725592102038528,"160":0.1487906279821447,"161":0.20917637051116192,"162":-0.17653796205891772,"163":0.2102766414397717,"164":0.33812342533773354,"165":0.1275874637168728,"166":-0.03699768423179023,"167":0.054290798923192767,"168":-0.18189813476144476,"169":-0.06263807284885547,"170":0.02222516225750591,"171":-0.06881231077671268,"172":0.21931552224500478,"173":0.016827830910898175,"174":-0.05737193106315281,"175":0.05126460552093314,"176":-0.13593792183565845,"177":-0.07451637774018169,"178":-0.02121210494166638,"179":-0.13687150069969725,"180":-0.013451323575733422,"181":-0.037624896523123265,"182":-0.17554407379916764,"183":-0.05228053539158485,"184":0.10651090018655954,"185":-0.06583556028023235,"186":-0.17608274905583032,"187":-0.16661098476154323,"188":-0.048003436646498705,"189":0.032139675978069375,"190":-0.013730996348576118,"191":0.09270688001675924,"192":0.09791828818653012,"193":-0.19542838653600075,"194":-0.016377978686603088,"195":-0.06278301215553354,"196":-0.1297605795658142,"197":-0.00947115504073023,"198":0.13710536091672382,"199":0.028540964427485736}},{"sx":5,"sy":5,"depth":8,"w":{"0":-0.2041393347826729,"1":-0.13843162044974408,"2":-0.11239294642759125,"3":0.03244072098560651,"4":0.12805625217985162,"5":-0.02540541281070401,"6":0.1415591630884535,"7":0.005162387901321102,"8":0.008854454867362645,"9":0.08269141710900456,"10":-0.20774138250865531,"11":-0.1307444259606556,"12":0.10702444884469009,"13":0.008818303405410535,"14":0.15723904444646303,"15":-0.07690801484805988,"16":-0.016597188769628644,"17":-0.07144976997848648,"18":0.026783373351846575,"19":-0.008792586941272383,"20":0.24027301384775118,"21":-0.17116130129156598,"22":0.24518431458897322,"23":0.024049202271224673,"24":-0.22770625258940075,"25":0.01880190235875744,"26":0.036440744440763,"27":0.055490943327786986,"28":-0.11593822810170454,"29":-0.14453119065867756,"30":-0.08867370712777017,"31":-0.08493272938389321,"32":-0.18859176188488613,"33":0.020987922482120287,"34":-0.25666820695975157,"35":-0.11719756750077287,"36":0.0403793201118662,"37":-0.10728361099108252,"38":-0.24248861904806232,"39":-0.07504714287053414,"40":-0.06085044488956759,"41":0.115528831819508,"42":-0.04846482772893086,"43":-0.027788915901617025,"44":0.03963385168926548,"45":-0.19076537421774464,"46":0.08817106204990718,"47":-0.02022954212242516,"48":0.06428993477585598,"49":0.12718403604069733,"50":-0.14133073238552124,"51":0.011369779083951209,"52":0.09891520305579338,"53":-0.10032398793288136,"54":0.009956088677268252,"55":-0.058191563663980095,"56":-0.10014515401738128,"57":0.04372748217570745,"58":-0.06163982266598993,"59":0.22268854630647758,"60":-0.09131968360762291,"61":-0.20684785514946238,"62":-0.011296199857018761,"63":0.09123191425533528,"64":-0.08624462850112652,"65":-0.013089876779149938,"66":0.01889676130077534,"67":0.048888261380344064,"68":-0.0156220135281144,"69":-0.2378184930051454,"70":-0.10810877256137778,"71":-0.010619573892711278,"72":-0.07234461717381686,"73":-0.000011262316575387373,"74":-0.0786920826300283,"75":-0.16122484687427963,"76":0.08650170426969889,"77":0.002709006179539207,"78":-0.0462283848380203,"79":0.02230105606710158,"80":-0.1327166414535401,"81":0.11145940949608713,"82":0.005027170585386998,"83":-0.16394799370620994,"84":0.07525163391804295,"85":0.07914678336704355,"86":-0.042927910109995394,"87":-0.12614662069239524,"88":0.05776411330020639,"89":-0.10244602688753762,"90":-0.06369503786593235,"91":-0.03285392489700025,"92":0.256504630023236,"93":0.07421409382192948,"94":-0.17705507774387755,"95":0.03842063078560937,"96":-0.023891492560438245,"97":-0.06864883345810849,"98":-0.07996415930526497,"99":-0.03506077215630008,"100":0.0530509575592044,"101":0.0894169610452528,"102":-0.06265821421721518,"103":-0.09517566281170053,"104":-0.2011423580239012,"105":-0.05913151927476243,"106":-0.05392044326443837,"107":-0.222937193030606,"108":-0.022021727644367106,"109":0.11901668779571327,"110":-0.29032822720076057,"111":-0.1252725425135313,"112":-0.004051489324939598,"113":-0.16019411430232555,"114":-0.012134346157115002,"115":-0.0647357410545166,"116":-0.07161682601414059,"117":0.10331689603685074,"118":-0.05791757733205583,"119":-0.09482969546661045,"120":-0.1326865516977926,"121":-0.17335252631855402,"122":0.10962342119958322,"123":-0.17073156233347825,"124":-0.0043414504131356925,"125":0.09858154848634498,"126":0.02740073335134472,"127":-0.1818126104372585,"128":-0.010979566168948714,"129":-0.12343559626898298,"130":0.26868820613859334,"131":-0.03657328658516792,"132":-0.09030546298080129,"133":0.04521234739983438,"134":0.10462686638693178,"135":-0.2660086084830064,"136":-0.07032645633266932,"137":-0.18380454847286495,"138":-0.04219925917742319,"139":0.12039616296699546,"140":-0.20931222274373457,"141":0.18650801455847005,"142":-0.03196509443656138,"143":-0.07404587871399285,"144":-0.09104296871325078,"145":-0.12787062613667424,"146":0.11002517538145748,"147":0.006070322718929182,"148":-0.21726574220899483,"149":0.19104357028429236,"150":-0.041893937241005846,"151":-0.100760540327997,"152":-0.08539338401774427,"153":-0.1020695431167184,"154":0.008867273810254832,"155":-0.162585068352126,"156":-0.09440236251308635,"157":0.15148687400339533,"158":0.005202425300730312,"159":-0.15939307376671782,"160":0.1233145706265334,"161":0.04240895048419177,"162":0.17279068018297086,"163":0.15924794103168782,"164":-0.20321787967002092,"165":-0.09958915889230065,"166":0.016618581881382,"167":0.02940385844747523,"168":0.16120752977244543,"169":0.06087026775590211,"170":0.041041273356597324,"171":0.17259872029178933,"172":-0.153419134767086,"173":-0.0770002812152906,"174":0.06304948620970185,"175":-0.04360616410331589,"176":0.21384226274673035,"177":-0.03968904364949218,"178":0.015237437906226406,"179":0.11434646073808749,"180":-0.29749803176481815,"181":-0.062013607531643915,"182":0.15857134307200943,"183":-0.05158768038831625,"184":0.06407980231279527,"185":-0.0010680754894532023,"186":0.042061298909072085,"187":-0.09264299087204923,"188":-0.05128605586725146,"189":-0.029492783510518945,"190":0.03529059859754873,"191":-0.20722574590795292,"192":0.003943540184032781,"193":-0.1519376072457752,"194":-0.010472423647284164,"195":-0.007670592770435717,"196":0.0372465983633624,"197":-0.045246384920221164,"198":0.054325471542093884,"199":-0.037372797122895964}},{"sx":5,"sy":5,"depth":8,"w":{"0":-0.18641713761659692,"1":-0.20388381630958277,"2":-0.2893418356173642,"3":0.08013494242455703,"4":0.04485842356976649,"5":0.1103964268250778,"6":-0.23219376014380408,"7":0.10367701166970217,"8":-0.21187949608886378,"9":0.15528113994537485,"10":-0.03412547584563081,"11":0.08017351014741068,"12":-0.053102066173981936,"13":-0.04415731991402057,"14":-0.11616143444669955,"15":0.05149175591884896,"16":-0.09003968052575181,"17":-0.04141077087174624,"18":-0.0939824505567398,"19":0.12425937227305854,"20":0.053775422782346684,"21":-0.07304208389548794,"22":-0.16412524135269035,"23":0.038725798390180095,"24":-0.22976383579852458,"25":0.0002129177074945555,"26":-0.1640337249941178,"27":0.040136370483154826,"28":-0.014466726978752925,"29":0.008625941501465362,"30":-0.16506538948174848,"31":0.033093477800950226,"32":-0.16958429709626474,"33":0.07569787742908915,"34":0.014851253082730609,"35":-0.03682505804406188,"36":-0.022944596060362928,"37":0.03022513693466819,"38":-0.20073160922481917,"39":0.010886883770209136,"40":-0.2897476405629974,"41":-0.11788736252107164,"42":-0.0925961120839705,"43":-0.016107954759476673,"44":0.020611717766621084,"45":-0.06976198651563371,"46":-0.06728599178285162,"47":0.1239305125430308,"48":-0.2504669265924432,"49":-0.06542875436404956,"50":0.0011159053964267453,"51":-0.08507475673083413,"52":0.05184479832932375,"53":0.11373036061258279,"54":-0.15954222453541841,"55":0.11096691754229797,"56":-0.32433105305575216,"57":-0.15110494437222072,"58":0.09367345073536135,"59":-0.02904359700873806,"60":-0.045669406780462246,"61":0.013997074546537803,"62":-0.2780557964755388,"63":-0.005149804708377078,"64":-0.19407539388347939,"65":-0.14605202261084643,"66":0.08128284192346441,"67":-0.14763498988307353,"68":-0.04132711244947706,"69":0.27845103800039955,"70":-0.03358098538499436,"71":-0.0406874348514566,"72":0.09647156509340032,"73":0.021862561479313217,"74":0.15465950456221914,"75":0.03106932648199826,"76":0.028019320560288323,"77":0.13087532430079787,"78":-0.009261416904030055,"79":0.03243183199831726,"80":-0.046588727244903316,"81":-0.14191932417576916,"82":-0.015642473333086236,"83":0.01608648265704367,"84":-0.004247842158195105,"85":0.11499673094162481,"86":-0.08035326805838315,"87":-0.03719433651587051,"88":0.0362570675175368,"89":-0.16067486473486292,"90":0.09086226076365818,"91":-0.11458754500896536,"92":-0.05013582425929243,"93":-0.0800951416802968,"94":0.11782537486578196,"95":0.015017466218387216,"96":0.038013433307617465,"97":-0.06447687771613819,"98":-0.01564125937580087,"99":-0.18589174818794624,"100":-0.1423856107005657,"101":0.15543737074865002,"102":0.0572668019386833,"103":0.05471568178596818,"104":0.11776224348546088,"105":0.02692518084892188,"106":-0.01314644027781249,"107":-0.10125552791683654,"108":-0.22522710405563967,"109":0.08091062528472368,"110":0.02515714686804234,"111":-0.1007956877028277,"112":0.020245308521219123,"113":0.03942080824679483,"114":0.0038506128807493053,"115":0.09421607470602898,"116":-0.1394161347187414,"117":-0.021739500080917087,"118":-0.00518346968634918,"119":0.08414790505873054,"120":-0.11232776677806644,"121":-0.04140993729596129,"122":-0.08061939242100881,"123":0.014463113615937991,"124":0.009987979933248868,"125":-0.12005310512480988,"126":-0.05866083638053765,"127":-0.0019090778233250328,"128":0.021065588061959132,"129":0.06121290816953964,"130":0.017637905725754754,"131":0.10923041276407071,"132":0.03179489773500751,"133":-0.17911004538191974,"134":0.11267478582237875,"135":-0.040539738658400645,"136":0.14823737579037152,"137":0.23680440677691825,"138":-0.06259840131130474,"139":0.04261129122553401,"140":-0.054110931391202925,"141":-0.12380728073107941,"142":0.006528379228191419,"143":0.11081158976128024,"144":0.24045630363008144,"145":0.15609668076725006,"146":-0.020428662959808556,"147":0.11274705916472955,"148":-0.051917277015903186,"149":-0.22221474551611994,"150":-0.01626351384824078,"151":-0.0895721292377729,"152":0.11506189291037826,"153":0.005747614939118789,"154":-0.19348696886261985,"155":0.15861270611090264,"156":-0.016888297867725655,"157":-0.1061412588418814,"158":-0.06387472871704261,"159":-0.03533918608832381,"160":-0.009695347631575849,"161":-0.03558927544130898,"162":0.030009512228246337,"163":0.077763051858003,"164":-0.062083181774442955,"165":-0.09735166210290065,"166":-0.2431762508403483,"167":-0.01221000034242092,"168":-0.011955501319172447,"169":0.15823913248523225,"170":-0.06769114506240184,"171":0.21967288780765473,"172":-0.11217644488591175,"173":-0.05819727385819024,"174":-0.13236157169379206,"175":-0.07511406855526825,"176":0.05814636661711942,"177":0.02030607296437202,"178":-0.0349393545541451,"179":0.0472073429902726,"180":-0.1371190679952644,"181":-0.0729502719224785,"182":-0.014500459367663573,"183":0.01238888210609827,"184":0.0801257383071718,"185":0.17149034142877387,"186":-0.2975759892716085,"187":0.01750067980404506,"188":-0.0431532558751289,"189":-0.21171956558551822,"190":-0.15113050820231183,"191":-0.03924414325793591,"192":-0.028741015715023112,"193":0.04245915603469099,"194":-0.2868127836796686,"195":0.04353345954500713,"196":-0.007958816993637608,"197":-0.02765776521884329,"198":-0.23263649641038578,"199":-0.18922766809430078}},{"sx":5,"sy":5,"depth":8,"w":{"0":-0.018584913366550986,"1":-0.010655261073764358,"2":-0.14582217826667626,"3":-0.03820175722089629,"4":0.03330659968697904,"5":-0.0005100891522304529,"6":0.01082269182616549,"7":-0.13032106445456246,"8":-0.023231554229359536,"9":0.019458417027604234,"10":-0.25555440657802697,"11":-0.03957014434502355,"12":0.06461699618883394,"13":0.016800539436002345,"14":0.04838189545054677,"15":0.10513735876290373,"16":-0.04965705317414143,"17":-0.1010892999511426,"18":0.02919506344596866,"19":-0.10952031557811903,"20":-0.02500237467335065,"21":0.036389363336724566,"22":0.025240594164832052,"23":0.11559351796497488,"24":-0.14090289705131195,"25":0.06581936263292576,"26":0.014704001570872009,"27":-0.20279078504091666,"28":-0.00096094574588303,"29":-0.026450526570940713,"30":-0.03102011891624141,"31":0.12012427748587597,"32":0.06385857657359223,"33":0.04738479271537657,"34":-0.009407588574393085,"35":-0.08995735333422895,"36":0.05863894670889353,"37":-0.05394285217404763,"38":-0.05214202437159506,"39":-0.15462029913895203,"40":-0.09561962136610468,"41":-0.013451379884849452,"42":-0.09910142656346038,"43":-0.0610932115885664,"44":0.014259878380545866,"45":-0.0779205493732618,"46":0.056430308042772964,"47":-0.08924419923299093,"48":0.06505366429555834,"49":-0.10053795553565845,"50":-0.05471462580629388,"51":0.01104116407025045,"52":-0.036403072863026,"53":-0.044508920764313946,"54":0.06006297799020762,"55":-0.05438524331893031,"56":0.035054843527321494,"57":-0.259316005951558,"58":0.024364059039199443,"59":-0.1445686675864021,"60":-0.20257707730704339,"61":-0.037498020925078604,"62":-0.027466013667941016,"63":0.0441295029859702,"64":-0.10959486393391599,"65":-0.019045691387472183,"66":0.06164811801581452,"67":-0.17002571001602407,"68":-0.010013458529016438,"69":0.0317418253333786,"70":-0.13649847781460542,"71":-0.03904404952338931,"72":-0.12944445781472486,"73":0.038776955843185995,"74":0.054769215776931966,"75":-0.14669341611727507,"76":0.08253240321547867,"77":0.09802384277801593,"78":-0.08945082985405915,"79":-0.12804309197560473,"80":0.023355471075389246,"81":-0.00465180337581164,"82":-0.12053618490452558,"83":-0.06611887980977917,"84":-0.012899651542042223,"85":0.008513686061036828,"86":-0.0865015087077382,"87":-0.15346707649596852,"88":0.03327906938335207,"89":-0.02570319391116022,"90":-0.008493776515343577,"91":0.05654730491921513,"92":-0.0005510593817841512,"93":-0.012321380330962351,"94":0.0262325216229546,"95":-0.03028408009134899,"96":-0.13222445601445992,"97":-0.02068160804654132,"98":-0.053890247891438176,"99":-0.10327604737129373,"100":-0.051604137468595906,"101":0.03177591009152935,"102":0.20352445515709636,"103":-0.1815141082713496,"104":-0.19030663041862114,"105":-0.10048037364587631,"106":0.031009299138934222,"107":-0.044103754073611987,"108":0.01839878708387463,"109":0.018061060056822033,"110":-0.09802575554920626,"111":-0.16520228913858445,"112":-0.014284049750698352,"113":-0.2839471575147976,"114":0.059181079502318885,"115":-0.07711567651443031,"116":0.08850754018652486,"117":0.14792535253438965,"118":0.04417324436639761,"119":-0.009393641541533491,"120":-0.06896392984562047,"121":-0.1405155187371122,"122":0.03034838731378348,"123":-0.1656837760136003,"124":-0.05690443146431039,"125":0.1619195290280854,"126":-0.08770688827866095,"127":-0.10766412230593693,"128":-0.05788104940808926,"129":0.015261250406766508,"130":-0.13910765306464898,"131":-0.18164223376617755,"132":0.08923824165319447,"133":0.09864063055965926,"134":0.008300553107501805,"135":-0.19179557520134508,"136":-0.09083338519131565,"137":-0.18158024085488245,"138":0.01640429626520223,"139":-0.14465546546801092,"140":0.019112309653962323,"141":-0.021423038845891817,"142":0.01051008061430899,"143":-0.21137626076592586,"144":0.017486868296880037,"145":-0.1362540979816163,"146":0.01587334423968094,"147":-0.0180183041640872,"148":-0.03119380941399058,"149":0.09762235753321812,"150":0.015748345269546844,"151":-0.26102602972976585,"152":0.1165120086313725,"153":-0.0361527046834698,"154":-0.020982433056779274,"155":0.10478633748914558,"156":-0.35877400380867863,"157":-0.03987049184405602,"158":-0.011327124083924481,"159":-0.06777290420828623,"160":0.03849590760674079,"161":0.1594533524563904,"162":-0.021783839245308214,"163":-0.16394687734024782,"164":0.005662946970090444,"165":-0.046276684745784086,"166":-0.0258465873955924,"167":0.00505004974650714,"168":-0.0369683586114907,"169":-0.11979644058654619,"170":-0.05638714965929623,"171":-0.1285149029054936,"172":-0.17035853944749768,"173":0.09543467397381244,"174":0.1531287489433757,"175":-0.14618714609150998,"176":-0.09049630657316673,"177":-0.13430144678213124,"178":-0.01723922841968795,"179":-0.09412899168651773,"180":-0.1250704769512203,"181":0.012486668204313505,"182":0.13864857574977701,"183":-0.06175752063505519,"184":0.11277764824834023,"185":-0.03487928110237011,"186":0.013593159859594306,"187":0.15661289697378586,"188":0.04648860522680223,"189":-0.2029309931165246,"190":0.16753483526478985,"191":-0.08531302643031075,"192":0.02258191839167276,"193":0.13118547532686287,"194":-0.01444670999597728,"195":-0.07167261642702544,"196":-0.07107517515548249,"197":-0.0700576798539336,"198":-0.04775682914792675,"199":-0.09928601706919085}},{"sx":5,"sy":5,"depth":8,"w":{"0":0.1716238117915025,"1":-0.19091557567582104,"2":-0.0802752364314844,"3":0.018650154615940214,"4":-0.09271558209823139,"5":-0.00041627990311933027,"6":-0.07732505520554325,"7":0.12128186054141399,"8":0.07771961554904656,"9":0.05304516233041373,"10":-0.19522277115429973,"11":0.18527186216885597,"12":-0.04963824603327575,"13":-0.28177875833860494,"14":-0.06993916831459779,"15":0.07509615552493425,"16":0.1428633463241061,"17":0.27137765114691087,"18":-0.16395075561859213,"19":0.31071071879378637,"20":0.026852799245521804,"21":-0.11206460654997465,"22":-0.07773680524783143,"23":0.09605014218807499,"24":0.0073808632429957595,"25":0.04471384838477946,"26":-0.1676287036059221,"27":0.03083539783193335,"28":0.2557968677012119,"29":0.11857797556430186,"30":-0.11074543466028541,"31":-0.12360369124616499,"32":-0.017187966775934805,"33":-0.08634245957162921,"34":0.022712694281287846,"35":-0.22399560533378124,"36":0.23742880579304493,"37":0.06996418858437986,"38":-0.056205325203497254,"39":-0.08909808974364493,"40":0.042161925230760275,"41":-0.045346954788979967,"42":0.017656044922301165,"43":0.1636662206741305,"44":-0.17245728440814248,"45":0.005383532049971123,"46":-0.03964413209640593,"47":0.05239938407287597,"48":-0.025937278841869787,"49":0.1745701934782958,"50":-0.1278234569926362,"51":0.17006575940057556,"52":0.0389242587333196,"53":-0.0636722038401817,"54":-0.1529225848347278,"55":-0.14914514885780542,"56":-0.2762383332679356,"57":0.276950096387978,"58":-0.12101752845472118,"59":-0.026939785752943358,"60":0.2592766778734581,"61":0.25965875369743296,"62":-0.27978146115824454,"63":-0.0916877025334054,"64":-0.413243844939175,"65":0.06368578988252754,"66":0.017314439752451588,"67":-0.32891668048187406,"68":0.1969731683917334,"69":0.1996546401958887,"70":-0.005412957846651004,"71":-0.022647900800534384,"72":0.060663324971493716,"73":-0.07906398244765486,"74":0.11803939257476768,"75":-0.12324487405163109,"76":-0.043388890503804976,"77":-0.0006654773213674275,"78":0.25983033563923524,"79":-0.07664431888541035,"80":0.031701656534329055,"81":0.13510809049120193,"82":0.01774102851826294,"83":0.15266141384994614,"84":0.11621296597716763,"85":-0.16921516426911773,"86":-0.02983234647381292,"87":0.07709636879939924,"88":-0.30903099894398794,"89":0.012817109656437542,"90":-0.045817289802901034,"91":0.02545811501800742,"92":0.1069302373052311,"93":-0.020288026877739625,"94":-0.06221272284252633,"95":-0.02483489814064769,"96":-0.11592554966574135,"97":-0.13303217789759073,"98":-0.06391933492998285,"99":-0.1213879094286476,"100":0.004812651918112908,"101":0.2016573841950749,"102":-0.008621611072207165,"103":0.028356841260167444,"104":0.08270854246378773,"105":-0.007551345945621604,"106":0.050728487447802964,"107":-0.3681854683642957,"108":-0.14652966478391802,"109":0.1671102129377208,"110":0.09947457619159572,"111":0.02335493874867702,"112":0.13604475833187485,"113":0.23366591131065648,"114":0.12439442236048588,"115":-0.047933974072226326,"116":-0.08119126243442558,"117":-0.1367426810763796,"118":0.13439667422073714,"119":-0.09917001083606143,"120":-0.225773609870151,"121":0.16676844791651235,"122":-0.032716380441220126,"123":0.04218901509356231,"124":0.10330533089851013,"125":-0.11204397371306411,"126":-0.14138476864614416,"127":0.09612453411085993,"128":-0.22181699776613653,"129":-0.1532160387719459,"130":-0.034029628869260004,"131":-0.27266953573989955,"132":0.08574566929001766,"133":0.062221943448886374,"134":-0.056862528903113295,"135":-0.12593001623460257,"136":0.05628499339232392,"137":-0.24751245954752507,"138":-0.024025650508742426,"139":-0.2613951829494889,"140":-0.21670747207865348,"141":0.19693930521659714,"142":0.14060594171722607,"143":-0.03532982283964206,"144":0.025240436824401916,"145":0.1410414134281976,"146":0.04351835835179385,"147":-0.17002787773802802,"148":0.07321019004335133,"149":-0.09164785252973486,"150":0.15503555741961922,"151":0.060486563603113115,"152":-0.0810618950734759,"153":0.1820366765466882,"154":0.08960073326178045,"155":-0.38703450952757135,"156":0.23982695532562606,"157":-0.01915362046107353,"158":-0.018238825600736388,"159":0.11094338176474806,"160":-0.19252613588816567,"161":0.07015922596942152,"162":-0.03794045259108801,"163":-0.22455642765127745,"164":0.2700500356404362,"165":0.12639916312512353,"166":-0.22463076796729115,"167":-0.09414095829367802,"168":-0.11469360537272164,"169":-0.10113399380825416,"170":-0.055424069611415924,"171":-0.2203913601550628,"172":0.05231625410558564,"173":-0.03763821691840934,"174":0.09408902533346873,"175":-0.10482524793690105,"176":0.06217321756883936,"177":0.03015262771304819,"178":0.0899835952125023,"179":-0.2911100193753836,"180":-0.07663027054073362,"181":-0.061466135002314445,"182":0.12952042333416144,"183":0.18554610763490906,"184":0.03026177565636394,"185":0.06143453534319421,"186":-0.0020072274587870764,"187":-0.21710092376359863,"188":0.0507658923283597,"189":-0.11995849913812233,"190":-0.010906345608886979,"191":0.23229669651296683,"192":0.1132661561397529,"193":0.10165103558818449,"194":-0.09902845129604303,"195":-0.17504247665437,"196":-0.04205613794738268,"197":-0.17530462766874863,"198":-0.14737423719775736,"199":0.11534721613587318}},{"sx":5,"sy":5,"depth":8,"w":{"0":0.12539940199793334,"1":-0.33481475396372423,"2":-0.11385224658796991,"3":-0.18753944213350834,"4":-0.08625376603339831,"5":-0.04937653040102062,"6":0.33495322273609945,"7":0.0635259249315531,"8":0.06791267788254456,"9":-0.020451759701643903,"10":0.05838374329577261,"11":-0.304298176361852,"12":-0.061361738681975996,"13":-0.18143051599240803,"14":0.18590883620417617,"15":0.0901841203828055,"16":0.04458232989101291,"17":0.18860332452403003,"18":0.10051660418232439,"19":-0.20741658643353883,"20":0.2105848205255036,"21":-0.28024693204195944,"22":-0.007051366327994764,"23":-0.0826463735884511,"24":0.13277643822728288,"25":0.05651622590897285,"26":-0.17076069268057065,"27":-0.030042476766253316,"28":0.010993307961133377,"29":-0.2978000872271605,"30":-0.10773864409932173,"31":-0.07490213626579538,"32":0.0871150189373889,"33":0.03313041804878054,"34":-0.10575658480319827,"35":0.03943022454639975,"36":-0.11602990943477567,"37":-0.25724988781498503,"38":-0.02113730623157202,"39":0.002790278920905666,"40":0.04102377899770956,"41":-0.34648707933527007,"42":-0.1215917082017618,"43":-0.32430769035964,"44":-0.12949495575559614,"45":-0.022858876950886682,"46":0.29942017752364314,"47":0.0790018955713772,"48":-0.06599028289449546,"49":0.017088176230945613,"50":0.11911964735223846,"51":-0.2612014624422063,"52":0.05188340728733063,"53":-0.17618866027596086,"54":0.12908861957426318,"55":0.22905969824445072,"56":-0.1716057333035239,"57":0.24773472559172674,"58":0.2118550394237096,"59":-0.18425831911183896,"60":0.13990114895636127,"61":-0.12839562144577324,"62":-0.2552532017668409,"63":0.02616211131418611,"64":0.09924149702651151,"65":-0.025880149479301503,"66":-0.08090307920485712,"67":-0.0900072390590536,"68":0.013573948845423123,"69":-0.09237768937010553,"70":-0.2217523599335056,"71":0.0160341138363673,"72":-0.06487229335348985,"73":-0.11192459677415229,"74":-0.19910398529524004,"75":-0.040923689035090006,"76":-0.021131024149831548,"77":-0.04799610883031569,"78":-0.04088560935043231,"79":-0.12002750656471306,"80":0.11130376491918274,"81":-0.2692523516887473,"82":-0.09673954737484376,"83":-0.1720204433823605,"84":-0.12416465936141577,"85":-0.10222164931937462,"86":0.24125848497190094,"87":0.07846907964712857,"88":-0.05188574482906617,"89":0.049018854462042113,"90":0.09365250991637562,"91":-0.32845324676866267,"92":0.10822055760800924,"93":-0.013395292342770145,"94":-0.015487277810996476,"95":0.16594780750883853,"96":-0.23099676083529644,"97":0.1663311443117901,"98":0.03994736755458455,"99":-0.17925687660594364,"100":0.05267650579686884,"101":0.02796559101721974,"102":-0.2387529665298198,"103":0.09051778535827121,"104":-0.3442347085676315,"105":-0.02722801477057361,"106":-0.1118613642470909,"107":-0.1227292815022655,"108":0.025030578387899766,"109":0.036458996445040234,"110":-0.1348978908182413,"111":-0.06963913000753044,"112":-0.1675198893743195,"113":0.06069974231383559,"114":-0.05222041701719704,"115":-0.05346746183955093,"116":-0.12503127071605286,"117":0.06451365151763074,"118":-0.3257026337125158,"119":0.030839558332935203,"120":0.09548007123257946,"121":-0.12770124337627978,"122":-0.06077839895472763,"123":-0.1389226062429272,"124":-0.042737613987244065,"125":-0.1807815263518436,"126":0.07662545901611348,"127":0.21347256880112134,"128":-0.010628783723691,"129":0.07147292706014798,"130":0.11375985949077104,"131":-0.10401633430786345,"132":0.0670763279206994,"133":-0.10240537944398262,"134":0.060374501542205146,"135":0.12011761869726739,"136":-0.08641622892530783,"137":0.06682816683759865,"138":0.06224477697911214,"139":-0.08301107388279477,"140":0.0019863665680442603,"141":-0.09397604766099092,"142":-0.03040549273697056,"143":0.09308864370344219,"144":-0.08089665218933825,"145":0.020983381994572017,"146":0.09820496473592276,"147":-0.04657466282436399,"148":-0.027093730672408937,"149":-0.11862995787385626,"150":-0.13633830104400557,"151":-0.051455372460841926,"152":-0.025300919949468776,"153":0.03509048413157163,"154":-0.008279203728125576,"155":0.017010316319971262,"156":-0.19815156822027705,"157":0.03492254236444347,"158":-0.13638735584146763,"159":-0.03740621413910249,"160":0.16520506718486933,"161":-0.13431884720139253,"162":-0.03888132449016563,"163":-0.16105009686243607,"164":-0.029825843191905763,"165":-0.0788015677178402,"166":0.1063956748245063,"167":0.07297892593278887,"168":0.021730217497119043,"169":-0.15383169501907829,"170":-0.05950718269001124,"171":-0.05236691856317999,"172":-0.11457900094033552,"173":-0.0854839341621029,"174":0.11106793112842483,"175":0.2136026819347895,"176":0.07435416464505883,"177":-0.006517333837589861,"178":0.042703471312308464,"179":0.08371054814356621,"180":-0.08471591923831093,"181":-0.019457019447163822,"182":-0.06569723512627972,"183":0.018302635710016106,"184":-0.015988034518212426,"185":0.00974952769987787,"186":-0.009132351096070676,"187":-0.003189137017676495,"188":0.06510179712275728,"189":-0.0643708686823909,"190":-0.06678328161010326,"191":0.09460257765859449,"192":-0.06393189134973054,"193":-0.010912199127388446,"194":0.036537910331810225,"195":0.017670706708705356,"196":-0.046336611614756454,"197":0.08949289986966633,"198":-0.038327853088853996,"199":-0.10684238515616656}}],"biases":{"sx":1,"sy":1,"depth":16,"w":{"0":0.027833842137025486,"1":0.03789384914047307,"2":0.1054755720131427,"3":0.016641457868392575,"4":-0.020393558207407177,"5":0.0761255525188341,"6":0.05450536679786568,"7":0.028304161064326667,"8":0.04399461480684926,"9":0.023429525704691437,"10":0.07735740163623797,"11":-0.005078134322365063,"12":0.020668155864891142,"13":0.01835983653122161,"14":0.044583528502653326,"15":0.06794152081775112}}},{"out_depth":16,"out_sx":14,"out_sy":14,"layer_type":"relu"},{"sx":3,"sy":3,"stride":3,"in_depth":16,"out_depth":16,"out_sx":4,"out_sy":4,"layer_type":"pool","pad":0},{"out_depth":10,"out_sx":1,"out_sy":1,"layer_type":"fc","num_inputs":256,"l1_decay_mul":0,"l2_decay_mul":1,"filters":[{"sx":1,"sy":1,"depth":256,"w":{"0":-0.0017086300420390505,"1":-0.13602043707780076,"2":-0.07905045098227922,"3":0.001576935495631046,"4":0.025854218516715273,"5":-0.04836872854670417,"6":0.06514825169471931,"7":-0.07028171369831357,"8":0.042645728815376455,"9":-0.00845170414074685,"10":0.10972814754691046,"11":0.009018313804973923,"12":-0.023588880771391266,"13":-0.08600161478945506,"14":-0.02664329014547798,"15":0.07580558997162277,"16":0.039294783785026904,"17":-0.03884147594452585,"18":0.03570963020509968,"19":-0.010780271212466422,"20":-0.042034365453125416,"21":-0.08536420488999663,"22":-0.13357689671315978,"23":0.031722623228395815,"24":0.12999970205746844,"25":0.09273044197567637,"26":-0.12290486874926713,"27":-0.19605288398615286,"28":-0.03441412578696598,"29":-0.08810602645254724,"30":0.0406733197689873,"31":0.01241863337849658,"32":0.09205543586515594,"33":0.02342310799801761,"34":0.10419634928548402,"35":0.060861078587093824,"36":-0.08526955362163853,"37":-0.0467664004196423,"38":-0.16963564325955066,"39":-0.2520671881952188,"40":0.03161611933452135,"41":-0.004033563306032322,"42":-0.08516326016824713,"43":-0.027008933519303953,"44":-0.2018517555932694,"45":-0.0427983660452713,"46":0.08409673515822653,"47":-0.04310201257569245,"48":0.12069006007634722,"49":-0.10943205768351695,"50":0.07644240958589495,"51":0.10496570790901195,"52":-0.09217641896332422,"53":-0.1081333923232892,"54":-0.013704838094311935,"55":-0.007030314768060495,"56":0.0482811176304425,"57":-0.20607542270272933,"58":-0.19256028931685212,"59":-0.0720308584503717,"60":-0.17273342375650705,"61":-0.018100210187788193,"62":-0.01921651244880264,"63":-0.017294938522085287,"64":-0.20679540592889337,"65":-0.04638697619050489,"66":0.02219128646033446,"67":-0.008568798020257602,"68":-0.054582621995028086,"69":-0.11962355070541901,"70":-0.09563618925997197,"71":0.10667292825909615,"72":0.0021726494283671495,"73":-0.012126915929348026,"74":-0.12107035847180678,"75":0.09344857562400177,"76":-0.08348417236181609,"77":0.030160474105246516,"78":-0.08305918723618451,"79":-0.0789073417341311,"80":-0.27846752386304696,"81":0.052547027011036904,"82":-0.03827138155355044,"83":0.01779216455245726,"84":-0.11173921777739967,"85":-0.06515288197339633,"86":-0.2392048586409873,"87":-0.10544358166731212,"88":-0.09985325595664611,"89":-0.02164848991136676,"90":-0.028922911201536717,"91":0.14782542774366653,"92":0.0734799072461105,"93":0.14045032153960824,"94":0.08756232162341547,"95":-0.08147451545125065,"96":-0.17085003730124376,"97":0.03066624164137084,"98":-0.038849893805843264,"99":-0.031051749150836947,"100":0.05688720466386969,"101":0.05919815932981872,"102":0.02666976653416029,"103":-0.09611875835861126,"104":-0.0051507111002045075,"105":0.0703721493925876,"106":-0.0025249204519356074,"107":-0.060511630068275764,"108":0.06557178662223624,"109":0.09157731980097115,"110":-0.0773273182215227,"111":-0.17387236455696745,"112":-0.16999480595898658,"113":-0.014536771930095884,"114":0.044554908486478875,"115":-0.11341383282745221,"116":0.21495058349305354,"117":0.3776708888213364,"118":0.02716294080948571,"119":-0.07792373409308412,"120":-0.046683356905871456,"121":-0.22313386497854096,"122":-0.18955943167547978,"123":-0.021126732482123118,"124":-0.12763394170100562,"125":0.02348628931529536,"126":-0.17809369082219725,"127":0.10632009029633861,"128":-0.24911001051984807,"129":-0.18173144691279383,"130":0.018534524969016707,"131":-0.06908309620753124,"132":0.026833568870136305,"133":-0.12644278391643676,"134":-0.12084546959912058,"135":0.08871447518803928,"136":-0.014813160669498397,"137":-0.153086333126648,"138":0.03472554349074327,"139":-0.0373037074107509,"140":-0.05053794903108845,"141":-0.08153427606373424,"142":0.04911726574248931,"143":0.012488696648178168,"144":-0.2785729744286806,"145":-0.04126779144982196,"146":-0.07407877362273478,"147":-0.06490435410096543,"148":-0.20029539196098384,"149":-0.05839979749000704,"150":-0.40010524161809075,"151":-0.1304843346183658,"152":0.14328132246566586,"153":0.037007116772899015,"154":-0.16467648438048166,"155":-0.0055503143949308265,"156":-0.07314068221463424,"157":-0.18653330070427962,"158":0.05237488222763262,"159":0.11154865747120556,"160":0.02877518883249563,"161":-0.042595680399325986,"162":-0.013694965861155801,"163":-0.019634677271767337,"164":0.021483897101329107,"165":-0.21223243366790676,"166":-0.10407293146522169,"167":-0.21050740099916274,"168":-0.21977683490746316,"169":-0.04323794092186904,"170":0.06599977590733892,"171":-0.1291813269302762,"172":-0.07723192862690852,"173":-0.09115778393121525,"174":-0.13027587554569792,"175":0.022598425064134075,"176":-0.016041880592710746,"177":-0.03480751728324875,"178":-0.035793923562004656,"179":-0.03284731509919864,"180":0.03441614887863459,"181":-0.05038728077135454,"182":-0.012194890321814813,"183":-0.02971408323068412,"184":0.05822804342460927,"185":-0.10611750343862947,"186":-0.018662449669586696,"187":-0.2539824153437307,"188":-0.13407644915411102,"189":0.08870843701614618,"190":0.07172292748099866,"191":-0.07413060179579799,"192":-0.07705731743417758,"193":-0.08624559086961156,"194":0.03702926012772222,"195":0.009349502647861592,"196":-0.10273550788654802,"197":-0.09149539445730775,"198":0.04658902156989074,"199":-0.05487889928835662,"200":-0.03778876260585589,"201":-0.028069638172666347,"202":0.02845463614182573,"203":-0.1469712719151354,"204":-0.17873448236487066,"205":-0.14147492315460602,"206":0.022198058453236278,"207":-0.05622070830737908,"208":-0.04400854874493561,"209":-0.1743269281679014,"210":-0.08315407338954235,"211":-0.2119141338133594,"212":-0.05743864585060589,"213":0.17940149792606702,"214":0.02527902610903366,"215":0.16457701741122815,"216":0.10393830198970523,"217":-0.2724704136158555,"218":0.05039153653551641,"219":0.2708854668292921,"220":-0.13922793955140575,"221":0.1601913064116006,"222":-0.1662614740543838,"223":0.1232957450519536,"224":0.04224116506036568,"225":-0.007539414275952684,"226":-0.06427981860771703,"227":0.05828844439164502,"228":-0.043207809475790435,"229":-0.10605819009262017,"230":0.0978384538934286,"231":0.051401749133461586,"232":-0.08037255252491772,"233":0.10236656662315279,"234":-0.0969227664142665,"235":0.04515442264080392,"236":0.0654640174053859,"237":-0.08184251917589866,"238":0.04291131876942012,"239":-0.18272533358003204,"240":-0.005730986035075235,"241":0.09969891197300529,"242":0.04947098485308789,"243":0.06204354510579908,"244":0.07455650672188213,"245":-0.1718647217589355,"246":-0.10237990565371535,"247":0.06734678806115087,"248":-0.07024203139397879,"249":0.10898479696058397,"250":0.027118724033983996,"251":-0.09568588140048662,"252":0.03406389203171783,"253":0.07412110974275658,"254":0.15212734379115098,"255":-0.07089548338825608}},{"sx":1,"sy":1,"depth":256,"w":{"0":0.0388316605094532,"1":0.0081804125001523,"2":0.0706834326560807,"3":-0.01909427657512505,"4":0.1807985820855667,"5":-0.0686127759627753,"6":0.0797301287790475,"7":-0.04524390480753018,"8":0.03183807803641986,"9":-0.018021305831884396,"10":0.08085195561594544,"11":0.00498775668732401,"12":0.039461531801273125,"13":-0.08152088538091372,"14":-0.06596940090918621,"15":-0.028684349072551938,"16":0.015592845582320781,"17":-0.04917390132037547,"18":0.06533915328231217,"19":0.01939709580776068,"20":-0.033594105985810856,"21":0.05804953689254999,"22":-0.1669214588940802,"23":-0.10920422807200325,"24":0.23133227726021438,"25":0.13425356743119532,"26":0.1276465576629592,"27":-0.09745991432628008,"28":-0.017515610595631198,"29":-0.061375169844407274,"30":-0.007160909697274655,"31":0.0215811884137332,"32":-0.06748641575384146,"33":0.05400286182001053,"34":-0.07987043685713185,"35":-0.07269198763775077,"36":-0.029115153653364104,"37":0.06833691449402478,"38":-0.08850540211186476,"39":-0.04484261884099111,"40":-0.06535035721936469,"41":0.004234899295777835,"42":-0.05249931781067466,"43":-0.17452777781355217,"44":-0.05389027122411936,"45":0.03969000869869372,"46":0.11298318853677664,"47":0.017230959765602762,"48":-0.035280498782991644,"49":0.1066676268514846,"50":-0.09503306889630246,"51":-0.22838247789963254,"52":0.11246256369795735,"53":0.05010351961928927,"54":-0.01913265102479772,"55":-0.029712220331327883,"56":-0.04818234690264698,"57":-0.03797401384886211,"58":-0.03685035207870681,"59":-0.14254170193980858,"60":0.027381454859077337,"61":-0.019899194076854664,"62":0.2249989503034823,"63":-0.004476291597815798,"64":-0.02260001919076831,"65":-0.07672846832343992,"66":0.09428563880734969,"67":0.015266058825288274,"68":-0.10785616436700504,"69":0.02775411920857214,"70":-0.01826420649351476,"71":-0.06147986047812371,"72":0.035605794173417006,"73":-0.12164741143464951,"74":-0.10894522383160947,"75":-0.2339761674197152,"76":-0.024432784133752983,"77":-0.12452820227043417,"78":-0.015524039914807702,"79":0.06925433867124453,"80":0.011111439294754248,"81":0.06035695710674005,"82":0.06598760489954067,"83":-0.08319415483578485,"84":-0.010000953093337333,"85":-0.09412139832084307,"86":-0.021125283489980815,"87":-0.13183332622674618,"88":0.06024682697348623,"89":-0.15969756048052575,"90":0.09475783217787842,"91":0.03494469239893587,"92":0.1373392499793142,"93":-0.021571905120309636,"94":-0.12358608749826859,"95":-0.008717505808852203,"96":-0.27821912894216433,