{"layers":[{"out_depth":1,"out_sx":28,"out_sy":28,"layer_type":"input"},{"sx":5,"sy":5,"stride":1,"in_depth":1,"out_depth":16,"out_sx":28,"out_sy":28,"layer_type":"conv","l1_decay_mul":0,"l2_decay_mul":1,"pad":2,"filters":[{"sx":5,"sy":5,"depth":1,"w":{"0":0.047501155278726385,"1":-0.11924112667957912,"2":-0.1863501778330108,"3":-0.19528007579089415,"4":-0.009005081272376791,"5":0.38981579709603154,"6":0.08059489905742565,"7":0.03385965107470501,"8":-0.01615722234696048,"9":-0.2632380283925972,"10":-0.025741481202284956,"11":0.2701703519434625,"12":-0.3772574731521221,"13":0.14312353212571916,"14":-0.01062047464051258,"15":0.4669791628791749,"16":0.11674052667646717,"17":-0.4121072813528105,"18":-0.4197311436452027,"19":-0.09735279180713999,"20":0.12913840512601654,"21":0.32043007574648025,"22":-0.1647206559331609,"23":0.007891790207294832,"24":0.12311989764843641}},{"sx":5,"sy":5,"depth":1,"w":{"0":0.10401727140193978,"1":-0.5313098996033674,"2":-0.09807089166512004,"3":-0.16259236387434492,"4":-0.11372809873121296,"5":-0.06732565040287421,"6":-0.2860094962157167,"7":0.09304541773649011,"8":0.06160821667156445,"9":0.07960819029494152,"10":-0.7110306081067189,"11":-0.31061450713331207,"12":0.16698396444517696,"13":-0.04224392274962369,"14":0.3421534588668386,"15":-0.6143307211653671,"16":0.06356510760443862,"17":0.4016032494939117,"18":0.12205946604087897,"19":-0.11434988482373629,"20":-0.03906990413807159,"21":0.2523176183922114,"22":0.5496025546365015,"23":0.26857859772474635,"24":-0.5177664578060889}},{"sx":5,"sy":5,"depth":1,"w":{"0":0.045738864713565947,"1":0.1460073707048337,"2":0.6734913784125152,"3":0.21552726381966117,"4":-0.17350040849108583,"5":-0.11610517618403055,"6":0.25017860134512226,"7":-0.2889538931491405,"8":0.0014777889663758557,"9":-0.34227181524561545,"10":-0.11713975960978999,"11":-0.20460218854186052,"12":-0.3288451551451477,"13":-0.1146975695089108,"14":-0.002981361081272165,"15":-0.4195818122129117,"16":-0.49090104632074555,"17":-0.21345624399634225,"18":0.06251294228096042,"19":0.5168614067468777,"20":-0.4115951288309162,"21":-0.09372051463885456,"22":0.02348556588927733,"23":0.13789157050108874,"24":0.14763448697786022}},{"sx":5,"sy":5,"depth":1,"w":{"0":0.030452690787524297,"1":-0.039197378769712486,"2":0.14765058738101264,"3":0.3439881539242638,"4":0.5061083887051462,"5":-0.07766042187259228,"6":-0.6249401094438277,"7":-0.013749115159345154,"8":0.530187873862061,"9":0.131322801986758,"10":-0.34884389568939467,"11":-0.4071815228765859,"12":-0.1699282365795734,"13":-0.20432852673326196,"14":0.11514829778358973,"15":-0.3121028014015837,"16":-0.18411747590100525,"17":0.09994113872720367,"18":-0.03134168586256588,"19":0.13901221910987832,"20":0.05746726356729715,"21":-0.40437044595073285,"22":0.14408332705442992,"23":-0.0008760817655179114,"24":-0.1949451849584446}},{"sx":5,"sy":5,"depth":1,"w":{"0":-0.18151651925978457,"1":-0.2363613019154906,"2":0.1295170159601105,"3":0.3582281686662153,"4":-0.14247185646453142,"5":0.16250664405398985,"6":-0.36468988083228354,"7":-0.4728275270462432,"8":-0.6161019528563094,"9":-0.4648729879751999,"10":-0.09475064107413812,"11":0.11054568263565934,"12":-0.27608787742177676,"13":-0.4290016339313462,"14":-0.2268787552869273,"15":0.08516714582062625,"16":0.2782098641375318,"17":0.44192440438154407,"18":0.24907861106710302,"19":-0.15271501758635855,"20":0.3620207656758645,"21":-0.10348385787639734,"22":0.3164144757676017,"23":0.17629416158666453,"24":0.5606940373181902}},{"sx":5,"sy":5,"depth":1,"w":{"0":0.17456869086281263,"1":-0.07071062398857336,"2":-0.43105714587252597,"3":0.18807472220186258,"4":0.06301841408281489,"5":0.13759689510796494,"6":-0.1429668007800516,"7":-0.2999819348387509,"8":0.1537836848503691,"9":-0.014658866256688592,"10":-0.13630710669511145,"11":-0.39588402015468593,"12":-0.39448102730924356,"13":-0.234735647041474,"14":0.25837526488897117,"15":-0.4263374975962365,"16":-0.03820690217184437,"17":-0.6666765061866553,"18":0.12003897141789487,"19":0.038502118518737256,"20":-0.30673612920991844,"21":0.22456353638350657,"22":-0.1404926114494216,"23":0.05273287537226502,"24":0.4728664499134506}},{"sx":5,"sy":5,"depth":1,"w":{"0":-0.14226460958358475,"1":-0.11191722679880164,"2":-0.11662921853327339,"3":-0.01860007119726887,"4":-0.3057436789736345,"5":-0.29552738360796427,"6":0.300655620690225,"7":0.0784464725054675,"8":0.18507726753610473,"9":0.21155334994562586,"10":0.3335295995743877,"11":0.2381999829528917,"12":0.49542516877214204,"13":0.48237112643629954,"14":-0.15491838012432244,"15":0.37876258121061623,"16":-0.23879760978883122,"17":0.0011167918062914516,"18":0.09757961828990128,"19":0.08118302513430158,"20":-0.4137888618216718,"21":-0.5828348374060274,"22":-0.45297576806554435,"23":-0.4078768440711059,"24":-0.023281078040848405}},{"sx":5,"sy":5,"depth":1,"w":{"0":0.32987404723832486,"1":-0.16129456174376988,"2":-0.1335424836499067,"3":-0.08221293026948902,"4":0.017164797550416545,"5":-0.04003206963610871,"6":-0.5622865346493161,"7":-0.1306570131079255,"8":-0.14092556557750377,"9":0.09435777751272016,"10":-0.493625058442357,"11":-0.08687066520991354,"12":0.24232857754279785,"13":0.3579778145116007,"14":-0.257272376607525,"15":-0.013894572633294,"16":-0.1789766764068399,"17":0.300873268917624,"18":-0.12464250393528473,"19":-0.06467944815645679,"20":-0.2685764469988687,"21":0.030524347166850742,"22":0.09389194474448362,"23":0.3768239989495261,"24":-0.13659170920915495}},{"sx":5,"sy":5,"depth":1,"w":{"0":0.13821543058946384,"1":0.3049727636722986,"2":-0.38431259426144343,"3":-0.056780859166702634,"4":-0.3019186166742511,"5":0.20221189284852062,"6":0.24137910458918285,"7":0.012665087487260787,"8":-0.10321154655316873,"9":0.061596934267549364,"10":0.1944748048257113,"11":-0.04066590006041113,"12":-0.016727086014436173,"13":0.19268934603663876,"14":0.5039212091368134,"15":0.2119929538733434,"16":0.19717311533054174,"17":-0.10398702324151045,"18":-0.32545908683376373,"19":-0.16364416874624144,"20":-0.14478078705219807,"21":0.07948463013351503,"22":-0.015494130818474148,"23":-0.008908022361232129,"24":-0.30786491518605547}},{"sx":5,"sy":5,"depth":1,"w":{"0":-0.46814492813031805,"1":-0.32978137723147016,"2":-0.17156852418619317,"3":0.2855368295168064,"4":0.5784527388445468,"5":-0.14227257976956875,"6":-0.12479670996465085,"7":0.30821925414725804,"8":0.10551095031115988,"9":-0.33910385391285613,"10":0.08311120184364358,"11":0.39715624116003073,"12":0.22365165637533121,"13":0.04011246775201327,"14":-0.18633103211834787,"15":-0.043255632040414785,"16":0.2430524013606006,"17":0.00958066919018455,"18":-0.2630265598470767,"19":-0.6424502685668598,"20":0.23319482390020776,"21":0.01318003167516706,"22":-0.31355152694216765,"23":-0.44301499763716035,"24":0.2525509249349707}},{"sx":5,"sy":5,"depth":1,"w":{"0":0.1400694732469105,"1":0.18254519759735985,"2":0.38241270880106754,"3":0.11523045181359078,"4":-0.27678225623932606,"5":0.5764488024805685,"6":0.4196588990834993,"7":-0.11315912781986671,"8":0.018392973009878404,"9":-0.4938203543394125,"10":0.16738498876470748,"11":0.09824081067905943,"12":-0.36469030776632705,"13":-0.28098522915958146,"14":-0.3934581176636268,"15":0.03661173649612266,"16":-0.4056514466037042,"17":-0.34732606808788635,"18":-0.4096957578303457,"19":-0.2534253363958759,"20":-0.4308738567799873,"21":-0.4535726192880745,"22":-0.48150614897552124,"23":-0.027309438980435818,"24":0.19375062237323756}},{"sx":5,"sy":5,"depth":1,"w":{"0":0.41538539137357783,"1":-0.3095001827735766,"2":-0.16953782073192994,"3":-0.21219873988327467,"4":0.06522209263058422,"5":0.06584690901389237,"6":0.46045733199553973,"7":0.21561730228352657,"8":0.2717206037343276,"9":0.38144804754511147,"10":0.1604575627976545,"11":0.3216985911271796,"12":0.5469079238954693,"13":0.10000561235647464,"14":0.21646529975948958,"15":-0.6062944563575239,"16":-0.6827541921957193,"17":-0.29117684858985726,"18":-0.20319927735518162,"19":0.04885817063325152,"20":-0.01593914445016617,"21":-0.2879800935981832,"22":-0.3912632979262405,"23":-0.6272617947337668,"24":-0.5424759685389459}},{"sx":5,"sy":5,"depth":1,"w":{"0":0.07232566309067508,"1":-0.3240279249961072,"2":-0.4829808972975562,"3":0.17710392709879869,"4":0.1459772260704998,"5":-0.2718855589916947,"6":-0.3208456814041056,"7":-0.015478056292812228,"8":-0.24033830420601923,"9":0.3133784403769365,"10":-0.502691247396004,"11":-0.09717880650846897,"12":0.031207348235253896,"13":0.5191032117192254,"14":-0.21594908058755752,"15":-0.0676872107207708,"16":-0.34879261836261716,"17":0.17963424056429808,"18":0.13103488534276375,"19":-0.07264546723400832,"20":-0.0495101241111213,"21":-0.08872335893368055,"22":0.05696372957447672,"23":0.18683380858650378,"24":-0.16905131155605443}},{"sx":5,"sy":5,"depth":1,"w":{"0":-0.32088117085887735,"1":-0.02488830544758389,"2":-0.3568577266173058,"3":0.1360121519377853,"4":0.11757658557068568,"5":-0.35951477088226996,"6":-0.42628716889317086,"7":-0.3633841844575049,"8":-0.2796911854267796,"9":0.0191578518444862,"10":-0.24327157233478253,"11":-0.07779094053942114,"12":-0.33495416019579866,"13":-0.254610148053754,"14":-0.7128253893949018,"15":0.25761449478100096,"16":0.03569593145909343,"17":0.008669608036422534,"18":-0.25066444629448625,"19":-0.05056298681735777,"20":0.09726374130878751,"21":0.1910922104964378,"22":0.35818289358743194,"23":0.176814112005014,"24":0.3146402145544337}},{"sx":5,"sy":5,"depth":1,"w":{"0":0.028863864751538976,"1":0.05350374657215222,"2":0.3121632624884298,"3":0.35033409354017847,"4":-0.1818848819429351,"5":-0.028420688140377615,"6":-0.012175273004736257,"7":-0.27604897339003553,"8":0.24754215449506578,"9":0.030054803266673657,"10":-0.1638174205222486,"11":-0.10107314470691937,"12":0.07498760427324973,"13":0.386552290166034,"14":0.21469650892370948,"15":-0.15825086632825544,"16":-0.18146801750699645,"17":-0.4498280939538278,"18":-0.2893673628171919,"19":0.18995971750762858,"20":-0.36745765200557434,"21":-0.039990942255070154,"22":0.09850086352462378,"23":-0.22919845488809598,"24":0.18361976661576895}},{"sx":5,"sy":5,"depth":1,"w":{"0":-0.0690100172690957,"1":-0.1961462899385699,"2":0.0920983120465555,"3":-0.4798083427225199,"4":-0.2547078751571283,"5":0.1080511377357521,"6":0.05867682932070604,"7":0.05131537101941074,"8":-0.2008749463888944,"9":-0.5149468160256004,"10":0.5134344765513976,"11":-0.11596007661304784,"12":-0.2044775960223648,"13":-0.3999938376876041,"14":-0.05525625820530232,"15":0.2947145985888016,"16":0.12076775920592689,"17":0.06019516618103119,"18":0.16113901204934986,"19":0.06898969779029981,"20":0.3217760875430105,"21":0.22405829898841292,"22":-0.10443083569807222,"23":-0.13335101857255574,"24":0.09246581890487515}}],"biases":{"sx":1,"sy":1,"depth":16,"w":{"0":-0.1424739632227047,"1":-0.09211648337949803,"2":-0.01876868430514399,"3":-0.11674383323118875,"4":0.07374775309242232,"5":0.04978564970066522,"6":0.021991955499490335,"7":-0.044563731207916325,"8":-0.015550802877136807,"9":-0.03901212346269716,"10":0.20570730067607274,"11":0.06739882234310435,"12":0.058224698632526384,"13":0.16583998385550053,"14":-0.15971692629662004,"15":-0.012892884302134072}}},{"out_depth":16,"out_sx":28,"out_sy":28,"layer_type":"relu"},{"sx":2,"sy":2,"stride":2,"in_depth":16,"out_depth":16,"out_sx":14,"out_sy":14,"layer_type":"pool","pad":0},{"sx":5,"sy":5,"stride":1,"in_depth":16,"out_depth":32,"out_sx":14,"out_sy":14,"layer_type":"conv","l1_decay_mul":0,"l2_decay_mul":1,"pad":2,"filters":[{"sx":5,"sy":5,"depth":16,"w":{"0":0.010259811039406236,"1":-0.002598884111200808,"2":0.11022663331105285,"3":-0.03117667858181695,"4":0.04134974791826444,"5":-0.02247373131428328,"6":-0.22063555418534064,"7":0.004602932714722143,"8":-0.023181151653182363,"9":-0.07764964140041337,"10":-0.12587666380209028,"11":-0.0442157384345926,"12":-0.05188591599377045,"13":0.0862980553775811,"14":-0.07418348469121112,"15":0.15679191750122384,"16":-0.04276755794835222,"17":0.07480238230556883,"18":-0.008299125251263839,"19":0.022672120494654193,"20":0.008272282332665347,"21":-0.015547560113384679,"22":-0.10148405403630172,"23":0.058866382893057,"24":-0.08633189151451977,"25":-0.11764478246792799,"26":-0.04184406031042692,"27":-0.10280119439166718,"28":0.08235819594215969,"29":-0.062442624627285025,"30":0.0037134913822849222,"31":0.06306135274466229,"32":-0.09629032661950802,"33":-0.019793100096786823,"34":-0.06579264100910721,"35":0.015189135882221335,"36":-0.12489226650064167,"37":-0.056201503432410635,"38":0.027827947791272945,"39":0.04480394769868626,"40":-0.06984301622725257,"41":-0.050768271714598565,"42":-0.12511090313848283,"43":-0.10227333837038707,"44":-0.002221217314357721,"45":-0.054105895922121755,"46":-0.0970074969656401,"47":-0.023958371005796206,"48":0.15836391556130058,"49":-0.10699833046609203,"50":-0.02127567840879665,"51":-0.0030004336746679763,"52":-0.0034523773339529638,"53":-0.07920833493247373,"54":-0.15541924463616652,"55":-0.06771065856183317,"56":-0.017160989086813523,"57":-0.05820086068114833,"58":-0.08900796871465479,"59":-0.08484588390962731,"60":-0.010263287290387425,"61":-0.011424443476102757,"62":-0.013684680922671923,"63":0.01802765784074814,"64":-0.062022574422653576,"65":-0.03458719850891851,"66":0.06440420325595951,"67":0.14299456552712964,"68":-0.07611025373585452,"69":0.0773586210307726,"70":-0.21111927898626648,"71":-0.06419166922892884,"72":-0.07280834114155621,"73":-0.02332994724171378,"74":-0.08795533223204645,"75":-0.026677844777152994,"76":0.007033544156771971,"77":0.02858118854046288,"78":-0.08731124882178821,"79":-0.08803723944864536,"80":0.03344876204459745,"81":-0.06518530548415881,"82":0.030876151666572833,"83":-0.10711227418802248,"84":0.005568415560572259,"85":-0.06925319099006745,"86":0.07356962794445646,"87":0.001228574446990774,"88":0.1745805216517715,"89":-0.04080526354270888,"90":-0.040350778845186244,"91":0.0834293632789428,"92":0.050648377216937115,"93":-0.11673783933216593,"94":-0.06438856960076793,"95":0.15045543785213125,"96":-0.020035862179218236,"97":-0.045386390130279376,"98":-0.0229568503540043,"99":-0.014352387864329397,"100":-0.009661459466732211,"101":-0.0998908529433657,"102":0.06480532407886139,"103":-0.06254394980655587,"104":-0.03227016442144629,"105":0.025738586272426235,"106":-0.016461998624724278,"107":0.07264651054776596,"108":-0.018794795258096058,"109":0.030490569385165135,"110":0.020341115790516368,"111":0.060795203291105264,"112":-0.036041201225246525,"113":0.009942881914834526,"114":0.061834269084900015,"115":-0.10748300938046217,"116":0.020500870019650574,"117":0.10255977555556035,"118":0.05862077648723318,"119":-0.11479600369592904,"120":-0.17237545162017956,"121":0.0063910593742373895,"122":-0.10574075306460773,"123":-0.11032076849841936,"124":-0.07005385428932291,"125":0.03599815643899164,"126":-0.042457869973291505,"127":0.08261135906687282,"128":0.14285199652726902,"129":-0.0545585194062375,"130":-0.021841887125431787,"131":-0.03912430340526041,"132":-0.04752478005202734,"133":-0.007880890939710707,"134":-0.1022063480480901,"135":-0.07322807909023782,"136":-0.01815233180799407,"137":-0.00336295026469314,"138":-0.002733343150356692,"139":-0.14364528190257836,"140":-0.050695310041506535,"141":-0.06771436928329584,"142":-0.09258477771560479,"143":0.030908777718435792,"144":-0.02981532325016708,"145":0.02536562835063307,"146":0.04763667621454465,"147":0.0007702118545796909,"148":-0.13485502503208127,"149":0.05090790222723774,"150":0.016302571605436866,"151":-0.048089708756906616,"152":-0.036925077694466416,"153":0.024118256780533927,"154":0.0016746938085261244,"155":-0.02008337197297887,"156":0.09751296058290053,"157":-0.05060330710339521,"158":-0.10166722002162508,"159":-0.02636737567977161,"160":0.02021193335584696,"161":-0.017552040670932717,"162":0.0012544412103136665,"163":0.005940489883105228,"164":-0.1067333020833471,"165":-0.08691042515228492,"166":0.033916208087919286,"167":-0.07515763338668326,"168":0.07847772709669969,"169":0.041705459267291564,"170":0.014559227664533917,"171":0.06435859541562776,"172":-0.0003440843014406324,"173":-0.12629046074733022,"174":0.01681189978177952,"175":0.08487660984913693,"176":0.04937354802228026,"177":-0.10209991705037286,"178":0.18043922932698178,"179":-0.015282893522723467,"180":0.025689200680011366,"181":0.10635412657607222,"182":-0.04650883269853329,"183":-0.02191938007010668,"184":-0.08844054644312081,"185":0.07946503145362506,"186":-0.02758958776807526,"187":-0.01896939267131347,"188":-0.10771790331153314,"189":-0.04542250680479723,"190":0.008301999635249403,"191":0.06107142920481996,"192":-0.04337615009984881,"193":0.14407014394788614,"194":0.12024641346123548,"195":-0.045659141571462614,"196":-0.13278394889124842,"197":0.05606271202706224,"198":-0.17644435706394068,"199":0.13569147108425428,"200":-0.0805397244512112,"201":-0.03977809455314294,"202":-0.17977256192830132,"203":-0.21267364687863774,"204":-0.004945614733770458,"205":-0.04551142864631115,"206":0.041500319798976226,"207":-0.07450688242915461,"208":0.11482106818711589,"209":0.03804068451345437,"210":-0.1482859700394378,"211":-0.08121320874965357,"212":-0.09129183212897306,"213":-0.1533090114678128,"214":-0.03401108356857215,"215":-0.05883818354725534,"216":0.07091547879864221,"217":0.1041418340203761,"218":-0.03956608253357543,"219":-0.06275099687529194,"220":-0.06807039603609437,"221":-0.11017928408191405,"222":-0.10733886632014386,"223":0.15203459952132292,"224":-0.004110340589820492,"225":-0.013834425926887895,"226":0.005264574612106504,"227":-0.046935182060258325,"228":-0.08615336025640327,"229":0.017888235502882367,"230":-0.03171333985030377,"231":0.016562592455859518,"232":-0.07655562164323781,"233":0.06737326613360306,"234":0.07015982814446789,"235":-0.1378193338067797,"236":0.030328002124219267,"237":-0.06811985272692776,"238":-0.11420656617764148,"239":-0.010467018663298824,"240":0.09224160967291734,"241":-0.15018028734433825,"242":-0.03619568311462139,"243":-0.11155192193011823,"244":-0.003200960014966713,"245":0.056872461878111596,"246":-0.064422572912163,"247":-0.05597876503021035,"248":-0.05568385041269916,"249":-0.036266037640764,"250":0.03285074321188261,"251":-0.24586447142261011,"252":-0.08717628134676222,"253":0.017684231726458943,"254":0.025996563522515222,"255":-0.02730380435000796,"256":0.05157143689756664,"257":0.03667299412426531,"258":0.08179979129395061,"259":0.049940516074472724,"260":-0.12431574514624188,"261":0.1181031256299681,"262":-0.18901966110555213,"263":0.08733296525989247,"264":-0.061578697853195426,"265":-0.09332703684324874,"266":-0.1335781105961394,"267":-0.21842835645338157,"268":0.02403077242073003,"269":-0.18059951263829413,"270":-0.005274284879079381,"271":-0.018062562864945626,"272":0.012582684741681711,"273":0.2201057703629273,"274":-0.027313500790292006,"275":-0.01455903846089672,"276":-0.08844912877173679,"277":-0.125695406805303,"278":-0.05780123932435087,"279":0.11152133026638873,"280":0.07628352279067474,"281":0.22964294588216536,"282":-0.26124974723479594,"283":-0.13776192338999302,"284":0.09674325602785845,"285":-0.16301160710906779,"286":-0.12053083180227823,"287":0.08250479737693861,"288":0.122093912027559,"289":-0.07005311968249092,"290":-0.10041749694424351,"291":-0.1360326205117661,"292":-0.009767376150704839,"293":-0.11615340245929778,"294":-0.02099307518595496,"295":-0.10923068684892959,"296":0.029429487983438706,"297":0.17332796887058052,"298":0.006000773150994972,"299":-0.06969003256750442,"300":-0.12290845106066633,"301":-0.1254782985043743,"302":-0.2046255640637176,"303":0.10084333006564446,"304":-0.09618269449214051,"305":0.202207790988301,"306":0.07520028334203399,"307":-0.12681198860890514,"308":0.06534510759841913,"309":0.08119989008961728,"310":-0.14491849198282622,"311":0.04899538716758315,"312":-0.17503377949671653,"313":-0.129710364041975,"314":0.13845530527679267,"315":-0.10702909952324074,"316":0.00766682446872924,"317":0.009682034889354572,"318":-0.0976289922970696,"319":-0.06650935851415844,"320":-0.13797387848545087,"321":-0.050854874010387685,"322":-0.026598014724474366,"323":-0.08593451994495242,"324":-0.044491174637289896,"325":0.06207104048889607,"326":-0.035397548307224316,"327":-0.11676160324870322,"328":0.039914695026646956,"329":-0.20247698869655636,"330":-0.14634849591088042,"331":-0.21950755421668594,"332":-0.0911541906037504,"333":-0.09103432580481254,"334":0.1268599332521058,"335":0.06542973592145332,"336":0.06995647809765995,"337":0.1482811285216935,"338":-0.06243394024691561,"339":-0.022727315431628713,"340":-0.027594402679174516,"341":0.07446926518466382,"342":-0.13950139797029606,"343":0.16316316154910904,"344":-0.010297941854301784,"345":-0.035613045736891655,"346":-0.23528260631877526,"347":-0.10528860970146825,"348":0.13077977445931852,"349":-0.18602639043632385,"350":0.013552042511711906,"351":-0.2112870952460209,"352":0.1711246257727675,"353":0.06786489357738372,"354":-0.12471615511762736,"355":-0.06488404816068326,"356":0.15966050834708062,"357":-0.16479270698676823,"358":-0.0581972869106926,"359":0.12439314720965461,"360":-0.028110199565877916,"361":0.060374520438698245,"362":-0.06020618031336656,"363":-0.16793489802261738,"364":0.04274124775072057,"365":-0.16673735949622495,"366":0.009033876357730869,"367":0.1552110700611497,"368":0.10481237995172293,"369":-0.11957758483416726,"370":-0.17439458895226775,"371":-0.14944245532650505,"372":0.13066339295951243,"373":-0.051053689778776355,"374":-0.1326985302466874,"375":0.017200480457372356,"376":0.16583079418446367,"377":-0.1288768835714149,"378":-0.020729791960288974,"379":-0.04979419663272476,"380":-0.11454696811792098,"381":-0.18693840612393087,"382":-0.08682998184907977,"383":0.15779938095038232,"384":-0.23559932046955595,"385":0.19291277925120395,"386":-0.10946936346467755,"387":-0.1297897043969036,"388":0.13699669245390844,"389":0.02420563984067781,"390":0.06415534255063947,"391":0.13612519063160955,"392":-0.09555451110218122,"393":0.03567360768632545,"394":-0.12628705667717857,"395":-0.05561995251766119,"396":-0.0503227301908765,"397":0.029966669783275876,"398":-0.12612805687683587,"399":-0.06464658686719618}},{"sx":5,"sy":5,"depth":16,"w":{"0":-0.0922749815433839,"1":-0.12858654027699068,"2":-0.06814111982896498,"3":0.20274837516881683,"4":-0.12566111221901952,"5":-0.023089634697383062,"6":-0.017169259062632267,"7":-0.06553739876573746,"8":-0.014154211351482192,"9":-0.08552734307964338,"10":-0.057284594629860894,"11":0.08492279913085846,"12":0.11122571652458,"13":0.0027325414045160056,"14":0.0010374655330845028,"15":-0.14758410307427983,"16":-0.1057197520595681,"17":-0.030055091716711113,"18":-0.0364629718607112,"19":0.17049462087455008,"20":-0.07932750996012465,"21":0.06972813191353291,"22":0.0006349851558035396,"23":-0.08637841113296524,"24":-0.07114452255743103,"25":-0.022750508464900402,"26":-0.06327570386489789,"27":0.10200660676187458,"28":0.03734186798930929,"29":-0.12870210496142212,"30":0.17041529651913917,"31":-0.000937367968934707,"32":0.14285235934872464,"33":-0.030643181305248676,"34":-0.09484149147865314,"35":0.0175736867126787,"36":-0.2856488195919025,"37":-0.0716246242254607,"38":0.02171989617209448,"39":-0.04073981386363124,"40":0.012099682743604059,"41":0.19128544472399325,"42":0.010649539660943555,"43":0.0989677159254025,"44":0.09406907636477921,"45":-0.13536483372728536,"46":-0.02916374969918019,"47":-0.00841801231189869,"48":0.157248694320488,"49":-0.06318282786613554,"50":0.0023630607632266487,"51":0.15884243585713995,"52":-0.23473485439826536,"53":-0.07187252394252068,"54":0.09145708195914941,"55":-0.004019540639270961,"56":-0.05020856477428018,"57":0.1609852368367292,"58":0.03060590025765807,"59":0.12252930233508018,"60":-0.014809810044324788,"61":-0.16020463128015272,"62":0.12157084685642854,"63":-0.0778563394860346,"64":0.15278021582137702,"65":-0.21154304898261944,"66":-0.011678162819640328,"67":0.1560917476043815,"68":-0.3320456625271644,"69":-0.005934912331455391,"70":0.004506165938463733,"71":-0.15960131606896608,"72":-0.01665334249134527,"73":0.07419627534020896,"74":-0.027090322879748933,"75":-0.0745641907272617,"76":-0.04707036963254349,"77":-0.19960537517329277,"78":0.2239810378144515,"79":0.042912184610585276,"80":-0.05261620750088709,"81":-0.04053927859340747,"82":-0.12864932149949987,"83":0.10737700061738419,"84":-0.05263057441722438,"85":-0.05937844641255737,"86":-0.15591932714626786,"87":-0.047113476562463945,"88":-0.15227461819658594,"89":-0.16276306493089301,"90":-0.18846080493340955,"91":-0.07167832871894783,"92":0.1211977572262049,"93":0.08093578698099602,"94":-0.02871998562844664,"95":0.05320435895506052,"96":-0.1480430481290428,"97":-0.09798073843266049,"98":-0.07481681112511836,"99":0.13126819750518834,"100":-0.03692672969610395,"101":0.006073648807441461,"102":-0.12172036858955991,"103":-0.10249099503976078,"104":-0.08066975827380071,"105":0.06569837756751974,"106":-0.06199906286192807,"107":0.017014533482955223,"108":0.04644176481558317,"109":-0.03170995323806977,"110":-0.016654421215248134,"111":-0.15011528081961867,"112":-0.12510451015123591,"113":-0.14284711181554377,"114":-0.06701523242748272,"115":-0.00885541377724515,"116":-0.1179227715220498,"117":-0.09638320015383757,"118":-0.08063407235953228,"119":-0.026715742858067045,"120":-0.054475295251030086,"121":0.05761132735781148,"122":0.09113281989021879,"123":0.025987937879671245,"124":-0.04793726259296026,"125":-0.05293943809550529,"126":-0.13579932599078653,"127":-0.1354969519790945,"128":-0.17781265503972346,"129":-0.1507285634479541,"130":-0.00902603741271737,"131":-0.019991635913303087,"132":-0.10769909674861407,"133":0.091908703976915,"134":-0.14211986722209632,"135":-0.004222770384351765,"136":-0.06931602234652222,"137":0.02244841167923756,"138":-0.037777869287663086,"139":-0.1233606292068446,"140":-0.003516255823346867,"141":0.04114299368402202,"142":-0.08805859262956824,"143":-0.0963694459028302,"144":-0.1497373928170132,"145":-0.015036449675626045,"146":0.17890043910714934,"147":-0.012811817822008811,"148":-0.04521269130083969,"149":0.34866738191652036,"150":-0.19764003849238723,"151":0.0287269418336478,"152":-0.04407489863362463,"153":-0.16391401346989834,"154":0.022721030845359598,"155":-0.0687481785670763,"156":-0.013033137043151653,"157":-0.011378832541150283,"158":0.11711410623658523,"159":-0.0634571373884906,"160":-0.025216754119815853,"161":-0.008789125203745097,"162":-0.11334711469904715,"163":0.006922636515166326,"164":0.07503865775538628,"165":-0.06444574790158755,"166":-0.110539818147229,"167":-0.02654966819005208,"168":-0.031759644951283944,"169":0.10669425192990828,"170":-0.05938494332087862,"171":-0.09863135870709844,"172":-0.1029983745952266,"173":0.12950862608394537,"174":0.004459407439607343,"175":0.08935641903733711,"176":-0.0983068785164313,"177":-0.11900574945444628,"178":-0.01720552341450716,"179":-0.06375658806411237,"180":0.07179794759492544,"181":0.047955285107029656,"182":-0.11457222523254498,"183":-0.10173159238773175,"184":-0.08696511049866647,"185":0.06573335113906646,"186":0.06449217176315136,"187":-0.1560776372479109,"188":-0.09151957399051189,"189":-0.027068034776587972,"190":-0.050191881490926224,"191":-0.12166089348341276,"192":-0.1680078913211798,"193":0.06047340025295913,"194":0.1851279910165772,"195":-0.19026704704819844,"196":0.07134370418146739,"197":0.03559620526052162,"198":-0.16030704191787382,"199":-0.056335567017038644,"200":-0.1490834098029862,"201":-0.06216949112962013,"202":0.14216295946327154,"203":-0.10888207643159024,"204":-0.16957289046157736,"205":0.15312013870989005,"206":-0.2145210877241257,"207":-0.14606171627648226,"208":-0.23676798745731753,"209":0.08087335257538456,"210":0.21177608841633155,"211":-0.009991882107387646,"212":0.07279753611099317,"213":0.0862895293949946,"214":-0.16824185329460925,"215":0.11436699966213322,"216":-0.09503511938881577,"217":-0.039653433441817036,"218":0.09793869412729872,"219":-0.048244803296847286,"220":-0.08548886966506297,"221":-0.06611918629799018,"222":-0.12420872192024852,"223":-0.0022668928289012505,"224":-0.07056309247059808,"225":0.10074439252422207,"226":0.03886837193793717,"227":-0.05853656716881716,"228":0.12700040075476243,"229":0.10063986194043524,"230":0.07756156459922935,"231":0.12849846118350894,"232":-0.0580477679903496,"233":-0.0009219631008110581,"234":-0.07400484466833329,"235":0.07601350818411044,"236":0.08555378795535869,"237":-0.08844906008737236,"238":-0.11885085068976971,"239":-0.08177865100564953,"240":0.050607753487818416,"241":0.07707887171055648,"242":0.06705112221380213,"243":-0.14143058147839052,"244":0.04461994106077569,"245":0.05878466846779937,"246":-0.09130644925476805,"247":-0.07121037270317937,"248":0.04459060750540319,"249":0.05483680902809344,"250":0.19310582224011738,"251":-0.17117487443443163,"252":-0.08755627633202075,"253":0.014311174478340717,"254":-0.10633393746132822,"255":0.1426267906856871,"256":-0.05371470477510271,"257":0.08587799902875669,"258":0.22405746896774703,"259":-0.22754256173215304,"260":0.0042905092925205005,"261":0.09920801240577468,"262":-0.19089577543440764,"263":0.011795104435729427,"264":-0.10510313127638427,"265":0.009610353468410951,"266":0.12611456801080742,"267":-0.13373308031121786,"268":-0.014420852869519475,"269":-0.0030864540045389484,"270":-0.13607372798859443,"271":-0.11454204864802262,"272":-0.15687254071531903,"273":0.128978984119569,"274":0.06540760748971201,"275":-0.11597064897629795,"276":0.06070463241937875,"277":-0.21207784140632194,"278":-0.06774766499004357,"279":0.1690982609442152,"280":-0.03052497773759057,"281":0.07524090792431658,"282":-0.15464910046857583,"283":-0.1158863377819348,"284":0.07446503059958245,"285":0.0071871599044913866,"286":-0.08866712031460779,"287":-0.16777694336344987,"288":0.0490319524753055,"289":0.03656881412877566,"290":-0.015211913259794079,"291":-0.01857502531675933,"292":-0.013384392277745169,"293":-0.17188544627489902,"294":0.20593333469064595,"295":0.03402671868129869,"296":-0.010604161207142169,"297":0.09039621301726716,"298":-0.09297716795370894,"299":0.06152780991176338,"300":-0.02756861432693963,"301":-0.06545484718763558,"302":-0.01164078925248314,"303":-0.0077914122754674945,"304":-0.0035586128156023973,"305":0.03734513056951328,"306":-0.06901294259283652,"307":0.052937789914020934,"308":-0.018778453437288362,"309":-0.05158117232764045,"310":0.0641757277771999,"311":-0.08110653565143372,"312":0.03918386359775443,"313":0.08416424501856538,"314":-0.04087514030276869,"315":0.10259598241903081,"316":0.05672496725608583,"317":-0.03613980571587757,"318":-0.03774161143040607,"319":-0.028170487406357442,"320":0.08341809347219205,"321":-0.04210160013264864,"322":0.012714799381031566,"323":-0.1483471578711707,"324":0.0167585535987137,"325":0.1116096998531724,"326":-0.11910247631955141,"327":0.00389660040058504,"328":-0.013520305574039035,"329":-0.059298861066735924,"330":0.06473508521109463,"331":-0.17543070426459598,"332":-0.1282752277935366,"333":-0.14872239697223463,"334":-0.10516321366175556,"335":0.07537351149944797,"336":-0.04458403272959636,"337":0.19614005287279693,"338":0.040657536822591295,"339":0.021400295597182907,"340":-0.023641047141615745,"341":-0.02995935193000597,"342":-0.21137313866039803,"343":0.15628569185831184,"344":-0.225705930301777,"345":-0.08753399185712929,"346":-0.1515410826591785,"347":-0.14174139777745115,"348":0.2274629638848366,"349":-0.06590102947759713,"350":-0.043471200167116024,"351":-0.003263005257733464,"352":0.07765773354387144,"353":0.08578859992372757,"354":-0.11083133159402049,"355":0.00520422297831993,"356":-0.03086424391490897,"357":-0.12281813322703056,"358":-0.06619901067904663,"359":0.07704860680999026,"360":-0.04455135979317644,"361":0.2119496567142651,"362":-0.20974536974296043,"363":-0.16124587539010557,"364":0.08372702974990626,"365":-0.02589941689735628,"366":-0.06735159593857078,"367":0.06437152576663678,"368":-0.07723455048829396,"369":-0.15491298437444512,"370":-0.03765136089795203,"371":-0.027500995980140545,"372":-0.0016793070442491507,"373":-0.12298734187845133,"374":0.0019836543503094746,"375":-0.05969658942373275,"376":0.04105939885302414,"377":0.01730103267628772,"378":-0.12434678276629278,"379":-0.014250351264627599,"380":-0.10312401784704638,"381":-0.17530076210371762,"382":-0.09750517427047589,"383":-0.07557096600103624,"384":-0.0575440969266705,"385":0.014567910648930522,"386":-0.13838457677638602,"387":-0.0392604331267084,"388":-0.14847371280797592,"389":-0.16996972846461794,"390":0.051406107519412936,"391":-0.03865421559356174,"392":0.07187582370727257,"393":0.11559177552415201,"394":-0.06541306922602143,"395":-0.008780079120783206,"396":-0.06630736252176878,"397":-0.2288338067254909,"398":-0.10270401070020437,"399":-0.1464536018122666}},{"sx":5,"sy":5,"depth":16,"w":{"0":-0.04802419291131658,"1":-0.012079764125121633,"2":0.10486427134874947,"3":0.003040590775602895,"4":0.04431489108794857,"5":0.056255320423595,"6":0.05893427709002321,"7":0.014907500501277883,"8":-0.021084445530361054,"9":-0.10408254141776631,"10":-0.06644254330663926,"11":0.07140270575960457,"12":0.01686733864112158,"13":-0.13665275252936354,"14":-0.04688575430416143,"15":0.013450788786587207,"16":0.027748920370351513,"17":-0.02530967889997313,"18":-0.1885347573501299,"19":-0.06240238419256431,"20":0.10551444446019267,"21":-0.07343522950938795,"22":0.03294161710878293,"23":-0.08887795950007293,"24":0.08986786049499307,"25":-0.03425082291763699,"26":-0.10706405664697514,"27":0.0747584456246732,"28":-0.03628528556441173,"29":-0.020123805282454645,"30":-0.09675253412583626,"31":0.1095373563304507,"32":-0.03393428523077716,"33":0.021977630842117124,"34":-0.19714110339033386,"35":-0.11454174443774243,"36":0.13165010214214634,"37":-0.10943160382672731,"38":0.14652720299856117,"39":-0.08117696492851889,"40":0.05445791246991593,"41":-0.18457584476848282,"42":-0.11431810863833386,"43":0.07947454260510106,"44":-0.08141564879208013,"45":-0.00064100530548958,"46":-0.038362841845421145,"47":0.09042853595800233,"48":-0.008311273099338094,"49":0.023851435456801504,"50":-0.2339940000148253,"51":-0.02995636003440608,"52":-0.008771514325830138,"53":-0.13656742988078213,"54":0.11758398097802361,"55":-0.008265851825828376,"56":-0.2498013664758429,"57":-0.0809579844494483,"58":-0.13451435735770642,"59":0.07989422811738922,"60":-0.08323149582943119,"61":0.20634233487971754,"62":-0.02100530612310375,"63":0.050352550666292684,"64":-0.012675528695771012,"65":-0.07428606578152971,"66":-0.13429538950351572,"67":0.04329628223630966,"68":-0.0023587757545305192,"69":-0.22004917361055004,"70":-0.015719655217708035,"71":-0.1944845481733522,"72":0.058623971890372176,"73":-0.05047253319909297,"74":-0.17188249600333042,"75":0.12267697863693941,"76":-0.17748454867148536,"77":0.10411432342291381,"78":0.03245697705641848,"79":0.03314136544184815,"80":-0.06291152850926227,"81":0.032821903099400626,"82":-0.04392600958453414,"83":0.06293406804096992,"84":0.0648707127217877,"85":-0.08307190345655932,"86":0.1171080792475035,"87":0.027920034071546217,"88":0.030296805214260824,"89":0.07489880594298524,"90":-0.05595939516003865,"91":0.07386566906643703,"92":0.015450620838849122,"93":-0.06863337078079758,"94":0.08645758221286155,"95":-0.1540462394090178,"96":0.02775375535306047,"97":-0.10529955697965594,"98":-0.04008763142957135,"99":0.008888073851076587,"100":0.021729613874449855,"101":-0.19774891339583994,"102":0.22107772761344652,"103":-0.07640555685982318,"104":0.126262641305472,"105":0.05122038924452743,"106":-0.134304294093884,"107":0.20475248697087328,"108":-0.02564322485678876,"109":-0.12823825936658786,"110":0.026391465807168443,"111":0.0032595990415231813,"112":-0.010431019403708271,"113":-0.14584911835180073,"114":-0.006927726345400719,"115":0.0004691936110494922,"116":-0.115682634917716,"117":0.015321537600293313,"118":0.043569360055598666,"119":-0.05489484567378607,"120":-0.03946091801927043,"121":-0.10081694502983617,"122":-0.04088356671636449,"123":0.17617061483196955,"124":-0.20232438456176163,"125":-0.1605050178912357,"126":0.004578054246854196,"127":-0.08524515368074127,"128":-0.028865850117070123,"129":-0.05077681772230172,"130":0.06787064472883654,"131":0.05516027147600859,"132":-0.07729845164952338,"133":-0.01790671402207401,"134":0.021689183168150473,"135":-0.16113476744048136,"136":-0.05451141744186224,"137":-0.02909785844587768,"138":-0.12486027071413779,"139":0.053214168759470264,"140":-0.10789087295415756,"141":-0.03271009922568929,"142":0.008391089434489367,"143":-0.06232009547480627,"144":-0.05356520966487701,"145":-0.03461171224414417,"146":-0.01112257973991203,"147":0.10157111836030772,"148":0.014689188362822877,"149":-0.07226691396177898,"150":-0.13312525995379085,"151":-0.020019906838877232,"152":-0.025854487560331218,"153":-0.059048694975219175,"154":-0.11330440622741302,"155":-0.01467045655911407,"156":-0.13846309439058122,"157":0.045425857331339546,"158":-0.009818730992379406,"159":0.16539443795372488,"160":-0.0971649317454444,"161":0.013271126390359593,"162":0.01719632730225872,"163":0.07669351758173877,"164":0.12114496115916311,"165":-0.12427980829373363,"166":-0.017588319945539634,"167":0.04107640317890849,"168":-0.12608974203570575,"169":0.1032011614326311,"170":0.022242446981513044,"171":-0.0817064896562341,"172":-0.018058520351325377,"173":0.04334247822831493,"174":0.03152073897712681,"175":-0.04033935333843629,"176":-0.0431744977893987,"177":-0.11501615881852574,"178":0.05054115153095192,"179":-0.05564483349350248,"180":-0.02533988212269078,"181":-0.08343728935706779,"182":-0.10495077136993217,"183":-0.11003126689845072,"184":-0.09016438068666516,"185":0.10775849354758399,"186":0.01427688439647818,"187":-0.08932831320683272,"188":-0.20990097749439252,"189":-0.012403427044825308,"190":-0.05023647168854276,"191":-0.0520353691222648,"192":-0.15844110513566634,"193":-0.04829816792071273,"194":0.10498685022819709,"195":-0.009316468955446109,"196":-0.12865542877453157,"197":0.06504605334887462,"198":-0.04925285240875633,"199":-0.0031360717419503794,"200":-0.07946910620417669,"201":0.02248523369113361,"202":-0.09212816375348638,"203":-0.07408254337323257,"204":-0.044973294018130175,"205":-0.07634177911838641,"206":0.013257093783346788,"207":-0.23295725868485814,"208":-0.01860942875508821,"209":0.04060992882688318,"210":-0.09539770336889132,"211":0.09825567522974038,"212":-0.20572649128459056,"213":0.02163392944389769,"214":0.005811506243132309,"215":0.02774633605322411,"216":0.0020632909233594295,"217":0.10139534338835089,"218":-0.15762118176891154,"219":-0.10347765740441991,"220":0.019941924389096276,"221":-0.1455187975819734,"222":-0.1510242178413512,"223":-0.02925872429431796,"224":0.031131501046158146,"225":-0.01759994696799607,"226":-0.11756283497996207,"227":-0.11126018054000636,"228":-0.2679518407587139,"229":-0.07095675303467341,"230":0.09095590409828452,"231":0.003822647491844103,"232":0.17649109921490552,"233":0.03438414166118311,"234":0.04096638428925076,"235":0.05309179067800197,"236":0.012969048473726017,"237":-0.15776505857615802,"238":-0.04001325844771563,"239":-0.018880696377361294,"240":-0.10826235781969672,"241":0.040426908133951146,"242":0.12905365805160032,"243":-0.17795082877677632,"244":0.09251018072433963,"245":0.013110283956755949,"246":-0.011197933110811279,"247":0.05390405888109983,"248":-0.12226416945814174,"249":0.03797455552780068,"250":-0.1876702924334024,"251":-0.11528799519462025,"252":-0.06809953024250684,"253":0.01069116835654661,"254":-0.05200400011745416,"255":-0.017905183650175904,"256":0.1526417442777104,"257":0.11972247213540378,"258":0.00025868778135238835,"259":-0.1096551671908098,"260":0.0555895611555799,"261":0.04667927575983111,"262":0.05417671367236335,"263":0.1696382050462583,"264":0.003812218230684083,"265":0.08904431734103765,"266":-0.10059561905197631,"267":-0.07407222403965072,"268":-0.0781192010064964,"269":-0.022258709090378262,"270":0.020684676182458176,"271":0.060163931793385375,"272":0.04174122253345947,"273":0.03246395487298005,"274":-0.11555892304588836,"275":-0.06595217709029251,"276":-0.02579111502854149,"277":-0.04217280230345487,"278":0.12657765918280955,"279":-0.07002748789617234,"280":-0.09802414947801846,"281":0.18254511012747257,"282":-0.043788637307306456,"283":0.0796440907377192,"284":-0.0127183303552862,"285":-0.04889868985693651,"286":-0.03553735927604822,"287":0.040039144583356286,"288":-0.002826529787933841,"289":0.031322945571082235,"290":-0.011477382502704888,"291":-0.15242854960134467,"292":-0.20882105081523722,"293":-0.04564268082531534,"294":0.03872581321075121,"295":0.05548719128814473,"296":0.042679424964775656,"297":0.15761071306777188,"298":0.22986473403403757,"299":-0.06961689337483785,"300":0.03542968999422684,"301":-0.12585628172153557,"302":-0.12669222561512333,"303":-0.14128699332167816,"304":-0.02067002685747548,"305":-0.04465404254250949,"306":-0.09353897746057019,"307":-0.059209174658799935,"308":-0.1467223737409636,"309":0.008673103274813345,"310":0.03308488208041499,"311":-0.05921194316298274,"312":0.08178959529151512,"313":0.09295151108936678,"314":0.15528909427450147,"315":-0.023598154108383142,"316":-0.04694594255468109,"317":-0.11929382795917187,"318":-0.09713319698836646,"319":-0.09745324921399921,"320":-0.03131132573869363,"321":-0.03665086177713557,"322":0.12112930114412311,"323":0.016701444025809427,"324":-0.14121283287193162,"325":0.051212007891682655,"326":0.16930844562659209,"327":-0.01519546602264908,"328":0.002417950065533796,"329":0.05087747193415253,"330":-0.09874656365090834,"331":0.11833624256961418,"332":0.03105816223982314,"333":-0.04215324538554378,"334":0.13049579039033338,"335":-0.07149393203872052,"336":0.020597013561079403,"337":0.09138023264720779,"338":-0.03426973668717116,"339":-0.09874916657537283,"340":-0.03463445965261235,"341":-0.09713254168062244,"342":0.07841285186746606,"343":0.1272539680293584,"344":-0.006872625625063196,"345":0.15908647578059396,"346":-0.004201158600085597,"347":0.04962048618012982,"348":0.04588745708297527,"349":-0.019702669114787498,"350":-0.04658735189311879,"351":-0.07015712749266594,"352":0.14423199403951986,"353":0.05577395410222897,"354":-0.06259000626844402,"355":-0.0008509410374214262,"356":0.03627897026720304,"357":-0.16301587379652765,"358":0.05510142592156473,"359":-0.03484670841974613,"360":0.12907266335494227,"361":0.08838527034047439,"362":-0.09040393768223592,"363":-0.030309146814568252,"364":-0.13656704761142074,"365":0.019745176674616075,"366":-0.03346822236016558,"367":0.13618490272971265,"368":-0.12209479245962734,"369":-0.029728080819802903,"370":0.0015416751772440623,"371":-0.07954582231162034,"372":0.050262199898021276,"373":-0.08910083742353492,"374":-0.0021884294546510048,"375":-0.035861776154602294,"376":-0.039195990979292515,"377":-0.03142113522098188,"378":0.04586106375658246,"379":0.049965080733459455,"380":-0.13867007431770492,"381":-0.000631935936186863,"382":-0.006999248412723065,"383":-0.024383396350065197,"384":0.005479544285717113,"385":-0.11454200201910868,"386":-0.15496066636629205,"387":-0.18486627275804005,"388":-0.01511839082744546,"389":-0.11761911260163363,"390":0.052046264280142085,"391":-0.01122363319897215,"392":-0.08539175830882202,"393":0.01263949178928734,"394":0.032993679864242995,"395":-0.0264038469334227,"396":-0.16091731916026664,"397":0.038514125961128215,"398":-0.11869092531650478,"399":-0.08034826752551556}},{"sx":5,"sy":5,"depth":16,"w":{"0":0.1037349739182253,"1":-0.04769585293540675,"2":0.07528656955912663,"3":0.24241790956112122,"4":-0.17874326174295274,"5":0.23533396460975967,"6":0.04760152310363877,"7":0.09717965485062331,"8":-0.15147769877839215,"9":-0.06133234895548343,"10":-0.06335654244049613,"11":-0.10205851470660182,"12":0.11028100538916072,"13":-0.19703583610275954,"14":0.09230212259123172,"15":-0.05948903099868137,"16":0.07622608292285671,"17":0.03873962815873619,"18":-0.015443633704884684,"19":0.25316242828694085,"20":-0.23782369943883294,"21":-0.0984613001017357,"22":0.038458351299987405,"23":0.03624462450271756,"24":-0.12731038587859644,"25":-0.11941679836244427,"26":-0.14413123348722318,"27":-0.14325355218594163,"28":0.04139390160754326,"29":-0.1472389670775287,"30":0.02371076519193129,"31":0.09084108939888028,"32":0.16175375528632516,"33":-0.1552174347926927,"34":-0.1966740649729093,"35":-0.034711395744357026,"36":-0.17410132780794874,"37":-0.17453615844007328,"38":-0.05707994629860802,"39":-0.11065959013221117,"40":0.02919282447831117,"41":0.015247286526084796,"42":-0.01656175564261607,"43":0.00021457383833620115,"44":-0.0022262252488018984,"45":-0.20700407963890793,"46":-0.06556560505579026,"47":0.154338943199686,"48":-0.07310159893119123,"49":-0.02458583328174163,"50":-0.06294161530839254,"51":0.012385382871732206,"52":-0.029465258378746344,"53":-0.086450576448795,"54":0.0032604695214781252,"55":-0.0430358532049297,"56":-0.02581853812062958,"57":-0.09572773264727882,"58":-0.0005811722941358702,"59":0.12514565431336092,"60":-0.08672958569909396,"61":-0.05706565508004596,"62":-0.02353987267105626,"63":-0.04486430393183967,"64":-0.07174541150988005,"65":-0.008716869354831363,"66":0.01593549277370417,"67":-0.09889982614796014,"68":0.005903467398837815,"69":-0.18228966380937348,"70":0.05035609257493348,"71":-0.05945745776598081,"72":0.05302952673940839,"73":0.049278789781938295,"74":0.12645294039609675,"75":0.11112234108011228,"76":-0.04812220689277779,"77":-0.03763624901638165,"78":0.019491049635716753,"79":-0.2535694607522278,"80":-0.09353974132263213,"81":-0.04056160568146627,"82":0.1155760642414371,"83":0.13298778559511817,"84":-0.3548503658719656,"85":0.33368423172335276,"86":-0.06719043997988793,"87":-0.03805025235500826,"88":-0.23293353526508834,"89":-0.33563149340823767,"90":-0.03880188445996118,"91":-0.08337168629618037,"92":0.0018846930497425653,"93":-0.19695681167119958,"94":0.10983531249547218,"95":0.002678391558968165,"96":-0.01424347332957633,"97":0.09768496298922219,"98":-0.02228678130787922,"99":0.1624580916474009,"100":-0.06493402812936264,"101":-0.07223593674989481,"102":-0.03415697599272724,"103":0.1519794311610768,"104":-0.01855265323133879,"105":0.032647865651427146,"106":-0.2612210805794544,"107":-0.19517311640964027,"108":0.1397032123947164,"109":-0.08167033701999309,"110":-0.0021675241537366737,"111":-0.10584485414046618,"112":0.1805060575302691,"113":-0.09602129164133885,"114":-0.18406897227319882,"115":-0.07909267107068778,"116":0.09035197841063454,"117":-0.1798528693627869,"118":-0.07974479798459999,"119":-0.1188864506130171,"120":0.1263903000166769,"121":0.048224401254644625,"122":-0.03037707631599613,"123":0.055591500431158174,"124":-0.1394523489741935,"125":-0.07458122798223038,"126":-0.1197077171407653,"127":0.12005924379142008,"128":-0.07607860530955793,"129":-0.01841253020851907,"130":0.08129009421245627,"131":-0.00045282010750017374,"132":0.10114594503927613,"133":-0.04475982652859754,"134":0.07312443774793327,"135":0.05846090946012312,"136":0.05920103416863098,"137":-0.024828559261336192,"138":0.065928302193203,"139":0.023610122743231557,"140":-0.011965963364140662,"141":0.13696754785457196,"142":-0.06798015444022713,"143":-0.05546545904902329,"144":-0.026770340417987072,"145":-0.009458776808291106,"146":0.062226279228879494,"147":-0.17289441287151308,"148":0.2046574218877988,"149":0.010492643147170098,"150":0.045717799826639885,"151":0.025905997155625648,"152":-0.07101947433810864,"153":-0.005385258283374441,"154":0.043846977814663846,"155":0.11791218121298404,"156":-0.0563136547965263,"157":0.09751391938462539,"158":-0.010659775837102538,"159":-0.03274443785355069,"160":-0.15802107954415437,"161":-0.005361123368872239,"162":-0.13221317156211482,"163":0.24589901742215636,"164":0.0526442466833088,"165":0.15491295852490597,"166":-0.026682028737172177,"167":-0.025828691105670612,"168":-0.19615973915043522,"169":-0.2735882223014407,"170":-0.13821098618383046,"171":-0.24751449135265605,"172":0.14862883965769438,"173":0.010394480810784684,"174":0.017143931894083024,"175":-0.21716170879197094,"176":-0.06444013536532676,"177":0.0548410207789286,"178":-0.10808166033433388,"179":0.13422844500559222,"180":-0.08027456423748135,"181":-0.025255599933390997,"182":-0.0524933519990914,"183":-0.07386996831361453,"184":-0.08853945513928488,"185":-0.15551614959296303,"186":-0.061785854875821083,"187":-0.22246924878951813,"188":-0.055299095232202576,"189":-0.13501927470281225,"190":-0.0498284162393129,"191":-0.09128645648357624,"192":0.1745062156925009,"193":0.025558087251894804,"194":-0.09479561050429788,"195":-0.07214619530594238,"196":0.028720123326127864,"197":-0.11085812726334407,"198":-0.1629388390508094,"199":-0.10477648656333123,"200":0.20938269847389135,"201":-0.04377691427778389,"202":-0.0031476211175444028,"203":-0.06438202236528964,"204":-0.09298134505340004,"205":-0.11335240192175629,"206":-0.12845171570142008,"207":0.20463872593026547,"208":0.07461258338921198,"209":0.039116145992666496,"210":0.026546167142573424,"211":-0.03391969987667476,"212":0.07782048497554259,"213":-0.06730929570475075,"214":-0.018510305443808685,"215":-0.051810975785404285,"216":-0.018653675440118506,"217":0.044103571314122174,"218":-0.062141106815978134,"219":0.002217820854639253,"220":-0.0538255193784142,"221":0.1008314002334875,"222":0.006217682283053103,"223":0.12294395302550684,"224":-0.14011181860269797,"225":0.12014879659248605,"226":0.2322652733403844,"227":-0.0574540274576389,"228":0.11911888361778822,"229":-0.00389750541242665,"230":0.03597843247953704,"231":-0.0609326633823221,"232":-0.04541449342687644,"233":0.03178219084774093,"234":-0.002032306225864685,"235":0.060624699397804106,"236":-0.07891775338323112,"237":0.05713568706085264,"238":0.02938360135075747,"239":-0.12834112436063874,"240":-0.00007824531033868325,"241":0.0245784886573621,"242":-0.03228272825206883,"243":0.08141950431722826,"244":0.07470438478301533,"245":0.0682286641847569,"246":0.1386655978272529,"247":-0.053984127143047914,"248":0.021921203540991675,"249":-0.0017389935449836262,"250":-0.17465299108814833,"251":0.14142635575689685,"252":0.05301407831130486,"253":-0.14012490210959638,"254":-0.028454034153358915,"255":-0.004538741083378363,"256":-0.07909501770068084,"257":-0.009338313028172862,"258":-0.16339072881967154,"259":-0.008620654362016674,"260":-0.022299463232086765,"261":-0.04155253166855147,"262":0.1320072384852761,"263":0.06453534721001049,"264":-0.07080186534545223,"265":0.06465067312803852,"266":-0.062383527108613036,"267":-0.04205046907234568,"268":-0.007609621908226928,"269":-0.10322532102771174,"270":0.003884864177751181,"271":-0.06504428196812628,"272":0.07669222063989442,"273":-0.029111106531002646,"274":-0.10166295470745068,"275":-0.1384537853853264,"276":-0.08998592822029237,"277":-0.0528807966665577,"278":0.029684871671887318,"279":-0.058874534026271665,"280":0.13221723645879804,"281":-0.04719415059970181,"282":-0.0034263215053128362,"283":-0.04353090980278457,"284":-0.08485305646737908,"285":-0.12416024984027645,"286":-0.08426444992149787,"287":0.07606211418619115,"288":0.1675712998070415,"289":-0.10008347689513132,"290":0.03229306340364631,"291":-0.09724168536147683,"292":0.03137237165982843,"293":-0.15469466071848273,"294":0.02405833461582595,"295":-0.07948553893953025,"296":0.0069704794806378124,"297":0.0210992882741136,"298":0.14735567047400627,"299":-0.020120367933993983,"300":-0.031955884635195456,"301":-0.10151142516366717,"302":0.05724260139165812,"303":0.0747116267460951,"304":-0.0011678239979302464,"305":-0.02139599314604549,"306":0.013870111509837439,"307":0.13238552689821442,"308":-0.0994596185434914,"309":-0.03453979219195491,"310":0.09825581546378094,"311":-0.04236674553835939,"312":-0.0205043931015551,"313":0.13706811757799778,"314":0.026732957473764196,"315":0.1065361626042418,"316":0.03024412880714933,"317":-0.02130509526769532,"318":0.0291746188790344,"319":0.011026054515622722,"320":-0.04512103029531926,"321":-0.04004972787482243,"322":0.16183290383231644,"323":0.1100521510718501,"324":-0.23436891960125755,"325":0.09626822106414945,"326":-0.04703477074467995,"327":0.016050011438121573,"328":-0.10374276888904754,"329":0.04323208206552816,"330":-0.016571813680508685,"331":0.03580697116515539,"332":0.018038342393564482,"333":-0.047740995194834136,"334":0.023982426511477417,"335":-0.2179937575573724,"336":0.040494438687665175,"337":-0.00003883154523795485,"338":0.012960674927460237,"339":-0.09778303028680513,"340":-0.11344923424962866,"341":-0.005751864928985081,"342":-0.039282253862358715,"343":0.0024576060112078335,"344":0.017588183909346113,"345":0.08024259069517031,"346":-0.0017503687683778774,"347":-0.08793717904974027,"348":-0.022786995191988436,"349":-0.06294649854598157,"350":0.04818240365252319,"351":-0.15404585606756585,"352":0.12649745239727397,"353":0.030404322017143312,"354":-0.05653534571116673,"355":0.017689706043825686,"356":-0.11270203456424195,"357":-0.11446960532207155,"358":-0.05439710432638542,"359":0.03575800853494802,"360":0.08074736109369518,"361":-0.03713449798570555,"362":0.07302990626382569,"363":-0.015651026582044845,"364":-0.04437616856003918,"365":-0.16485571394893778,"366":0.03336825265954708,"367":-0.057022495340710355,"368":0.0027195558068945592,"369":-0.04853162738290487,"370":-0.13222807618468188,"371":-0.1335260264874587,"372":-0.05500564308611065,"373":-0.04913738296409455,"374":-0.07676857704761757,"375":-0.020254653646108307,"376":0.0742080849142581,"377":-0.03491763629682552,"378":0.08551197268216207,"379":-0.10138593659178491,"380":-0.020209143262449738,"381":-0.0793661444153374,"382":-0.12285104460596052,"383":0.11934176373881411,"384":0.11845548880700843,"385":-0.04511092049793079,"386":-0.12636230296690243,"387":0.015045095471569807,"388":-0.026856227524918445,"389":-0.042418182718988645,"390":-0.07133073598420396,"391":-0.04244789928032631,"392":-0.02671749141464037,"393":0.11443882353568949,"394":-0.08085898180765717,"395":-0.11767452401981263,"396":-0.030699304454882528,"397":0.0718924252032273,"398":-0.07332609336903566,"399":0.07007413614055714}},{"sx":5,"sy":5,"depth":16,"w":{"0":-0.028595006223602382,"1":-0.13411530753255752,"2":0.11170145679979553,"3":-0.02409079262608065,"4":0.03106896613376274,"5":0.0415784082584438,"6":-0.1112165574082626,"7":-0.000017153698187291188,"8":-0.06763017051774332,"9":-0.10765983847511494,"10":0.03545888188866998,"11":-0.06573330857770746,"12":0.004375155182461248,"13":-0.06657115660326254,"14":-0.071990422306408,"15":-0.08160453881476862,"16":-0.18139865245583892,"17":0.01985840806864763,"18":-0.05334542237873332,"19":0.02204189420333694,"20":0.08883452497361292,"21":-0.04976131057201819,"22":-0.09738026392270842,"23":-0.05267854915463589,"24":0.010613200932804705,"25":-0.09769283726128936,"26":-0.026248709987454027,"27":-0.000686017050417268,"28":0.011270823314378472,"29":-0.0016275964947725858,"30":0.04958885946843662,"31":-0.059091815488801484,"32":-0.05397183815783127,"33":0.10246058504356458,"34":-0.056413765944385894,"35":0.048170255993960805,"36":-0.022707158299713454,"37":0.008505001448325054,"38":-0.11200608658685747,"39":-0.08317429839897353,"40":-0.1389017518055161,"41":-0.18815731116480408,"42":0.023523335676759925,"43":-0.03581145635999269,"44":-0.03946774269158411,"45":-0.024520783379062154,"46":0.02081957882050415,"47":-0.10136718377052036,"48":-0.05048250329097438,"49":-0.060949747836612264,"50":-0.027732045262053247,"51":-0.2217920021740374,"52":0.006600572003653625,"53":0.04993963530689623,"54":-0.12058937597738466,"55":-0.1022935003583601,"56":0.14001569577092685,"57":-0.0858226060576021,"58":-0.12777491035566946,"59":-0.01709956539595034,"60":-0.12080937836922973,"61":0.041265755944337235,"62":-0.08472505748830525,"63":0.10447584563366848,"64":0.06019025252537321,"65":-0.05032448380025073,"66":-0.008785777885492067,"67":-0.11787301399458161,"68":0.030424303587251733,"69":-0.002835207216857721,"70":-0.000019911420427449504,"71":-0.07039583703100433,"72":0.03332537374817905,"73":-0.1172304382469583,"74":-0.12400532574041205,"75":-0.023397163246448832,"76":0.0030060452233037385,"77":0.027304965356500482,"78":-0.17786608319865566,"79":0.03697374506065073,"80":-0.12913254370589147,"81":-0.016745136196386425,"82":0.001338408246408464,"83":-0.030675657624617478,"84":-0.014843672716676234,"85":0.06792125668593511,"86":-0.013078968941991313,"87":-0.05489819057303875,"88":-0.026311338911867897,"89":0.017984189138592822,"90":-0.07056412331526826,"91":-0.0041054449691428655,"92":-0.06832549582167248,"93":-0.0513359253188175,"94":0.04722134377972066,"95":-0.0523557522152476,"96":-0.05622699289130934,"97":-0.02450279997924488,"98":0.11527316458250003,"99":-0.03769771472060084,"100":0.09916173925360414,"101":0.14888902879299154,"102":0.08229883588360393,"103":0.08117707617724577,"104":-0.018653640307085856,"105":-0.08330317588210885,"106":-0.0658276409619095,"107":-0.04865594130985514,"108":-0.034977974497347214,"109":-0.04586607024191445,"110":-0.003837664439994289,"111":-0.016247233551919378,"112":-0.044340475479653425,"113":0.1382098049647537,"114":0.09587583809013377,"115":-0.08636812712833833,"116":0.1399935034332044,"117":0.06403824242661643,"118":-0.022156178683338783,"119":0.03325373388790665,"120":0.09202838116315386,"121":0.03408700166529107,"122":-0.05218682722437553,"123":-0.07937617688033752,"124":0.031480814847665274,"125":0.14564501736591826,"126":0.0012971662244427445,"127":0.03464650301413339,"128":0.06579861347708044,"129":0.08055467273031687,"130":0.029777582970530084,"131":-0.09361237955263721,"132":0.08545078978039147,"133":0.033587333126158775,"134":0.08232120446780068,"135":0.0629085214945874,"136":0.08058520380381962,"137":0.04672982111224532,"138":-0.10577041811640761,"139":0.1283432569789539,"140":-0.021516117797446832,"141":0.03495242128059344,"142":-0.09039460645760822,"143":0.16577230704455834,"144":-0.17582048436839587,"145":-0.08577229746007152,"146":0.05744722426650236,"147":-0.08417202227661079,"148":0.15048014987847785,"149":-0.008796903908520143,"150":0.06421748028880833,"151":-0.0026996924831960245,"152":0.007098118487404595,"153":-0.03953619049237438,"154":0.0019974291707582402,"155":0.12214603033964273,"156":-0.06382337402889311,"157":-0.027129614676398173,"158":-0.0840606861083017,"159":0.08321091640495369,"160":-0.016054786642552204,"161":-0.048767434543352195,"162":0.10770981346739339,"163":0.15014461126263395,"164":-0.15023145232496982,"165":0.1426327706252494,"166":-0.12475996508805472,"167":0.029679446672249973,"168":-0.003962071672876185,"169":0.050261790422253975,"170":0.07158890521749216,"171":-0.007507253626676683,"172":0.022524272275682992,"173":-0.1822902714144017,"174":0.09749229861683875,"175":-0.08928022800575816,"176":-0.04679550721977954,"177":-0.050562349454129074,"178":0.2294903255295002,"179":0.12136698483234694,"180":-0.11713431695768275,"181":0.12559544663308408,"182":0.060353286783328526,"183":0.016493421048272124,"184":-0.17516760438986093,"185":-0.16489549931225186,"186":-0.07379717484322397,"187":-0.11597211380794263,"188":-0.08729599564906418,"189":-0.10973324770845876,"190":0.11186613526487088,"191":-0.1918216854035041,"192":0.07632241396901947,"193":0.07298613888382356,"194":0.013677363953697815,"195":-0.10840135451638497,"196":-0.05183749717805138,"197":-0.06649601198381729,"198":-0.08920102792634566,"199":0.10723006588717193,"200":0.05669620461839155,"201":0.05140371669937509,"202":-0.21074212557556257,"203":-0.2235231816381297,"204":0.02940468270481409,"205":-0.06885183936125554,"206":-0.008461793957190449,"207":-0.0007104255541313875,"208":0.17839397771348905,"209":0.17844404688816787,"210":-0.2278074238214966,"211":0.09593421697711141,"212":-0.05591415238932921,"213":-0.1825964663317274,"214":-0.059488854719212385,"215":0.08959841565905163,"216":0.14522782842295062,"217":0.20837934613044007,"218":-0.0942590401127869,"219":0.0699946796561641,"220":0.07519306735210507,"221":-0.09264990420572179,"222":-0.03198377129256377,"223":0.1701575443650849,"224":0.022026431458570982,"225":0.06419320979143027,"226":0.17105881825102814,"227":0.1562829618805606,"228":-0.029298164811175555,"229":0.01791182681547872,"230":0.0594441614299985,"231":0.08396528008986212,"232":-0.03164228794091462,"233":0.1787274802005637,"234":-0.021971514591957866,"235":0.0693882104933815,"236":0.06988049802166549,"237":-0.04397888115667278,"238":-0.04038953980105293,"239":-0.0297193876294572,"240":-0.17008767348114198,"241":-0.14878961185817033,"242":-0.1006396757871268,"243":0.07273181711648047,"244":-0.1457248340693549,"245":0.005732031087677407,"246":-0.07258123824298993,"247":0.0738574014439628,"248":-0.1117566913413903,"249":-0.073158485563907,"250":-0.10738920547867116,"251":0.008741755476247505,"252":0.06983486177260871,"253":-0.04704669621144741,"254":-0.03842164629711506,"255":-0.016401338544973235,"256":-0.11744105667164131,"257":-0.12981226274042126,"258":-0.007971783061726388,"259":0.13288482067173402,"260":-0.37046925719396023,"261":0.17453601636944255,"262":0.03073807362329775,"263":-0.07891004042149238,"264":-0.22898133794021752,"265":-0.20401032444681783,"266":-0.24228328102448002,"267":0.05861324516704629,"268":0.06445247528366403,"269":-0.16696667007708707,"270":0.19798902570064203,"271":-0.16732267113620905,"272":-0.08139203520674756,"273":-0.02376193387373996,"274":0.03836578627001281,"275":0.07479293838775519,"276":-0.06153201356283023,"277":0.08016119910935915,"278":0.1726866481237445,"279":-0.013864999545193183,"280":-0.07815109301900426,"281":-0.2390744920496839,"282":-0.2858472341852894,"283":-0.27784700083756975,"284":-0.006807097091586259,"285":-0.2031796941111621,"286":0.1845602848993579,"287":-0.04961719958434468,"288":0.19898754433581156,"289":-0.11198161720224957,"290":-0.16848198068311074,"291":-0.17407405182872657,"292":0.038001527771149526,"293":-0.30956242344981616,"294":-0.20789175390777834,"295":-0.008982123443421437,"296":0.07154412485756424,"297":-0.06573469066685164,"298":-0.24102040925125537,"299":-0.13534070076265967,"300":-0.028319210154285103,"301":-0.16845568451207585,"302":-0.03606506048403678,"303":0.22168326081073608,"304":0.06822520419543422,"305":0.006179808941436442,"306":-0.19486096893276844,"307":0.053224691127749746,"308":0.12946738507548328,"309":-0.07685314934967429,"310":-0.1732276542908635,"311":-0.018587096164109,"312":0.055618137978016555,"313":0.0605774881661219,"314":-0.2678000391278946,"315":-0.17840393069064178,"316":-0.02305443737037932,"317":-0.10701817229715659,"318":0.0023533337856902177,"319":0.1318833651303421,"320":-0.12789492643449027,"321":-0.1609400519637242,"322":-0.24256907837269476,"323":-0.10303868386533038,"324":0.11719255823322455,"325":-0.19898035562975253,"326":-0.10906928954380277,"327":-0.07106149896318648,"328":-0.13727180670920333,"329":-0.15518092676594555,"330":-0.12253310132049806,"331":-0.01636909406791243,"332":-0.10100630319111005,"333":0.07960123620244877,"334":-0.10188867424652821,"335":0.05167037089943209,"336":-0.1458383894599831,"337":-0.04854886909929909,"338":-0.12274437600618102,"339":0.090783923542377,"340":-0.07803741564394352,"341":0.12098404015733823,"342":0.06242980402952984,"343":-0.17980437297881813,"344":-0.19508152729745257,"345":-0.08286941408334166,"346":-0.21712105983340999,"347":0.007928051071194379,"348":0.029448207028369162,"349":0.1206425642940712,"350":0.030230995259524912,"351":-0.0206701018480046,"352":-0.19459773766263402,"353":-0.122773907194093,"354":0.10830345652348193,"355":0.20842713580321912,"356":-0.21721695428293109,"357":0.3361542386926168,"358":0.09485429012200673,"359":-0.10851741868290285,"360":-0.09796498164198365,"361":-0.19425155953636614,"362":-0.1605757869213489,"363":-0.11016626370438103,"364":-0.14996960668973744,"365":-0.09875804228067864,"366":0.15845008174463313,"367":-0.0728787535100106,"368":0.07437110194578948,"369":-0.01585529721633701,"370":0.044022742142946616,"371":0.02088733508154146,"372":-0.04064854521221427,"373":-0.11316802347393166,"374":0.06098470849618732,"375":-0.039438586099492044,"376":0.13440595136685932,"377":-0.03759258878821787,"378":-0.2513656556332884,"379":0.17354275137748834,"380":-0.0857841805015057,"381":-0.11328075346473039,"382":0.08534584965650306,"383":0.019950512248914816,"384":0.08812868211484862,"385":0.026756545851488452,"386":-0.09066296740061985,"387":-0.05808972461570456,"388":-0.007629621301870386,"389":-0.11171243340668048,"390":0.07136202547122275,"391":-0.00040867799192316164,"392":0.12001960326842283,"393":0.10483506669705067,"394":-0.004058026806976322,"395":0.12668402850892724,"396":-0.14955780592637236,"397":-0.052023707584667324,"398":-0.1031989366808729,"399":0.2073048087520696}},{"sx":5,"sy":5,"depth":16,"w":{"0":-0.014241142869077591,"1":0.0046395032896130875,"2":0.04578023599614512,"3":0.08929725454622399,"4":-0.06583398345686509,"5":-0.010682955695570444,"6":-0.02729110662181578,"7":0.040680149376749936,"8":-0.03687266934311194,"9":-0.05759623845301066,"10":-0.005620997613753028,"11":-0.030114971974193792,"12":-0.005996691742297308,"13":-0.11540238883311872,"14":-0.021929670789559808,"15":-0.20259123671536122,"16":-0.046327308053321505,"17":-0.034809670890039286,"18":0.16050207667680186,"19":-0.17066598685153048,"20":0.009394612726259527,"21":-0.013942997292739606,"22":-0.05722856051629759,"23":-0.02683530326652367,"24":0.0008900089878630824,"25":-0.02818424268600706,"26":-0.03981004928482573,"27":0.06435975277204001,"28":-0.11329486463401592,"29":-0.1135718706735862,"30":-0.0065499261815340805,"31":-0.06250565023062112,"32":-0.015418664329466212,"33":0.204110337858566,"34":0.16622987518448915,"35":-0.042898532971216964,"36":-0.029925515981744536,"37":0.1855239316322379,"38":0.008134630066854167,"39":0.11670313674578814,"40":-0.014989129876356366,"41":-0.030497000870070557,"42":-0.04547564468677882,"43":-0.2395094955640936,"44":-0.020528655118216527,"45":-0.16350405443418378,"46":-0.00815010401663545,"47":-0.23603212658428888,"48":0.12300340066381504,"49":0.3487943272742197,"50":0.09472214636625882,"51":0.10105873188094022,"52":-0.1407332822583306,"53":-0.17482363235571868,"54":0.0155138658539846,"55":0.17691024209069886,"56":-0.060619426333621905,"57":0.26676486472162797,"58":-0.11365631156658001,"59":-0.11253984752910787,"60":0.13571706437297337,"61":-0.33153025193181523,"62":-0.09823708015664488,"63":-0.16648756073940565,"64":0.12202581200853613,"65":0.12356049330557924,"66":-0.05306253135151991,"67":0.11983599094534583,"68":-0.18306564945154113,"69":-0.2993085548269696,"70":0.20187556729328177,"71":0.16713362458296757,"72":0.004137211104044012,"73":0.3589421975494092,"74":0.10997328388763403,"75":0.05681714067882013,"76":-0.015558412403595819,"77":-0.3592464373940119,"78":0.03575308962869722,"79":-0.012149862489858108,"80":-0.0007787379441837157,"81":0.08205839160694459,"82":0.026016407065072602,"83":-0.03992387978543053,"84":0.022124588267338485,"85":0.02616083976665879,"86":0.022300438164237872,"87":-0.020238813798477345,"88":0.02404382479844447,"89":0.013283464156909064,"90":-0.08951161784054996,"91":0.028271593320823015,"92":0.04405872366695979,"93":-0.011658996191860106,"94":0.027830886245708026,"95":-0.015760981214582,"96":-0.04277160724207481,"97":0.03110958165433588,"98":0.026242731656631425,"99":0.04002332944503154,"100":-0.03779240393328831,"101":-0.10362683894393761,"102":0.0163349825282131,"103":0.014434137906007036,"104":-0.05386155383130753,"105":-0.016346397876469403,"106":0.03919379614455529,"107":0.018666617173362297,"108":0.017812904475661053,"109":-0.11756063281499857,"110":0.029880921969134687,"111":-0.06423224955082595,"112":-0.12185307855943102,"113":0.037726467916618676,"114":0.06922788203605466,"115":0.14778005352207327,"116":-0.3539920495096958,"117":0.12737957568376304,"118":-0.0015277735573125551,"119":0.11045259403778165,"120":-0.09544764913314881,"121":-0.19845646396740318,"122":-0.12710929417693742,"123":-0.032110152929905815,"124":0.10192521827677464,"125":-0.360197123231479,"126":0.23022408629894753,"127":-0.20372137672806098,"128":0.0510647404365549,"129":0.08289698277425038,"130":-0.004223387272076322,"131":-0.04711714250964707,"132":-0.23746872444759703,"133":-0.23485750591724225,"134":0.019391164172637386,"135":0.12212223702459646,"136":0.03186090106903676,"137":0.025033687829897417,"138":-0.3570778336720895,"139":-0.14105592372696307,"140":0.03970271315892923,"141":-0.353940381931721,"142":0.044592612104464184,"143":-0.09451499608682572,"144":0.09124434842671393,"145":-0.1728682066161681,"146":-0.18548047369880521,"147":-0.09127752508378062,"148":-0.02385255153702625,"149":-0.20609794557795844,"150":0.12629799928653507,"151":-0.12373693281969311,"152":0.20816272769658123,"153":0.18510414974680445,"154":-0.2069934927091239,"155":0.04986651071704994,"156":-0.13673759732262042,"157":-0.3131955045803421,"158":-0.06510096143036377,"159":0.040730356232443754,"160":-0.09230024741823077,"161":-0.015396622174924128,"162":0.038476897172628644,"163":0.06522987059884924,"164":-0.041806340609666925,"165":-0.003660995637548778,"166":-0.01831592775340689,"167":-0.10215958213048035,"168":-0.11772682701970154,"169":-0.09250522620974196,"170":-0.12869912690842916,"171":0.08117859252251206,"172":-0.02504805041491318,"173":0.026029548324569347,"174":0.11148040769752089,"175":-0.0028764216553961806,"176":-0.15688573103342407,"177":0.027027567674321146,"178":-0.12484373459150919,"179":0.1031842033472672,"180":-0.023177066844074033,"181":-0.06759433184721567,"182":0.06871027321784827,"183":0.03836849790385268,"184":-0.07769839009566307,"185":0.05866014550956003,"186":-0.11004991055300913,"187":0.25724062226554734,"188":0.11130158520212145,"189":-0.09474907678159648,"190":-0.0440514013403444,"191":-0.043675302796036056,"192":-0.08209843072852138,"193":-0.059669294518068475,"194":-0.0130003762193348,"195":0.08832865410981225,"196":-0.19506275213473367,"197":0.060762882719389545,"198":0.05571703593998166,"199":0.010095762796893861,"200":-0.0060911905099871235,"201":-0.03196033499178343,"202":-0.18375657663588013,"203":0.14448890517068733,"204":0.11125146946267674,"205":-0.046793212221291375,"206":0.16496179927973278,"207":-0.22178826312294278,"208":-0.11911760427503548,"209":-0.2501528875557412,"210":0.05793001953038528,"211":0.05721230806823994,"212":0.004281750352979672,"213":-0.025484277645793214,"214":0.14571551081202844,"215":-0.043939060802191295,"216":0.15918576534332884,"217":-0.117129165463033,"218":-0.16322279959800567,"219":0.2103426891945546,"220":-0.05047270528918483,"221":-0.06537354555308011,"222":0.1808185612209935,"223":-0.17057517760132063,"224":-0.014315490768916668,"225":-0.12485332566859526,"226":0.07129802633981071,"227":-0.006101003015344582,"228":0.05228551893379424,"229":-0.3790896993851033,"230":0.1526575233056033,"231":-0.11297211118826124,"232":0.1173530316827632,"233":0.05865295061935309,"234":-0.31925759679062105,"235":0.22471947725238692,"236":-0.24610617024169185,"237":-0.0018716083501344382,"238":0.172709504569626,"239":-0.003215209252511709,"240":-0.15326217078269708,"241":-0.04568224653548366,"242":0.0026953998554102806,"243":0.05106716153829564,"244":0.053367529135539285,"245":0.05376514176463804,"246":0.025865486197041387,"247":0.08706650585420592,"248":-0.09261076871892801,"249":-0.03567004230666189,"250":-0.16049036569016362,"251":0.1510217628562896,"252":-0.05495193126930905,"253":0.08625277103044826,"254":-0.007492219342837088,"255":-0.05685617985012793,"256":-0.021567994857609754,"257":-0.036188233900640576,"258":0.014221695479812875,"259":-0.061043873927641185,"260":0.060587316874437504,"261":-0.00575321508464712,"262":0.03649193815456416,"263":-0.10885602929866571,"264":0.007748347074062795,"265":-0.019628749703952855,"266":-0.12501382124961277,"267":0.1283484296323593,"268":-0.1138643993382158,"269":0.046019149892359744,"270":0.0889814697063359,"271":-0.009483794453115871,"272":-0.1452476003839481,"273":-0.045648763088181415,"274":-0.01820644245682125,"275":0.1787605601327277,"276":0.13027687131891355,"277":-0.025946002306459163,"278":-0.052838271854937655,"279":-0.13105417700576036,"280":-0.04873607496470557,"281":0.09693061127012523,"282":-0.05513948197292074,"283":0.1918514993745045,"284":-0.010019578546462718,"285":0.06239733395396134,"286":-0.021274002990338645,"287":-0.12557358946650615,"288":-0.17461731821359167,"289":-0.1409525966095931,"290":0.1977383543822742,"291":0.20334207767757587,"292":-0.12702443103778094,"293":0.12750245736889537,"294":0.08697486813905313,"295":-0.09688158364972473,"296":-0.039593490046268214,"297":-0.034286728873614364,"298":-0.09583989693263276,"299":0.15509463976295665,"300":-0.08065996658708158,"301":-0.04416131529627688,"302":0.17920607918622966,"303":-0.18162483820332895,"304":-0.09730643244009021,"305":-0.1421718642704547,"306":0.18376763069449117,"307":0.21869076894066278,"308":-0.06538551004977823,"309":-0.19202892597215454,"310":0.14305405644284153,"311":-0.2103314521301235,"312":-0.020678636138040735,"313":0.06114984646924823,"314":-0.17543657601546522,"315":0.10579639889943863,"316":-0.08232601314047634,"317":-0.09658525550827372,"318":0.1777379690639721,"319":-0.2037326174778493,"320":0.013993157755197175,"321":0.12092727454178541,"322":0.036228472150991536,"323":-0.12001025238152495,"324":0.0696190935530235,"325":-0.053480242049294795,"326":-0.12866058365070315,"327":0.15560560358096298,"328":0.0023590580781061195,"329":0.033304783243005766,"330":-0.046220596639884606,"331":-0.11819294821500242,"332":0.02749223973025703,"333":0.02730209535657123,"334":0.004483177708006987,"335":0.07944853070770425,"336":-0.01249447416073169,"337":0.04317814484756039,"338":0.18994580132760466,"339":-0.1098807762189158,"340":0.24894583147308058,"341":0.02952172781481978,"342":-0.08613049701915025,"343":0.059905723044021246,"344":-0.17378273514900666,"345":0.005804477666121181,"346":0.010875828424850421,"347":-0.2089018802741667,"348":-0.037058285642188285,"349":0.06801365856581564,"350":0.017965393207737327,"351":0.09292396040833119,"352":-0.09156114835929496,"353":0.014394522746869354,"354":-0.05656727039763903,"355":-0.024848077158572936,"356":0.23322454832433498,"357":-0.10882757482926855,"358":-0.14220603141996918,"359":0.0322949208062546,"360":-0.14980685867303095,"361":-0.035775184045122976,"362":-0.18320355093074514,"363":-0.1331407120867498,"364":0.036489972927431204,"365":0.14432215178736368,"366":-0.15878752416759734,"367":0.06010735195660503,"368":-0.11208806146613481,"369":0.11407560368674191,"370":-0.06842052650088744,"371":0.05601223316984217,"372":0.13936422595370426,"373":-0.05334078091949184,"374":-0.13782946887321806,"375":0.06690591091769478,"376":-0.24101031773562834,"377":0.22845956753780397,"378":-0.29714704065374975,"379":-0.0833243076973659,"380":0.13122646978007244,"381":0.08580521575787596,"382":-0.0476115177108825,"383":-0.05380422069504258,"384":-0.028639117918506665,"385":-0.008089354700812504,"386":-0.03531094766613374,"387":0.15525548412467383,"388":0.09932682793230306,"389":-0.05453508962593431,"390":-0.11475354755834258,"391":0.018186930790274343,"392":-0.11546453828632736,"393":0.14137974546686788,"394":0.05448473994038505,"395":-0.06479179479003973,"396":-0.06189034360981243,"397":-0.062219290299373155,"398":-0.02064645560878716,"399":-0.06162399937827627}},{"sx":5,"sy":5,"depth":16,"w":{"0":0.21411395876982645,"1":-0.02016979431187279,"2":0.028837049338102293,"3":0.03318394374386964,"4":0.1792541440502186,"5":-0.04612848506740833,"6":0.14095639345750813,"7":-0.026115361256614046,"8":0.14798512096166108,"9":0.09140787783358506,"10":0.03332553509300219,"11":0.05133277729803646,"12":-0.029623637890671097,"13":0.016726095412366686,"14":0.08514873900451211,"15":0.10203949820742046,"16":0.1077626384187368,"17":-0.03426720551772478,"18":0.031836932260771195,"19":0.23111718835337403,"20":0.0031453414043951505,"21":0.11752871038932103,"22":0.011083030101183852,"23":-0.041956405339411064,"24":0.0727068025169911,"25":-0.10374045698539199,"26":-0.04009140709587722,"27":-0.057815575309656156,"28":-0.017483156404074492,"29":0.036397854123553106,"30":0.20903034306173904,"31":0.10796058997400335,"32":0.03978059903206685,"33":0.014094558747682064,"34":0.11791090402950113,"35":0.1016540293018242,"36":-0.13424204011888985,"37":0.0304216908847679,"38":-0.1039445509657949,"39":-0.011666034104393356,"40":-0.04463907245865511,"41":-0.03413723576958551,"42":-0.1880296643445283,"43":-0.1230012188064451,"44":-0.09184575109826282,"45":-0.11183804092590166,"46":0.060503084102766065,"47":0.004288896048832569,"48":0.18392042710642584,"49":-0.1752116412875321,"50":-0.09192758282571012,"51":0.028897571753337445,"52":-0.08307189324784903,"53":-0.03452650006378337,"54":-0.29248289104278546,"55":-0.11917445860992769,"56":0.18194393517418503,"57":-0.0007072143065526139,"58":-0.05585921307571459,"59":-0.06387559640602586,"60":0.08116455358497761,"61":-0.24344920150715857,"62":-0.0019944611947894887,"63":0.1473408142242287,"64":0.012814649813674818,"65":-0.1735955705261647,"66":-0.14213098408081337,"67":0.0348545426993484,"68":-0.17688995171401758,"69":0.08650357454833571,"70":-0.09019696107896953,"71":-0.10147536951348488,"72":-0.061038404033613596,"73":-0.059517327399065637,"74":-0.025707413714056934,"75":-0.06451459520261202,"76":0.11512453462056402,"77":0.008391881302299047,"78":-0.021584078493557497,"79":0.05266428345713326,"80":0.011586720341505836,"81":-0.010688778664076201,"82":0.0687174664035439,"83":0.04207188700266314,"84":0.04802736516718966,"85":-0.09793833844116263,"86":0.15047226874245415,"87":-0.09982987665202864,"88":0.07031984837889477,"89":-0.05426831398919255,"90":-0.12081597585314041,"91":-0.05356591131364882,"92":-0.08741279664733187,"93":-0.07595838162937513,"94":0.04203717166424362,"95":-0.014305627841066917,"96":-0.10859691425233502,"97":0.1380397964743133,"98":0.065782697348031,"99":0.046557403752166174,"100":-0.18801773949778527,"101":-0.08811358229140583,"102":-0.03376982068529675,"103":-0.042424613149077174,"104":0.03679001929996724,"105":0.06476560845071097,"106":-0.18992797648038454,"107":-0.054585583723432717,"108":-0.00066036531013155,"109":-0.1927409276831954,"110":0.05933303387214007,"111":-0.10286009289451621,"112":0.00936474081069265,"113":0.020528070786797775,"114":-0.05046634053484856,"115":-0.015768398123368766,"116":-0.11865063101248939,"117":-0.0917523968438705,"118":-0.05045735780587437,"119":-0.024737654212391425,"120":-0.011744744736223884,"121":0.15547122030852972,"122":-0.00028145766561212806,"123":-0.21512508903252262,"124":-0.03608624291624732,"125":-0.2243793029002991,"126":-0.00969473366751567,"127":0.10996901093142988,"128":0.10786113653133535,"129":-0.027655537373023422,"130":-0.21844940190969184,"131":-0.16469953581291794,"132":-0.2686752284239959,"133":0.03546640289704773,"134":-0.04724143937110806,"135":-0.06893503985459569,"136":0.08283002062502605,"137":-0.0785609428350683,"138":0.1635900558795328,"139":-0.13484304012573772,"140":-0.031064551156167224,"141":-0.1615158514013976,"142":-0.1543356266845232,"143":0.13185405251676427,"144":0.05355627127161039,"145":-0.03484338749628207,"146":-0.14823477955106404,"147":-0.08387149340731284,"148":-0.1163292403097679,"149":0.059179233175819426,"150":-0.10876573446314758,"151":-0.024327488634260205,"152":0.07735323808815485,"153":-0.16447769228009132,"154":0.0264878204847251,"155":-0.041667630525027186,"156":0.17254795019187738,"157":-0.04393905776595221,"158":-0.12309529473874012,"159":-0.058443336276028164,"160":0.019905607304259065,"161":0.07968988467523676,"162":-0.06217701785923443,"163":0.021920946012224392,"164":-0.049455145963168724,"165":-0.09512709903643414,"166":0.07791098967012193,"167":-0.08761639684475535,"168":0.10452190833051518,"169":0.09503930043721864,"170":-0.13805419421408288,"171":0.01963870219897642,"172":-0.04917510721134704,"173":-0.1354689363332164,"174":-0.0030860948519136353,"175":0.014360483066364421,"176":0.08269451589118917,"177":-0.0021148715412269282,"178":-0.007988071762496196,"179":0.04304612670956871,"180":-0.16574284431169184,"181":-0.13122256155711026,"182":0.24021158410167137,"183":-0.06403970119963415,"184":0.023282861323221556,"185":0.2120877306775909,"186":0.13293437017739532,"187":0.016282561969224257,"188":-0.13920603886378763,"189":-0.1299178597762964,"190":-0.06955151218694952,"191":0.06290158920426159,"192":-0.07306125300319345,"193":-0.14958190405856367,"194":0.07101840235720465,"195":-0.1098788871678144,"196":-0.14161911529636612,"197":-0.004635653338552159,"198":0.2216949665837311,"199":-0.04840698687926126,"200":0.13038471716783012,"201":0.18613034766533446,"202":0.15715031049951333,"203":-0.10637164267961832,"204":-0.06441284783245958,"205":-0.11086551876294207,"206":-0.01737547519979701,"207":-0.06762520723654249,"208":0.1014883307470789,"209":-0.11863294686696393,"210":-0.1628056998035444,"211":-0.17044881816723456,"212":-0.10726054548238075,"213":-0.011886857092147535,"214":0.0505151600565073,"215":0.05530185498529479,"216":-0.02143679415583006,"217":-0.0972866699297447,"218":0.029726501106388668,"219":-0.03510036015513948,"220":-0.0805253914782792,"221":-0.1502489229224516,"222":-0.09689748118687835,"223":-0.08704789095316133,"224":-0.007493872376898137,"225":-0.16726037979554326,"226":-0.07577310436055235,"227":-0.06271225280177387,"228":-0.04460849254767082,"229":0.030460628620701764,"230":-0.19714426418669095,"231":-0.11670766773985042,"232":-0.10879027012809363,"233":-0.23484647515539916,"234":-0.11224474241547572,"235":-0.045046123235934744,"236":0.04651910041425116,"237":-0.05899107278024827,"238":-0.04110345271485466,"239":-0.06641764301589057,"240":0.05294559996395382,"241":-0.08609743505365466,"242":-0.1445909976231636,"243":-0.19799733378093923,"244":-0.007874525243743996,"245":-0.24731454352654253,"246":0.23004655121048329,"247":-0.043278708367749004,"248":0.10533665745226942,"249":0.2910489218622603,"250":0.1210807261832308,"251":0.30296826574874575,"252":-0.24308765636729748,"253":-0.09466000305591984,"254":-0.10863627579305807,"255":-0.022106663156573454,"256":-0.0021381643287937124,"257":-0.22255317575510725,"258":0.12960240421323876,"259":-0.07021765539777026,"260":-0.0461791256473073,"261":-0.010025616592557487,"262":0.11124943036585473,"263":-0.17271107125886032,"264":-0.03889327680078245,"265":0.08154182944029853,"266":0.318513950391081,"267":0.02446748406887932,"268":-0.11771343655875108,"269":-0.06894665297869897,"270":0.052049558946377056,"271":-0.03174495860210366,"272":-0.15187059925136534,"273":-0.09168513881241351,"274":0.0028939105912418025,"275":-0.13341449686438808,"276":-0.080075003254813,"277":0.019283051166252424,"278":0.030350110703755994,"279":0.0745695792145165,"280":-0.11750972472815398,"281":-0.13335239601107154,"282":0.05017740516537153,"283":-0.014688632189309148,"284":0.06918401782380379,"285":-0.15248327413654564,"286":0.011185067259322487,"287":-0.14846493951814058,"288":-0.08888806793744869,"289":-0.21356195793787286,"290":-0.06998551223968817,"291":-0.03363476868480438,"292":-0.17054183546254056,"293":-0.144934074380723,"294":-0.08576759444808639,"295":-0.03457898621755916,"296":0.0048713227394425185,"297":-0.12863686937501587,"298":-0.17626152215680568,"299":-0.1425560608439763,"300":-0.0434901290817383,"301":-0.029759716526622102,"302":-0.0998221994561772,"303":-0.08156433835884819,"304":-0.13913449293394736,"305":-0.09558342313779927,"306":-0.000895951676394111,"307":-0.028875061307610136,"308":-0.022364853622181723,"309":0.1573709167787135,"310":-0.10229077874229273,"311":-0.08734789505332974,"312":-0.08312339122712667,"313":-0.14076056235935935,"314":-0.14206225094466388,"315":-0.15093966278819754,"316":-0.019769894700560255,"317":-0.04206040156509114,"318":0.07981417637061758,"319":-0.007923093386920101,"320":-0.10112790616107273,"321":-0.09772748163210868,"322":0.17047968159826202,"323":-0.09941978565153477,"324":0.1955572442662513,"325":-0.07271593758226272,"326":-0.0328503071748119,"327":-0.19075244752969048,"328":-0.11320773136042081,"329":-0.13732404407128657,"330":0.12585717302116686,"331":0.16629395105145794,"332":-0.2054079593686109,"333":-0.08614896679043707,"334":0.10904019942777461,"335":-0.11481192186951271,"336":-0.07589564525308928,"337":-0.09843446227451047,"338":-0.03234920621053768,"339":-0.22393191433922277,"340":-0.01965598973537341,"341":0.027542381051849606,"342":-0.12075414953307526,"343":-0.12046047380079387,"344":-0.09820002665000659,"345":-0.0628523037514419,"346":0.05622100144332109,"347":0.0362237495185696,"348":-0.11209593676178879,"349":0.01361312474413568,"350":0.05254248058297446,"351":-0.011846735829162701,"352":-0.055548862908759884,"353":-0.017265363223930272,"354":-0.03452909547891549,"355":0.047944267517107696,"356":-0.010160850092872648,"357":0.01266133306032151,"358":-0.07412696996326093,"359":0.0215776133793839,"360":-0.12154546729071514,"361":-0.05244703583055148,"362":-0.187140680717454,"363":0.06762111318442132,"364":-0.04808545328399727,"365":0.029675055134874513,"366":0.03568419299990084,"367":-0.0054878726510278345,"368":-0.1250378725572828,"369":-0.07517515973331958,"370":-0.03838816082691762,"371":-0.11664748870117589,"372":0.10119280409291788,"373":-0.10958524223174096,"374":-0.09613408324267203,"375":-0.02569202358067383,"376":0.046222386245565995,"377":-0.04475256348284701,"378":-0.15508114630902645,"379":-0.07388670121194608,"380":-0.0797532845312278,"381":-0.008852940067867483,"382":-0.05213550918119136,"383":-0.011561481032359275,"384":-0.08373874620347398,"385":-0.08573804853465238,"386":-0.12581090868516293,"387":0.007927562234452902,"388":0.06947337171606172,"389":-0.019802718013454547,"390":-0.08712933178950262,"391":-0.06126309062614451,"392":-0.14134559938908572,"393":-0.1308152004610455,"394":-0.22399547650857074,"395":-0.018365292343273904,"396":0.047573205207635826,"397":-0.04602975860004667,"398":0.001600057668785678,"399":-0.036681851481810517}},{"sx":5,"sy":5,"depth":16,"w":{"0":0.011833394074557007,"1":-0.13584140762657995,"2":-0.03039985343200281,"3":0.039601986532030474,"4":-0.0732251650224114,"5":0.031352463874971696,"6":0.034606859705336196,"7":-0.04660558614971067,"8":0.030243311523469027,"9":-0.09661048087574595,"10":0.11590345727344008,"11":0.09205792022335246,"12":-0.11307531236910402,"13":-0.1102695823968995,"14":0.03692568372487868,"15":0.044966636992638816,"16":-0.045074919619682345,"17":-0.055347750981949745,"18":0.055196487765740834,"19":0.16100460948811368,"20":-0.06158624593501046,"21":0.0881741769814317,"22":-0.03807700011755847,"23":-0.038939610221823434,"24":-0.11661572248145399,"25":-0.06871285827730565,"26":-0.04729476577455316,"27":-0.031027653087097946,"28":-0.06264804717291034,"29":-0.05941399510365247,"30":0.07336374966053588,"31":-0.12401902413181976,"32":-0.09887867280781457,"33":0.03081461092709157,"34":0.0741041161912404,"35":0.20930132994194653,"36":-0.13268021510901412,"37":0.01115199495042579,"38":-0.0683338238997627,"39":0.03579929666967202,"40":0.00530459285810692,"41":-0.035313074644616034,"42":-0.14138151993267103,"43":-0.09393808949153876,"44":0.0790831436314714,"45":-0.07816786611366802,"46":0.03933197238073664,"47":-0.1262638038759247,"48":0.11447227444872797,"49":-0.00229606805772336,"50":-0.03703322704004361,"51":0.045326977657675266,"52":-0.21184118905881216,"53":-0.05070320255515719,"54":-0.03584773640616431,"55":-0.02740692359803966,"56":0.12463401838013519,"57":0.11351410435935046,"58":-0.02067863730949235,"59":-0.11525361894751507,"60":-0.05234847283627158,"61":-0.17050810151992365,"62":0.09041202880062879,"63":0.01213776853553839,"64":0.11030958934655893,"65":0.028676540543228612,"66":-0.0059127464927026694,"67":-0.074814856351239,"68":-0.09829512596337288,"69":-0.05820368552041191,"70":-0.00557223398690303,"71":-0.028681857395375616,"72":0.09243668658773833,"73":-0.05839074464343068,"74":0.06770847309906047,"75":-0.0963718539301168,"76":-0.045776591397053305,"77":-0.16968989512949378,"78":-0.04828345576694205,"79":0.09396185433757472,"80":-0.09061101104626429,"81":-0.15279480928902367,"82":-0.04922540078419308,"83":-0.04160646768313409,"84":-0.15846841643719942,"85":-0.06016787344077561,"86":-0.010297657634356971,"87":-0.03692077379280572,"88":-0.0531630673278531,"89":-0.10817928562761946,"90":0.06744337133680325,"91":-0.05795242558495133,"92":-0.06969503976748156,"93":-0.06240535746292631,"94":-0.0210894223299459,"95":-0.0996200948338838,"96":-0.08108084380647677,"97":-0.10549992124281814,"98":0.030809403218477697,"99":0.0054438957552249145,"100":-0.13429521828235394,"101":0.07606308011897253,"102":-0.058566234830699275,"103":-0.10937231663672038,"104":-0.21670494145903232,"105":-0.13128551422093201,"106":-0.12964661459675214,"107":-0.13235015958715612,"108":0.02250972994220214,"109":-0.08529527353686335,"110":0.06931063856253278,"111":-0.08215615395528071,"112":-0.03133112112829786,"113":0.053275820836978974,"114":0.06664451014589524,"115":0.14505028399854153,"116":-0.22654276194167014,"117":0.05154934817277879,"118":-0.013475846443915423,"119":0.0607056012693917,"120":-0.057896947626528424,"121":-0.052259282052557705,"122":-0.2451828167946664,"123":-0.2560790160849262,"124":0.07929365855486124,"125":-0.19514901732271697,"126":-0.007167748504015617,"127":-0.1879682171209053,"128":0.07541439996080156,"129":0.023280962872024268,"130":-0.19119706372330966,"131":0.07303127003491436,"132":-0.25783251982322813,"133":-0.10042125183989442,"134":-0.0883276397817839,"135":-0.009160666876067477,"136":0.09544644054165109,"137":-0.0033764570814787506,"138":-0.0354987085406561,"139":-0.0869727012116078,"140":0.18859515184345782,"141":-0.29771252445668456,"142":-0.030106026918094213,"143":0.004195920208126865,"144":0.07477122702312673,"145":-0.05054312880028649,"146":-0.10167029135980556,"147":-0.061801616436491805,"148":-0.13693427337234274,"149":-0.11355173751508842,"150":-0.024128112210353988,"151":-0.008606830954420086,"152":0.019159142754159184,"153":-0.08361604355145351,"154":0.0637293346969008,"155":-0.10901446228152238,"156":0.035236836042270334,"157":-0.09553495350289262,"158":-0.0790264090353992,"159":0.022050746694300884,"160":-0.03450187260157284,"161":-0.007525889286298419,"162":-0.03242086579646337,"163":-0.1909549068802279,"164":0.03102218689972698,"165":0.00422614473413223,"166":-0.08288871532825104,"167":-0.028515490699655824,"168":-0.14346956121910687,"169":-0.13282473656436233,"170":-0.09620144122464669,"171":-0.17189285807946292,"172":-0.06584058447206262,"173":0.13680826442557248,"174":0.010503459363153752,"175":-0.08583299473928302,"176":0.010800807692018632,"177":0.02803294967904603,"178":-0.03662051068015551,"179":0.08344863476515224,"180":-0.1234469042674761,"181":0.0029043542699902876,"182":-0.17681547784968676,"183":-0.09108252197541593,"184":-0.2403517556333707,"185":-0.23461775067031013,"186":-0.12904051214151183,"187":-0.09005198907338431,"188":-0.044274274957285066,"189":-0.09964076952002139,"190":0.009590407607846331,"191":-0.009493602504019294,"192":-0.10787084988056782,"193":0.11172113615700316,"194":-0.11512168725492103,"195":0.20882232099574882,"196":-0.11492890650862672,"197":0.03743885509306,"198":-0.008943269560084488,"199":0.07939875975090055,"200":-0.15308193921173752,"201":-0.0909228344940887,"202":-0.10337229538117762,"203":-0.1714297615726358,"204":0.11098929977803719,"205":-0.14195243173161082,"206":0.0655618957804801,"207":-0.04108087805168638,"208":0.02542402065245889,"209":-0.1570540551671495,"210":-0.12073654624900435,"211":-0.032462629233048934,"212":-0.016444583298076833,"213":-0.14398310256132618,"214":-0.0004746585930819325,"215":-0.01407598742580995,"216":0.10692691515298103,"217":-0.12562263313396665,"218":-0.14450972662792333,"219":0.013233725215172602,"220":-0.009343978092100058,"221":-0.18660269172134714,"222":0.005419630491602572,"223":0.025512819757713655,"224":0.13132674920495346,"225":0.0651952041759209,"226":-0.07889941675052603,"227":0.0061976320078995974,"228":0.028731374565278772,"229":-0.06168156618034492,"230":-0.001825596663745722,"231":-0.006152272007901702,"232":-0.10433477316451976,"233":0.0073742814940025445,"234":-0.24721296145137156,"235":-0.057699403092869556,"236":0.03616838586628843,"237":-0.04868859181410818,"238":-0.038345116855775636,"239":0.026949984522049646,"240":-0.017507827105491872,"241":-0.07678200650849575,"242":-0.09260289674309649,"243":-0.08604461814997953,"244":0.07593240880354812,"245":0.008453900940733589,"246":0.046351273618932765,"247":-0.028218032430027833,"248":-0.1201950340091349,"249":-0.149418622763685,"250":-0.11160602229437762,"251":0.05473715445625665,"252":-0.022270123993784946,"253":0.07072212134920233,"254":0.014217274570972235,"255":0.149665343349195,"256":-0.08287759591311854,"257":0.013421085389665622,"258":-0.11723739059985314,"259":0.07598635780627741,"260":0.020228597997816997,"261":-0.007567370970400365,"262":-0.0032134259758340193,"263":0.013251479362128747,"264":-0.10409795772655953,"265":-0.17458258733787635,"266":-0.1153803328708789,"267":-0.06958176823116426,"268":0.029533435925202987,"269":-0.03935435145746674,"270":-0.0643190230370411,"271":-0.0017578461904853547,"272":-0.05257008830643999,"273":-0.03317499931276878,"274":-0.09894790580856631,"275":0.07030971722865385,"276":-0.038733014443041565,"277":-0.00562896832828598,"278":0.03424565272570147,"279":-0.09461243159574037,"280":-0.03967753208301783,"281":-0.20074569471966525,"282":-0.28230210649915044,"283":-0.0863702680037694,"284":0.02817962487987967,"285":-0.07899667108766188,"286":0.05503177131039789,"287":-0.12449274503484824,"288":0.024526026897855192,"289":-0.14896672411857084,"290":-0.10745892435699922,"291":0.04330624051704908,"292":-0.0793703371315185,"293":-0.18892442774119603,"294":-0.04195320551768915,"295":-0.0743369684917331,"296":0.1323871473379359,"297":-0.0722207963248892,"298":-0.16515109758549354,"299":0.13389489942351465,"300":-0.09998199672082146,"301":-0.08492651454983842,"302":0.07743482606214701,"303":0.023258791792141832,"304":-0.05969403312542349,"305":-0.04889587911712636,"306":0.05613335933583591,"307":-0.044496537453998,"308":0.055081656334512875,"309":-0.1274020826117355,"310":0.1410636614943626,"311":-0.031108184242462256,"312":0.0767273618997311,"313":0.10938630208467837,"314":-0.050312610516588,"315":0.013753324538847199,"316":-0.13947824171666,"317":0.0002632108729452105,"318":0.02151693165014016,"319":-0.03012327125542619,"320":-0.025920480462306522,"321":-0.08841696440651345,"322":-0.19561328633033093,"323":-0.019033336204228677,"324":-0.08750602513413329,"325":-0.11719413733505388,"326":0.04625112664206303,"327":-0.10374960956984991,"328":0.05727710527981732,"329":0.02755480541219085,"330":0.0871279955009551,"331":0.10549767611981221,"332":-0.030906704552159343,"333":-0.12830108258288953,"334":0.09127745418989698,"335":-0.021860754275597066,"336":-0.12308324581405339,"337":-0.13997821544626265,"338":-0.12397727288857555,"339":0.0657284313440737,"340":-0.168358009818384,"341":0.05932580896041972,"342":0.018554622770178535,"343":-0.03561476555248436,"344":-0.04354055937820106,"345":-0.04176830595388608,"346":-0.04378567701467407,"347":0.024351578420318286,"348":-0.14238212060660355,"349":-0.16254185814186686,"350":0.1079125680693192,"351":-0.10419958047753843,"352":-0.11146065906342464,"353":-0.08242385488075189,"354":-0.06480643660223674,"355":0.04187245437919837,"356":-0.1415771731628559,"357":-0.008844592383353552,"358":0.14210832512009527,"359":-0.05164984696643862,"360":-0.007149026374609947,"361":-0.09642582870726832,"362":-0.11935678211624952,"363":0.12206699872003501,"364":-0.004785090619452905,"365":-0.055270474068131355,"366":0.14168160108016473,"367":-0.027738637136100617,"368":0.11926619009121468,"369":-0.08571375412320005,"370":-0.06044995959403812,"371":0.016784829051979394,"372":-0.03549573427601171,"373":-0.17654867798245882,"374":0.07904959700412123,"375":-0.046709030129111095,"376":0.12503656212113667,"377":0.08082903179761682,"378":-0.06790968938177191,"379":0.21218587538769323,"380":-0.04759745517038267,"381":-0.00848320858632603,"382":0.002074832338354974,"383":-0.034142205443727404,"384":-0.006083585831556022,"385":-0.07543621564500554,"386":0.048300055290880314,"387":0.028335109251419816,"388":-0.10663529502189223,"389":-0.06120422424512142,"390":0.15841316465124677,"391":-0.17161468147414685,"392":0.019103844486977942,"393":0.012192325945663352,"394":0.20085084089365812,"395":0.19025023840429225,"396":-0.08711544413520908,"397":-0.11575222116629263,"398":0.13095033333282707,"399":-0.0478264208599395}},{"sx":5,"sy":5,"depth":16,"w":{"0":0.046368909899718015,"1":-0.08141085374864279,"2":-0.05692632951267899,"3":0.06365624348879863,"4":-0.04279414281624536,"5":-0.14567551073091628,"6":0.202583843189992,"7":-0.11549863078705977,"8":0.1756938733446194,"9":-0.1098781951058676,"10":-0.002326760040576733,"11":0.3622922799206783,"12":-0.06506594791954663,"13":-0.01907749569080628,"14":0.09472306075027735,"15":0.010745286802972707,"16":0.004301476603537396,"17":-0.055209027984363335,"18":0.06473369903078466,"19":0.008500601824484588,"20":-0.14185185783953366,"21":0.06584215678217303,"22":0.21660630042684245,"23":0.01574218010406129,"24":0.07963369063784424,"25":-0.14478783991613092,"26":-0.0763602062347504,"27":0.13957536303527326,"28":-0.06866563631662236,"29":-0.08670743895980133,"30":0.09174760947758044,"31":-0.0348564586160036,"32":0.0368806440593992,"33":-0.06665407673850783,"34":0.006986507333292309,"35":0.1144604048103596,"36":-0.02093352106448969,"37":-0.06445139309465853,"38":0.09702817967968973,"39":-0.057149154385222584,"40":0.021115254902885468,"41":-0.014014131158456664,"42":-0.19949087153889902,"43":0.019620294549158673,"44":-0.15223228124821986,"45":-0.1739504512963099,"46":0.013404859282447385,"47":-0.0363905219764684,"48":0.1280476379573868,"49":-0.12572772574570865,"50":-0.1467194169267173,"51":-0.005691157169380344,"52":-0.2710811278191718,"53":-0.20886852950671014,"54":-0.059067996269723866,"55":-0.09790266341400243,"56":-0.057712050008219176,"57":-0.05610861586204113,"58":-0.06478484266268478,"59":-0.08094377742413149,"60":-0.24698934768692316,"61":-0.09387089941769422,"62":0.03580025437646453,"63":0.0837013161488079,"64":0.041543961495131794,"65":-0.08570044178943705,"66":-0.1554241269559818,"67":-0.05400172265834556,"68":-0.14923409872996726,"69":-0.0940601615555753,"70":-0.19392193733870064,"71":-0.1859846548700391,"72":-0.07264202177748427,"73":-0.1363338387356523,"74":0.01722449882029917,"75":-0.14463652138712993,"76":0.014841564371068258,"77":-0.13452342752272659,"78":-0.0422838458734123,"79":0.04386054164423564,"80":-0.07037548495756246,"81":-0.02560417187914604,"82":-0.006766577162390413,"83":0.15212824553165408,"84":-0.10894552771305445,"85":0.04130967486780614,"86":-0.011549025949440397,"87":-0.06620354974066339,"88":-0.04529584631779766,"89":0.011570578374426552,"90":0.06533389304056061,"91":0.016526721225396845,"92":-0.03970616371689156,"93":-0.08063489503186773,"94":0.06236098379633242,"95":-0.14625227090150678,"96":-0.060740585206940804,"97":-0.11733730869088295,"98":0.07839970734498933,"99":0.10377935435664716,"100":-0.16180463910873152,"101":0.06065848064847033,"102":0.007330570150138378,"103":0.005458874603481109,"104":-0.008052854767530798,"105":-0.06947101664452714,"106":-0.06125561345999505,"107":0.1503768544571639,"108":-0.014790189915954502,"109":-0.17252835259875043,"110":0.09436390935549442,"111":-0.12515417033127443,"112":-0.04478949419139474,"113":-0.13230822558495423,"114":0.1472184394641967,"115":0.06907278241272032,"116":-0.02275510026538574,"117":0.13878776626792555,"118":0.045765564870072765,"119":0.0015258941336319114,"120":-0.05292510742236157,"121":-0.2626710762726827,"122":-0.20434250686443053,"123":-0.005700641969926334,"124":-0.16277523574220754,"125":-0.1284752375780712,"126":0.13289660895921018,"127":0.014848670376437646,"128":0.06383190433626021,"129":-0.00133359309590491,"130":0.015544089784837038,"131":0.041958209960456766,"132":-0.13031515972780067,"133":-0.06714653008237607,"134":0.023092311073733787,"135":-0.020883348702665297,"136":0.015955699889193636,