{"layers":[{"out_depth":1,"out_sx":24,"out_sy":24,"layer_type":"input"},{"sx":5,"sy":5,"stride":1,"in_depth":1,"out_depth":8,"out_sx":24,"out_sy":24,"layer_type":"conv","l1_decay_mul":0,"l2_decay_mul":1,"pad":2,"filters":[{"sx":5,"sy":5,"depth":1,"w":{"0":0.17167615151983104,"1":-0.3520172862911687,"2":0.01213401792096077,"3":0.45734854793233415,"4":-0.0006544929436117237,"5":-0.5639957465597151,"6":-0.16431734490577335,"7":-0.17208732019622275,"8":0.0822270716519698,"9":-0.18868890058152288,"10":-0.04068731001080758,"11":-0.1063626877672633,"12":-0.22968790812524936,"13":-0.03232030535929053,"14":0.13375978091200755,"15":0.04297789418263899,"16":-0.0879336871936803,"17":0.4278324130378935,"18":0.04419160589736805,"19":0.26743569453733085,"20":-0.3588612506214718,"21":0.3342289058671676,"22":0.036026141695030975,"23":0.1821538857611733,"24":0.21261564223881776}},{"sx":5,"sy":5,"depth":1,"w":{"0":-0.39859450327673823,"1":0.1377563048470207,"2":0.27901835948233106,"3":0.1074579640138883,"4":0.3609669983012652,"5":0.297665612294367,"6":-0.19117275169374717,"7":-0.03823348975797972,"8":0.17356393317783872,"9":0.12843928801659416,"10":-0.16124647040162482,"11":0.01723699191563483,"12":0.004550385445181262,"13":-0.06534295435263124,"14":0.5788059142126852,"15":-0.09660632024880478,"16":-0.483926023824712,"17":-0.07921123481298192,"18":0.14067985477695183,"19":0.19165814425104036,"20":-0.20016252659905584,"21":0.06772418727022689,"22":0.007883761265207043,"23":0.2365622968969957,"24":0.046949983064291254}},{"sx":5,"sy":5,"depth":1,"w":{"0":-0.330799540378118,"1":0.0028099985508394593,"2":0.1194821842735633,"3":-0.3178743498947505,"4":0.3127580307854842,"5":-0.2254558437724926,"6":-0.12161391274706718,"7":-0.13563213336390026,"8":0.13972897041315302,"9":-0.015359779348192881,"10":-0.07036678673592402,"11":-0.045520692224957186,"12":-0.15766308212392027,"13":-0.09264740308348626,"14":-0.24478162828756167,"15":0.07699458312259956,"16":0.02258867985243606,"17":-0.028310278348987136,"18":-0.17316539539741185,"19":-0.023720512893341476,"20":-0.12777821869217892,"21":0.3835051348136053,"22":-0.26873541179587274,"23":-0.13080140717298822,"24":-0.10887355969856856}},{"sx":5,"sy":5,"depth":1,"w":{"0":0.3652147156436504,"1":0.28172504190137837,"2":0.4610704927299316,"3":0.22336340200640045,"4":0.02774644263877393,"5":0.18955866477755912,"6":-0.1280100964886202,"7":0.36286406301937,"8":0.12003357974497524,"9":0.09690584490945717,"10":0.013401750432463238,"11":-0.03375567118849537,"12":0.09957140529833163,"13":0.0918568887085058,"14":-0.01431649250162605,"15":-0.2526843962593761,"16":0.26390975732799515,"17":0.01797905970841896,"18":-0.1828800580465392,"19":-0.0716026097010512,"20":-0.12053033070908857,"21":-0.14256435141780058,"22":-0.35733662917425213,"23":0.13021367622976968,"24":-0.057357241892941675}},{"sx":5,"sy":5,"depth":1,"w":{"0":0.02052873963330821,"1":-0.20331306346941747,"2":-0.29491328640639386,"3":0.09674860879515178,"4":0.1776653156769386,"5":-0.025815512533436582,"6":-0.048704094700661484,"7":-0.4662765174342508,"8":0.15042378821276575,"9":0.25621997026172605,"10":0.15148808933156202,"11":-0.10233666731490859,"12":0.15082386318645397,"13":0.2716031023873138,"14":0.43088600436063956,"15":0.24588485587959166,"16":0.49183961657749875,"17":-0.06211337737015281,"18":0.26216927159237163,"19":0.05395489222442822,"20":-0.18258680921289264,"21":-0.4364440465195043,"22":-0.13864809558729996,"23":0.361991721111906,"24":-0.30944454017027806}},{"sx":5,"sy":5,"depth":1,"w":{"0":0.24780997563126372,"1":0.37949142388566326,"2":-0.06256230563890912,"3":-0.3205332396411955,"4":0.1608440760930753,"5":-0.05411860065469,"6":-0.3724870799136666,"7":-0.1271576019878054,"8":0.27039770221205983,"9":-0.0050911982823795545,"10":0.006622096859487965,"11":-0.5548672539930074,"12":0.25803134528765115,"13":-0.08497017858535967,"14":-0.3890563934515201,"15":0.11328576226215754,"16":0.1843646832732036,"17":-0.10834328856540487,"18":-0.048049362349830725,"19":-0.29138455729110213,"20":-0.0784108464731387,"21":0.0887845394711801,"22":0.023080882577571866,"23":0.1431963102282265,"24":0.19003926586065875}},{"sx":5,"sy":5,"depth":1,"w":{"0":-0.11339137313977951,"1":0.47333126359949074,"2":0.3410372166750125,"3":0.22465419980691737,"4":-0.0120599826740732,"5":-0.202456331082776,"6":0.45755267084166495,"7":-0.08978997463929377,"8":0.41599385386807386,"9":0.5161281810852026,"10":-0.0023649762481344327,"11":-0.03769615625302112,"12":-0.13904808953035164,"13":0.1991098466678989,"14":-0.06940778281999349,"15":-0.1237828146213048,"16":-0.3026076093753703,"17":-0.14440179108081141,"18":-0.407281923848084,"19":0.1285001654249164,"20":-0.39227986835630047,"21":-0.5376346150057878,"22":0.2121479601127311,"23":0.060551141336503876,"24":-0.4666650332089472}},{"sx":5,"sy":5,"depth":1,"w":{"0":0.1675011129881299,"1":-0.3513655820639251,"2":-0.2253754507737303,"3":0.0415132272822433,"4":0.05095530381094069,"5":0.22082119243070447,"6":0.24084239297557372,"7":-0.2554484085288065,"8":0.0904903793651895,"9":-0.00867786562896666,"10":0.11343761736197056,"11":0.1795648451362101,"12":0.18242300480885074,"13":0.2765393680716486,"14":0.20396774498236064,"15":0.4455483520886685,"16":0.23676805556811464,"17":0.193405832313482,"18":0.06336140618870474,"19":-0.24856369572224357,"20":-0.05782479727297441,"21":0.19027365869510085,"22":0.3812424335227327,"23":0.20529369803262315,"24":0.2388789985518917}}],"biases":{"sx":1,"sy":1,"depth":8,"w":{"0":0.08713961650479127,"1":0.03211012971645913,"2":0.20283807007333926,"3":0.06580007790377697,"4":0.039219205559359614,"5":0.10211266587492467,"6":0.060504870765581344,"7":0.020506581099303874}}},{"out_depth":8,"out_sx":24,"out_sy":24,"layer_type":"relu"},{"sx":2,"sy":2,"stride":2,"in_depth":8,"out_depth":8,"out_sx":12,"out_sy":12,"layer_type":"pool","pad":0},{"sx":5,"sy":5,"stride":1,"in_depth":8,"out_depth":16,"out_sx":12,"out_sy":12,"layer_type":"conv","l1_decay_mul":0,"l2_decay_mul":1,"pad":2,"filters":[{"sx":5,"sy":5,"depth":8,"w":{"0":-0.1343168503314983,"1":0.04226521585195869,"2":0.1071957556695266,"3":0.09630643359847646,"4":0.009615541878033207,"5":-0.035065067468892375,"6":0.04920270298089767,"7":-0.13137705398620284,"8":-0.020315546765844843,"9":-0.025558839498898492,"10":-0.017757386313558953,"11":0.009423332634813241,"12":0.13198393389493218,"13":-0.021759382039970413,"14":0.039350585924892476,"15":0.08683568605155842,"16":-0.0900596611593391,"17":-0.06199262863687316,"18":-0.07517135602883222,"19":0.02796401817004087,"20":0.10678125193437925,"21":-0.10877593514956813,"22":0.031100266520133514,"23":0.0630356839198985,"24":0.12962733269287316,"25":0.08180296344882435,"26":-0.0477782785847088,"27":0.1411908406562692,"28":-0.06000502510758654,"29":-0.00807588779940689,"30":0.04611273418981675,"31":0.014860275802251695,"32":0.06509746177544252,"33":0.14260146162977363,"34":-0.06119573035196675,"35":-0.040978910656213445,"36":0.0942300570136465,"37":0.019057101678294497,"38":0.03255857154646745,"39":0.05139152490788226,"40":-0.17675308333860715,"41":0.14430198705216832,"42":0.04523756213497901,"43":-0.004394567799642261,"44":-0.014906356271831666,"45":-0.07842730018517857,"46":0.16890102419071068,"47":-0.1085834255671786,"48":-0.12594334252785072,"49":0.0377456454368859,"50":-0.0020016222633825365,"51":-0.021389068069627704,"52":0.14834747766989465,"53":-0.018371988076520043,"54":0.14123653482155868,"55":-0.1789474446580562,"56":-0.05526011379386024,"57":-0.030807382416124657,"58":-0.018685831490802027,"59":0.14604062569711543,"60":0.0075995241412262875,"61":0.00442796161101983,"62":0.1318477451494226,"63":-0.08748831758583508,"64":0.026302114855178173,"65":0.035894891212769585,"66":0.029299232472808183,"67":0.1471493818221031,"68":0.1374470122087133,"69":-0.024448863565552308,"70":0.1122586032213623,"71":-0.1555613869689975,"72":0.10717902637420085,"73":0.3209080000303457,"74":0.0696205850464796,"75":0.056243436544114137,"76":-0.014547750080555418,"77":-0.06794635535781877,"78":0.05015973020629394,"79":0.059382966027180524,"80":-0.010714778129190784,"81":0.014307466402664403,"82":-0.012728769234003278,"83":0.19557185668139823,"84":-0.089722163535085,"85":0.04096788153211342,"86":-0.12160403085186369,"87":-0.18489438391099633,"88":-0.023268216373118447,"89":-0.032228551282529605,"90":-0.11077641327259487,"91":0.04484978454218613,"92":-0.06016378657021595,"93":0.032921727722485875,"94":0.08486282028744603,"95":-0.06287377667554095,"96":0.00918942409432822,"97":0.02412124816611458,"98":-0.06475015551910976,"99":-0.003886996141831989,"100":-0.035120945021777,"101":-0.00770645130914825,"102":0.01378272869163126,"103":-0.07499204720746974,"104":0.09650813256372254,"105":0.06665651383782688,"106":0.05060857224388097,"107":-0.044332477477766676,"108":-0.04278459423987832,"109":0.05415954629719983,"110":-0.2230992546646317,"111":-0.06215808865804393,"112":0.1383631910807354,"113":0.14923033719005513,"114":-0.13671530028988416,"115":0.04734494845753573,"116":0.09280314494597203,"117":0.002283365891534887,"118":0.057605232533313636,"119":0.10640973608601005,"120":-0.005812075411967442,"121":-0.07091683855334449,"122":0.024236955892465314,"123":-0.14554716965055667,"124":-0.16412965279950367,"125":-0.08385579976748744,"126":0.06621779958489599,"127":-0.07749036495330426,"128":-0.04405801834853993,"129":-0.042890514554230263,"130":0.12154971419566389,"131":-0.14542783497190637,"132":0.0025572571339463447,"133":0.09338656806914389,"134":-0.12466016107137141,"135":0.01146659629278977,"136":-0.10290008834947993,"137":-0.07572997039718947,"138":0.12436643867793042,"139":-0.12420771823841573,"140":-0.12412843255667416,"141":0.002172789402292342,"142":-0.11666140094011793,"143":0.025252386561089073,"144":-0.0814622257993092,"145":0.0651788918678341,"146":-0.13777267225484158,"147":-0.15347963166685735,"148":0.12078189363271773,"149":-0.17648415002301127,"150":-0.026868769504934192,"151":0.039373722205714265,"152":0.12502208872756196,"153":0.10599179013834494,"154":-0.04892254798810388,"155":-0.081036247559166,"156":0.1442797949079683,"157":0.023531839767445075,"158":0.010811131288024588,"159":-0.00802078365359,"160":0.028998362272714753,"161":-0.19644432591475583,"162":0.06834796004050839,"163":-0.031541180688152204,"164":-0.07845290767787054,"165":0.0541352144723018,"166":-0.055046523106863435,"167":-0.004802605509861106,"168":0.06624340361177729,"169":-0.029880575821050304,"170":0.04430007514938421,"171":-0.048231569157516155,"172":0.007338390553531757,"173":-0.11168342870318412,"174":-0.030760622934759382,"175":-0.009437812626435046,"176":-0.0005245954050292654,"177":-0.0017253832598757412,"178":-0.07138041478116931,"179":-0.13121743712517822,"180":0.07595170770654214,"181":-0.11897792806516505,"182":-0.09353523919784718,"183":0.04426700544714053,"184":-0.08422084835214481,"185":0.0780088653348939,"186":-0.03578031986782051,"187":-0.02618281542205278,"188":0.11589888231723017,"189":-0.08773447500347643,"190":0.008879012064090596,"191":0.04401205007800797,"192":-0.07356170381452688,"193":0.0006393568003699899,"194":-0.012670093325380672,"195":-0.0029386576451098092,"196":-0.02695232597379098,"197":-0.07894397939777528,"198":-0.038524964560731206,"199":0.050374578623225565}},{"sx":5,"sy":5,"depth":8,"w":{"0":0.014809788315847238,"1":-0.11332910891249393,"2":-0.08050160168406043,"3":-0.06835113831863548,"4":-0.12187668987483741,"5":-0.13921485286793275,"6":-0.10990170012759516,"7":-0.013997064516337662,"8":-0.06429408102289356,"9":-0.05640948150067817,"10":-0.003502984442848839,"11":-0.15919936420030964,"12":-0.036064678547704565,"13":0.009317122241401334,"14":-0.17908660163896828,"15":-0.14062024780229584,"16":0.10743226744186558,"17":0.09334137482122265,"18":0.01798135810882011,"19":-0.0142619806065555,"20":0.054546696258093066,"21":-0.05479014234447327,"22":-0.045695953139053974,"23":0.12681396489116212,"24":0.06636170942993065,"25":0.06282696687902303,"26":-0.012498197196699798,"27":-0.10546627093839295,"28":0.05125720730815805,"29":0.09084346349272224,"30":0.014055164176357729,"31":0.03167132532316018,"32":-0.0031266533113200874,"33":-0.11614231953504335,"34":0.0430306727144715,"35":0.009952440343702938,"36":-0.01937908899125469,"37":-0.01366329791614199,"38":0.09182919647780168,"39":0.11788121779072476,"40":-0.09713860847446636,"41":-0.09626123855157452,"42":0.009997021100187915,"43":-0.08971031601040995,"44":0.0701116552834334,"45":-0.0997636696385802,"46":-0.11245353639025744,"47":-0.14309521542330644,"48":0.09664328474868937,"49":0.20144110158295842,"50":-0.0022093212883706574,"51":-0.09740100468897686,"52":0.0969981395683477,"53":-0.18964499940980506,"54":-0.07310671518027585,"55":-0.011558467675669915,"56":0.10316915262683773,"57":0.18739191448840448,"58":-0.15532679232529673,"59":0.03090220134863068,"60":0.17406816277491996,"61":-0.04036519858545888,"62":-0.005703599972899929,"63":-0.011373322842323477,"64":-0.169626073749914,"65":-0.006359956356418017,"66":-0.10128402282390402,"67":-0.056734349084702866,"68":0.029455877581947794,"69":0.032155124706092726,"70":0.06451332166835765,"71":0.06066180733069182,"72":0.014377901517592091,"73":-0.014760398835405288,"74":0.07040091197971733,"75":0.0068161029015238826,"76":0.05346984439333294,"77":-0.022199901839888094,"78":-0.028886097470968743,"79":0.143656289236404,"80":0.13525652592331386,"81":-0.004535155628115468,"82":-0.09870623544019719,"83":-0.05348526526162732,"84":-0.05562034762656835,"85":0.054813841163188576,"86":-0.013524429867049461,"87":-0.017566850722629805,"88":-0.038481627028863236,"89":0.04250156747997443,"90":-0.024658473018201923,"91":-0.06795033401190431,"92":0.09354184846267151,"93":0.026668135709833403,"94":0.05603595858459152,"95":0.07180543452469983,"96":0.030307169290269206,"97":0.09207401871299764,"98":-0.01991626189304837,"99":-0.045018843613232044,"100":0.08222122514033597,"101":-0.04654688205736633,"102":-0.020329836288119355,"103":0.09277905053395094,"104":0.0509498695287333,"105":-0.002051052547348764,"106":0.023643924019501134,"107":0.020331114406337822,"108":-0.13266623101020603,"109":-0.15043375862498656,"110":0.09142491910405601,"111":-0.10891581791316418,"112":-0.2022241781216452,"113":0.07045591163034765,"114":0.005127568261381429,"115":0.06283071854082833,"116":0.14887829586549567,"117":-0.0033200396036727523,"118":0.030706302440599083,"119":0.1332988848983876,"120":0.020582450979241034,"121":-0.09096078890500212,"122":0.04054306466085281,"123":-0.10430672570535056,"124":0.04958464336582098,"125":0.04104019067742742,"126":0.0669562819674536,"127":-0.018231348262585073,"128":-0.015638346234566832,"129":0.001894729904700544,"130":-0.04324409556710927,"131":0.1045664877784568,"132":0.1320389243347817,"133":0.0902012122844217,"134":0.03480960961376985,"135":0.041051929870446424,"136":-0.062394585962131814,"137":-0.056723527141429746,"138":0.14713202889923005,"139":0.0971677915738603,"140":-0.07366249244412776,"141":0.013866547382240187,"142":0.0770163028892456,"143":-0.0081162249322867,"144":-0.08173359014438758,"145":-0.33887877388804055,"146":-0.07558483032624723,"147":0.008155961856684253,"148":-0.06555752135552056,"149":0.03489961536769249,"150":0.07228117102704341,"151":-0.06416954403430028,"152":-0.10791500761325588,"153":-0.110385523612584,"154":0.06057353817717083,"155":-0.16490187818668153,"156":-0.03204466820360096,"157":0.11442834484546408,"158":0.00974955301464224,"159":-0.06097329101489585,"160":0.0009071846625553471,"161":-0.0866291357746383,"162":-0.1440861314148138,"163":-0.039372521111327524,"164":0.11582185898371326,"165":-0.03176315072655085,"166":-0.022938175088870496,"167":0.07170791120631037,"168":0.035691708199779015,"169":0.012656216664027817,"170":0.003789812544971651,"171":-0.08283899249271404,"172":-0.16611371553187385,"173":-0.04826312923073018,"174":0.01884641644816193,"175":0.031719557245271875,"176":-0.12502804933789852,"177":-0.14231639532164028,"178":0.009872108301534059,"179":0.008819324374777985,"180":0.021612833662487497,"181":0.0758132560401825,"182":-0.102076540582589,"183":-0.010611031083925509,"184":0.06709085363807846,"185":-0.15636203680311273,"186":-0.0385605603835445,"187":-0.05985221278701383,"188":-0.11847641779761713,"189":0.0227929367847571,"190":0.13643841794740896,"191":-0.11504160781900347,"192":-0.15594023633250892,"193":0.0014555427110774033,"194":0.15024039825159943,"195":-0.07483510409832658,"196":-0.022401837299732663,"197":0.11069296376639542,"198":-0.021865815454295313,"199":-0.042777774537823644}},{"sx":5,"sy":5,"depth":8,"w":{"0":-0.0055850422800729875,"1":-0.026714664441344245,"2":0.0738383569616021,"3":0.039806043972022906,"4":0.03296323382386495,"5":-0.10729944888329745,"6":-0.04012813929181649,"7":-0.02107145106492809,"8":-0.07988387299258896,"9":0.00853124962061614,"10":0.05698953880683939,"11":-0.12650909344165795,"12":-0.044176809909868206,"13":-0.027828273722681582,"14":0.03018673227135068,"15":-0.021217438835426965,"16":0.1269754819775181,"17":0.10698387177211019,"18":0.006283412838107608,"19":-0.0004775865311239611,"20":0.04017029952168025,"21":-0.014389099264105481,"22":-0.055593007229302716,"23":-0.05873930183805372,"24":0.027097928817220892,"25":0.15431434506050046,"26":-0.14566671404176515,"27":0.041126200361606295,"28":0.1578418258260873,"29":-0.10070350396009328,"30":0.10255867729767253,"31":0.028973472873099742,"32":0.02501449120890968,"33":-0.04409568257724353,"34":0.0832209849847408,"35":0.11123808607120367,"36":0.06587982858289274,"37":-0.004255144638012067,"38":-0.015625400886521413,"39":0.1704501125318051,"40":-0.04879606433068543,"41":-0.11423209383861,"42":-0.02792838013422838,"43":-0.08952773677369776,"44":-0.22755587632149452,"45":-0.09908648631628374,"46":-0.04158820315786658,"47":-0.02948206862167094,"48":-0.0308513190836769,"49":-0.10337947415888234,"50":0.13974435606660912,"51":-0.07018536511655256,"52":-0.2356297640667933,"53":0.010708467480529851,"54":-0.03289158880287822,"55":-0.18567297006466643,"56":-0.01190657013821385,"57":0.11499604828204349,"58":0.0649143531788146,"59":-0.07783493709742186,"60":0.12689607846549414,"61":-0.07566774327601569,"62":-0.1597819983647018,"63":-0.06145445509549685,"64":0.1860153535467846,"65":0.1948611234582173,"66":-0.15624796588399473,"67":0.02338882286253763,"68":0.10349017485657586,"69":-0.02319227649623632,"70":0.17140594031198125,"71":-0.08977086291149376,"72":0.021420880997749095,"73":-0.06160448240427119,"74":-0.07895392595299588,"75":0.1306134153815221,"76":-0.15102157546866732,"77":0.08894614394613763,"78":-0.038364733343715506,"79":0.04752913839094666,"80":0.0006399608435777317,"81":-0.04925887580112121,"82":0.01683037530140479,"83":-0.13490420995091798,"84":-0.034280045145719515,"85":0.018412300664648596,"86":-0.17723780657193927,"87":-0.12289787375636227,"88":-0.01883839150100798,"89":0.11149428275512104,"90":0.03813279686458722,"91":-0.17150470999383408,"92":-0.1638290827295834,"93":0.07739352349038946,"94":0.04014950567449781,"95":0.03317367187025035,"96":0.043913148171206645,"97":0.1508433480040715,"98":-0.0014412828022038649,"99":0.037585064066924294,"100":0.10275052921459633,"101":-0.0511334709175666,"102":-0.11606375471915548,"103":0.05976469630653572,"104":0.14513859127177134,"105":0.061707968549089054,"106":-0.16372504619404712,"107":0.10171973747233656,"108":0.06020658011807629,"109":-0.08924784698926207,"110":0.12752128532983675,"111":-0.00247069947846646,"112":-0.018413326490052125,"113":-0.14300377396564906,"114":0.0635665417518765,"115":0.11630634548442127,"116":-0.12871571872026197,"117":-0.10618713756904159,"118":0.013012933837755087,"119":0.10438000771802826,"120":0.08417957121573696,"121":-0.11612058893938708,"122":-0.0003970092903653275,"123":-0.09884434418709252,"124":-0.12255466475056413,"125":-0.0008224037457168357,"126":-0.09287965958916522,"127":-0.05993072836976008,"128":0.10565951123171269,"129":0.06539069090143466,"130":-0.04185837354590683,"131":-0.03423778985230155,"132":0.05082434231120415,"133":-0.04012041972781352,"134":-0.017244230628312172,"135":-0.10564500670454849,"136":0.1277459959369512,"137":0.07474542063363626,"138":-0.04689127312779647,"139":0.013827848467851952,"140":0.07840767381748269,"141":-0.02953910818289782,"142":-0.09954799575201081,"143":-0.059051285700763595,"144":-0.07160661049051777,"145":-0.023993208430610806,"146":0.05036436248828998,"147":0.1559704040292381,"148":-0.011791148114242193,"149":-0.04624755399164897,"150":-0.09310007948497906,"151":0.025124927422175716,"152":-0.027540737480312157,"153":-0.1234255127501423,"154":-0.11164929972646846,"155":-0.09612458700120384,"156":0.13307664181641582,"157":0.12739350733415705,"158":0.015039503900320177,"159":-0.18541685101018815,"160":0.1080244623916991,"161":-0.03299224654580746,"162":0.10944011859490435,"163":-0.10103879170854425,"164":-0.013830588625205836,"165":0.11642872420277946,"166":-0.03914173229695122,"167":0.10077687290951949,"168":0.0029322967812912774,"169":0.1306324712248049,"170":0.02717705196892471,"171":0.061954635447438455,"172":0.10003589929342978,"173":-0.035267663896382966,"174":-0.0058122234715633405,"175":0.13087702293542464,"176":-0.06833385395564925,"177":0.07668843128128705,"178":-0.052678239245305084,"179":-0.07226217103242673,"180":0.029740245134236454,"181":-0.08669918521605845,"182":-0.0048411693747184075,"183":-0.048465728537921686,"184":-0.06463600552919324,"185":-0.23329834962788248,"186":0.025164980543168135,"187":0.007485276904021188,"188":-0.15426109407116434,"189":-0.09768916784317709,"190":-0.013826080475285035,"191":-0.064009075263087,"192":0.02157569993646001,"193":-0.07905691562541035,"194":0.09754417797990846,"195":0.02485621021625033,"196":-0.03565702459680622,"197":-0.023409977736871167,"198":-0.1613824560514731,"199":-0.07081312112843037}},{"sx":5,"sy":5,"depth":8,"w":{"0":-0.06813381684177916,"1":-0.03940061955828431,"2":0.043543957456738516,"3":-0.11954441909411889,"4":-0.10747386901007641,"5":-0.05070281554096878,"6":0.03926568632696684,"7":-0.09961614783408247,"8":-0.1386045990193742,"9":0.08311964538507882,"10":-0.0018237455744624298,"11":-0.07348417302372959,"12":0.004417456370085784,"13":-0.04655396191526218,"14":-0.0499315719276492,"15":0.001986683898380693,"16":0.11267303792359279,"17":-0.003538539130083644,"18":0.01668468354695974,"19":-0.09681024264131516,"20":0.21776798621305854,"21":-0.02849237473590679,"22":0.09707663867571842,"23":0.12883369208480558,"24":0.12834684575268063,"25":0.022603327554664068,"26":0.0014161217288550959,"27":0.0331661089694104,"28":-0.03654478706313842,"29":-0.029488808162670355,"30":0.01511770624873195,"31":0.02247030873722295,"32":-0.1496354561237584,"33":0.169005639596651,"34":-0.08963959312709545,"35":0.14824183072699296,"36":-0.0059667578670528675,"37":-0.005884961836742493,"38":0.10473766065905359,"39":0.13082858441702308,"40":0.016081386552933986,"41":-0.06004490487503016,"42":-0.10091362495534997,"43":-0.009354830342381718,"44":-0.08655433667996124,"45":-0.08546610471734989,"46":-0.07267593047207233,"47":-0.08337348397092943,"48":-0.02181565824577161,"49":0.03730301897078706,"50":0.04913256569703876,"51":-0.10551479672024709,"52":0.09757928908493324,"53":-0.08766429829054852,"54":0.1266668563130835,"55":0.04061136779008227,"56":0.1439235075134851,"57":0.07078891823345068,"58":-0.12572188873010268,"59":0.09545022894976521,"60":0.10855724237035634,"61":0.024020142798449804,"62":0.0468093424507598,"63":0.06813465819722991,"64":0.040101378035174766,"65":-0.05770952211544184,"66":-0.016878510356368233,"67":-0.15588830159475547,"68":0.07608301387369519,"69":-0.032996351086418726,"70":-0.02520669531932358,"71":0.01817052195262446,"72":0.010814097068515653,"73":0.012333111951288323,"74":0.005976889913214899,"75":0.06396373298647842,"76":-0.01487820210484713,"77":0.03225265324616788,"78":-0.20310838681467333,"79":-0.06446374436769227,"80":0.0066788601469302536,"81":-0.027934179258260267,"82":0.0839944523993672,"83":-0.044952268885657024,"84":-0.11376343883888554,"85":-0.04857826771050357,"86":-0.06851330816011969,"87":0.06638766008971796,"88":0.006451034199637979,"89":0.058512986282125735,"90":0.10492750258603933,"91":-0.03393073387224795,"92":-0.010174391224683292,"93":0.11904314849243856,"94":-0.061875802561603646,"95":-0.0008991257056514381,"96":0.007361904435726986,"97":0.024186401989553262,"98":0.052538541540550904,"99":-0.0559595247561861,"100":-0.0813262314457001,"101":-0.10121671895587356,"102":-0.081528577100327,"103":0.05444855120262542,"104":0.03262673894251783,"105":-0.06083139698447208,"106":-0.12853238509080314,"107":-0.13957567829052106,"108":-0.004444516106226605,"109":0.08467403481754189,"110":0.032007733802252566,"111":-0.02905744092288623,"112":-0.020343154921117056,"113":-0.03767018688105123,"114":0.008134224585124101,"115":0.026887763307213083,"116":0.016241031913000754,"117":0.10152415020862875,"118":0.11293650847866975,"119":0.07187037117996722,"120":0.09546387526179562,"121":-0.08019409730639673,"122":0.12274208456089397,"123":0.0013922253998306256,"124":-0.06666759292526911,"125":0.018570320485330454,"126":-0.044870889065386235,"127":-0.022954676280363007,"128":0.10289373052963843,"129":0.021492559897308815,"130":-0.06909852245732474,"131":-0.0751395816665749,"132":-0.1056496631191976,"133":0.0017155933787893452,"134":-0.063082650255232,"135":-0.0410260796802389,"136":-0.0880439772322332,"137":-0.0429076442852089,"138":-0.09835881712951167,"139":-0.07943336778684432,"140":-0.12046246569600642,"141":-0.05456304479841888,"142":-0.05719356430081556,"143":0.07065487580236578,"144":0.021672992245175694,"145":-0.0013712709593999594,"146":-0.07058706349346704,"147":-0.15551056422143109,"148":-0.030492898820297588,"149":0.10403391398705902,"150":0.009142356791959553,"151":-0.015161387968040172,"152":-0.02897242602674897,"153":-0.014922385768693296,"154":-0.05123155385688048,"155":-0.035159718274654465,"156":0.0906889938056967,"157":0.005792493687934656,"158":0.041398072972661765,"159":-0.013768106971998203,"160":0.05410299639727396,"161":0.030318768536064543,"162":-0.13699969506214923,"163":-0.055646028344242315,"164":0.004554534592957961,"165":0.008507519940754084,"166":-0.07896945928324471,"167":0.05207423037303136,"168":-0.02929888587187378,"169":-0.01015141719122782,"170":0.07762166390984337,"171":-0.006394060173329467,"172":0.06603876881427934,"173":0.052962185643668516,"174":-0.07281775485555836,"175":-0.02914711539421233,"176":0.12488400967221781,"177":-0.02680466363508926,"178":0.07668696735769608,"179":0.028235778946404264,"180":-0.018278166907780665,"181":0.0257402950230895,"182":-0.08054478153632674,"183":0.1203829232999867,"184":0.11104526977143442,"185":-0.06682892950711938,"186":0.10260068941639858,"187":-0.09160532365796807,"188":-0.07476189301151985,"189":0.06434149617673804,"190":0.02018012292813026,"191":0.011974536368487134,"192":-0.11297799990963703,"193":-0.12148632618397244,"194":0.048258128805254305,"195":-0.19845055468068418,"196":-0.012715779552394826,"197":-0.00222535383547389,"198":-0.01588501524268936,"199":-0.015229778694532913}},{"sx":5,"sy":5,"depth":8,"w":{"0":0.08843427863706405,"1":-0.005422094314974381,"2":-0.09921229234709251,"3":0.03800897333888838,"4":0.07151885051400655,"5":-0.01649284186625033,"6":-0.15956850583986032,"7":-0.03697608225145066,"8":0.04910809619163314,"9":-0.024649124866027865,"10":-0.02530706258966823,"11":-0.06436667295924224,"12":-0.05733797998447944,"13":0.0191324613311675,"14":0.07049808709287085,"15":0.012373673023783699,"16":0.012147990389573425,"17":0.02619293726259176,"18":-0.13256329914598197,"19":-0.12849678455011526,"20":0.02529057218517696,"21":-0.020077478820773435,"22":-0.19709536708950814,"23":0.11806272679474189,"24":0.06492608288862568,"25":0.005929243886345452,"26":-0.117949661980601,"27":-0.23874615906256572,"28":-0.05014684477821025,"29":-0.07067781088934182,"30":-0.08552525294114569,"31":-0.0053013112911311,"32":-0.1308064209540829,"33":-0.0330703747329917,"34":0.0679171715322371,"35":-0.1710202904031772,"36":0.020783942945574157,"37":0.03977578623089958,"38":-0.08734737380228322,"39":0.03038116228979489,"40":-0.0020506479082900786,"41":0.01897371206767431,"42":-0.08503983008597199,"43":0.04284107797862133,"44":0.02358806082410414,"45":-0.18430091927366948,"46":0.15695207043547021,"47":-0.04341483791358407,"48":0.03720967450816946,"49":0.06891022345477461,"50":-0.04218395650130243,"51":0.14777326562644005,"52":-0.011081402208409342,"53":-0.12232844750597013,"54":0.11451755202249866,"55":0.007506332915358536,"56":-0.002503452890861227,"57":-0.04497419660016473,"58":-0.05790037751372176,"59":-0.006509288005754446,"60":0.007442083017104018,"61":-0.1628158868168246,"62":0.02829213516743017,"63":0.10665080674089808,"64":-0.10469284559252551,"65":-0.02343398210747467,"66":-0.0028067434678814207,"67":0.08201096487320253,"68":0.052741796445818286,"69":-0.06376472674103449,"70":-0.014994125282215734,"71":0.09564007575436348,"72":0.01189166322626554,"73":0.1700427957214421,"74":-0.0686403244823403,"75":0.07635393368186791,"76":0.24454569802506312,"77":0.027730909867025016,"78":0.0075554642916073785,"79":0.06939214913617096,"80":0.032351171019229935,"81":0.06061627345554543,"82":0.06508252246849744,"83":-0.016172968353962158,"84":-0.010407267283677078,"85":-0.1186977684491208,"86":0.08234694821960531,"87":-0.12362826958810381,"88":-0.0797691142026431,"89":0.024613778784313953,"90":0.03878533504408148,"91":0.0605568927143399,"92":-0.13363633577577724,"93":0.19248878878284417,"94":0.16413792110956008,"95":-0.15415803635912592,"96":0.08806792362946687,"97":0.01740057379722249,"98":-0.07430876185254924,"99":0.06649276363890097,"100":-0.06057459818180816,"101":0.014446550958849762,"102":0.13840954315921017,"103":-0.03569843614973557,"104":0.04494973244222562,"105":0.1368239728794341,"106":-0.020496749422581263,"107":0.04687771685341864,"108":0.08574456393081141,"109":-0.021018677623303575,"110":0.08255205721249967,"111":-0.08272434832702917,"112":0.1227942439042765,"113":0.07558282311921186,"114":-0.07378614098616773,"115":-0.04548488967603703,"116":0.12252601111049777,"117":0.08081503920305777,"118":0.009986411448375105,"119":0.01934918720433234,"120":0.11590932366644449,"121":-0.18259013166553442,"122":0.09877374500518095,"123":-0.020698150148986467,"124":-0.07741379837655997,"125":-0.007297826156190066,"126":0.07874655739894913,"127":-0.13445488334261654,"128":0.11815528160235106,"129":-0.02185273863807509,"130":0.03831725951240292,"131":0.01893242416578253,"132":0.018952976066607122,"133":-0.0904932778651109,"134":0.021643146515393306,"135":0.03536936062221795,"136":-0.056952903539021056,"137":0.034875193920356505,"138":-0.002947995327388703,"139":-0.038328314368598404,"140":-0.1352203023709903,"141":0.09094404938921098,"142":0.006511322294039487,"143":-0.11733005944521704,"144":0.09983299464332158,"145":0.10317161676008359,"146":-0.09931241801605292,"147":0.0478248562892561,"148":0.1309698513508685,"149":-0.0813474107925862,"150":-0.13582925195665368,"151":-0.03348600366873243,"152":-0.026036320190693706,"153":0.07161568040687775,"154":0.16251890885682027,"155":0.12446140639426898,"156":0.05222473912216445,"157":-0.019659026587321337,"158":0.070140540457423,"159":0.07223477026941066,"160":0.11932583052915925,"161":0.016483472416184905,"162":-0.0936064167981215,"163":-0.15950539375379277,"164":-0.01107642902877364,"165":-0.012442078765407658,"166":-0.07040091233564136,"167":-0.07361180858916859,"168":-0.033427414750621706,"169":-0.08145548357263856,"170":-0.08876070308201596,"171":-0.09245890422348696,"172":-0.05030437346977538,"173":0.0342788348208603,"174":-0.03444591339421152,"175":-0.1121580054554445,"176":-0.04781779692905732,"177":0.04669277442502723,"178":-0.16049193974823361,"179":-0.08977130060712998,"180":-0.1590105246392631,"181":-0.11355418973015095,"182":-0.0945386260327469,"183":-0.016850904404599278,"184":-0.12801413937111952,"185":0.11438302534114483,"186":-0.12933954717326734,"187":-0.20187819453611877,"188":0.11140867194140416,"189":-0.17534167534226625,"190":0.06498408664821538,"191":-0.021167784746744432,"192":0.0864184139304107,"193":0.054296942033532525,"194":-0.1751208552015042,"195":-0.02678514756671395,"196":-0.012563233018080027,"197":-0.03858217109706181,"198":-0.015229370854773296,"199":-0.09024912844844218}},{"sx":5,"sy":5,"depth":8,"w":{"0":0.07574783749338666,"1":0.04534148772816195,"2":0.03582652476679521,"3":-0.0142984965985559,"4":-0.07799946639813905,"5":-0.1633649405711716,"6":0.04468405110256176,"7":-0.18223948407067903,"8":0.03763973311647528,"9":0.031008891624369168,"10":0.05882732565005257,"11":-0.07084667336170213,"12":0.029403492663216218,"13":0.010696573005604483,"14":-0.07092850053162048,"15":0.0029244585856607044,"16":-0.10891305350216356,"17":0.17511439376148868,"18":0.0871916942770921,"19":-0.16439577007577227,"20":-0.08052488027968313,"21":-0.08326554845574477,"22":-0.08601072040489731,"23":-0.21513006869861134,"24":0.09612300558310648,"25":0.018817816269764597,"26":0.11862586238312954,"27":0.02414437526197237,"28":-0.00004715564246513329,"29":0.02129533640962019,"30":-0.010115924144277378,"31":-0.05627766677762905,"32":-0.04773505628837599,"33":-0.20395003666981726,"34":0.05838458580299776,"35":-0.04838443179258235,"36":-0.08918768841010032,"37":0.1017080256488475,"38":-0.012944586952622404,"39":-0.23525607113565294,"40":0.004021198480930426,"41":-0.03262616172365091,"42":-0.15410652872259387,"43":0.024904983975443537,"44":-0.03735780697801285,"45":-0.06257713943521864,"46":-0.043653818958845306,"47":-0.1409083438235467,"48":0.11425702772624466,"49":0.1648477391938996,"50":-0.011904616408770125,"51":-0.055523252114647655,"52":0.07077929870184667,"53":0.03758065130763189,"54":-0.13820494890508764,"55":0.0319143338737624,"56":0.08986847704780589,"57":0.14329114623756914,"58":0.07087832256035519,"59":-0.057868959235753276,"60":0.12245949864613356,"61":0.026005975067786662,"62":0.0031005857337571135,"63":-0.06302759390226016,"64":0.050969722259836606,"65":0.012796828809036136,"66":-0.02011717980981497,"67":0.02876301740981369,"68":0.08248752172094968,"69":0.05730806270802843,"70":0.03405996688573928,"71":0.09396009800199519,"72":0.10848315792857839,"73":-0.09787147970595715,"74":0.022951344551698703,"75":0.06116879666642426,"76":-0.10013888883549478,"77":0.06684403873036285,"78":0.040395544817655935,"79":-0.12649083414438048,"80":0.02892365618054817,"81":0.014281123563162154,"82":-0.01720735842501469,"83":-0.03302321740163043,"84":-0.025977489416724828,"85":0.05414172352320548,"86":-0.16270096062052888,"87":-0.06106926045894113,"88":0.11381055148288016,"89":0.08761364195913339,"90":-0.04080473706157299,"91":0.1541360704202192,"92":0.0417138502697301,"93":-0.11576950901910966,"94":-0.09689315509531007,"95":-0.008894962728565594,"96":0.0730216364112507,"97":0.14993345011582876,"98":-0.09113257940694183,"99":-0.027202755558085105,"100":0.028841168153544885,"101":0.058133390363930566,"102":0.081031512068578,"103":-0.018289052379767155,"104":0.11834058711081354,"105":-0.016309153009501944,"106":-0.027810931841264395,"107":-0.029266881493169472,"108":0.09018747145361206,"109":0.05644763205258341,"110":-0.05769992740921187,"111":0.1441518335905176,"112":0.08991913596966278,"113":-0.272777390373019,"114":-0.1577312271966068,"115":-0.08803314547706127,"116":0.06148672293449247,"117":-0.023026348128876096,"118":0.012807898548740046,"119":-0.05686901589590998,"120":-0.09283007180219863,"121":0.07112165096413299,"122":-0.04506251863584083,"123":0.03545105582500617,"124":0.12721887054999875,"125":-0.0319464201534459,"126":0.06884331216476296,"127":0.09682050200014543,"128":-0.15403018322684972,"129":-0.018871973382653354,"130":-0.10269613481875058,"131":0.08462045103091054,"132":0.03236363439838819,"133":0.08671861917294027,"134":0.10640797975829829,"135":0.09901275378265234,"136":0.09364139467930106,"137":0.08957461261417543,"138":-0.12980526948088622,"139":0.09672494134343837,"140":-0.028517718892959384,"141":-0.06371725341614494,"142":0.09385036041057648,"143":-0.05726708523897263,"144":-0.006581757272020475,"145":0.050921067733008515,"146":-0.2249132184480062,"147":0.0473189341725208,"148":-0.07079706638968702,"149":0.026901224811929046,"150":0.06705374805849065,"151":0.018537917247123045,"152":-0.041758661078687746,"153":0.07940124271621386,"154":0.12793451220790006,"155":0.056197700652946346,"156":-0.03165090350849194,"157":-0.08591097678750749,"158":0.02720260164206542,"159":-0.12423591384919369,"160":-0.10853476263137303,"161":-0.045994509208173946,"162":0.03504612396688524,"163":-0.0869821576592182,"164":0.0004229896088146796,"165":0.012368651973456098,"166":0.08259601651606253,"167":-0.04549447746424646,"168":-0.007536465129269242,"169":-0.038829453192427824,"170":0.042965612479185594,"171":-0.02035589645853609,"172":-0.03294984203844292,"173":-0.019461222479135124,"174":-0.02999231113799894,"175":-0.03609449537024817,"176":0.019502926657304423,"177":-0.05047455997419144,"178":-0.01844860586860338,"179":-0.08570972913804999,"180":0.017901189099792984,"181":-0.0690306604137522,"182":0.04825342601138963,"183":-0.008856968048701858,"184":-0.06811849596643385,"185":0.03745194413498919,"186":-0.010680006273467336,"187":0.07956372065103952,"188":0.10076124210439677,"189":-0.012556628629955394,"190":0.120254029060231,"191":0.10680979412708937,"192":-0.027099404345053264,"193":0.03809658621318493,"194":-0.04409131998724728,"195":-0.025935291304184586,"196":-0.06869521984160687,"197":-0.0547741896211508,"198":0.0260038946230204,"199":-0.015941493129039898}},{"sx":5,"sy":5,"depth":8,"w":{"0":-0.07237525707338556,"1":0.020763050699773366,"2":-0.029468161985515964,"3":-0.0299455392820209,"4":0.15988684508768689,"5":-0.12325580792504173,"6":-0.08705451772663601,"7":0.02778377293841865,"8":0.05520721809089102,"9":0.042995343105193456,"10":0.11051998745698166,"11":0.04625119109475499,"12":0.011410669630821992,"13":0.015323714107785828,"14":-0.04722697743867706,"15":0.15093655803059186,"16":-0.1305506396420515,"17":-0.04880035474654749,"18":-0.1654504898825049,"19":0.15951799259793495,"20":0.13951214005727197,"21":-0.12423035492977383,"22":-0.030933429031708398,"23":0.023317230829972918,"24":-0.10317288102115839,"25":-0.005615957628355112,"26":-0.07739173687208725,"27":0.08615449990702462,"28":0.054346359132271975,"29":0.0197994217735916,"30":0.02586998699187056,"31":-0.029076829139192167,"32":0.0018622751269471891,"33":-0.16108369597851796,"34":-0.003469710642079786,"35":0.16183525136322433,"36":-0.025649731421916445,"37":-0.04600994734215054,"38":-0.09277203020225218,"39":-0.053058420063091374,"40":0.07419065141780319,"41":0.00540572276219713,"42":-0.030935625126376074,"43":-0.07563851130092944,"44":0.1052960910915796,"45":0.09074163753840254,"46":0.03902960369534575,"47":-0.004425460923758511,"48":-0.09663314219332725,"49":-0.032859469610824595,"50":-0.13202384548368748,"51":0.008287710979700654,"52":-0.10730717892976033,"53":-0.15254291809835707,"54":-0.05984462962147699,"55":0.010861373002170034,"56":0.006602642148261052,"57":-0.07581230720442675,"58":0.024892849423258423,"59":0.03737472770923654,"60":-0.034946954684913885,"61":-0.14144173471552648,"62":0.07929742100972767,"63":0.018602949283987633,"64":0.023165877470198156,"65":-0.13076259210730884,"66":0.034198476611624895,"67":0.127761431588666,"68":-0.0032257827936278314,"69":-0.04216570645902098,"70":-0.002397790618027547,"71":0.019599467950182275,"72":-0.07655039314243915,"73":0.12485005968980326,"74":-0.02109965617647778,"75":0.14054840803342794,"76":-0.09279834687427677,"77":0.0609652304434453,"78":-0.02968743011768964,"79":-0.005816357096686243,"80":-0.020950613235610448,"81":0.04812425149993159,"82":-0.031272800230098756,"83":-0.01596280683380113,"84":0.06880654861058344,"85":0.04603970142682115,"86":-0.11277801603036089,"87":0.0162034851880536,"88":0.04018720069522388,"89":-0.1492936175774125,"90":0.01727683895255951,"91":0.009427298362076772,"92":-0.25631210806416443,"93":-0.08920179470657202,"94":0.004658413197018904,"95":-0.010574734705154723,"96":-0.04004546881143992,"97":-0.039785106619099654,"98":-0.012601314831607355,"99":0.07547663133497862,"100":-0.015236608939635455,"101":0.027150465174312598,"102":0.04816243220533196,"103":-0.14027678729401669,"104":0.03635087655875378,"105":0.046671869340257535,"106":-0.04480411457655854,"107":0.02730669505020884,"108":-0.004602414438162474,"109":-0.037895696398378746,"110":0.07247963940448542,"111":-0.07618390603220995,"112":-0.1099499173252875,"113":-0.026222118841548517,"114":0.053487108135578866,"115":-0.11063200414132002,"116":-0.09733746606701608,"117":-0.01625843298557132,"118":0.020340213651249113,"119":-0.06184218330619508,"120":0.04868787985963716,"121":-0.029406003459336055,"122":-0.012894096473832694,"123":0.13308004784883026,"124":-0.09965022329303627,"125":-0.03660789498878899,"126":0.04806464658940084,"127":0.0010206245901018627,"128":-0.016431266116771103,"129":-0.044211081237208266,"130":0.004498451576794989,"131":0.01195360121241536,"132":0.13620143727281184,"133":-0.02870120415601953,"134":-0.023724344483574702,"135":0.05724394934597542,"136":-0.08636217498219997,"137":-0.020709722816614134,"138":-0.1094330167126621,"139":0.10015122938741924,"140":0.009219539283502632,"141":0.14080883128214272,"142":-0.10723452342063605,"143":0.017217719837431412,"144":0.020424657411018274,"145":-0.05252627998457676,"146":0.03999529377067809,"147":-0.10333175531112171,"148":0.016628469952500113,"149":0.001138379067409189,"150":0.07969420274307683,"151":-0.0378961056587643,"152":0.03490488374185549,"153":-0.05120381332743202,"154":0.010613333095502941,"155":-0.15937746676913944,"156":-0.10983977637261844,"157":-0.08869435091063894,"158":-0.034140858559088216,"159":-0.017095648836430062,"160":-0.10932581910136792,"161":-0.022684378437273656,"162":-0.035227394964071714,"163":0.05864816919754067,"164":-0.09866987003411894,"165":-0.06692037490368964,"166":0.14620658133991052,"167":0.055598594482517354,"168":0.053216005911211645,"169":-0.11216600776242884,"170":0.04826736284348928,"171":-0.07923407405528016,"172":0.049932904495692244,"173":-0.018067775987736824,"174":-0.005617320857388297,"175":-0.11038778684086624,"176":-0.08307661596531425,"177":-0.10717460201386936,"178":0.10727592201686591,"179":-0.023436673298031157,"180":-0.06995720939149226,"181":0.0816830146164336,"182":-0.04603864792810904,"183":-0.00894158272081579,"184":0.07996267852021288,"185":0.14572638309586147,"186":-0.011691896090750836,"187":0.08474715805488885,"188":-0.06111747805367843,"189":0.006896179419324846,"190":-0.01994657112651337,"191":-0.09447361949012258,"192":-0.06347623053253494,"193":-0.08965311593254914,"194":0.0541338991976041,"195":0.05185203593910152,"196":0.018725294613415364,"197":-0.05170650093998021,"198":0.06386950728237706,"199":-0.051738923839965346}},{"sx":5,"sy":5,"depth":8,"w":{"0":-0.09822316630159734,"1":-0.12351452266629664,"2":0.07668097733564884,"3":0.007407342805375485,"4":-0.09391624335313847,"5":0.012009377738608603,"6":-0.11489343135718605,"7":-0.030359204297212214,"8":-0.1226599279472312,"9":0.03693549954027798,"10":0.015278379749459696,"11":-0.1043823886593213,"12":-0.07713639184445809,"13":0.07093559663527792,"14":0.04384401684515551,"15":-0.0000639219640075424,"16":-0.09192825737586709,"17":0.10499262737700593,"18":0.10497808414196604,"19":-0.08211379013140396,"20":-0.11399918836437273,"21":0.07694441903163204,"22":-0.19384531496446786,"23":-0.11003244482820779,"24":0.10775197141114101,"25":-0.01642896255521603,"26":-0.07440579608909563,"27":-0.07047781712869737,"28":-0.023505367308455538,"29":0.08272926953902694,"30":-0.010294866139093355,"31":0.03086982068321453,"32":0.027674353610709523,"33":0.0499129460662945,"34":0.05985886558335547,"35":0.11788782096198822,"36":0.10241445583476598,"37":0.008942591992482284,"38":0.04072110445443205,"39":0.004988362453364108,"40":0.14760956615530132,"41":-0.1422758782769423,"42":-0.1245018429314668,"43":0.04583026245163779,"44":-0.036549472994628705,"45":0.1676286786584785,"46":-0.08018387884990172,"47":0.07404059207036721,"48":0.0808168188252503,"49":-0.05561488781575376,"50":-0.10273051549000956,"51":-0.0698168581334552,"52":0.04377205010564229,"53":0.18160146058217339,"54":-0.12714551612842512,"55":0.1469417055537301,"56":0.06918860069330583,"57":-0.05042899175624566,"58":0.10898208504034206,"59":-0.08992824318637396,"60":0.15561872252864306,"61":-0.09301323796092009,"62":-0.18523717656434344,"63":0.051953067850980236,"64":-0.012427300701250888,"65":-0.1428361824717947,"66":0.14577165743755913,"67":-0.11397144014278071,"68":0.09196718803441817,"69":-0.0442222912766141,"70":0.009642776213031638,"71":0.07652929829718995,"72":0.11824316587130619,"73":-0.04948208895280135,"74":0.09362242682088505,"75":-0.0324283116676941,"76":-0.048964091269938094,"77":-0.13774743167392595,"78":0.11010452204273624,"79":-0.04198483848950296,"80":-0.07271444873280142,"81":-0.05638075449938085,"82":0.07926767724881946,"83":0.07132846752970061,"84":0.0306050922285096,"85":-0.18410240962552704,"86":0.19978535942557568,"87":0.031283168137715,"88":-0.08563959140701734,"89":0.0008888534548091886,"90":-0.043107473250456885,"91":-0.02332038740411583,"92":0.15293057269017613,"93":-0.015606500227224792,"94":0.19178994120789133,"95":0.0977970346147329,"96":-0.09691501551629617,"97":-0.016648271200053442,"98":-0.038204276251596614,"99":0.11711598134392653,"100":0.09825368132116041,"101":0.027941041525920883,"102":0.11918642151526872,"103":0.13667225999265048,"104":-0.07126210002117447,"105":-0.0246371409605299,"106":-0.115198716915641,"107":0.026775326958911924,"108":0.11818205162729911,"109":-0.0014809890629050512,"110":-0.043494599032829435,"111":0.009259951581930092,"112":0.03510194887862363,"113":0.03258150622034966,"114":-0.027680368320222595,"115":0.08995719416672113,"116":-0.15269378767607733,"117":-0.1478428643121523,"118":-0.010556021333575761,"119":-0.10200326185183013,"120":-0.030451002363904765,"121":0.07603006298950955,"122":0.16635999547379185,"123":0.009698241881605348,"124":0.1047301304885947,"125":0.07634239565527969,"126":0.2467053380170763,"127":-0.20502635611785247,"128":0.04288925871917594,"129":-0.0899861093965318,"130":0.11667352651140679,"131":-0.06151450586523563,"132":-0.16054175433090545,"133":0.09439085873862511,"134":0.329643715817059,"135":-0.3082444735565654,"136":0.10830828181074854,"137":0.005720530842254925,"138":-0.041533225650932315,"139":0.23576651771844892,"140":-0.0555863566600892,"141":-0.11070222066029288,"142":0.1140625770733967,"143":-0.004885141112055808,"144":-0.0387404764092506,"145":-0.025445424091815487,"146":-0.05473575386704549,"147":-0.006593719745337574,"148":-0.10445047156625642,"149":-0.08922781818514795,"150":-0.12330103128026215,"151":-0.11030420778331744,"152":0.09651720946645612,"153":-0.01183033040306903,"154":-0.15073791796149696,"155":-0.09070294725835992,"156":0.00927998557642343,"157":-0.06279549661339646,"158":0.08095899732407466,"159":0.07414628253404373,"160":0.026160964218763117,"161":-0.04859472339511507,"162":0.06835638599809062,"163":-0.11845215687432982,"164":-0.037993103116299616,"165":0.025278268205859305,"166":-0.0716710807800547,"167":-0.08465510872559649,"168":-0.012963827303833591,"169":0.015621312797662313,"170":0.04105833048317228,"171":-0.05354540045134177,"172":-0.004719079974887623,"173":-0.15274787526290795,"174":0.0011816737863949408,"175":0.06799827363042472,"176":-0.0022550880027584477,"177":-0.06947059714078001,"178":0.07894170933578909,"179":-0.019809153296106576,"180":0.07559465621988883,"181":-0.0026929611939414773,"182":0.033893259949018324,"183":-0.187381738450107,"184":-0.062373668336253685,"185":-0.08879112614895847,"186":-0.07812498973223014,"187":-0.007036562954868925,"188":0.00352094466502277,"189":-0.08490649133273111,"190":-0.024262793776805708,"191":0.07738920932893348,"192":-0.029874656123263697,"193":-0.11125741733109022,"194":0.02136293742745488,"195":0.008280289490969683,"196":-0.017526539231647955,"197":0.10839263543451677,"198":-0.03525442623398261,"199":0.003119615542493364}},{"sx":5,"sy":5,"depth":8,"w":{"0":-0.014225941263736573,"1":0.007377449062216334,"2":0.09641531994274771,"3":0.036692051721191526,"4":0.14996862263812893,"5":-0.006921920477007859,"6":-0.1011574991358872,"7":-0.05830530531169032,"8":0.03588578370983,"9":0.10886871982715182,"10":0.013696599967660362,"11":-0.005163499795010273,"12":0.060237603918642024,"13":-0.05559344023504685,"14":-0.08531018546216569,"15":-0.17690276503845123,"16":0.05664936699599103,"17":0.046348719624090595,"18":-0.04003806765559874,"19":-0.04455946143040442,"20":0.021216303530205004,"21":-0.009082800095144714,"22":-0.041373898297465225,"23":0.04334709072435497,"24":0.07467451400886227,"25":-0.03299545388878377,"26":0.041810456253465036,"27":-0.13569649116447222,"28":0.017454230671794822,"29":0.04606447177801193,"30":0.07970095127908253,"31":0.05900729112455622,"32":-0.042219854778254545,"33":0.011200877458045148,"34":-0.10059163057854834,"35":-0.0469919512229561,"36":-0.010445066735308829,"37":0.04423851335211023,"38":-0.1001660937600839,"39":0.14262504757767572,"40":-0.08483598620161653,"41":0.04410168051276794,"42":0.03239075326033936,"43":-0.0763858191446458,"44":-0.05283292606031438,"45":0.06926479928591153,"46":0.15629843164497,"47":-0.015139139678619967,"48":0.054299230039868904,"49":0.07835506613466822,"50":0.07778151227643439,"51":0.16209851547894183,"52":0.012721576716106544,"53":0.07889638745899487,"54":0.1248772306557107,"55":0.17749059693077565,"56":-0.17197507196464407,"57":-0.02984142350794234,"58":0.030058292596595645,"59":0.06479265813216596,"60":-0.08280630444515197,"61":-0.09324697751913964,"62":0.04173284234723535,"63":-0.05555260813199448,"64":-0.06522156780722732,"65":-0.04943630578838674,"66":0.01819374056688749,"67":0.0022842392750910675,"68":0.02058285507941303,"69":0.0024889613012290326,"70":-0.09410404107563866,"71":0.05556095059104362,"72":-0.04699040132141231,"73":0.07652912732167721,"74":0.007305123879000325,"75":-0.05852553135398988,"76":0.024338206399946837,"77":-0.007486252044591848,"78":0.05043261779729742,"79":-0.04573410764749818,"80":0.11219548855879895,"81":0.032723923178643186,"82":0.02087062121668754,"83":-0.09984769200768877,"84":0.0057653616126282885,"85":0.02635151317077936,"86":-0.05138334880879405,"87":0.031707176043539294,"88":0.07637460726835849,"89":-0.08756749147598626,"90":-0.07094637221681804,"91":-0.11665202328219366,"92":0.09965732411839787,"93":0.09730512590984174,"94":-0.11898238310986993,"95":0.157644915319399,"96":0.04730147753473278,"97":0.07744700202193253,"98":-0.06825070348301804,"99":-0.011741007140925906,"100":-0.0276214262695801,"101":0.021026541899822483,"102":-0.049233929383404235,"103":0.03179551656477685,"104":-0.0476987089189722,"105":-0.06578247973524969,"106":-0.023167985150063485,"107":0.01735706009431902,"108":-0.06772594441281411,"109":0.054368758025771395,"110":0.019652137338441813,"111":-0.003052726683587691,"112":-0.07535370734574345,"113":0.009737958374282502,"114":-0.07328689819576467,"115":0.036654134058612994,"116":-0.08980629866572998,"117":0.14102763794362608,"118":0.0028138587247528157,"119":-0.06833616698566061,"120":0.015236467655163378,"121":0.006705767375219409,"122":-0.03560076337417643,"123":0.012828101600795814,"124":0.11440411527854157,"125":-0.06826080802556314,"126":-0.014296961540841945,"127":-0.08994213181007416,"128":0.003290634479651343,"129":-0.03035156764670494,"130":-0.1024997400667317,"131":-0.041842813855554,"132":-0.07097910788079209,"133":0.03244039736084619,"134":-0.09748379013464246,"135":0.10779391998551786,"136":-0.0601187865191422,"137":0.06616072694030782,"138":-0.09621525739608922,"139":-0.05892857777639947,"140":0.0847555692902092,"141":-0.09216094479689324,"142":0.06668992565951647,"143":0.03261233070856425,"144":0.08107275603290666,"145":-0.08976135435740142,"146":-0.03758879421113563,"147":0.10669280778544867,"148":-0.1202586470709335,"149":0.07038440534949016,"150":0.06493667562728374,"151":0.049738394552895096,"152":-0.07896961128951438,"153":0.05139205139569514,"154":-0.06710103592316391,"155":0.07932289067787422,"156":-0.05837195380014054,"157":-0.01142268358625175,"158":0.05683515811689592,"159":-0.13300844777400206,"160":0.16100788460379364,"161":0.14953163299599917,"162":-0.06053932534911865,"163":-0.02835994659220039,"164":0.09053083080288712,"165":-0.13272193901241422,"166":-0.008336731229744829,"167":-0.00143498897810947,"168":-0.15235984195328536,"169":0.041654678263966544,"170":-0.05330749429291638,"171":-0.14245006664657672,"172":-0.1277490125425506,"173":-0.014877366894998762,"174":-0.14697105144931483,"175":0.043602345083985625,"176":0.022809400654482205,"177":-0.0692409550001712,"178":-0.007749034966658327,"179":0.09148892783359606,"180":0.00851822276431072,"181":0.10123104248180718,"182":-0.0238427868821769,"183":0.0017683456503252044,"184":0.07201399290680527,"185":-0.00037041923093143205,"186":0.02523410443529662,"187":-0.13028266978272987,"188":0.02277682677769295,"189":-0.009159717011846959,"190":0.13646858259222558,"191":-0.03221806459728376,"192":-0.16162904475522738,"193":-0.09604222894927285,"194":-0.1803458897595687,"195":0.06031992444667051,"196":-0.13535957480975552,"197":-0.0204569583468446,"198":0.10193598224162474,"199":-0.10456411988408838}},{"sx":5,"sy":5,"depth":8,"w":{"0":-0.0715248644782258,"1":-0.059120551542748,"2":-0.08885201982366576,"3":-0.0979925098102475,"4":0.056884178080583894,"5":-0.04314206433689562,"6":-0.04197052340720659,"7":0.005715505812744595,"8":0.038514603327174796,"9":0.03438344560306068,"10":-0.029409888034125923,"11":0.02312926231753002,"12":-0.009108983252936157,"13":-0.05064199228092289,"14":0.11922681192517395,"15":-0.12433164165151471,"16":-0.004449732184087357,"17":0.04898915473146916,"18":-0.010812348948641517,"19":-0.06280954640841167,"20":0.04042612204162154,"21":-0.13757576477926012,"22":-0.03525337697451859,"23":-0.05205358134061497,"24":-0.030367838975095717,"25":0.11144269351924085,"26":-0.12990495653557677,"27":0.05009778854015429,"28":0.07736858074005735,"29":-0.14362570612451478,"30":-0.07757148212633706,"31":0.02955258656885818,"32":-0.09040880145154456,"33":-0.04755560581798432,"34":-0.18241314383335405,"35":0.1382304970886058,"36":0.02959152563029609,"37":-0.01807310236183867,"38":-0.045312990227415105,"39":0.12163919878356126,"40":0.040192862181680854,"41":-0.06894370188343361,"42":0.11277477172502676,"43":-0.12192156280816811,"44":0.1247426982895965,"45":-0.08828221649055494,"46":0.006690644239985672,"47":-0.07965739831883005,"48":-0.0056649550039886715,"49":0.060936919925410386,"50":0.017018520833784714,"51":-0.08766063399810278,"52":-0.04047922689139787,"53":0.05569899112002265,"54":0.15208744055643586,"55":-0.18656914738784075,"56":0.01999691041590142,"57":0.06724374506766716,"58":-0.07561477657057719,"59":-0.08573028683535266,"60":0.04901599506547735,"61":0.01799648312237038,"62":-0.07308635965516806,"63":0.020696972482743572,"64":0.10254147135964854,"65":0.06679644129506057,"66":0.005649081207611785,"67":0.08680132018354467,"68":-0.04615218503000172,"69":0.016730862806981002,"70":0.04914310845418372,"71":0.057455205889643104,"72":-0.13385077562574585,"73":-0.10287086269346438,"74":-0.05112632438495417,"75":0.040383480563232425,"76":0.02437837742617857,"77":-0.039959693436061636,"78":0.04255182419880119,"79":0.02038042896864918,"80":-0.060402971341423944,"81":-0.08863830593219421,"82":0.025436764245388686,"83":0.01988431810097948,"84":0.037470737603247546,"85":-0.1625807431613066,"86":-0.059784297349726324,"87":0.060043790808434055,"88":-0.03257267241635242,"89":0.0006530604860026993,"90":-0.0021937591345882177,"91":-0.1554631077903414,"92":0.10181824648343575,"93":-0.02861146456784849,"94":-0.09908483590121184,"95":0.049289484904840836,"96":-0.02743498391482583,"97":-0.048940136213434196,"98":0.06134338694048035,"99":-0.010411540240209185,"100":0.09140834603453706,"101":-0.010180316800059826,"102":0.06762931373206449,"103":0.04689561765143912,"104":0.04214469894281868,"105":0.017109651959460983,"106":0.012345538220215344,"107":0.1410796605280239,"108":0.044246190075266506,"109":-0.020402642975996227,"110":0.013200462134408108,"111":-0.06829455732997805,"112":-0.06802025852798448,"113":-0.12061262177708836,"114":-0.10539910110847844,"115":0.08120221817472205,"116":-0.15966044646824182,"117":-0.18248812317348603,"118":-0.08635565040732138,"119":-0.12838418426981807,"120":-0.1375990889368065,"121":-0.05035722379019136,"122":0.11863683829446696,"123":0.02235415113594469,"124":-0.05477732625534307,"125":0.00195162353453299,"126":0.04553410865897962,"127":-0.19649968394785547,"128":-0.08102804795744321,"129":-0.0033480681947551634,"130":-0.029696851178987377,"131":-0.06031980557962542,"132":-0.024373412697207414,"133":-0.05173144539008458,"134":0.08734679222717795,"135":-0.082354693463349,"136":0.05024812082592936,"137":0.03630218557852294,"138":0.016767041462611633,"139":-0.02062375431470977,"140":-0.052765416988354026,"141":0.03986089678791955,"142":0.17452411088879674,"143":0.03493280822409766,"144":-0.009986824385716433,"145":0.019058579273156906,"146":-0.18151318009566406,"147":0.06961537065299046,"148":-0.11927377031367106,"149":0.041853280779776784,"150":0.08268604036908829,"151":-0.04709694575491748,"152":-0.06403165445896543,"153":-0.03638068257861188,"154":0.021958641834684416,"155":0.00028572234377410204,"156":-0.09114702530272017,"157":0.01532905011248714,"158":0.03669286799743328,"159":-0.08452883445153384,"160":-0.0028796599446784645,"161":-0.016697038944524626,"162":0.059039671965804515,"163":0.025492243940139485,"164":-0.11534412654164294,"165":0.018437938426888168,"166":0.042991880163239835,"167":0.018582080590582355,"168":0.013797799103748357,"169":0.009716615901435056,"170":0.05662131097960823,"171":0.04788141301886305,"172":-0.007913563195228446,"173":-0.037870952921550835,"174":-0.083984051502214,"175":0.07539897108409248,"176":-0.017691017610470584,"177":-0.10226278435434953,"178":0.03990742660377633,"179":0.048033571698824676,"180":0.040981622347958775,"181":-0.014438299258615984,"182":0.09169366963254379,"183":-0.15351639131050213,"184":-0.09030970757341847,"185":0.051114633200337004,"186":0.05226153696537095,"187":0.20151660490485937,"188":-0.10250422399985909,"189":-0.04564087811527369,"190":-0.06332571081345413,"191":-0.021483067983206268,"192":-0.11689688109731193,"193":0.023547606996385657,"194":-0.16098807915176516,"195":-0.06099648369671877,"196":0.01165037267156789,"197":0.11915958640475792,"198":0.08931331363114771,"199":0.06409503826962493}},{"sx":5,"sy":5,"depth":8,"w":{"0":0.006920268153201196,"1":0.0070442973413469175,"2":0.04509297441766098,"3":-0.04151506781086656,"4":-0.132877422501528,"5":0.06428533272675198,"6":0.07633811088662901,"7":-0.03574915448107059,"8":-0.11491743208341108,"9":0.05342529870567134,"10":0.04174622039743733,"11":0.08815761165746884,"12":-0.019663603445066683,"13":-0.002218511473923271,"14":-0.05280066590508419,"15":-0.08531015232622041,"16":0.11770113195467301,"17":0.11789823986428946,"18":-0.17139936564391428,"19":-0.004434326180891533,"20":0.022977750064396826,"21":-0.10259256479224434,"22":-0.13205724805978122,"23":-0.02132599038330681,"24":-0.004089098105551437,"25":0.04163589949230218,"26":-0.1447675349404041,"27":-0.02791137476697901,"28":0.15382711774337246,"29":-0.1140002482878245,"30":0.05408017437075054,"31":0.14723864322417088,"32":0.01796793746823134,"33":-0.0025354036302536417,"34":0.07417697593488835,"35":0.01605659068495998,"36":-0.17693855656578308,"37":-0.015557866142602083,"38":-0.07621712835613256,"39":0.02908720865300466,"40":-0.05235427836522751,"41":-0.2149260103893437,"42":-0.11263194654286335,"43":-0.09287035363087491,"44":-0.07242188197701066,"45":0.05018717496857242,"46":0.006862467294444127,"47":0.19324656010085411,"48":-0.03431762360974701,"49":-0.048888722097469736,"50":0.04214547667272785,"51":-0.05731331969174994,"52":-0.09472168608360698,"53":0.08407001854412634,"54":0.03642796924312851,"55":-0.09740908616538096,"56":-0.03157894668678046,"57":0.24543133709496603,"58":-0.02677787307651589,"59":-0.07266126483557264,"60":0.04855845278886726,"61":-0.061239411383876514,"62":-0.08886280935770248,"63":0.05289276360561133,"64":0.05286483266138934,"65":0.057070447932971086,"66":0.08347506675262989,"67":0.020293519392297114,"68":-0.07634694439695693,"69":-0.07676443770466122,"70":-0.008951260243234456,"71":-0.015896981220651262,"72":-0.16323229590579938,"73":-0.13263619563637885,"74":-0.07410221907511959,"75":-0.01544918493024849,"76":0.00784153273023308,"77":0.11961993049952716,"78":0.01282156542405752,"79":0.08658464212878739,"80":-0.12493804221225513,"81":-0.07920372581508718,"82":-0.0884121312918298,"83":0.038454847014384674,"84":0.08351638943292321,"85":-0.003400644402949923,"86":-0.10817520848175989,"87":0.1179898031694713,"88":-0.042428510243792746,"89":-0.08760000378800888,"90":0.03161329694972835,"91":-0.10961701309615358,"92":0.08014572098718462,"93":-0.07138862684690031,"94":-0.0004011570409024135,"95":0.08222639417278145,"96":0.011860276032939546,"97":0.0089002267665842,"98":-0.06999314677335694,"99":-0.08611069127405016,"100":0.07011460504472658,"101":-0.061717041709832894,"102":-0.07675602975220794,"103":-0.0923239615748756,"104":0.0174148279852276,"105":0.14285690741437304,"106":-0.06400269384056072,"107":0.02870140850458487,"108":-0.07605961146296521,"109":0.005023282313817675,"110":0.0850209478863787,"111":-0.017079988804455336,"112":-0.09046135899730029,"113":-0.03837109755940867,"114":-0.03314028598870792,"115":0.000053437337692574353,"116":-0.020653170700166906,"117":0.11040795623934294,"118":-0.1306853466569356,"119":0.05892598000076693,"120":-0.024764096725093714,"121":-0.06401431184922575,"122":0.09126689633116103,"123":0.059684180073386196,"124":-0.029732594255259495,"125":-0.0037523990835221484,"126":-0.00781848872216483,"127":0.11869995284741004,"128":-0.13626845793172543,"129":-0.07621127453061041,"130":0.0138009189327632,"131":0.03528138190482445,"132":0.09756244666116817,"133":-0.03515956566986987,"134":-0.042721539801928846,"135":0.04769538964367447,"136":0.21224524547217877,"137":0.03967951290677632,"138":0.03298478964353584,"139":-0.042248422803558915,"140":-0.0033721161999349172,"141":0.08608969199827488,"142":0.047091776910841994,"143":-0.08324623286125836,"144":0.01122978849749555,"145":0.046621590083820635,"146":0.04430826098222651,"147":-0.012901329030889145,"148":0.12425342619104135,"149":-0.19246904506502008,"150":0.1255399123597171,"151":-0.053516373096828405,"152":-0.06583487531978745,"153":0.05974070713734755,"154":-0.016665752365208012,"155":0.07605483913888199,"156":0.07828181467843076,"157":-0.05937779291440884,"158":0.02700396848909614,"159":0.06796821601897923,"160":-0.0821644640607288,"161":0.12268665947119538,"162":-0.008992761689551938,"163":0.07248163895539314,"164":-0.09649547216821411,"165":-0.06352271396645388,"166":0.055665034211194994,"167":0.04997411333944919,"168":-0.10254240956606363,"169":-0.15413033440899523,"170":0.026053398413735766,"171":0.020549554546221305,"172":-0.10151132951116333,"173":0.061439886077279966,"174":-0.006516884652603262,"175":0.005442711418999732,"176":0.04816908254314156,"177":-0.018027886829705925,"178":-0.10749650966175077,"179":0.07715140447250048,"180":-0.07213169983447767,"181":0.02131738369789928,"182":-0.14926551044920608,"183":-0.03865500351209122,"184":-0.1743008876384471,"185":0.009176072154639395,"186":0.043910968715334696,"187":-0.11729099330984967,"188":0.15583884837951312,"189":0.04940765641858863,"190":0.04822686391234137,"191":-0.09473298682383584,"192":-0.054263363893411486,"193":-0.059674461352172234,"194":0.020764621667404545,"195":0.07880442722027685,"196":-0.09206377306545648,"197":0.03212949384790548,"198":-0.07738961041982323,"199":0.05842370159204252}},{"sx":5,"sy":5,"depth":8,"w":{"0":-0.12550285262681746,"1":-0.02671142922716199,"2":0.025959749551683436,"3":0.05835393728671968,"4":0.03332318139139247,"5":0.15911011538459702,"6":-0.1088995503509112,"7":0.03363848452989236,"8":-0.007464300196561456,"9":0.035887880717079684,"10":-0.00503035815307795,"11":-0.11710359313626503,"12":-0.10535249350536881,"13":-0.003574438104112121,"14":-0.012205012356079818,"15":0.05613907815951645,"16":-0.08579142977932783,"17":-0.03259710356020459,"18":-0.09763415969363677,"19":0.0559371692771523,"20":0.0013707038214239194,"21":-0.13741239969513064,"22":0.0002467779934462984,"23":-0.021458120479135742,"24":0.011931713140288925,"25":-0.17364588615482768,"26":-0.05996023149970385,"27":0.13326328958791359,"28":0.16018254280716324,"29":-0.05408826854192887,"30":0.023669511501668933,"31":-0.1629073450883333,"32":-0.12039618917833604,"33":-0.08159853586785087,"34":-0.16641476662929303,"35":0.04062880031554337,"36":-0.17394759534654236,"37":-0.031304897008387976,"38":-0.08980319210607396,"39":-0.012416103330944275,"40":0.06767359576338768,"41":0.09458659576940591,"42":-0.141368999264578,"43":-0.044168982374252014,"44":0.04724606563668966,"45":0.11379521217853232,"46":-0.08181712674502956,"47":0.08345754127496803,"48":0.18607920719618407,"49":-0.1441809684546965,"50":0.00020031613175997584,"51":-0.04271704124930436,"52":-0.07038121520273896,"53":-0.03505979256510532,"54":-0.15071295487225883,"55":0.21504687707880973,"56":-0.049056288307891216,"57":0.06330976189203467,"58":0.02208144509750061,"59":-0.016809489169073034,"60":-0.07276683507566083,"61":0.013032520667552701,"62":-0.07108945049096121,"63":-0.05677036501995599,"64":-0.028285813349718046,"65":0.016976812117539864,"66":-0.05459407249297861,"67":-0.1456099811630879,"68":-0.06732666484149842,"69":0.05313687428228913,"70":-0.17512357289187222,"71":-0.03232595689271788,"72":0.05240079026562269,"73":-0.025853065318100957,"74":-0.01624523799079361,"75":0.0828909826387979,"76":-0.1336656110409198,"77":-0.04413429594998463,"78":-0.0037647586498127453,"79":0.01322568843476023,"80":-0.12822080386637305,"81":0.07577037803176068,"82":-0.004864193864739907,"83":-0.0030366684029544773,"84":0.02667177622025395,"85":-0.14209496880329917,"86":0.10221858948506922,"87":-0.07142167863305891,"88":0.059719098249258876,"89":0.16359582586944416,"90":-0.02977540515261715,"91":0.032551421237288464,"92":0.07278025960174811,"93":-0.0880566916106752,"94":-0.017174483128410516,"95":0.06712240568774946,"96":0.029048865370905584,"97":-0.18157504229895866,"98":-0.09579588234052029,"99":-0.08806533384874517,"100":-0.04352231878172736,"101":0.059890985731727076,"102":-0.19197505554491967,"103":-0.025389223205533204,"104":-0.20355669565967813,"105":-0.09778298418413651,"106":-0.1526939239294157,"107":-0.12818098938018563,"108":-0.073830695644528,"109":0.07439159978150069,"110":-0.015291246621904736,"111":0.1420696826607696,"112":0.08153554905561104,"113":-0.10136691510833085,"114":-0.12121708259071859,"115":-0.13345879630347063,"116":-0.02686277689333657,"117":0.041224734495409976,"118":0.07709743141510333,"119":-0.014786702884580226,"120":0.04830398248030001,"121":0.13412402306046875,"122":-0.041599577878419974,"123":0.00727689136581248,"124":0.08383751349900165,"125":-0.05442437574989964,"126":0.06706802100657087,"127":-0.061132453171247506,"128":0.03329806147206248,"129":0.10213189790030952,"130":-0.03109329956145291,"131":0.10637798230562168,"132":0.017963377115706496,"133":-0.057796714166911276,"134":0.12460847167685764,"135":-0.05154270796857401,"136":0.011643004689057082,"137":0.06234047314035672,"138":-0.03237583559995527,"139":0.06497907310212732,"140":0.06861933627970151,"141":-0.013191890118166525,"142":0.07410551037091875,"143":0.10727728974362301,"144":0.052345152607714426,"145":0.07076502346033907,"146":-0.17053259012633426,"147":0.1816949960164838,"148":0.15103357696846448,"149":-0.028829205985055773,"150":-0.0876423248339567,"151":0.2039366968750475,"152":0.013950298216796303,"153":0.03310270022990251,"154":-0.07573170932946426,"155":0.010037607138772867,"156":0.22125818130399064,"157":-0.10359689607604211,"158":-0.06603430905959609,"159":-0.04180139620998872,"160":0.04678132148202544,"161":0.016086528478111192,"162":-0.006476774114087363,"163":0.0039717223554717185,"164":0.1902084163096145,"165":-0.033697097798975326,"166":-0.012242859324678765,"167":-0.16815434241895616,"168":0.02329870912001291,"169":-0.0023448061769912086,"170":-0.07695014292062331,"171":-0.003832323743870619,"172":0.03220077572657142,"173":-0.08679999189559474,"174":-0.024449204758207763,"175":0.013807443186407885,"176":0.01693328916663844,"177":-0.09504089346212546,"178":-0.1649824183859472,"179":0.06724763024455757,"180":0.05335813346510877,"181":0.04329006405626015,"182":0.061872344631954165,"183":0.020144346208102182,"184":-0.0035453945819388997,"185":0.011543804748225176,"186":0.003426715273315302,"187":-0.0038844706534969286,"188":-0.06676594540694733,"189":-0.12919236839881298,"190":0.11144968001233278,"191":-0.016661902662058952,"192":-0.07506646021149327,"193":0.0016803730711229129,"194":0.005258226197365815,"195":-0.015636021436950864,"196":0.012323586242081158,"197":-0.07543853174565031,"198":0.029740885757144224,"199":0.049274897393525204}},{"sx":5,"sy":5,"depth":8,"w":{"0":0.020015777886184534,"1":-0.07310487695542708,"2":-0.0744362572163346,"3":-0.06621217746432406,"4":-0.026435954796299302,"5":0.13369884900037302,"6":0.042530288756785724,"7":0.25240467108716036,"8":-0.13236845023029653,"9":-0.15930466640915045,"10":-0.05637623863292733,"11":-0.14735352308690552,"12":-0.07629801223840385,"13":-0.07288231892130437,"14":0.028027059335146726,"15":0.013694330530265992,"16":-0.07740157553444514,"17":-0.013007275566656209,"18":0.08788572105973873,"19":0.02475826072782808,"20":-0.017139797127207056,"21":-0.0762534329530448,"22":-0.0009025167247996505,"23":-0.05250103742872777,"24":-0.03418900636946112,"25":0.06577310292654101,"26":0.003781667659375441,"27":-0.030216519204409098,"28":-0.07569854761331433,"29":-0.03899992562379599,"30":0.13644699618123154,"31":0.02014508712187959,"32":-0.06915764670778105,"33":0.01846648351635195,"34":-0.06504158150010665,"35":0.09462394800638299,"36":0.05420909398324902,"37":0.03681981145693594,"38":0.11941176973938637,"39":0.03822970496834209,"40":-0.0056435639720513915,"41":0.12754971579876753,"42":0.036525895658108355,"43":-0.021476629564591235,"44":-0.14067013546433868,"45":0.13950203231875,"46":0.06060926882546373,"47":0.07377237913419521,"48":-0.18993699087685195,"49":0.1141537828661241,"50":-0.07571937496018974,"51":0.06251764852659268,"52":-0.15121527114597738,"53":0.06961991834532807,"54":-0.10424422874104847,"55":0.1284885079137875,"56":-0.06830144765106445,"57":-0.1263034549291954,"58":-0.11628882702829485,"59":-0.0003588279946638523,"60":-0.0027003144273873825,"61":-0.012449536787818181,"62":0.10117168483744901,"63":-0.014362217202615216,"64":-0.015171106193595851,"65":0.06560769019252242,"66":0.049254757415427265,"67":0.014675828678415631,"68":0.07854683257998837,"69":-0.08815906589561376,"70":0.15373458206447996,"71":-0.04247270651084423,"72":-0.08946458061740047,"73":0.040170138737341564,"74":-0.05216022980716557,"75":-0.03918351742705694,"76":0.04703807594624946,"77":0.028752778481685413,"78":0.19446159648991426,"79":-0.12229870968195787,"80":0.026149492861737376,"81":0.043731710975683596,"82":0.06125397371754403,"83":0.048371983785514105,"84":-0.0586474459635626,"85":-0.07538791423176609,"86":0.01097610162757102,"87":-0.12478009118539155,"88":-0.02917699592745169,"89":-0.030683938020964318,"90":0.027917822294904023,"91":0.02844172301328106,"92":0.01400561008459304,"93":0.015893177678954533,"94":0.06328485914837506,"95":0.01606041249001218,"96":-0.15235360916539895,"97":0.039045593872372136,"98":-0.02562706224159753,"99":-0.017286426265523312,"100":0.043099480515560035,"101":-0.1919411432325481,"102":-0.023640743539186323,"103":0.005891073995911924,"104":-0.07614222577162497,"105":0.03570839050984789,"106":0.034792069713636437,"107":-0.05782470325321431,"108":0.005394671723999455,"109":0.05762301293268305,"110":-0.08549662206999259,"111":-0.03535115925634996,"112":0.0872476055617741,"113":0.08174503661257342,"114":0.07467230230384296,"115":-0.06205608029367418,"116":0.09385872911062319,"117":-0.04139019390042109,"118":0.020451084917661923,"119":-0.21474622972512838,"120":0.16669268136900187,"121":0.05226812871999332,"122":0.028869307717267263,"123":0.06977755094315886,"124":-0.014967838984115134,"125":-0.07680206958175705,"126":0.07633016819159263,"127":0.014552588551811562,"128":0.017044295204681453,"129":0.038453630462585334,"130":-0.1297701979038066,"131":0.12649201803163995,"132":-0.023038546677338283,"133":-0.05788347432713122,"134":-0.0877495793574568,"135":-0.018809133306791313,"136":-0.10356255585570674,"137":-0.006149737979992002,"138":0.06528342451924886,"139":0.01577850383705456,"140":0.0043937277734347295,"141":0.008203913540820798,"142":-0.07957566743495464,"143":0.010811634101466338,"144":-0.02902294937170533,"145":0.11380828003199119,"146":0.027780791379503383,"147":0.011573689831234933,"148":-0.041201883388498874,"149":-0.10032933729875118,"150":-0.00014004579448989173,"151":-0.023771361735855093,"152":0.023290475860384657,"153":-0.09621631115528559,"154":0.1107597393690693,"155":0.03179004849588583,"156":0.02757966762776802,"157":0.09684305876945024,"158":0.02893883977871826,"159":-0.07565457983173213,"160":-0.13496055067615922,"161":-0.06814886545377145,"162":-0.1503575196676955,"163":-0.007391997996500548,"164":0.02319806374145358,"165":-0.046876300003741905,"166":-0.044290776591754726,"167":0.03175193875746492,"168":-0.19716822667721465,"169":0.04721230218377454,"170":0.027560508868804515,"171":0.2049898723653627,"172":0.0041654664613252745,"173":0.11882429832033957,"174":0.15187781854791899,"175":-0.1423366503825303,"176":0.1036106406352448,"177":-0.09669962615640985,"178":0.05260005597693156,"179":-0.06610747797532636,"180":0.021710061648301377,"181":0.019945960529448532,"182":-0.08623180273791098,"183":-0.1436380058838285,"184":0.040275502214686405,"185":0.0038907879840940646,"186":-0.03591704916753316,"187":0.028192723555657283,"188":0.05075216206843691,"189":-0.020641074611770456,"190":-0.05337827309145003,"191":0.033211170175905844,"192":0.016343578774855715,"193":0.0013043406338604634,"194":0.024765244218921154,"195":0.07680495836763097,"196":-0.009702724347140252,"197":0.1877242777881795,"198":-0.04336016045625935,"199":-0.026922977161091807}},{"sx":5,"sy":5,"depth":8,"w":{"0":-0.06657258439885749,"1":-0.048058911111199656,"2":0.017559086800730882,"3":0.07733872266933729,"4":-0.15280951881822397,"5":-0.03801304937546839,"6":0.04184009682023258,"7":-0.04606207283255511,"8":0.010255585335518942,"9":0.024729891317336657,"10":0.004199883200116902,"11":-0.019431158053457995,"12":-0.20000125603732732,"13":0.020564475728781634,"14":0.0023713598078775344,"15":-0.0075501045376020455,"16":0.15097001376310398,"17":0.06393454158208872,"18":-0.2855785056570013,"19":-0.0834754630029878,"20":-0.15270544282084603,"21":0.12115603400290417,"22":-0.16536344773588407,"23":0.16810611703410194,"24":0.06496041630158543,"25":-0.029707586215551383,"26":-0.15858394209525778,"27":-0.06868898353066474,"28":-0.042258612341230524,"29":0.1894860560416385,"30":-0.05087944985427526,"31":0.01945891910947789,"32":0.15393982313681803,"33":-0.01314351920192802,"34":-0.0879874814593655,"35":-0.09407317533419739,"36":-0.10600555257924336,"37":0.03461913424495749,"38":-0.07797012744705352,"39":0.0610648205833445,"40":-0.06535495258430316,"41":0.06333747941220905,"42":-0.0575379607566638,"43":-0.06423008140188122,"44":0.06769228145019938,"45":0.023193397224417427,"46":0.01403468295635318,"47":0.033093357630622176,"48":0.1410557556462118,"49":-0.04660089125709755,"50":-0.08355077513547655,"51":-0.1399222890110948,"52":0.24277463115842218,"53":-0.13091246149504926,"54":0.0848020800382242,"55":-0.13650003562798577,"56":-0.08456536582680653,"57":-0.08926204261522648,"58":-0.23536032068915164,"59":0.007589699198480288,"60":0.19158298952762404,"61":-0.03251406794396941,"62":0.07369732346725195,"63":0.1164529919630282,"64":-0.04296545902479948,"65":0.11851057239741658,"66":-0.06496453322601257,"67":0.11842032814076296,"68":0.21764157346811658,"69":0.007143771737187122,"70":0.10235494924312677,"71":0.09810204696776986,"72":-0.14298448962144222,"73":0.10332280318473826,"74":0.002180339132071783,"75":0.027916480381331727,"76":0.1926832876087718,"77":-0.12333511361697107,"78":0.10867183902990946,"79":0.09918641120408701,"80":-0.12376535397478693,"81":-0.0283285325224489,"82":0.038677529033564445,"83":-0.0020183573781879863,"84":-0.00948529236503507,"85":-0.023991999888258245,"86":0.06067410273530167,"87":0.033988699643430924,"88":-0.093357289754897,"89":0.015500224968648753,"90":0.09518119242849833,"91":-0.05704081356810387,"92":-0.02275862417619984,"93":-0.13138689837379958,"94":0.17951964397673714,"95":0.03267529631089083,"96":-0.08262644640706297,"97":-0.03555119009471492,"98":-0.17192114745498457,"99":0.18717688085321912,"100":-0.068647740887805,"101":0.06398938696551112,"102":0.10133137345017937,"103":0.006338277445206285,"104":-0.05699947959190031,"105":0.005246348748183762,"106":-0.078640760719251,"107":0.15415848844085672,"108":-0.08644511677872187,"109":0.16605040038712063,"110":0.3061414836337529,"111":-0.09791305551609616,"112":-0.0438733128138902,"113":0.21792761125603047,"114":-0.03252447246514231,"115":0.1467883022569233,"116":-0.21514483090606998,"117":0.09989454003816749,"118":0.17245196466298138,"119":0.011585849500006608,"120":-0.25347066977224236,"121":-0.0656581238019833,"122":-0.01983475388510984,"123":0.16438396735308447,"124":0.02374155263836709,"125":0.02201579246709559,"126":0.1602171213603214,"127":-0.03476450763715878,"128":-0.11766626816383265,"129":-0.10513799332212488,"130":-0.015378972482353896,"131":0.23422878329199692,"132":-0.16575615695941068,"133":0.1410918607547729,"134":0.109924712718806,"135":-0.037742861186880104,"136":-0.09912648781253675,"137":0.05032999499183399,"138":-0.0592920083616552,"139":0.14904139605354866,"140":-0.1250527853314673,"141":0.21190090632192835,"142":0.009920725695374274,"143":-0.1303798801168935,"144":0.0701598365014743,"145":0.035911527301861874,"146":0.07349228869039308,"147":0.03259036933800014,"148":0.0034520619048045015,"149":0.022006951628491103,"150":0.20084317084083503,"151":-0.26038782208553246,"152":-0.044062650973058955,"153":0.10037231808109282,"154":-0.04037645943934429,"155":0.06075653117957697,"156":-0.08815263124495704,"157":0.1207627604007806,"158":0.2536599738159874,"159":-0.13901995739624856,"160":-0.037043735312714085,"161":-0.14258123608023499,"162":0.15690740572402576,"163":-0.019596578376966323,"164":-0.08317184383555244,"165":0.06037020290605735,"166":0.006491243108964292,"167":-0.12086704031884592,"168":-0.04924685308159053,"169":-0.14906715579474797,"170":0.09658712265200642,"171":0.04375852574186252,"172":-0.13013780679313824,"173":0.10911811766116834,"174":0.020568895509477544,"175":-0.14874012671019676,"176":-0.010673186708091364,"177":-0.07862153242421421,"178":-0.11107132116300977,"179":-0.17228167617000606,"180":-0.03714871924821125,"181":0.06792903796335352,"182":-0.0709248033626388,"183":-0.07335568735829212,"184":0.020528555935428676,"185":0.0055104897006142736,"186":-0.009906599235086121,"187":-0.1940118936720685,"188":-0.07849266164762349,"189":0.06518010142945005,"190":-0.08754190842161842,"191":-0.13494177457180537,"192":0.029585129489747362,"193":-0.04590763040112841,"194":0.032466142383577604,"195":-0.0957727319486684,"196":0.030361156314115383,"197":0.040765415873335986,"198":-0.010996220804547485,"199":0.035066528608826766}},{"sx":5,"sy":5,"depth":8,"w":{"0":0.009835468094989336,"1":0.029143494868501943,"2":0.04896893807338519,"3":-0.06737723101845575,"4":-0.06978364581305292,"5":-0.05302152868950206,"6":-0.05021272670231746,"7":-0.0008263789180992377,"8":-0.1511275710926451,"9":-0.015750622198627537,"10":-0.01725500458731196,"11":0.014150822580461247,"12":-0.012408599552429822,"13":-0.07086002097244434,"14":-0.002607740207374225,"15":-0.07234698291884616,"16":-0.08011984217751822,"17":-0.004296332589837263,"18":0.018423900291951394,"19":0.08328831365466945,"20":-0.05513575096107181,"21":-0.15567026353137292,"22":-0.04428106148488606,"23":-0.037767710205639536,"24":-0.18117645276597183,"25":0.08759183283343855,"26":0.07558227613925358,"27":0.027412562143871697,"28":0.024650238519271603,"29":-0.11619419821130421,"30":0.020906158069006066,"31":-0.14219608424259947,"32":-0.09716879589785292,"33":-0.0049226204537369134,"34":0.017460497433629277,"35":-0.040592490503102305,"36":0.00870925691443571,"37":-0.05768490727176369,"38":-0.06655587890953604,"39":0.11963217393682622,"40":-0.06665875179005501,"41":0.015569391501110915,"42":-0.08091706351906627,"43":-0.10883473505813679,"44":-0.003664278841359226,"45":-0.014130590200999733,"46":0.06042094446001455,"47":-0.13304559185311593,"48":0.05424089248147968,"49":-0.027163451080418788,"50":-0.08751397480162028,"51":-0.020420799830169797,"52":-0.08289291567057243,"53":0.04105312296128073,"54":0.12336905811352959,"55":0.00602598718437412,"56":-0.011184825701848535,"57":-0.1887359597589165,"58":0.0693976941111818,"59":-0.06529931386526536,"60":0.07553099956547916,"61":0.00832537136550762,"62":-0.20667132553339534,"63":-0.04390864255576366,"64":-0.06628119292348938,"65":-0.13433766884727166,"66":0.043597600535850295,"67":0.036175484105696855,"68":-0.02020554576648031,"69":-0.11942733678789763,"70":-0.06876495747701097,"71":-0.048391691318037014,"72":0.10504179955124479,"73":-0.01444709758288192,"74":-0.0006400708956187509,"75":-0.15081128180933132,"76":-0.08816660324734746,"77":-0.15086219165808085,"78":-0.05162954071807758,"79":-0.06544954542112531,"80":0.037585334307597314,"81":0.13607425783251365,"82":-0.08299927719253357,"83":0.0333703998050882,"84":0.08004153541931545,"85":-0.14498420524804737,"86":-0.10311585378290355,"87":0.010819614857848298,"88":0.11350461985771616,"89":-0.13501898299158,"90":-0.13645519289956798,"91":0.06051840525453005,"92":0.049262883964832596,"93":-0.024801343576140486,"94":0.09181957735038213,"95":-0.050530960495297275,"96":0.045011101903120916,"97":-0.18229942725577025,"98":0.1399747740526659,"99":-0.07700391753349028,"100":-0.09685246733496607,"101":0.15001173661053105,"102":-0.010185654301528138,"103":-0.08021345987055167,"104":0.06045465897834647,"105":-0.08167803804078722,"106":-0.0363067962457176,"107":-0.02697496697210493,"108":-0.22976457125833455,"109":-0.07246811010495618,"110":-0.05848271611677857,"111":-0.030720649172961162,"112":0.08419405682134501,"113":0.15712157011387226,"114":-0.013432221291826788,"115":-0.06395430388326467,"116":0.07164798864118067,"117":-0.04430143650796761,"118":-0.16421876418395184,"119":-0.16801008675815127,"120":0.005699902451525989,"121":-0.00324874453975583,"122":-0.14271376045691553,"123":0.026851538123984296,"124":0.03486444991980607,"125":-0.018346128243994224,"126":-0.007385819268424696,"127":-0.03215601193239361,"128":-0.13099068508131023,"129":-0.014055873946393528,"130":-0.08495956318114214,"131":0.03157281212928156,"132":-0.07725232071579705,"133":-0.026329879341051975,"134":0.014898357514305929,"135":0.1083849122709939,"136":-0.011117675376357512,"137":0.010685100111907726,"138":-0.06500587639416142,"139":0.08246897963314875,"140":-0.07353171750512665,"141":0.07189931207853305,"142":0.043964786691297594,"143":0.07464660703975752,"144":0.10119009587267018,"145":-0.024106121394987523,"146":-0.12135871785491685,"147":-0.0985074304496138,"148":0.11708953337056344,"149":-0.128006546285407,"150":-0.009659557432131526,"151":-0.11381401304354985,"152":0.14055320395190204,"153":0.041177460264962946,"154":-0.11505999137997093,"155":-0.039361282996857885,"156":0.1542402106717042,"157":-0.10961976266171253,"158":0.055179113615487115,"159":0.15496066570915967,"160":0.02349452994658679,"161":0.051202854214588665,"162":-0.056140970409477534,"163":-0.07923699186055871,"164":0.00801681279561587,"165":0.0010305273532884487,"166":-0.07128545598552553,"167":0.19235640191279174,"168":0.09729562829189764,"169":0.07714674879344544,"170":-0.06746860576421462,"171":0.046818044201553534,"172":0.04772449633204063,"173":0.10583772890209692,"174":-0.03553526113746006,"175":0.045331145203126276,"176":-0.0734681468995877,"177":-0.15598843045599195,"178":-0.07252101245389013,"179":0.15397797321437554,"180":0.048356888864068664,"181":0.14425808579537713,"182":0.051259980247745154,"183":0.15546436729817392,"184":0.02047399573958346,"185":-0.04106307483451901,"186":0.005498008359534732,"187":0.07236123076218406,"188":-0.015662621569411124,"189":-0.009872806476700125,"190":0.013597577226221328,"191":0.0983453426072452,"192":-0.03950526148669031,"193":0.19282667308767099,"194":-0.02167054197707484,"195":0.053573602931560056,"196":0.09280040000363272,"197":0.007698882733838108,"198":0.15141167951025009,"199":0.11155056325711767}},{"sx":5,"sy":5,"depth":8,"w":{"0":-0.18497597080180544,"1":-0.07875185821868465,"2":-0.003364840603000121,"3":0.039437546094594475,"4":-0.0843826487538844,"5":-0.0206103108071976,"6":0.03058368628898074,"7":-0.03300831519330555,"8":-0.015468883650269383,"9":-0.13116509482153135,"10":0.032914414081000376,"11":0.07565966921147305,"12":-0.03216870729845133,"13":-0.021682361576120194,"14":0.17899879565629026,"15":-0.12717138337845174,"16":-0.04585166840402874,"17":-0.06725642433520519,"18":0.029452671035860266,"19":0.08213202474285522,"20":-0.009277762001882909,"21":-0.06305769730269761,"22":-0.10719135311468417,"23":-0.018971246263870704,"24":-0.06592106558427542,"25":-0.03245318316134568,"26":-0.07687165164521392,"27":0.034027844303023476,"28":-0.08730727314445938,"29":0.0579585687261833,"30":0.0529694670743883,"31":-0.13073833425785342,"32":-0.052515908211041254,"33":0.06986148485381015,"34":-0.1534772707629107,"35":-0.06685871750960867,"36":0.014382161831477622,"37":-0.0843052962013265,"38":-0.015435149079258987,"39":0.13308722112364918,"40":-0.00854082288267491,"41":0.03603905604507422,"42":0.021737402570144816,"43":0.07051724270985625,"44":-0.11214643649165801,"45":0.07930487670972279,"46":-0.02076341201309438,"47":-0.10459723739759645,"48":0.0262985537834294,"49":-0.1231527951776935,"50":0.06714063722939746,"51":0.027119629167906383,"52":-0.10328870271119663,"53":0.09776865224350662,"54":0.028250204562219872,"55":-0.08769463601718043,"56":0.02447126971138617,"57":0.030337497041602844,"58":-0.08995761302343974,"59":0.0193164439193503,"60":-0.06267166474521496,"61":-0.08829485331408152,"62":0.04161065005777915,"63":-0.11257162315904519,"64":-0.025281037403465996,"65":0.030861537015665474,"66":0.02417800377306506,"67":0.004884353593555441,"68":0.0852854158055885,"69":0.009650705581466515,"70":-0.07753851692575861,"71":0.026791364673136142,"72":0.06898033104923575,"73":0.0290753608603186,"74":-0.10398512743671176,"75":-0.08785699992316472,"76":-0.021202587873580096,"77":-0.09908924918701105,"78":-0.03190619352102773,"79":0.16561873927416554,"80":0.06600627250100356,"81":0.061525575028136714,"82":-0.03617819888851237,"83":-0.07924558603613083,"84":-0.08814012740142038,"85":0.017727859110075163,"86":-0.010314203498005485,"87":0.07447942877278983,"88":0.09116110914493672,"89":0.016951183259608274,"90":0.023922001300503565,"91":-0.01278887109183987,"92":-0.0942849450504159,"93":0.07293591287924973,"94":-0.08971481525506861,"95":-0.014931092646735051,"96":-0.08141501254675791,"97":-0.07783229161711679,"98":0.0894556348390971,"99":-0.14802794417553952,"100":-0.22044256207461455,"101":-0.04657570152418763,"102":-0.2524430236826859,"103":-0.04464469834756675,"104":-0.020167686310585096,"105":-0.0458655308344585,"106":-0.029929794767299497,"107":0.028574450242248334,"108":-0.03263428403126762,"109":0.03474660245900793,"110":-0.06308868271089864,"111":-0.10629909957194109,"112":0.047393869502261404,"113":0.04439848699949159,"114":-0.137511325406371,"115":-0.10940189891247575,"116":0.11803247854234965,"117":0.046831844522737184,"118":0.010945693302568043,"119":0.04039458882347128,"120":0.11180448037289527,"121":-0.027251278851251493,"122":-0.004809515354598497,"123":-0.058813417703759835,"124":0.11937932158993157,"125":-0.17023894241703932,"126":-0.08843744961622041,"127":0.13109745781686072,"128":0.09241121995176228,"129":-0.10505794210371253,"130":-0.05437311266777589,"131":-0.1440070905210514,"132":0.15550968796894934,"133":-0.05624984446706055,"134":-0.08540974865288573,"135":0.18553410676340273,"136":0.006590584497617745,"137":0.030496680605573256,"138":0.14014125021184842,"139":-0.024852657884032292,"140":0.04593984433187171,"141":-0.14055568615696099,"142":-0.06716647683678226,"143":0.16113231361633787,"144":0.04600696535689814,"145":0.10226445728206791,"146":0.08459566127161194,"147":-0.04326933103732936,"148":0.03030760496283067,"149":0.07365921131905964,"150":-0.16600303506624262,"151":-0.07567918890229114,"152":0.012001815959991953,"153":0.06071923577581961,"154":-0.020985260001876387,"155":-0.012480552267204298,"156":0.09142653121347025,"157":-0.15910622489539855,"158":0.11991839432523785,"159":0.03126439616514538,"160":-0.09539952035605914,"161":0.053092874385052266,"162":-0.010960641495818236,"163":0.12621409757295726,"164":-0.012501375400424177,"165":0.006138324856039938,"166":0.1720284700722392,"167":-0.07167909158217334,"168":-0.06386578713266121,"169":-0.08906542948128973,"170":-0.07280675999118387,"171":0.033596948588442296,"172":0.04001785644280582,"173":-0.12168966330715607,"174":0.20899337125593906,"175":-0.01960587251964304,"176":0.003277437942401927,"177":0.0653739242614692,"178":0.07576528545772576,"179":-0.00750676531226527,"180":-0.013696150693410814,"181":0.07117368255626037,"182":0.014230873398761893,"183":-0.025414806237713923,"184":-0.09658600517796559,"185":0.045767857307538753,"186":0.022120446326914407,"187":-0.10852466704479047,"188":0.07470682129187975,"189":-0.007534277733322561,"190":0.014313107741045432,"191":0.045846975847398844,"192":0.07756341495707628,"193":0.13357024533433434,"194":0.0028024674338139226,"195":0.053217642638628264,"196":0.05277405280746627,"197":-0.0556363022165396,"198":0.1281904749531083,"199":-0.08863415494613953}}],"biases":{"sx":1,"sy":1,"depth":16,"w":{"0":0.05357491019363701,"1":0.0828005579181743,"2":0.07791054494737505,"3":0.06918102513867432,"4":0.04133404988828087,"5":0.09528022499390795,"6":0.09209002354614268,"7":0.08366309785111391,"8":0.07126297765423399,"9":0.07778499401954708,"10":0.08863676403377511,"11":0.04375821976510575,"12":0.06510170368446506,"13":0.008035475896219219,"14":0.05303004714743752,"15":0.07414148741153752}}},{"out_depth":16,"out_sx":12,"out_sy":12,"layer_type":"relu"},{"sx":3,"sy":3,"stride":3,"in_depth":16,"out_depth":16,"out_sx":4,"out_sy":4,"layer_type":"pool","pad":0},{"out_depth":10,"out_sx":1,"out_sy":1,"layer_type":"fc","num_inputs":256,"l1_decay_mul":0,"l2_decay_mul":1,"filters":[{"sx":1,"sy":1,"depth":256,"w":{"0":-0.10808549978102351,"1":-0.1584390898512852,"2":-0.02062997890910614,"3":-0.022137797252084482,"4":-0.06011154093312984,"5":-0.03084994733951416,"6":-0.04400031592669269,"7":0.10080045782207944,"8":0.017044018448197897,"9":0.0695063352354615,"10":0.036222999081024124,"11":0.039950930089873854,"12":-0.03147658251422299,"13":0.0390008674693892,"14":-0.07863251488964296,"15":-0.030167527564461553,"16":-0.048222915707619,"17":0.02417096463921027,"18":0.0343300189286142,"19":0.01047533266617999,"20":-0.04849903587272036,"21":0.03569538207152791,"22":-0.013014695712460896,"23":0.05380382383488431,"24":0.030578437748827042,"25":-0.07588314494003341,"26":0.022338916754928568,"27":-0.05649327657525095,"28":-0.06195421939869521,"29":-0.041492879737574775,"30":-0.021634741591490345,"31":-0.08120364529595964,"32":0.04335684802377677,"33":-0.080424840133437,"34":-0.19299036273033846,"35":0.0974967673580977,"36":-0.025444811206374478,"37":0.042498569618450534,"38":0.0013732933222780402,"39":0.06419694507884902,"40":-0.01747408399454702,"41":-0.031153355789172277,"42":-0.1347965100559462,"43":0.071142920222748,"44":0.0567827894107318,"45":-0.16996848982330862,"46":0.05338284116946047,"47":-0.03990285358909319,"48":0.04841795027850153,"49":-0.046710120527537716,"50":0.012243206525825787,"51":-0.17140897111731326,"52":-0.008858544765369566,"53":-0.09455637436051331,"54":-0.056077573801731874,"55":-0.10968241721529913,"56":0.017399078120613948,"57":0.040698735905100536,"58":0.030428501214787837,"59":-0.07612675187997325,"60":-0.016610536797680188,"61":-0.09236824477222765,"62":0.028281136986154396,"63":0.06364241561565243,"64":0.11013711035384936,"65":-0.08517558205716329,"66":-0.02900270020851839,"67":-0.004172831226379151,"68":0.01932484738805559,"69":-0.025036839208844853,"70":0.021660493585363004,"71":0.04790293798698983,"72":0.06589660690996565,"73":0.0656926348051064,"74":-0.047552102548848584,"75":-0.03882233027246091,"76":-0.01093545087198826,"77":-0.06476269728137088,"78":0.013734984196851626,"79":0.04295231846257146,"80":0.08103677874307796,"81":0.10119277807092221,"82":0.02631897161549876,"83":0.07290833021268245,"84":-0.14275971646680052,"85":-0.12359119198736725,"86":-0.010922113685027197,"87":-0.06364811648973642,"88":0.13462084051086556,"89":0.08799377526752333,"90":-0.09721036081674504,"91":0.017473872986517414,"92":-0.06243125614776324,"93":0.03282352363025628,"94":0.02933450336339529,"95":0.01664441674099903,"96":-0.07975488107881035,"97":0.08111419789262408,"98":0.0327997081077367,"99":0.024228255659324113,"100":-0.05395129668700429,"101":0.01835318847142634,"102":0.07709269675477794,"103":-0.08856081935726517,"104":0.06475208088772268,"105":-0.07950211496930225,"106":0.013437267452665953,"107":0.008321358898877255,"108":0.11972851671874682,"109":0.09514747214453359,"110":0.0005998383526418531,"111":0.011787464412056713,"112":-0.08098973973254303,"113":-0.09877492920690077,"114":-0.12353670770842666,"115":-0.12011448860448275,"116":0.05616677675507497,"117":0.09218530354278644,"118":-0.13195812703989038,"119":0.03881115077626356,"120":0.014028206528365277,"121":0.01682048147337555,"122":-0.00285316503838302,"123":0.007502457178946521,"124":-0.009552198791971877,"125":0.1007859908082219,"126":-0.07091715436866586,"127":-0.14443107203423103,"128":0.054472052720338275,"129":-0.054609774635725736,"130":0.048438089523113854,"131":-0.08935623811835479,"132":0.1132670216740814,"133":0.06137478943967332,"134":0.061981385065897135,"135":-0.08336151725988475,"136":-0.09085642032880666,"137":0.12539464792649718,"138":-0.11747745223645042,"139":-0.05287563226661472,"140":-0.1321973916076461,"141":-0.09716196902621776,"142":0.04497894866192571,"143":0.1503241283019444,"144":-0.16872155281037102,"145":0.09170918396909392,"146":-0.02993419541048352,"147":0.0199018187214155,"148":-0.13729682518647612,"149":-0.13519382810683261,"150":0.1586688184669913,"151":0.035247621666839146,"152":0.041235187788766725,"153":0.0798581764436558,"154":-0.06091868477647608,"155":0.14687702793433022,"156":-0.0051630210057309845,"157":-0.1696218516971491,"158":0.057531933286160714,"159":-0.04819909140073155,"160":0.13532543718948556,"161":-0.01654599372079764,"162":0.02657902644144439,"163":-0.020140555117319638,"164":-0.0967646288560245,"165":-0.1760780946787526,"166":0.024627648467006553,"167":-0.1399967930829942,"168":-0.10522739268711788,"169":-0.08765344289866524,"170":0.08238031544890861,"171":0.03253598906736583,"172":0.06548297857772666,"173":-0.0072783991054490476,"174":0.1463459167917298,"175":-0.07877612206373667,"176":0.03612237756143016,"177":0.0961060559343507,"178":0.24369349494189207,"179":0.053846279165599545,"180":0.055959677577564884,"181":0.08453701901867111,"182":-0.05028197649030662,"183":-0.11153296212954955,"184":0.04431960997002614,"185":-0.055221058407496255,"186":-0.07891597548625372,"187":-0.09772650878048979,"188":-0.13438800700059783,"189":-0.005447710925266421,"190":-0.0577902496021036,"191":-0.17072763131547183,"192":-0.009983240575764657,"193":0.10530804694479343,"194":0.09692247671798017,"195":0.05833599782019314,"196":-0.020184442967299144,"197":0.05816976119051569,"198":0.057037421582388365,"199":0.05698812204849015,"200":-0.05002809783790935,"201":-0.0019393113393710454,"202":0.08211398405790488,"203":-0.05105334056209554,"204":0.06606967053042785,"205":-0.014883297778481824,"206":0.0450369288991641,"207":0.18654098827608312,"208":-0.10508455722017557,"209":0.03701056991148103,"210":0.019141215453401646,"211":-0.2199115695980012,"212":0.06010942124121173,"213":0.058860991991091925,"214":-0.09314706121044132,"215":-0.17124780929661454,"216":-0.04084501286253813,"217":-0.01586423341138324,"218":0.12069393622217493,"219":0.1687011837149205,"220":0.00971924126044759,"221":-0.057518812324694246,"222":-0.02825136539864945,"223":-0.03240233241203046,"224":-0.12351866721206155,"225":-0.02698901092291819,"226":-0.15521778639552244,"227":-0.016170061808763223,"228":-0.010348185347538995,"229":0.01420287713196459,"230":-0.12602763862986718,"231":0.20706472761456585,"232":-0.05118890307984496,"233":-0.0647257037162173,"234":0.04836586427474238,"235":-0.020697064609266937,"236":-0.06863495794538395,"237":0.11167099975439576,"238":0.004984488678982423,"239":0.11171099465856117,"240":-0.02757855432329015,"241":0.12471117604784153,"242":0.2501720416942549,"243":-0.11810317533983618,"244":-0.020312591388660966,"245":0.10538916437381775,"246":0.04472286231911732,"247":-0.02437266190487687,"248":-0.020606335061899437,"249":0.038635364206767546,"250":-0.027709748279952498,"251":-0.003968958239889938,"252":-0.13396237997616922,"253":0.12511584778018695,"254":0.056768139836220914,"255":0.04492119183878452}},{"sx":1,"sy":1,"depth":256,"w":{"0":-0.02758575590650248,"1":-0.009567095042604723,"2":0.04274818214390572,"3":0.0717192224959407,"4":0.05630394009253541,"5":0.08449071924222641,"6":0.1268106721258402,"7":0.09559543172555578,"8":0.012587814631271637,"9":0.027534105260072085,"10":-0.04654910557863715,"11":0.013806603849310865,"12":0.008121987878339574,"13":-0.018323351507644633,"14":-0.07126769725871739,"15":-0.004488708691927951,"16":-0.048356075871913276,"17":0.014161641955488928,"18":-0.11444934834625808,"19":0.012261219981821659,"20":0.21267151598115633,"21":0.0008866491246428748,"22":-0.000011846534602126204,"23":-0.10546074147120943,"24":-0.005471022698546323,"25":-0.04733409742330943,"26":-0.01655911267014085,"27":-0.07822264626578318,"28":-0.11745359221492112,"29":0.055359238426264515,"30":-0.050069814004998985,"31":-0.021364250983737745,"32":0.11922340887530868,"33":-0.04839445414304128,"34":0.02770144946265802,"35":-0.013188686143476503,"36":-0.08261712870834288,"37":-0.015339452153487403,"38":0.02508315077532356,"39":0.0053483368216392735,"40":-0.024749207659877693,"41":0.027726139618065034,"42":0.061810140307246235,"43":0.06222907605359677,"44":0.00767406831824253,"45":0.1890196789285195,"46":0.03622447998709964,"47":0.10614904494252149,"48":-0.022341725293972527,"49":-0.036310735030390194,"50":-0.046218365623101776,"51":0.06734822540414982,"52":0.031388953694615446,"53":-0.03759821418714887,"54":0.09692470805819965,"55":0.027982734933697,"56":-0.017849647614390667,"57":-0.13899835838483368,"58":0.06779369629319709,"59":0.035302853031653765,"60":-0.018118711694725672,"61":-0.015071659961141914,"62":-0.07098073237845731,"63":-0.08786953267667762,"64":0.031177630441522858,"65":-0.043818862622579904,"66":-0.0648716849136111,"67":-0.02447958674323838,"68":-0.05048228335460031,"69":0.06297619555131599,"70":-0.026214159928810734,"71":-0.03781122357802144,"72":-0.0315995419414423,"73":-0.07965755281525452,"74":0.05088688084082706,"75":-0.04163615623107686,"76":-0.015889826644451707,"77":-0.061425306971293885,"78":-0.24053179787374407,"79":-0.09089822039077634,"80":0.05026940036755297,"81":-0.16507011135540947,"82":-0.10629633854170521,"83":-0.07028768333978642,"84":0.11505352204030396,"85":-0.07029201190487376,