{"layers":[{"out_depth":1,"out_sx":24,"out_sy":24,"layer_type":"input"},{"sx":5,"sy":5,"stride":1,"in_depth":1,"out_depth":8,"out_sx":24,"out_sy":24,"layer_type":"conv","l1_decay_mul":0,"l2_decay_mul":1,"pad":2,"filters":[{"sx":5,"sy":5,"depth":1,"w":{"0":-0.07392152085103457,"1":0.36686349426912646,"2":0.18894575430205576,"3":0.32664066987043033,"4":0.17931886634929078,"5":-0.20085753587028488,"6":-0.26213176213025624,"7":-0.3338652202785325,"8":0.0647765054332948,"9":-0.03226385773351047,"10":-0.6065149841448788,"11":-0.5956766643787772,"12":-0.3975121004815632,"13":-0.19820489463033708,"14":-0.1390963189735601,"15":0.18222030741935036,"16":-0.022852878706185752,"17":-0.32435880916547855,"18":-0.398667226463323,"19":-0.3533363534743245,"20":0.5895340577572975,"21":0.5944621118197797,"22":0.2940240041894422,"23":0.20718456329625565,"24":0.09257862998201498}},{"sx":5,"sy":5,"depth":1,"w":{"0":0.30208503486241306,"1":0.32903392059154274,"2":-0.06422557321096975,"3":-0.25596301583995357,"4":-0.3126520770101744,"5":0.2942819137799268,"6":0.21906431340748983,"7":-0.3812690925957694,"8":-0.37748662057220306,"9":0.12695418510614945,"10":0.11762421176498179,"11":0.21192749350918155,"12":-0.008110402269384377,"13":-0.20367988595802575,"14":0.3388735866830007,"15":0.10335436387074691,"16":0.35935871244815326,"17":-0.2881693464159394,"18":-0.5020946697139683,"19":0.017088296812451664,"20":0.24431512417707069,"21":-0.06212649516576614,"22":-0.04979610586875477,"23":-0.010612107346370813,"24":-0.620397569231468}},{"sx":5,"sy":5,"depth":1,"w":{"0":0.024439733452021797,"1":-0.3048232225054771,"2":-0.6467649283036416,"3":-0.29719404653929815,"4":-0.10066444223549074,"5":-0.4501273634783765,"6":-0.4469755188720949,"7":-0.43614870272406003,"8":-0.3290655364731438,"9":0.0545947489359334,"10":-0.2784035553422032,"11":-0.6875424541297518,"12":-0.3028752845053702,"13":-0.07247516157196822,"14":0.0782829646106566,"15":-0.4695607478780548,"16":0.09022661303385746,"17":0.14678191454199646,"18":0.28665647076552736,"19":0.4554628731431227,"20":0.2256806680099139,"21":0.24571973554494617,"22":0.024847933639396767,"23":0.08600523862617596,"24":0.5274546489118016}},{"sx":5,"sy":5,"depth":1,"w":{"0":-0.35025070044560436,"1":-0.059788254558051146,"2":0.24123595851978524,"3":0.29662140350355626,"4":0.18615598435456926,"5":-0.062721847577232,"6":0.18558836906029771,"7":0.09283663550474029,"8":0.4252595726074154,"9":-0.07693771038921995,"10":-0.14486632672006494,"11":0.036706601677026905,"12":0.021964440669321045,"13":0.2309359818263698,"14":0.295878455059705,"15":-0.09961920065694327,"16":0.2779035409737139,"17":0.2833885787310425,"18":0.14820710215075283,"19":0.08626010667115042,"20":-0.49380346229951294,"21":-0.4278686435933021,"22":-0.19136701078840038,"23":0.311443921452267,"24":-0.14744844832359053}},{"sx":5,"sy":5,"depth":1,"w":{"0":0.33233338623841113,"1":0.35855761569779926,"2":-0.008880507808176796,"3":0.4611358701011325,"4":0.11488286497851766,"5":0.1978169630695534,"6":0.07503183554809957,"7":0.12723091479975462,"8":0.41377289044580895,"9":0.6397948134530622,"10":0.3542123413242343,"11":0.5360574072610262,"12":0.2597541873684764,"13":0.1597658882431776,"14":-0.010261757393957389,"15":-0.19651677589712932,"16":-0.14058285702152454,"17":-0.36768173768548557,"18":-0.14720247002491446,"19":-0.15692184927110941,"20":-0.7004458135887791,"21":-0.5402227752147908,"22":-0.6318538911103109,"23":-0.42989615018852906,"24":-0.20105049529931548}},{"sx":5,"sy":5,"depth":1,"w":{"0":0.056081489886391056,"1":-0.687738343162538,"2":-0.5887787214868975,"3":-0.7185894807693631,"4":0.07611827244480057,"5":-0.25444123519980183,"6":-0.3616809561151033,"7":-0.11526472696475278,"8":0.10226159810455883,"9":0.029938382575365425,"10":0.5100765044531158,"11":-0.18856388480670672,"12":0.22928580463956424,"13":0.08346241036756745,"14":0.0881930355009474,"15":0.21359226449640362,"16":0.32731592464758086,"17":0.6389504556001557,"18":0.20882768750956396,"19":-0.015556109419341308,"20":0.26091769635564954,"21":0.4907103315111654,"22":0.053289396373650634,"23":0.35807806342528936,"24":-0.4530754990049986}},{"sx":5,"sy":5,"depth":1,"w":{"0":0.20844612940030222,"1":0.1974830527708639,"2":-0.06024332354077084,"3":-0.3864056802601841,"4":0.07133879717477239,"5":0.24625149389424947,"6":-0.14027105406435283,"7":-0.430898039701963,"8":-0.42680845853567745,"9":-0.12024499286332582,"10":0.09396815932671074,"11":-0.38922223025131836,"12":-0.3828803533443323,"13":-0.2359415287355204,"14":0.6259432092091887,"15":-0.02377962198996051,"16":-0.5080324312380872,"17":-0.010207443434121041,"18":0.09576205267169452,"19":0.2978177495598339,"20":0.10196368207546638,"21":-0.3381767512035704,"22":0.08677869222476692,"23":-0.15409399674502758,"24":0.09528534298496998}},{"sx":5,"sy":5,"depth":1,"w":{"0":0.15379685449089034,"1":-0.06723353420525437,"2":0.2986580427015125,"3":0.025190704402066093,"4":-0.005667696560071388,"5":0.07688964612928008,"6":-0.17282299818767058,"7":0.008500364131379343,"8":0.09796739417630689,"9":0.47354234453701194,"10":-0.45069985056225104,"11":-0.21966451214172333,"12":-0.4559039295943032,"13":0.017656405608420907,"14":0.04583056911832448,"15":-0.6192920172274382,"16":-0.23013625572678958,"17":-0.05423078894960797,"18":-0.42054404806950946,"19":0.5284861098259941,"20":-0.31113861336463156,"21":-0.08178384451143446,"22":-0.06701331742339829,"23":-0.02390103946458337,"24":0.620790699795613}}],"biases":{"sx":1,"sy":1,"depth":8,"w":{"0":0.12519133083927556,"1":0.16192410323244733,"2":0.08016626081968042,"3":-0.003578395271861712,"4":0.012148652382049237,"5":0.011581169001277107,"6":0.003874362115301036,"7":-0.02124011051221567}}},{"out_depth":8,"out_sx":24,"out_sy":24,"layer_type":"relu"},{"sx":2,"sy":2,"stride":2,"in_depth":8,"out_depth":8,"out_sx":12,"out_sy":12,"layer_type":"pool","pad":0},{"sx":5,"sy":5,"stride":1,"in_depth":8,"out_depth":16,"out_sx":12,"out_sy":12,"layer_type":"conv","l1_decay_mul":0,"l2_decay_mul":1,"pad":2,"filters":[{"sx":5,"sy":5,"depth":8,"w":{"0":0.13843909857965903,"1":0.0814521134347683,"2":-0.02303994806971689,"3":-0.13981793305986487,"4":-0.044641906065004955,"5":0.05962950987013894,"6":0.10236765642263285,"7":-0.12307194185487261,"8":-0.02877898551787322,"9":0.014368741206418532,"10":0.05236389759258328,"11":0.01178434605366451,"12":-0.0318769208208887,"13":0.045134692563069206,"14":0.07849394832641281,"15":-0.0788571736632177,"16":-0.06511605326224675,"17":0.012248267236868554,"18":0.025769165809912484,"19":-0.10379423228462728,"20":0.2302455838729681,"21":0.03715718393229705,"22":0.0884302347150717,"23":-0.06349833768504586,"24":0.003979760376062536,"25":-0.14552354830588776,"26":-0.011122860707514953,"27":0.0965383049312926,"28":0.26398763236657186,"29":0.0566019289857826,"30":0.11592863094558488,"31":0.06384966682569304,"32":-0.08539330246286804,"33":0.04920088307934786,"34":-0.056943161430429164,"35":0.05610521914177068,"36":0.04052934078878146,"37":0.05304107040115129,"38":0.004643416679946218,"39":0.036984643135152845,"40":0.18932554171417967,"41":-0.04982767770643534,"42":0.04601504345348002,"43":-0.2171464638727896,"44":-0.19683672599322571,"45":0.23683056442178968,"46":-0.20160103844710417,"47":-0.21192965452411788,"48":0.2854884121824412,"49":-0.05190097082410919,"50":0.023609336565757536,"51":-0.2838788471797126,"52":-0.126676398888592,"53":0.039737356642084415,"54":0.08402759120014043,"55":-0.2718683239934162,"56":0.1168291566742167,"57":-0.06478090985744855,"58":0.12234342778539053,"59":0.087750881688377,"60":0.05254813573400251,"61":0.019914919927842296,"62":0.20841404810521785,"63":0.0030710389372189915,"64":0.03472266087320951,"65":0.04242434491968993,"66":-0.08937169446644809,"67":0.07220321183256626,"68":0.08453212800628354,"69":-0.10224008122196389,"70":0.0483154642105421,"71":-0.12621578717821788,"72":-0.034784313000485734,"73":0.04086128358142175,"74":-0.13390448821206494,"75":-0.12753735619337545,"76":-0.0613499768919467,"77":-0.12276065007860716,"78":0.03316953090556733,"79":-0.22385515375989554,"80":-0.11802468616855455,"81":0.08715096142537582,"82":-0.07004692278151042,"83":-0.09909878409577373,"84":0.15756960626277813,"85":0.1677890909880224,"86":-0.08321476051459487,"87":-0.10615366537474254,"88":0.1788812451190127,"89":0.03835107297279933,"90":-0.054305743575264756,"91":-0.029201974363880022,"92":-0.0870843862111051,"93":0.2403189059426459,"94":-0.22747877528891383,"95":-0.0651553104824323,"96":0.4411936872895366,"97":0.01582566061800063,"98":-0.2593095077251982,"99":-0.07151699068978444,"100":-0.07237357278213569,"101":0.16198057914568714,"102":-0.13787218595822284,"103":-0.08048061548490629,"104":0.13685526395522235,"105":0.0456966986948597,"106":-0.1053900169740878,"107":-0.14187742841769668,"108":-0.030179059665960677,"109":-0.12853699881328437,"110":0.05549299778005611,"111":-0.16591270352607604,"112":-0.045182723398829984,"113":0.1104853769272645,"114":-0.09188108211444214,"115":-0.2435963434981446,"116":-0.15050990812705056,"117":-0.21268858082228478,"118":-0.06591643743723402,"119":-0.07743927599161418,"120":-0.021897573839389332,"121":-0.2612270093132315,"122":-0.17597366034583076,"123":0.07071491040978904,"124":0.23566188966647134,"125":-0.07169029267324895,"126":-0.031219483409548617,"127":0.06642517915936344,"128":0.15884772147940757,"129":0.017155971459600947,"130":-0.3755463382640866,"131":-0.01889417992575267,"132":-0.034111459407215945,"133":0.19808477176135003,"134":-0.1415072676611586,"135":-0.07515416068266526,"136":0.13302737863184577,"137":-0.03523687610070289,"138":-0.17487935830341492,"139":-0.25384574080135947,"140":-0.15936571957135012,"141":0.18632880879853547,"142":-0.01467348862474337,"143":-0.08795593811275307,"144":0.12151128203745373,"145":0.11175943459523378,"146":-0.041330549530963594,"147":-0.22928700695270662,"148":-0.2850112490923603,"149":0.0774215620680752,"150":-0.023648185002748925,"151":-0.11297136110174248,"152":-0.04958301790641104,"153":-0.058750109652874936,"154":-0.25640154026259754,"155":-0.17877577733083974,"156":-0.2576332404624198,"157":-0.05832186927223322,"158":-0.10504268176457487,"159":-0.21054921581545158,"160":-0.07484245256820403,"161":-0.1102998296495334,"162":-0.06839012488259635,"163":0.2024149596792411,"164":-0.1001218126477886,"165":0.030516294965637722,"166":0.06474091598876425,"167":0.007907168989650487,"168":-0.10853895098766213,"169":-0.06458308473865927,"170":0.032706291567832564,"171":0.11283673843940387,"172":-0.11337918710621422,"173":0.024969713185800314,"174":-0.09172217848566608,"175":0.09864803058835342,"176":-0.16423804918444052,"177":0.25890988280029703,"178":-0.18146260300074776,"179":-0.05813049791445523,"180":-0.20020366124585806,"181":0.16088253560181637,"182":-0.11757854844489561,"183":-0.09729298480818972,"184":-0.08814655426078695,"185":0.06454682285670209,"186":-0.25654243635362495,"187":-0.1218709452455333,"188":-0.1281379788204141,"189":0.10885316585091538,"190":0.012201970864733503,"191":-0.24156027110500458,"192":0.06276641674927637,"193":-0.0069805282941633705,"194":-0.17758731487063611,"195":-0.06850572610698606,"196":-0.290173448980136,"197":-0.07972203814910639,"198":-0.10617951942279706,"199":-0.167867922505221}},{"sx":5,"sy":5,"depth":8,"w":{"0":-0.07279951358940846,"1":0.015532269581502915,"2":0.13747417628087794,"3":-0.00871381247769767,"4":-0.11140673872520293,"5":0.04878691000247236,"6":0.03090265873957312,"7":0.07108070788401948,"8":0.04407381684226205,"9":-0.015015440794970877,"10":0.10297033279585265,"11":0.015898662230788792,"12":-0.028589847970402385,"13":0.12562656855461973,"14":0.12562057209668015,"15":0.0070574178349300035,"16":0.2140643955506789,"17":-0.031245136759074456,"18":0.0054628825398287985,"19":-0.1233891487682314,"20":0.03728697141176684,"21":0.11926794389394728,"22":-0.06279011386188744,"23":-0.05707792023093787,"24":0.011026547521035547,"25":-0.05311159565276857,"26":-0.2008076301130987,"27":-0.1630879753411811,"28":-0.05017298536020156,"29":-0.039537876740481044,"30":-0.06640886522007886,"31":-0.13945135015654211,"32":-0.2110714102661769,"33":-0.061488846140272634,"34":-0.07939178992539156,"35":-0.100121840651243,"36":-0.1370015254429554,"37":-0.1893041687730824,"38":-0.0069825151546192244,"39":-0.07738493728790631,"40":-0.09730578138092591,"41":-0.1951736664597639,"42":0.06400417057223451,"43":0.11021117968963427,"44":0.06839917848538767,"45":-0.11031308202802878,"46":0.08764234242716927,"47":0.2202536924305494,"48":-0.08094927040746218,"49":-0.0651701919946183,"50":-0.06614167841375045,"51":0.11284123537408774,"52":0.03982674118242184,"53":0.12166314155736552,"54":-0.022075202811527254,"55":0.07768578795210496,"56":0.03996734661495332,"57":0.028518831465069484,"58":-0.04056511197518776,"59":-0.0328075039975398,"60":0.01296357172469628,"61":0.11254019612103908,"62":-0.08172580831638349,"63":-0.09786919852527114,"64":-0.07619783563637773,"65":0.04367059279378377,"66":-0.14987205185981362,"67":-0.13263363541737866,"68":-0.1379176662456275,"69":-0.13970771366108772,"70":-0.0036026706072451527,"71":-0.2054998363799621,"72":-0.13629341643400206,"73":-0.12975898742179862,"74":-0.11242896277465801,"75":-0.18420954003782594,"76":-0.20639698858516062,"77":-0.15773382389821683,"78":-0.10694160242029888,"79":0.07088939072986875,"80":0.18187150252643136,"81":-0.12539297345693162,"82":0.17912942275955998,"83":0.0592641771533458,"84":-0.07724455235695761,"85":0.018979116423663622,"86":0.05483182591531419,"87":0.03241591794217115,"88":0.039189035612600114,"89":-0.08155098709934679,"90":0.11023568666601222,"91":0.2210136141087094,"92":0.09610367007982959,"93":0.009658719927778728,"94":0.0007295055759547137,"95":0.07734558696430982,"96":0.03970274516489416,"97":0.014654543377196332,"98":-0.022729733700882646,"99":0.10155497055259201,"100":0.0789069160337088,"101":0.013715825527266386,"102":-0.02134281582285489,"103":0.018712050380225404,"104":-0.13677569436902748,"105":-0.13828041620926756,"106":-0.1464293216272862,"107":-0.15730094491969837,"108":-0.1815401705852895,"109":-0.11682684645978872,"110":-0.16238815448532543,"111":-0.06976793881452945,"112":-0.20771254462353467,"113":-0.36201903606820435,"114":0.19855927198767953,"115":-0.15609179862750494,"116":-0.17708141712660122,"117":-0.10785652766951313,"118":0.17251818677082423,"119":0.11939183668298778,"120":0.11139450043238332,"121":-0.2018809369320275,"122":-0.06123248048475108,"123":-0.06930021632701863,"124":-0.1212075371124421,"125":-0.07514307005855318,"126":0.016911170790085805,"127":-0.009189209914419775,"128":-0.027787851000136678,"129":-0.23095972666421602,"130":0.11543102685029435,"131":0.16234199338652108,"132":-0.06975964584409568,"133":-0.07366293005761355,"134":0.09174087613952771,"135":0.03850535810391769,"136":0.07380133459774155,"137":-0.11795094204027498,"138":0.0014473190739738113,"139":0.012083195067455482,"140":-0.19061641633586723,"141":-0.029040043147964305,"142":-0.09372583182612519,"143":0.01358062379024727,"144":-0.04563230682997466,"145":-0.1074748842867593,"146":0.0034169943741410077,"147":-0.08930796257962399,"148":-0.10590032869438773,"149":0.06664524250514256,"150":0.05616671784400238,"151":-0.08807981576930361,"152":-0.05628035970736387,"153":-0.2823715869581142,"154":0.15172792522129092,"155":0.04311305122541294,"156":-0.018224900420537777,"157":0.0524690797187694,"158":0.0586208011368494,"159":0.11885338717963977,"160":0.13372288210419533,"161":-0.16091179710886222,"162":0.07193057426685795,"163":0.023202382747642202,"164":-0.1223965648485209,"165":-0.008402084746950814,"166":0.05836963217521405,"167":0.02339476119016651,"168":0.0854171079143184,"169":-0.1921298740834618,"170":0.054807127012133035,"171":-0.028262281196952097,"172":-0.16481636269936978,"173":0.07784623941720605,"174":0.008211147118337191,"175":-0.010824891703337157,"176":-0.08169862222495704,"177":-0.21464868466322196,"178":-0.02280972233032327,"179":0.051840979183675744,"180":-0.010789383231981078,"181":0.12863598994134615,"182":-0.08374033521171893,"183":0.08727805864796676,"184":-0.22411023692136792,"185":-0.24350895622688146,"186":0.11675173022252575,"187":-0.16943791196591984,"188":-0.26551317189423146,"189":-0.13635138604537994,"190":-0.0001466903471454217,"191":0.010037694211520872,"192":-0.28581793636146624,"193":-0.08853636354795222,"194":0.13972512919431695,"195":0.019414063684197496,"196":-0.11592979988543738,"197":0.13049405982717166,"198":0.09709688788925619,"199":0.14919334892623964}},{"sx":5,"sy":5,"depth":8,"w":{"0":0.11530927290947568,"1":-0.1164814381950893,"2":-0.036326182844715144,"3":-0.05211722100041335,"4":-0.08841720657619619,"5":0.0229641987795513,"6":0.0018462344250247589,"7":-0.10339947467946847,"8":-0.07618872537229257,"9":-0.1763496862916697,"10":-0.09588757711234876,"11":0.019791899714012663,"12":0.008677414285570215,"13":-0.0621954917631408,"14":0.07752105751096765,"15":0.07710723304802344,"16":-0.2053508848896736,"17":-0.13172891584055402,"18":-0.1520369484153415,"19":0.16897531145523584,"20":-0.16989351795535212,"21":0.0032238234710561644,"22":0.031974735474329094,"23":0.11130164401415336,"24":-0.05113018849205117,"25":-0.06294309288090726,"26":-0.03941175225722909,"27":0.04295559104030553,"28":0.08151279633944879,"29":0.14233728761077016,"30":-0.012194320931291736,"31":-0.24141120151417586,"32":-0.072442269397763,"33":0.10434727255351757,"34":-0.18818407645296303,"35":-0.0534926629287928,"36":0.02939541638444239,"37":-0.10679605982368237,"38":-0.09986101418151742,"39":0.014016226766540726,"40":0.25037134454194315,"41":-0.09719708329618466,"42":0.03422024825784986,"43":-0.10193503539152694,"44":-0.20324051857420442,"45":-0.09056708457314831,"46":-0.13234347764152293,"47":0.03019369829730112,"48":0.0796877320930509,"49":-0.11519378244839103,"50":-0.1916755891016053,"51":0.01432452530963268,"52":-0.032852307131750365,"53":-0.13065859723963502,"54":0.03900338548312566,"55":0.13947494682209416,"56":-0.14009011422903883,"57":0.04416695027101442,"58":0.007886142563943724,"59":0.01154110711679138,"60":-0.07768334189429542,"61":-0.14661695007174708,"62":-0.15047120115293766,"63":0.13612817274349423,"64":-0.2212681198191383,"65":0.03301151414540062,"66":-0.21869786595866164,"67":0.14570837786587923,"68":-0.06427116746924649,"69":-0.11321978445530524,"70":-0.052173992934557385,"71":-0.036479450537933326,"72":0.10673418093219517,"73":0.272556326814053,"74":-0.07626107007797472,"75":-0.01871668417746363,"76":-0.056913351467055465,"77":0.04330630162910235,"78":-0.12457285814888899,"79":-0.25910168372577635,"80":0.040307289191649054,"81":0.025864242254680172,"82":0.07574248622553353,"83":0.07096845902918528,"84":-0.04419841204869738,"85":0.19863041806393095,"86":-0.12581752162829368,"87":-0.14146266458825943,"88":0.01594155880049367,"89":-0.09579802972023793,"90":-0.08382535360253524,"91":-0.14327105788110323,"92":0.1578146023274137,"93":-0.029961237721842924,"94":0.03185125633629872,"95":-0.08118873552897343,"96":-0.2574330777064066,"97":-0.06758085521018226,"98":0.07164074192873657,"99":0.11874076414384957,"100":0.05788116685853336,"101":-0.08357404234497592,"102":0.042496649072014295,"103":0.17655645313740012,"104":-0.09248663940603434,"105":-0.01801072120598576,"106":-0.13502877987540438,"107":0.10809938840251068,"108":0.03839085138688918,"109":-0.2401108676225509,"110":-0.14653903677691832,"111":0.12472968665814232,"112":0.0016287493480441131,"113":0.23489045449233648,"114":-0.31804549828705186,"115":0.14595808775803232,"116":-0.12565553293917484,"117":0.08824273147417849,"118":-0.35261236430317433,"119":-0.22440503605612427,"120":-0.02971393105786292,"121":-0.11167964658280408,"122":0.2383711826446991,"123":0.05748279549912571,"124":0.10049293083068479,"125":0.08530960648586672,"126":-0.03457838767151596,"127":0.1003149777733814,"128":0.08992347236056872,"129":0.1875225963705978,"130":-0.0369260020654915,"131":0.00967649662314441,"132":-0.08280689529400412,"133":-0.00473748505730696,"134":0.04767488551204312,"135":0.04062883208100455,"136":0.1045408729127982,"137":-0.050483198056342445,"138":0.0899320486363506,"139":0.021691236153623283,"140":0.08188069129859608,"141":-0.23512988550039637,"142":0.1262097918739813,"143":0.21092593371546703,"144":-0.27623842832334766,"145":-0.2370468014881615,"146":-0.037282697976208284,"147":0.33432239413441167,"148":0.2053684978887345,"149":-0.13856339496493253,"150":-0.10058980345628311,"151":0.30739400305090075,"152":-0.1684472406579236,"153":0.17840620309323044,"154":-0.44860072417682745,"155":0.16494252173973706,"156":-0.07287059361449967,"157":0.014986431923125557,"158":-0.26442868831744587,"159":-0.11144748139793761,"160":-0.08126925326005306,"161":0.06535201810413033,"162":0.2840620606734552,"163":0.016460306338751052,"164":-0.14444715236519262,"165":0.056205972906182136,"166":0.11916875691081594,"167":0.269345846125052,"168":-0.037032494857699785,"169":-0.004925673260979391,"170":0.04203058556683413,"171":-0.19185382725365874,"172":-0.051592548598261866,"173":-0.038084421390331566,"174":0.09915015742464797,"175":0.00014912500978821902,"176":0.0675369423345912,"177":-0.14599437575270102,"178":0.08769620924086785,"179":-0.10614392435406086,"180":-0.41780133526051993,"181":0.07575147645279731,"182":0.1629296500347048,"183":0.09521810639124285,"184":-0.12532531193104063,"185":-0.3127042510721659,"186":0.12081110362833594,"187":0.16585746174784266,"188":-0.11535487334597087,"189":0.011420454671623498,"190":-0.04176066792405974,"191":0.1857430056075554,"192":-0.1631821949479336,"193":0.11921524112398088,"194":-0.24034625372010093,"195":0.15117337442961937,"196":0.12178462234939476,"197":-0.1338113215884318,"198":-0.11874368477542534,"199":0.008944483837950231}},{"sx":5,"sy":5,"depth":8,"w":{"0":0.16245656656933513,"1":0.15403042787916543,"2":0.02613274500395326,"3":-0.030801076611355168,"4":-0.08665487364014039,"5":-0.02357386557028952,"6":0.009047647221685077,"7":-0.15674868832031974,"8":0.15459452090471942,"9":0.05425980751719421,"10":-0.021008344290278792,"11":0.04802448274873261,"12":0.038654678353973834,"13":0.09415265463952716,"14":0.1679771840977648,"15":0.11837846295267437,"16":0.1298364764669853,"17":0.0568977748351674,"18":0.02754647780515662,"19":0.1499564189308767,"20":0.25024838853881093,"21":-0.08891051948797357,"22":0.057759606825828536,"23":0.030491549479163067,"24":-0.023253305424018725,"25":-0.05421429267546855,"26":-0.04237063599058482,"27":0.03253107674450352,"28":0.1522456660867157,"29":0.06155702018988312,"30":0.13427356759868697,"31":-0.026587565282565326,"32":-0.011755987673545147,"33":-0.14325022654768949,"34":0.07087248636464404,"35":0.06929987106961422,"36":-0.03687119831652864,"37":-0.06490340697891155,"38":-0.014931959542968583,"39":0.026373833353090275,"40":0.24754371270429398,"41":-0.10681514912516772,"42":-0.10440439855566998,"43":-0.05325726169210087,"44":0.08805166923938663,"45":-0.1523266380898865,"46":-0.1960877408967067,"47":-0.09106424658347675,"48":0.31127148416770695,"49":-0.0918734402329002,"50":-0.12986693783963024,"51":0.021064512300453916,"52":0.05174010804239912,"53":-0.24309856875217706,"54":-0.09521382530182632,"55":0.018273447582510784,"56":0.07623813862169564,"57":0.018219030620826585,"58":-0.2367116926112018,"59":0.0049940887362560785,"60":0.1522599268807031,"61":-0.03219878210402148,"62":-0.14483313009984977,"63":-0.025898079387071914,"64":0.13609113609961337,"65":-0.1907812111345568,"66":0.03265880092707209,"67":-0.13792091195217118,"68":0.2199311180239076,"69":-0.11237361500587585,"70":-0.07537889794079292,"71":0.06595868323917395,"72":-0.0325673297855113,"73":-0.169199861894717,"74":-0.19056348431527662,"75":-0.1120154466343639,"76":-0.032455798983666,"77":-0.10406491478224442,"78":-0.11232469047770978,"79":0.16914315483664147,"80":0.3723760418010398,"81":0.019894471288374127,"82":0.04340389882811827,"83":-0.16319441543891042,"84":-0.33597457872366365,"85":-0.03516089454704688,"86":-0.15204264773180548,"87":-0.08881076974920077,"88":0.24723580582658922,"89":-0.08131542788141005,"90":-0.03030190765618679,"91":-0.27094196684420435,"92":-0.19955757887551057,"93":-0.010144443833329856,"94":-0.06937032035973997,"95":-0.07648827354703433,"96":0.27529777839263825,"97":-0.15645250181780618,"98":0.07141817896679732,"99":-0.24507928070975557,"100":-0.10041402997456307,"101":-0.034200391457359335,"102":-0.06393237661922808,"103":-0.12776618699655673,"104":0.23616765614018648,"105":-0.12186487562872414,"106":0.17370336088406144,"107":-0.21799314130350733,"108":-0.13661385954775157,"109":-0.05759264813636579,"110":0.029591851434036993,"111":0.08895946663106845,"112":0.0658109671377684,"113":-0.32864799391198646,"114":0.17121049475514824,"115":-0.24078273316679746,"116":-0.1442352251037051,"117":0.11779453917201184,"118":-0.03445301340258932,"119":0.1187052347314003,"120":-0.07639797383701297,"121":0.0061130967490614155,"122":0.14240890900289524,"123":0.02364614439816022,"124":-0.004375753356813658,"125":0.21573244138911601,"126":-0.06102725357851304,"127":-0.0711777762389881,"128":-0.04049936421963525,"129":0.015151012339662288,"130":0.007749458178245334,"131":-0.044608209389633675,"132":-0.19143014069179462,"133":0.1173872510508409,"134":0.0933188629326952,"135":0.06614322191483427,"136":0.07468836784751819,"137":-0.13324811683481352,"138":0.12636204481227795,"139":-0.11722051063113989,"140":-0.1252182223791702,"141":0.008277884714212664,"142":0.03673924771994989,"143":0.07627890926195298,"144":0.038565062336887286,"145":-0.16646382920091474,"146":0.19592196305322343,"147":-0.04312638728740392,"148":-0.07800017880127795,"149":0.14208378478118802,"150":0.1074389059076141,"151":-0.1862773564353563,"152":-0.1134924620197191,"153":-0.1310790782396086,"154":0.18251516293093858,"155":0.03284346069899294,"156":0.09506457179941599,"157":0.21225432494691696,"158":-0.010897731148740108,"159":-0.29003004871478666,"160":-0.0013093176038058696,"161":0.09015226087508325,"162":0.07776527945848097,"163":0.023319384043625154,"164":0.023311098064340702,"165":-0.015383763777128896,"166":0.053008107682762415,"167":0.24216948889763032,"168":0.01072985220711818,"169":-0.014067599294573251,"170":0.09446767299156948,"171":-0.1083021163766836,"172":0.016012963776507003,"173":0.12908190489022237,"174":0.07083833658149724,"175":0.09859878877107736,"176":-0.0836847023950477,"177":-0.06947654119126216,"178":-0.02296775043357022,"179":-0.08319298534677859,"180":0.043133705176914484,"181":0.06005711464041561,"182":0.001964021521628225,"183":0.14352691317256117,"184":-0.1922506802716598,"185":-0.16210061630265646,"186":-0.09314625411001033,"187":-0.02994638854521649,"188":-0.023168815254558554,"189":0.18195720996659662,"190":0.051336612191108216,"191":-0.06448294532094251,"192":0.015242917969137498,"193":-0.11705699412556327,"194":-0.13764622742350202,"195":-0.05063809913121565,"196":-0.059295143898257206,"197":-0.050100271661914886,"198":0.17124358865975337,"199":-0.07713683810575821}},{"sx":5,"sy":5,"depth":8,"w":{"0":-0.0157763328115529,"1":-0.2922074643050644,"2":0.25612374121532233,"3":0.1453880564266054,"4":-0.16293002154851652,"5":-0.026820135083402193,"6":0.22171641371429476,"7":0.21773365106401366,"8":-0.3117665630602112,"9":-0.0961543997501038,"10":-0.10340016991214337,"11":0.40557636763924454,"12":-0.03990960274012654,"13":0.005848538508213957,"14":-0.06983992151453883,"15":-0.06365841138274148,"16":-0.08155625161024738,"17":0.2783883819088542,"18":-0.10908385927720807,"19":-0.10926487974850933,"20":0.056069816857591555,"21":0.011713917128377053,"22":-0.08764979547922144,"23":-0.05874653317820615,"24":-0.10674236588507512,"25":-0.04735378091582614,"26":-0.013503720240346802,"27":-0.2733706739412198,"28":0.07404822539549757,"29":-0.05001042292716053,"30":-0.16197034467855234,"31":-0.059356215800556916,"32":0.009802874840724658,"33":-0.02746011202739168,"34":0.04804215188391088,"35":-0.0833545304574808,"36":-0.1278358803488054,"37":-0.026102282784749166,"38":-0.11276265975066108,"39":-0.054037224999083304,"40":-0.16558606368524234,"41":-0.17156183094429675,"42":0.06448503828558431,"43":0.02159561278798308,"44":-0.17143743912330983,"45":0.09700226416861578,"46":0.09685123371226322,"47":0.014081040455263795,"48":-0.19999143054477164,"49":0.15394414064930828,"50":-0.14500670930740647,"51":0.04008267776674902,"52":0.03998029785676154,"53":-0.0049215609199648475,"54":-0.02123734549005295,"55":-0.15803236100140336,"56":-0.23279075424379506,"57":0.24768634709736512,"58":-0.35442118581830384,"59":-0.057286910855431535,"60":0.17251670805144226,"61":-0.10330043197694883,"62":0.0475767769580891,"63":-0.20632519942261343,"64":-0.014876688517898872,"65":-0.10580714326755727,"66":0.045218299417443486,"67":-0.1572452024682075,"68":0.2047955502350689,"69":-0.04245012992879109,"70":0.05312068060547234,"71":-0.11925376979915395,"72":0.01988956463091649,"73":0.0850467597155888,"74":0.058618608828396646,"75":-0.03740739034914614,"76":-0.06131390426795834,"77":-0.07509462771303448,"78":0.03286684039538022,"79":0.05438130068077136,"80":-0.23181880970960872,"81":-0.07464313184726032,"82":0.0256483801479225,"83":0.09185384061478186,"84":0.1596013863071488,"85":0.046575913839815734,"86":-0.004125335393500761,"87":-0.04921906739657541,"88":-0.3047417777943234,"89":0.0962895679379502,"90":-0.08261163195994133,"91":0.07980210498488763,"92":0.17380261938727246,"93":-0.09062926069570082,"94":0.04858361366322871,"95":-0.014018077077053171,"96":-0.21517325705912324,"97":0.20378340242485038,"98":-0.12893715183017931,"99":-0.11167482294152142,"100":0.11393841849159993,"101":-0.22373710822126625,"102":-0.03538013581838648,"103":-0.148937884860947,"104":-0.069896281480356,"105":-0.016032929372496153,"106":-0.04525490937218332,"107":-0.2545366837756457,"108":-0.033959952802217315,"109":-0.1423678063257464,"110":-0.0080148728903064,"111":-0.13958383742809716,"112":0.07353346747321668,"113":0.02103228287703726,"114":0.02080086513438371,"115":-0.12730302254287887,"116":-0.09843468071013337,"117":-0.048052240385799125,"118":-0.05694814521863785,"119":-0.20220506408753947,"120":-0.2581330168111706,"121":0.15547324450896097,"122":0.005930560186338817,"123":0.07507227397183758,"124":0.1631932183805241,"125":-0.20055552161637397,"126":0.2081481335257158,"127":0.08199160678234045,"128":0.03167964791519022,"129":0.07611622264208244,"130":0.06130126094908972,"131":0.10441019945035314,"132":0.1890291707511466,"133":-0.20861256254946894,"134":0.06288277885404149,"135":-0.042782086855997124,"136":-0.009161999680999356,"137":0.13021624796690026,"138":-0.0960468116499958,"139":0.025337253244174938,"140":-0.027027450076436477,"141":-0.053833199228300294,"142":-0.05410431222351606,"143":0.0016253774990987,"144":0.11787551881522355,"145":0.011626353988610559,"146":-0.11207079866195994,"147":-0.2058239625975902,"148":-0.10817935720671999,"149":-0.10667002546638192,"150":-0.10561656639415754,"151":-0.15948048547792112,"152":0.14934639876590228,"153":-0.03469878380973779,"154":-0.035082211812494095,"155":-0.1764111427735684,"156":-0.21464628458277665,"157":-0.07548795941960697,"158":-0.11853465276435951,"159":-0.018578879120892105,"160":-0.1357080490968455,"161":0.12999804685038263,"162":-0.06829827482684232,"163":0.04981042360824117,"164":0.134673767906798,"165":-0.34251986817144314,"166":0.03367862327738354,"167":0.017081142845388714,"168":-0.029842980376299816,"169":0.006674255070053227,"170":-0.11486120461071682,"171":0.07071157198311452,"172":0.04527731527627289,"173":-0.06275054918698734,"174":-0.22044997048793927,"175":-0.10302668295053242,"176":-0.10901046499794495,"177":0.03154130299486198,"178":-0.04977371994515063,"179":-0.05315691265521113,"180":0.08153043366196612,"181":0.06495164124290521,"182":-0.029533422264741368,"183":0.005993026637668186,"184":0.19687125402143194,"185":-0.10837295991519266,"186":-0.03980352797786612,"187":-0.06574021822521736,"188":-0.22827102222815643,"189":0.06118707694511735,"190":-0.12996568352224958,"191":-0.17061160475202675,"192":0.08039357801723922,"193":-0.001181741062876716,"194":0.09840704772011316,"195":-0.064842505283869,"196":-0.29426491073141303,"197":0.1179366367688812,"198":-0.1916626821159191,"199":-0.16299948050101593}},{"sx":5,"sy":5,"depth":8,"w":{"0":-0.006878425025494021,"1":-0.19487873818416648,"2":-0.002983386465419812,"3":-0.10228237195473357,"4":0.07933320846113405,"5":-0.09995660190655103,"6":0.07839954513856473,"7":-0.00010993053947895787,"8":0.19117184548872443,"9":-0.016112382781041018,"10":0.10700959582617332,"11":0.048939105182669675,"12":0.07032567200302521,"13":0.02507102278332691,"14":0.07470763100772883,"15":0.046542284161917497,"16":0.03621448869374675,"17":-0.013812323672339036,"18":0.18007457101545507,"19":-0.014189025857751357,"20":0.035171557103552964,"21":0.16485627152662755,"22":-0.052252044803580006,"23":0.011105289340815958,"24":0.04298125337864998,"25":-0.07074960821231514,"26":-0.04684267135799204,"27":-0.04728364424988576,"28":0.10058303974059626,"29":-0.00024952937584888106,"30":0.16032583570250575,"31":0.12864542500027265,"32":0.1197624451781212,"33":-0.1809315585732931,"34":-0.061835987434080815,"35":-0.11064453638670768,"36":0.15784354800864764,"37":0.19786192449364956,"38":0.023897516648047602,"39":0.02506660825226536,"40":-0.05794014524353411,"41":0.054133895066759814,"42":0.036442576243656925,"43":0.1297145373092318,"44":0.14932893632987468,"45":-0.13076068961982212,"46":-0.06659295271618806,"47":-0.030579924471068273,"48":-0.06236167689386288,"49":-0.026116154998215894,"50":-0.0677108271529085,"51":0.15234912018599958,"52":0.1949872954452279,"53":-0.13814201915684188,"54":-0.10268542562139121,"55":-0.02937293540245887,"56":0.056461985696891016,"57":0.1155841973253528,"58":-0.1028241405327512,"59":0.20782650445271866,"60":0.3231186410719071,"61":0.011559123769001225,"62":0.012241354609880382,"63":-0.20011255447660384,"64":0.053134737586784116,"65":-0.0717664229734979,"66":-0.19792089014192638,"67":0.06784242220670116,"68":0.30914829061435056,"69":-0.07477238495420925,"70":0.06493296372243625,"71":-0.15092314740487228,"72":0.005855916870838942,"73":-0.026890284737833565,"74":-0.22559695090989057,"75":0.10735190520382616,"76":0.3090999587576819,"77":0.05324192538254971,"78":-0.07948308368855575,"79":0.09097867334270994,"80":0.20823103686674,"81":-0.03737646245160923,"82":0.028760697043278806,"83":-0.10472767007392202,"84":-0.0018900026342023207,"85":-0.22062261904819921,"86":-0.14171820993150636,"87":0.00696193902611451,"88":0.36387757498107803,"89":-0.19932220216254254,"90":-0.3209749118249321,"91":-0.16799224835171944,"92":0.17439547986162449,"93":-0.23291920423139484,"94":-0.1615555232691522,"95":-0.09180202703109275,"96":0.08176960002017168,"97":-0.0013620241727832364,"98":-0.1325178891331673,"99":-0.010190250321181628,"100":0.08241928023745512,"101":-0.40470467877123617,"102":-0.16892758306366093,"103":-0.037654414700574214,"104":-0.018576596842312554,"105":-0.09248383649309416,"106":0.004283663204089478,"107":-0.08237385406261122,"108":0.05881794554171262,"109":-0.21859400410085747,"110":0.11013440719543452,"111":-0.04251407091424042,"112":0.053584369890108265,"113":-0.04586215212846662,"114":0.1577410441647926,"115":-0.11312876649679028,"116":-0.10652604913628386,"117":-0.0751068867904428,"118":-0.05284132024655368,"119":0.01042046241921829,"120":0.21838551537967626,"121":0.09649057130886314,"122":-0.04659843770071172,"123":-0.06961147955350995,"124":-0.1293970940460256,"125":0.09650572386097335,"126":-0.14051698803066476,"127":-0.03451799046427424,"128":0.23416422516649538,"129":-0.021221339513461928,"130":-0.07713439368565826,"131":-0.22012169185412872,"132":-0.20229874916830734,"133":-0.039807682687824815,"134":0.044748742481096754,"135":-0.08050734539074787,"136":-0.16289634862444902,"137":0.054787661080790855,"138":0.0715799278175923,"139":-0.29492464217567027,"140":-0.17073211688247245,"141":-0.244082172510648,"142":0.21723614009348743,"143":0.04589211310172667,"144":0.007050160329812743,"145":-0.12235542382730177,"146":0.08412598857306174,"147":-0.09273187426073012,"148":-0.2869953930763927,"149":-0.06880422744690441,"150":0.05959571322512469,"151":-0.08913652662328213,"152":-0.13624175879179043,"153":-0.14983974604556613,"154":0.10143651486166044,"155":0.006316173582212907,"156":-0.1504523064566437,"157":-0.10030981578773522,"158":-0.038848496545986405,"159":-0.21044653567842028,"160":-0.06400647143930378,"161":0.15011031828959367,"162":-0.04791694443637474,"163":-0.0011662279441831467,"164":-0.20083656638802527,"165":-0.05855365241388831,"166":-0.02665806247409601,"167":0.08325327991261988,"168":-0.11528982592722457,"169":0.15920621863429218,"170":0.03871070235566246,"171":-0.18870710778896302,"172":-0.3737656444162257,"173":-0.07875743773691395,"174":0.18817947325487883,"175":0.03613625985358205,"176":0.0681809358399209,"177":-0.11617338060885302,"178":0.1287511103600652,"179":-0.1314109465238838,"180":-0.1945217032871672,"181":-0.10704950032997143,"182":0.19306162190826479,"183":0.02984459568544176,"184":0.04291065672640019,"185":-0.09665207947357789,"186":0.04691162145268533,"187":0.08936790361173547,"188":0.005191798252610152,"189":0.01976174213078018,"190":0.04602521932931358,"191":-0.08821767053962577,"192":-0.04871878641754268,"193":-0.011383737811086493,"194":0.050589928064248856,"195":-0.009749627807534193,"196":0.09100442242254057,"197":-0.07217441813484861,"198":-0.0319938221589083,"199":-0.08355288949750257}},{"sx":5,"sy":5,"depth":8,"w":{"0":0.0416932260806299,"1":-0.13760568836625126,"2":0.08331915095796963,"3":-0.2836632028891407,"4":-0.4790291557925485,"5":0.02018992586997322,"6":0.0021765852672780313,"7":0.03387698253264953,"8":0.14956938287578966,"9":0.05871071425797986,"10":0.16184683126797994,"11":-0.04501402744791707,"12":-0.07794804946701055,"13":0.07996210343178688,"14":0.09976558182072576,"15":0.10463128204115961,"16":-0.16120421927098796,"17":0.00505542733901218,"18":0.14796398000558972,"19":0.028984186790925726,"20":0.010718595910953067,"21":0.0776903614419137,"22":0.2469736470494764,"23":0.008070432897454067,"24":-0.07996877310934383,"25":0.17941613959494276,"26":0.17926492362457125,"27":0.06956589891484573,"28":0.052250123529687616,"29":0.11472455757860178,"30":0.25550453553275365,"31":0.01760305103030945,"32":-0.03345071768392628,"33":-0.08638814497913207,"34":0.14273385349946663,"35":0.20558516326124035,"36":0.23658327517244312,"37":0.27005998859337316,"38":0.12069410369016818,"39":-0.2566168069791494,"40":-0.07914571913544848,"41":-0.01785790092390287,"42":-0.005884637203647512,"43":-0.014657957499412778,"44":0.03949635112838614,"45":0.23450179036105023,"46":-0.10672527348649433,"47":-0.07265000987468921,"48":-0.015784338963560803,"49":0.04057924758535682,"50":0.05900857908421077,"51":-0.0009836251095150326,"52":0.08344490138372375,"53":0.03718255137117905,"54":0.03879395685117342,"55":-0.12997492027774316,"56":0.012284732462062025,"57":0.11871156079676999,"58":0.026836599498498148,"59":0.09438525424899853,"60":0.14277594356095863,"61":-0.011315568789799745,"62":0.017903418869950973,"63":-0.054267297575085756,"64":0.009486261393177339,"65":-0.0669701609807862,"66":0.02950600875519415,"67":0.07591221230063329,"68":0.11637740008385676,"69":-0.23649120627087644,"70":-0.11639072571511867,"71":-0.06592074678219703,"72":0.05727717084658934,"73":-0.1413988413952338,"74":-0.11882036819178385,"75":-0.09980330120769443,"76":0.15317745150158354,"77":-0.1852593674874136,"78":0.09334133118963732,"79":-0.13341792194850274,"80":-0.17296306679186632,"81":-0.12004772614677073,"82":-0.17538164715353882,"83":-0.03026004324879405,"84":0.23837453373030285,"85":-0.007492682407875661,"86":-0.14892463813659182,"87":-0.27738299630855623,"88":-0.15441638719018394,"89":0.12047675762436172,"90":-0.05638910913651103,"91":0.10195560846725718,"92":0.10866490650493296,"93":-0.1318791255847648,"94":-0.16084132728686681,"95":-0.19407642056725563,"96":0.10254587897767818,"97":-0.0058454575999296685,"98":-0.0913893935603374,"99":-0.18044722038954292,"100":0.18321754277889912,"101":-0.22731317692521938,"102":-0.0405657476081228,"103":-0.05837163924899568,"104":0.03525770041667778,"105":-0.2647497435253965,"106":0.0346766299977998,"107":-0.20070101597714385,"108":-0.1649977420874855,"109":-0.12851613705075732,"110":-0.07022857981666666,"111":0.06545500143860185,"112":0.13428493651759849,"113":-0.29177125967042067,"114":0.09648360769816641,"115":-0.276327950563061,"116":-0.15423504924443554,"117":-0.07260511014326067,"118":-0.095580996683778,"119":0.012764939740151754,"120":0.09658776603724123,"121":0.0835642596043928,"122":0.032237657419591656,"123":-0.1640722623461834,"124":-0.006263457527062589,"125":-0.1368212461080858,"126":0.035772559487373234,"127":-0.08673472674161929,"128":0.07279808676044991,"129":0.03552346756845546,"130":-0.11592336673475172,"131":-0.05205197570907289,"132":-0.14926524394407287,"133":-0.1589518280914021,"134":0.027171706007855734,"135":0.08343825360798847,"136":0.11920505669972482,"137":-0.10901452327530003,"138":0.1008813245567242,"139":-0.24221516023504686,"140":-0.14254417805607475,"141":0.04601960946460208,"142":-0.11369328110615924,"143":0.06371869613698831,"144":0.1642848589027829,"145":-0.300087350247401,"146":0.09503265270867967,"147":-0.3252968512055607,"148":-0.21612537804186752,"149":0.048722595245853796,"150":-0.0062934275186345215,"151":0.09147657175234265,"152":0.05198926272359543,"153":-0.20792236599958894,"154":0.24565344823273194,"155":0.04414827282957517,"156":-0.03841295944171328,"157":0.032733171635118366,"158":-0.07251669213111696,"159":-0.1603678378359314,"160":0.03325770710408818,"161":0.044734123854205,"162":0.06337342298824135,"163":-0.08359946008941853,"164":-0.18652870173930788,"165":0.059098971829489304,"166":0.060484679730332606,"167":0.08317349808942986,"168":-0.011110297467639798,"169":0.020052811813076082,"170":0.12653503597468355,"171":-0.14297497164093473,"172":-0.23593158249617036,"173":0.21249707930320796,"174":0.15990243000010188,"175":-0.07181856857577883,"176":0.032898553355728104,"177":0.11375668404588578,"178":-0.01991948666481709,"179":0.17951957021283046,"180":0.11322130799436637,"181":0.1506092419217783,"182":0.039466154528442786,"183":-0.13565500313985904,"184":-0.02404510472099066,"185":-0.1689382734301067,"186":0.009937104847396041,"187":0.19101962772243825,"188":0.1479496740098429,"189":0.07979230170101993,"190":-0.03526812769270519,"191":-0.15187013643448816,"192":0.05591443827686785,"193":-0.13699179108337642,"194":-0.12974864213941245,"195":0.10305294277927658,"196":0.08336509952057053,"197":0.053545230099199266,"198":-0.11346389854402948,"199":0.037047217570226415}},{"sx":5,"sy":5,"depth":8,"w":{"0":0.04640931814269138,"1":0.12411246274842222,"2":0.10354310558523457,"3":0.008097517510967848,"4":-0.20239503986627663,"5":0.17504635231509016,"6":0.09776635219734564,"7":-0.07652392130945405,"8":-0.10438004191862905,"9":-0.06945518160570244,"10":-0.0938984233091836,"11":-0.016866521801291202,"12":-0.023838548071518244,"13":0.04429467276790372,"14":-0.026396608651894866,"15":-0.11082394978493594,"16":-0.09320169854867702,"17":0.07524101122711979,"18":-0.14482502651137494,"19":-0.04083933015754019,"20":-0.029626153650974374,"21":-0.12475475167976412,"22":0.04126442274638507,"23":-0.044907178418941276,"24":0.008262513275925976,"25":0.008916113817712496,"26":-0.0491547894645828,"27":-0.10291675921731755,"28":-0.03424585378721774,"29":-0.12119707985877837,"30":0.11257529483427617,"31":-0.19261978378927144,"32":-0.0952742924448828,"33":0.05008499655187613,"34":-0.03309449010497359,"35":0.05117645084677569,"36":-0.09518443261177063,"37":-0.018109284682079604,"38":-0.0453075977164086,"39":-0.0065663844633287545,"40":0.14516342203004076,"41":-0.004074337028055116,"42":-0.11983779461957758,"43":0.027634989768573044,"44":-0.03342859708548489,"45":0.09731593403938536,"46":-0.13468618425892018,"47":-0.09345009331423941,"48":0.18258822767670127,"49":0.04886403413351902,"50":-0.1013113923536341,"51":-0.03154363860346995,"52":-0.09819797203423733,"53":0.027474027882509442,"54":-0.02507220990031217,"55":-0.1411694139436218,"56":0.20359364901034238,"57":-0.07051063223280671,"58":-0.029883308736068065,"59":-0.10187467208406582,"60":-0.2401250737645541,"61":0.05184102194740932,"62":0.05761238298326298,"63":-0.006029905840512057,"64":0.1896493749600995,"65":-0.07330392146082107,"66":0.1760084528712262,"67":0.03302110225613507,"68":0.08053877599662981,"69":0.0123626202050026,"70":-0.023293625445011446,"71":0.005918667473868435,"72":0.13007571613261054,"73":0.0025850591761623822,"74":-0.002668432854785746,"75":-0.1239844232967646,"76":0.011469362646502357,"77":-0.08421036047659658,"78":0.05044725772116727,"79":0.02714896743216428,"80":0.21170847262991088,"81":-0.09705420404499406,"82":-0.18516713327683113,"83":-0.02392700940458447,"84":0.19934736903920436,"85":-0.053496848230951285,"86":-0.022613986930822158,"87":0.04189327539576046,"88":0.08704897871096083,"89":0.06364257710894522,"90":-0.061211536229277067,"91":0.17455011723596506,"92":0.0976120257125029,"93":0.17047585974456994,"94":-0.15714436795556141,"95":0.02657894206704886,"96":0.34691615891974814,"97":-0.03423288038803802,"98":0.06728038834539642,"99":0.10632061081055222,"100":0.08627503602841571,"101":0.20041904319865597,"102":0.04449449655684952,"103":0.00593263332086012,"104":0.2983186248307161,"105":-0.011651118680585094,"106":0.2075344351445661,"107":0.17768726776461377,"108":-0.007647186355788947,"109":0.26661268386913456,"110":0.23810218993003993,"111":-0.05829176289456258,"112":0.08384194805915501,"113":0.058383070853540435,"114":-0.007446116657074095,"115":0.023402542458953915,"116":0.059485077498785316,"117":0.0916601252194928,"118":-0.029445829607429787,"119":0.13264623272569873,"120":0.11778491593493545,"121":0.07293770379340475,"122":-0.21630890648717985,"123":0.14187315511366344,"124":0.31105102047765765,"125":-0.16497688840472702,"126":-0.15836862446349972,"127":0.029779780533122552,"128":0.14559908853652948,"129":-0.02535496693625494,"130":-0.28533749169526257,"131":0.132398800148475,"132":0.40855288221437236,"133":-0.04388940136705811,"134":-0.29077145110105085,"135":0.09188715325542708,"136":0.14050366795285427,"137":-0.11130816997628308,"138":-0.44936250139431083,"139":0.10766236862544885,"140":0.16751490466541766,"141":-0.11272020712173356,"142":-0.09480925994445895,"143":0.011932819979873856,"144":0.005100556297906804,"145":0.08710375045355996,"146":-0.29864827045537984,"147":0.061735069958380184,"148":0.21639207632435284,"149":0.06228662648534263,"150":0.01669361331565014,"151":0.014616688344224566,"152":-0.10151892607268005,"153":-0.013176385747420749,"154":0.004658439153095037,"155":-0.052639114179004784,"156":0.17299202403015615,"157":-0.036272387120731504,"158":0.0715929692970829,"159":0.00876891376165499,"160":0.01652597229348437,"161":-0.23271171611621844,"162":0.07402804355395445,"163":-0.22702227238829228,"164":-0.1808717377383571,"165":-0.34950140531643886,"166":0.04085344132843597,"167":0.03257965163818149,"168":0.04080336690613522,"169":-0.3457903735136537,"170":0.04462253604533021,"171":-0.2597515161032727,"172":-0.0725047927963904,"173":-0.09559579534414793,"174":0.015173542677039405,"175":0.13420030587652865,"176":-0.052494849577288234,"177":-0.032769288811714384,"178":-0.029746715667216764,"179":-0.2728733309697826,"180":-0.16688167616711508,"181":-0.04058049109437688,"182":0.10328239673204814,"183":-0.06485432296095552,"184":-0.09064516779354621,"185":0.02606765323929777,"186":0.07151166208163282,"187":-0.20584271553871294,"188":-0.15612760246049817,"189":-0.0009436103557068151,"190":0.11576528172054976,"191":-0.10549771650186464,"192":-0.16285938996320054,"193":-0.05009230999769574,"194":-0.05689117375682055,"195":-0.1143047962455037,"196":-0.1101345270508883,"197":-0.13597820450294945,"198":0.058286720152094115,"199":-0.08358672117088795}},{"sx":5,"sy":5,"depth":8,"w":{"0":0.04319996109295354,"1":0.11874892060861812,"2":0.1513103106026291,"3":-0.11252941111617677,"4":0.00846941077041562,"5":-0.09389613040301484,"6":0.022341229518805364,"7":-0.1308776343300678,"8":0.023195119892769175,"9":0.11738209658946946,"10":0.04364898394519036,"11":-0.10474484002865049,"12":-0.16145875870460275,"13":-0.13204641302364975,"14":-0.016509461506906666,"15":0.007804868071634683,"16":-0.08337067759436101,"17":0.07067311935387759,"18":-0.027722049175625672,"19":-0.03204859010757251,"20":-0.19468201488176168,"21":-0.10032736960593792,"22":-0.170043647862336,"23":0.07067736714960283,"24":-0.3136613684915555,"25":0.1263071185555573,"26":-0.015560742676480215,"27":-0.15203497330195248,"28":-0.1405404794502511,"29":-0.0813049626499401,"30":-0.09944242836559854,"31":0.005649264366169157,"32":-0.09958660914364913,"33":-0.0444671783053541,"34":-0.06980452712546613,"35":0.00732077792022546,"36":-0.05259520696251079,"37":-0.026729453725824512,"38":0.03834264579201624,"39":-0.03403340680549975,"40":-0.003424502694289827,"41":0.03893318154373571,"42":-0.08158089915801806,"43":0.051380455027349406,"44":0.030982525029808833,"45":0.006839556940040717,"46":-0.025833346566384956,"47":-0.17723932670524026,"48":-0.11614730849475939,"49":-0.2977754898220632,"50":-0.054580221149387244,"51":0.0001803598166638953,"52":-0.14941095542624405,"53":-0.1589660392622226,"54":-0.057110959609591484,"55":0.11692402792220599,"56":-0.08090565743184965,"57":0.014504631076011597,"58":0.14104621005832124,"59":0.18259902085053425,"60":-0.06614505931935902,"61":0.1814017574118315,"62":0.07729092081607812,"63":0.10986445151770023,"64":-0.022419675320911606,"65":0.14231039213484226,"66":0.22718223339192867,"67":0.055602607020640495,"68":-0.19479356658671385,"69":0.06059278097740401,"70":-0.00038958447713660237,"71":-0.013817280239006104,"72":0.045189913748664934,"73":0.05826056220073786,"74":0.03373640510431005,"75":-0.07297044726050698,"76":-0.10859002710516784,"77":-0.025722543083229767,"78":0.0045553987437787335,"79":-0.08570467118902615,"80":-0.13279706323577783,"81":0.07134469233814143,"82":-0.03390054345039982,"83":-0.0669180609172274,"84":0.1025848980715853,"85":-0.031007421355723493,"86":-0.013824604016435255,"87":0.10383625745085498,"88":-0.21477610734040933,"89":-0.3556383279701948,"90":-0.017476927383141994,"91":0.1451023531488425,"92":0.001057952220451804,"93":0.0402337691713309,"94":0.052119255303389886,"95":0.15698029058937218,"96":-0.16053313443935363,"97":0.014665590017731264,"98":-0.11173050219560418,"99":0.09536157120163859,"100":-0.20580724402379796,"101":0.10984316728969376,"102":0.1521686789849502,"103":0.03920702752388374,"104":-0.1367274220518619,"105":0.19681063723089828,"106":0.05002052963315289,"107":-0.15344534379016067,"108":0.017731404572654322,"109":0.10425112403070826,"110":0.08034014142173553,"111":-0.13418482777299967,"112":-0.17028406928633394,"113":0.05731125823817972,"114":-0.06778304265440965,"115":-0.09349451993139203,"116":0.0038995980461680483,"117":-0.34649813718076383,"118":0.07669064230312177,"119":-0.05343767314301913,"120":-0.01683869457008984,"121":-0.12844716049442492,"122":-0.08832613114634426,"123":-0.114382177877085,"124":0.030651641995082777,"125":-0.14265251575018192,"126":0.05764341709896024,"127":0.15374851751614527,"128":-0.26409225500228867,"129":-0.21191385747763017,"130":0.0705363498560021,"131":0.21700140858922218,"132":-0.15145890408482077,"133":-0.09819983258528989,"134":0.2368997140970335,"135":0.23795325396143283,"136":-0.3080924717310254,"137":-0.045081323229702416,"138":-0.07361982936473542,"139":0.12629528737725643,"140":-0.10563624825853868,"141":0.20584168254493043,"142":-0.011404336846791655,"143":0.12179999407830219,"144":-0.0618903142402877,"145":0.15840979706923014,"146":-0.30038235295535376,"147":-0.15417127283184776,"148":-0.11111564165129084,"149":-0.27841131699268046,"150":0.04287896822306868,"151":-0.2181148849566199,"152":0.12161892895605644,"153":0.07526640204435887,"154":0.080339165257004,"155":-0.27022021490424847,"156":-0.20813727535670307,"157":-0.03957636631306308,"158":0.1473407578372566,"159":-0.1017485664088255,"160":-0.12158654975181052,"161":-0.17218222052713011,"162":0.20952922394338983,"163":-0.08650042540004206,"164":-0.1598396544070887,"165":-0.24250419410025095,"166":0.18587795324387674,"167":0.11420856739720134,"168":-0.3092324269824534,"169":-0.07513337147553799,"170":0.18547759432743438,"171":0.22151824979226287,"172":-0.2281919828929647,"173":-0.014762208924435583,"174":0.08338765464532434,"175":0.20393659003751757,"176":-0.3031115912007407,"177":0.05400487326054395,"178":-0.17121215424349595,"179":0.18575830564670193,"180":-0.03294058461814085,"181":-0.18686119804975146,"182":0.07498071283033879,"183":0.1195606225482126,"184":0.004331771747100994,"185":0.41074114143418783,"186":-0.22744600069965512,"187":-0.02619178004491271,"188":0.02780386619326043,"189":-0.014380388140350739,"190":-0.1000015639365093,"191":-0.42048940910996996,"192":0.15154660033719788,"193":-0.0210936315242107,"194":0.08520199017946996,"195":0.04240057175657508,"196":-0.14845528402727132,"197":0.26495284270190067,"198":-0.15828384275896978,"199":-0.19903129496978927}},{"sx":5,"sy":5,"depth":8,"w":{"0":-0.01924667706614021,"1":-0.05352222243423826,"2":0.08345504507663701,"3":-0.019142122452916098,"4":0.07065845028978146,"5":-0.20837189524362912,"6":0.08203110024940717,"7":0.04620023786178246,"8":0.0420421054266412,"9":0.003757571981365805,"10":0.02524163331588042,"11":-0.11364997103042954,"12":0.07838553329085465,"13":-0.20905636708126213,"14":0.06694430619249651,"15":0.02350278470843372,"16":0.0886946859776529,"17":0.09584138713472287,"18":0.1672358084297199,"19":0.032040408881840385,"20":0.12683047314062937,"21":-0.011427860286489639,"22":0.16914349214785315,"23":0.0379009987854412,"24":0.08525576639050254,"25":0.04111787615733518,"26":0.14367579166489416,"27":-0.09125252375141973,"28":-0.049887027902986755,"29":0.0016088265397802138,"30":-0.013659929597636233,"31":-0.007754406645906413,"32":-0.057441622763522195,"33":0.0300727523793119,"34":-0.017542611654925447,"35":0.00039023276105384295,"36":-0.23460970846078796,"37":-0.24970845817112872,"38":-0.003613285594559704,"39":-0.1441724671685508,"40":-0.04360130192856711,"41":-0.07458578745649455,"42":0.10959358214929545,"43":-0.12240327715998514,"44":-0.25431630189079857,"45":-0.04870444349733084,"46":0.05585349353715413,"47":0.08232964892256663,"48":-0.060788243089198564,"49":-0.10783492362367421,"50":0.12700556703456609,"51":0.12587706150962058,"52":-0.2440945187484389,"53":-0.03906987427547262,"54":0.008060540769421953,"55":-0.033223676719509,"56":0.1813664780883756,"57":0.008345747295656075,"58":0.08710020786125253,"59":-0.02664833543343391,"60":-0.22805290349031052,"61":0.13327484709440152,"62":-0.040513628938692606,"63":0.04005304144044801,"64":0.021166125041952054,"65":0.032625061067158505,"66":-0.052479522357436345,"67":-0.09326875887087786,"68":-0.3292334293645674,"69":-0.0013122419213456543,"70":-0.008634051634487137,"71":-0.10014628374530164,"72":-0.13165609143121498,"73":0.0006816406207037437,"74":-0.060616699614229004,"75":-0.038072037662115574,"76":-0.15061004865253708,"77":-0.16831857184967905,"78":-0.055421947069334676,"79":-0.0076671533257046415,"80":0.06210869936653012,"81":-0.17385453818890015,"82":0.07458143595112073,"83":-0.11128849043299478,"84":-0.33671012344108014,"85":-0.057448037715868615,"86":0.04574425435956534,"87":0.04050150576905556,"88":0.023272891247744336,"89":-0.1575283363265215,"90":0.02705367483551701,"91":-0.08792614841287093,"92":-0.1907998681620667,"93":0.03038239067598304,"94":0.09653203960212617,"95":0.1208297201001483,"96":-0.19009963295964322,"97":0.16759186463112374,"98":-0.12126352228492022,"99":-0.10245757673161453,"100":-0.2812893788690606,"101":0.07139328660712803,"102":-0.07990076237368324,"103":0.012578801460142185,"104":-0.12959483399764746,"105":-0.018311499808709924,"106":-0.21431430693384612,"107":-0.09972789003234947,"108":-0.14833631334231423,"109":-0.02580529198014137,"110":-0.005585080284290053,"111":-0.05189598553734778,"112":-0.018176495723171315,"113":-0.023771107229802465,"114":-0.025596271242906334,"115":-0.15430659723371218,"116":-0.11036907396364028,"117":-0.06246996817916508,"118":-0.04347657828011637,"119":-0.1687299923365247,"120":0.1367649325915605,"121":-0.21207515100752866,"122":0.1944603511614889,"123":0.029653723281430486,"124":-0.07749411729534454,"125":0.07581812488522086,"126":-0.05431157852279113,"127":0.0340148833472169,"128":-0.07314269539880906,"129":-0.10661236947964006,"130":0.03914845120112903,"131":0.04522514858895303,"132":-0.10992226198238092,"133":-0.016791331807182622,"134":-0.17194354047805502,"135":-0.003259595973036161,"136":-0.08820651643579755,"137":-0.006293464762492383,"138":0.014819804606073132,"139":0.013139539827359235,"140":-0.08658388762677142,"141":0.024875602675627585,"142":-0.0790016051363662,"143":-0.07290261285913657,"144":-0.1602850701089025,"145":-0.01658024427549684,"146":0.03933766510872999,"147":-0.13777509126779708,"148":0.026002349072188746,"149":-0.10038235977825052,"150":0.08466413467907213,"151":-0.030132631626944375,"152":0.21573701595577238,"153":-0.002526198337948733,"154":0.0923783405392399,"155":-0.08687212425873853,"156":-0.017599639591209776,"157":0.0646391527964687,"158":0.01776314397473869,"159":-0.047626022164184365,"160":-0.1146465575481616,"161":-0.064252939661121,"162":0.015288967322463267,"163":0.014084271703562539,"164":-0.056642144496397734,"165":-0.05576386410451714,"166":0.02097555604372671,"167":0.15593384350490364,"168":-0.16710422616931353,"169":0.09383621642771385,"170":0.061753891183528566,"171":0.17135748165816497,"172":-0.06661014445899584,"173":0.028565269001735116,"174":0.0916094717981352,"175":0.05337765170579002,"176":-0.31270211476054005,"177":0.08864839343663379,"178":-0.06853784333113135,"179":-0.13000231968521425,"180":-0.046766580428012745,"181":-0.13117163308500274,"182":0.1403414278484782,"183":-0.1381273672688836,"184":-0.15984328257137603,"185":0.15704652868545496,"186":0.16325334493018914,"187":-0.13141813774282318,"188":0.089833442747275,"189":-0.07043717208195174,"190":0.05376732804252702,"191":-0.21738665274017716,"192":-0.22725816336906296,"193":-0.08779350031822006,"194":0.08808215229020327,"195":0.07239793467597744,"196":0.28465234803600853,"197":0.01339607484378997,"198":-0.0006190332275526557,"199":0.025595462088511864}},{"sx":5,"sy":5,"depth":8,"w":{"0":-0.12818392469611983,"1":-0.10565109831592838,"2":0.012731400882081648,"3":-0.03785426404333891,"4":0.07235867875122008,"5":-0.12187858660141519,"6":0.04661078147329579,"7":0.019041758907115163,"8":0.021760463905174547,"9":-0.12253185031939265,"10":0.01113238549846611,"11":0.0817813143180849,"12":0.06695344424829684,"13":-0.08793981627444095,"14":0.09164848857382378,"15":0.1151439791801963,"16":-0.0947047343544909,"17":-0.04391683320043288,"18":0.01693394705241469,"19":-0.006721370217801291,"20":-0.00582824583207245,"21":0.08846316553193671,"22":0.0051090044138250275,"23":0.06390677787283336,"24":-0.1017797459115265,"25":0.07215169898448717,"26":-0.06134211299447293,"27":0.006234559810595634,"28":0.07893696241490963,"29":-0.019378281754608824,"30":0.00017088563146237432,"31":-0.1539230263166599,"32":0.0582457229203426,"33":-0.056211032808796205,"34":-0.1395031351544846,"35":0.03419972069487506,"36":0.018518620096464756,"37":-0.12508297574961458,"38":-0.04197043623515585,"39":-0.0013907596532865645,"40":-0.23988679955889652,"41":0.027608402208995957,"42":-0.04527868035928362,"43":-0.1224589671220409,"44":-0.05751396443043738,"45":-0.21282227778816448,"46":0.18112132981420226,"47":-0.06884374497215515,"48":-0.23570312677621857,"49":0.0541464854790627,"50":-0.04793809057824096,"51":0.1466887005683463,"52":0.030604297428014102,"53":0.025109712982279056,"54":0.22823436165986,"55":0.1981939100375605,"56":-0.243954981833936,"57":-0.11996866796094399,"58":-0.06213819237549543,"59":0.15938097493147563,"60":-0.14335694203020075,"61":-0.04185966270566623,"62":0.18568078423642903,"63":-0.047836391125236175,"64":0.03150193091163857,"65":0.04280882071942109,"66":-0.2836846532351335,"67":0.03544179864282415,"68":-0.05450972856209563,"69":0.07674976920931043,"70":0.1114223373468755,"71":-0.1050219908831973,"72":0.25154040146212675,"73":-0.20665874159545536,"74":0.04711821374074451,"75":-0.0695742132949037,"76":0.03183623013377883,"77":0.11078244525549569,"78":0.05730760848989726,"79":-0.08114215081996964,"80":0.0296526081667628,"81":0.05014269485899602,"82":-0.04428722568991112,"83":-0.02357702186406301,"84":0.026404211385889772,"85":-0.24984378080322667,"86":0.02371663994711464,"87":-0.018224829014690996,"88":0.16972604287460677,"89":-0.10309392910551562,"90":-0.08176415544160058,"91":0.09009809714511031,"92":-0.026774330258024802,"93":-0.070420882898997,"94":-0.005226090125254165,"95":0.09324264128085516,"96":0.039869198716942465,"97":-0.1148088111930274,"98":-0.016321871504677024,"99":0.23646485067990747,"100":0.012011027682802669,"101":-0.17615338088236526,"102":-0.04524692733637327,"103":0.14761397459638634,"104":0.27726289584607594,"105":0.0605567871307382,"106":0.018502517741677334,"107":0.02260408729580381,"108":0.006563743597204629,"109":0.12427338025801235,"110":-0.14011068052819345,"111":0.05889112163363896,"112":0.24115821654908698,"113":-0.09103060171760308,"114":0.12336525173178131,"115":0.21057482652930645,"116":-0.03481683367186172,"117":0.3378677129430662,"118":-0.06311109183262206,"119":0.016755956691067046,"120":-0.04865513802996094,"121":-0.10324821614520008,"122":-0.06573318076695496,"123":-0.17884517269140493,"124":-0.07949121753997312,"125":-0.06710742800854341,"126":-0.0720005648393834,"127":-0.08855989017904525,"128":0.04478108222381018,"129":-0.1324983895366081,"130":-0.11068420869170177,"131":0.02776588734388934,"132":0.010769304444008613,"133":-0.25703424926273194,"134":-0.058885586097526844,"135":-0.09369803935693416,"136":0.03266600931617022,"137":0.045567874651380146,"138":-0.19704925630808334,"139":0.24379962397191188,"140":0.14145118906196202,"141":-0.15368984362441174,"142":-0.19140200326052692,"143":0.2101056036008954,"144":-0.0013704391880358356,"145":-0.03170326645859398,"146":-0.2161308722067889,"147":0.08995776590243372,"148":0.38681569704344887,"149":-0.02997931473990639,"150":-0.10395352670749966,"151":0.09479750271416724,"152":0.057794347893352804,"153":-0.036621125100474765,"154":-0.3407357171747287,"155":0.14886158489936838,"156":0.1987819704444222,"157":0.11200196942936066,"158":-0.14017109232252314,"159":-0.187923708081031,"160":0.21027570704081547,"161":-0.21497231275862067,"162":-0.015170986302060999,"163":-0.07153863045259774,"164":-0.18272121398287608,"165":0.02744735073816694,"166":-0.22976291576435964,"167":-0.11889738613055566,"168":0.0745294155915198,"169":-0.04543009904481227,"170":0.06962699801585281,"171":-0.22511616375301188,"172":-0.15886973973416912,"173":0.06944354248024166,"174":-0.26018079567971886,"175":-0.0597725120285429,"176":0.28963119237328483,"177":-0.09675609565295845,"178":0.16404358424988594,"179":-0.15573326668225534,"180":-0.11128228641828264,"181":-0.14049872438220312,"182":-0.04611024370831806,"183":-0.08767146197029707,"184":0.06795136270779265,"185":-0.057438226310327536,"186":0.07886432367909586,"187":-0.15127423385093514,"188":0.02050559656807335,"189":-0.006395369041162179,"190":-0.051482270951483305,"191":0.0023995726189561086,"192":0.07056323334826431,"193":-0.09114438163529506,"194":-0.15204449099248715,"195":-0.03359329880609053,"196":-0.034564309827466375,"197":-0.17837061591497455,"198":-0.04440476748485649,"199":-0.11029662756400793}},{"sx":5,"sy":5,"depth":8,"w":{"0":0.05802084363038466,"1":-0.008880621534400694,"2":-0.19923624159913772,"3":-0.006856632949977206,"4":-0.021968870382461876,"5":0.156634306897049,"6":-0.1643982522068658,"7":-0.032763941844172806,"8":-0.2322432536069495,"9":0.05541727286689208,"10":-0.1472543724013102,"11":0.02645032212871665,"12":0.15558036415929072,"13":-0.08115192962725516,"14":-0.22360358896768923,"15":0.04757109244316372,"16":-0.08550304802178843,"17":0.08224455146768385,"18":-0.0829636958036916,"19":0.07069605772329654,"20":0.181657750231934,"21":-0.016105711695062207,"22":-0.11484280330850942,"23":0.1927884987603176,"24":0.04451594520313475,"25":-0.025084898488557793,"26":-0.037982543008551035,"27":0.025433950660238742,"28":0.02699897375022363,"29":-0.041629610815918705,"30":-0.014814649806520586,"31":-0.09620499131382032,"32":0.13051854686242606,"33":-0.10823942678567254,"34":0.0863198520233562,"35":-0.03634950497197084,"36":-0.17429137711871778,"37":0.09073827203603078,"38":-0.010003928822863788,"39":0.02923288152733197,"40":-0.06265818803613932,"41":0.04369794951447442,"42":-0.1566267967563098,"43":0.009561849104081501,"44":0.1154691551923312,"45":-0.17987985328315936,"46":0.005353971991954133,"47":-0.0877663948036911,"48":0.053941289952520365,"49":0.019916855557192886,"50":-0.10754859372058002,"51":-0.11473456067407893,"52":-0.01914662193421446,"53":-0.1808253572411847,"54":0.12984637944455565,"55":0.04565764757159332,"56":-0.10612905037782673,"57":-0.03003500149287769,"58":0.02455939118971041,"59":0.0038629353360819635,"60":-0.020743280878777734,"61":-0.0940379452504297,"62":0.023385224734983258,"63":0.15133980135574393,"64":-0.12009075266033008,"65":0.049276797828531796,"66":0.11756009991604455,"67":0.053036152137446765,"68":-0.04546760659261916,"69":0.1160767284826347,"70":0.1924119165904239,"71":-0.004365884785231691,"72":-0.03079267078577941,"73":-0.07244875152820386,"74":0.13040114888143514,"75":0.087217033441703,"76":0.02693976234443602,"77":0.19481247142709637,"78":0.058762606642804416,"79":-0.08260826648224454,"80":-0.04265817808072555,"81":-0.041483639508192484,"82":-0.17037819233196122,"83":-0.21632886287618608,"84":-0.06339566546958364,"85":-0.18016217070793292,"86":-0.11756274350952288,"87":-0.15354873013882173,"88":-0.10919247082128869,"89":-0.05517044303134491,"90":-0.20192135286373,"91":-0.22696223543145155,"92":-0.1722893177076858,"93":-0.16791634521646526,"94":-0.13662180763736706,"95":-0.17382207304671007,"96":-0.014867253635977148,"97":-0.012035361810004787,"98":-0.016316747005701616,"99":-0.004955315195010727,"100":-0.027368609217176175,"101":-0.19468809254631478,"102":0.14101392178577996,"103":-0.0019340462694298437,"104":0.03428278632260672,"105":-0.0215593043296605,"106":0.003513871173058216,"107":0.11849552307410648,"108":0.02506653851579718,"109":-0.17168702422222634,"110":0.09270789216026812,"111":0.01689762265215681,"112":0.01870703011114831,"113":-0.058271997858247104,"114":-0.13337409561789895,"115":0.06442077798526429,"116":0.16434695199542904,"117":-0.08199321893613488,"118":-0.13829951455630862,"119":-0.008272099717966701,"120":0.3644227139515156,"121":-0.032633808402748335,"122":0.019896607881874237,"123":-0.20770845700714208,"124":-0.11773810418167081,"125":0.08158345694090277,"126":-0.09949054020200877,"127":-0.09683587504230601,"128":0.1900162585119384,"129":-0.045670034786462935,"130":-0.1270708920036521,"131":-0.27607423003111836,"132":-0.24866332105602204,"133":-0.07085680412314527,"134":-0.2425226287144666,"135":-0.1521448749396771,"136":0.11338248205012709,"137":0.020939246277460292,"138":-0.22755674888620264,"139":-0.04710413391583938,"140":0.0006998174564081788,"141":-0.22826875657582632,"142":-0.028768967469797364,"143":-0.030898665570868337,"144":0.23065637504680198,"145":-0.10848640060273464,"146":-0.17534600746752357,"147":-0.037330295314303784,"148":-0.15639776414347636,"149":-0.21617178692500152,"150":-0.3252505144391852,"151":0.07697279291400516,"152":0.06036651119965215,"153":-0.057373458417324004,"154":-0.11522525391646113,"155":0.05662761415425463,"156":0.15439357608711465,"157":-0.28782427937315513,"158":-0.24770641448155697,"159":-0.1636494265267563,"160":0.15095164611021578,"161":-0.06929904423651084,"162":0.19613609300462972,"163":-0.08384597695180845,"164":-0.07085119253684743,"165":0.29949812611609533,"166":-0.09851271372634358,"167":0.10180949412463759,"168":0.22424666030921733,"169":-0.13912086538381985,"170":0.33377422471688933,"171":-0.06372801625116169,"172":-0.2029264359803467,"173":0.14541900370573577,"174":-0.16086914560865676,"175":0.007992506455287537,"176":0.24111671054699005,"177":-0.11456091718700259,"178":0.17989151414192103,"179":-0.0028658102938158327,"180":-0.29221227605479594,"181":0.0719017539342655,"182":-0.11943867635347277,"183":0.0025411018869637763,"184":0.40472292903788576,"185":-0.3009451190717458,"186":0.1932396712059209,"187":-0.09775653262295778,"188":-0.3085679834826218,"189":0.13766973143159505,"190":0.0011712946317094107,"191":0.16778553692041423,"192":0.15103649770905425,"193":-0.31544365379612876,"194":0.06339094602444492,"195":-0.18440801526633596,"196":-0.1507036250609853,"197":0.13264627014287134,"198":-0.11495982589906001,"199":-0.0712396075454164}},{"sx":5,"sy":5,"depth":8,"w":{"0":0.10047837636675305,"1":-0.027241520959813394,"2":0.1197207835262796,"3":0.0759863956015973,"4":0.13078454022660818,"5":0.002575568389185391,"6":0.13761473498209148,"7":0.058749771998051564,"8":0.042026658748250026,"9":0.0708252656274215,"10":0.028466093060041726,"11":0.16120897017064903,"12":0.196742556004737,"13":0.12287327583263563,"14":0.09228797956384639,"15":0.02781538451525343,"16":0.00796332375608327,"17":0.023553027198409616,"18":-0.1236183721125103,"19":0.033204242540607116,"20":0.1802330694488687,"21":-0.14178344497971235,"22":0.01671728201347702,"23":-0.03416429209564361,"24":-0.09904057730131832,"25":-0.10665806366445588,"26":0.14394606929104195,"27":-0.28496104777076503,"28":-0.07895602976628946,"29":-0.24417395357607452,"30":0.06638914307257908,"31":0.06391073279188086,"32":-0.03682064628242201,"33":-0.08091576439324202,"34":0.05200480633410087,"35":-0.18184887524007387,"36":-0.21862692549997298,"37":-0.0026115900121227937,"38":-0.1110253395051841,"39":0.1349762531216553,"40":0.28618642578821224,"41":-0.08541364111490493,"42":0.03667644122781849,"43":-0.021769295027802518,"44":0.05738042897517708,"45":-0.14000108558879928,"46":-0.11226458459362021,"47":-0.1505428219665672,"48":0.05846856609002031,"49":0.07615867239615023,"50":0.0464285618406381,"51":0.07738160625980846,"52":0.1828145816554324,"53":-0.05986228221827491,"54":0.0007357659489189727,"55":-0.0013651483489445274,"56":-0.04285398962861506,"57":0.022698240306334154,"58":-0.02763191579113241,"59":-0.09164113919389391,"60":0.016672161232495375,"61":-0.10204661837731377,"62":0.1623824644834119,"63":-0.019294865712408106,"64":-0.21149356768646443,"65":0.054877616285883064,"66":0.06881177842103059,"67":0.0016778919628884505,"68":-0.1349082217865055,"69":-0.020325750936272303,"70":0.07201953099388114,"71":-0.07211240689548189,"72":-0.2468869152530243,"73":0.036908853409900244,"74":0.08052868420346726,"75":-0.028606911756741727,"76":-0.27787589256943285,"77":0.029195867079639053,"78":0.1209350608684271,"79":0.09804105998611319,"80":0.13845650366561882,"81":-0.2129384179815811,"82":0.10794106590473843,"83":-0.08946328067844589,"84":-0.13934450321434047,"85":0.15044185877702146,"86":-0.12773341641749392,"87":-0.008895352067443425,"88":0.2669450185322935,"89":-0.1702291053117094,"90":0.019071312095589755,"91":-0.003237025722333031,"92":-0.2960649024775001,"93":0.12876788778933768,"94":0.0068998729351665905,"95":-0.12295141610986444,"96":-0.004130938937155631,"97":-0.18385736416826942,"98":0.058049097056968244,"99":0.01053093855785726,"100":-0.09525949054138338,"101":0.1526331384973286,"102":-0.01736147361045369,"103":-0.11627371596383294,"104":-0.14417673310236626,"105":-0.03212339348370684,"106":-0.03753509548732758,"107":-0.06079972891250726,"108":-0.19227998401441249,"109":-0.0486455807503323,"110":0.002589895450771403,"111":0.06296105359258844,"112":-0.0576659797525573,"113":0.04186994873494763,"114":0.017396692311741943,"115":-0.0643233057968057,"116":0.08313576805271924,"117":-0.14481123661529094,"118":-0.024451040495154938,"119":-0.016807702990843824,"120":-0.030409425326191293,"121":-0.03541849256308762,"122":-0.17388766799882394,"123":0.033675811365569124,"124":0.029747911636570826,"125":-0.044209528195720375,"126":-0.05384622830612249,"127":0.1484383309570941,"128":0.16580787628673377,"129":-0.0042897604206504295,"130":-0.014110227879531874,"131":0.06348240033158628,"132":-0.13599822437249065,"133":0.062344929517828274,"134":-0.175970365317956,"135":-0.06349396828246893,"136":0.09743657210291908,"137":0.14395750038982527,"138":0.07129949667359377,"139":0.024856306575144753,"140":-0.17003262423335933,"141":0.0697279682453845,"142":0.17185875237656228,"143":0.0930896953492589,"144":0.04794603786462861,"145":-0.037256550642111995,"146":0.02183367719129475,"147":-0.03756520308998263,"148":-0.17140635410934574,"149":-0.056809086125580714,"150":0.08330901826091783,"151":0.10816688578701336,"152":0.05073194423147225,"153":0.03305252493441824,"154":-0.0036793588851751504,"155":0.01777091418065157,"156":0.058203812866011666,"157":-0.11135309854729783,"158":-0.042408140333422085,"159":-0.1572045667660353,"160":0.12309121163360753,"161":-0.00007044771747063971,"162":-0.06145287441169476,"163":0.0740879973162701,"164":0.17330506560811315,"165":-0.06353115947773272,"166":0.013435170989277405,"167":-0.0963911132474881,"168":0.09216537384306045,"169":-0.16538689506646923,"170":-0.13303002219324622,"171":0.0985068821929493,"172":0.08749503596587285,"173":-0.10470283438602641,"174":-0.0015508819792666084,"175":0.14309428778242367,"176":0.030310359045796532,"177":0.03604076026010114,"178":-0.0037223795219646833,"179":0.15235517616420544,"180":-0.045398574055452556,"181":0.23408432689017103,"182":-0.04506674112354307,"183":-0.036988509300688324,"184":-0.030245386356746368,"185":-0.05266497975679359,"186":-0.01733372795862883,"187":-0.060195529953406456,"188":-0.08423725762006667,"189":0.07865892670798798,"190":-0.19325718361853678,"191":-0.044458297378774866,"192":0.08685881164244749,"193":0.050943426164912986,"194":-0.05674683757936719,"195":-0.14154028859020334,"196":-0.02638765986815196,"197":-0.08145643280747342,"198":-0.028473108482923545,"199":-0.11775968050435269}},{"sx":5,"sy":5,"depth":8,"w":{"0":-0.006444065237843144,"1":-0.17872712954738168,"2":0.11072998915290337,"3":-0.1093909590526709,"4":-0.25785737748401283,"5":0.2380583903315655,"6":0.3093016321020823,"7":0.09518982949120607,"8":-0.02922543771188537,"9":-0.09150402813932702,"10":0.09627212495332677,"11":0.12200602573897656,"12":-0.0686730889411277,"13":0.19062241783809175,"14":0.2971634453811916,"15":0.10348630821656384,"16":-0.17620975756460194,"17":0.08367400851166644,"18":-0.11038530718897949,"19":0.1979425645065835,"20":0.1375505161195786,"21":-0.011192194267965184,"22":0.0834590948974448,"23":-0.17446773601805732,"24":-0.1560109686994382,"25":0.4137557216123515,"26":-0.22663621307740708,"27":-0.053411571554501436,"28":0.23720523710258723,"29":-0.30557701922419805,"30":0.17760983244271553,"31":-0.10501733295051341,"32":0.09469992890902065,"33":0.20807186939295993,"34":0.14439123485653926,"35":-0.27776348051616695,"36":-0.09097052888535608,"37":-0.20852027694935796,"38":0.10916454645896248,"39":-0.017281920323487285,"40":-0.0898020447427079,"41":-0.03575193362385947,"42":0.13094649520462787,"43":0.1903690844755223,"44":0.041887986710045906,"45":0.29449565449516835,"46":-0.09754375036550406,"47":-0.3171907912685818,"48":-0.18041812338183374,"49":-0.08038611006478776,"50":-0.13454084701480762,"51":0.10962982815800465,"52":0.2794499670977263,"53":0.045807354953735724,"54":-0.059005264023635824,"55":-0.06974545254072947,"56":-0.14120423863092957,"57":0.06759840711975476,"58":-0.05508235379169218,"59":0.07867720444733013,"60":0.23596319145455802,"61":-0.2686099252866921,"62":0.04443617393121523,"63":-0.09626400554503517,"64":0.02943013411601612,"65":0.23585530634803692,"66":-0.034802439475344435,"67":-0.15455859510076678,"68":-0.10184184171623346,"69":-0.10286021073199768,"70":0.18295590793297803,"71":-0.016629076044037783,"72":-0.0746273094169264,"73":-0.005756071677367276,"74":0.08691668231083542,"75":-0.21107698346938872,"76":-0.25580587763025264,"77":0.04615340540682689,"78":-0.05943276917468535,"79":0.059718861197431236,"80":0.017069655343618546,"81":0.06419578044071479,"82":-0.24439397439144184,"83":0.0423959952310756,"84":0.08039121802417143,"85":-0.16999971739441652,"86":-0.27350253186925794,"87":-0.09597619804095335,"88":0.2117437632475018,"89":0.11703246668129848,"90":-0.0850663849877512,"91":-0.04611639495464923,"92":-0.015075233632062953,"93":-0.3360270907152046,"94":-0.08158451876002482,"95":-0.028498314637102968,"96":0.039590826426801916,"97":-0.0704570497630294,"98":-0.06409045575740613,"99":-0.036108147500568503,"100":-0.11336602226927361,"101":0.04941371667301429,"102":0.022534535547705296,"103":-0.035482834240460524,"104":0.13092482200763267,"105":-0.037121126102832774,"106":0.040004131664641895,"107":-0.04834238151392712,"108":-0.22896148650926818,"109":0.008938885119639944,"110":0.12529541806555625,"111":-0.02885724113859742,"112":0.040848053970653345,"113":-0.15877773670328685,"114":0.08251747205708214,"115":-0.17541847948522615,"116":-0.0779207619857272,"117":-0.0352283878970259,"118":-0.08760156813315541,"119":0.06706713745252758,"120":0.02687990844978807,"121":0.15307075738955594,"122":-0.3029452625524313,"123":0.16481433771718204,"124":0.11851542607316802,"125":-0.1549702171717178,"126":-0.0808915570367466,"127":0.15648882313132295,"128":0.15513571065015067,"129":0.0804394734933592,"130":-0.11490594348443396,"131":0.049457637079535814,"132":-0.09129034643919136,"133":0.10217132590113508,"134":-0.16628643624324918,"135":-0.025350304322419775,"136":0.08497111497911018,"137":-0.11635915329953898,"138":-0.13858058537608908,"139":-0.03190088735997369,"140":-0.1936087232685825,"141":0.027323810055459793,"142":-0.014657776572048217,"143":0.008948036958458484,"144":-0.0069900619571719716,"145":-0.14449210252470585,"146":-0.016419387375379572,"147":-0.07701715834272685,"148":-0.1324703222466264,"149":0.06269265343035395,"150":0.024583617023835054,"151":0.05997990413121993,"152":-0.14147229618443105,"153":0.011001210681313848,"154":-0.05022335973231525,"155":0.09972586299576103,"156":-0.05125043600537195,"157":0.03039551181098922,"158":-0.0535129129486935,"159":-0.061600266244788704,"160":-0.03810268370649325,"161":-0.20421338129374178,"162":-0.11453446631264642,"163":-0.0358336315575972,"164":-0.13525369699036718,"165":-0.12484203575831489,"166":-0.08272850792032915,"167":0.0461980152550599,"168":-0.058688883731580384,"169":0.0654951925890804,"170":-0.11388127826153929,"171":0.10296025627170136,"172":-0.15346771722116645,"173":-0.09880306637209207,"174":-0.19552515138155702,"175":0.15015916972918966,"176":-0.052048040922854276,"177":0.05412063000227328,"178":-0.03269938682787276,"179":-0.07036464492203412,"180":-0.1366971250912564,"181":0.13846204028766806,"182":0.043111842172297056,"183":0.1328469248987663,"184":-0.09248051127188846,"185":-0.01754047795381115,"186":0.0993550931937295,"187":0.11938388491771573,"188":0.012158285542952263,"189":-0.01375769073356576,"190":-0.08175662635225342,"191":-0.07331179859542405,"192":-0.03525788754955782,"193":0.049340708730188636,"194":0.07500101934720149,"195":0.11600757789184608,"196":-0.019779795597735836,"197":-0.19497857698157187,"198":-0.0030778339733920235,"199":0.02915139954924003}},{"sx":5,"sy":5,"depth":8,"w":{"0":-0.06770200004553793,"1":0.03963079315018666,"2":-0.07327676166862032,"3":-0.026242029378711364,"4":0.143963977542124,"5":0.037258248132430685,"6":-0.1097173247936811,"7":-0.09833669622298637,"8":-0.010793838664360688,"9":-0.14965079511916943,"10":-0.019514705665340495,"11":0.01131434946323145,"12":0.14928648585467652,"13":-0.04837000356117237,"14":-0.050797087566647685,"15":0.007180700431422574,"16":0.1807308768406313,"17":-0.10254582580193373,"18":-0.07189792351932739,"19":0.008981013153532754,"20":0.11153718455954435,"21":0.17879475503053713,"22":-0.008024957600348506,"23":-0.17179341105421828,"24":0.08278563220727797,"25":-0.2203130370222802,"26":0.13352542021321498,"27":-0.042375964004402016,"28":-0.13998534144221259,"29":0.16486347432100076,"30":0.05205593961560973,"31":-0.10784340744853013,"32":0.09030024180436415,"33":-0.3392288486070026,"34":0.3524840594780998,"35":-0.05821301629565376,"36":-0.20266962255664187,"37":0.20284794383596638,"38":0.08340217001878206,"39":-0.02979139644742877,"40":0.07120414961118296,"41":-0.07923064923022403,"42":0.13572021997245087,"43":-0.0029716262531471384,"44":0.07508220524797826,"45":-0.16663314389031827,"46":-0.02920457562837008,"47":0.07168800544482483,"48":0.0012767171052473797,"49":-0.2245399145508052,"50":-0.06311489761858796,"51":-0.0672516961430163,"52":0.1317409906911822,"53":0.07672838042857984,"54":-0.11212903024342145,"55":0.12434057690841116,"56":-0.07787525327363828,"57":-0.06422106076995314,"58":0.011752589585667272,"59":0.07976003575472891,"60":0.07342238397122901,"61":0.08239866092516981,"62":-0.1605497527334854,"63":0.06699802685192922,"64":-0.046766068958271914,"65":-0.19410369233942687,"66":-0.29900260174955473,"67":0.18002518881011256,"68":0.13718010674293749,"69":-0.014146120255875916,"70":-0.2788141943677027,"71":0.1442488121269654,"72":-0.0858167569872635,"73":-0.3235640255215584,"74":-0.0443972234049521,"75":0.14785530273794248,"76":-0.04490346785526803,"77":0.0053294982882604565,"78":0.10325221764596855,"79":0.032887553219367205,"80":-0.10107155882176824,"81":-0.14781551596953318,"82":-0.0874360494748798,"83":0.02159912611395588,"84":0.09025853597000996,"85":0.00994515712349508,"86":0.0601478322565109,"87":0.03745008314498218,"88":0.008034606001646492,"89":-0.1069257364503564,"90":-0.07739061661524747,"91":0.029954622982787556,"92":-0.07444207026488837,"93":-0.11709319438839251,"94":-0.08786920915362059,"95":0.0010198755591510835,"96":-0.017844437513948496,"97":-0.22162610500909588,"98":-0.23086054085107016,"99":0.050032322727020746,"100":0.137578706615745,"101":-0.10355727034499282,"102":-0.026926029462330425,"103":0.011120029997469333,"104":-0.12342141653456726,"105":-0.16487882528046927,"106":-0.2394240384305545,"107":-0.05980005258494908,"108":0.055468365854069855,"109":-0.26194425495166507,"110":0.1835401426690116,"111":0.22271410219116944,"112":-0.3722429556756336,"113":-0.2266460614450141,"114":-0.08205468658050383,"115":0.056830836851341736,"116":-0.06378791383927108,"117":-0.04938916873245002,"118":0.01498443821833077,"119":0.16879731658585945,"120":-0.10922498892934138,"121":0.02040681613691301,"122":-0.05745343967543065,"123":-0.14126470078315004,"124":0.1993495491209517,"125":-0.00043015346777867876,"126":0.01947704263574902,"127":0.08732924727342853,"128":-0.015070233604697732,"129":-0.06358744484416284,"130":0.06191006456653493,"131":-0.1036512094908304,"132":-0.0116219135334333,"133":-0.23124798222977974,"134":0.13563029667908652,"135":0.03620777366564069,"136":-0.17946441615566852,"137":-0.20432118053238982,"138":0.1634598932609757,"139":-0.13328458405237717,"140":-0.1443826504751834,"141":-0.15052764188179904,"142":0.12084657371742541,"143":0.07270103800338755,"144":-0.26564756416193347,"145":-0.09242613650012885,"146":0.07848972673644704,"147":-0.07746894924670049,"148":-0.13108027352015175,"149":0.030433577046463985,"150":0.04447127495268211,"151":0.12350016631866705,"152":-0.32340599891610183,"153":-0.05401870153845361,"154":0.03992410373426652,"155":0.03984487339239287,"156":0.1064677855722441,"157":0.07137560285553367,"158":0.20751196869517405,"159":-0.06816967435415844,"160":-0.11946452278527582,"161":0.08109395840362009,"162":-0.11334244800996741,"163":-0.1629643076207726,"164":0.00362137432475588,"165":-0.14345446297913822,"166":-0.008513540614317985,"167":-0.08134671879389617,"168":-0.13295813120415992,"169":-0.054982746370311496,"170":-0.03226757152722887,"171":-0.018165717686389526,"172":-0.14467506570305558,"173":-0.09000077030725162,"174":0.20861749485778994,"175":0.14277459265434925,"176":-0.1701032292368305,"177":-0.2267291445273932,"178":0.3286486425345833,"179":0.053040043128829185,"180":0.015254789500581836,"181":0.1134681837031957,"182":0.13038158198036784,"183":-0.049760389122328254,"184":-0.37055265804770876,"185":-0.11327670749973981,"186":0.04320930983592207,"187":-0.035071061006344405,"188":-0.01761641256938982,"189":0.060999237067226306,"190":0.18682543262092088,"191":-0.0822256214964057,"192":-0.2556432026242055,"193":0.07412637406030426,"194":-0.21147753854385454,"195":0.04495638603076707,"196":0.08516665193817116,"197":-0.05454414340191554,"198":0.031075395028989688,"199":-0.1977520353443076}},{"sx":5,"sy":5,"depth":8,"w":{"0":-0.2017240979352573,"1":0.22160393523842592,"2":-0.1575197440660993,"3":-0.07476775302803891,"4":-0.15077276344809445,"5":-0.05104391758492575,"6":-0.04832512842151707,"7":-0.06079157711570086,"8":-0.07759966962862787,"9":0.17976403607196464,"10":0.08092201918021541,"11":-0.30890918971592124,"12":-0.1541850844888127,"13":-0.2049720963919838,"14":0.17617277203879433,"15":0.17357579551323782,"16":-0.2200374197920331,"17":-0.07472185847499832,"18":0.20617344486381814,"19":-0.01428690373521182,"20":-0.006697924794919378,"21":0.06180658275653381,"22":0.16021433325266923,"23":0.12764349974360303,"24":-0.362668275857347,"25":-0.1105543062197717,"26":0.13095747064647956,"27":0.09697095114053222,"28":-0.1596689136135885,"29":0.05776377945819367,"30":0.10862486604640025,"31":-0.02833782534002303,"32":-0.2801829372889012,"33":0.16125421061910325,"34":-0.08128609971426584,"35":-0.032216861660304935,"36":-0.08924922364693469,"37":-0.2773033368680047,"38":-0.007815195564218731,"39":-0.08811903348929227,"40":0.1189809144473726,"41":-0.026036594254593773,"42":0.07113501321341385,"43":-0.1899628766557386,"44":-0.15188364529887272,"45":-0.13194034640746036,"46":-0.04358678223422542,"47":0.10494708476834241,"48":-0.1139143727663723,"49":-0.13855128780813028,"50":0.09322690081930574,"51":-0.024408010211249526,"52":-0.2114007853179879,"53":0.07226593204145765,"54":0.05550964253537401,"55":0.1590064156906454,"56":-0.059608807284665034,"57":-0.08725936106816504,"58":0.15369397448225658,"59":0.022922582691580977,"60":-0.025302386242715528,"61":0.14992699623610764,"62":0.056425395662822043,"63":0.05473047697687273,"64":-0.08412107834570243,"65":-0.06345249441345985,"66":-0.10498919495284038,"67":0.1555934337825936,"68":0.014494294303047377,"69":-0.028793225934904493,"70":-0.026300428472503645,"71":-0.07107416043193265,"72":-0.20841339903088188,"73":0.18441745061914122,"74":-0.05353640251135732,"75":-0.1054614418783264,"76":0.05104134740382374,"77":-0.15016886960581988,"78":0.17924860806366597,"79":0.06781323327120226,"80":0.05435622121675422,"81":-0.006260521732605628,"82":0.13399971978362699,"83":-0.12007925576229853,"84":-0.009749640023057223,"85":0.06479206907773212,"86":0.07229617537221517,"87":-0.12205685350268543,"88":0.0190208071224241,"89":-0.009851221949465961,"90":0.1305429160591001,"91":-0.10936114176647202,"92":-0.034103726182399964,"93":0.03915486160142011,"94":0.09496726219292534,"95":-0.010820348593305884,"96":-0.0759640482776763,"97":0.036654693243104296,"98":0.19848206900048787,"99":-0.08993590422002379,"100":-0.07633183188037274,"101":0.06723691478887715,"102":0.28730391249436527,"103":0.16150854698783337,"104":-0.1970219125177584,"105":-0.017601961393888105,"106":-0.03971293960151503,"107":0.19966420214318423,"108":0.034435481513137044,"109":-0.21044145409783818,"110":-0.15967627450909821,"111":0.02137645077348789,"112":-0.09050642858030901,"113":0.031640693136428436,"114":-0.13856375061022752,"115":-0.1660837730163592,"116":-0.019547978814472632,"117":0.04032096809333894,"118":0.11061566123618649,"119":-0.1604069617280057,"120":-0.240539390585067,"121":-0.07587251022159311,"122":-0.02441019706313605,"123":0.0018185918311485723,"124":0.0511407147244806,"125":0.03762283467427889,"126":0.04335649648801153,"127":-0.05351793804324375,"128":-0.09746299044234252,"129":-0.12027961654720243,"130":-0.13813185356479477,"131":0.04005493013448451,"132":-0.15178285892871668,"133":0.22684441638792704,"134":-0.16920483812679582,"135":-0.06333206658804319,"136":0.01999256974103863,"137":-0.044196347304892976,"138":-0.19060218121364914,"139":-0.03172765396908739,"140":0.0024455871903003613,"141":0.047816372048214505,"142":0.0366932426986449,"143":-0.06095498737417844,"144":-0.10198092400048807,"145":0.07922982009191917,"146":-0.25221643931043847,"147":0.00609873357892953,"148":-0.03606167534482462,"149":-0.02837221421868239,"150":-0.054293503170676605,"151":-0.11596364182560254,"152":0.08549977374698516,"153":-0.06879779270665734,"154":-0.0010837535807162668,"155":-0.2728986978398954,"156":-0.15474578396084832,"157":0.2671942436452573,"158":-0.05282266317294489,"159":-0.26870238848396083,"160":-0.09485566649126777,"161":0.06869775150762661,"162":-0.10001143325470352,"163":0.087222971637655,"164":0.23323779340177309,"165":-0.09421306421400485,"166":0.17505083305190816,"167":-0.07496236531356319,"168":-0.09704111696460084,"169":0.06425367036946074,"170":-0.0972585269160238,"171":0.05291267989214552,"172":0.04322568195772431,"173":-0.15244139360839049,"174":-0.1898606388332937,"175":-0.007675182136961724,"176":-0.018830951398622762,"177":-0.029550781996672416,"178":-0.06362162671621649,"179":-0.039365551933824836,"180":0.1425384739124684,"181":0.03774194910927243,"182":-0.10667720608685173,"183":-0.13639433377632904,"184":-0.05118560392189838,"185":-0.01948362222219038,"186":-0.15054819493210353,"187":0.0049065509307988295,"188":0.0019173125244592026,"189":-0.03952837579788893,"190":-0.07332600065717158,"191":-0.07766051022537694,"192":0.17942089255083607,"193":-0.15885386560984593,"194":-0.20789300800389876,"195":-0.07993054206574532,"196":0.1572368190826598,"197":0.11909341673564251,"198":-0.28498001334205697,"199":-0.15482239561165784}}],"biases":{"sx":1,"sy":1,"depth":16,"w":{"0":0.0014257493080631345,"1":0.059979852602218435,"2":0.08370362941671892,"3":0.058484700535609065,"4":0.019304496620632716,"5":-0.044819099410499885,"6":0.0010168982597018562,"7":0.024209553061644573,"8":0.0008545324483882977,"9":0.02930357092728058,"10":0.018626354106501347,"11":-0.010440219564574763,"12":0.0032265409619228395,"13":0.0045996117228006865,"14":-0.03554121142266366,"15":0.03943191279395304}}},{"out_depth":16,"out_sx":12,"out_sy":12,"layer_type":"relu"},{"sx":3,"sy":3,"stride":3,"in_depth":16,"out_depth":16,"out_sx":4,"out_sy":4,"layer_type":"pool","pad":0},{"out_depth":10,"out_sx":1,"out_sy":1,"layer_type":"fc","num_inputs":256,"l1_decay_mul":0,"l2_decay_mul":1,"filters":[{"sx":1,"sy":1,"depth":256,"w":{"0":0.006776301723640987,"1":-0.07898633413222728,"2":0.005102222430889546,"3":-0.0498801464584418,"4":-0.03604005172745749,"5":-0.004133784206425058,"6":0.07440281855675605,"7":-0.06491312689822976,"8":-0.033546297882210856,"9":0.016528251509030388,"10":0.060806938651016794,"11":0.04116668028354769,"12":0.032631895854950424,"13":-0.0347800991075267,"14":-0.011918818516003944,"15":-0.07010840453746132,"16":-0.17686082206972262,"17":0.03098161915048184,"18":-0.08135404064354947,"19":-0.06152183204846075,"20":-0.113719640793343,"21":0.03018063705928809,"22":0.03157625742851408,"23":-0.0637855072579209,"24":-0.12338674599536187,"25":-0.0488316173181957,"26":-0.09843910360096733,"27":-0.025996074059792398,"28":0.055052877219404425,"29":-0.039053992045453914,"30":-0.1279373485321819,"31":0.022382590593174354,"32":-0.03077857748558535,"33":-0.039268379990496705,"34":-0.04289216701960239,"35":0.04343885289965435,"36":0.014487701911949435,"37":-0.0003963660301162004,"38":-0.010040982382053549,"39":-0.16731171810079223,"40":0.000023393460302588435,"41":0.03649502348508327,"42":0.00604642800753476,"43":-0.03295301350888678,"44":-0.046191856962750695,"45":-0.01732785337710458,"46":-0.09034302870528749,"47":0.017146546229484874,"48":0.11354042639854349,"49":-0.13633099354409103,"50":-0.029793004640111927,"51":-0.036925193238811965,"52":-0.016611204471270725,"53":0.009934117740284286,"54":-0.004528881393297208,"55":-0.06561041914613266,"56":-0.04120331424772956,"57":-0.12513284386354467,"58":-0.1207577042435544,"59":0.03906227419072935,"60":0.08641276772539766,"61":-0.0070857654068551485,"62":-0.08209274418597151,"63":0.05058329546295376,"64":-0.02007744944008757,"65":0.07424698002666641,"66":-0.1508934321121268,"67":0.15747347644859158,"68":-0.013641221605127422,"69":-0.09042741964231608,"70":-0.03010001773796936,"71":-0.0564592516577252,"72":0.039712897375260015,"73":-0.1534872284287361,"74":-0.0013058581040211084,"75":-0.11580668744123095,"76":-0.00845749198941092,"77":0.03197927831457642,"78":0.058101376207478427,"79":-0.054390088315145246,"80":-0.04859848995150131,"81":0.03545200732366955,"82":-0.010220465635020177,"83":0.09419897720354879,"84":0.05135723368217421,"85":-0.16027928753469647,"86":-0.21460513713706417,"87":-0.09012200293633572,"88":0.05703728923038185,"89":0.09913204162004109,"90":-0.16867923795909126,"91":-0.16633218526707497,"92":0.019992147767500985,"93":-0.12642625743454206,"94":-0.1030242628647169,"95":0.03138891157729717,"96":0.09586584880092551,"97":-0.07357681780821791,"98":0.07354164660914482,"99":-0.02948545916420255,"100":-0.08506543297301175,"101":0.07703644110444363,"102":-0.2569084798324528,"103":-0.08835777947869831,"104":-0.2686650911547462,"105":0.02305404316320193,"106":0.04550226188891985,"107":-0.09758772826750155,"108":-0.19964755804847065,"109":-0.10925314122989864,"110":-0.031149158515667085,"111":-0.05791520704269182,"112":0.10336760287989341,"113":0.04625173180331238,"114":0.1078221005433489,"115":-0.1339866753358467,"116":-0.10804806962931744,"117":-0.03017368855724775,"118":-0.17837300255312669,"119":0.0485022239076114,"120":0.10031355443736485,"121":-0.09790750459292526,"122":0.1486399205341786,"123":-0.21085518103029713,"124":0.010606910470669945,"125":0.09172061995603432,"126":0.1944736336452426,"127":-0.06542583393438194,"128":-0.06168416763765208,"129":0.11669550803175786,"130":0.07951519146271267,"131":-0.16902023257274126,"132":-0.027782425368072548,"133":-0.20352307131640573,"134":-0.31592856359681704,"135":-0.20566815704866942,"136":0.07980566549042988,"137":-0.11530599409248654,"138":-0.07288682730846609,"139":-0.1485667400844598,"140":0.04152873309279255,"141":-0.08769722792609465,"142":0.1429825038753385,"143":0.02331246874778942,"144":0.07028737692560874,"145":-0.10479976769856326,"146":0.014239085251982383,"147":-0.23740707522870175,"148":0.10843188689234466,"149":-0.34197745573705174,"150":-0.07102165859597195,"151":-0.06137079219120187,"152":0.21928684800964757,"153":0.004664162153497942,"154":-0.2511477518374268,"155":-0.14586526064940533,"156":0.062152660300747294,"157":-0.0174978527787478,"158":-0.027195033057830283,"159":-0.027735354096877655,"160":-0.005119518469174128,"161":0.1308625463219817,"162":-0.11651250038955749,"163":-0.02183271047238367,"164":-0.11757677703794145,"165":0.039913218030899415,"166":0.02394021476517952,"167":-0.3674335862355847,"168":-0.3352223135687201,"169":-0.116963100705185,"170":-0.1565462737348144,"171":-0.03583653009066616,"172":-0.05143083432291359,"173":-0.041776615720169885,"174":-0.0210590726335793,"175":-0.07959572870011926,"176":-0.32760979115648947,"177":0.12194979082837719,"178":-0.08223531901677332,"179":0.028313022136717325,"180":0.006372129465839984,"181":-0.005757687497097251,"182":-0.2255167125881629,"183":-0.14386927906982064,"184":0.030835211438605303,"185":-0.05173613679839627,"186":0.26368808747728173,"187":-0.035854863378545265,"188":-0.06695669244108697,"189":-0.34497100391063273,"190":0.09182917693940526,"191":0.08216420926473379,"192":-0.04113206793419816,"193":-0.033069631972267206,"194":-0.031362816161846996,"195":0.0005866232030418689,"196":0.002065145259086441,"197":0.031656500640726636,"198":-0.14927057948770858,"199":-0.048056855824348516,"200":0.13171244138735722,"201":0.0006870262975855711,"202":-0.03539711745222854,"203":-0.11859514200272293,"204":-0.03802974779550304,"205":-0.00530944589503424,"206":-0.053210622487339716,"207":0.011928539072290054,"208":-0.08699529916313616,"209":-0.09474171224866158,"210":0.043025062655034994,"211":-0.10772342944203353,"212":0.03449511813595211,"213":-0.05824935049928678,"214":-0.003688318822643487,"215":0.026525530144239674,"216":-0.1002688471275853,"217":0.12525254860839222,"218":0.07606890756235725,"219":0.013504684669023428,"220":0.06035773634636195,"221":0.1692899600656869,"222":-0.08555259968635219,"223":0.07937672911451871,"224":0.15023915305153296,"225":-0.13165813183505204,"226":-0.24976353335385074,"227":-0.057981275212377725,"228":-0.12231876621144601,"229":-0.10132839984612167,"230":0.1315225187334851,"231":0.09925409329463156,"232":0.07514533405401153,"233":0.025136780131613454,"234":-0.06558587636907877,"235":0.04183939132735909,"236":0.06319719404029517,"237":-0.09012953532805743,"238":-0.09179993384909575,"239":0.08360367621751932,"240":0.07887068427121996,"241":-0.06596589626594598,"242":0.08669798820196085,"243":0.025886020952693684,"244":0.05340394951672428,"245":-0.031814740292665004,"246":0.1846942623076772,"247":0.08305713859803383,"248":-0.08717612057329178,"249":-0.0444961590253365,"250":-0.20732631706864113,"251":0.0327700434451279,"252":-0.060942643617949745,"253":0.14790497166455036,"254":0.0544330647977102,"255":0.1666195115775017}},{"sx":1,"sy":1,"depth":256,"w":{"0":0.007768110120431633,"1":0.05342451834366866,"2":-0.08038140806385938,"3":-0.08458305492973531,"4":-0.06943810438387482,"5":0.016796394055137356,"6":0.1061897328297179,"7":-0.05546881493601242,"8":-0.02604378269659312,"9":-0.059413556528782004,"10":0.035920365276875116,"11":-0.01270199693359068,"12":0.004798902633627713,"13":-0.03474457974100633,"14":-0.11150021816744263,"15":0.00829323570566878,"16":0.05302218478302571,"17":0.09488947709421713,"18":0.18849652325060226,"19":-0.14853459698224566,"20":0.0029207445779781513,"21":-0.09120508182477516,"22":-0.07245076721011752,"23":-0.0007464990159186827,"24":-0.02278366682330336,"25":-0.10080191229401636,"26":-0.04532847969120445,"27":-0.10593975462044433,"28":0.015724157662994794,"29":-0.04635455027192101,"30":-0.06316369165613876,"31":-0.10501856934451063,"32":0.1334699703393958,"33":0.16210707924641293,"34":0.10528225059886753,"35":-0.005749007645735486,"36":0.08163291568781979,"37":-0.03405293162562138,"38":-0.030863674443469834,"39":0.08023116457085665,"40":0.11586121081459423,"41":0.06073440590515353,"42":-0.1441271379539867,"43":-0.22113220795219832,"44":0.01490496621439044,"45":0.11904676714764718,"46":0.09826535233624925,"47":0.026127107611640797,"48":-0.1686565653182391,"49":-0.1083992750385812,"50":0.032049357599249886,"51":-0.043972700295184845,"52":-0.1466585229964394,"53":0.05023954616580681,"54":-0.04133606940183152,"55":-0.1763338838832781,"56":0.16148645598796588,"57":-0.044722094855985925,"58":-0.2529784230027711,"59":-0.05687282719215943,"60":-0.15789478533248674,"61":0.04731142400362617,"62":-0.02750096850318526,"63":-0.1795483084843495,"64":0.02985899227443153,"65":-0.24448817705306855,"66":-0.0704168822286859,"67":-0.06430854071771439,"68":-0.013342810717971058,"69":-0.13673704806847345,"70":0.0019070178955572358,"71":-0.034311939391582925,"72":-0.006334325392541195,"73":-0.0037151396397606387,"74":-0.012744666777568428,"75":-0.010615449358781946,"76":0.0332158342487974,"77":-0.046589120200299844,"78":-0.09165414861316225,"79":-0.11430539410203223,"80":-0.06768991804303023,"81":0.1443464297764001,"82":0.09842245217835749,"83":-0.06152856583541167,"84":-0.02331988011594997,"85":-0.1664992514674021,"86":-0.14373780088322755,"87":-0.007897485275991555,"88":-0.2044766807495689,"89":-0.007462546264666799,"90":0.016480748720406915,"91":0.00044471370772910634,"92":-0.20633375527913075,"93":-0.14459512556488727,"94":0.05567354931741164,"95":-0.08905181363192438,"96":-0.008278294913213245,"97":0.0609801989903805,"98":-0.10804364569373821,"99":-0.025609343863113015,