{"layers":[{"out_depth":1,"out_sx":28,"out_sy":28,"layer_type":"input"},{"sx":5,"sy":5,"stride":1,"in_depth":1,"out_depth":8,"out_sx":28,"out_sy":28,"layer_type":"conv","l1_decay_mul":0,"l2_decay_mul":1,"pad":2,"filters":[{"sx":5,"sy":5,"depth":1,"w":{"0":-0.030882296818434768,"1":-0.18846489421896237,"2":-0.3512343668406426,"3":-0.052393725261579455,"4":-0.4367327956033207,"5":0.06134507099901096,"6":-0.19807357905456838,"7":0.010101273733539546,"8":-0.2852255769813048,"9":-0.49640186016978216,"10":0.49577133500163895,"11":-0.3160860067915265,"12":-0.1820921253609578,"13":0.18641213570754828,"14":-0.18969098247517868,"15":0.5120982847879482,"16":0.4697007287977367,"17":0.0894791154152939,"18":0.0709727263760192,"19":-0.15538188550599372,"20":-0.19450590509543778,"21":0.013123872642836504,"22":0.41080036756908717,"23":0.3810389372980261,"24":0.3716000666329895}},{"sx":5,"sy":5,"depth":1,"w":{"0":-0.19705309576481708,"1":-0.3996111145056056,"2":-0.31395732943222465,"3":-0.018570961244692277,"4":-0.06276546540413272,"5":0.13988184253989927,"6":0.42124754605472287,"7":0.2469259181363369,"8":-0.050992900126534894,"9":-0.0757708773793286,"10":-0.11603572997136787,"11":0.5707532030746622,"12":-0.07177423407928923,"13":-0.4138486573652156,"14":0.144328791342147,"15":-0.016200526363947948,"16":0.4945231378765494,"17":0.25037057716486655,"18":0.6438013774806988,"19":-0.1602477346088704,"20":-0.3676931162904794,"21":0.13104581540251456,"22":0.7585953391334093,"23":0.1334377125565679,"24":-0.23628735383670885}},{"sx":5,"sy":5,"depth":1,"w":{"0":-0.13725836219297535,"1":-0.2852748700369066,"2":0.17135278002019286,"3":0.010995270514473575,"4":0.04988667613463361,"5":-0.5579088958375817,"6":-0.0665259750571946,"7":0.02958603548488758,"8":0.2943869777803693,"9":0.183930306164306,"10":-0.1870075835774462,"11":-0.05023151257614833,"12":0.6708236374854681,"13":0.31634106513917093,"14":0.15128659821071047,"15":-0.07950717805971243,"16":0.2462537415697108,"17":0.20360275045616083,"18":-0.11655073793034156,"19":-0.02335544605273907,"20":0.08408785880406776,"21":-0.026944018159915466,"22":0.06935725179052932,"23":-0.30302150963234403,"24":-0.3616026765831987}},{"sx":5,"sy":5,"depth":1,"w":{"0":0.06661679346700695,"1":0.21148964611614318,"2":0.32541040982299024,"3":0.4511386967135907,"4":0.4918078480928644,"5":-0.5317725476364572,"6":-0.2195842132990359,"7":-0.011663376985105178,"8":-0.19698301936822515,"9":0.35531749048163824,"10":-0.19245580088912573,"11":-0.4710226103473465,"12":-0.3054570199963837,"13":-0.11210047353489605,"14":-0.21974550929577558,"15":-0.36569380939485896,"16":-0.44608634200659325,"17":-0.674887310544694,"18":-0.6076913424505639,"19":-0.33001126659836455,"20":-0.18838141887543244,"21":0.34045570993119495,"22":-0.006226029372795383,"23":0.28387943286158146,"24":-0.21126115938076415}},{"sx":5,"sy":5,"depth":1,"w":{"0":0.11582339743222816,"1":-0.4189766288801605,"2":-0.11465238965606489,"3":-0.17902787770614592,"4":0.034408342482622686,"5":0.4314858692554489,"6":0.2415532399617901,"7":-0.21394553746880005,"8":-0.5563287062910391,"9":-0.47889673953461853,"10":0.2975722573158593,"11":0.18243953046402858,"12":0.12267379206461787,"13":-0.23582668711883834,"14":-0.06499378360707285,"15":-0.16374946553694722,"16":-0.24879881592985825,"17":-0.2320117906483528,"18":0.20911446364379002,"19":0.31761094295468684,"20":-0.43256139687158135,"21":-0.18153383795969721,"22":-0.07965233734965643,"23":0.11346945739641319,"24":0.2821674088999156}},{"sx":5,"sy":5,"depth":1,"w":{"0":0.5338489238868477,"1":-0.12493684521021699,"2":-0.59635125757241,"3":-0.571609925146329,"4":-0.01412008509710726,"5":-0.38875558618853506,"6":-0.580322237659154,"7":-0.8170304245557751,"8":0.2815275776086182,"9":0.5853244976535331,"10":0.29617412887624184,"11":-0.1660645141548826,"12":-0.7727996257158757,"13":0.153000426244128,"14":0.14188862732856805,"15":0.5592169068298639,"16":-0.2582853874212046,"17":-0.5435217564348754,"18":-0.11204106211442241,"19":0.3324834205485271,"20":0.24865336008315597,"21":0.2877823664011223,"22":-0.37183962412484495,"23":-0.08437579300631105,"24":0.05866839298179775}},{"sx":5,"sy":5,"depth":1,"w":{"0":0.3163535474040886,"1":0.27834658366720594,"2":0.29877431208855604,"3":0.14604937383260228,"4":0.33911789682531507,"5":-0.3657416306379952,"6":-0.2039312024488338,"7":0.13437377745183351,"8":-0.084619376022819,"9":0.13045781768125053,"10":-0.37980624997443435,"11":-0.536715682097311,"12":-0.3529326985660455,"13":-0.14276247115029173,"14":-0.42081017579294716,"15":-0.009771935315736682,"16":-0.015661983067523835,"17":-0.24527883213477214,"18":-0.2761295505812422,"19":0.000547246202809269,"20":0.13019759378417567,"21":0.19656633025048473,"22":0.06175902193029247,"23":0.21332872598990787,"24":-0.07487083175781326}},{"sx":5,"sy":5,"depth":1,"w":{"0":0.10072500091481167,"1":-0.13438011889100052,"2":-0.06632244795946064,"3":0.5285821533873539,"4":0.4095337356231484,"5":0.3424374617329819,"6":0.19153469608319112,"7":0.1761389550252768,"8":0.2770509845744626,"9":0.3002044256596926,"10":0.18431243161712815,"11":0.46151411051984775,"12":-0.0176104130637613,"13":0.09617892140540929,"14":0.12544795974291412,"15":-0.6074237245214869,"16":-0.27137030940152246,"17":-0.39361404873781547,"18":-0.20026713447257669,"19":-0.06918849907846177,"20":-0.4413333598039237,"21":-0.422770183115823,"22":-0.5933123045762265,"23":-0.4623957835649503,"24":0.04679309168406986}}],"biases":{"sx":1,"sy":1,"depth":8,"w":{"0":-0.10786051076759773,"1":-0.0772797917126896,"2":-0.024562266270726784,"3":0.19146530034654125,"4":0.1425339937010808,"5":0.014125037496811545,"6":0.05625714498116846,"7":0.09673396430372919}}},{"out_depth":8,"out_sx":28,"out_sy":28,"layer_type":"relu"},{"sx":2,"sy":2,"stride":2,"in_depth":8,"out_depth":8,"out_sx":14,"out_sy":14,"layer_type":"pool","pad":0},{"sx":5,"sy":5,"stride":1,"in_depth":8,"out_depth":16,"out_sx":14,"out_sy":14,"layer_type":"conv","l1_decay_mul":0,"l2_decay_mul":1,"pad":2,"filters":[{"sx":5,"sy":5,"depth":8,"w":{"0":0.08527304292168791,"1":0.019542724086285948,"2":-0.058960879309668,"3":0.1324705866351477,"4":-0.15087258730284525,"5":-0.0802282083344022,"6":0.2310119421398718,"7":0.0010466094474753478,"8":0.05481643507200514,"9":-0.02262079317315948,"10":0.01752131993575069,"11":0.055330770757581804,"12":0.045085458389711286,"13":-0.0412667932731032,"14":0.07190294453114025,"15":-0.017648417190761486,"16":0.06512071464411942,"17":0.03806876845635292,"18":-0.144947813007086,"19":-0.0549699848333048,"20":0.05783219213824131,"21":0.006788530811519514,"22":0.1252067155532852,"23":-0.07535672122360738,"24":-0.15514311816232174,"25":-0.11894485084141897,"26":0.1101168671853174,"27":-0.02792137460080262,"28":-0.10631755213998784,"29":0.037630486514893334,"30":0.09734392020689243,"31":0.022568798281637565,"32":-0.18999512081574418,"33":-0.1524602562894716,"34":0.17417231227885072,"35":-0.1978861952777364,"36":-0.11099420948172829,"37":-0.020478204858443507,"38":0.00733376676597676,"39":0.05781284398248376,"40":-0.15825454866281963,"41":-0.044162933782205115,"42":0.11162778778129763,"43":0.05947480304944636,"44":0.0518636314767957,"45":-0.17831727897160843,"46":0.04737921440774203,"47":-0.04169881206471417,"48":-0.04114938821050716,"49":-0.08448151041874744,"50":0.05795771904686626,"51":0.07594563407495092,"52":0.048743027431990896,"53":0.08048497390251352,"54":0.12215264241193194,"55":-0.06304393919070336,"56":0.028741999453910445,"57":0.03635155430584325,"58":0.03225283353957665,"59":0.03858909338644756,"60":-0.06490602615042411,"61":0.23062721410231904,"62":0.04158254056788865,"63":0.0089815925650306,"64":0.12608128080758355,"65":0.013550097262154422,"66":0.03240362156678283,"67":-0.1315788283341298,"68":-0.072373313086315,"69":0.0894086972381521,"70":-0.03630121211440303,"71":-0.1302676444136582,"72":0.16147799937558044,"73":-0.08462172351159282,"74":-0.09302634967016217,"75":-0.09804745216463082,"76":-0.13333465534021424,"77":0.0668642961036672,"78":-0.09165338991195149,"79":-0.10119274669214677,"80":-0.28875286800390054,"81":-0.19626612301096616,"82":0.0047391435807795385,"83":0.17891789110685852,"84":-0.11564892499795666,"85":-0.0994152308011907,"86":-0.004433894046419028,"87":0.029745246250185185,"88":-0.24778473773738519,"89":-0.15021795659901988,"90":0.1001057833524647,"91":0.277154549534837,"92":-0.12386266787298188,"93":-0.05180648828561842,"94":0.15377652877286926,"95":0.16141928014923312,"96":0.016268185522308888,"97":-0.05518362520915727,"98":-0.016299249047200648,"99":0.07240962643822164,"100":0.06141983479854051,"101":-0.034125835615040456,"102":0.04829759968398388,"103":0.07343282707567397,"104":0.04731265452137964,"105":0.008637847088755563,"106":0.006587339232842934,"107":-0.09942553791608624,"108":0.00810058834144473,"109":-0.052961155175228716,"110":-0.0706405234536907,"111":0.08887370263801493,"112":0.15347978655109945,"113":0.16682298334362075,"114":0.0025218162242645497,"115":-0.08916492580216002,"116":0.10747321420843392,"117":0.036091221630549036,"118":-0.11547800988197891,"119":0.039523513804201035,"120":0.3099956355469899,"121":0.2227728606223094,"122":-0.3425091204024748,"123":-0.016246312287066227,"124":-0.02435049630174082,"125":0.23955714362471262,"126":0.08657548778925603,"127":-0.061821699705520754,"128":0.09920730947816746,"129":-0.16209455196714523,"130":-0.1607017442334418,"131":0.030564074408384195,"132":-0.27304598388587104,"133":0.1646603221741921,"134":0.06810235288263064,"135":-0.06358720788551275,"136":-0.1996502167419584,"137":-0.2511265116260302,"138":-0.19299489290069086,"139":0.13516572484752323,"140":-0.1712466559094006,"141":0.15075788954033495,"142":0.020513110594371147,"143":-0.08859255115583857,"144":-0.21127149432277642,"145":-0.15269241290167598,"146":-0.020753413156224965,"147":0.1073701962250768,"148":-0.0298036748669413,"149":0.008880995643921748,"150":0.19403964811102076,"151":0.04386084686274195,"152":0.0022983857051651754,"153":0.13885819372975572,"154":-0.0021028253578596933,"155":0.15620544328657363,"156":-0.1226702674078924,"157":0.171730033047043,"158":0.012825863437363775,"159":0.0715979181313869,"160":0.09258716537918062,"161":0.2947560859397554,"162":-0.14781962789514377,"163":-0.18238144938864329,"164":0.3351307840719424,"165":0.09107376770884998,"166":-0.11806225705332205,"167":-0.04718327064486063,"168":0.06586371568746578,"169":0.1874442470934649,"170":-0.2095948852064888,"171":-0.21313654564923698,"172":-0.1184316356884751,"173":0.20593658475223156,"174":-0.2236553581894436,"175":-0.3664896393520125,"176":-0.17923056265118936,"177":-0.3038555061121325,"178":-0.21321781795406503,"179":-0.08100442967305774,"180":-0.18400931966487558,"181":0.0974721345654685,"182":-0.22880169092072275,"183":-0.31513875986786505,"184":-0.0590835893349487,"185":-0.11783955525243699,"186":-0.1848142246813446,"187":-0.12036076816875597,"188":-0.12456782641221091,"189":0.015514653465019485,"190":-0.04537054420312707,"191":-0.05691913156258434,"192":-0.0964258833940016,"193":-0.004918272618467432,"194":-0.08572976139004795,"195":-0.24307324595550245,"196":-0.177589721076711,"197":0.15529927329864704,"198":-0.20010693343599084,"199":-0.025285009077182834}},{"sx":5,"sy":5,"depth":8,"w":{"0":-0.13670189007882133,"1":-0.22741913806868846,"2":-0.2052950898201245,"3":-0.1547728480131495,"4":0.004712427997992675,"5":0.2554028582216155,"6":-0.2148197201466748,"7":-0.00013226348536201282,"8":-0.13676170332771123,"9":-0.12459822722722619,"10":0.025197688367156128,"11":-0.19273247335711638,"12":-0.15308021673236633,"13":0.19930380566673372,"14":-0.12209652086132744,"15":0.02551934347004386,"16":0.06873299065640012,"17":0.10948006549890255,"18":0.09272099437257385,"19":-0.11341684486984191,"20":-0.13241356699045911,"21":0.1718443733254145,"22":-0.06989817746432501,"23":0.12022936015156109,"24":-0.028705339405018925,"25":0.07678999131329027,"26":0.0884483721542005,"27":-0.14477179775878588,"28":0.14357533108928877,"29":0.20117704469252182,"30":0.003431884297854755,"31":-0.09834387504397542,"32":-0.15569864277119363,"33":-0.0873641595688331,"34":0.18226526305624796,"35":-0.0874184000676951,"36":0.14070060404969423,"37":-0.11006777586637943,"38":-0.043743483255133414,"39":-0.025002385142891322,"40":-0.14734297383387107,"41":-0.09050967771042258,"42":-0.0024996565225846915,"43":-0.04807490570686885,"44":0.046554003615719056,"45":0.025310197252969298,"46":-0.11264402043625123,"47":-0.013592253381274028,"48":0.0720802016917004,"49":-0.04049319301325557,"50":0.14432927001517332,"51":-0.1925485399733361,"52":0.11002328385104122,"53":0.18931776870690106,"54":-0.2546170870477395,"55":-0.101916583991835,"56":0.10910969898412497,"57":0.10390243309505731,"58":0.04729568788638685,"59":-0.3373999506587669,"60":0.06199396285457721,"61":0.1595743863693697,"62":-0.10593334682868506,"63":-0.31297437378025655,"64":-0.023643687319652988,"65":-0.03431816730338165,"66":0.003394025848645374,"67":-0.31096654765022036,"68":0.061866967997034894,"69":0.17017687273423257,"70":-0.16222214362103793,"71":-0.23772053247504485,"72":-0.20371116209513912,"73":-0.09456980235358423,"74":-0.07615023776573143,"75":-0.17481484611318843,"76":-0.03313755069171207,"77":0.04238497461805506,"78":-0.08814810285994192,"79":-0.00333025733876139,"80":-0.0858901215131243,"81":0.0759821993104998,"82":-0.007795290407812882,"83":-0.0848166166137011,"84":-0.049868310776522734,"85":0.0064302134734632,"86":0.058494445194312426,"87":0.04008918314594233,"88":0.0812458064986247,"89":0.07152347776916133,"90":0.10432464909469037,"91":-0.01972850235201561,"92":0.05337051295072995,"93":-0.19042784389244402,"94":-0.07922103418971578,"95":-0.15436319926798225,"96":0.2212359850781368,"97":0.11989444390388199,"98":0.15946965054492385,"99":-0.18369053907412283,"100":-0.0794784268357746,"101":0.029940357347815968,"102":-0.26853519590808267,"103":-0.368606327106381,"104":0.21595180518854987,"105":0.015551653516567388,"106":-0.07235353824773487,"107":-0.09664992951584273,"108":0.02544370586120904,"109":0.023410972916745255,"110":0.0318502354218297,"111":-0.12377635206129765,"112":-0.05356296803416027,"113":-0.0778305022988324,"114":0.12849662945044113,"115":-0.07065460772019186,"116":-0.07824567976629064,"117":0.16877256241251154,"118":0.06476179351285592,"119":-0.18885228699325457,"120":0.08402226613886866,"121":0.04679325940109091,"122":-0.0011069471026526815,"123":-0.1744943727514407,"124":0.06792323598184204,"125":-0.12075244518716888,"126":-0.08050980609034852,"127":-0.027656174436319046,"128":0.01689369083242508,"129":0.2649766420835296,"130":0.1570726010047829,"131":-0.2839934246645893,"132":-0.0654200107354877,"133":-0.2879627151782376,"134":0.029273328500335098,"135":-0.11743527046400055,"136":0.10262809703662515,"137":0.022501904822850943,"138":0.17774890713757915,"139":-0.17801607500355424,"140":-0.07610451375449555,"141":-0.148042753511565,"142":-0.029452566274156614,"143":-0.11699404891580999,"144":0.047848629426634724,"145":0.043425609751819895,"146":-0.0002245354019481502,"147":0.021966893721805963,"148":0.2923061270487217,"149":-0.2309975329107219,"150":0.030059294078357616,"151":0.17977581972834236,"152":0.039152893625443864,"153":0.08015642040849365,"154":-0.13885849590541852,"155":-0.08268995210292884,"156":0.3232472130208894,"157":0.09446589793325322,"158":0.1437699792997954,"159":0.1636004503065361,"160":0.0018966749868183491,"161":0.11777626183623921,"162":0.05315530817950053,"163":-0.08859767100652723,"164":-0.24488230349527337,"165":-0.027804084920683075,"166":-0.010184332740974397,"167":-0.11967363338349635,"168":0.12077422495750548,"169":0.1503120794992795,"170":0.14425272603935216,"171":-0.2573883294911013,"172":-0.25701318230715453,"173":0.057528467216502364,"174":-0.17893763819479566,"175":-0.1025777293685509,"176":0.12913851683031452,"177":-0.04233107111440023,"178":-0.19038137185899429,"179":-0.0012184068702979923,"180":-0.06897041499366685,"181":-0.10174087607401715,"182":0.1878307075596758,"183":-0.009723872317695774,"184":-0.05334467602131181,"185":-0.14025618936717196,"186":-0.041023719233590064,"187":0.0995529783386671,"188":-0.23830446201129962,"189":-0.13739597127423625,"190":0.253848010129541,"191":-0.07238654470731234,"192":-0.12578201683407758,"193":-0.21884599257329176,"194":-0.13528880396983403,"195":0.11829267937969153,"196":-0.0036811470551024583,"197":0.01703245203143191,"198":0.19628116637994752,"199":-0.04941491624485664}},{"sx":5,"sy":5,"depth":8,"w":{"0":-0.03321538088821536,"1":0.1391223972159966,"2":0.16934114290741348,"3":0.10661341015411167,"4":0.11221195876094266,"5":0.044040667648130485,"6":-0.05565752335265073,"7":0.04525368940241929,"8":0.04412782006515482,"9":0.021023042743989147,"10":0.14359316385701087,"11":0.07412139789519234,"12":0.0013785970816808254,"13":0.08344691702857586,"14":0.10842587837441069,"15":0.03231189439623653,"16":0.0333250310738386,"17":-0.020389981148641368,"18":0.009184735478846377,"19":0.04296176838734355,"20":0.05752041053582191,"21":-0.008812380024445229,"22":-0.07948865601751595,"23":0.07538418200999569,"24":-0.0704073340544977,"25":-0.1259901562974345,"26":-0.23558214094801996,"27":0.1259832270463138,"28":0.09473466514957299,"29":-0.017566145612913822,"30":-0.0327377913719437,"31":0.09084618415670877,"32":-0.12436138513660704,"33":0.05306543610712335,"34":-0.042047359912003236,"35":-0.09874908278597053,"36":0.011452364363192434,"37":0.0715863679769504,"38":0.011928021929801278,"39":-0.23455916375154956,"40":-0.2120401798382823,"41":-0.16786389058880968,"42":0.10606477174177317,"43":0.06638654195589072,"44":-0.05820123302925761,"45":-0.0979473131887277,"46":0.06501484908041712,"47":0.06358937096735863,"48":-0.1252054931385518,"49":-0.0679163079522294,"50":0.0027969375168182802,"51":0.008383298411596735,"52":0.20142010074714226,"53":-0.10491819791667091,"54":0.09253681460110552,"55":0.03755507289488536,"56":-0.04524687466865937,"57":-0.160391968163964,"58":-0.10760844657713155,"59":-0.10213501170715673,"60":0.20277486630318708,"61":0.12665806546577213,"62":0.031929941307465196,"63":-0.17208400790682454,"64":0.07492489093053345,"65":0.0660638557411112,"66":0.12685344811675422,"67":-0.07007114188608425,"68":0.19430246788850705,"69":-0.10375126153483893,"70":-0.07971963902609241,"71":-0.110830971417778,"72":-0.03571741219149749,"73":0.14044852212981748,"74":0.02596146375139585,"75":-0.013117316719402418,"76":-0.17077922161673012,"77":-0.002185212963932448,"78":-0.1336209170204988,"79":-0.08768294739784982,"80":-0.05408403635067192,"81":-0.213191294057091,"82":-0.0060683796758707175,"83":-0.08876209310644982,"84":0.0458587584830146,"85":-0.04321328876965555,"86":-0.10693944018203914,"87":0.011480722749968511,"88":-0.24526005187248248,"89":-0.2994619759753694,"90":-0.26454124941557355,"91":-0.03736209396389948,"92":-0.24368650780445858,"93":-0.15710429023930475,"94":-0.14791353054794118,"95":-0.059104975785332026,"96":-0.22238199009999268,"97":-0.3964539270735705,"98":0.008910898565764498,"99":-0.13973335455979127,"100":0.10343561491318386,"101":0.18330832189936258,"102":-0.14124289067040247,"103":-0.04554275656892878,"104":-0.06106150828858253,"105":0.13672666029861377,"106":0.18791777445520594,"107":-0.15160190651401695,"108":-0.08423569038527474,"109":0.18275107684013903,"110":-0.15863314651704058,"111":0.09657058880794006,"112":0.010010600419090538,"113":0.05865007594659201,"114":0.1136066114333695,"115":-0.1466236007289677,"116":-0.23267691047181766,"117":-0.009639328477712213,"118":0.11927243963661611,"119":0.09714823150843918,"120":0.14693962061909682,"121":-0.04614900633027105,"122":-0.4009805354822371,"123":0.0706503087911747,"124":-0.28958209426058107,"125":0.14937655803488248,"126":-0.021516874849267054,"127":-0.14454825921209685,"128":-0.02972653325075241,"129":-0.12832984412132045,"130":-0.2568510465449399,"131":-0.07157207824985841,"132":-0.18754455662192634,"133":-0.012342575061254628,"134":0.05074821627301432,"135":-0.11821567909505025,"136":-0.2521908837025593,"137":-0.19041452502709985,"138":0.01843994075024861,"139":0.1506470780964729,"140":-0.036822868011404705,"141":0.08347598137477227,"142":0.131531362180284,"143":0.021303774703519896,"144":-0.1423480949177472,"145":-0.25710104808367623,"146":0.070620755469511,"147":0.025391117815340286,"148":-0.03957298899633322,"149":0.022743897069987116,"150":0.18631215713582988,"151":0.11599268182587313,"152":-0.11414668065797302,"153":0.012222478734122447,"154":0.05359845788960227,"155":0.00007599602126630967,"156":-0.07154632120364342,"157":-0.07050003255345456,"158":0.11432273001934615,"159":-0.009395716509764482,"160":0.2787391497801769,"161":0.25613141156449404,"162":-0.02664573497315688,"163":-0.15431479917437377,"164":0.12683489883046348,"165":-0.09610092470040453,"166":0.034958690065863565,"167":0.053583346553175745,"168":0.3494322454700785,"169":0.3269992782231145,"170":-0.29447704453996915,"171":-0.03130210958351177,"172":-0.08449511424513584,"173":0.07275005334554244,"174":-0.02018845399135213,"175":-0.11283304238469424,"176":0.19919911805107504,"177":0.3319630743518744,"178":-0.34170115656800726,"179":-0.011324244591162965,"180":0.12196045583950553,"181":0.26484554102488517,"182":-0.06201019023324664,"183":-0.23239728112119526,"184":0.1199717699940626,"185":-0.04789771375656643,"186":-0.14715151564492812,"187":0.11479948309043363,"188":-0.06709804004402753,"189":0.16173176079127283,"190":0.03125066723102736,"191":-0.27129239022551876,"192":-0.053146668201868454,"193":0.011959119657398968,"194":0.07832031116155247,"195":-0.10457103694573495,"196":-0.13378040442161063,"197":-0.011217418583523072,"198":-0.06254626034486212,"199":-0.21233675459309428}},{"sx":5,"sy":5,"depth":8,"w":{"0":0.000568017061698526,"1":0.03990338515358968,"2":0.14240169270900624,"3":-0.030327504222171276,"4":-0.11745669493702238,"5":0.0904843518946318,"6":-0.005401025153501112,"7":-0.055101188901454615,"8":-0.015390360486580441,"9":0.038014725216865504,"10":-0.08340953843126707,"11":-0.1106940356967285,"12":0.055071325922426806,"13":0.12561332116133972,"14":0.011756575012980618,"15":-0.03488324985853078,"16":-0.14411477504212075,"17":-0.022050350208230228,"18":-0.015900809757073378,"19":-0.05111811670888027,"20":0.06615444698216444,"21":-0.12410446742658351,"22":0.08825167998481036,"23":-0.18681109262062126,"24":-0.05348452768627359,"25":0.09683722953750078,"26":0.2035154578442616,"27":-0.17660105114263608,"28":-0.01861023398539139,"29":-0.15346059987557673,"30":-0.3260117197899931,"31":-0.20428860185707418,"32":-0.0019672655359882266,"33":0.17880398633978925,"34":0.15084100537511044,"35":-0.20931294855052548,"36":0.0615573715851128,"37":-0.11330336696841624,"38":-0.012441505262062074,"39":0.05308158774970875,"40":0.14564632464399557,"41":-0.055322573814242805,"42":-0.09145648546188948,"43":0.17938498909124792,"44":-0.06327701010339626,"45":0.023046081660832683,"46":-0.010116529197890424,"47":0.061368628217149675,"48":0.15783963147575933,"49":0.05695801226256756,"50":-0.05380694335588628,"51":0.05373702162537351,"52":-0.05437569160894509,"53":0.3251927262116073,"54":-0.13932147048968657,"55":-0.006206722529777002,"56":-0.030000751592730635,"57":0.09851775380390793,"58":0.09735105959582893,"59":-0.01581135083184353,"60":-0.036363716596412576,"61":0.1100364239507904,"62":-0.16001928567076043,"63":0.09541881220901227,"64":-0.049849328753851556,"65":-0.03141799333886354,"66":0.06937441949862173,"67":0.0871428199190354,"68":-0.1576956505897373,"69":-0.05472583627511791,"70":-0.004127526360655348,"71":0.13105028989698547,"72":0.04732379675239218,"73":0.020711065138193225,"74":-0.0204544035638123,"75":0.13930828240533255,"76":0.12456414816346342,"77":-0.11050002418034317,"78":0.1185503977181196,"79":0.194285807023946,"80":-0.10658488516682843,"81":-0.1563743556372884,"82":-0.06619190439375557,"83":0.19880898659196253,"84":-0.09745317278599822,"85":0.07480287260832778,"86":0.08939326000238818,"87":0.24485178453148845,"88":0.04484381415203552,"89":-0.03339545216567974,"90":0.006434144999513092,"91":0.17744171652038307,"92":0.06360617081707365,"93":-0.041804250643621435,"94":0.15189084694942664,"95":0.2239332962601892,"96":-0.007604839603692982,"97":-0.05375096964124403,"98":0.04325694963834511,"99":0.1749827216949651,"100":0.07149152192045932,"101":0.15896154614248695,"102":0.10924110075816842,"103":0.17683724460083775,"104":-0.045503711005685926,"105":-0.18547353412297557,"106":-0.2029665233275263,"107":0.09588653611119888,"108":-0.07499108195940214,"109":-0.0791669825233605,"110":0.13407746644377658,"111":0.23648574406432069,"112":-0.2573034862024995,"113":-0.09266687143171227,"114":0.06967164793384895,"115":0.26912026381071397,"116":-0.03483133617523539,"117":-0.012381796296164855,"118":0.16366613259367963,"119":0.23496755923449772,"120":-0.08319118100765047,"121":-0.0560096014521271,"122":-0.28642843729334067,"123":0.29930078871061383,"124":-0.20625837521537926,"125":0.012839350616398026,"126":0.25086012722474876,"127":-0.09323392283433911,"128":-0.05563518911941379,"129":-0.02111269904225661,"130":-0.08131135964484668,"131":0.19300550845201428,"132":-0.22065007111378865,"133":-0.17487792261643226,"134":0.24139581154492962,"135":-0.02960132343951437,"136":-0.04866282560458771,"137":-0.3374015982306425,"138":-0.2308582211931517,"139":0.09739368293355895,"140":0.1300013856173597,"141":-0.16354707295657567,"142":0.0834240351646354,"143":-0.007851152178908145,"144":-0.20428494434832134,"145":-0.17783256302971268,"146":-0.22387025145696496,"147":-0.05684930695775841,"148":0.014208852503997664,"149":-0.19933818062302552,"150":0.12824745060650647,"151":-0.09458889223599391,"152":-0.2583622963841401,"153":-0.054156659109726106,"154":-0.015492405977232298,"155":0.08132173803282654,"156":-0.1326323012766434,"157":-0.2988053334601012,"158":0.02190291353196941,"159":0.020575963222372304,"160":-0.09766907941603421,"161":0.035805023009117976,"162":0.04739520139383472,"163":0.14993204165660895,"164":-0.07049398601515608,"165":-0.053868945842703644,"166":0.12647804749886551,"167":-0.0999256862306981,"168":0.13075978417242973,"169":-0.11562787111662337,"170":-0.0721093483800671,"171":0.03168532091713447,"172":0.18987374986315864,"173":-0.06462633015672962,"174":-0.006267626629535205,"175":-0.12526674783836705,"176":0.08072060043238197,"177":0.1076763971195821,"178":-0.2794798102146823,"179":-0.06551082515040592,"180":0.06317075835612451,"181":-0.03364658982984256,"182":-0.13037444281527472,"183":-0.35835793605849886,"184":-0.10095154991867547,"185":0.08084714790869943,"186":0.005737502686656405,"187":-0.1556985670487073,"188":0.10726192056794623,"189":-0.2192195044533934,"190":-0.14272576340662269,"191":-0.3003106277959329,"192":0.1319497242322542,"193":0.15301614684058779,"194":0.050503240847834044,"195":-0.17747694482564677,"196":-0.10498428637007856,"197":-0.17852856671264003,"198":-0.19612210519495402,"199":-0.19026723944329663}},{"sx":5,"sy":5,"depth":8,"w":{"0":-0.02742655303330488,"1":0.0018607307877446955,"2":-0.009799663390023977,"3":0.018931970255417426,"4":0.08830354985478514,"5":-0.014680543107571324,"6":0.05455606648687814,"7":-0.03498866143773781,"8":0.07552840857691138,"9":0.0048287595608181196,"10":0.16525816215286962,"11":0.09892272496834544,"12":0.03515914467335357,"13":-0.08293826810068672,"14":-0.012560981004796959,"15":0.028407420889415683,"16":-0.045651766161465254,"17":-0.01842558022894498,"18":-0.10856450835055254,"19":0.14569556059705352,"20":0.2046781743715242,"21":-0.07282428792957524,"22":0.07396614696494629,"23":-0.029814454322693692,"24":-0.22804789493588548,"25":-0.13428062418372694,"26":0.15254265871569705,"27":0.22534595083438297,"28":-0.13117858946555427,"29":0.2155479034673461,"30":0.17841737708510882,"31":0.43705230994927186,"32":0.1370679827935293,"33":0.02186912668085344,"34":0.08441570693565842,"35":0.04268571150005503,"36":-0.2534910505875969,"37":-0.0301810027497794,"38":0.17701759651511842,"39":0.1572169808690899,"40":-0.03760759266280912,"41":-0.09645833192156013,"42":0.08213113765822008,"43":-0.04321274975534378,"44":0.11086015225800991,"45":-0.008403402426323498,"46":-0.08454914233168871,"47":0.05868531745772249,"48":-0.05938009239784606,"49":-0.049046774705455896,"50":-0.10358511463650745,"51":-0.06412527401775761,"52":0.1477168086602278,"53":-0.0309764286958345,"54":-0.06895875429050037,"55":-0.09699236138675367,"56":-0.2191937442291755,"57":-0.1634313843267639,"58":-0.09187732158058033,"59":-0.11738595338395245,"60":0.06206282816330101,"61":0.043436901987548654,"62":0.032334819188765435,"63":-0.010464368504120015,"64":-0.006692724922946403,"65":0.03962126808237718,"66":0.017250858228255457,"67":-0.07240020956398252,"68":-0.06523426623877371,"69":0.15772806969545136,"70":0.051301892520919615,"71":-0.0011317893495844731,"72":0.012299083146982404,"73":-0.004692986431063063,"74":0.17596130694960999,"75":-0.025371143188327713,"76":-0.17615599032043056,"77":-0.08568182699171238,"78":-0.10885684338024613,"79":0.020725206367450337,"80":-0.12571790362122678,"81":-0.08863459023610692,"82":-0.05094639381975907,"83":0.1665823135105459,"84":-0.018999542013943375,"85":-0.013817818327718643,"86":0.07230129517586058,"87":0.1322168084380625,"88":-0.0820022211001847,"89":-0.1349095780919119,"90":-0.042529559968107984,"91":-0.0007786530767689534,"92":0.09245308646768123,"93":0.11793575755064742,"94":-0.06308605875564831,"95":0.19393955136321842,"96":-0.10252983789266631,"97":-0.23543787145079612,"98":-0.12295444964199667,"99":-0.2172053548949206,"100":0.022464614728456928,"101":0.14642073233834244,"102":-0.10914144008700383,"103":-0.12003078734873039,"104":-0.26803205769720356,"105":-0.11531957276295925,"106":0.015081222585370391,"107":0.013317663362629777,"108":-0.02053644001212608,"109":-0.04477607612772348,"110":-0.09566645286406085,"111":-0.02748178611487003,"112":0.005736250473679499,"113":0.01793237774525792,"114":0.05486603210422177,"115":0.12346492088815882,"116":0.1305930809561424,"117":-0.16602584224801362,"118":0.053154695953903895,"119":0.14347220934433172,"120":-0.20155087648170394,"121":-0.2554896807032783,"122":0.016177693091817325,"123":0.06635625461991274,"124":-0.10007088167087487,"125":-0.07450053252155758,"126":0.02343727397172624,"127":0.010176667070485184,"128":-0.12098844691919777,"129":-0.23589791452520797,"130":-0.20363878930739962,"131":-0.0949245487219088,"132":0.11106053456607401,"133":-0.1351014785034742,"134":0.01516883115166746,"135":0.04360679643699263,"136":-0.10814833039955478,"137":-0.18470826582517935,"138":-0.1883655080601149,"139":-0.13916477429069526,"140":0.08074828194916307,"141":-0.15462732557969439,"142":-0.021735116291616396,"143":-0.07819553328505023,"144":-0.10115415047682758,"145":0.08705761379596517,"146":0.030738606952731624,"147":-0.10174151282483064,"148":0.17259118311423952,"149":-0.0034809302535872676,"150":-0.13607850944695407,"151":-0.21366150993420072,"152":-0.11045023881655691,"153":0.12137773796108592,"154":-0.003431829475230523,"155":-0.12652828491656265,"156":0.3130658610094961,"157":-0.07891122621663176,"158":-0.04765265393277819,"159":-0.13567312666498066,"160":-0.08439013576352876,"161":-0.11291480417002243,"162":-0.04601000694926902,"163":-0.1915551301235227,"164":-0.07212526793671228,"165":-0.03893295993179209,"166":-0.1027345764682322,"167":-0.163317383661739,"168":0.040636386639432885,"169":-0.03535993253500461,"170":-0.11626946656945017,"171":-0.16346619470662369,"172":0.11484402676835181,"173":0.029524006621332012,"174":-0.1075064695460323,"175":-0.2743005478872013,"176":0.0754785001484879,"177":0.12844070525953358,"178":0.04191241600186119,"179":-0.20787323889321402,"180":0.2481757754456253,"181":-0.0925889242575799,"182":-0.11015450066518571,"183":-0.2503148959319161,"184":-0.040023353680948386,"185":0.03166062218961809,"186":0.18303401854855492,"187":-0.40302615522972896,"188":0.030206066600979922,"189":-0.15997210721953814,"190":-0.1376413702090282,"191":-0.24779880089658368,"192":-0.0607805931044478,"193":-0.01746220502292585,"194":0.14962193680095479,"195":-0.3039149733932772,"196":-0.12703670806669376,"197":0.20482009294548403,"198":-0.05116243913075416,"199":-0.050914051826379064}},{"sx":5,"sy":5,"depth":8,"w":{"0":0.12847756375988925,"1":0.1253820244493387,"2":0.14923767298532373,"3":-0.08719227844875177,"4":0.008303595253911942,"5":0.015356081490356019,"6":0.021763111467060708,"7":0.05049016314797156,"8":0.09738471121861698,"9":0.06326232508135354,"10":0.1856729919600497,"11":-0.17256970668485838,"12":0.0564526611005892,"13":0.06618292087686749,"14":-0.05695276753028611,"15":0.17085915572035754,"16":-0.041803424615463276,"17":0.02916179766744696,"18":0.005149940194594992,"19":-0.0231328745456652,"20":0.06680589784247808,"21":0.12427184260343484,"22":0.0019496393637612386,"23":0.10529189387088825,"24":-0.16452146587390082,"25":-0.24829217018519723,"26":-0.19583241350954625,"27":0.1669843209791584,"28":-0.1376026893794642,"29":-0.04525999033362742,"30":0.034293502108573244,"31":0.040280251714972265,"32":0.013279576963475368,"33":-0.01451710926466098,"34":-0.08963610629489883,"35":0.07550593426774467,"36":-0.08207279626155482,"37":0.06263774752220198,"38":-0.044251075907941216,"39":0.054032385394748396,"40":-0.06934976740930028,"41":0.02946880151693577,"42":0.09205176669815325,"43":0.1410961764881871,"44":0.06380513284935047,"45":-0.15515323022052185,"46":0.16056846919557968,"47":0.11408147374168649,"48":-0.04450807786833962,"49":-0.10831935901461133,"50":0.036848072894551116,"51":0.08205624710744985,"52":0.04329492692632137,"53":-0.021331951605836563,"54":0.04038000486918748,"55":0.1297186992731645,"56":-0.15022930709814447,"57":-0.26988413856459686,"58":-0.10772769469821655,"59":0.031791337619266204,"60":-0.027453635032696537,"61":-0.0011248865601755018,"62":0.0007783121354787429,"63":-0.02809434811130653,"64":-0.01369616800607524,"65":-0.2753641577874273,"66":-0.025757391847705008,"67":-0.10142389738888019,"68":-0.06108421876522485,"69":0.016658624348180027,"70":0.012997404227793755,"71":-0.12880411145241935,"72":-0.12210214858092404,"73":-0.000954420915231298,"74":-0.10239391376259822,"75":0.007468493085993059,"76":0.08419079298036883,"77":-0.14631246793351846,"78":-0.17401012789795928,"79":-0.09677639360524283,"80":-0.12139648228410663,"81":-0.14895769885505436,"82":-0.08547572266354811,"83":0.1861108321140204,"84":0.04783994416575978,"85":-0.09244726050043624,"86":0.1347684206041391,"87":-0.15091169389201395,"88":-0.377144760702409,"89":-0.34759962794329924,"90":-0.09860651452598262,"91":0.20684071686325414,"92":0.08904373570191249,"93":-0.2079976498024329,"94":0.08856323701514204,"95":-0.030508564283626815,"96":-0.10289833187002696,"97":-0.35710922208205104,"98":-0.22431469695899056,"99":0.11312978321637361,"100":-0.06781575073813338,"101":-0.17485997521959604,"102":-0.0664925469197227,"103":-0.11330880063044915,"104":-0.25370471159114805,"105":-0.3772413370047236,"106":-0.22008809546746452,"107":-0.02794121439801297,"108":-0.15142668902000805,"109":0.0033198315810120636,"110":-0.09673995862532624,"111":-0.005339114917392348,"112":-0.32785596565195324,"113":-0.26120927972495056,"114":0.0960587337893477,"115":0.05319113979673369,"116":-0.16116260919049546,"117":0.25881684183395987,"118":-0.032180231671196734,"119":0.03913066597399757,"120":0.03684512539849005,"121":-0.19341517711675307,"122":-0.06094246995411803,"123":-0.057225556836842204,"124":0.09506400723621217,"125":-0.04846369918591321,"126":-0.20053781259671483,"127":-0.23498913987960568,"128":-0.05177400957265474,"129":-0.10022236443355789,"130":-0.1397257953816761,"131":-0.13731289716850179,"132":-0.04040747834442492,"133":-0.12806813920683877,"134":-0.0586358164100906,"135":-0.3594509236404346,"136":0.315879273395246,"137":0.10599714681422592,"138":-0.14981766021460227,"139":0.1654323022572776,"140":-0.07858635707738504,"141":-0.28103245057473775,"142":0.002263363329309478,"143":-0.2706087681957792,"144":0.19844103964709045,"145":0.1722294866958468,"146":-0.3740125837227339,"147":0.34679041252710124,"148":-0.11998160467105119,"149":-0.08540445322397171,"150":0.2955068588438696,"151":0.02206049608808513,"152":-0.04164831417724905,"153":-0.19492959967742904,"154":-0.3416391862948767,"155":0.08501719563649633,"156":-0.3702057847218405,"157":0.25624980304578043,"158":0.1720492107763309,"159":0.04316702201382669,"160":-0.17729745624849497,"161":0.13668608998526577,"162":0.13516643211135526,"163":-0.0742527799097454,"164":0.06017159736564566,"165":0.20887505328200343,"166":-0.17811864108054168,"167":-0.14482493783639105,"168":-0.07647328321887008,"169":0.0746561119297257,"170":0.1944238642184711,"171":-0.1900545815201656,"172":-0.09257467314371474,"173":0.12149254200917371,"174":-0.06187125330005212,"175":0.11960784556435915,"176":0.26360827852930196,"177":0.1896711676338898,"178":0.24296268914884292,"179":-0.029391605417344854,"180":0.05874219921111731,"181":-0.21754541557033857,"182":-0.021307633145084073,"183":0.030217937502688325,"184":0.41285412317282033,"185":0.35394747487766576,"186":0.0987147258223433,"187":-0.011110540791884385,"188":0.11142221773321985,"189":-0.17972934404005433,"190":0.004222104493657852,"191":0.024417178311295532,"192":0.43277778511675635,"193":0.13509224336522813,"194":-0.1847764497708304,"195":-0.2160466989985635,"196":-0.05903789228396961,"197":0.06883075404603808,"198":-0.009248196619777636,"199":-0.1815505803323291}},{"sx":5,"sy":5,"depth":8,"w":{"0":-0.09519901942241904,"1":-0.033424504973641994,"2":-0.23245906077558548,"3":0.05071595359137155,"4":-0.032697028135709294,"5":0.012567629428013122,"6":0.0074957546918808845,"7":-0.06590996718575057,"8":-0.15308024086218425,"9":-0.4258857565583275,"10":-0.2136534959752472,"11":0.08530566727131957,"12":0.22142918082398763,"13":0.16197576609368866,"14":0.06996617669666834,"15":-0.04162703262873907,"16":-0.22747659243433155,"17":-0.06591884254373517,"18":0.16213133476953379,"19":-0.04706356518159472,"20":0.1134374382958627,"21":0.03407014600614057,"22":0.006408171266545572,"23":0.13410640679666794,"24":-0.2600757160547153,"25":0.22958919264724398,"26":0.26825107991562214,"27":-0.4276580270563781,"28":-0.1889611267687785,"29":-0.37457290561692114,"30":-0.12626542181893688,"31":-0.22563789056026104,"32":0.15963743458840202,"33":0.06415025227343599,"34":0.016710602111038985,"35":-0.151822292810269,"36":-0.042056285068062395,"37":0.013661095035182567,"38":-0.26917126537617064,"39":0.038217722185510825,"40":0.045595219024540466,"41":-0.0610690179701883,"42":-0.30555009324712756,"43":-0.012748251455947913,"44":0.07503349934736961,"45":-0.09238002336550497,"46":0.04411273953539372,"47":0.06854372365831032,"48":-0.19781676941461745,"49":-0.2056037938789532,"50":-0.18940345968381544,"51":-0.2937980961944102,"52":0.1694053303034958,"53":0.06751229035162423,"54":-0.2459186865579096,"55":0.015858906971576915,"56":-0.24449286261470965,"57":0.024878478673536944,"58":0.19187395420625236,"59":-0.41698382545226576,"60":0.14095152965898552,"61":0.3424425908394231,"62":-0.22599275381374515,"63":-0.05072152528664557,"64":-0.16206702734391873,"65":0.06450169871730767,"66":0.2207203423005191,"67":-0.4147382143731257,"68":-0.2507652881648459,"69":-0.12999524292921935,"70":-0.23416249953798704,"71":-0.17961958541288234,"72":0.05505664016160764,"73":-0.08673150381082888,"74":-0.15413535637166378,"75":0.028964451861776565,"76":0.06373304982998558,"77":0.3493293567420091,"78":0.02993300168293054,"79":-0.04380577455221733,"80":0.019553641279173993,"81":-0.09492027461525494,"82":-0.19804118549362995,"83":0.07726859489363122,"84":-0.02781423751111277,"85":-0.07405854184357795,"86":0.14548441707224444,"87":-0.03409130485307225,"88":-0.10139454549082547,"89":-0.04580842875233496,"90":-0.0783815730021268,"91":-0.15504055719247264,"92":-0.16699890127157918,"93":0.009264723181573068,"94":-0.10583876096642995,"95":-0.0853768316670971,"96":-0.16752190803439135,"97":-0.034218838030972844,"98":0.13456641934748018,"99":-0.3757506943830395,"100":-0.2700576777733279,"101":0.32396386979844,"102":-0.22199624458129635,"103":0.024234438552728364,"104":-0.11249145637401495,"105":0.08790583681701551,"106":0.02305168516585511,"107":-0.30052356481076636,"108":-0.29781562095881137,"109":0.05877263136585294,"110":-0.3637122860090229,"111":-0.18209858344655666,"112":0.1162082066812864,"113":-0.22195343965956937,"114":-0.20457482307702962,"115":0.027881932923686046,"116":-0.11588790509133633,"117":0.5520185214545068,"118":0.06597559827178166,"119":0.005572744141459032,"120":0.05871092846032488,"121":0.12135256007011326,"122":-0.05681112023090593,"123":-0.03823551814732258,"124":0.070828647232977,"125":-0.1744751550383401,"126":0.12629341466319186,"127":-0.08153931465413546,"128":0.1538704614633077,"129":0.11866310861553642,"130":-0.011762039743187487,"131":-0.05218981292761013,"132":-0.08641902554174213,"133":-0.19974519335623586,"134":-0.05044211229141969,"135":0.05130499187594325,"136":0.08397879519637129,"137":0.14101673118095986,"138":-0.07523655440561433,"139":-0.061273529444356975,"140":-0.22504320605581069,"141":0.1238484275194832,"142":-0.1359098969027759,"143":-0.05145519567970814,"144":0.19718272458843555,"145":0.0615960183111121,"146":-0.0793496600339505,"147":-0.15191107400774104,"148":0.0666517818816975,"149":0.013888316257374165,"150":-0.06098134294383118,"151":-0.0990131223697144,"152":0.13373599491126142,"153":0.0031412543834492004,"154":-0.015242623885704324,"155":-0.03431411866863752,"156":0.14905478779221407,"157":0.45135947978906815,"158":-0.18441201839089155,"159":0.024870194264861402,"160":0.023107372303151207,"161":0.034167551034357445,"162":0.16620647008716063,"163":0.053676201877654976,"164":0.10916968653017524,"165":-0.19389624243123135,"166":0.07981163238656679,"167":-0.03422052674694319,"168":-0.02194251253410503,"169":-0.015312919667583727,"170":0.22266457476922694,"171":-0.03855514537936043,"172":-0.045027013396175875,"173":-0.18236331988469276,"174":-0.0036693622352669303,"175":0.11867460590758033,"176":-0.008723290600449173,"177":-0.05883610556010536,"178":0.13122513818302292,"179":0.12867510581503794,"180":0.22237400595872903,"181":-0.3615363136163374,"182":0.05828133489555319,"183":0.13175511216054078,"184":-0.1815985403163792,"185":-0.037326719595902294,"186":-0.07150404492006013,"187":0.10809086935619022,"188":0.22101432210566724,"189":-0.35881558464400404,"190":0.20969571492828973,"191":0.2898636754201039,"192":-0.05734109543094099,"193":-0.0006920178662743696,"194":0.0059917471708957415,"195":0.3264167178567244,"196":0.12087932724901224,"197":-0.18854006548189994,"198":0.13320885151921424,"199":0.2589116834638351}},{"sx":5,"sy":5,"depth":8,"w":{"0":-0.049077451546862334,"1":0.10623037781859579,"2":-0.07676231563619874,"3":0.2701774292559664,"4":-0.0028696192874581566,"5":0.05751691274163864,"6":0.13654298740912119,"7":0.02791713572428736,"8":0.16413688207055732,"9":0.11289713542924933,"10":0.0867467271343738,"11":0.0808560455876346,"12":-0.13497636940074867,"13":0.017062305198966246,"14":0.16723556495820732,"15":-0.14518499822979225,"16":0.09665727101281138,"17":0.26431120058119983,"18":-0.002890912981273619,"19":-0.12842612450621407,"20":0.02236885990545014,"21":0.2075560625616575,"22":0.06639292194210347,"23":-0.0847622019792198,"24":0.14400641051210375,"25":0.0484559721769899,"26":-0.08042115097881176,"27":-0.03537636253697174,"28":0.05500059010260545,"29":0.18570199843369395,"30":0.026328495864065143,"31":-0.16044323537190322,"32":-0.05148582123739375,"33":-0.21391672709323645,"34":-0.1070767908105954,"35":-0.1263403661442078,"36":0.04069215156443208,"37":0.00023892302825835203,"38":0.03785169348586845,"39":-0.05838320628003427,"40":-0.03704021398558011,"41":-0.05445033758226619,"42":0.10244141340492724,"43":-0.1474946860973028,"44":-0.10448271990607075,"45":0.18934387028606017,"46":-0.08773253727077651,"47":-0.13494009452490333,"48":-0.10712327148754583,"49":0.18085381777489065,"50":0.19422684405809573,"51":-0.18735457519436874,"52":-0.15850907691866137,"53":-0.1727396712658472,"54":-0.11408171466150056,"55":-0.13242499823274692,"56":-0.032988782221468255,"57":0.023990821975252916,"58":0.15859063534290113,"59":-0.12695269364990527,"60":-0.08110540250461805,"61":-0.030500075274040358,"62":-0.11720745297333689,"63":0.07300557103389965,"64":-0.06536957542801111,"65":-0.06585192786232147,"66":-0.023164467429822578,"67":-0.06901783256300853,"68":0.11703935017367988,"69":0.05152444304635462,"70":-0.045555208559209213,"71":-0.07335024177770484,"72":-0.16588208555545803,"73":-0.10551962048466842,"74":0.010201958822276475,"75":-0.17388367161753593,"76":-0.058985476351168686,"77":-0.08703320267742592,"78":-0.035985125727068114,"79":-0.09221179367142193,"80":0.004392780299411805,"81":0.15735981349524863,"82":-0.024120660394477855,"83":0.01501375554873537,"84":-0.009857655808321545,"85":-0.24815915966636476,"86":0.16713557817477764,"87":0.03579939174388741,"88":-0.07429224513002747,"89":-0.052074922986128314,"90":0.16302775956201052,"91":-0.08531540935423426,"92":-0.3024749525757863,"93":-0.27159901030177575,"94":-0.14876835852733022,"95":-0.16058625460551168,"96":-0.08225669627971884,"97":-0.041738756847160996,"98":0.08191974600451409,"99":-0.11996608007120808,"100":0.016162053684139734,"101":-0.27089060479089416,"102":-0.06417943471206611,"103":0.0659708379624909,"104":0.036443661617547196,"105":-0.23886983003924994,"106":-0.17064530555192195,"107":-0.005082285856920889,"108":0.05921608946620729,"109":-0.05886065289180878,"110":0.02437253938992135,"111":0.015059316710715922,"112":-0.2727245265583983,"113":-0.1684174037614406,"114":-0.13068655303024207,"115":-0.06387673201273383,"116":-0.12949718887409484,"117":-0.010179553979136748,"118":-0.05595570724770009,"119":0.02164856168854119,"120":-0.12504555074308157,"121":0.049645953736300846,"122":0.06062904689557655,"123":-0.14058645343015708,"124":0.030675753325179064,"125":-0.15682218468639048,"126":-0.07944374629595034,"127":0.2035876932015191,"128":0.11880345889734298,"129":0.06443130433309718,"130":0.026994569221569835,"131":-0.13925483742693628,"132":0.12917967810068545,"133":-0.31884817422520867,"134":-0.11938682975879064,"135":0.015164473894087704,"136":-0.06699219784610948,"137":0.01529993744621761,"138":-0.37751106915234245,"139":-0.1714708130103075,"140":-0.012261428893116905,"141":-0.06525487055915398,"142":0.010084072830211961,"143":-0.037035296969275315,"144":-0.1304228822228226,"145":-0.1971065082301289,"146":-0.21139696194176932,"147":-0.21709274545526275,"148":0.02814676496162486,"149":0.13358710964882456,"150":0.050674060150704046,"151":-0.10236187106932193,"152":-0.06465319779819799,"153":-0.1325563851730035,"154":-0.04285216727241799,"155":-0.006306195037790184,"156":-0.13658714885663262,"157":-0.01946191845175396,"158":0.0019007359852762844,"159":-0.12715112481797933,"160":-0.013991469453830181,"161":-0.014376021575739863,"162":0.07186481016046549,"163":0.07342199312359891,"164":-0.05795326850389703,"165":-0.002711852558699658,"166":0.02462963249721929,"167":0.2556738077557613,"168":0.11500613350335896,"169":-0.03167670334885592,"170":0.004693896322543984,"171":-0.09181481256101154,"172":0.03526801445238664,"173":0.037989271123818356,"174":0.13303109917462097,"175":0.035248285434857037,"176":0.05188956530522868,"177":0.15470407595279484,"178":-0.15590858105893332,"179":0.045947660552975486,"180":0.07821628952807365,"181":-0.08369583006228248,"182":-0.037459663625947125,"183":-0.11237341300036495,"184":0.19567410859837003,"185":0.0941910156524621,"186":-0.34910252252632695,"187":-0.015368590298609756,"188":-0.3981889733904447,"189":0.03754635979838362,"190":-0.022659985176829996,"191":-0.2517733489898733,"192":0.15068090773948964,"193":0.2063473451946152,"194":-0.12131855140569138,"195":-0.13517466364453018,"196":-0.18934066121194063,"197":0.045885197985331964,"198":-0.11465912701291688,"199":-0.28392512992186114}},{"sx":5,"sy":5,"depth":8,"w":{"0":0.08743846777269869,"1":-0.08721134366630867,"2":-0.30200763864945435,"3":-0.26297904351928253,"4":0.22517494040922564,"5":0.1272238949776386,"6":-0.17734866774552752,"7":-0.025828581106268515,"8":0.05445261535958518,"9":0.03916320186186142,"10":-0.19034302123735122,"11":-0.08411599207523007,"12":0.14802080207779517,"13":0.10311401942075389,"14":0.02688220586108456,"15":-0.09960710310163735,"16":0.04248559056033196,"17":-0.011463430742276667,"18":-0.1266357738759796,"19":-0.12580798720661396,"20":0.013389766180914484,"21":0.1032865213794629,"22":-0.038609232720151376,"23":-0.3208317921407832,"24":-0.008463533163289173,"25":-0.021793055697521508,"26":0.0877693780398014,"27":-0.13241981593728475,"28":0.044154865517822106,"29":-0.046330216668160534,"30":-0.0010419946958900523,"31":-0.06364458991534469,"32":-0.059746341880102735,"33":0.051667175237935875,"34":0.13988158114436425,"35":-0.21490446275933597,"36":0.13727098304641858,"37":0.02220068473871269,"38":-0.05883782442905203,"39":0.11772784357577001,"40":0.23937096032558025,"41":0.17150480006920005,"42":-0.16082788640390935,"43":-0.0434638221438709,"44":0.015352735448438706,"45":0.3656043763331813,"46":0.08533870132425246,"47":-0.21097263284740952,"48":0.1907697788180617,"49":0.06113861165163818,"50":0.057641028958976354,"51":-0.30588193193869145,"52":-0.07350832267008899,"53":0.275082198467038,"54":-0.1146214095302606,"55":-0.40894247578685194,"56":0.17652463889438233,"57":0.1372079852450719,"58":0.12691680043486056,"59":-0.41914158753861863,"60":-0.028825012087116204,"61":-0.02974892500190232,"62":-0.1070500394110503,"63":-0.21915470815449578,"64":0.0257089733335063,"65":0.150796812975761,"66":0.05711960601981502,"67":-0.2921798732339346,"68":0.12227333165172947,"69":-0.04585949130021352,"70":-0.1264290164854957,"71":-0.18392475439610725,"72":-0.10091338541108077,"73":-0.05873784040531998,"74":0.040418933208026496,"75":-0.11033832515314261,"76":-0.11779120827636026,"77":-0.0664454121604516,"78":0.0967219683817726,"79":0.007730628845372015,"80":0.15052260255406907,"81":0.14830813901123827,"82":0.061540475667749214,"83":-0.25620865897114414,"84":-0.04512679368561285,"85":0.07298131848060706,"86":-0.24521083680586656,"87":-0.21371685741780436,"88":0.10025462640121661,"89":0.0981693303378479,"90":0.15997298153160336,"91":-0.27886316613266177,"92":-0.07854529203284756,"93":-0.1117442109971024,"94":-0.10910642002229864,"95":-0.0916439025456714,"96":-0.030441785944241104,"97":-0.02717242047332964,"98":0.08188334780779025,"99":-0.051015940220750136,"100":-0.05371414745405772,"101":-0.09282108640753499,"102":-0.03012056350694789,"103":0.10532727356275333,"104":0.034140741496154606,"105":0.06810776708429184,"106":0.06911624732649253,"107":0.07971719811155878,"108":0.030238068854588962,"109":-0.0645248022192573,"110":0.11128505359581081,"111":0.1286469751184073,"112":-0.03999472987069264,"113":0.036195893756216416,"114":-0.03216839984241417,"115":0.012697762464568852,"116":-0.04598858243485194,"117":-0.12958874041931837,"118":0.019604609552490014,"119":0.14039978624307933,"120":0.035199827408518056,"121":0.017706476073243046,"122":-0.0294685819535657,"123":-0.1979300292160815,"124":-0.15523533719052945,"125":-0.1444290221378402,"126":-0.07381301521491174,"127":0.03977598692941311,"128":0.08544210231710561,"129":0.22666969711352158,"130":-0.11949780705446804,"131":-0.07301293202936633,"132":-0.25994994741709404,"133":0.1131853685108695,"134":0.07018399912696058,"135":-0.19351935303043657,"136":-0.052536725081422465,"137":-0.05490604076506629,"138":-0.3109233552837644,"139":-0.013238265780605381,"140":-0.24954574314989722,"141":0.011545989577799426,"142":0.050155007423499307,"143":0.05244857367171362,"144":-0.014537473745616454,"145":-0.07942505715046423,"146":-0.0927900237146663,"147":0.1206316872799613,"148":-0.19733531116820172,"149":-0.07222283280694128,"150":0.19745072196522548,"151":0.09818970730716614,"152":-0.13309682871637674,"153":-0.04039453959943857,"154":-0.14759604423039635,"155":0.040719062723798084,"156":-0.1305117633120215,"157":-0.04020722482399562,"158":0.07774664074619067,"159":0.07608089371835472,"160":-0.20500197545372642,"161":-0.056658243996362406,"162":0.052007960755999345,"163":-0.13077400068535364,"164":0.06362030135561429,"165":0.19696901655278387,"166":-0.13723344766375337,"167":0.07334668428274298,"168":-0.17727854106455715,"169":0.20308660359684488,"170":-0.045750290139863516,"171":-0.2085654823108356,"172":-0.3060922004746553,"173":0.21534733305716808,"174":-0.11035654887404767,"175":-0.0933706478552654,"176":-0.10621488030953431,"177":-0.03675133359010418,"178":-0.059481884802190646,"179":0.009641446016831543,"180":-0.167230437164214,"181":0.17832608948179718,"182":-0.18608899184890526,"183":-0.18797030382930252,"184":-0.11024834568797368,"185":-0.34961925189680193,"186":-0.21892029855516132,"187":0.15092532039088227,"188":-0.10681972803762826,"189":-0.0673573397634461,"190":-0.02589762737614372,"191":0.023588543495029715,"192":-0.2737559481528743,"193":-0.4459650933312415,"194":-0.4031907730833571,"195":0.04751653172212017,"196":-0.24723526567897897,"197":-0.19973426705425773,"198":0.08325831837436698,"199":-0.24511479441968603}},{"sx":5,"sy":5,"depth":8,"w":{"0":-0.17986234357846148,"1":-0.019057489796073385,"2":0.29348741492126584,"3":-0.11109644391396095,"4":-0.07856093525426,"5":0.04475359289147304,"6":-0.09903012037656932,"7":0.05447081305725151,"8":-0.25149611053924287,"9":-0.22288319508241727,"10":-0.06085184275399342,"11":0.07136602078345214,"12":-0.0028149946484461027,"13":-0.39427868012292927,"14":-0.026398078296837102,"15":0.11185417384415801,"16":-0.1320719169384527,"17":-0.31024163545303063,"18":0.027116693244645152,"19":-0.047166752733132596,"20":0.05483323160120509,"21":-0.24774302795781766,"22":0.12076727842284335,"23":0.08144063193347942,"24":-0.14102268882532235,"25":-0.1530913650900257,"26":-0.09194407785454017,"27":0.12674660520097114,"28":-0.15936763717376284,"29":-0.030910977493640353,"30":0.016109392371805437,"31":0.1646194296445432,"32":-0.20969445466438597,"33":-0.04604210116389863,"34":0.10816222430832192,"35":0.09154946208584565,"36":0.08079289698195806,"37":0.11969203101519876,"38":-0.09686587911944128,"39":-0.012964248724123762,"40":0.3181089844161307,"41":0.23494064676778575,"42":-0.17063549050368385,"43":0.029860517015486435,"44":0.024859847097694107,"45":-0.04375577859545486,"46":-0.03960917689705088,"47":-0.07565785217473422,"48":0.25520665062904246,"49":0.036305672664232035,"50":-0.1693004014590944,"51":-0.08251450832320574,"52":0.006821984311252306,"53":-0.0003764310097292556,"54":0.11704143964558159,"55":-0.3354174374894456,"56":-0.03848572800560657,"57":-0.10876608355743098,"58":-0.23500819149036245,"59":0.017496450465642962,"60":-0.11320724580125861,"61":0.14660209764184853,"62":0.11900381070531846,"63":-0.2941830808622795,"64":-0.09217522719970672,"65":-0.05694138437904107,"66":-0.09099464428078667,"67":0.12363229275373658,"68":-0.1773082875416633,"69":-0.09290648703121224,"70":0.08981938828014095,"71":-0.012689163379419319,"72":-0.23654703204100994,"73":-0.3734085965475219,"74":-0.18656390271166085,"75":0.3522747101824735,"76":-0.27294935664432474,"77":-0.20428227479250366,"78":0.13090952883474125,"79":0.1553064097741155,"80":0.09293343015435458,"81":0.04312575763975004,"82":-0.009902254616048038,"83":0.05683361773879982,"84":-0.12805893575209665,"85":-0.2293181194886307,"86":-0.01678552032761304,"87":0.3453174772290817,"88":0.06125403109068897,"89":-0.029464155909290198,"90":0.015936306080875644,"91":-0.1653500823876465,"92":0.2613559453537681,"93":-0.12453857901336846,"94":-0.10366887855460516,"95":-0.08315015657432426,"96":0.2322227910778769,"97":0.15089837573658235,"98":0.048819141768776345,"99":-0.14403525542237763,"100":-0.05864463548050612,"101":0.1696130172831364,"102":-0.2635918996414969,"103":-0.11841302302324347,"104":0.08413939157325008,"105":0.10017330507048638,"106":-0.23800665790676395,"107":-0.09342733357934971,"108":-0.020020185718584656,"109":-0.24212419785369194,"110":-0.01649527773653472,"111":-0.1404249428258344,"112":0.25957210282215526,"113":0.062482932588519585,"114":-0.3292455239234029,"115":0.15209095635312816,"116":0.2250381040108812,"117":-0.22246397335198645,"118":0.01833655797753194,"119":-0.39373275995365936,"120":-0.09177467906694696,"121":-0.1360374763881591,"122":-0.14983694108415735,"123":0.1800229272107554,"124":-0.08160279957703086,"125":-0.2382929307797683,"126":0.2779870533003408,"127":-0.03268695603872922,"128":-0.0062969231370178114,"129":0.1444155330464555,"130":-0.14982155962883895,"131":0.08014931230955884,"132":0.02847758693025271,"133":-0.16864261376531692,"134":0.3348722092447056,"135":0.09131074518090941,"136":-0.026246370500605104,"137":0.11905960569286393,"138":-0.052933799477325995,"139":-0.030379975267902017,"140":0.0804114748379199,"141":0.021506339370140234,"142":0.06642020550287366,"143":-0.03177022957331682,"144":0.11708722073513039,"145":0.20173866939800797,"146":0.1891419745857274,"147":-0.07539990385685975,"148":-0.04484499054369988,"149":0.015529805787057782,"150":0.050962860290283615,"151":-0.028528913633082915,"152":0.07305030125742577,"153":0.10732251587479866,"154":0.0873991280917657,"155":-0.12641314140192336,"156":-0.04063360453703039,"157":-0.010554054515309856,"158":0.12831453979467025,"159":0.09207174087726111,"160":-0.08882628316007352,"161":-0.08736964762533359,"162":-0.12699917397551888,"163":-0.2247744304304377,"164":0.1784672728389052,"165":0.1774420194698278,"166":-0.19738629596384585,"167":-0.3001590690632247,"168":-0.12900756250748896,"169":-0.002166117066571384,"170":0.1020435683473206,"171":-0.11371147314135589,"172":-0.03994622004544061,"173":0.05487183610854654,"174":-0.2504700921379972,"175":-0.1644643994845012,"176":-0.03619637772655161,"177":-0.09025931403808446,"178":0.07465736161870068,"179":-0.12109053141310824,"180":0.06479508335673004,"181":-0.03075342886650636,"182":-0.15317959339641887,"183":0.16928659895653855,"184":-0.057342820251222115,"185":-0.0773976414190836,"186":0.09671780428458358,"187":0.20236383748864945,"188":-0.009853937257891288,"189":0.20156576024104997,"190":0.005136873315493595,"191":0.1281686188305379,"192":0.15690853608145164,"193":0.008112065135948417,"194":0.05182171730565903,"195":0.13809265524630868,"196":0.060828853109749566,"197":-0.07189399141743878,"198":0.18500816471047993,"199":0.2565166060538906}},{"sx":5,"sy":5,"depth":8,"w":{"0":-0.08703995597694435,"1":-0.0015773574158082808,"2":0.026316129542707904,"3":-0.04511940890641036,"4":0.017643707081443263,"5":0.12224995944047001,"6":-0.20247689543366323,"7":-0.11136030841922101,"8":-0.08740266233772759,"9":-0.08253055693422587,"10":-0.2064399515099687,"11":-0.04622397673677982,"12":0.19998002559877112,"13":0.18624852070161257,"14":0.013158168320714463,"15":-0.09235154324957848,"16":-0.10491988285050062,"17":-0.04433965875871039,"18":0.04841208758618878,"19":-0.15558708323913426,"20":0.11092589224642402,"21":-0.02030295097488979,"22":0.09809332927146526,"23":-0.05263476540538519,"24":-0.16755858592838238,"25":0.06401241041407665,"26":0.2226447144207585,"27":0.09826791579801995,"28":-0.017310045423369325,"29":0.013410817921008114,"30":0.13108603451423922,"31":0.05675719988100577,"32":-0.11346775114954173,"33":0.10579354169563834,"34":0.11179418885507925,"35":0.2098912685773758,"36":0.07473033859125919,"37":-0.06457778380302168,"38":0.2858145249624584,"39":0.24010624453567664,"40":0.038707083123801174,"41":-0.10089559871318995,"42":-0.21148194828312836,"43":-0.17608855122558792,"44":0.1175884197379808,"45":0.3093469974200668,"46":-0.07953611538250563,"47":-0.21987553827253992,"48":0.18073854686957985,"49":0.12467582067521854,"50":-0.06594569313552948,"51":-0.10256092253842523,"52":0.1067309181820087,"53":0.22430094165958514,"54":-0.12284216364513062,"55":-0.36264051821358795,"56":-0.17240687823223794,"57":0.05043890194199645,"58":0.044665538367539406,"59":-0.01495051591674846,"60":-0.12964295096583114,"61":0.11691846955744778,"62":-0.012525354342163278,"63":-0.23016654271634035,"64":-0.05710377448473852,"65":0.09143074791277847,"66":-0.048752271358478316,"67":-0.02142400515962151,"68":0.08984857645413044,"69":0.02979097817685548,"70":-0.040682979768695074,"71":0.08217691066635466,"72":-0.049588364205663635,"73":-0.11315916143941747,"74":-0.36107774059811665,"75":-0.10432846647676387,"76":0.18451998168420197,"77":0.08253574161938253,"78":-0.010312073778972416,"79":0.03625398908923872,"80":-0.0018036107273218867,"81":-0.009843226215240567,"82":-0.04822185212311884,"83":-0.29016482644049485,"84":0.1089571443648654,"85":0.3142086597006752,"86":-0.18377995052473373,"87":-0.2686112760696086,"88":0.001258046494262895,"89":0.10976341133506744,"90":0.09567389976335482,"91":-0.1023164002977813,"92":0.04410033251643272,"93":0.1715893833552692,"94":-0.2333104975354296,"95":-0.13964193624326657,"96":0.018214003575261213,"97":0.20322738047262828,"98":0.14095751835682957,"99":-0.05934455262478025,"100":-0.16531442739625274,"101":0.18864872766807858,"102":-0.26224208512063973,"103":-0.14613911860073614,"104":-0.01710327500464298,"105":-0.1238187804759093,"106":-0.23098768632688546,"107":-0.14064873663547123,"108":-0.06028013587009672,"109":0.04433841132495402,"110":-0.023971299351890255,"111":-0.05353854007515938,"112":-0.10302887385825296,"113":-0.2804943662023182,"114":-0.33362085175592576,"115":-0.016183571485262876,"116":0.11521116841226738,"117":0.12256880015179403,"118":0.011552502069979589,"119":-0.01237215025081573,"120":-0.11143826653553224,"121":0.05571973154380419,"122":0.09917730582635764,"123":-0.2589459827369702,"124":0.15005727325403562,"125":0.27249693289450266,"126":-0.24966996676106937,"127":0.1598204036204303,"128":0.013480914748042293,"129":0.18504665615610172,"130":0.1285870726587452,"131":-0.08244782897766824,"132":-0.026909120790822093,"133":0.060607617742286075,"134":-0.1568386078390413,"135":-0.05096455359756883,"136":0.1862318138542942,"137":0.0423836341366658,"138":-0.0003685431945636816,"139":-0.07256523649726826,"140":-0.0863752213902367,"141":0.041959384258284875,"142":-0.19950825048948562,"143":-0.28491467974847545,"144":0.13057875220076595,"145":-0.1678498442103172,"146":-0.18612465951801202,"147":-0.06946220164597779,"148":-0.040661836374121234,"149":0.154089517929498,"150":-0.12052702157359257,"151":-0.08045466149148454,"152":-0.029746848303721617,"153":-0.20250195736184265,"154":-0.19627909812134825,"155":0.04210968074925977,"156":-0.013207308607349932,"157":0.012448806158292048,"158":0.1310889927748136,"159":-0.07835287852644734,"160":-0.19559149183116722,"161":-0.163236842158228,"162":0.055997607717816686,"163":-0.05205774976954583,"164":0.1359948016365316,"165":0.19829108568697928,"166":0.09386635266171871,"167":0.02520176957880452,"168":-0.021332097030452676,"169":0.24258547161260685,"170":0.07925029724784587,"171":0.019510714869206712,"172":-0.2213291475110137,"173":-0.02456904334441436,"174":-0.026636699198264512,"175":-0.27638323749323196,"176":-0.03931147697700689,"177":0.0788522742689495,"178":-0.06146766469747627,"179":-0.08939254849039381,"180":-0.2803378562856082,"181":-0.0017573968026093354,"182":-0.06455339142698409,"183":-0.28910661179541236,"184":-0.03730243313985142,"185":-0.2570034701500868,"186":-0.32145927333349106,"187":-0.02363495403183669,"188":0.0299835113454599,"189":-0.1364009396618871,"190":-0.10936617348683549,"191":-0.1427180725730568,"192":-0.2986554410911453,"193":-0.1686459461399605,"194":-0.18266113067312095,"195":-0.006905005635681933,"196":-0.15324215047788162,"197":-0.04308673310036996,"198":-0.06541324639457216,"199":-0.06301894681995021}},{"sx":5,"sy":5,"depth":8,"w":{"0":-0.06247144885943884,"1":0.08452109492387425,"2":-0.017833123342923633,"3":-0.3620970199952395,"4":0.14240739019740228,"5":-0.14691421487862052,"6":-0.2242143001018457,"7":-0.31418103872175596,"8":-0.11759374063759133,"9":0.06546890770397977,"10":0.10425241456250348,"11":-0.45361930878538326,"12":0.006045537571905195,"13":-0.2416346235443586,"14":-0.23784989619489375,"15":-0.27410501967229733,"16":0.08376400146747902,"17":-0.024318861150048107,"18":0.1534839535160263,"19":-0.22985085497375143,"20":0.22167205266681897,"21":-0.23160879370963594,"22":-0.03718650974649801,"23":-0.10062096443366048,"24":-0.0018548342493939127,"25":0.07776473169415188,"26":0.012956447976146207,"27":-0.15828600116477765,"28":-0.061194483345553115,"29":0.14660070975617082,"30":0.002311722103024289,"31":-0.01260339319927613,"32":-0.09934746508044516,"33":0.05232584404725553,"34":0.03979649925143383,"35":-0.17543350428942758,"36":-0.1510969487883888,"37":0.10436571229962545,"38":0.1027489289813113,"39":-0.14104064268228844,"40":0.04556417799846098,"41":0.1566343588723946,"42":0.1921048824467585,"43":-0.35976464023102583,"44":-0.09487976208501693,"45":0.11894086784168671,"46":-0.23309251950763074,"47":-0.3013927625078624,"48":0.06960622861738923,"49":0.03229788706577991,"50":0.1477275140568766,"51":-0.28311429370369484,"52":-0.355283415919628,"53":-0.07126364059492714,"54":-0.326183365300883,"55":-0.13356966720368685,"56":0.07994947398963628,"57":-0.06130734925599648,"58":0.05969840007605517,"59":0.048965262513955235,"60":0.17015103108986876,"61":-0.08098189591024045,"62":-0.13940032184679382,"63":0.15158406750136313,"64":0.05559521004416132,"65":0.12184805287470073,"66":-0.0910344562317238,"67":-0.001909869711472955,"68":-0.1390179443477609,"69":0.14579008199522792,"70":0.003642500364578972,"71":0.06728946799155425,"72":0.13843360856939024,"73":0.16946775789271945,"74":-0.12084646904410214,"75":-0.0792612518108626,"76":-0.1522594386030676,"77":0.2641713305252773,"78":0.00017327673041866217,"79":-0.1406806657404749,"80":-0.1485791443252618,"81":0.04835576889244827,"82":0.12596962725412034,"83":-0.2665697215536352,"84":-0.27288472890261567,"85":0.1058631800296802,"86":-0.34393969484791176,"87":0.18471319529088226,"88":0.16691310531602566,"89":0.14653721639335357,"90":-0.1622496335696696,"91":-0.3712821587817765,"92":-0.22650336587669814,"93":0.09320518358278791,"94":-0.2404311228262394,"95":-0.4799522719091447,"96":0.17676565638073022,"97":-0.07480868258854702,"98":-0.030391353393254578,"99":-0.14656735181831626,"100":-0.2784213778147984,"101":0.19793359253556947,"102":0.0976287988540054,"103":-0.29696781239150993,"104":-0.2077325450449994,"105":0.06562655264733336,"106":0.10567943569899908,"107":-0.12440721227801378,"108":-0.2027961365608485,"109":0.017790756029751633,"110":-0.04919269540232687,"111":0.0009858375702166036,"112":0.15649593735006956,"113":-0.1234408168630682,"114":-0.034532004912671194,"115":-0.16464817970776238,"116":0.06463823789348457,"117":0.058968584631003206,"118":-0.04122188201812016,"119":-0.14123149238769217,"120":-0.10141197621566785,"121":-0.32710860107050366,"122":0.006530361104626674,"123":0.12248967396944052,"124":-0.2879686108344638,"125":-0.0254910203697767,"126":-0.04468549389534925,"127":0.19842946019364574,"128":0.00470004135206806,"129":0.23809871598301816,"130":-0.000652335121045288,"131":-0.1167996059916436,"132":-0.05697557010162029,"133":-0.31374957797895314,"134":-0.3827632544231199,"135":-0.044750128497083645,"136":0.2705551756669106,"137":0.2181429555393907,"138":0.05944707681641716,"139":-0.18255011745677277,"140":0.017673123475236342,"141":0.07509195846863016,"142":-0.08813512314019445,"143":0.0171367474681421,"144":0.13720804305417783,"145":0.06981735568144941,"146":0.03265393751554193,"147":-0.17638805275072952,"148":-0.0042378774505153856,"149":0.04609584743326386,"150":-0.03559132327248974,"151":0.009502790415658035,"152":0.028080695116549884,"153":-0.029338337433024025,"154":0.08916450546557744,"155":-0.22240638197305876,"156":-0.030994928260601427,"157":-0.0571091534067754,"158":-0.1169155486971609,"159":-0.0769851298167248,"160":-0.08586249381484125,"161":-0.286577025875165,"162":-0.06266741638354369,"163":0.09321253420588782,"164":-0.07208056423032559,"165":-0.14448554469591934,"166":0.03826180593745211,"167":-0.03525195995450498,"168":-0.15878310584623376,"169":-0.01865590633737337,"170":0.039426815299573044,"171":0.299536127201246,"172":-0.2295680066005834,"173":-0.5453319406040723,"174":0.22968811632218117,"175":0.11685730330277713,"176":-0.09223754052319044,"177":0.13103569602280873,"178":-0.01884655330643534,"179":0.12231685807356893,"180":-0.012269460345420697,"181":-0.322035734169478,"182":0.04253573501191685,"183":0.0911370464997908,"184":0.09780348910963002,"185":0.15121433245609217,"186":0.10367824329017944,"187":-0.1593101998953667,"188":-0.020371720219345576,"189":-0.18080801731725651,"190":0.05043902224490743,"191":-0.012727818394802859,"192":-0.17624539101014317,"193":0.006204337576116525,"194":-0.026967641090548736,"195":-0.41089055511759814,"196":-0.215363729033029,"197":-0.029172705373921474,"198":-0.05581637692678419,"199":0.06839456505825812}},{"sx":5,"sy":5,"depth":8,"w":{"0":0.04287363981360443,"1":0.012730719767782088,"2":-0.011080615807784681,"3":-0.22596823755201695,"4":-0.019038769856606175,"5":0.06727226797074952,"6":-0.2389247040442836,"7":-0.1053815240953638,"8":-0.04265415258586686,"9":-0.03211935789884083,"10":0.03562034117726521,"11":-0.027392421153430782,"12":-0.13889667074913636,"13":-0.06336413891747854,"14":-0.07834103071888052,"15":-0.06380649190138885,"16":0.042510552887910204,"17":-0.07852355391428072,"18":0.00886869648514395,"19":-0.09047801755796418,"20":-0.21213660430062004,"21":-0.032812038961781156,"22":0.021231344309857098,"23":0.06226621515879209,"24":0.21740988968346764,"25":-0.09506056674912952,"26":-0.15172296472001556,"27":0.04205113074784746,"28":-0.13678372460956217,"29":-0.0031037719875437663,"30":0.04862877098838796,"31":0.10448564370891904,"32":-0.006070651767066192,"33":-0.09469981234971882,"34":-0.13749819660639356,"35":0.11019571225460667,"36":0.0016424490394773947,"37":0.040484945286222006,"38":-0.11699234656350142,"39":-0.00027507941752078337,"40":0.07764563488846146,"41":-0.0253022002122482,"42":-0.14713607486596406,"43":-0.10164647338746133,"44":-0.10458937824681383,"45":0.18935218247114763,"46":-0.12791051040802895,"47":-0.07559591621463457,"48":0.07418111347981515,"49":-0.026297790866506764,"50":-0.024572324029848328,"51":-0.1414064409183682,"52":-0.1070244677587859,"53":0.07932155969366546,"54":-0.09355027672437961,"55":-0.12447596279392362,"56":0.061643168118014756,"57":-0.05664526928308715,"58":-0.13621285556387266,"59":-0.044837910934797866,"60":-0.045756388902609336,"61":0.013369102885570425,"62":0.08374084283931917,"63":-0.22733966993599858,"64":0.13629708234705767,"65":0.01100934474893647,"66":-0.09215783988492038,"67":-0.08926032448162632,"68":-0.06408978191656241,"69":0.06852525020106194,"70":-0.09263154481266393,"71":-0.25641046812243523,"72":-0.021828252032735102,"73":0.04766534520128264,"74":0.15852870693377777,"75":-0.353955868240333,"76":0.03381647060283177,"77":0.07622400659137181,"78":-0.23289653705954394,"79":-0.1741782893010089,"80":0.1542901421864491,"81":0.1717905599803752,"82":0.04907372916340032,"83":0.16951738862107282,"84":0.11230046802389337,"85":-0.1330608208689968,"86":0.09460397587974483,"87":0.12482092936907295,"88":0.20906555086826412,"89":0.11937376702691598,"90":-0.06119893474964223,"91":-0.0008749786030161552,"92":-0.0916627398497043,"93":-0.018802257169017116,"94":-0.0030224802681086175,"95":0.1739274558204783,"96":-0.030449598580695264,"97":0.13151879499144417,"98":-0.13403562102901068,"99":-0.13508152720803476,"100":-0.21002222756879158,"101":-0.007053963677236436,"102":-0.1427248616002108,"103":-0.0639206727608293,"104":0.13694312923760518,"105":0.036986909553610996,"106":0.06681087887216934,"107":-0.09467690557075567,"108":-0.0007755915670383062,"109":0.046625319572373494,"110":-0.27954033731703415,"111":0.09214811991386443,"112":-0.14046268006606777,"113":0.04147710944944479,"114":0.2910719986028885,"115":0.04209996880343239,"116":0.013828520856161066,"117":0.048147745828206266,"118":-0.08051495068354458,"119":0.22734845997879624,"120":-0.199692470738461,"121":-0.06474984866625431,"122":0.0398418393343272,"123":0.07053129094514266,"124":-0.08310598246167572,"125":-0.3117464645569234,"126":0.0739703530987433,"127":0.017120765547635402,"128":-0.08209883252787688,"129":-0.03711457178171865,"130":0.09583740735525789,"131":0.07610824431811829,"132":0.09358939214356599,"133":-0.31729009417228676,"134":0.12937722692122997,"135":0.20136020302980112,"136":-0.07516844187504329,"137":0.016808359629907968,"138":0.16730849826599886,"139":0.10042853578544003,"140":-0.0465342113512294,"141":-0.23350354613026836,"142":0.1122379493913331,"143":0.24526800525741324,"144":-0.12600774221810926,"145":0.15149975083201397,"146":0.1191496021666151,"147":0.14778798466988174,"148":-0.01875245528382912,"149":-0.030317015019679566,"150":0.0021039302017595027,"151":0.26134663373898154,"152":-0.32552794917290945,"153":-0.2802247805880418,"154":-0.18351504806691873,"155":0.07231217903175557,"156":0.03383978870511073,"157":0.08779441584808167,"158":0.21129850963074337,"159":0.1420559364377155,"160":-0.09859289981418852,"161":-0.0701110949138415,"162":-0.011288764500715703,"163":-0.1558286743458791,"164":0.19647423771334613,"165":-0.1237615785593701,"166":-0.04791287919716717,"167":-0.18140417081011087,"168":-0.20067153860937195,"169":-0.1510284096739595,"170":-0.10068573471694864,"171":0.08907306381935289,"172":0.09939020918947085,"173":-0.3022448373354466,"174":0.13414454973825796,"175":0.01245394201200296,"176":-0.15240236263222662,"177":-0.09864040857016641,"178":0.0017555113384275876,"179":0.14360029663697965,"180":-0.11837110752969929,"181":-0.14883337672263083,"182":0.2021893305933425,"183":0.033533751068842765,"184":-0.0698371291683023,"185":-0.05119646538991348,"186":-0.06611490384471869,"187":-0.0881999691679059,"188":0.13873794516996332,"189":-0.13454087303132567,"190":0.06620401381765133,"191":-0.01660491611248222,"192":-0.11424908769388498,"193":-0.22567905989941872,"194":-0.36385943926043113,"195":-0.3898280551103882,"196":0.09910402215343969,"197":0.07866731310241463,"198":-0.2110834286962622,"199":-0.4161470948805327}},{"sx":5,"sy":5,"depth":8,"w":{"0":-0.2226245535639587,"1":-0.2107227849096382,"2":-0.0002033827225723187,"3":0.0781625343794092,"4":-0.03906612423940549,"5":-0.017399935029733304,"6":0.03863965037342181,"7":-0.07174324177915775,"8":-0.12127818821708988,"9":-0.06631729125918892,"10":0.1750059456380463,"11":0.002832468944678237,"12":0.13791585706423068,"13":-0.12424750569561223,"14":0.014117776306286484,"15":0.06037773908420414,"16":-0.07345690375771183,"17":0.02860615048871841,"18":0.0023716119571115853,"19":0.2272941520620994,"20":0.00597035314276202,"21":-0.2406121184815745,"22":0.10766573444506754,"23":-0.05123050918282143,"24":-0.1997539394837585,"25":0.039727240037810536,"26":-0.21988531410472342,"27":0.0865969707966142,"28":-0.061199139653521036,"29":-0.02244244768860648,"30":0.24596534771828565,"31":0.13872101917761417,"32":0.09844341723745549,"33":0.09694746118208455,"34":0.07605813397227436,"35":0.18914675405381715,"36":-0.246267971853761,"37":0.14820062678393667,"38":0.11449578823536455,"39":0.32449310034995194,"40":0.23026572773634899,"41":-0.03578337172917211,"42":-0.09779851911827214,"43":0.10432990617046638,"44":-0.02469107367471821,"45":0.20029453155415805,"46":-0.023906719478964944,"47":0.030781431641587944,"48":-0.01193408432992056,"49":-0.07261106011484394,"50":0.03789694801387645,"51":0.21021168450107733,"52":0.002479816168582648,"53":0.03999674922506797,"54":0.2103447718389747,"55":0.13681126901480306,"56":-0.35863462450688466,"57":-0.1675553563433809,"58":-0.12402070364852628,"59":0.05531098682532907,"60":-0.17852573014337372,"61":0.01006403104555287,"62":0.15513020303017838,"63":0.11058129179251389,"64":0.012974669635918656,"65":0.006888200974336293,"66":-0.23104255671624424,"67":-0.00724470130008677,"68":-0.06859914173059208,"69":-0.18219065720050437,"70":-0.04061700902784486,"71":-0.033358383451518495,"72":0.03281274692946655,"73":0.20186595276289654,"74":0.004494906716014548,"75":0.016514152633902223,"76":0.00903058262068958,"77":0.09807439177807352,"78":-0.17418940116102935,"79":0.0014749832275101566,"80":0.3531505832276038,"81":0.3654516769971826,"82":-0.15765048057968198,"83":0.04801189567766422,"84":0.17715943897276185,"85":-0.10049840273756862,"86":-0.04485433069965021,"87":-0.1906316979293481,"88":0.13976560480631683,"89":0.18891793952648056,"90":-0.12448403933273665,"91":0.015738736690978906,"92":-0.2973201771537989,"93":0.37345578515704075,"94":0.11673059358017553,"95":-0.14542794977942358,"96":-0.06540068496501307,"97":-0.14608482127919664,"98":-0.1531891138782796,"99":0.0357747639830275,"100":-0.2579308961145469,"101":0.3550753278590444,"102":0.09672373019284358,"103":-0.024044894232710157,"104":0.08176919520610948,"105":-0.1385522082716087,"106":-0.001082628996841679,"107":0.09432814764395134,"108":0.03657258101436826,"109":0.19502512777868014,"110":0.05064518596793319,"111":-0.1335118387699969,"112":0.05376661096408433,"113":0.26352552246966415,"114":0.12754255411923318,"115":-0.23258942117336767,"116":-0.036884837293775216,"117":0.259061584981885,"118":-0.08695314688692901,"119":-0.03554420790991202,"120":-0.012597319220091226,"121":0.15664230721526773,"122":0.01262954416668217,"123":-0.13430154518728968,"124":0.10679291480448345,"125":0.027181101406626156,"126":-0.035651333687949906,"127":-0.07501891649520605,"128":0.18680892943518343,"129":0.15962595871509452,"130":-0.05900352648169967,"131":-0.03354543450678709,"132":-0.21428018329860482,"133":0.14456060505824272,"134":-0.0345232036953031,"135":-0.29413162376764274,"136":-0.08917232460414935,"137":-0.3024120757154507,"138":-0.40153017249048745,"139":0.01621608215210305,"140":-0.07609560077026994,"141":0.19026783114828966,"142":-0.07978001539219685,"143":-0.08642613265370214,"144":-0.10689667524021494,"145":-0.13952762444409783,"146":-0.12531920135466115,"147":-0.08863578560198945,"148":-0.05301322765687276,"149":0.13701017069698673,"150":-0.14748728132613623,"151":-0.14879965850426388,"152":-0.007956375248759032,"153":0.08946504246251266,"154":0.3173067608526819,"155":-0.3187947388993247,"156":-0.08036371212614184,"157":0.1109005130623862,"158":-0.17842420918360952,"159":-0.09032651488653823,"160":-0.10329841734510654,"161":0.14453597889869615,"162":0.1392771086654571,"163":-0.33593186729366314,"164":-0.16730465489414906,"165":-0.05295036607366506,"166":-0.32684445752777747,"167":-0.3198547200073632,"168":0.03553038366355342,"169":-0.05773287513653236,"170":-0.0406646123502219,"171":-0.10792555329386525,"172":-0.16276886588317663,"173":0.11181019160167127,"174":-0.1289651071063629,"175":-0.211882713165344,"176":0.010249784344713504,"177":-0.1320190856095342,"178":-0.3365253300082227,"179":-0.15420149975793665,"180":0.14147441150443266,"181":0.15266365983770927,"182":-0.20843667255900514,"183":-0.2959318906503852,"184":-0.05506439986779061,"185":-0.04386067500345531,"186":0.03138832420487947,"187":-0.1299166735785554,"188":0.07578939929870647,"189":-0.21965319795812957,"190":-0.20737115509514845,"191":-0.36689962088008415,"192":-0.00383918143600417,"193":0.14034000223472992,"194":0.23857031627928307,"195":-0.2510819692025423,"196":-0.025970443539328997,"197":-0.05573343428202116,"198":-0.30057468710302737,"199":-0.396251041198273}},{"sx":5,"sy":5,"depth":8,"w":{"0":-0.03740713373759893,"1":0.009641084773316537,"2":-0.029052402937271408,"3":-0.28003515367480036,"4":-0.0032868461109467296,"5":-0.027954425718442838,"6":-0.24692412586530177,"7":-0.05585852799084808,"8":0.05372879850224011,"9":0.14841755358584463,"10":0.11648766486562655,"11":-0.29902200644855353,"12":0.037910920525557446,"13":0.03028941242804354,"14":-0.23088909342208552,"15":-0.1653410309962631,"16":0.07771540400943386,"17":0.24188159775176704,"18":0.24671839869200268,"19":-0.3458642685141129,"20":0.1377964987221326,"21":0.014312714171916553,"22":-0.2116257304811628,"23":-0.21443702133333697,"24":0.12200570391787266,"25":-0.09680245450358493,"26":0.0729440368439937,"27":-0.16716835383080103,"28":0.008681907314106448,"29":0.04273566697812166,"30":-0.03265568841165699,"31":-0.09458824388535937,"32":0.014047016911759067,"33":-0.13728502104354995,"34":-0.0679353888564869,"35":-0.15717733242280102,"36":0.07465644046291144,"37":-0.04126965618064409,"38":-0.044955273370411455,"39":-0.17523751219972541,"40":-0.05041099824713441,"41":0.00811286971838553,"42":-0.06818838211126896,"43":-0.24519253218686998,"44":-0.08834647908330694,"45":0.2180269546677335,"46":-0.11713567024764363,"47":-0.005375899325535534,"48":0.11394912756054071,"49":0.017361636409059224,"50":0.1347741511233716,"51":-0.2705453035458805,"52":-0.10093601984345586,"53":0.20601948186776997,"54":-0.11639773576061291,"55":-0.1860232952021456,"56":0.037570776344915686,"57":-0.009287100668424583,"58":0.1865138829593246,"59":-0.2513268987750249,"60":-0.2193111330380846,"61":0.11159339848636157,"62":-0.2837705889580677,"63":-0.2968066538361534,"64":-0.005291112623203557,"65":-0.2142473179726529,"66":0.0022489016560339977,"67":-0.0738292606876559,"68":-0.04959066486303473,"69":-0.0416535599551603,"70":-0.21137037198169384,"71":-0.09870431888622576,"72":0.03059571076879737,"73":-0.130178291331718,"74":-0.1153661305329475,"75":-0.05346293902401221,"76":-0.04116892213059597,"77":-0.1350539761188319,"78":-0.12916960037503303,"79":-0.07451835238196962,"80":-0.0527328410106011,"81":-0.06553587556836649,"82":-0.1799549904213454,"83":-0.03464374057392333,"84":-0.13182049192109666,"85":0.15677741392396977,"86":-0.06921423488304546,"87":-0.08037253042687711,"88":-0.009436119316212643,"89":0.05242823928315587,"90":-0.10842861844357592,"91":-0.17324476620158566,"92":-0.23163263198025694,"93":0.13888280625077365,"94":-0.18940652884830372,"95":0.12647927462009154,"96":0.08018957274822933,"97":0.27555915434685196,"98":-0.025682244580080928,"99":-0.31136293207778654,"100":-0.2710654503309762,"101":0.0745150577114352,"102":-0.3612547837600933,"103":-0.2538144610304395,"104":0.21287765095374658,"105":0.07809870209712691,"106":-0.17612732604674972,"107":-0.29027455070583863,"108":-0.20415720977100726,"109":0.09801432175147702,"110":-0.12186444902981004,"111":-0.2697413951734843,"112":0.18438019253805313,"113":0.06415329287554197,"114":0.20493461018183928,"115":-0.0741725955204779,"116":-0.2733921989264902,"117":-0.1841553028884997,"118":-0.11069827310789956,"119":-0.36579372113942893,"120":-0.06388981510095769,"121":-0.1138291782959285,"122":-0.0982154017837177,"123":-0.11174121385923551,"124":-0.1656375759190746,"125":0.015732672920373544,"126":-0.0855779696721947,"127":-0.001880568785269711,"128":-0.1150299402967427,"129":-0.09568385007444236,"130":0.017699849928893757,"131":0.19132850759892972,"132":-0.22198881404216478,"133":-0.044288370556329226,"134":0.060978624653160014,"135":-0.03554409272925143,"136":0.07578289428357896,"137":-0.01715196563151928,"138":0.14290655728454496,"139":-0.012176546893496575,"140":-0.16554598061897768,"141":-0.194813102455582,"142":-0.026063378142757717,"143":0.049677847551545286,"144":0.1081966325313875,"145":0.06657067500732053,"146":-0.010596605709654552,"147":0.014175559982295945,"148":-0.002555280567018328,"149":-0.08844717672290359,"150":-0.0218472777621317,"151":0.15455023753344438,"152":0.03572592421738006,"153":0.01597583579683236,"154":0.2396676968494779,"155":0.027027518373742464,"156":-0.06829077506305045,"157":-0.10318715388977584,"158":0.048474864481784945,"159":0.2728568583376121,"160":-0.11770548901832249,"161":-0.09033931364398072,"162":-0.2937071964547354,"163":-0.033129685169518044,"164":0.0011689032155653295,"165":-0.01961576693474581,"166":-0.009338110181345349,"167":-0.1291744902231831,"168":-0.15695372687879905,"169":-0.0632935824419941,"170":-0.24070372258361242,"171":0.1222696896234155,"172":-0.03238234648601372,"173":-0.24727957145328952,"174":-0.04271103347404048,"175":0.15750947540011942,"176":-0.048770871390494956,"177":-0.05529682182135947,"178":0.008738868026071506,"179":0.2465884068712714,"180":-0.1913084678082918,"181":-0.2926754942038492,"182":0.18760118855861416,"183":0.060488179668091085,"184":0.055884483262807504,"185":-0.10900460122182092,"186":-0.04128577175269137,"187":0.2533417090579386,"188":-0.06185006353523377,"189":-0.31644364260551755,"190":0.2339003069340718,"191":0.20271223257769688,"192":0.03948016987799754,"193":0.06844345919102468,"194":-0.12203247583442978,"195":-0.04401377701596454,"196":0.02026685496299559,"197":-0.07207175977159197,"198":0.09620950479702141,"199":0.11086662591451382}},{"sx":5,"sy":5,"depth":8,"w":{"0":0.090395689503421,"1":-0.05093196266049646,"2":-0.023631730916498263,"3":0.06374986053343282,"4":0.015099421590419847,"5":-0.02951296040726481,"6":0.0701725179546429,"7":0.13740911779211584,"8":0.16516554974588632,"9":0.035061180222126134,"10":0.15589665844363731,"11":0.02725136186744877,"12":0.1523463585901599,"13":-0.17401417072173045,"14":-0.05412362943221949,"15":0.19332511450162876,"16":-0.03149080648860367,"17":-0.07358740215595869,"18":0.001296004747848597,"19":0.13410423592575602,"20":-0.003747440664067188,"21":0.14576994937109508,"22":-0.008646512534990177,"23":0.1401523549707106,"24":-0.16440309154111923,"25":-0.057055843256736224,"26":-0.027770556902461475,"27":-0.04482214466072576,"28":-0.2808642700248363,"29":0.051711072775238794,"30":-0.10224429658963438,"31":0.15012777705094582,"32":-0.07036767994425568,"33":0.06590020828008981,"34":0.12720776801493186,"35":-0.06884081122386358,"36":-0.2535428768801261,"37":-0.029291789215383227,"38":0.0326293603037612,"39":0.19018919188297154,"40":-0.1531734347159953,"41":-0.16883323986171922,"42":-0.2119396779548915,"43":0.20578565355832054,"44":0.1339972792263024,"45":-0.1450200690259669,"46":0.05762017594342665,"47":0.14427082944076258,"48":-0.054425591777302926,"49":-0.16878605550203968,"50":-0.15375454961087018,"51":0.19169126737745065,"52":-0.06025630242841385,"53":-0.08176482684483379,"54":0.1811049301440655,"55":-0.04856758404574661,"56":-0.29565249324564413,"57":-0.19607313968482376,"58":-0.19873685818157227,"59":0.09380892239441702,"60":0.23450272275249856,"61":0.0916804413354897,"62":0.029425158907948806,"63":0.08739015761605974,"64":-0.15161179869730887,"65":-0.041221169757513894,"66":-0.015525134012620309,"67":-0.07555505001092112,"68":-0.03831590191931817,"69":0.18859266372367678,"70":0.028229518820512535,"71":0.16835202004073113,"72":-0.016313170020743825,"73":-0.11391055207491797,"74":0.09911304178453836,"75":-0.05746676946083362,"76":-0.1260775784987292,"77":0.22725540196631683,"78":-0.1670861336893389,"79":0.10641045075105901,"80":-0.03363355088120977,"81":-0.017492446490694435,"82":-0.06330074049561582,"83":0.18314736189318295,"84":-0.015934775631431683,"85":-0.013569795217612007,"86":0.22659733668434545,"87":0.01853695629201226,"88":0.03500143574712904,"89":-0.13548020538495995,"90":-0.31190938007433183,"91":0.30024783040421577,"92":0.0688082646388902,"93":-0.08334419472675851,"94":0.08054698694428607,"95":0.025081256237185517,"96":0.07614715304689097,"97":0.02226830398914225,"98":-0.07365607112688333,"99":0.2907654295558951,"100":0.043759651345940814,"101":-0.05220320278644747,"102":0.33274355119838084,"103":-0.04180343718471149,"104":-0.05374160490435986,"105":-0.04698595454900819,"106":-0.07225179606434798,"107":0.18760310266499206,"108":-0.14375705760553348,"109":0.12240061166794461,"110":0.07426134685888652,"111":-0.003206492581103943,"112":-0.2502628048512237,"113":-0.08528683230021883,"114":-0.04741302079928123,"115":0.04002336503794571,"116":0.10385775432742783,"117":0.13045782784503007,"118":0.27967652673165955,"119":0.07174495732197185,"120":-0.056819389893691,"121":-0.07022034897642933,"122":-0.078152869738942,"123":-0.13647055981669887,"124":0.05911054246460995,"125":-0.07096658944884418,"126":-0.032057829723140176,"127":-0.05155771005123716,"128":-0.046466193376155575,"129":-0.06187062536128923,"130":0.027347950096513942,"131":-0.20535492581041304,"132":0.3532449090437928,"133":-0.15799383540184117,"134":-0.09344674332195123,"135":-0.37141047410565264,"136":0.10292856561022985,"137":0.19755301995532315,"138":0.04512904558296522,"139":-0.23073482368699635,"140":0.06922569797330076,"141":-0.010585471366535704,"142":-0.09533570273706879,"143":-0.330472383617385,"144":0.10932910517051132,"145":0.09618499477217915,"146":0.18693498009989504,"147":-0.17242744655145006,"148":-0.032796311816965976,"149":0.1699763423549548,"150":-0.09416221090756303,"151":-0.05264200666102125,"152":0.08104943499108312,"153":-0.10640428428066212,"154":-0.20521267771626506,"155":-0.05551013916903728,"156":-0.017153949824967405,"157":0.3039225122188064,"158":0.03104349616993361,"159":-0.25185434288447045,"160":-0.1137485724938293,"161":-0.1812208269968249,"162":-0.07716730304225301,"163":-0.14784373645175575,"164":0.148311717388834,"165":0.26063666136664315,"166":0.007735978357199574,"167":0.04039933187289648,"168":-0.11325359240809779,"169":-0.05027082635264281,"170":0.038658793367791516,"171":0.02151682243419071,"172":-0.06985571578690951,"173":0.08044402087090112,"174":-0.037437125133916255,"175":0.03291556789045159,"176":0.015655611687929186,"177":0.10695970580856048,"178":0.12484467554858243,"179":-0.020418987553642524,"180":-0.23685165295496943,"181":0.04566724423692056,"182":-0.03052335607732106,"183":-0.167473200943142,"184":-0.03281772109973283,"185":0.14564441087443203,"186":0.032459470661248165,"187":-0.1577076758680637,"188":-0.08398425863957323,"189":0.0850015379592166,"190":0.13347392288625556,"191":0.061291245163600114,"192":0.04972957814379685,"193":-0.30650411817177364,"194":-0.2350179692249311,"195":-0.12543810864307736,"196":0.07985161141464377,"197":0.028867031708063644,"198":-0.01974824002086617,"199":0.06624776553016619}}],"biases":{"sx":1,"sy":1,"depth":16,"w":{"0":0.01293779316081881,"1":0.016308898393927185,"2":0.005335635523795488,"3":-0.06348725177838536,"4":0.0001288464471778635,"5":0.013109462101971244,"6":0.08138686241763608,"7":0.01464844892783795,"8":0.08035133602930775,"9":-0.03522942260129589,"10":0.09251690884039561,"11":-0.0907518811254528,"12":-0.037538587204794416,"13":-0.017487477680487175,"14":-0.041057398960672585,"15":0.009721475035030543}}},{"out_depth":16,"out_sx":14,"out_sy":14,"layer_type":"relu"},{"sx":3,"sy":3,"stride":3,"in_depth":16,"out_depth":16,"out_sx":4,"out_sy":4,"layer_type":"pool","pad":0},{"out_depth":10,"out_sx":1,"out_sy":1,"layer_type":"fc","num_inputs":256,"l1_decay_mul":0,"l2_decay_mul":1,"filters":[{"sx":1,"sy":1,"depth":256,"w":{"0":-0.13427982105575792,"1":0.0037858744627272934,"2":-0.001840718640165161,"3":0.148540516657173,"4":-0.0349005897720028,"5":-0.08240401296780468,"6":-0.051595926740915746,"7":0.15609336409058552,"8":0.03406023639386266,"9":-0.10814485612549153,"10":-0.10375830664701108,"11":0.017544585381727564,"12":0.04670767935646512,"13":-0.07431956892984307,"14":-0.005148257453319108,"15":0.05259615624068754,"16":-0.05846072129971007,"17":-0.0995853262697896,"18":-0.1146726481316587,"19":0.023478119986698624,"20":-0.0013340657139797084,"21":-0.014573643883143483,"22":-0.22164746958553247,"23":-0.03744348111981932,"24":-0.19309711686002087,"25":-0.23895123228829496,"26":-0.0988735581374149,"27":0.028838845246209905,"28":-0.18073115536291937,"29":-0.014408156556426922,"30":-0.24681124558228343,"31":-0.018480505724336526,"32":-0.13889278245436354,"33":-0.039946195029212164,"34":0.04592152043400463,"35":0.13318992858610285,"36":0.031525517215287076,"37":0.0509465158898199,"38":-0.16010090232856794,"39":0.08598488510978844,"40":-0.1906203359535183,"41":0.04224024671508745,"42":-0.13504076681806632,"43":-0.06544779074965126,"44":-0.15581750988299492,"45":-0.05697880993264121,"46":-0.1348334349252151,"47":-0.04413022087146665,"48":-0.006998007417134501,"49":-0.10920280614135419,"50":0.10971225614971016,"51":0.026789223636287073,"52":0.009305529783014186,"53":-0.014532960570991864,"54":-0.12956826027871254,"55":0.07064262441873469,"56":0.09925077811286823,"57":-0.01636884478441711,"58":-0.07585302305214757,"59":-0.03824737526962281,"60":-0.0544401596653903,"61":-0.09975815528535903,"62":0.01679154824966954,"63":-0.14716351574391467,"64":0.012508290895756608,"65":-0.02097315876016315,"66":-0.06397281904294387,"67":-0.18344400150378126,"68":-0.023390035607257963,"69":-0.10588132698829492,"70":-0.15507305772314048,"71":-0.03550767448241019,"72":-0.13609662536272432,"73":-0.07858767471898494,"74":-0.03066164237135775,"75":-0.032230948129191334,"76":0.026506675403424284,"77":0.006767280455995521,"78":-0.07461214790079618,"79":-0.11959600740967025,"80":-0.12658031644712783,"81":0.0858414019905319,"82":-0.09750087367566052,"83":-0.20605992315993885,"84":-0.05644618192615027,"85":-0.16221697873219454,"86":-0.15006312023075322,"87":-0.052104201651652325,"88":0.2573727908310564,"89":-0.011626942011583638,"90":0.07409744705451654,"91":-0.025041440150506567,"92":0.021797710205602755,"93":-0.07758182934192141,"94":-0.3091096937417533,"95":-0.08732313224589883,"96":0.030551439709285012,"97":0.05058645864698817,"98":-0.12007167504866438,"99":0.09337509587979397,"100":-0.04604097150774091,"101":-0.07499825443126562,"102":0.002217069693276416,"103":-0.23114752059794402,"104":-0.036764679126915174,"105":0.01381664175124985,"106":-0.021895979017341027,"107":-0.17156526425629928,"108":0.007080984029826152,"109":0.10436449095429404,"110":-0.09473482725554122,"111":-0.05977312060345128,"112":0.05487874639555647,"113":-0.20154986922835144,"114":-0.08953140670036808,"115":-0.08863985845925865,"116":0.12889588652528267,"117":-0.3918332195152408,"118":-0.04167084571105076,"119":-0.14150092848095822,"120":-0.2070756452300079,"121":0.11018124194333405,"122":0.04467253862771902,"123":0.19987994554077507,"124":0.05352099265036171,"125":0.12773033700986483,"126":0.24674779199463714,"127":-0.04268468557683421,"128":0.20567184361437743,"129":0.08709735509915656,"130":-0.11907183806808214,"131":-0.2765915687315257,"132":-0.15925357689207867,"133":-0.38153804815968817,"134":0.05210376362922399,"135":-0.0007695089689443607,"136":-0.10740686657450207,"137":-0.26786043865928805,"138":0.009800043105714985,"139":0.04506335978010027,"140":-0.12127350747805461,"141":0.12225959647985792,"142":-0.08008714535044534,"143":-0.22698806487462517,"144":-0.36761165203311763,"145":0.0422163399727554,"146":-0.12053344022333207,"147":-0.24185187606049785,"148":-0.3040343746931516,"149":-0.06256475982621226,"150":-0.04530795119134017,"151":0.14363559272852536,"152":-0.03927797098931371,"153":-0.14213140924981557,"154":0.19447933016022406,"155":-0.17713783355598517,"156":-0.2689555344145209,"157":-0.26059765017449377,"158":-0.04341897462411859,"159":-0.2493103534583505,"160":-0.0003628729994543695,"161":-0.23103893251013335,"162":-0.029976413390125144,"163":-0.1693159841373002,"164":0.02338198802162287,"165":-0.07342073790417201,"166":-0.19107017977941837,"167":-0.03962070060407378,"168":-0.34246844071874005,"169":-0.1841593406048458,"170":-0.11211616448311128,"171":-0.015866378547936398,"172":-0.24814391372375283,"173":0.03597743511151613,"174":-0.2525739863854838,"175":0.05051450267416077,"176":-0.22537465752113708,"177":0.21429854022549433,"178":-0.29678788261007255,"179":-0.0559894456169421,"180":0.06005938914027606,"181":-0.22225426767410436,"182":0.10667291048248947,"183":-0.12916022617254103,"184":-0.16587190438947388,"185":-0.30038429491764856,"186":-0.1185640084348023,"187":-0.30169048406047194,"188":-0.022039110525080948,"189":-0.19519103771048796,"190":-0.10436980185490957,"191":-0.07128555288418166,"192":-0.02496499638225399,"193":0.049672448581541996,"194":-0.09763763176272999,"195":0.0024762823716440404,"196":-0.023699712646179247,"197":0.09281500769385663,"198":0.05582000861177264,"199":-0.04619689965127782,"200":-0.04146652092012088,"201":-0.10196922551562744,"202":-0.008600421696143477,"203":-0.00902351632080969,"204":-0.1059342430502013,"205":-0.009687758226664723,"206":0.05918446777746936,"207":-0.07292640226619375,"208":-0.09261972005359492,"209":-0.00895921293546213,"210":-0.07933148840381773,"211":0.08241160933880562,"212":0.03988730511937132,"213":-0.026091475422821798,"214":0.18186898364380108,"215":-0.027455187706804707,"216":-0.12316052078293205,"217":0.048339875406831344,"218":-0.1981789545447703,"219":0.012887423641241923,"220":0.061576566005572195,"221":-0.20258476418360813,"222":0.1371585193342186,"223":-0.12553431404632887,"224":0.02862330755546026,"225":-0.03252000759722087,"226":-0.0385390594933936,"227":0.07153950246976115,"228":-0.004700731020297557,"229":0.020840644271981276,"230":-0.16135465329719462,"231":-0.146549361159063,"232":0.14632952380593342,"233":-0.09733026458353977,"234":0.09637391065948087,"235":0.030574728134223614,"236":0.10557134969222456,"237":-0.01563765858086397,"238":0.05332078619051461,"239":-0.1174357299989485,"240":-0.1746968048931756,"241":0.08034115888754627,"242":-0.055273088897926405,"243":0.18197478604047612,"244":0.17278659485982062,"245":0.22066167569459919,"246":0.12785833549518646,"247":0.024660784931814506,"248":0.1530680836149614,"249":-0.23715382700229937,"250":-0.15289433453269194,"251":-0.10183947809446002,"252":-0.15259501215745022,"253":-0.24625105046855525,"254":-0.20787115836453432,"255":0.17892533347336434}},{"sx":1,"sy":1,"depth":256,"w":{"0":-0.16483849279797022,"1":-0.10371862977911693,"2":0.05733645695854971,"3":0.0649319829190179,"4":0.04177898951337856,"5":0.09454727336331137,"6":0.08807970040749512,"7":-0.02797634469731522,"8":0.07126926246816434,"9":-0.1251845372485457,"10":-0.02966806208760113,"11":-0.15763350532030682,"12":0.08767885625186496,"13":0.010847243652757138,"14":0.07619379305971341,"15":0.11185500704644888,"16":0.16743068318888263,"17":-0.17931135935576917,"18":0.023858744152508445,"19":-0.08600548639230982,"20":-0.1505398176916692,"21":-0.11420607032207329,"22":-0.064590341492059,"23":-0.0003231664346630884,"24":-0.03225514321254622,"25":-0.20175261935180105,"26":-0.007368525602447829,"27":-0.10840312802035791,"28":-0.16953383640989422,"29":0.029904470502809116,"30":-0.11691788486328922,"31":-0.08101003449012689,"32":0.12685213435483111,"33":-0.01878889619826605,"34":-0.06779259704306996,"35":-0.047278742509198064,"36":0.08608825666379259,"37":-0.08515137133671025,"38":-0.21855756563107306,"39":-0.055086160879674904,"40":0.2663636161164417,"41":-0.11594178646625242,"42":0.34013831307002046,"43":-0.035442894204129445,"44":-0.2202363815351074,"45":0.30058362254169013,"46":-0.20146032720955787,"47":0.1654975203997326,"48":0.07415871946652693,"49":0.20918935980144754,"50":-0.174044972899545,"51":0.114282496407137,"52":0.14535883433838032,"53":0.029686621143777778,"54":-0.05133621782121215,"55":-0.20996165524193533,"56":-0.1927743584353109,"57":-0.05746062842744237,"58":-0.04266361938959464,"59":-0.22662791606102595,"60":-0.14959894972486157,"61":0.025079386479064138,"62":-0.16894326673201868,"63":0.10347968093545627,"64":-0.11713140284233338,"65":-0.07370265045154371,"66":-0.10193473870598214,"67":0.013300565979612407,"68":-0.10193614005647772,"69":-0.08804596835693397,"70":-0.11546142838034391,"71":0.0561607870437264,"72":-0.04407096640291328,"73":0.00022645471946368677,"74":0.09381652369358139,"75":0.021211257924571035,"76":0.012810071451329895,"77":-0.3426234742697848,"78":0.01499737605426323,"79":0.053850867190296046,"80":0.05457563614993485,"81":-0.14227768209755276,"82":-0.11541405414506312,"83":-0.011114465704721627,"84":-0.018209412789326907,"85":-0.06818025114616307,"86":-0.17264268426617954,"87":-0.03665275966869517,"88":-0.06277721195035606,"89":-0.16126147888836226,"90":-0.23660712070067527,"91":0.07443582057396395,"92":-0.10521376920867082,"93":0.07817548241733165,"94":-0.16330502946766481,"95":0.0067502427404164175,"96":-0.06875461150252549,"97":0.050797360324039594,"98":-0.09662918346902671,"99":-0.16096429461964465,"100":0.11052982692631437,"101":-0.07179905054234476,"102":0.03465290880203643,"103":0.28229761281496735,"104":0.2503966482411792,"105":-0.08596675888482783,"106":0.13733538652604957,