{"layers":[{"out_depth":1,"out_sx":24,"out_sy":24,"layer_type":"input"},{"sx":5,"sy":5,"stride":1,"in_depth":1,"out_depth":8,"out_sx":24,"out_sy":24,"layer_type":"conv","l1_decay_mul":0,"l2_decay_mul":1,"pad":2,"filters":[{"sx":5,"sy":5,"depth":1,"w":{"0":-0.125910540780212,"1":0.09569173540998989,"2":0.2350831458154392,"3":-0.4405416107153184,"4":0.2473138949516116,"5":-0.2835511134054126,"6":0.33939822320293883,"7":0.02488583678388149,"8":-0.01373745030138577,"9":-0.07806125182219714,"10":0.2006578630646334,"11":0.054438532273751734,"12":-0.23048654648252814,"13":-0.3067436152346192,"14":-0.3679655059931001,"15":0.09264580823270784,"16":0.31378803300154007,"17":-0.00770060385847258,"18":-0.1362487354396365,"19":-0.2578486598262186,"20":0.36343297744098746,"21":0.04580977758421601,"22":0.2598686212717729,"23":0.24324411752663472,"24":0.2037505023386963}},{"sx":5,"sy":5,"depth":1,"w":{"0":0.31590668557330215,"1":0.25694962434412155,"2":-0.3661606372775058,"3":-0.37877108092920564,"4":0.08397081103700212,"5":-0.2308897556383167,"6":0.0651140121710738,"7":-0.2219103316411992,"8":-0.33830418093367665,"9":0.19009857818763717,"10":0.17359376515772496,"11":-0.26205929404108486,"12":-0.46406534669763594,"13":-0.3319370137905372,"14":0.14323475023149476,"15":0.08964943565599601,"16":-0.4860109897871916,"17":-0.17976878492596965,"18":0.00795744242656153,"19":0.09886679307452184,"20":-0.2659047539920609,"21":-0.5107256924139354,"22":0.014492264842382117,"23":0.22880682678636804,"24":0.397580660940571}},{"sx":5,"sy":5,"depth":1,"w":{"0":0.11462315061305564,"1":-0.13827128598188615,"2":-0.23516872709023426,"3":0.10813579330025531,"4":0.20619172436503808,"5":0.07534005167211576,"6":-0.22599561736349744,"7":0.13102812443457398,"8":0.26236054333255554,"9":0.375772276967569,"10":-0.05779973687443875,"11":0.44219517732863994,"12":0.45803096029135965,"13":0.3475999819848984,"14":0.14724801159184836,"15":-0.10316178111067344,"16":-0.01746697973361983,"17":0.15569105726629137,"18":0.660657469860326,"19":0.6514208201363603,"20":-0.22523961041548027,"21":-0.32114790412195443,"22":0.19234801755637845,"23":0.12826488888182758,"24":0.5177455985876924}},{"sx":5,"sy":5,"depth":1,"w":{"0":0.03817542626620679,"1":0.030978269101775133,"2":0.26469066230315164,"3":-0.047316145488501465,"4":-0.34208136650247595,"5":-0.15202182264551328,"6":-0.046138481202271986,"7":-0.19901790919323126,"8":-0.20754092183717668,"9":0.16715825004469542,"10":-0.1847211089170312,"11":-0.3076004288373074,"12":-0.04431398118585138,"13":-0.22910647387352764,"14":0.47398701350319966,"15":-0.2712988787062407,"16":-0.22823341207147352,"17":-0.13211793249679107,"18":-0.2241106845467305,"19":0.00316784853630998,"20":0.0692135743336337,"21":0.05001512152273096,"22":0.45559180627760426,"23":0.2557308907007757,"24":0.12261560838690393}},{"sx":5,"sy":5,"depth":1,"w":{"0":-0.18592952530582868,"1":-0.28830501285805904,"2":0.3836403830963116,"3":0.35133195736638007,"4":0.043212810026429134,"5":-0.1705050645398566,"6":0.24573545261929636,"7":0.19989653447556022,"8":0.4816091808943481,"9":0.13413768312027372,"10":0.05635584563534829,"11":0.3038660640338987,"12":0.5650445481226947,"13":0.26032029922705124,"14":0.31544547887438223,"15":0.07691069044493982,"16":0.0723421292670806,"17":0.1901293782616617,"18":-0.4327544990160906,"19":-0.08025815576026772,"20":0.06028346767790169,"21":-0.07662573124295659,"22":-0.013220771051917778,"23":-0.15267473151359046,"24":-0.3404947147749791}},{"sx":5,"sy":5,"depth":1,"w":{"0":0.1182794897719959,"1":0.2370508574735511,"2":-0.00616877461317103,"3":-0.6772474872425277,"4":-0.04597112591362012,"5":-0.11388282541699851,"6":-0.1422482471434606,"7":0.004279662178707526,"8":-0.4047278664308654,"9":-0.2811493795035683,"10":-0.10879125201893526,"11":-0.32318959797718244,"12":-0.0198316090808441,"13":-0.08555979466636066,"14":-0.1320598887357994,"15":-0.3699070711870243,"16":-0.22609474056895662,"17":0.010356117814289051,"18":0.13232312522349673,"19":0.21393206258839007,"20":-0.04557712656132858,"21":0.06873907313978178,"22":0.2191626732317161,"23":0.18683372734902945,"24":-0.19572312550923796}},{"sx":5,"sy":5,"depth":1,"w":{"0":-0.1543327607437202,"1":0.22495299696004536,"2":-0.2144647882046563,"3":-0.22625895336486643,"4":-0.058276213999276,"5":0.14076644974111088,"6":0.23978946890353614,"7":-0.2915923814650386,"8":-0.044162863046163126,"9":-0.05982381032073652,"10":0.5640372187773285,"11":0.19197537186656782,"12":-0.37046400019074827,"13":0.05179554485690755,"14":0.031770297636740795,"15":0.3176092672165109,"16":0.09206942984809106,"17":0.28177603783817334,"18":-0.25557011937240687,"19":-0.21915434162896885,"20":0.36526037605354367,"21":0.053761553131080914,"22":-0.48030489725942505,"23":0.1317415609125546,"24":0.13975413678652573}},{"sx":5,"sy":5,"depth":1,"w":{"0":-0.13197670027245612,"1":-0.49290098832935153,"2":-0.14426353499187253,"3":-0.5428746648387375,"4":-0.3353623339521115,"5":0.2612957448329786,"6":0.15118474178416633,"7":-0.5410983998115256,"8":-0.3627461151828912,"9":-0.17158050804737485,"10":0.36617683585731664,"11":0.2357055630045551,"12":0.040029828958465005,"13":0.00006272109430107559,"14":-0.06948501135247016,"15":0.08690649188134073,"16":0.4142137836943127,"17":0.26414759694492196,"18":0.2847616213427034,"19":0.25710923881953557,"20":0.33167141370855524,"21":0.5562837018814727,"22":0.25174635384123495,"23":0.7731741268450523,"24":0.4224323959173919}}],"biases":{"sx":1,"sy":1,"depth":8,"w":{"0":0.01169473555440111,"1":0.14266733325098624,"2":-0.12269641239219606,"3":0.054816788835744555,"4":-0.032119865454848455,"5":0.16466212379928669,"6":0.05705841597715448,"7":0.0705621458338777}}},{"out_depth":8,"out_sx":24,"out_sy":24,"layer_type":"relu"},{"sx":2,"sy":2,"stride":2,"in_depth":8,"out_depth":8,"out_sx":12,"out_sy":12,"layer_type":"pool","pad":0},{"sx":5,"sy":5,"stride":1,"in_depth":8,"out_depth":16,"out_sx":12,"out_sy":12,"layer_type":"conv","l1_decay_mul":0,"l2_decay_mul":1,"pad":2,"filters":[{"sx":5,"sy":5,"depth":8,"w":{"0":0.015226868007742578,"1":-0.13168697029933973,"2":0.01886263907573675,"3":-0.03347473770761898,"4":0.02521303864756553,"5":-0.037152518914520066,"6":-0.117638912025989,"7":-0.07492118020497546,"8":-0.1313542060204162,"9":-0.010009659549364322,"10":-0.013157957170565211,"11":-0.03812655352757453,"12":0.062061160165876796,"13":0.017540417889732627,"14":-0.08817904286195856,"15":-0.018629059272168062,"16":0.008897068493736431,"17":0.11205151073980363,"18":-0.11235019356151589,"19":0.026262180315527593,"20":-0.05778235887125085,"21":-0.05566898326848791,"22":0.011379320230202127,"23":0.034563875115362276,"24":0.04331553712509787,"25":0.20966527847688907,"26":0.06403535736978078,"27":-0.03347185685966197,"28":0.1012840547515839,"29":0.008827430529715605,"30":-0.06622419025819769,"31":-0.039882493650656894,"32":0.024712349679735082,"33":0.05553569136813232,"34":0.1716138682319679,"35":0.07554232698271413,"36":0.14023524373464888,"37":-0.006674180934366133,"38":0.016115416379051596,"39":0.13965758886562135,"40":-0.03018619781267022,"41":-0.010227219942191466,"42":0.043107431604475374,"43":-0.17882188344602215,"44":-0.12050872945842367,"45":-0.00048749007333118713,"46":0.02976671914948584,"47":0.13326278379938614,"48":-0.08953999304195762,"49":0.0041008945752127515,"50":-0.08333037874069937,"51":0.04458345003941906,"52":0.05386576805192816,"53":-0.060188800318348036,"54":-0.00868583182480782,"55":0.05152256305606744,"56":0.052453795605356936,"57":-0.012843950734320894,"58":-0.05530764552107531,"59":-0.09773992704102945,"60":-0.09510551603961868,"61":0.024537661938753497,"62":-0.0028954767942448896,"63":-0.15000724337997884,"64":-0.03410702391858204,"65":0.01997646313878162,"66":0.03169510095781618,"67":-0.018601346131108143,"68":-0.10494056559468479,"69":0.02531193443999923,"70":-0.03245164061736734,"71":0.009636334301800617,"72":-0.08662531089862073,"73":0.06226162211114702,"74":-0.046284361244533126,"75":0.026580229239373622,"76":0.0717097182709901,"77":-0.10414017420939925,"78":-0.05620247767964829,"79":-0.10245619608046436,"80":0.016193272395245303,"81":-0.06717263827183997,"82":-0.19506107491953126,"83":-0.13097091621098744,"84":-0.1591780787249686,"85":0.025387029474103803,"86":0.1249627526295611,"87":-0.13105850579914974,"88":-0.015461708903832543,"89":-0.04048339540954858,"90":-0.1411763351757538,"91":0.17938417023201975,"92":-0.07633281991370958,"93":-0.022806896163773432,"94":-0.1588563914063154,"95":-0.16432578529841765,"96":-0.05380372399450204,"97":-0.0970660230696803,"98":-0.1029567434707193,"99":-0.028858237220190496,"100":-0.05749963501373045,"101":-0.04182994723093753,"102":-0.08602932638427825,"103":-0.14363889169820102,"104":-0.07650863202822172,"105":-0.07763942589108619,"106":-0.07890189823592486,"107":-0.008960453561997603,"108":0.08799348399527993,"109":-0.043653983640406555,"110":-0.048325522132966606,"111":-0.07425599805022157,"112":0.03308185220783481,"113":-0.09696360670805465,"114":-0.14764223654458766,"115":-0.07602310790605239,"116":-0.1853537065351219,"117":0.09591735464461948,"118":-0.04969226308099091,"119":-0.11337641067698434,"120":0.07430991895605212,"121":0.007456175128167276,"122":0.06361332881739126,"123":0.025342475223015297,"124":-0.14142681884002542,"125":0.10309245344124857,"126":0.040090828495596836,"127":-0.006440074190147077,"128":-0.06345989387407316,"129":-0.042375501546718736,"130":-0.038038210001552684,"131":0.03588597926849456,"132":-0.034930494461860306,"133":-0.033838629862809035,"134":0.017334096411309483,"135":0.06297695123770654,"136":0.03772297898566816,"137":0.0007804074376870451,"138":-0.10946291521125973,"139":0.044768226524543375,"140":-0.18036107276547098,"141":-0.015013700814134097,"142":-0.11419056756627495,"143":-0.000047296482942167,"144":0.08778482237978061,"145":0.0028865825675127325,"146":-0.11635923552093816,"147":0.1521492930542524,"148":-0.06026868564124435,"149":0.052769121679538865,"150":-0.018153363919953255,"151":0.015240155711053228,"152":-0.07346289584888924,"153":-0.04554906889732653,"154":-0.19275644298714326,"155":0.010732758264062137,"156":-0.1097190281375448,"157":-0.013192974202081455,"158":-0.0279466934735715,"159":0.08827382198867874,"160":0.1391517590591181,"161":0.14052555407289105,"162":0.1251917435664166,"163":0.2502090162601089,"164":0.010320193093629523,"165":0.061744635504954286,"166":0.08652483885777094,"167":0.04053030981021228,"168":0.023939709999662755,"169":0.02620175677045672,"170":0.0039108753496869385,"171":0.0015271860909991828,"172":-0.028021746903523253,"173":-0.014870479305724202,"174":0.029091606023058682,"175":0.12591775110190973,"176":0.17863414261794772,"177":-0.2928677004356879,"178":0.11242780926656883,"179":0.02744185934267708,"180":-0.005825511345669645,"181":-0.0002713951254772008,"182":0.05473162509488722,"183":0.14840196419584406,"184":0.1016654556533764,"185":-0.0862776691046438,"186":0.09272787598895217,"187":0.04080642377120071,"188":-0.002165203932331174,"189":0.07056201614244849,"190":-0.035866690136073964,"191":0.23713889238319538,"192":0.06112106994178244,"193":-0.11149624168313553,"194":0.034141610123141125,"195":0.031112990269531956,"196":-0.11497418800571825,"197":-0.11951781832756667,"198":-0.06982728810750188,"199":0.08642253450546833}},{"sx":5,"sy":5,"depth":8,"w":{"0":0.14181480563816967,"1":-0.08927392795878188,"2":0.0796200814946982,"3":-0.10868513321679879,"4":0.05520037951065097,"5":0.009846202354502407,"6":0.05862019272811054,"7":0.02092019768426994,"8":-0.08980514075466231,"9":-0.08428656347593091,"10":0.0031222796623123243,"11":-0.03845502143018068,"12":0.1207756407960425,"13":0.08032359577827047,"14":0.04109392679028814,"15":0.22164312041807444,"16":-0.006879736882281415,"17":-0.06798406984330779,"18":0.03760581431980132,"19":0.15570737408529453,"20":0.08783695728022271,"21":0.03837398932569246,"22":0.023275556743904843,"23":0.1420710543366959,"24":0.00790828568563665,"25":-0.11563165053220295,"26":0.04085078483304861,"27":-0.11755787008348753,"28":0.16085231517683807,"29":-0.0713950148926304,"30":0.11511343614368154,"31":-0.07230906279811866,"32":-0.02292329452182457,"33":-0.08069895176647425,"34":0.21564508175050834,"35":-0.10646040247644122,"36":0.005921337842848252,"37":-0.10638835258807278,"38":-0.054747217397871084,"39":-0.08047136785764117,"40":0.1310458036455305,"41":0.027191052369274007,"42":0.012806663293813473,"43":0.04837535052938505,"44":0.026738779656340975,"45":-0.1294044576895946,"46":-0.1870903030804341,"47":-0.08384936385334031,"48":0.0483983332095518,"49":-0.1771654364960796,"50":0.026732487130096783,"51":-0.017186870580578755,"52":0.09571964184077388,"53":-0.14738988672134806,"54":0.03839017045826709,"55":-0.1446387366050255,"56":-0.0376038894058298,"57":-0.013902299968095493,"58":-0.06889752138377025,"59":-0.011893921055125828,"60":0.00643072500402947,"61":-0.06571130129501099,"62":-0.04702800738824553,"63":-0.09329232997184465,"64":0.03124629409144851,"65":0.1431131287583936,"66":0.002317827230472129,"67":-0.00629151307382776,"68":-0.059731765050087184,"69":0.011246800585917316,"70":-0.09413523939248965,"71":-0.07001760839966707,"72":-0.08648404368129886,"73":0.06903505353786976,"74":0.12467342457315704,"75":-0.03760741759479315,"76":-0.026067990106409127,"77":-0.09748051491667624,"78":0.059552949923284706,"79":-0.19051492864946473,"80":0.0032526930907035845,"81":0.0392564015213524,"82":-0.14222593568132544,"83":0.02600681787021721,"84":-0.1444744231600712,"85":-0.08814090761554863,"86":-0.08558207678655488,"87":-0.0621112896420361,"88":-0.07916408757908877,"89":-0.1780353265013086,"90":-0.11847312584340154,"91":-0.04228510975673392,"92":-0.07072913235453486,"93":0.0900960817052181,"94":0.027715869027981222,"95":-0.17108766797699637,"96":-0.024997575941211266,"97":0.05940342431336539,"98":0.028688195112147694,"99":0.0673247545595757,"100":0.09544371188450353,"101":0.08869134341740557,"102":-0.026789129803388274,"103":-0.013541614720121437,"104":-0.042922934503474404,"105":0.01712093255103136,"106":-0.10481315531229861,"107":0.015290913368688798,"108":-0.02425536795535641,"109":-0.12758788665703635,"110":-0.11084148581306137,"111":-0.13520575395806875,"112":-0.04552517271608649,"113":0.045340066482602755,"114":0.029292873983187626,"115":-0.01993709172721577,"116":0.023497760440609354,"117":-0.07933442527965502,"118":-0.04677897400906967,"119":-0.1650828223532497,"120":0.03348629686642849,"121":-0.020679510360818436,"122":-0.09568759006259869,"123":0.042982194426485355,"124":-0.09407838663346033,"125":0.09016166671876162,"126":0.04305979553224398,"127":-0.0374910814029406,"128":-0.08524540593940977,"129":-0.018345707754601058,"130":0.008887789061392854,"131":-0.07369580560313745,"132":0.026102797239613795,"133":0.1479205173475716,"134":-0.07199865970064132,"135":-0.15098454014635873,"136":-0.00715248282727134,"137":0.10102403744950125,"138":-0.03359121780291412,"139":-0.03216040880617147,"140":-0.14568185008879714,"141":0.1645295215714312,"142":-0.09698641683219088,"143":0.045675984460441556,"144":0.18443250332174846,"145":-0.006616901426997269,"146":-0.14320183274013046,"147":-0.011415591786503896,"148":-0.044681103365434224,"149":-0.06326502326716972,"150":-0.030123529916550172,"151":-0.116531311207616,"152":-0.02071143918231475,"153":0.22791478968275186,"154":0.022230518597759062,"155":-0.025080465972568227,"156":0.07315868567913054,"157":-0.07713412331849549,"158":0.11292233198600875,"159":-0.11983401885846783,"160":0.0293966028668717,"161":0.012947439074985335,"162":-0.028604714211858832,"163":0.08031919889009016,"164":-0.09590433175906428,"165":0.051109122957986905,"166":-0.07971957680230202,"167":-0.03725290348517903,"168":-0.048409851110714996,"169":0.032678486297496354,"170":-0.10075822584885884,"171":-0.021233632445109594,"172":0.023872317618732486,"173":-0.033930271896532804,"174":-0.03433649158072074,"175":-0.0006661341127057383,"176":-0.02243609905663336,"177":0.1348719571925244,"178":-0.040198016626020974,"179":0.03528600003195973,"180":0.00048081827211501,"181":0.020337641334314528,"182":-0.12403327656735538,"183":0.10943304431627215,"184":-0.05285957252994862,"185":0.06208817616255535,"186":0.07004190655284336,"187":-0.08304265476378396,"188":-0.10390561355673361,"189":-0.0461631102601258,"190":0.001234188706841178,"191":-0.08524285230899639,"192":0.06270233383966645,"193":0.0003777760256219651,"194":-0.034404601574135184,"195":0.005019060677669298,"196":0.13068282937556122,"197":-0.10564721239871146,"198":0.07374749311354627,"199":-0.043862880570214514}},{"sx":5,"sy":5,"depth":8,"w":{"0":0.07663736553107063,"1":-0.06942069100556013,"2":-0.18515853908391536,"3":-0.09181204280835646,"4":-0.12628260595956903,"5":-0.018543427522571775,"6":-0.05155345084538805,"7":0.10002228351207368,"8":-0.07646147507868048,"9":0.06568301984939964,"10":-0.1281422278139987,"11":0.0005715570831508979,"12":-0.10183592559761061,"13":0.020385043275215325,"14":-0.00035354461113272506,"15":-0.06996349080961073,"16":-0.07062816809937232,"17":-0.01914036916435133,"18":-0.22287713681186175,"19":0.017764046113611282,"20":0.0020904473094526337,"21":-0.006174229775093768,"22":-0.23643932677756666,"23":-0.048402185422751966,"24":-0.01970379851581533,"25":0.09240868773161806,"26":-0.06128350049277738,"27":-0.06618155826345451,"28":-0.1002282754087659,"29":0.0723257714464819,"30":-0.1143679681083694,"31":-0.16443223603552026,"32":-0.10541350240503583,"33":0.04863098729779555,"34":-0.05507816463705452,"35":-0.030551882272212946,"36":-0.10152824733928321,"37":0.0026932668192459026,"38":-0.024544120625818268,"39":-0.13415027884966374,"40":0.03029458161477722,"41":0.03869797964898984,"42":-0.008554024684743934,"43":0.10265186755055565,"44":-0.0316704548439338,"45":0.10620972151282015,"46":0.02482542467445918,"47":0.1034575249822062,"48":0.11368678648985417,"49":0.032475883280566116,"50":-0.12953137852718385,"51":0.12568910648061787,"52":-0.09647493856960918,"53":0.0053066870606113216,"54":0.1018492903154258,"55":0.17577118401383057,"56":-0.11248129089637296,"57":0.1291976990659345,"58":-0.06625179096045945,"59":0.07165170857649726,"60":-0.15406057190593003,"61":0.03996864099893007,"62":-0.05384690564427132,"63":0.19202314148990215,"64":0.055669553138649866,"65":0.006239349011438566,"66":-0.11199762534841112,"67":0.06830327695405207,"68":-0.254631088043429,"69":-0.030055406046505754,"70":-0.12026806831259174,"71":0.12114487874626118,"72":-0.002806656071195137,"73":-0.04511248908292099,"74":0.016297486288614604,"75":0.0032006424523345527,"76":-0.22624502045748165,"77":0.07128600996608127,"78":0.07693589136007295,"79":0.025088877697732194,"80":-0.0577116592559634,"81":-0.04659334051413794,"82":0.09378744081716442,"83":-0.14817234388792214,"84":0.2029415362406613,"85":0.0818534423902223,"86":-0.07169278466484649,"87":0.08666189688485611,"88":-0.06245393011011349,"89":-0.1729755756837199,"90":0.04579660027425678,"91":-0.019444659980964736,"92":0.17819633471316706,"93":-0.10367150038197583,"94":0.0831335047929275,"95":-0.024050056786909836,"96":0.10045177006899053,"97":-0.22490134889409094,"98":0.10660137199620348,"99":-0.03923906530952223,"100":0.016296108250111425,"101":-0.053935299905375836,"102":0.07243185908237663,"103":-0.006311637004890309,"104":0.08606546347372056,"105":-0.02378393564297519,"106":-0.01630095468102584,"107":-0.09851101729172833,"108":0.04477397441980754,"109":0.06957632746755331,"110":0.13053838777446436,"111":0.14227918791218705,"112":-0.09737154243837079,"113":0.012569143964855556,"114":0.06892568493645586,"115":0.023600551296470672,"116":-0.0018336202960155135,"117":0.060294635960459725,"118":0.09424523581593368,"119":0.06588671252993804,"120":-0.04148930234179427,"121":-0.010968797821970024,"122":0.08820662433044592,"123":0.05067608943855011,"124":0.2527084804095695,"125":-0.004128284912647796,"126":-0.012796649215687132,"127":-0.010094109574758965,"128":-0.030065276249391953,"129":0.04990329072021338,"130":0.06772005700082993,"131":0.010043846787985424,"132":0.0428570040037679,"133":0.04297355756100123,"134":-0.04332444802260619,"135":-0.16447919061447042,"136":0.025244224875799626,"137":-0.0991908411510307,"138":-0.024960509874825548,"139":-0.11844878656478336,"140":0.03546822364677597,"141":0.03350815756362194,"142":-0.03811685815558891,"143":-0.02222179633906088,"144":-0.03836345678743644,"145":-0.17132379403458092,"146":0.08186025660900802,"147":-0.1509857253006235,"148":0.09193657517614624,"149":-0.00706596081304764,"150":-0.018741785670004986,"151":0.02907215266597129,"152":-0.005209953140039147,"153":-0.05021618606403602,"154":-0.03834764782075701,"155":-0.14367634842302793,"156":0.00037841322038272853,"157":0.045424873332327184,"158":-0.05209630314001844,"159":0.07367548253227181,"160":0.017944421835083723,"161":-0.013595740527860598,"162":0.028335124382832113,"163":0.0958420446808242,"164":0.0448265369505576,"165":0.009219105765804723,"166":-0.0869965987880195,"167":-0.0941688241812497,"168":-0.009704619910149676,"169":0.08292687715435954,"170":0.03619517595446605,"171":0.12754037582386377,"172":0.05907096658973343,"173":0.03431218459691857,"174":-0.06702460150636769,"175":-0.17904648003609697,"176":0.013143472292748377,"177":-0.003866421811011217,"178":0.033734185096459965,"179":0.011277633352765189,"180":-0.11592600550876268,"181":-0.062245609926560815,"182":-0.06353007232222997,"183":-0.15944381716925943,"184":-0.10127503334283001,"185":-0.05310438084834248,"186":-0.06721445473785341,"187":-0.13154183445564313,"188":-0.0032237700292720734,"189":-0.05452328726225204,"190":0.010140932707919685,"191":-0.051317133220641645,"192":-0.10440208941386621,"193":-0.1653283960747883,"194":-0.06421914498019632,"195":-0.10339770330491871,"196":-0.10363894134193585,"197":-0.04815944688131339,"198":-0.022289173850876105,"199":0.007832363208745561}},{"sx":5,"sy":5,"depth":8,"w":{"0":-0.027448036022648198,"1":0.09402545367190221,"2":0.11678009685561211,"3":0.00486276395771987,"4":0.05728151738204677,"5":-0.0741809988361144,"6":0.0111774015267363,"7":-0.01218396048869431,"8":0.06736713543329122,"9":0.10263599398199134,"10":0.07281458645349845,"11":-0.07173276887413021,"12":0.07971257517028764,"13":-0.07598031495148089,"14":0.006973723839941656,"15":-0.0737341159833328,"16":-0.06430555092849154,"17":0.037418099816169795,"18":-0.03554568692250468,"19":-0.08931844561136136,"20":0.06124607045993931,"21":-0.005066221411396671,"22":0.011481993485762206,"23":-0.16077777771707508,"24":0.09815490631893807,"25":-0.008542399543490974,"26":0.0076396669373106785,"27":0.000007182350966476584,"28":-0.03593464851641338,"29":-0.02889348082976901,"30":-0.1728391653982193,"31":-0.0022202997158023968,"32":-0.04828669801624069,"33":-0.06790575502607599,"34":0.005101670765706081,"35":-0.10046559304425265,"36":0.19075605254306563,"37":-0.15228171579392327,"38":0.09251169795515805,"39":-0.081354266446609,"40":0.08142080963580335,"41":-0.14353925229832182,"42":-0.036718081934917754,"43":-0.07740791691793523,"44":0.11673634907548695,"45":0.07323628601551237,"46":0.12217720567722333,"47":-0.03447792903691215,"48":-0.014827480974232695,"49":0.07888524963296992,"50":-0.17011202550600654,"51":-0.07394401261161604,"52":-0.04708861602763979,"53":0.0614131783754472,"54":0.10000282384361898,"55":0.011520943192185789,"56":-0.1304062010569926,"57":-0.0020003789154685496,"58":0.03363641658921529,"59":-0.060033777141366346,"60":0.040887558483631695,"61":-0.007325788730724125,"62":0.06830515580644911,"63":-0.04890264947746191,"64":-0.09169970220511327,"65":-0.020754314860443903,"66":0.08906668588153707,"67":-0.032690485094424876,"68":0.06019051579475909,"69":-0.08654300763749644,"70":-0.04429514075271298,"71":-0.035696435682864604,"72":-0.03442611133201087,"73":-0.00551328151215054,"74":-0.1956811796469548,"75":0.1251807094842764,"76":-0.08119538744376353,"77":-0.04999746004722894,"78":-0.06991060064125512,"79":0.06680872476049696,"80":0.06595436097206417,"81":-0.07785765352249661,"82":-0.07239761700957933,"83":-0.09858787983273509,"84":0.07230628441853798,"85":-0.05578826889179067,"86":0.09952658646543816,"87":-0.07947881369646366,"88":-0.1050611831840606,"89":-0.1544789345429732,"90":-0.00880629116135069,"91":0.008970719017992464,"92":-0.06520593198623192,"93":-0.15367418288634332,"94":-0.018796925774048283,"95":-0.0625530344279008,"96":0.06756566243379925,"97":0.10026156748363665,"98":-0.1357280722759484,"99":-0.0915612527915371,"100":-0.04308836442660897,"101":0.0796587267011057,"102":-0.02123177967206708,"103":0.04099945626298679,"104":-0.003667670249249835,"105":0.05172485457411976,"106":-0.04715737663234643,"107":0.009059237342706744,"108":-0.1581484995701177,"109":0.18874520864206126,"110":-0.021210849984321507,"111":0.05475329493076793,"112":0.04138479482504199,"113":-0.061411507591722474,"114":0.08636863739723936,"115":0.07636334897720999,"116":0.03273076589854477,"117":-0.001518979069100995,"118":-0.12665231814519712,"119":-0.0821621636802895,"120":-0.006256936390973833,"121":0.01027302031966795,"122":-0.09462890848885126,"123":-0.055039080184411476,"124":-0.05080119246080274,"125":0.001050001147096205,"126":-0.014449422342367495,"127":0.10496058264256028,"128":-0.10842340170794536,"129":0.1328835941933289,"130":-0.060380911211480204,"131":0.03685997666840718,"132":-0.1544993962087345,"133":-0.05724426180692381,"134":-0.18261418452702605,"135":-0.018534171734005882,"136":0.044199115937951707,"137":0.08126185088766238,"138":0.04162260805986689,"139":-0.024626372237655958,"140":0.03880479231580365,"141":0.18987071359426552,"142":-0.097056658413539,"143":-0.024917460516755658,"144":-0.04343668437866502,"145":-0.0066705038106704435,"146":-0.009726773484209254,"147":0.060308714112687324,"148":-0.021576482691832724,"149":0.10443015975811426,"150":-0.02463874239457561,"151":-0.07098094654727384,"152":0.022505354731108953,"153":-0.0999103463506146,"154":-0.020168697650124575,"155":-0.02245803973166159,"156":-0.06512810269261805,"157":0.1268142858987005,"158":-0.05177262562347537,"159":0.0785746830012608,"160":-0.049463369127852826,"161":0.11530545564623376,"162":-0.10151809232419153,"163":0.03526620438131586,"164":-0.11249353594368344,"165":0.0020543752505639396,"166":-0.057062413857580256,"167":-0.1285137762692163,"168":0.009761874323342707,"169":0.13886875598003856,"170":-0.0036855680747482755,"171":-0.012200525943955577,"172":-0.020333141101539706,"173":0.021277320638998492,"174":-0.014568247253083344,"175":-0.11684785140297221,"176":-0.12918021745006686,"177":-0.08941683866148854,"178":-0.1014469067860212,"179":-0.01362663869178244,"180":0.1743223935835302,"181":0.10023593391605515,"182":-0.09384209823716964,"183":-0.05520949621128946,"184":-0.03747352397100677,"185":0.0012846659332359433,"186":-0.021308624715505133,"187":-0.015594186409531186,"188":-0.03272743199622987,"189":-0.13175114170597713,"190":-0.09704527739763288,"191":-0.12620180276927845,"192":0.1181819290494261,"193":-0.031167751762281815,"194":0.015164784138066614,"195":-0.05555794965266167,"196":0.05709019417784072,"197":-0.0005843585789968386,"198":0.012622459414196992,"199":0.0335085255237159}},{"sx":5,"sy":5,"depth":8,"w":{"0":0.030812336248745076,"1":-0.0049409800963855915,"2":-0.09753612782860946,"3":-0.06084126228043255,"4":0.18256864840516868,"5":-0.010568263406193618,"6":-0.03568003421572724,"7":0.013246790883965732,"8":0.010025885375749385,"9":0.0695296883986711,"10":-0.14361520953336662,"11":-0.06505077015633655,"12":0.0535258640338293,"13":-0.040730696376950176,"14":-0.030640547178696687,"15":-0.06801722023282002,"16":-0.01952179053773849,"17":0.19535574511559428,"18":-0.0165956655764133,"19":0.1125300166108708,"20":-0.09674413240706078,"21":-0.0651808286068076,"22":0.014619393002987547,"23":-0.03353340069196686,"24":0.047817553186886096,"25":0.1282815952373827,"26":-0.03220159243553271,"27":0.0678956075846061,"28":-0.09536882950663507,"29":0.09557282693286497,"30":-0.14187305931149716,"31":0.05383356306370774,"32":0.05014662409489343,"33":0.15131637575307424,"34":-0.026845232154814887,"35":0.04662817842555639,"36":0.057348457418944045,"37":0.07393505896095569,"38":-0.013685078252599363,"39":0.10338254178525022,"40":-0.04699669960946572,"41":0.07217909973883788,"42":-0.11497526424990648,"43":-0.0051701264227602805,"44":0.12860108850690868,"45":-0.06728785078045568,"46":-0.02751980226571082,"47":-0.09381145831447406,"48":-0.058560285522741236,"49":-0.0067599532360868506,"50":-0.14542206890005005,"51":0.059581548959052065,"52":-0.25198183822071346,"53":0.053636009779086405,"54":-0.039911293286984444,"55":-0.17618057317542268,"56":-0.153557696287907,"57":0.14091841370410982,"58":0.053765671666465245,"59":0.10942759524627417,"60":-0.09878934537667548,"61":-0.06820347241072469,"62":-0.11217253022241302,"63":0.14022496180183477,"64":0.1362633117091693,"65":-0.023554734044410865,"66":0.1849757290921962,"67":0.07904777383913393,"68":-0.0411970290255349,"69":0.04200116870498178,"70":0.11234169712334911,"71":0.1163664444082732,"72":-0.004670823562612704,"73":0.1926185515534305,"74":-0.036919749816793954,"75":-0.06392767295253847,"76":0.09297601002570437,"77":-0.03893802843693052,"78":0.07987514753094424,"79":0.17870485831167748,"80":-0.07860198757196957,"81":-0.0881767241499462,"82":-0.18478644374231717,"83":0.07105647942872927,"84":-0.03345811341109026,"85":-0.05604718088470594,"86":-0.041670842060139685,"87":-0.1693135450962405,"88":-0.10940407352605451,"89":-0.021536073960542947,"90":-0.16170177062680413,"91":0.02413068736842474,"92":-0.08271970644486565,"93":-0.09546295902082358,"94":-0.01748233075711593,"95":-0.17399734123714147,"96":-0.004411387491549063,"97":-0.018465397879205637,"98":0.14400481804977425,"99":0.09456403218657806,"100":0.07070075875872724,"101":-0.17859330387732966,"102":-0.12304876036613789,"103":-0.2196260864541187,"104":0.06289507293293077,"105":-0.08493128080729524,"106":0.1679568093953772,"107":0.03240294177277528,"108":0.11623058136054298,"109":-0.16465996925231485,"110":-0.09670424514410328,"111":-0.13834824604495166,"112":-0.17467579133820815,"113":-0.03912819881397946,"114":0.03429169022556608,"115":-0.15645778038076974,"116":0.10555430903758126,"117":-0.012965690262229814,"118":0.12019669516186411,"119":0.05070939982129195,"120":0.08581772383187386,"121":-0.12569889963728664,"122":-0.17223030784939533,"123":-0.04290188871240611,"124":-0.0705323439069203,"125":-0.12750147560402517,"126":0.11719632907927184,"127":0.17991447439331454,"128":0.02625854728017919,"129":0.06105884539493012,"130":-0.10498323139165718,"131":-0.1309081708328063,"132":-0.13713928651226506,"133":-0.08217625907920846,"134":-0.07130143055585626,"135":-0.0038926199190371675,"136":0.06849526660322273,"137":-0.09643175634210835,"138":-0.14115235998341158,"139":0.06348302260605541,"140":-0.13142613842128473,"141":0.04731597181537133,"142":-0.05494257732428447,"143":-0.0018272542347712209,"144":-0.06164375713043816,"145":-0.031095469282715494,"146":-0.19429053809064423,"147":0.1718133316460288,"148":-0.054916718567700445,"149":-0.18899826798442246,"150":-0.13999430644101885,"151":0.05611826587502344,"152":0.0258343699259622,"153":0.09496502241292318,"154":-0.16482426670999328,"155":0.006615165997069775,"156":-0.0749973608839756,"157":0.04273011434501129,"158":-0.23632985307732474,"159":-0.02822849159074839,"160":0.07591809032567332,"161":-0.15712059702006248,"162":-0.0017397635602797285,"163":-0.09916530740743701,"164":0.02338503375487959,"165":0.15338994577145063,"166":-0.009345105143257986,"167":0.07834787928488088,"168":0.1445813700458788,"169":-0.07623508321860609,"170":0.06273594725158094,"171":-0.10653758865493573,"172":-0.07166495871903367,"173":-0.06124699104785861,"174":0.06378090293338548,"175":0.14026231729081515,"176":0.0009522134367408487,"177":-0.05548675719663595,"178":-0.15879113522817076,"179":0.0833482858891884,"180":-0.26519489299090454,"181":-0.17119142520756275,"182":0.05845226248320314,"183":0.09639390214961086,"184":0.011589099418062125,"185":-0.126688082926569,"186":-0.036926076744769915,"187":-0.06242582635718807,"188":-0.12106226115317527,"189":0.05918152806881578,"190":-0.014985883649463745,"191":0.1293077981744518,"192":-0.08915205376677376,"193":0.03064091302242327,"194":0.03640117482009509,"195":0.020442792308089625,"196":-0.10734433729750884,"197":0.013533017585085001,"198":-0.13690719844891927,"199":0.07475256702025385}},{"sx":5,"sy":5,"depth":8,"w":{"0":0.08679938526121819,"1":-0.05441089881041786,"2":0.073932752947526,"3":-0.06190624929237848,"4":0.11244052433640889,"5":0.08890158877175763,"6":-0.11778586798345664,"7":0.04287869554079398,"8":0.1445534989342534,"9":-0.054257396202944404,"10":0.10512869379937613,"11":-0.09161197619691532,"12":0.027484116205131682,"13":-0.015735654841650386,"14":0.045993123933510315,"15":-0.004902304870693923,"16":0.07832494930968535,"17":0.1585294513091781,"18":-0.03510568627950588,"19":-0.014629532094163244,"20":0.01856023267782045,"21":0.01274886912868016,"22":-0.03065416624460543,"23":0.069679075201976,"24":-0.009607583126029018,"25":0.0331541222658475,"26":0.026776549351734173,"27":0.02443012833815866,"28":0.13969899231082206,"29":-0.03380982024185978,"30":-0.023965035721409258,"31":0.05366372669793527,"32":-0.03218115899149519,"33":-0.0075068452461492866,"34":0.14207439041227163,"35":-0.022557019971289102,"36":-0.02132223799079849,"37":-0.09219142652022357,"38":0.12456274366053334,"39":0.07905785239404252,"40":-0.09798747267933991,"41":-0.117720797068325,"42":0.05719268502054967,"43":0.008049745713382433,"44":0.1303534724713009,"45":0.10733486168439801,"46":0.012148736141933724,"47":-0.07230615421003904,"48":-0.13068265214818028,"49":0.005052891297793855,"50":0.026606620011347417,"51":0.013861559938208534,"52":0.08349169836467679,"53":0.02816808345346816,"54":0.04997654407508853,"55":-0.10143143800795844,"56":-0.04276124316653021,"57":-0.02486333391926404,"58":0.16225832360436976,"59":0.07623631904215972,"60":0.21962795642711716,"61":0.0017762824821337601,"62":-0.11949732809731893,"63":-0.11498814883688395,"64":-0.0018841784260885139,"65":0.14198555057805617,"66":-0.028031327181971714,"67":-0.03380228259721732,"68":0.1755457844023761,"69":0.07408156200028684,"70":0.09779125313481977,"71":-0.11795546109397398,"72":0.023636257187491433,"73":0.01841315721963262,"74":-0.15684456290226617,"75":-0.028980219865349505,"76":0.05916573896752627,"77":0.09526741991469337,"78":0.033443979383156575,"79":-0.06993443069489598,"80":0.05078438897247968,"81":-0.09928021787307875,"82":-0.06217349458275986,"83":-0.12558330267993562,"84":-0.10409667830039424,"85":-0.13790844882301923,"86":-0.084024779119119,"87":-0.0918745634115219,"88":-0.07339125504801362,"89":-0.07725795668711735,"90":-0.21334783249147185,"91":0.02106866922203899,"92":0.021620902124387154,"93":-0.035891300190369346,"94":-0.08735334964775561,"95":-0.17765468684155325,"96":-0.06944035891806216,"97":-0.14572015854000375,"98":-0.13702407475878997,"99":-0.06003177536478122,"100":-0.048108273634412224,"101":-0.04420995070925831,"102":-0.033652281086034,"103":-0.021914736997362037,"104":-0.02774219856978703,"105":0.004792318158888347,"106":-0.13879630140297688,"107":-0.0846539000839703,"108":0.015163429803071256,"109":0.015484428316896313,"110":-0.03647093399054478,"111":-0.05227552766873339,"112":-0.13790101652593542,"113":0.12910147458129956,"114":-0.0836544550147548,"115":-0.07747444836157659,"116":-0.13892740401283993,"117":0.1549768379508074,"118":-0.06822699676644159,"119":-0.11137488069494775,"120":0.19802626309904678,"121":0.15031182730164405,"122":0.10048529335585554,"123":0.15478747002732227,"124":0.027998848020516547,"125":-0.0073666447155419,"126":0.012520547608758214,"127":0.012165309721049494,"128":0.03344650189770293,"129":0.031115069016222574,"130":0.0003006309199916589,"131":0.16861362480756256,"132":-0.1935678084593795,"133":0.05820330808774113,"134":-0.03531850147713542,"135":0.16120960111965874,"136":0.12431364102973946,"137":-0.1811190951101669,"138":-0.15447705784169183,"139":0.20115987277660644,"140":-0.07508741830541295,"141":0.10071403761405263,"142":-0.08602758015774326,"143":0.09976288338758806,"144":0.00032422097211328924,"145":-0.02879507195784712,"146":-0.07615054859548923,"147":-0.09133293305733957,"148":-0.16500833870877685,"149":0.08747110492653726,"150":-0.1142480646588924,"151":0.07461070387520485,"152":0.04600362094642896,"153":-0.0682938812092401,"154":-0.30610458269269913,"155":0.01424568731176206,"156":-0.18338643553914685,"157":-0.00936625115878727,"158":-0.15338420695086347,"159":-0.06582308328631883,"160":-0.13765103417452196,"161":-0.09571487015353515,"162":-0.10054562288036697,"163":-0.07149553229965527,"164":0.0020220926144432303,"165":0.12569299635267447,"166":-0.052915422295633306,"167":0.06295629510989353,"168":-0.005516503739292675,"169":-0.17381687925411302,"170":0.08640842712519227,"171":-0.15644745365392623,"172":-0.05487149978929092,"173":-0.04381813633507313,"174":0.09723688551881496,"175":0.12238268321535553,"176":-0.074061969779546,"177":-0.10500510174479778,"178":0.09348434872014057,"179":-0.006228597474617455,"180":-0.0041147927355287845,"181":-0.05228790904668555,"182":0.08060176049179085,"183":0.17509021326378488,"184":-0.056979130869162994,"185":-0.059068204296005185,"186":0.10787076614431777,"187":-0.09531028467134688,"188":-0.07597843232728137,"189":-0.14380858680137265,"190":-0.02678213425614463,"191":0.20363251077294872,"192":0.1100186869392506,"193":-0.1136641356048705,"194":-0.08490952681328451,"195":-0.09937174546150639,"196":-0.03689395417265337,"197":0.0082514391252589,"198":-0.014732693115539298,"199":0.04913971491007969}},{"sx":5,"sy":5,"depth":8,"w":{"0":0.06462046481868455,"1":-0.08300262168988315,"2":-0.008711829338882718,"3":0.16594481527949098,"4":-0.08141800459980156,"5":0.02443772466981396,"6":-0.1368085241609928,"7":0.199892126204704,"8":0.04876281942100883,"9":-0.14397895242775974,"10":0.09152900335254792,"11":-0.0182600804771261,"12":0.016558346506415595,"13":0.049481820359801795,"14":0.0050797826261340115,"15":0.08969899533374255,"16":0.030256006879416576,"17":0.08056170433180837,"18":0.10721069890263761,"19":0.021399375812543642,"20":0.16592595164528876,"21":0.09393403253290768,"22":0.09240137557081916,"23":0.04799833563189782,"24":0.0559814463182467,"25":-0.0474603908506421,"26":0.22365934829215559,"27":-0.12431658279804156,"28":0.010868352978844455,"29":0.06949092039992866,"30":0.06840396924833476,"31":-0.061545724172484745,"32":0.20375996528365237,"33":-0.0626909746993031,"34":0.1021482521415896,"35":0.0775610688704833,"36":-0.1154344394478084,"37":0.06278858228616455,"38":0.1173107618879253,"39":0.1280988304391864,"40":-0.20027778490058074,"41":-0.014187061033144887,"42":0.10785786994225373,"43":-0.10737086912617975,"44":0.09507679163987232,"45":-0.004435834650332079,"46":0.08334750022697589,"47":0.12827882387632686,"48":-0.0741964150332562,"49":-0.004008850351294194,"50":-0.1592576879139356,"51":-0.18338796432164298,"52":0.13893791163483202,"53":0.08075552881658545,"54":-0.005499753945758489,"55":0.054464156047512695,"56":0.10076151404382339,"57":0.027999158473468032,"58":0.07669228010554797,"59":-0.08142435137990091,"60":0.0681925521973436,"61":0.03152793256771648,"62":0.012893170195926567,"63":-0.06268825868714833,"64":-0.08736374313600487,"65":0.011922454539504225,"66":-0.11295101404384568,"67":-0.10963252395813589,"68":0.16689783860659074,"69":-0.019056434987350653,"70":0.04331082235590282,"71":-0.17225645071340415,"72":-0.21828089618463356,"73":-0.0008472962258123922,"74":0.29771513817186046,"75":0.020643110859559725,"76":0.031737382731656036,"77":-0.2775031629830775,"78":-0.042044219140342384,"79":0.1289979959523648,"80":-0.04527894809180018,"81":-0.027966798953008253,"82":-0.04173303305407551,"83":0.03670207600941638,"84":0.004675654733758668,"85":0.08418229085590144,"86":-0.04906791515640691,"87":-0.22329241579815692,"88":0.029298649214610333,"89":0.13075612464199465,"90":-0.009003634516338989,"91":0.1296251825924362,"92":-0.0642505554332305,"93":0.03843314490783281,"94":-0.0486305198732317,"95":-0.19118224743158385,"96":0.01385650510229898,"97":-0.021172386789721137,"98":-0.1382238502300236,"99":-0.07266819297029868,"100":-0.09449506982882094,"101":-0.047939411024486976,"102":-0.09945799186338627,"103":-0.17937110734322545,"104":-0.1481871555376093,"105":-0.07103967551733156,"106":-0.08645189735603413,"107":-0.055315869493258965,"108":-0.04515990452337909,"109":0.022822198086503646,"110":-0.22118734580439708,"111":-0.28350680237570997,"112":-0.028256106754886455,"113":0.03247720478645777,"114":0.14889082097547165,"115":0.1092023970431305,"116":0.04135398850295576,"117":-0.10386719343605992,"118":-0.02686255801654932,"119":-0.16310482414198368,"120":-0.1157101714926833,"121":0.085812453153901,"122":-0.14357691489962085,"123":-0.05455998725603213,"124":-0.07043169649119566,"125":-0.046545141267325466,"126":-0.026330509839049537,"127":-0.14312476049647235,"128":0.03796860570354898,"129":-0.07732882169465369,"130":-0.038060462620273766,"131":-0.08518915189732498,"132":-0.04956405943028774,"133":-0.0430489950516374,"134":-0.020572019806330773,"135":-0.04027787214076311,"136":-0.10313761942761808,"137":0.16121070236360002,"138":-0.09304176297908702,"139":-0.042320195050225946,"140":0.031280783879055876,"141":0.04556174776103762,"142":0.06571223399922049,"143":-0.09229638697697196,"144":0.08565897551503394,"145":0.020975005947696284,"146":-0.14607833756432836,"147":-0.11349965903185298,"148":-0.026014828452424428,"149":-0.01211495237247779,"150":0.007793771211761346,"151":-0.11587701557001062,"152":0.05205614678139091,"153":0.015101215853828752,"154":0.02732711749397618,"155":-0.03241606233417991,"156":0.04174827122849497,"157":-0.15919192017308056,"158":-0.015293818026149769,"159":-0.3087671650936144,"160":0.07002042452668024,"161":0.008993836592964438,"162":-0.06819383717346558,"163":0.07507677609514919,"164":-0.03923241349365596,"165":-0.1248991084163218,"166":-0.07262072667396599,"167":0.014512547668963325,"168":-0.04588075606612923,"169":0.028421567849133158,"170":-0.09606894095116211,"171":0.04888579754042981,"172":-0.025215165909594533,"173":0.007205385141887786,"174":-0.027134426530389756,"175":0.1055603618716719,"176":0.027440893983969084,"177":0.11484344028363579,"178":-0.08130369615132517,"179":-0.08070034315052643,"180":-0.12318033318149901,"181":0.12983931766139298,"182":-0.12239601451083647,"183":0.06416864866993724,"184":-0.014650762583054307,"185":0.0919332797858612,"186":-0.09487657628154676,"187":0.01027565665782982,"188":-0.14329210074177523,"189":-0.03072759915990455,"190":-0.04205636637932229,"191":0.015763414918859752,"192":-0.012469089177089335,"193":0.18529704726109086,"194":-0.021637483393711392,"195":-0.05732162305623074,"196":-0.18740685051151762,"197":-0.09973494066137113,"198":0.06680650672221945,"199":-0.09304955450663081}},{"sx":5,"sy":5,"depth":8,"w":{"0":-0.016288586122677418,"1":-0.24405065301707005,"2":0.004526756112550823,"3":0.03500059881121535,"4":-0.05064198312823168,"5":0.11954671388339526,"6":-0.1600848140118407,"7":0.017976258416302633,"8":0.06265381034575959,"9":0.05863325199655113,"10":0.04849946515989774,"11":-0.024031968371744334,"12":-0.037638225855656016,"13":0.0936339540124444,"14":-0.00965862258865132,"15":0.10995213722029247,"16":-0.03632055502569172,"17":-0.04922150647595947,"18":-0.009983153425537654,"19":0.09988731824589231,"20":-0.04232846359802554,"21":-0.020907476238276688,"22":-0.14364191412323707,"23":-0.10612299013316702,"24":0.011004857078182679,"25":0.19762942408229722,"26":-0.1303916894881075,"27":0.06609032316665887,"28":-0.16682370716464787,"29":0.06576325618710004,"30":-0.046779380470490545,"31":-0.23056262125023047,"32":0.006204930344749284,"33":-0.13736188708324776,"34":0.0773239980920825,"35":-0.15264975096906885,"36":0.111100385019306,"37":-0.015145471029737801,"38":-0.06428168316524378,"39":-0.16483442670656678,"40":-0.09571834579405654,"41":0.06999956020975795,"42":0.021312997167142286,"43":-0.018990977063196978,"44":-0.017379979367097998,"45":0.1974495143982684,"46":-0.10410391805331032,"47":0.04656057091942349,"48":-0.07568717312448639,"49":0.013202822615367342,"50":-0.04614688856738871,"51":-0.04213916821661287,"52":0.06623149764113886,"53":0.12123352589702784,"54":-0.04004647204088949,"55":0.030518426621282953,"56":0.12866222034030161,"57":-0.016499408382923977,"58":-0.04538035171569119,"59":0.007248272816384955,"60":0.007363830670188321,"61":-0.15398263922641126,"62":-0.008179962153225254,"63":-0.12643993493827738,"64":-0.2045906472017702,"65":-0.14733319926338875,"66":0.005120704138827569,"67":0.009420603253950562,"68":0.01141602440777646,"69":0.24488699770920375,"70":-0.0012724620120972184,"71":-0.11416518915893066,"72":0.060472560169706605,"73":0.0629409668023736,"74":-0.04439252511441318,"75":-0.08314462097265962,"76":-0.08870775161386162,"77":-0.11853353248792031,"78":-0.03554090446568967,"79":-0.0654269545455008,"80":-0.23036341298956908,"81":0.1431056475287114,"82":0.0013848242040408625,"83":0.1798822603171691,"84":-0.04622351690411266,"85":0.14414683698861086,"86":-0.15721078367755115,"87":0.04119280497816222,"88":-0.012133507132605624,"89":-0.02843692533967961,"90":-0.12646062011385442,"91":-0.1814842403630874,"92":0.05824216937113192,"93":0.05118129196326535,"94":0.21018300767642992,"95":-0.036671038118699976,"96":-0.015146394939417634,"97":0.002180671757303011,"98":-0.16182414555703145,"99":-0.04206471740878274,"100":0.0834505308413846,"101":0.003629392415086597,"102":0.07586893046311714,"103":0.016632887414626867,"104":-0.17624579214608374,"105":-0.025478861256870062,"106":-0.19883160284430743,"107":-0.04264181947575697,"108":-0.09759634989471734,"109":-0.01542092221616304,"110":-0.06262035592908834,"111":-0.09903341313670125,"112":0.025819042387065793,"113":0.16883794197861224,"114":-0.0887469905052848,"115":0.09412922940889061,"116":-0.08574997395464115,"117":0.24510488404479175,"118":0.019506687887095843,"119":0.06039003664618103,"120":-0.0687644945510927,"121":0.14063973783335737,"122":0.12277709562370413,"123":0.011096387487917943,"124":0.18757975688362685,"125":0.007606646065640347,"126":-0.022196241284880132,"127":-0.00822406263753323,"128":0.13026705960451004,"129":0.13534514630317904,"130":-0.022853353416332076,"131":-0.0375048352108053,"132":0.08473464730165933,"133":-0.05017551572006434,"134":0.091432632335976,"135":-0.050310611076542285,"136":-0.00569327110238312,"137":0.1615964345547904,"138":-0.10618093870328883,"139":-0.1530303657291046,"140":-0.2281255948579635,"141":0.08218350576114873,"142":-0.10780727919015658,"143":-0.03300136884625921,"144":0.01332315183351687,"145":0.054514303866844624,"146":-0.09351973852350914,"147":-0.021419464015184367,"148":-0.07551684777539017,"149":-0.013027289771413469,"150":0.11722002756725478,"151":-0.0539346661595504,"152":-0.0999393459497646,"153":0.1536215960843608,"154":0.08309609527425761,"155":0.054485295574820826,"156":-0.09393635996090154,"157":0.06489857983144648,"158":0.003521645948440093,"159":0.07561999087191526,"160":0.1689559194739214,"161":0.09843603833762984,"162":0.09718544730929693,"163":-0.06511940252881285,"164":0.0783440359859644,"165":0.06983211333595737,"166":0.20675260291630582,"167":-0.028681444544651078,"168":0.12331918255570953,"169":0.08608081891376376,"170":-0.184842895546253,"171":-0.1346191893058552,"172":0.050239116735904366,"173":0.06917592806698411,"174":0.13233299398683823,"175":-0.05249360262841189,"176":-0.0999746448706187,"177":-0.016155314127474417,"178":-0.20416253517569039,"179":-0.012422923414075773,"180":-0.10099976866335764,"181":-0.01045597108975595,"182":-0.0567617691670456,"183":-0.039751464793549254,"184":-0.08525184212527127,"185":0.15992248174803492,"186":0.15498939655475344,"187":0.09467352521637207,"188":-0.10207280154498229,"189":-0.025830283193300607,"190":0.02183108973594515,"191":-0.03327130156426617,"192":-0.20718203963315276,"193":0.01776732114656341,"194":0.07850505423952683,"195":0.14188860848774787,"196":-0.07815034590561232,"197":-0.3008001612824051,"198":0.0362774896785136,"199":0.10445241266714983}},{"sx":5,"sy":5,"depth":8,"w":{"0":-0.21651943643459598,"1":-0.10507382568955938,"2":-0.061042263117067584,"3":-0.07239243782973978,"4":-0.06738261035266442,"5":0.03113887842499913,"6":-0.029388285945096307,"7":-0.1722037428384355,"8":-0.04522157330372803,"9":0.0155900128549535,"10":0.13227262863057285,"11":-0.13979529663132456,"12":0.009444741500954597,"13":-0.04619940357095313,"14":-0.04454630611844035,"15":-0.025175631826931732,"16":0.046905381068255286,"17":0.13273648267756488,"18":-0.10911507916198421,"19":-0.03143184036883026,"20":0.16996257291252853,"21":-0.05044310484653276,"22":0.08224919100553627,"23":0.008271686222897794,"24":-0.010101825270576499,"25":-0.03750912899438452,"26":-0.08007396024595881,"27":-0.015815321891488574,"28":0.006875494065530331,"29":0.010193022796619945,"30":-0.08697029667382129,"31":-0.03641103708087837,"32":0.049460010426462565,"33":0.12031892286401726,"34":0.07007935017552634,"35":-0.05143042256305129,"36":0.005225839877541479,"37":0.07743668563249846,"38":0.10415851419010412,"39":-0.10934748639115892,"40":-0.02024913655398064,"41":0.1492384520474094,"42":-0.05585259730902378,"43":0.07148791469958411,"44":-0.05568188035590536,"45":0.009733534417073792,"46":-0.014060991849095327,"47":-0.04649951616370339,"48":0.02822589358538498,"49":0.11676756850031042,"50":0.17001664827554114,"51":-0.12302627867610859,"52":0.03810246680264334,"53":0.007472465904591656,"54":-0.11713194285651073,"55":0.007906070040725193,"56":0.03867894859405782,"57":0.05049584969314717,"58":-0.048159510579930544,"59":-0.08826274211007411,"60":-0.012214623943501552,"61":-0.11619941819119925,"62":0.05457403162703763,"63":0.016713025923678952,"64":-0.03286908947645619,"65":-0.05752098968218673,"66":-0.11677005818274575,"67":0.04740876652797811,"68":0.0275307180025136,"69":0.009413205759089702,"70":0.0841791963499626,"71":0.11324952982994863,"72":-0.000953137840156239,"73":0.08933634748269202,"74":0.0048446513979242675,"75":0.05609993585490822,"76":-0.16580290733860573,"77":-0.00872959519597088,"78":-0.05375942613860811,"79":-0.11872949700996954,"80":-0.15234517784651158,"81":0.12638182204076637,"82":-0.008417698322531456,"83":0.05285744136061811,"84":-0.24066468072226369,"85":0.048236002143220005,"86":-0.11141666334556548,"87":-0.0728322293993917,"88":-0.11137548378030689,"89":0.08599910927833163,"90":0.10163840740361278,"91":0.024657479392477324,"92":0.09298094152090826,"93":0.10903823991840599,"94":-0.16217212723793417,"95":-0.14646557786834558,"96":0.04976364167812357,"97":-0.03309507355028579,"98":-0.010224029944523535,"99":0.0036593793057407903,"100":0.13236168330217254,"101":-0.04716272626910063,"102":0.08443454084761613,"103":-0.03196975258872419,"104":-0.005965925208287555,"105":-0.046650859165523834,"106":-0.03572701124483958,"107":-0.042242500021438895,"108":-0.08186572079450999,"109":-0.1575586499553657,"110":0.2876112853904496,"111":-0.05364415395736247,"112":-0.010127543271094847,"113":-0.04754837995142761,"114":0.02066482788874077,"115":0.10945490072455993,"116":-0.0701765855169793,"117":-0.010905947386454177,"118":-0.048841394348525496,"119":-0.10307928737300015,"120":-0.20428126794246276,"121":0.08557409010853564,"122":0.12616519632701562,"123":0.1372541778582809,"124":-0.13380750010757989,"125":-0.08392122557668989,"126":-0.17131323614061397,"127":-0.1706747432566212,"128":-0.023800933230266004,"129":0.07212886069798201,"130":0.07933061551208574,"131":-0.0567123164720138,"132":0.21457524529281913,"133":-0.15907903857943095,"134":-0.17720732688277271,"135":-0.03996272892564581,"136":0.20861788281859817,"137":0.0071742493527424695,"138":-0.04981415132435947,"139":-0.10404681159174715,"140":0.2072146410739561,"141":-0.11066460954080164,"142":0.1850808453594028,"143":-0.059422729708418554,"144":-0.06106255822414893,"145":-0.0568107047253881,"146":-0.14331369785283937,"147":-0.2058573650654996,"148":-0.050514209602165155,"149":-0.036429993272750406,"150":0.15807290270162758,"151":-0.08924156735745963,"152":-0.19906027603740956,"153":0.042274703530207916,"154":-0.12539500161617945,"155":0.06951268483172957,"156":-0.15869717777581083,"157":0.07018616343312743,"158":0.019699964044201053,"159":-0.19879123760799083,"160":-0.20530001505521564,"161":0.11295537912575504,"162":0.14272344876115925,"163":0.12428060644134398,"164":-0.06306696994853131,"165":-0.10437689365897045,"166":-0.12875554539564515,"167":-0.0006823426349115477,"168":0.03935439789738719,"169":-0.05026486954533494,"170":0.1490272852127761,"171":0.01895216006388501,"172":0.07258153238013068,"173":-0.1054490638254467,"174":-0.03685480873459851,"175":-0.11580548230561158,"176":0.14616449820877775,"177":0.0014028798129055672,"178":-0.06495049700970246,"179":-0.05238194384730072,"180":0.08653174874106824,"181":-0.15601705733605584,"182":0.08271126113307783,"183":-0.06626115802527767,"184":0.08961126694406746,"185":0.05582996524167824,"186":0.0399642663788535,"187":-0.052064265145637806,"188":-0.10028832381040702,"189":-0.026650359122297643,"190":0.079415917910723,"191":-0.01817290582736708,"192":-0.009404590784720867,"193":0.11009707176017672,"194":-0.05968740016923038,"195":-0.05427628043299585,"196":-0.1822845522037919,"197":0.026548588740514453,"198":0.018916343140097474,"199":-0.015755363690415813}},{"sx":5,"sy":5,"depth":8,"w":{"0":0.024481860251213815,"1":-0.06985688411182014,"2":-0.06486611170159577,"3":-0.03929268834949228,"4":0.02592767377387538,"5":-0.01717090804934404,"6":-0.0597169294428858,"7":0.021951312255068262,"8":0.11084490619207167,"9":-0.03885022384927429,"10":-0.040166736072432714,"11":0.09102084490726832,"12":0.07555253500714026,"13":-0.05806242240518084,"14":0.025067006647064835,"15":-0.09739179183232068,"16":-0.11663994184622299,"17":-0.04521440747169137,"18":-0.005416634298785329,"19":-0.06269445272945331,"20":0.02858701890852146,"21":0.01747716639619714,"22":0.00780180641573488,"23":0.0750211624171659,"24":0.04678347857936563,"25":-0.0005685938640832737,"26":-0.039917284702288086,"27":-0.13564823640040422,"28":-0.012805740043913983,"29":-0.12009284024648001,"30":0.03439681755951344,"31":0.08146153134730147,"32":0.1084316957505164,"33":-0.0034086114680733108,"34":0.05132839683794342,"35":-0.12525399296082296,"36":-0.0741587398644459,"37":-0.042125566645857405,"38":0.07884509549438948,"39":0.037211466473692285,"40":0.058915654737596745,"41":-0.08920455595122083,"42":-0.05619589669889191,"43":-0.04392619732099738,"44":-0.0558572398754982,"45":-0.24679125638120503,"46":-0.03466888596397902,"47":0.04638711227495771,"48":-0.09310664589339901,"49":-0.200925028184068,"50":0.023576451473333003,"51":-0.030467618815185213,"52":0.11167954421261264,"53":0.05008000156057655,"54":0.053687521099855515,"55":0.0775192387769366,"56":-0.056211830459179206,"57":-0.11228809350049619,"58":0.11174840786254756,"59":0.11208230568006626,"60":-0.041149819692311296,"61":-0.09410157321297682,"62":-0.1694658995988862,"63":-0.032474302483814416,"64":-0.04609894120609635,"65":-0.03164749642703767,"66":0.019442385721462868,"67":-0.04428374461589345,"68":0.05458956718533621,"69":-0.07220077725107894,"70":-0.1739874724921637,"71":-0.049966595643324396,"72":-0.033193906857036,"73":0.039531628664310155,"74":0.058009614020400606,"75":-0.003295942808428539,"76":-0.14424143226155114,"77":-0.002786324531279053,"78":0.05780792669236732,"79":0.07325145000977978,"80":-0.06682717015055469,"81":-0.1728344481689782,"82":0.046090588329923916,"83":-0.11882964632740697,"84":0.047528684587347915,"85":-0.07226238948339767,"86":-0.11433407674017325,"87":0.09240302845321864,"88":-0.10475210829376141,"89":-0.17153250742854503,"90":-0.040357612266760476,"91":-0.12715089242415917,"92":0.08022162486016252,"93":-0.06798292058413123,"94":0.056701605502676014,"95":0.03685712082115163,"96":-0.08296505249382671,"97":-0.0724806378875365,"98":0.023092434006493114,"99":-0.14379443520480695,"100":-0.00955582309899268,"101":-0.08218375634752258,"102":-0.06189185076991596,"103":0.018518719578895355,"104":-0.02952499078563218,"105":-0.05107713589459391,"106":0.1369959053190404,"107":-0.0774624037654479,"108":0.01373692377501361,"109":-0.0987535564326539,"110":0.060389450836212215,"111":-0.001980229479618669,"112":-0.09291806755600307,"113":-0.04351920848737295,"114":0.0530028155518685,"115":-0.08996226557029292,"116":0.04588502310768315,"117":-0.12737336898482385,"118":-0.015057160022455739,"119":0.004142678259008183,"120":-0.06531303949574303,"121":-0.1276216395365282,"122":-0.06524714976520166,"123":-0.0547549219032291,"124":-0.051035888754493317,"125":-0.016528291031318795,"126":-0.09675652588558353,"127":-0.06353702946123137,"128":-0.13045853146409983,"129":0.021359917820475263,"130":-0.05779183695390161,"131":-0.09220418747320586,"132":-0.015364580885803442,"133":0.030956192269529406,"134":-0.1397642320535301,"135":-0.09938794026391762,"136":-0.027432566781897066,"137":-0.0036755099675775107,"138":-0.018576880030019324,"139":0.06415069967237419,"140":-0.16699893497297505,"141":-0.005533772963601434,"142":-0.035175391737653695,"143":-0.23231504197685043,"144":-0.13522601918821878,"145":0.15744498962889542,"146":0.14151687238595242,"147":-0.026722790114371706,"148":-0.12039351338374461,"149":-0.07364719566776147,"150":-0.012835654993689329,"151":-0.08062137259030223,"152":-0.0034962985188133943,"153":-0.020128474811344582,"154":0.11539633941168224,"155":-0.14196235912602378,"156":0.020315480400334564,"157":-0.10428904345858614,"158":0.06971115580430828,"159":-0.18696980287243736,"160":-0.034915377595138235,"161":0.12051347758661866,"162":-0.05377175061837484,"163":0.0238203183973804,"164":-0.051006624474530395,"165":0.10530977042788298,"166":-0.04996145156487211,"167":-0.08443526055189117,"168":-0.03486321893499226,"169":-0.09047357546318693,"170":-0.0453205785672348,"171":0.0011389578842242072,"172":-0.25554084182814935,"173":0.08085665765687984,"174":-0.05512012893260301,"175":-0.050522189494182315,"176":-0.010267583218539707,"177":0.1105615180800704,"178":-0.0002531046718072948,"179":0.0911212830879056,"180":-0.08290207424774111,"181":0.03081565410538919,"182":-0.017663744038131767,"183":-0.14363294417249603,"184":-0.03453248644713766,"185":-0.02185792948517225,"186":0.24733125095998323,"187":0.014603847082882596,"188":0.05821619107382744,"189":-0.2207626810618272,"190":-0.05014862108785145,"191":0.015371918569903009,"192":-0.05001211793106615,"193":-0.08507200250961786,"194":0.15729504634558109,"195":-0.11989152169962326,"196":0.1552099241641319,"197":-0.18389706764350933,"198":-0.059143182774359704,"199":-0.006113895332204482}},{"sx":5,"sy":5,"depth":8,"w":{"0":-0.0555962343866714,"1":0.016475351549999274,"2":-0.1028795712747426,"3":-0.0639431416620726,"4":-0.05661132508445423,"5":-0.09979641233148719,"6":0.03097916118895985,"7":0.044793027407181614,"8":-0.03730355351445731,"9":0.025559687719206605,"10":-0.050381711890416306,"11":-0.1310572297832634,"12":-0.13506228560167582,"13":0.023275130041822092,"14":-0.05228932809571524,"15":0.06314837215270647,"16":0.035611389421466556,"17":0.09799387177844542,"18":0.04618303927159306,"19":-0.12432456539447209,"20":-0.12105449509536612,"21":0.011790358642494725,"22":-0.08964188428504481,"23":-0.012549229812062416,"24":-0.09955675238404478,"25":0.19711879076943206,"26":-0.01656970473270345,"27":0.1238348202315473,"28":0.050088823590588444,"29":0.09839828642559074,"30":-0.07306852621660458,"31":0.009389348519149094,"32":-0.02893697300849147,"33":0.09757458936274091,"34":0.017159714871983645,"35":0.09665951788941894,"36":0.08604640513811163,"37":0.10456661531022021,"38":-0.04749765013400212,"39":-0.0937555525506096,"40":0.07874416525086246,"41":-0.05241765516470088,"42":-0.0594284543069401,"43":0.06778372563607925,"44":0.0037427659666875277,"45":-0.20477333869064,"46":0.23603549420111808,"47":0.10534458985411296,"48":0.016905906041931977,"49":-0.048649384318376954,"50":-0.06761531847134378,"51":0.09795835443666767,"52":-0.2087096069037723,"53":-0.0856861953496763,"54":0.009778784304227739,"55":0.00672949755808676,"56":0.06391359672092235,"57":0.13362292304478232,"58":0.0006492861339763591,"59":0.21910744141049324,"60":-0.0904307737583829,"61":-0.040023110007067576,"62":-0.09736909851190335,"63":-0.03566557817525806,"64":-0.16721557630886583,"65":0.17211873031268551,"66":0.025554985260530724,"67":0.09353300708206087,"68":0.11660706214386474,"69":-0.08075101804971242,"70":-0.00600605634228398,"71":-0.01957509741226291,"72":0.08827860642565756,"73":-0.007763507868576576,"74":-0.02937626510091747,"75":-0.09252401252300609,"76":0.25315317436328305,"77":-0.1144931050575374,"78":0.21781405728261455,"79":-0.0795748313874681,"80":0.04580285126020438,"81":-0.06864559933528987,"82":-0.07558501736231446,"83":-0.09176559860062106,"84":-0.22166918949415448,"85":0.03877042360108718,"86":0.09807439016719996,"87":0.11514581538073101,"88":-0.02462093066512503,"89":-0.013996114722074546,"90":0.11093137945114313,"91":0.052441082843568146,"92":-0.05691305606651053,"93":0.030965982438853828,"94":0.05041431329727804,"95":-0.07140448438273483,"96":-0.13091424670680207,"97":0.0012515365506438807,"98":0.0157487759512437,"99":-0.06738503320438019,"100":0.04595189410490867,"101":-0.1422909042830432,"102":-0.058685954386710176,"103":-0.018846590391648387,"104":0.19637458974492544,"105":-0.14724943990367406,"106":0.023121913996981325,"107":-0.021391968544937964,"108":0.11927556149086184,"109":-0.16101643267249444,"110":-0.11019281990790132,"111":-0.032305506212760945,"112":0.10493140810863044,"113":0.024583358760789514,"114":-0.2685756551159083,"115":-0.0041970851520629895,"116":0.1313914615552048,"117":-0.15766646924690203,"118":0.00847941600352315,"119":-0.0162133405213405,"120":-0.18522776304351724,"121":-0.05396603273901724,"122":-0.015572623057501185,"123":-0.13364461842630218,"124":0.015759459233386265,"125":0.009192573060241887,"126":0.08753149499243278,"127":0.007958726532978,"128":-0.06328970650324209,"129":0.0534450407914754,"130":0.04611478074491232,"131":0.04515111070919819,"132":-0.08150979588866973,"133":-0.07093283578177101,"134":0.03523921697006216,"135":-0.03997367612509529,"136":-0.037845111981601856,"137":0.07083814905987287,"138":0.13333290689530553,"139":-0.08911623739591312,"140":0.1780822974763159,"141":-0.16315757136125392,"142":0.05519907733032994,"143":-0.11928858657669324,"144":0.04324429170253173,"145":-0.06771937001873189,"146":0.0084544659909196,"147":-0.02833315944211467,"148":0.23962211500006772,"149":-0.1912746092257295,"150":-0.11553347888604673,"151":0.025315941527491025,"152":-0.0022228332448245456,"153":-0.1431547358287129,"154":-0.060995547136607535,"155":-0.0938877671752735,"156":-0.06732927317033995,"157":-0.10665339506718798,"158":0.004219597899261636,"159":-0.03764496107577517,"160":-0.04318418570753823,"161":0.1462420785093694,"162":-0.04452882623783303,"163":0.04487315714783833,"164":-0.16098078385328335,"165":-0.14323413102327764,"166":-0.15957501280626438,"167":-0.06894442722405887,"168":0.04819629971082356,"169":0.04812000713880253,"170":-0.09386834355649025,"171":-0.14631366926083314,"172":-0.04390887747298242,"173":-0.2110141424275159,"174":-0.1253905383637143,"175":0.02827065890500166,"176":0.05891179289310511,"177":0.06291313084369245,"178":0.05911213521936858,"179":-0.012531752118767375,"180":0.011657160587293854,"181":-0.06422685799395751,"182":0.05776585777717482,"183":-0.1268339218141466,"184":0.0207379966953469,"185":-0.06288873204664422,"186":-0.07558844156693197,"187":0.0015010897022466616,"188":0.07660951416848176,"189":-0.096737922903166,"190":-0.0955648794903458,"191":-0.12281821843288952,"192":-0.04909929408107613,"193":-0.06827309692475547,"194":-0.006204904948176916,"195":-0.26031108394358754,"196":-0.0798262306752915,"197":-0.06051795594572312,"198":0.03476844587094887,"199":-0.07272199667876453}},{"sx":5,"sy":5,"depth":8,"w":{"0":0.001908120682701745,"1":-0.01174280758769546,"2":-0.0075061259254151766,"3":0.008387416607648282,"4":-0.08580794115679512,"5":-0.04060622047175242,"6":0.08820898897197216,"7":0.01475758921097419,"8":0.015386074675839486,"9":0.011046371254638426,"10":-0.06779078885900336,"11":-0.05389733990385361,"12":-0.11380304297572065,"13":-0.10273903786134539,"14":0.05575257692445954,"15":0.12137502754619509,"16":-0.01844447236265471,"17":0.018167983074334235,"18":0.01649043595924206,"19":-0.004317440015736968,"20":-0.10913670131863346,"21":-0.044235025731566555,"22":-0.07807332733641544,"23":0.011353698036007675,"24":0.12411662405093966,"25":-0.08891012152195267,"26":0.09110232426807047,"27":0.0647827605206072,"28":-0.12295047658152158,"29":-0.2390291086012597,"30":-0.04717024648530298,"31":0.0758667348549805,"32":-0.1076432355039963,"33":-0.030846060439834316,"34":0.03945574995224591,"35":0.03186961835086693,"36":0.017881820152774477,"37":-0.12691950806431496,"38":-0.025591266746410574,"39":0.04064658145635678,"40":0.015279040961471344,"41":0.02967501916479766,"42":-0.11940668649601265,"43":-0.13412364633549761,"44":0.12137388154832607,"45":-0.01589012734639927,"46":0.13605042928684433,"47":-0.09167327280840215,"48":-0.06014195345398785,"49":-0.05295214884492476,"50":-0.11919831534459019,"51":-0.012435063099473526,"52":-0.028336241908323186,"53":0.0790052338207156,"54":-0.14366369499088633,"55":-0.04337826135014512,"56":-0.12130597447375753,"57":0.09924212659152103,"58":0.00723773236200765,"59":0.022348968492883942,"60":-0.029008359011593036,"61":-0.1520781826978158,"62":-0.07805568589348973,"63":-0.06606579326118085,"64":-0.07352816964744373,"65":-0.15505846829129707,"66":-0.09942409174564418,"67":0.05611974767757701,"68":0.08662167443422078,"69":-0.16131589296964519,"70":-0.040196948374126344,"71":0.024915050783492817,"72":-0.07687810805546283,"73":-0.08324585448372465,"74":-0.0830964954340997,"75":0.07595599595876677,"76":0.022722461704429278,"77":0.09961680161214506,"78":0.06496073293008843,"79":0.12038912568112259,"80":-0.03932569633761335,"81":0.09583026821437128,"82":-0.07167189825402115,"83":0.0664256339849699,"84":-0.034583495713795105,"85":0.012437815422296137,"86":-0.07870896704272491,"87":0.014477209888245482,"88":0.006455952189423426,"89":0.0017900449307318269,"90":-0.0168395831258195,"91":0.030553568141581666,"92":-0.04172526085491591,"93":0.02236568873986841,"94":-0.028816852291906843,"95":-0.009602194209284081,"96":0.026433947111696297,"97":0.00911101775636937,"98":0.00018716088530764232,"99":0.04687188519235941,"100":0.013661219390394252,"101":-0.03683748856952476,"102":-0.03904086957291325,"103":-0.059727629321799945,"104":0.03936094529769285,"105":0.013377505440181662,"106":-0.14933884408294346,"107":0.024016287090845884,"108":-0.011277022631980226,"109":-0.04257935087565577,"110":-0.03484520094853957,"111":-0.15637250850633247,"112":0.027123660883978346,"113":0.033109598773740846,"114":-0.035004849073080414,"115":-0.1441776708691314,"116":0.12253095124545625,"117":0.028661360427327316,"118":-0.05351963357971142,"119":-0.11767370224553764,"120":0.00740232659904842,"121":0.04889452260897765,"122":0.033243184027877785,"123":-0.00035421160788588844,"124":0.11194848199856815,"125":-0.053675749010004534,"126":-0.04052273456017877,"127":0.011286615284060178,"128":0.031052604560215594,"129":-0.05501407096712228,"130":0.07063444274506551,"131":-0.04798683102303226,"132":-0.051696517309380956,"133":-0.09017421467983507,"134":-0.06418685852414924,"135":-0.0796737970030358,"136":0.03726829619669909,"137":-0.08442385789144444,"138":0.10633646407615273,"139":-0.07040020876759125,"140":0.025665649465717776,"141":-0.061699903815481204,"142":0.05910102729790747,"143":0.09423596938840784,"144":0.10200951946345678,"145":-0.0746073252580059,"146":-0.10218881754214641,"147":0.0052538001889779595,"148":-0.04789291964805182,"149":-0.09946384580492787,"150":-0.03026136130319608,"151":0.11679613312480619,"152":0.09850495591679578,"153":0.015626759784739663,"154":-0.1687522042664852,"155":-0.13153712091901515,"156":-0.05146741628083866,"157":-0.08612652190372608,"158":-0.02995471706571546,"159":-0.12687702159893474,"160":-0.10173822701957323,"161":-0.07826263498673566,"162":0.10982329196053121,"163":0.03996613692329402,"164":0.07993956966535473,"165":-0.08325407493660437,"166":0.00982702658654878,"167":-0.09722115589850708,"168":0.011551274378938204,"169":-0.06699645226443689,"170":0.10562523728633608,"171":-0.12383815740186523,"172":0.14984190617574789,"173":-0.12252881593323248,"174":-0.06433998180896157,"175":-0.035217580191156055,"176":-0.2126824551407453,"177":-0.03227930468712153,"178":0.05708662644452538,"179":-0.0234606190297554,"180":-0.04375580910528159,"181":0.05757992063446223,"182":0.019608401670630642,"183":0.09330856714225161,"184":0.2070615629902928,"185":-0.173197491994083,"186":0.1951174965761904,"187":-0.032017081576537564,"188":-0.11345527844949628,"189":-0.02003756879583963,"190":0.006705075875612212,"191":0.2340580884206409,"192":0.021342964208986646,"193":-0.1454069035292781,"194":0.1163881500166991,"195":-0.026868575351027518,"196":-0.14970106527114352,"197":-0.012729456901619729,"198":0.08670937743832272,"199":0.2077370155676198}},{"sx":5,"sy":5,"depth":8,"w":{"0":-0.030781419909825674,"1":0.030762296557920756,"2":-0.05746027267542685,"3":0.035760897462012046,"4":-0.029231789640789145,"5":0.03239112164184667,"6":-0.009176789104347974,"7":-0.04685620067199775,"8":-0.0361970703934841,"9":-0.013066115291750778,"10":0.01885068446029242,"11":-0.1251398434225667,"12":-0.02463771143620012,"13":-0.11396340353448309,"14":-0.07919993629328348,"15":0.01292578083745073,"16":0.005805983867274652,"17":-0.03306908219564325,"18":-0.12802863124642455,"19":-0.03491634519969138,"20":0.07917268799985316,"21":-0.028049978366870162,"22":0.02863964704611577,"23":-0.06930267656300826,"24":-0.04338664966537018,"25":-0.0985866710724572,"26":0.02926884646253587,"27":-0.06999754939777769,"28":-0.07136779181437679,"29":-0.07202806605284999,"30":-0.06042655393400068,"31":-0.09295859524132918,"32":-0.07597564378106415,"33":-0.031142643258427236,"34":-0.09563981890771818,"35":0.009645243865612538,"36":0.12031474589630481,"37":0.007446048192418415,"38":-0.029971340209102037,"39":-0.21576130019681802,"40":-0.08625506241602134,"41":-0.051779156416075015,"42":0.06197092765033543,"43":-0.07071690638801276,"44":0.04870811463446779,"45":-0.015601720937729085,"46":0.09421044851557471,"47":-0.02811496606158065,"48":0.12252153667222786,"49":-0.21382596081583258,"50":-0.15346852077323345,"51":-0.15599846006359377,"52":-0.06395659524973119,"53":-0.008407794857444424,"54":-0.016894591333031225,"55":0.03354388721213174,"56":-0.03217943208385467,"57":-0.023667650980463695,"58":0.0074684229418633934,"59":-0.07981564694791114,"60":-0.05555006671728993,"61":-0.12216461099649013,"62":-0.06235050802129696,"63":-0.032801643642490594,"64":0.05104246831383876,"65":0.052327044312279414,"66":-0.1499068992041541,"67":0.09732268949451546,"68":-0.15709606233640339,"69":0.022552027110532946,"70":-0.0881077141961707,"71":-0.016400916604258672,"72":0.08416483552064663,"73":0.006792295292657595,"74":0.01381700190695321,"75":0.0816187039892704,"76":-0.234467662922276,"77":-0.02832934925719214,"78":-0.11268695112197558,"79":-0.07530450328367005,"80":0.11398411537487044,"81":-0.12104997112539087,"82":-0.030976891191434305,"83":0.020140427109329742,"84":0.046741136322067424,"85":-0.022318184507755773,"86":0.08146829491422335,"87":0.017126551209865455,"88":0.019919460377991596,"89":-0.05586711496738937,"90":0.04082458341604888,"91":0.010919481799754112,"92":-0.16144905357004266,"93":0.009894214227388475,"94":0.05900882012465353,"95":0.12210915422312296,"96":0.0006573293856799165,"97":0.09381662460133496,"98":0.032203135630753346,"99":0.20126740508231272,"100":-0.017477748899526996,"101":0.19930096608533285,"102":-0.03649314669474034,"103":0.18162390738675188,"104":0.094837073728082,"105":-0.04756918030852282,"106":0.1458262947852983,"107":0.08783096668062086,"108":-0.1525158121758921,"109":0.15993717294397494,"110":-0.03376483902448923,"111":0.2054182223448184,"112":0.18914895057301864,"113":-0.12098352177846375,"114":-0.05697405868839091,"115":0.00920371692727,"116":0.03569125437243679,"117":0.12875128303465638,"118":0.1286336429573451,"119":0.1605514156709734,"120":-0.15480436534514458,"121":-0.13160388311665203,"122":0.10002827421465747,"123":-0.042480819582497734,"124":0.12922461730587995,"125":0.00018335328220180037,"126":0.0224932259252828,"127":-0.010043047477951681,"128":-0.15599470127121665,"129":-0.1309587045592376,"130":0.23596170560100754,"131":0.08869764517862479,"132":0.05339171917757221,"133":-0.029116216232060354,"134":-0.0628171960682429,"135":0.10601282626123731,"136":-0.152549825078276,"137":-0.12599624454945527,"138":-0.0024923528532391995,"139":-0.07157285700379995,"140":0.1296022712614943,"141":-0.10281555275755028,"142":-0.08902555849114922,"143":-0.07540382993873276,"144":-0.1760343293806584,"145":-0.08178704194534794,"146":0.11349533504516646,"147":-0.23962131218543903,"148":0.07962609522731098,"149":-0.0702824371226135,"150":0.1529607583335943,"151":-0.10119687786249362,"152":-0.09455835621754782,"153":-0.04629148031567193,"154":0.11577533523470915,"155":-0.14408177475858366,"156":0.10573438412562683,"157":-0.051813798048223225,"158":0.012964509705921865,"159":0.0782384465589581,"160":-0.07334711145551029,"161":0.0008691080486798745,"162":-0.033210262218539094,"163":-0.039816484420504054,"164":0.0218162526442939,"165":-0.08676201925869585,"166":-0.08632127286314233,"167":-0.22511626970822451,"168":-0.0699782220267001,"169":-0.12057524872967905,"170":-0.05959946902413333,"171":-0.12300041693764503,"172":0.0850699357465305,"173":-0.0750132864178999,"174":-0.12579615786138332,"175":-0.11297646377022501,"176":-0.012735947428432492,"177":-0.09232499644002592,"178":-0.11003008259702168,"179":-0.07487489127457667,"180":0.2213528676888286,"181":-0.022847856795705973,"182":-0.19062936358412227,"183":-0.2649980208327334,"184":-0.07202755881775835,"185":-0.0022542259984729782,"186":-0.12994524205369937,"187":0.0677168857750994,"188":0.06875428817775839,"189":0.14918194238113797,"190":-0.10191050543744999,"191":-0.28117085608085585,"192":-0.039374508110418066,"193":0.18054303232122756,"194":-0.09719652876020954,"195":0.12467933860234323,"196":-0.009554672893795885,"197":0.0979973597695308,"198":-0.10074366680723207,"199":-0.1337872824200434}},{"sx":5,"sy":5,"depth":8,"w":{"0":-0.12960712507101066,"1":-0.12535095631456517,"2":0.11176708733916968,"3":0.05692153215866265,"4":0.02875866846353577,"5":0.025534824957069904,"6":-0.05553372989980218,"7":-0.018915450621713032,"8":0.1594515299328759,"9":-0.11692161033665818,"10":0.07741689756286922,"11":-0.15620318986355064,"12":-0.0806181442550181,"13":-0.20306038628978673,"14":-0.057551314239657446,"15":0.07699258824612491,"16":0.04680673357328559,"17":-0.21478792270321348,"18":-0.006845148403402104,"19":-0.06512231619541708,"20":-0.02296681955881441,"21":-0.061103676264825386,"22":-0.06578161873139991,"23":0.007614630188829481,"24":-0.0200644593985952,"25":-0.07798958019928766,"26":-0.16456600714513228,"27":-0.01706850762758949,"28":0.08995516086151874,"29":-0.06634684965686426,"30":-0.07003772716806203,"31":0.041586999284185446,"32":-0.09782639381283507,"33":-0.20379272239776441,"34":-0.05471082747481085,"35":-0.02366478126717626,"36":0.007927577547221485,"37":-0.027321095931530637,"38":0.010751106953258713,"39":-0.020907581979467262,"40":-0.02729007438147762,"41":0.011705448875713917,"42":-0.006044733148092465,"43":0.06089949566748897,"44":0.008154607713522517,"45":-0.07103333634489242,"46":-0.15571850620487204,"47":-0.10866354655647721,"48":0.002550333020889529,"49":0.037721851258854945,"50":0.007366105423288968,"51":0.04804698060777891,"52":0.033089512884973374,"53":0.006573857249359299,"54":0.008903099844206877,"55":-0.05161557759388508,"56":-0.031257884150024944,"57":-0.08029129626973835,"58":0.024972801016567698,"59":-0.05947782739623865,"60":-0.048097824060156336,"61":0.057435769864536274,"62":-0.07796196603593225,"63":0.08337051747706554,"64":-0.017056432240579223,"65":-0.16283512769061173,"66":-0.15425403940803672,"67":-0.08376008846767372,"68":-0.04509006006275237,"69":-0.018991698231546193,"70":0.12274066585144934,"71":-0.006788961979997159,"72":0.07371722021958213,"73":0.07709008006133206,"74":-0.18759969337510177,"75":-0.07145943960970848,"76":0.0655230032014904,"77":-0.07439720956327979,"78":0.07916968108850003,"79":-0.06402454198492452,"80":-0.025600461971229067,"81":0.004709289177015909,"82":-0.07909368629223913,"83":0.025821971258585798,"84":-0.08101243765211225,"85":0.03720244916994721,"86":0.07036368963139997,"87":-0.10007309981083255,"88":-0.04631985586194368,"89":-0.035648267882624214,"90":0.15038649638541243,"91":0.082037093126353,"92":0.024224664215926825,"93":-0.0704597027420105,"94":-0.1743357798292685,"95":-0.00814677919270018,"96":-0.039199527528056506,"97":-0.0060319279717401236,"98":0.07957574827064653,"99":0.03646478660402932,"100":0.004560216603412458,"101":-0.0019842648472942455,"102":-0.1521359483419241,"103":-0.020440262096970554,"104":-0.04109929558858862,"105":-0.12655896583992604,"106":-0.053746138863959694,"107":-0.04308685239899783,"108":0.06988420202278664,"109":-0.0750200641850306,"110":-0.04831173251235068,"111":0.004820775117425914,"112":0.09589732899242588,"113":0.11111505664282989,"114":-0.07154631550620565,"115":-0.1136592000248306,"116":-0.019013097431856887,"117":-0.044263096971610724,"118":-0.11339765445344654,"119":-0.11476616672730325,"120":0.019490163741858604,"121":0.037945311317210864,"122":0.055771717200523055,"123":-0.08639734212446466,"124":-0.0640803676488681,"125":0.09193382880482308,"126":0.006229206578499128,"127":-0.09998348970325306,"128":0.05659528031271451,"129":0.16289830225999277,"130":0.09666547832297094,"131":0.19377518892140594,"132":0.08294520847998889,"133":0.14124293758594522,"134":-0.03438331040597063,"135":-0.08660775628510016,"136":-0.038255742803277516,"137":0.005884625217858192,"138":0.005345719628872971,"139":0.05121396422028938,"140":0.12927532893359328,"141":0.050997356455723605,"142":-0.0030910264307745425,"143":-0.04203108749939832,"144":0.09992980431396656,"145":-0.07697665309692134,"146":-0.06747043594126567,"147":-0.08964954595355977,"148":0.05788717905149525,"149":-0.047747647835806525,"150":0.18872053550048934,"151":0.03469180367782593,"152":0.01132762544202483,"153":0.08288628226876794,"154":-0.08155292343802238,"155":0.01744471467624325,"156":0.024376416923568005,"157":-0.03017128424613756,"158":0.07890253277477542,"159":-0.005925464772912143,"160":0.013520095211947733,"161":0.013928767789613512,"162":0.03192856400723337,"163":0.007882145031734875,"164":-0.012599249158450374,"165":-0.022700939353425632,"166":0.05657615970514794,"167":0.01002985366159489,"168":-0.0071299612096738536,"169":0.15218969374404026,"170":0.06731597541934804,"171":0.131951362565948,"172":0.10324622421791876,"173":-0.05177867487933733,"174":0.022105401540348218,"175":-0.05154434041661827,"176":0.048645656646625623,"177":0.15647922183246016,"178":0.046061077944233815,"179":-0.13052405124847194,"180":0.16699012734205648,"181":-0.06058845237890208,"182":0.015331685651527278,"183":-0.027566971827802853,"184":0.05991174001249457,"185":0.11960127601626877,"186":-0.19346835470649876,"187":-0.22968042702772054,"188":-0.04340369575747466,"189":-0.019387776417777728,"190":0.10452607945440999,"191":-0.044522161080350044,"192":-0.10041892466725894,"193":0.1448074321651362,"194":0.026055637993658783,"195":0.005099870521263603,"196":-0.1411508552803523,"197":-0.14014576027265285,"198":0.05992042874197706,"199":-0.06336790598605138}},{"sx":5,"sy":5,"depth":8,"w":{"0":0.06019424108443981,"1":-0.03704662159177885,"2":0.04672904012377666,"3":-0.11885615787464276,"4":0.10444781521215826,"5":0.09291273784509757,"6":-0.0676568023667769,"7":0.004161892796438943,"8":0.08284794631027699,"9":0.10238797240565733,"10":0.02532269787400157,"11":-0.07178474173458764,"12":0.13718642707929415,"13":0.1533611285015944,"14":-0.13951336815823484,"15":-0.05035453137603577,"16":-0.05334358557710441,"17":-0.23193855486432527,"18":0.10798160611674158,"19":-0.09598587404329403,"20":0.16168802501341048,"21":-0.060953225163719545,"22":0.08472057537738091,"23":0.11440549225254507,"24":0.13585812062249517,"25":-0.19121101945611801,"26":0.0827711896979685,"27":0.01115385221409881,"28":0.013128553871414535,"29":0.04115139174908988,"30":0.09798830216277948,"31":0.08718719821651826,"32":0.10755426636626081,"33":-0.20410148804971828,"34":-0.07961225580969664,"35":-0.027110675464732913,"36":-0.21555622363444893,"37":-0.17289167135889116,"38":0.04803125833649591,"39":-0.01449819175877725,"40":-0.012342247130958437,"41":-0.03184470389079221,"42":-0.07142584643881823,"43":0.028349100394302183,"44":0.17997059285621225,"45":-0.05255181968642429,"46":0.003259114424332038,"47":0.12134916033799126,"48":0.055578205856835025,"49":-0.1585759145648474,"50":0.013173144140237602,"51":0.07119300860272434,"52":0.07132098429655265,"53":0.0029036637027970843,"54":0.012686715161647304,"55":-0.07562563837430021,"56":-0.16415385245312344,"57":-0.28216773630514647,"58":0.1328251306490848,"59":-0.03099240205383845,"60":0.04695747652204589,"61":-0.22793997556334344,"62":-0.13482300750319162,"63":-0.07118788919318589,"64":0.013444794562062105,"65":-0.21447839853317263,"66":0.16965798402634139,"67":-0.12743510328780794,"68":0.08130386817936376,"69":-0.15064805592812489,"70":0.04236349038553918,"71":0.025208243368692745,"72":0.11284602620832332,"73":-0.13875588918190984,"74":0.07866373260260211,"75":-0.14235236625655753,"76":-0.08103384121168913,"77":-0.10829653422167579,"78":0.1280759840788605,"79":0.06366413779149185,"80":-0.02197222831212262,"81":-0.010375070306541005,"82":-0.09239636509105331,"83":-0.04175234931825431,"84":0.1183263899301304,"85":-0.11707303035494611,"86":-0.06779257437991723,"87":-0.24594756124849856,"88":-0.0029382578941917386,"89":0.0038765047337431585,"90":-0.007145492299560798,"91":-0.03682948720156086,"92":0.11189585346588198,"93":-0.06382213104387596,"94":-0.06134028356967549,"95":-0.22709232984492997,"96":-0.0015885517139672737,"97":-0.018154530145684314,"98":0.0027913581601048264,"99":0.16072299616532573,"100":0.07429937933757627,"101":-0.01455909516368048,"102":-0.18290312260235497,"103":0.10229388180534633,"104":-0.024084345029626465,"105":-0.07472266317396213,"106":0.050423517961435134,"107":0.10045835133530273,"108":-0.06890406528864557,"109":-0.03718280293640238,"110":-0.029314827298128565,"111":-0.08604676336853996,"112":0.09846446041447139,"113":-0.052816792213870103,"114":0.17161534412057522,"115":0.060489101608440614,"116":0.1677435740247768,"117":-0.1321506128430343,"118":0.006990745175005447,"119":0.03556158228571511,"120":0.032662197062109814,"121":0.15415361923510687,"122":-0.08479727517203531,"123":0.13584739442832458,"124":-0.17593431869924103,"125":0.028252058987398045,"126":-0.010685701267312647,"127":-0.01636927617140941,"128":-0.17039682368903317,"129":0.08047468500893105,"130":-0.006570710543944778,"131":0.21068305285647004,"132":-0.04856710404660301,"133":0.011221321947464547,"134":-0.10366609244642296,"135":0.03461962493006665,"136":-0.16384276801728542,"137":0.10300221298615993,"138":-0.08097814698381398,"139":0.11875837903884748,"140":-0.1265134678250927,"141":0.08169864713718264,"142":-0.10556896436790467,"143":0.09333438565872582,"144":-0.0768461251169294,"145":0.08029301469390991,"146":0.010125471621216662,"147":-0.12024724172471885,"148":0.08251889459243515,"149":-0.08732756821634542,"150":-0.1119943507740082,"151":-0.05922962185714318,"152":0.1457364428015489,"153":-0.1295506730193057,"154":-0.12928362578602254,"155":0.031331481945901886,"156":0.10810470890287567,"157":-0.09595204384684197,"158":0.049691070349381215,"159":-0.1415874462253298,"160":-0.06788828022905755,"161":0.22373500851506348,"162":-0.06911411121671619,"163":0.03792433750751324,"164":-0.10355128044475277,"165":0.10579345644058735,"166":-0.07501263270393374,"167":-0.04964147556331899,"168":-0.17112622165008362,"169":-0.0920591652298679,"170":-0.0567287892633946,"171":0.12526859082070166,"172":0.01442418024855163,"173":-0.06758493571056384,"174":-0.0139014492994768,"175":-0.01032948211012286,"176":-0.06474430755132313,"177":0.04564501463287301,"178":-0.00032520224182075235,"179":-0.07833610486672399,"180":0.014935966793793257,"181":-0.0071217476701999505,"182":-0.17466765556729347,"183":0.063782215509619,"184":-0.07144941814116228,"185":-0.15727513723252426,"186":0.0000849125980685976,"187":-0.1141228824603769,"188":0.08336313975897472,"189":-0.07616059461929142,"190":0.013869072218628958,"191":-0.17256547020959223,"192":0.06804457459871423,"193":-0.06428850966888344,"194":-0.12925308063540394,"195":-0.1937532374823923,"196":0.07984282599990725,"197":-0.05295188540252108,"198":-0.004405613980279041,"199":-0.0529883204235159}},{"sx":5,"sy":5,"depth":8,"w":{"0":-0.040863085048338396,"1":0.13593812806521166,"2":-0.14089916509288938,"3":0.16740916387376353,"4":-0.042285272587040616,"5":-0.03649300131599747,"6":-0.09096219552780532,"7":0.03442555472042254,"8":-0.11948090641711685,"9":-0.07686867438369363,"10":0.14660556751209106,"11":-0.049376950700240174,"12":-0.02326746374431327,"13":0.006939027800361308,"14":-0.05907837375363599,"15":-0.021895790176910897,"16":0.1412346559458379,"17":0.030000786630898266,"18":0.024955643976146424,"19":0.1248475140503909,"20":0.09172395337828407,"21":-0.18211025470689152,"22":-0.003715965220988471,"23":-0.1507213479005669,"24":0.26755519657505833,"25":0.10557895736536785,"26":-0.022656254903124017,"27":-0.11166713088667853,"28":-0.05550125082027626,"29":-0.13145611958254524,"30":0.12313911982323374,"31":-0.061988141637155006,"32":-0.00724474613549262,"33":0.00807565745745335,"34":0.023057942728974188,"35":-0.005242379779911816,"36":0.04421656473661189,"37":0.02829378063377225,"38":0.19388355877933344,"39":-0.026548753761593054,"40":-0.10950896010338079,"41":0.05846810290550101,"42":-0.049701815415616794,"43":0.16689023447137308,"44":-0.09167775168024068,"45":-0.14934079854195895,"46":0.004712746505803463,"47":0.05624718390175334,"48":-0.060234605004858485,"49":0.05437721028275822,"50":0.1427663204254459,"51":0.009010987218827659,"52":0.10995971941787497,"53":-0.0786363612496601,"54":-0.19602759629800115,"55":0.01901098659407759,"56":0.08965056368805276,"57":0.00995723695129111,"58":0.03769757898096155,"59":0.004084427466682644,"60":0.16269319522478906,"61":-0.10439540772206367,"62":0.146451488555775,"63":-0.04069857213559957,"64":0.21887215202035107,"65":0.12680339968235668,"66":-0.021403049244892603,"67":-0.17768906069954335,"68":0.010964115400991906,"69":0.053721305889384355,"70":0.19790076640063603,"71":-0.038323072593649844,"72":0.14898101731604713,"73":0.08236609571301702,"74":0.008873679349049176,"75":0.05299419179710354,"76":-0.00833304234394822,"77":-0.048146126757558354,"78":0.016935893137101605,"79":-0.006188239697846301,"80":-0.040325167031579415,"81":0.005905406667361755,"82":0.07903241584773872,"83":-0.07596389028819055,"84":-0.08289161416764652,"85":-0.101876776988831,"86":-0.08055948721288564,"87":0.05470501195036363,"88":0.007358206918988919,"89":-0.09458480386218286,"90":0.1255524641470525,"91":0.03315671101457236,"92":-0.026645737233151872,"93":-0.04443216128202689,"94":0.17743024989846623,"95":-0.06619595375192965,"96":0.042539699812330696,"97":-0.057488398635522825,"98":0.064337725307889,"99":0.049948770143593335,"100":0.02354787012174334,"101":-0.1977211999438164,"102":0.09010783976636529,"103":-0.06150698418032386,"104":0.06443213740596151,"105":-0.11776231242608164,"106":-0.023906931595129296,"107":0.04222072737540568,"108":-0.07226830117786649,"109":-0.07015431439607701,"110":-0.008522359227460233,"111":0.19569754890559818,"112":-0.07522450491437553,"113":-0.15727040361230815,"114":-0.03454868099584561,"115":0.07131340749716439,"116":-0.07251440127132658,"117":-0.03967827211197184,"118":0.08373645843572557,"119":0.17143420198410614,"120":0.09511997901354466,"121":0.0044619187459560205,"122":-0.040424843639971786,"123":-0.03350930038474839,"124":0.08562999835777936,"125":-0.09996475395705275,"126":-0.008738284716308092,"127":0.007215974361272423,"128":0.0029200170816504646,"129":0.021558933775603327,"130":0.0685900715813862,"131":0.006620498130868798,"132":0.12197168185444902,"133":0.060208621458175994,"134":-0.06407969900928158,"135":-0.15865427407900468,"136":-0.003730092235884653,"137":-0.0244833336890368,"138":0.04902868040753189,"139":-0.02220230348872443,"140":0.057353522370318,"141":-0.13547950362896835,"142":0.06192727987829848,"143":0.0017607074552272095,"144":-0.016313191366998665,"145":-0.13909405042736728,"146":0.04920794613192627,"147":-0.012751810862490555,"148":0.15800698313297912,"149":-0.03939872761860173,"150":0.03449247696459888,"151":0.041630145600644944,"152":-0.1010989162476526,"153":-0.22888900325849143,"154":-0.0062844433269121265,"155":0.0322565754760327,"156":0.09438815401862866,"157":0.1067416799451678,"158":0.05025325115990551,"159":-0.10104906670683052,"160":0.025432735047887574,"161":-0.036212104217384744,"162":-0.13590485158740268,"163":-0.11688085427496678,"164":0.0694901245609105,"165":0.0315583035791391,"166":0.06660246305880722,"167":-0.04992152347347231,"168":0.14306151163180822,"169":-0.034786892013221216,"170":-0.014809213631410634,"171":-0.01910927863087563,"172":-0.11068560149969402,"173":0.10627801796417716,"174":0.1734048556306052,"175":-0.10036387693231956,"176":-0.027299444491819213,"177":0.007405068764926279,"178":-0.020243584200065817,"179":0.07953305914956178,"180":-0.0552777556736502,"181":0.01153407943411951,"182":-0.07782784902884267,"183":-0.11829898441527884,"184":0.024515256067524454,"185":-0.027245816276313742,"186":-0.14592284369635772,"187":-0.04806685286730165,"188":-0.06136169030817086,"189":0.07563559975779047,"190":-0.13207240587663438,"191":-0.06422830548994823,"192":0.038459398131340396,"193":0.01484004265444684,"194":-0.16398987021875824,"195":0.11136817507875843,"196":-0.14797310675725547,"197":0.06329387662088255,"198":-0.07978419619570304,"199":-0.1903896713969629}}],"biases":{"sx":1,"sy":1,"depth":16,"w":{"0":0.0445485110670099,"1":0.060295946295221794,"2":0.05793996313407015,"3":0.0946210039746214,"4":0.05648869701893624,"5":0.06277553654187037,"6":0.1010984052402656,"7":0.09086630415375971,"8":0.09442813206161049,"9":0.038592301097661916,"10":0.0502656546326715,"11":0.052514816707701875,"12":0.04502845830497634,"13":0.07550648171325386,"14":0.06672570112380741,"15":0.07469961857995717}}},{"out_depth":16,"out_sx":12,"out_sy":12,"layer_type":"relu"},{"sx":3,"sy":3,"stride":3,"in_depth":16,"out_depth":16,"out_sx":4,"out_sy":4,"layer_type":"pool","pad":0},{"out_depth":10,"out_sx":1,"out_sy":1,"layer_type":"fc","num_inputs":256,"l1_decay_mul":0,"l2_decay_mul":1,"filters":[{"sx":1,"sy":1,"depth":256,"w":{"0":0.06846276454418958,"1":-0.009617870769655227,"2":-0.02946546155502202,"3":-0.023569608700815176,"4":-0.0196087667503113,"5":-0.07149995363808831,"6":0.01805187948408874,"7":-0.10530605907835756,"8":0.06996246516210666,"9":-0.10402407405158885,"10":0.07784953530943126,"11":-0.10279183878692832,"12":-0.045647909567175855,"13":0.022509363586820413,"14":0.04324922288615643,"15":0.07451461440375984,"16":-0.09561396798447144,"17":-0.025103334321363985,"18":-0.09833234731322459,"19":-0.07130749008556156,"20":0.05193115310264766,"21":0.04964616484570842,"22":0.008140341503870765,"23":0.04310959283351293,"24":-0.025343486629845414,"25":0.07536557171551231,"26":-0.1454315960748608,"27":-0.07739299558082226,"28":-0.0679005652498975,"29":-0.2191453121727743,"30":-0.04166116319493461,"31":-0.00424849361245864,"32":0.11616748506741216,"33":-0.01642993233296127,"34":0.15161008637945952,"35":-0.0498957396797304,"36":0.007457872248458379,"37":0.028631065350548865,"38":-0.06219763791556493,"39":0.043237836811329144,"40":-0.08062580309555469,"41":0.0921552716662849,"42":-0.07960902752112124,"43":-0.022161119906292135,"44":0.06336579369523876,"45":-0.07301624251854968,"46":0.015426143037258087,"47":-0.0857172393588222,"48":0.050462281558890584,"49":0.017728543334762318,"50":0.06038937612130528,"51":0.0820812855977726,"52":0.037221263078277084,"53":0.08867545746855766,"54":-0.018018135141345853,"55":0.09342152945933085,"56":-0.012874716646747041,"57":-0.004330499690676144,"58":-0.1194981501427814,"59":0.12333477144879389,"60":-0.18731774557101766,"61":-0.10018385045783153,"62":-0.09033700193802452,"63":-0.1316094625340271,"64":-0.00907944532923855,"65":-0.05716049402322697,"66":0.0125160074466568,"67":0.06623927505220423,"68":-0.18871359110542982,"69":-0.05912008641886063,"70":-0.1987099908658948,"71":0.11491989377635285,"72":0.01890290169490372,"73":0.13331470695384662,"74":-0.04077934142776785,"75":-0.08413387336419047,"76":-0.0684297621323749,"77":0.03914383693773325,"78":-0.2126969183426259,"79":0.050645646375782664,"80":-0.10340400605122502,"81":-0.13535942144774382,"82":0.03790611892535153,"83":-0.05697267706448089,"84":-0.14065847260388215,"85":-0.13604354053605175,"86":-0.015029208709892859,"87":-0.040338140171598466,"88":0.07344547497119243,"89":0.05457483447575842,"90":0.09450460155756708,"91":-0.08512310566585042,"92":-0.0007318488435949129,"93":0.12864926205894023,"94":0.009008727849508234,"95":0.03703692934696788,"96":-0.02895900042811573,"97":0.018686182967064383,"98":0.14267224071796292,"99":0.11428740681477535,"100":-0.06626282525965033,"101":-0.22485168083142543,"102":0.10153747586712439,"103":-0.05675029949557886,"104":-0.015146358024355542,"105":-0.08322728191335983,"106":0.004328077187282268,"107":-0.10554447726626874,"108":-0.016877850974680635,"109":0.025386453036768276,"110":0.08508887494248686,"111":0.222967202838968,"112":-0.18220393587877512,"113":0.07568048201223283,"114":0.018438347939365704,"115":-0.040605116704752794,"116":-0.12439053875254814,"117":0.0067386421433984,"118":0.006518700164097197,"119":-0.1831212567591258,"120":0.1445986220140052,"121":0.13822899911798367,"122":-0.001724203757352716,"123":-0.09295489171846869,"124":0.05442560975681853,"125":0.018725594163482108,"126":0.05539972181865927,"127":-0.012874756179532456,"128":-0.2012751757997879,"129":0.055389178764266384,"130":-0.09317607535597856,"131":-0.09319415861293977,"132":-0.02280721617701552,"133":-0.1044577168128471,"134":0.05721167114775553,"135":-0.08294396379125009,"136":-0.05894404511882815,"137":0.05837389638884858,"138":0.11633564524792088,"139":-0.14318051638438747,"140":-0.26153276642706885,"141":-0.018628071636103263,"142":-0.09432818605327241,"143":-0.11543538859421193,"144":-0.059899727032916295,"145":-0.17851147475605986,"146":-0.0653493459168193,"147":0.033884039273831094,"148":-0.2150064081064715,"149":0.03912329436411454,"150":-0.21227038943846838,"151":-0.06113100471077103,"152":0.17613510970401258,"153":-0.03222584078438623,"154":0.09916577541698583,"155":0.07598149953915387,"156":-0.06978465294242481,"157":0.0934300621586121,"158":-0.1843506693620931,"159":-0.05450816131408193,"160":-0.012964862400737466,"161":-0.04709885673955558,"162":-0.301516362075216,"163":0.04414331548129254,"164":0.009326589946196503,"165":-0.17156792164800974,"166":-0.0017956673211729029,"167":0.14634761642913915,"168":-0.14774314575831854,"169":-0.10585974861747154,"170":-0.2413992957966791,"171":0.023750667549225092,"172":-0.043607351789828226,"173":-0.05973050057708087,"174":-0.003204156725232411,"175":-0.20604121285868893,"176":-0.18889049458516718,"177":-0.0600007223610663,"178":-0.17791965940640053,"179":-0.1244331495839852,"180":0.031494691112909874,"181":-0.03019633734777879,"182":0.024278293837226444,"183":0.08927880832086135,"184":0.0623173954557586,"185":0.08384678854965494,"186":0.1663912942815263,"187":0.0765403187538403,"188":-0.1006960568499484,"189":0.14817501481030376,"190":0.10742099283799247,"191":-0.013086982750056257,"192":-0.09169438395437877,"193":0.11495112161012738,"194":-0.1498511010952397,"195":-0.034591044920005816,"196":-0.09688067191494909,"197":-0.11787238089919805,"198":-0.026968118351556495,"199":-0.06204396177536606,"200":0.10725092345642497,"201":0.07263048347306064,"202":0.0744879480093209,"203":-0.03889801833467178,"204":-0.12517054568811917,"205":-0.07873117987752652,"206":0.0006873216392716373,"207":0.17968707351902025,"208":-0.13217694139405428,"209":-0.042490778676502215,"210":0.02011394388518805,"211":0.028104039249702152,"212":-0.07145056476314428,"213":-0.0014061544561395959,"214":0.1254478355967833,"215":-0.016512039637974676,"216":0.016940606139030853,"217":0.06597070274356537,"218":-0.029687216391381645,"219":-0.10855725066619001,"220":0.11444717581992567,"221":0.03960724909531693,"222":-0.08569736470254084,"223":-0.024643621551492825,"224":-0.07115096865625593,"225":-0.045192777536973774,"226":0.14980553689147438,"227":-0.08040013578576606,"228":-0.10318341304584976,"229":-0.07176876830755484,"230":-0.06527863657933305,"231":-0.15837991538587148,"232":-0.13598663806500216,"233":-0.13075405439930066,"234":0.035889610418156775,"235":0.05122454074363276,"236":0.16793991131545355,"237":-0.05901204293105843,"238":-0.07611110795662107,"239":-0.09528724585612623,"240":-0.12135326598682965,"241":-0.040086378585151676,"242":-0.12297164067043904,"243":0.008655806415395666,"244":0.03405788339464944,"245":0.033867944341625315,"246":0.06905520318883111,"247":0.04293819711913337,"248":0.05295999552916862,"249":0.14546324227685076,"250":0.07069870222478362,"251":0.07008947116786252,"252":-0.08188595345164595,"253":-0.12665051165651675,"254":-0.050173561055810494,"255":0.23926312717843587}},{"sx":1,"sy":1,"depth":256,"w":{"0":0.039485163575112954,"1":0.06576418706803182,"2":-0.042662431204799796,"3":0.04465599821305048,"4":0.009967658479914102,"5":-0.030129505389101013,"6":0.21763472331321312,"7":-0.03106241033170583,"8":0.07847760437553158,"9":0.031252760490652766,"10":0.005225207766749955,"11":-0.08319483487035044,"12":-0.0829403170574601,"13":0.02664937012041276,"14":-0.0032018244358880234,"15":0.042597331684672016,"16":-0.1068415141550699,"17":0.01591168918556534,"18":0.035268093725804237,"19":-0.10064493865137465,"20":0.042052656267528535,"21":-0.10170245991985434,"22":0.23664069610195448,"23":0.1524195575230181,"24":-0.1029390945178638,"25":0.050757879461240885,"26":0.09025999318469545,"27":-0.07050019978572385,"28":-0.06723995138128998,"29":-0.05801074433124803,"30":-0.08336357218758254,"31":-0.032217844348277055,"32":-0.02229619272420525,"33":0.037771478664256015,"34":0.017169267909370987,"35":0.020208771440788764,"36":-0.07496393228446058,"37":-0.09509787437768956,"38":-0.10832830656740104,"39":0.06952855270861569,"40":0.08946116982471129,"41":0.11617776421088281,"42":-0.02340244846052579,"43":0.056446785557399334,"44":-0.1078628697552721,"45":0.0008050562852252572,"46":0.16229429965977638,"47":-0.11798433953989734,"48":0.007579426602522192,"49":0.04923336316642217,"50":0.019295730531306076,"51":0.044710621262184135,"52":-0.015813567680019743,"53":-0.11123165931525013,"54":-0.03792462553141366,"55":0.008750665519669944,"56":0.19537254985447933,"57":-0.00416299340752315,"58":0.09058355311115335,"59":-0.1395696056251933,"60":-0.05388749621728755,"61":0.09092013268870851,"62":0.07194383890584909,"63":-0.2135497015985832,"64":0.003968350013673195,"65":0.08360534043356624,"66":-0.014488537465156852,"67":0.11988278341947463,"68":0.014162392711561295,"69":0.00807445626734753,"70":-0.016694743960434397,"71":0.06261026585497323,"72":-0.014953874708412147,"73":-0.0855221397579536,"74":0.016517308618241747,"75":-0.022134522313420047,"76":0.016635595239796575,"77":-0.09981811557879743,"78":-0.066241970537555,"79":0.09997796599778161,"80":-0.06700087396053164,"81":0.029939991442381443,"82":0.06188346783473362,"83":0.06797051159436462,"84":-0.1302652524124713,"85":-0.1369608796430132,"86":0.09898675138620228,